~o
<STREAMINFO> 1 39
<VECSIZE> 39<NULLD><MFCC_D_A_0><DIAGC>
~s "silst"
<MEAN> 39
 -1.689518e+01 -5.032952e+00 -6.826224e+00 -2.582187e+00 -2.697970e+00 1.104161e+00 -1.661333e-01 -1.404403e+00 -2.279132e+00 -3.748966e+00 -2.776451e+00 -1.278225e+00 2.567761e+01 -1.781737e-01 -4.577534e-02 -6.808402e-02 -6.082693e-02 -4.367047e-02 -1.752818e-02 -3.831451e-02 1.581065e-02 1.288661e-02 1.333782e-01 7.324360e-02 6.881830e-02 -2.524673e-01 -2.082129e-03 1.762903e-02 2.995938e-02 1.180012e-02 1.695760e-02 -2.099780e-02 -3.602662e-03 -4.738717e-03 1.507149e-02 3.232268e-03 1.334613e-02 1.357109e-02 1.179247e-02
<VARIANCE> 39
 4.830129e+00 1.070445e+01 1.170625e+01 1.354251e+01 1.590503e+01 1.772874e+01 1.774571e+01 2.282574e+01 1.788121e+01 1.894519e+01 1.704109e+01 1.454292e+01 7.834855e+00 2.546436e-01 5.178965e-01 7.829664e-01 1.106156e+00 1.458371e+00 1.702036e+00 1.843039e+00 1.997070e+00 1.852715e+00 1.830248e+00 1.686208e+00 1.434652e+00 2.113452e-01 4.630768e-02 9.010453e-02 1.477264e-01 1.957069e-01 2.739121e-01 3.198382e-01 3.604888e-01 4.064066e-01 3.691296e-01 3.713845e-01 3.427959e-01 2.866936e-01 3.944161e-02
<GCONST> 8.540567e+01
~h "b"
<BEGINHMM>
<NUMSTATES> 5
<STATE> 2
<MEAN> 39
 5.022512e+00 -1.578238e+01 -1.426843e+01 -6.749312e+00 -2.728114e+00 -6.752860e+00 -1.397697e+01 -1.627383e+00 -8.857987e+00 -7.723497e+00 -3.846694e+00 -7.979251e+00 5.222789e+01 1.933300e-02 4.225181e-01 4.231596e-01 7.786887e-01 -7.267643e-01 -8.563404e-01 1.422149e-01 2.374414e-01 2.849423e-01 -8.731682e-01 -1.384377e-01 -1.040329e-01 -5.574690e-01 -9.186395e-02 1.159575e-01 1.049185e-01 -9.985511e-02 1.810314e-03 7.593669e-02 5.395445e-02 -8.348429e-02 2.814812e-02 1.039674e-02 3.282943e-02 5.999900e-02 -8.162744e-02
<VARIANCE> 39
 1.816091e+01 5.780103e+01 7.810878e+01 5.827608e+01 1.005156e+02 1.808759e+02 4.282598e+01 9.937656e+01 3.647267e+01 9.719486e+01 4.301815e+01 1.704940e+01 2.028184e+01 7.828824e-01 2.477631e+00 2.203323e+00 2.267207e+00 2.786565e+00 3.359072e+00 2.672376e+00 3.785426e+00 2.779997e+00 2.575485e+00 2.085529e+00 1.737870e+00 7.163950e-01 9.401217e-02 1.779515e-01 2.210331e-01 3.792864e-01 4.646781e-01 3.795780e-01 4.518988e-01 4.865773e-01 4.100975e-01 4.991665e-01 3.672326e-01 2.347894e-01 6.914336e-02
<GCONST> 1.162182e+02
<STATE> 3
<MEAN> 39
 1.415155e+00 -2.726256e+00 -1.839535e+00 -8.313643e+00 -1.527935e+01 -1.178600e+01 -1.099229e+01 -9.602038e+00 -8.115621e+00 -1.259402e+01 -9.193161e+00 -7.446537e+00 4.461912e+01 -7.640375e-01 1.677992e+00 -1.448887e-01 1.863746e-01 2.954500e-01 3.512780e-01 4.526069e-01 -4.841075e-01 5.349680e-01 3.315883e-01 -2.367158e-01 -4.403413e-01 -1.736782e+00 -2.321654e-01 -2.170675e-01 -1.654948e-01 4.522464e-02 3.013084e-01 1.868908e-01 5.998615e-02 8.155953e-02 -6.962316e-02 2.702751e-01 1.331934e-01 -2.260082e-02 1.122391e-03
<VARIANCE> 39
 3.193736e+01 5.208437e+01 6.059900e+01 3.437073e+01 6.193332e+01 2.889051e+01 2.964425e+01 8.134384e+01 5.515565e+01 5.294522e+01 7.560854e+01 3.617012e+01 1.694614e+01 1.242251e+00 1.825166e+00 2.738460e+00 2.439107e+00 1.976746e+00 3.110682e+00 2.370410e+00 3.362468e+00 3.516346e+00 4.463346e+00 2.935634e+00 3.228635e+00 3.731811e-01 1.651833e-01 2.990258e-01 4.447576e-01 4.020570e-01 4.286519e-01 3.812654e-01 5.277856e-01 5.357187e-01 7.492000e-01 7.018377e-01 6.959432e-01 6.509148e-01 7.061139e-02
<GCONST> 1.194733e+02
<STATE> 4
<MEAN> 39
 -5.616633e+00 -4.332506e-01 -5.066100e+00 -7.703742e+00 -1.130714e+01 -6.442192e+00 -7.747205e+00 -1.156333e+01 -9.265009e+00 -1.054937e+01 -9.074259e+00 -6.412727e+00 3.574133e+01 -1.089362e+00 -6.617557e-02 -2.365374e-01 6.663072e-01 9.351996e-01 5.944605e-01 4.134668e-01 1.532795e-01 7.217966e-02 2.773854e-02 3.095463e-01 2.344380e-01 -1.078377e+00 -3.623144e-02 -3.432922e-01 2.057407e-01 4.185189e-02 -5.365789e-02 -1.684634e-01 -1.344902e-01 1.185638e-01 5.654745e-02 1.671983e-02 2.205876e-01 1.770076e-01 3.257850e-01
<VARIANCE> 39
 4.106904e+01 2.256334e+01 2.636945e+01 2.391491e+01 4.408682e+01 2.952768e+01 1.857845e+01 3.478717e+01 3.577590e+01 3.463991e+01 3.229961e+01 2.282813e+01 2.587502e+01 6.331468e-01 1.803344e+00 2.282663e+00 1.202793e+00 1.759284e+00 1.878197e+00 2.057507e+00 3.267640e+00 3.089049e+00 2.444605e+00 2.756685e+00 2.179953e+00 4.567072e-01 2.003486e-01 2.913688e-01 2.587988e-01 2.063969e-01 3.747864e-01 3.894328e-01 4.361016e-01 6.920030e-01 6.248427e-01 5.742922e-01 5.635194e-01 5.419328e-01 1.283439e-01
<GCONST> 1.096945e+02
<TRANSP> 5
 0.000000e+00 1.000000e+00 0.000000e+00 0.000000e+00 0.000000e+00
 0.000000e+00 8.295959e-01 1.704041e-01 0.000000e+00 0.000000e+00
 0.000000e+00 0.000000e+00 6.253003e-01 3.746997e-01 0.000000e+00
 0.000000e+00 0.000000e+00 0.000000e+00 7.326623e-01 2.673378e-01
 0.000000e+00 0.000000e+00 0.000000e+00 0.000000e+00 0.000000e+00
<ENDHMM>
~h "d"
<BEGINHMM>
<NUMSTATES> 5
<STATE> 2
<MEAN> 39
 -8.113013e+00 -5.034661e-02 -2.914755e+00 -6.337449e+00 -9.416713e+00 -9.554502e+00 -7.920755e+00 -1.148075e+01 -8.405807e+00 -9.717585e+00 -6.563337e+00 -5.089995e+00 3.981459e+01 -1.425498e+00 -2.582660e-01 5.720334e-01 -6.709285e-01 1.125373e+00 -5.031829e-01 -9.897597e-02 -9.106815e-01 3.093293e-01 4.632111e-01 5.077627e-01 4.160334e-01 1.425961e+00 7.074621e-02 -4.755142e-01 4.055631e-01 -7.420298e-01 5.841853e-02 -3.108457e-01 -2.924914e-01 1.167558e-01 -7.375598e-02 4.076565e-01 2.685856e-02 3.805609e-01 9.605515e-01
<VARIANCE> 39
 6.394665e+01 4.901031e+01 4.361067e+01 4.563665e+01 5.670267e+01 5.125307e+01 4.856244e+01 6.341919e+01 4.894449e+01 5.191623e+01 5.421822e+01 3.054427e+01 9.759931e+01 7.372353e+00 6.229255e+00 6.348897e+00 6.108299e+00 7.460195e+00 6.233885e+00 5.093417e+00 6.803816e+00 5.051833e+00 4.741179e+00 4.162245e+00 3.921304e+00 8.816643e+00 1.164245e+00 8.775811e-01 8.626457e-01 8.116555e-01 1.287428e+00 8.285508e-01 8.726526e-01 1.253947e+00 9.326192e-01 8.066390e-01 8.298137e-01 7.330743e-01 1.221654e+00
<GCONST> 1.454172e+02
<STATE> 3
<MEAN> 39
 -9.955585e+00 -6.891693e+00 1.773157e+00 -1.429082e+01 -5.881624e+00 -1.266721e+01 -1.124512e+01 -1.156789e+01 -7.602634e+00 -4.109384e+00 -5.144477e+00 -5.588007e-01 5.142581e+01 5.726324e-01 -1.523271e+00 1.039430e+00 -1.408371e+00 -7.573109e-03 -7.500009e-01 -5.339715e-01 1.033362e+00 -2.553566e-01 7.906281e-01 -5.333634e-01 8.078432e-01 2.193044e+00 4.022254e-01 1.646899e-01 -2.357915e-01 5.687438e-01 -1.822524e-01 3.462441e-01 2.553934e-01 4.436539e-01 -1.097766e-02 -2.951535e-01 -3.578883e-01 -3.155063e-01 -7.011522e-01
<VARIANCE> 39
 8.501522e+01 7.467500e+01 8.258461e+01 7.172348e+01 9.688156e+01 9.123891e+01 9.146908e+01 8.885221e+01 6.202372e+01 5.809391e+01 5.043228e+01 4.680313e+01 4.966986e+01 7.541902e+00 7.567908e+00 6.544101e+00 8.337367e+00 8.385692e+00 8.075656e+00 9.397017e+00 1.009333e+01 7.404604e+00 6.058965e+00 5.946938e+00 5.965958e+00 1.162142e+01 1.469804e+00 1.247924e+00 1.206375e+00 1.280406e+00 1.905778e+00 1.636506e+00 1.594199e+00 1.854696e+00 1.284356e+00 1.044048e+00 1.042346e+00 1.200542e+00 1.425383e+00
<GCONST> 1.578431e+02
<STATE> 4
<MEAN> 39
 -5.539792e+00 -9.374815e+00 2.825652e+00 -1.134637e+01 -7.576709e+00 -1.360045e+01 -1.017826e+01 -6.539457e+00 -1.055282e+01 -7.984017e+00 -9.408160e+00 -1.901505e+00 5.186803e+01 1.796510e-01 7.753253e-01 -2.454072e-01 5.587685e-01 -4.519992e-01 4.521447e-01 2.817392e-01 1.867673e-01 2.741127e-01 -4.328784e-01 -5.414902e-02 -5.664425e-01 -9.252849e-01 -9.954773e-02 1.314592e-01 -2.613421e-01 1.295500e-01 7.461198e-04 9.986341e-02 -4.654366e-02 -1.724719e-01 8.932848e-02 -4.300661e-03 1.479067e-01 -6.912097e-02 -2.202892e-01
<VARIANCE> 39
 6.482883e+01 1.103813e+02 7.113612e+01 7.432543e+01 7.127409e+01 1.034995e+02 7.405735e+01 7.216728e+01 5.853759e+01 5.961185e+01 6.118452e+01 4.605982e+01 8.127699e+01 3.323838e+00 4.286526e+00 4.628322e+00 4.069160e+00 5.067420e+00 5.217747e+00 5.102412e+00 5.337635e+00 4.252361e+00 4.321269e+00 4.217323e+00 4.110674e+00 3.136511e+00 5.621867e-01 7.427260e-01 7.395626e-01 6.692811e-01 9.149611e-01 9.792650e-01 1.007709e+00 9.005935e-01 8.323559e-01 8.768669e-01 7.663382e-01 8.196276e-01 6.396067e-01
<GCONST> 1.431834e+02
<TRANSP> 5
 0.000000e+00 1.000000e+00 0.000000e+00 0.000000e+00 0.000000e+00
 0.000000e+00 6.515264e-01 3.484736e-01 0.000000e+00 0.000000e+00
 0.000000e+00 0.000000e+00 6.734564e-01 3.265436e-01 0.000000e+00
 0.000000e+00 0.000000e+00 0.000000e+00 7.616456e-01 2.383544e-01
 0.000000e+00 0.000000e+00 0.000000e+00 0.000000e+00 0.000000e+00
<ENDHMM>
~h "f"
<BEGINHMM>
<NUMSTATES> 5
<STATE> 2
<MEAN> 39
 -1.518801e+01 -3.816935e+00 -2.662899e+00 -1.003962e+01 -5.966984e+00 -7.976335e+00 -4.967019e+00 -8.230968e+00 -4.844172e+00 -1.099020e+01 -8.345203e+00 -5.842936e+00 4.341394e+01 3.847447e-02 -3.037890e-01 1.119852e+00 6.161242e-02 -6.669085e-02 -1.085613e+00 -1.264128e+00 -6.547239e-01 -6.155397e-01 1.753382e-02 7.339400e-02 6.901271e-01 5.765795e-01 4.853471e-01 -2.312011e-01 6.904808e-02 -6.622869e-02 -1.221489e-01 -3.313019e-01 -5.515355e-01 -1.208159e-01 -3.672558e-01 7.188355e-02 -5.693435e-02 2.360325e-01 3.689389e-01
<VARIANCE> 39
 5.541610e+01 2.569275e+01 7.971781e+01 5.050325e+01 2.476917e+01 5.467189e+01 3.543799e+01 3.980856e+01 4.123545e+01 6.321521e+01 4.386832e+01 3.238142e+01 8.815063e+01 8.028547e+00 3.950937e+00 5.056609e+00 6.787638e+00 3.408645e+00 6.595475e+00 6.779563e+00 5.665630e+00 4.155549e+00 2.550588e+00 5.069110e+00 4.225036e+00 8.785313e+00 7.778256e-01 4.436463e-01 6.703736e-01 7.644815e-01 5.469668e-01 8.583405e-01 1.002939e+00 6.576793e-01 6.249295e-01 6.951105e-01 8.476717e-01 5.593492e-01 7.004820e-01
<GCONST> 1.378164e+02
<STATE> 3
<MEAN> 39
 -7.133748e+00 -6.628656e+00 2.035875e+00 -1.132061e+01 -7.872259e+00 -1.697026e+01 -1.710536e+01 -1.190524e+01 -8.386152e+00 -5.648149e+00 -9.230153e+00 7.424989e-01 4.973837e+01 1.520795e+00 -1.411646e+00 5.317086e-01 -5.874407e-01 -3.184260e-01 -4.313859e-01 -1.221516e+00 4.362098e-01 -4.808713e-01 4.065788e-01 -8.095012e-01 -1.545190e-01 1.538384e+00 -3.094869e-01 1.892740e-01 -2.936646e-01 3.358513e-01 1.536106e-01 6.314243e-01 7.322310e-01 2.427165e-01 1.449869e-01 -7.620174e-02 1.117615e-01 -4.203893e-01 -5.432476e-01
<VARIANCE> 39
 5.738837e+01 5.726132e+01 6.815017e+01 5.666739e+01 4.486973e+01 7.215788e+01 5.135944e+01 7.103709e+01 5.359403e+01 7.421954e+01 5.209116e+01 6.128754e+01 6.107681e+01 5.863488e+00 5.121571e+00 4.599473e+00 5.578114e+00 3.810332e+00 9.044415e+00 7.397280e+00 6.413836e+00 4.035241e+00 7.180246e+00 5.191013e+00 6.573736e+00 8.896605e+00 1.120728e+00 9.062784e-01 8.170118e-01 9.049606e-01 6.131327e-01 1.051100e+00 1.054556e+00 1.169698e+00 6.314669e-01 1.081304e+00 1.134871e+00 1.083448e+00 9.812810e-01
<GCONST> 1.472063e+02
<STATE> 4
<MEAN> 39
 -9.381363e+00 -7.663924e+00 1.607287e-01 -6.287469e+00 -9.394308e+00 -1.412348e+01 -1.289382e+01 -9.454641e+00 -8.213277e+00 -9.247325e+00 -8.125601e+00 -3.565758e+00 4.689279e+01 -5.482182e-01 8.956666e-02 -6.996991e-02 4.434495e-01 1.845668e-02 2.864468e-01 4.005900e-01 -1.396324e-01 -3.681042e-02 -2.882816e-03 2.063819e-01 -6.394230e-02 -6.642932e-01 2.796506e-02 8.719841e-02 -6.861903e-02 -4.384821e-02 4.118455e-02 3.372512e-02 1.370241e-02 -3.304503e-02 8.006183e-02 4.200666e-02 9.787035e-02 8.833254e-02 8.024057e-03
<VARIANCE> 39
 7.912285e+01 6.824017e+01 3.454369e+01 7.616728e+01 5.048918e+01 6.010917e+01 4.062888e+01 8.641163e+01 4.324866e+01 6.849957e+01 3.909727e+01 3.753724e+01 8.153970e+01 2.663665e+00 2.891269e+00 1.982259e+00 3.172631e+00 2.569722e+00 2.546809e+00 3.183934e+00 3.873497e+00 3.188854e+00 3.444843e+00 2.950318e+00 1.975656e+00 1.158073e+00 6.375350e-01 4.267107e-01 4.091105e-01 6.202792e-01 4.892775e-01 5.197426e-01 6.060337e-01 7.938412e-01 5.939646e-01 5.859318e-01 6.484911e-01 4.301221e-01 1.897635e-01
<GCONST> 1.278231e+02
<TRANSP> 5
 0.000000e+00 1.000000e+00 0.000000e+00 0.000000e+00 0.000000e+00
 0.000000e+00 6.596466e-01 3.403534e-01 0.000000e+00 0.000000e+00
 0.000000e+00 0.000000e+00 6.779759e-01 3.220241e-01 0.000000e+00
 0.000000e+00 0.000000e+00 0.000000e+00 8.664842e-01 1.335159e-01
 0.000000e+00 0.000000e+00 0.000000e+00 0.000000e+00 0.000000e+00
<ENDHMM>
~h "g"
<BEGINHMM>
<NUMSTATES> 5
<STATE> 2
<MEAN> 39
 -1.633029e+01 -3.622962e+00 -9.892420e+00 -2.554052e+00 -5.787066e+00 -3.626506e+00 -4.908143e+00 -9.030470e+00 -3.481291e+00 -4.868506e+00 -4.754230e+00 -2.900542e+00 4.126083e+01 8.003238e-01 -1.855485e-01 -2.809159e-01 -4.772112e-01 5.504312e-01 -4.295316e-01 -5.252354e-01 -4.081628e-02 -1.981713e-01 1.494504e-01 5.735271e-01 2.619235e-01 7.781652e-01 2.395606e-01 -1.615577e-01 2.729964e-01 -2.547094e-01 -1.182591e-01 3.507447e-02 -8.877200e-02 1.889883e-01 -8.899581e-02 1.271538e-02 -3.121207e-01 -1.011752e-01 4.828671e-01
<VARIANCE> 39
 1.427263e+02 9.673107e+01 5.464909e+01 2.786993e+01 4.167226e+01 6.823425e+01 4.306123e+01 4.402399e+01 5.825989e+01 4.695348e+01 4.033552e+01 1.959795e+01 9.355046e+01 1.131126e+01 8.973078e+00 6.357157e+00 5.718580e+00 4.730125e+00 8.012643e+00 5.469411e+00 6.909933e+00 5.092378e+00 5.284822e+00 3.900005e+00 2.736699e+00 1.263493e+01 1.393005e+00 9.866820e-01 1.241552e+00 1.289561e+00 9.565190e-01 1.020864e+00 7.282085e-01 1.158503e+00 9.453440e-01 1.227929e+00 1.102124e+00 4.164265e-01 1.876921e+00
<GCONST> 1.474360e+02
<STATE> 3
<MEAN> 39
 -6.216936e+00 -1.368272e+01 -1.292703e+01 -6.174830e+00 -5.160071e+00 -4.100892e+00 -1.314163e+01 -5.786747e+00 -9.061106e+00 -3.881211e+00 -9.522365e+00 -4.523233e+00 5.706668e+01 1.055657e-01 2.449140e-01 1.463794e+00 -4.944228e-01 -1.298550e+00 -1.041779e+00 -1.227736e-01 -1.063105e-01 -4.831950e-01 1.372338e-01 -3.868738e-01 -4.469774e-01 1.080307e+00 2.095096e-02 1.278885e-01 3.473516e-01 -1.120953e-02 -3.945459e-01 1.525268e-01 2.220398e-01 -7.708619e-02 6.386506e-02 7.080063e-03 -2.010291e-02 -5.152391e-02 -5.283598e-01
<VARIANCE> 39
 1.159560e+02 1.909423e+02 1.564212e+02 6.369701e+01 7.826308e+01 1.184239e+02 7.992177e+01 8.080935e+01 2.907927e+01 6.776962e+01 6.476122e+01 3.854450e+01 4.943514e+01 5.078250e+00 7.307172e+00 1.320637e+01 7.549456e+00 7.953623e+00 9.180395e+00 6.040855e+00 3.674735e+00 3.985031e+00 5.945387e+00 7.091331e+00 3.419908e+00 1.032001e+01 1.139077e+00 1.025387e+00 1.094210e+00 8.866565e-01 1.726948e+00 1.753393e+00 1.129823e+00 8.261836e-01 7.906834e-01 1.128093e+00 1.511817e+00 5.123084e-01 1.020909e+00
<GCONST> 1.532152e+02
<STATE> 4
<MEAN> 39
 -2.598242e+00 -6.315889e+00 4.531191e+00 -8.735165e+00 -1.148726e+01 -1.434964e+01 -1.145674e+01 -1.408409e+01 -1.271415e+01 -5.321779e+00 -9.248786e+00 -6.098279e+00 5.071166e+01 5.606392e-01 -1.053171e-01 -4.392573e-01 5.562537e-01 1.893148e-01 2.866282e-01 -1.542150e-01 1.125971e-01 5.465678e-02 4.009985e-02 -1.968364e-01 -1.553679e-01 -5.591787e-01 -8.835155e-02 -2.624575e-03 -4.418363e-01 1.086094e-01 2.991492e-01 1.907592e-01 -3.052035e-02 1.165735e-02 9.572271e-02 3.242273e-03 1.301765e-01 5.272353e-02 -9.138295e-02
<VARIANCE> 39
 2.469954e+01 8.681521e+01 1.146722e+02 7.743786e+01 1.856172e+02 9.566904e+01 7.279671e+01 9.465285e+01 3.620270e+01 4.866235e+01 4.899352e+01 4.517706e+01 4.548522e+01 3.071232e+00 6.647231e+00 9.463675e+00 5.104435e+00 1.386375e+01 8.850889e+00 4.711833e+00 8.050914e+00 3.847547e+00 7.244434e+00 6.239661e+00 4.739540e+00 3.746594e+00 3.996149e-01 1.419863e+00 1.173582e+00 9.169110e-01 2.496813e+00 2.044898e+00 8.070372e-01 1.540171e+00 9.033898e-01 1.524607e+00 1.287524e+00 1.017443e+00 6.909648e-01
<GCONST> 1.510054e+02
<TRANSP> 5
 0.000000e+00 1.000000e+00 0.000000e+00 0.000000e+00 0.000000e+00
 0.000000e+00 8.486785e-01 1.513215e-01 0.000000e+00 0.000000e+00
 0.000000e+00 0.000000e+00 8.561366e-01 1.438635e-01 0.000000e+00
 0.000000e+00 0.000000e+00 0.000000e+00 9.269980e-01 7.300203e-02
 0.000000e+00 0.000000e+00 0.000000e+00 0.000000e+00 0.000000e+00
<ENDHMM>
~h "k"
<BEGINHMM>
<NUMSTATES> 5
<STATE> 2
<MEAN> 39
 -5.062064e+00 -2.076144e+00 -3.277964e+00 -5.674846e+00 -1.219796e+01 -8.493182e+00 -8.053176e+00 -7.969891e+00 -5.652659e+00 -9.151299e+00 -9.197069e+00 -8.469662e+00 4.080276e+01 -6.563683e-01 -2.913570e-01 -3.383332e-01 3.557624e-01 5.947867e-01 4.115226e-01 6.149450e-01 -2.067950e-02 1.723422e-01 8.522695e-02 3.330229e-01 -1.419693e-01 -6.407862e-01 -1.670838e-01 -6.457593e-01 -6.771949e-02 -4.699759e-02 7.349862e-01 -2.734768e-01 -1.298690e-01 -5.514205e-01 -1.315109e-01 5.996528e-01 3.413467e-01 6.314346e-01 7.335465e-01
<VARIANCE> 39
 4.136095e+01 6.128958e+01 6.329748e+01 5.399439e+01 9.732220e+01 4.115900e+01 4.808274e+01 5.372336e+01 5.612594e+01 4.734924e+01 6.427322e+01 5.374004e+01 8.060394e+01 1.865216e+00 4.378333e+00 2.733670e+00 2.611414e+00 4.659559e+00 4.892395e+00 2.875242e+00 4.536513e+00 4.922827e+00 3.620673e+00 3.661016e+00 2.210868e+00 3.475390e+00 5.223837e-01 1.113277e+00 1.157488e+00 8.781506e-01 1.187085e+00 9.954980e-01 8.385860e-01 9.803317e-01 1.326365e+00 7.871702e-01 9.595167e-01 8.702208e-01 1.054183e+00
<GCONST> 1.395649e+02
<STATE> 3
<MEAN> 39
 -7.477480e+00 -2.581941e+00 -3.571509e+00 -4.987837e+00 -8.933580e+00 -8.606915e+00 -7.510446e+00 -1.019765e+01 -6.683233e+00 -8.250704e+00 -7.048776e+00 -7.173630e+00 3.860669e+01 -1.128363e+00 -2.241833e+00 -4.936338e-01 -6.894686e-02 2.007689e+00 -7.994317e-01 7.871727e-01 -1.523315e+00 3.473001e-01 1.628077e+00 1.369952e+00 1.544250e+00 1.930620e+00 1.618002e-02 -3.966659e-01 -8.527972e-03 -3.880480e-01 1.973810e-01 -3.628854e-01 -9.272185e-02 -2.023013e-01 -3.535095e-02 3.892937e-01 6.234361e-02 6.474426e-01 1.055347e+00
<VARIANCE> 39
 3.876627e+01 4.785006e+01 5.593419e+01 4.723887e+01 8.184220e+01 6.210460e+01 5.617927e+01 5.625000e+01 5.247333e+01 4.545010e+01 6.030877e+01 4.473419e+01 8.766566e+01 5.314177e+00 6.836826e+00 1.093578e+01 4.803474e+00 9.985012e+00 7.974079e+00 6.975040e+00 5.716886e+00 7.463916e+00 5.506172e+00 5.711753e+00 6.100637e+00 5.201671e+00 3.865874e-01 8.376281e-01 1.053466e+00 8.687915e-01 1.089550e+00 1.180791e+00 8.186206e-01 1.025766e+00 1.071884e+00 1.137087e+00 1.006347e+00 7.985157e-01 1.197579e+00
<GCONST> 1.473785e+02
<STATE> 4
<MEAN> 39
 -6.650179e+00 -9.862874e+00 -5.050158e+00 -7.547469e+00 -4.070835e+00 -1.034484e+01 -7.035468e+00 -1.202103e+01 -6.474613e+00 -4.521351e+00 -6.793608e+00 -4.091841e+00 4.897313e+01 2.716267e-01 -6.956505e-01 1.532261e-01 -1.076379e+00 5.730378e-01 -3.408400e-02 -1.101745e-01 -2.693116e-01 -1.572935e-01 7.311046e-01 -3.067183e-01 5.977392e-01 1.735832e+00 2.536712e-01 3.282693e-01 1.689140e-03 -8.449799e-02 -2.638524e-01 1.837566e-01 -1.200109e-01 2.940088e-01 -4.854248e-02 -2.546480e-01 -3.200904e-01 -2.229152e-01 -3.089372e-01
<VARIANCE> 39
 7.344527e+01 8.029028e+01 1.191363e+02 8.577172e+01 1.154340e+02 9.198373e+01 6.837563e+01 6.735246e+01 5.690565e+01 7.110953e+01 8.032781e+01 4.328410e+01 7.348176e+01 6.188871e+00 9.785771e+00 1.024521e+01 7.655015e+00 9.938653e+00 9.020374e+00 8.605760e+00 9.781622e+00 7.685708e+00 7.809942e+00 6.872364e+00 6.467774e+00 7.908885e+00 8.094659e-01 1.535316e+00 1.678511e+00 1.318901e+00 1.821152e+00 1.973756e+00 1.503988e+00 1.728072e+00 1.207626e+00 1.284217e+00 1.152434e+00 8.961358e-01 1.011656e+00
<GCONST> 1.591342e+02
<TRANSP> 5
 0.000000e+00 1.000000e+00 0.000000e+00 0.000000e+00 0.000000e+00
 0.000000e+00 3.762673e-01 6.237327e-01 0.000000e+00 0.000000e+00
 0.000000e+00 0.000000e+00 2.025414e-01 7.974586e-01 0.000000e+00
 0.000000e+00 0.000000e+00 0.000000e+00 7.326248e-01 2.673751e-01
 0.000000e+00 0.000000e+00 0.000000e+00 0.000000e+00 0.000000e+00
<ENDHMM>
~h "l"
<BEGINHMM>
<NUMSTATES> 5
<STATE> 2
<MEAN> 39
 -2.753526e+00 -9.873275e+00 6.558256e-01 -1.413597e+01 -2.944658e+00 -9.724497e+00 -1.836176e+01 -1.052283e+01 -7.630506e+00 -7.578200e+00 -1.153433e+01 -7.426906e-02 5.320111e+01 9.285948e-01 -1.447112e+00 3.527795e-01 -1.378373e+00 7.564005e-01 -9.023938e-03 -1.241567e+00 7.602445e-01 3.303792e-01 6.311403e-01 -1.353852e+00 6.454788e-01 1.580295e+00 -2.725331e-01 2.211709e-02 -1.057801e-01 9.035891e-02 1.224607e-01 2.314832e-01 5.459931e-01 2.260377e-01 -1.348139e-01 8.777268e-02 -3.860485e-02 -2.839974e-01 -1.525974e-01
<VARIANCE> 39
 4.539882e+01 8.666969e+01 7.814265e+01 9.625607e+01 1.056693e+02 1.193938e+02 7.518049e+01 8.855502e+01 5.521932e+01 7.425481e+01 5.162062e+01 6.261663e+01 7.855457e+01 6.010596e+00 5.736799e+00 5.552997e+00 8.176570e+00 1.070526e+01 8.771088e+00 1.005078e+01 8.251837e+00 4.504389e+00 6.254399e+00 5.309857e+00 5.057338e+00 7.475084e+00 7.322068e-01 1.112597e+00 7.137063e-01 1.131460e+00 1.560893e+00 1.338148e+00 1.481135e+00 1.812548e+00 6.049033e-01 1.167999e+00 8.641244e-01 1.030388e+00 1.119724e+00
<GCONST> 1.538017e+02
<STATE> 3
<MEAN> 39
 -2.522510e+00 -1.497430e+01 1.798872e+00 -2.064508e+01 1.827851e+00 -1.184564e+01 -1.832618e+01 -5.449915e+00 -6.644304e+00 -6.586570e+00 -1.732026e+01 -4.398509e-01 5.825564e+01 5.336515e-02 5.846647e-01 -2.354648e-01 -1.336774e-01 1.838439e-01 -8.931228e-02 1.327225e-01 -3.099499e-01 -5.851266e-02 1.538680e-01 -4.829451e-02 -6.986296e-01 -3.178636e-01 -2.060391e-02 2.727666e-01 -1.482851e-01 2.969570e-01 -2.884279e-01 7.570525e-02 1.002091e-01 -2.239992e-01 -3.915213e-02 -7.977509e-02 3.111815e-01 -1.722945e-01 -1.959971e-01
<VARIANCE> 39
 1.602598e+01 4.557155e+01 4.594069e+01 6.942833e+01 8.535863e+01 8.640137e+01 7.201849e+01 6.590346e+01 7.493060e+01 8.838734e+01 4.938618e+01 4.127924e+01 2.264485e+01 9.810315e-01 2.547178e+00 2.208967e+00 3.632018e+00 4.864250e+00 4.855310e+00 5.338479e+00 4.351400e+00 4.617543e+00 3.944692e+00 3.235049e+00 2.846920e+00 1.438292e+00 1.465903e-01 3.946078e-01 3.557990e-01 6.672171e-01 6.727850e-01 8.704577e-01 8.297216e-01 8.230336e-01 7.924182e-01 8.722091e-01 6.243585e-01 5.681150e-01 2.040962e-01
<GCONST> 1.298396e+02
<STATE> 4
<MEAN> 39
 1.005975e+00 -8.566691e+00 -8.114320e+00 -1.898437e+01 -6.394199e-01 -2.825093e+00 -1.576648e+01 -1.085856e+01 -4.642789e+00 -4.076544e+00 -1.075602e+01 -6.097236e+00 5.241655e+01 -1.100056e-01 9.189025e-01 -3.405211e-01 7.752668e-01 -6.167027e-01 -2.881768e-01 5.889138e-01 -7.764069e-02 -8.851196e-02 -3.949396e-01 3.865770e-01 -2.954844e-01 -9.764766e-01 -1.244240e-01 -4.636890e-02 6.888092e-02 1.027232e-01 -5.786508e-02 -7.522108e-02 4.983996e-02 3.107089e-02 4.428115e-03 -2.209318e-02 -1.774625e-02 5.428923e-02 -1.442974e-02
<VARIANCE> 39
 2.589186e+01 1.026411e+02 5.193133e+01 1.013484e+02 8.787360e+01 1.161036e+02 7.113266e+01 5.883265e+01 6.132586e+01 5.133416e+01 5.946109e+01 4.800054e+01 6.034879e+01 1.563363e+00 2.012700e+00 2.006373e+00 3.511944e+00 3.578463e+00 3.825015e+00 3.265129e+00 3.464889e+00 3.539275e+00 3.042225e+00 3.353541e+00 2.564532e+00 8.852023e-01 1.770566e-01 2.733957e-01 2.647796e-01 4.915250e-01 5.546238e-01 5.330736e-01 5.393111e-01 5.855871e-01 6.894933e-01 5.370692e-01 6.374089e-01 4.412304e-01 1.040959e-01
<GCONST> 1.263966e+02
<TRANSP> 5
 0.000000e+00 1.000000e+00 0.000000e+00 0.000000e+00 0.000000e+00
 0.000000e+00 6.433421e-01 3.566579e-01 0.000000e+00 0.000000e+00
 0.000000e+00 0.000000e+00 7.551525e-01 2.448475e-01 0.000000e+00
 0.000000e+00 0.000000e+00 0.000000e+00 8.471022e-01 1.528978e-01
 0.000000e+00 0.000000e+00 0.000000e+00 0.000000e+00 0.000000e+00
<ENDHMM>
~h "m"
<BEGINHMM>
<NUMSTATES> 5
<STATE> 2
<MEAN> 39
 8.819115e-02 -1.190160e+01 1.613045e+00 -1.252705e+01 -5.854621e+00 -1.225262e+01 -1.817249e+01 -8.328989e+00 -9.477921e+00 -8.312650e+00 -1.204343e+01 -3.798169e+00 5.467421e+01 1.344029e+00 6.978219e-01 -8.112271e-01 1.337481e+00 4.523090e-02 2.976703e-01 -1.457585e+00 -8.110598e-01 -5.212770e-01 -3.039150e-01 -1.816210e-01 -1.921987e+00 -8.953655e-01 -1.293984e-01 2.179704e-01 -2.546397e-01 4.085241e-01 1.281513e-01 6.430664e-02 9.297742e-02 -1.604583e-01 -1.223069e-01 -1.285471e-02 2.585461e-01 -1.856045e-01 -2.107521e-01
<VARIANCE> 39
 1.854772e+01 1.129849e+02 3.167919e+01 7.642101e+01 6.017545e+01 8.191452e+01 4.522109e+01 7.081722e+01 5.463386e+01 5.757785e+01 4.195710e+01 5.518316e+01 5.310345e+01 2.327821e+00 4.207314e+00 1.977547e+00 3.946429e+00 3.310486e+00 2.945928e+00 4.630112e+00 5.069084e+00 4.040099e+00 4.454970e+00 2.986291e+00 3.482432e+00 2.238797e+00 2.559489e-01 9.397069e-01 4.288042e-01 6.410576e-01 4.740902e-01 8.052951e-01 6.410801e-01 7.908714e-01 6.128653e-01 6.676326e-01 7.943456e-01 8.673973e-01 3.603127e-01
<GCONST> 1.326270e+02
<STATE> 3
<MEAN> 39
 4.589073e+00 -1.071150e+01 -5.152862e+00 -4.628911e+00 -1.092810e+00 -8.970813e+00 -2.344462e+01 -1.281665e+01 -1.314900e+01 -7.842381e+00 -7.261333e+00 -1.158121e+01 5.107886e+01 1.383034e-01 -4.722534e-01 -5.784526e-01 -1.367836e-01 7.724448e-01 6.659182e-01 -3.461456e-01 2.446636e-01 1.531464e-01 -1.057209e-01 3.414294e-01 -5.683292e-02 1.031509e-01 -2.313003e-01 -1.577645e-01 1.368612e-01 -4.306056e-01 -3.727187e-02 1.025492e-01 3.129370e-01 2.439081e-01 2.754505e-01 4.621419e-02 -1.348925e-01 3.815751e-01 1.421259e-01
<VARIANCE> 39
 1.234409e+01 4.971739e+01 3.606688e+01 7.717051e+01 5.502519e+01 6.426807e+01 4.924791e+01 7.139779e+01 5.495023e+01 4.939438e+01 4.708589e+01 4.451049e+01 2.276126e+01 1.021335e+00 3.735429e+00 1.894668e+00 8.287177e+00 3.466071e+00 3.680202e+00 3.875162e+00 5.533153e+00 4.085917e+00 3.325148e+00 3.880806e+00 3.513099e+00 1.706191e+00 1.898273e-01 3.345646e-01 2.573304e-01 9.098400e-01 6.246904e-01 5.337394e-01 6.776400e-01 1.000729e+00 6.819026e-01 5.848167e-01 7.466632e-01 5.487378e-01 1.286405e-01
<GCONST> 1.269455e+02
<STATE> 4
<MEAN> 39
 3.344275e+00 -1.004525e+01 -6.522253e+00 -9.284447e+00 -9.566221e-01 -6.141256e+00 -1.967926e+01 -9.708507e+00 -1.536853e+01 -1.183514e+01 -8.876286e+00 -5.283834e+00 5.141223e+01 -2.966386e-02 5.219015e-01 -1.675470e-01 -1.021874e-01 -1.146425e-01 -2.313558e-01 3.269052e-01 -2.129359e-01 2.291725e-02 5.818742e-02 -1.626541e-01 3.390424e-01 -4.150229e-01 -8.717111e-02 4.204949e-02 1.413812e-01 -2.033700e-02 -1.325746e-01 -1.435371e-01 3.100738e-02 -3.416964e-02 2.964228e-02 2.740149e-02 -9.440182e-03 1.145178e-01 1.008368e-02
<VARIANCE> 39
 1.574506e+01 7.698943e+01 5.090598e+01 1.479933e+02 7.904923e+01 1.252972e+02 4.448633e+01 6.565740e+01 8.103442e+01 7.789450e+01 3.144311e+01 6.135092e+01 4.472817e+01 6.554054e-01 2.259492e+00 1.339453e+00 3.360409e+00 2.821837e+00 3.279315e+00 2.157637e+00 3.216429e+00 2.667735e+00 2.273525e+00 2.746951e+00 2.430244e+00 9.033754e-01 1.281349e-01 2.571644e-01 2.193269e-01 5.673260e-01 3.970287e-01 4.709103e-01 4.043295e-01 5.293953e-01 3.339453e-01 3.803085e-01 5.253441e-01 5.030873e-01 1.023828e-01
<GCONST> 1.202709e+02
<TRANSP> 5
 0.000000e+00 1.000000e+00 0.000000e+00 0.000000e+00 0.000000e+00
 0.000000e+00 6.038456e-01 3.961544e-01 0.000000e+00 0.000000e+00
 0.000000e+00 0.000000e+00 7.603129e-01 2.396871e-01 0.000000e+00
 0.000000e+00 0.000000e+00 0.000000e+00 7.566299e-01 2.433701e-01
 0.000000e+00 0.000000e+00 0.000000e+00 0.000000e+00 0.000000e+00
<ENDHMM>
~h "n"
<BEGINHMM>
<NUMSTATES> 5
<STATE> 2
<MEAN> 39
 -2.443958e+00 -1.224336e+01 3.897246e+00 -1.579643e+01 -7.960684e+00 -1.407471e+01 -1.248592e+01 -5.851912e+00 -1.446933e+01 -7.100281e+00 -9.366817e+00 9.016046e-01 5.599354e+01 9.582756e-01 1.084806e+00 -4.976813e-01 1.164763e+00 -4.257418e-01 -2.839907e-01 -1.921410e-01 -9.508448e-01 -7.978920e-01 -6.594460e-01 2.231070e-01 -4.739003e-01 -1.093510e+00 1.183932e-01 1.530022e-01 -2.086282e-01 4.049592e-01 -3.638285e-02 2.061799e-01 -7.620091e-02 -2.361752e-01 1.358846e-01 -1.117443e-01 1.200163e-01 -1.541468e-01 -2.431487e-01
<VARIANCE> 39
 2.391204e+01 6.444510e+01 4.516857e+01 6.451663e+01 4.786644e+01 7.035329e+01 5.825853e+01 6.359002e+01 6.484045e+01 5.558199e+01 4.176344e+01 4.099592e+01 4.264849e+01 1.991683e+00 2.995350e+00 2.448586e+00 4.483246e+00 3.323478e+00 3.181600e+00 2.967687e+00 3.470666e+00 3.774529e+00 3.463527e+00 3.332455e+00 3.020917e+00 1.879054e+00 2.338836e-01 4.352447e-01 3.411856e-01 5.421776e-01 4.960840e-01 5.958744e-01 5.133771e-01 5.705341e-01 5.885026e-01 5.792425e-01 6.195187e-01 5.665411e-01 1.957511e-01
<GCONST> 1.269322e+02
<STATE> 3
<MEAN> 39
 3.710091e+00 -5.032671e+00 6.890649e-02 -4.448656e+00 -1.024134e+01 -1.273826e+01 -1.439437e+01 -1.406861e+01 -1.741936e+01 -1.259144e+01 -6.065858e+00 -1.827669e+00 4.798384e+01 4.520861e-01 1.086684e+00 -6.440958e-01 1.225581e+00 -2.810386e-01 2.643930e-01 -3.648142e-01 -8.002588e-01 2.378981e-01 -4.947988e-01 5.238453e-01 -3.398608e-01 -1.070891e+00 -3.706100e-01 -2.441927e-02 9.982489e-02 -3.693819e-01 9.736717e-02 -5.754143e-03 1.116814e-01 2.533833e-01 2.505272e-01 2.540229e-01 1.063934e-02 7.569206e-02 1.686290e-01
<VARIANCE> 39
 1.682025e+01 3.610352e+01 2.466755e+01 3.955643e+01 4.489953e+01 5.511083e+01 5.201069e+01 5.125162e+01 6.505324e+01 4.830017e+01 4.478831e+01 4.208070e+01 1.984295e+01 1.338923e+00 2.249251e+00 1.542216e+00 2.893442e+00 2.426589e+00 3.369439e+00 2.597173e+00 2.925666e+00 3.001675e+00 3.508731e+00 3.298342e+00 2.611735e+00 7.121333e-01 1.722017e-01 3.366459e-01 3.228042e-01 4.189896e-01 4.063636e-01 6.232196e-01 4.920054e-01 5.392902e-01 5.313585e-01 6.428511e-01 6.134027e-01 5.546038e-01 9.712595e-02
<GCONST> 1.181164e+02
<STATE> 4
<MEAN> 39
 -1.808946e+00 1.162394e+00 -2.117423e+00 -3.229618e+00 -9.598373e+00 -1.084762e+01 -1.359156e+01 -1.348878e+01 -1.085597e+01 -9.665719e+00 -4.434533e+00 -2.836051e+00 4.002937e+01 -9.344004e-01 1.237547e-01 -2.470123e-01 -3.837292e-02 4.269586e-01 4.488828e-01 2.096322e-01 2.696298e-01 4.950992e-01 3.222219e-01 1.333285e-01 -1.409345e-01 -4.451328e-01 -2.165366e-01 -2.451980e-01 9.438326e-02 -2.143075e-01 1.165569e-01 7.189408e-03 6.020369e-02 7.343540e-02 4.611697e-02 5.151408e-02 -1.155815e-01 4.921191e-02 2.432574e-01
<VARIANCE> 39
 5.763738e+01 3.990306e+01 2.720524e+01 2.982494e+01 3.614683e+01 4.746867e+01 5.923007e+01 6.219194e+01 6.252539e+01 4.315018e+01 3.770070e+01 2.747076e+01 5.096006e+01 1.778258e+00 3.149406e+00 2.285051e+00 3.099906e+00 2.292291e+00 3.960360e+00 3.424007e+00 4.312078e+00 3.669328e+00 3.427006e+00 3.053761e+00 2.469066e+00 1.404027e+00 3.655221e-01 4.244015e-01 4.384149e-01 6.681468e-01 4.277068e-01 7.259150e-01 6.526031e-01 8.468037e-01 6.421949e-01 5.871114e-01 5.997846e-01 4.780338e-01 2.928112e-01
<GCONST> 1.257130e+02
<TRANSP> 5
 0.000000e+00 1.000000e+00 0.000000e+00 0.000000e+00 0.000000e+00
 0.000000e+00 7.082120e-01 2.917880e-01 0.000000e+00 0.000000e+00
 0.000000e+00 0.000000e+00 7.554548e-01 2.445452e-01 0.000000e+00
 0.000000e+00 0.000000e+00 0.000000e+00 7.484345e-01 2.515655e-01
 0.000000e+00 0.000000e+00 0.000000e+00 0.000000e+00 0.000000e+00
<ENDHMM>
~h "p"
<BEGINHMM>
<NUMSTATES> 5
<STATE> 2
<MEAN> 39
 -3.438084e+00 -7.943525e+00 -3.010705e+00 -9.140779e+00 -8.435778e+00 -3.385074e+00 -8.875285e+00 -7.068879e+00 -8.902838e+00 -7.664751e+00 -1.287432e+01 -8.967443e+00 4.663638e+01 8.536765e-02 7.992319e-01 -9.948567e-01 5.062180e-01 -1.093609e-01 4.809034e-01 3.943065e-01 -4.950792e-01 1.810123e-01 -2.289018e-01 -3.257878e-01 -4.397891e-01 -1.014225e+00 -1.770872e-01 -1.584322e-02 5.822746e-02 -1.027031e-02 1.789370e-01 -2.004036e-02 -2.007827e-01 -2.817586e-01 -1.916014e-01 -1.124376e-01 1.627203e-01 2.384687e-01 -4.201104e-02
<VARIANCE> 39
 7.223695e+01 8.148621e+01 1.303171e+02 6.399097e+01 1.229780e+02 5.877744e+01 4.538348e+01 5.989174e+01 6.780759e+01 6.895255e+01 4.587138e+01 3.355849e+01 9.042356e+01 2.251878e+00 2.569316e+00 2.727046e+00 2.628164e+00 5.324738e+00 2.436235e+00 3.814284e+00 4.364213e+00 5.129340e+00 3.319665e+00 2.772782e+00 2.028574e+00 3.058587e+00 4.190044e-01 3.430475e-01 3.836099e-01 4.455189e-01 7.721700e-01 5.144693e-01 4.963656e-01 6.508709e-01 1.116480e+00 5.322608e-01 5.794187e-01 4.238431e-01 3.415951e-01
<GCONST> 1.324953e+02
<STATE> 3
<MEAN> 39
 -2.250080e+00 -8.824686e+00 -8.002876e+00 -7.351607e+00 -3.898708e+00 -2.086223e+00 -9.747402e+00 -8.575881e+00 -7.833788e+00 -8.692110e+00 -1.385730e+01 -9.268584e+00 4.481604e+01 -4.886617e-01 7.618597e-01 -2.257927e-01 1.552152e-01 -4.631893e-02 2.667572e-02 9.909440e-02 -2.871431e-01 -2.197043e-01 -1.676231e-01 2.273419e-01 3.182558e-01 -1.129956e+00 -1.082358e-01 -4.257547e-02 2.277659e-01 -2.282263e-01 -1.211535e-01 -8.693776e-02 5.279060e-02 1.097683e-01 -5.820803e-03 6.520794e-02 1.576774e-01 8.322130e-02 7.668109e-02
<VARIANCE> 39
 6.408399e+01 1.199190e+02 8.393452e+01 4.954475e+01 9.765308e+01 5.191969e+01 3.813020e+01 6.899619e+01 3.982952e+01 1.006948e+02 4.856709e+01 2.784821e+01 7.885662e+01 8.966777e-01 1.950275e+00 2.015677e+00 1.791092e+00 2.704890e+00 1.633042e+00 1.677317e+00 2.606186e+00 2.866507e+00 3.539672e+00 2.013721e+00 1.507988e+00 1.059873e+00 1.720294e-01 2.227508e-01 2.969820e-01 2.949384e-01 5.236539e-01 2.995767e-01 5.440312e-01 5.532258e-01 4.324784e-01 6.635221e-01 4.898480e-01 3.334959e-01 1.178421e-01
<GCONST> 1.195782e+02
<STATE> 4
<MEAN> 39
 -9.406320e+00 -3.151141e+00 -5.752170e+00 -4.820925e+00 -6.285157e+00 -4.396797e+00 -8.009705e+00 -9.027170e+00 -6.622537e+00 -1.005911e+01 -8.230625e+00 -4.605931e+00 3.562142e+01 -7.103915e-01 -1.298074e-01 1.074235e-01 -2.216136e-01 1.530426e-02 3.990264e-02 1.234411e-01 2.064554e-01 4.032893e-01 6.275911e-01 6.858410e-01 2.899539e-01 -5.854367e-01 1.554658e-02 -1.954792e-01 1.841683e-01 -8.853764e-02 3.699399e-02 -9.631239e-02 -1.856795e-01 3.148922e-02 8.758764e-02 1.020498e-01 -5.463296e-02 7.025723e-02 2.508763e-01
<VARIANCE> 39
 3.979092e+01 4.335751e+01 5.681843e+01 5.527179e+01 5.047571e+01 4.132659e+01 4.331162e+01 5.838119e+01 5.076404e+01 6.400974e+01 6.637567e+01 4.485677e+01 6.699664e+01 1.060743e+00 1.563634e+00 2.035204e+00 1.947724e+00 2.081961e+00 2.441326e+00 3.888715e+00 3.164083e+00 2.306556e+00 3.515651e+00 3.594889e+00 2.761158e+00 1.073183e+00 2.616062e-01 2.590828e-01 3.795284e-01 5.394798e-01 5.633566e-01 5.169421e-01 9.727336e-01 8.245952e-01 5.689296e-01 8.254611e-01 8.543936e-01 6.093310e-01 3.330143e-01
<GCONST> 1.251885e+02
<TRANSP> 5
 0.000000e+00 1.000000e+00 0.000000e+00 0.000000e+00 0.000000e+00
 0.000000e+00 5.124768e-01 4.875232e-01 0.000000e+00 0.000000e+00
 0.000000e+00 0.000000e+00 5.733601e-01 4.266399e-01 0.000000e+00
 0.000000e+00 0.000000e+00 0.000000e+00 6.854727e-01 3.145272e-01
 0.000000e+00 0.000000e+00 0.000000e+00 0.000000e+00 0.000000e+00
<ENDHMM>
~h "r"
<BEGINHMM>
<NUMSTATES> 5
<STATE> 2
<MEAN> 39
 -8.194577e+00 -9.356314e+00 -3.589812e+00 -9.603677e-01 -4.525150e+00 -1.159890e+01 -1.486156e+01 -1.078688e+01 -2.740723e+00 -6.121563e+00 -3.860896e+00 -2.317933e+00 4.465093e+01 3.622304e+00 -1.167422e+00 -1.235785e+00 8.675939e-02 4.147115e-02 -1.994837e+00 -2.116024e+00 -8.992418e-01 -9.164448e-01 3.917192e-02 -1.556683e-01 2.072999e-01 1.536215e+00 2.435622e-01 -3.595421e-01 1.507387e-01 -4.488722e-01 -7.335545e-02 1.160665e-01 2.112061e-01 3.536956e-01 -4.338137e-01 2.615707e-02 -2.733252e-01 -1.768978e-02 5.762633e-01
<VARIANCE> 39
 1.397377e+02 4.508860e+01 6.755888e+01 3.218696e+01 4.622905e+01 8.130218e+01 1.094071e+02 9.560057e+01 9.001981e+01 3.577426e+01 3.102639e+01 3.272958e+01 4.400611e+01 1.140728e+01 8.615470e+00 7.942723e+00 5.309973e+00 8.044765e+00 7.233825e+00 1.036564e+01 1.097716e+01 8.494246e+00 5.054556e+00 6.545191e+00 4.308437e+00 7.584615e+00 2.573715e+00 1.542967e+00 1.752159e+00 8.163813e-01 1.289926e+00 2.013693e+00 2.934788e+00 2.462794e+00 1.217431e+00 8.798662e-01 1.165477e+00 8.660110e-01 8.966694e-01
<GCONST> 1.552732e+02
<STATE> 3
<MEAN> 39
 3.184687e+00 -1.778435e+01 -3.530027e+00 -5.361523e+00 -6.660206e+00 -1.646274e+01 -1.589033e+01 -6.568097e+00 -9.800651e+00 -4.444273e+00 -7.048285e+00 -9.644778e-01 5.457745e+01 -6.274034e-01 -1.556098e+00 1.359768e+00 -1.182058e+00 -2.187570e-01 1.270561e+00 1.575125e+00 1.398083e+00 -1.095351e+00 2.619018e-01 -9.054273e-01 -3.821302e-01 1.640241e+00 -7.680186e-01 5.379848e-01 4.866291e-01 -2.459178e-01 -4.269064e-02 6.274627e-01 2.037954e-01 -1.807306e-01 5.794653e-02 4.384784e-02 7.984988e-02 -2.006981e-01 -3.728032e-01
<VARIANCE> 39
 2.802066e+01 6.267725e+01 1.422996e+02 6.197807e+01 1.129672e+02 6.901235e+01 5.510718e+01 5.281271e+01 5.558608e+01 4.103754e+01 9.573863e+01 4.029024e+01 2.938365e+01 4.757365e+00 9.495276e+00 1.047257e+01 6.102208e+00 8.399785e+00 6.954317e+00 6.574872e+00 7.629438e+00 6.097647e+00 6.125220e+00 6.113829e+00 3.777828e+00 2.604273e+00 1.113143e+00 1.331346e+00 1.608655e+00 1.308778e+00 1.381186e+00 1.433844e+00 1.429616e+00 1.317609e+00 1.259427e+00 9.132984e-01 1.106358e+00 5.958816e-01 4.580168e-01
<GCONST> 1.496056e+02
<STATE> 4
<MEAN> 39
 2.218585e-01 -1.728478e+01 -1.095068e-02 -8.484826e+00 -6.071425e+00 -1.027660e+01 -1.324298e+01 -7.001308e+00 -1.309624e+01 -6.920001e+00 -1.046649e+01 -6.210087e+00 5.574462e+01 -3.394853e-01 5.410254e-01 6.759007e-01 -8.805909e-01 -3.716352e-01 5.861943e-01 1.738631e-01 1.398148e-01 -2.717617e-01 -1.470464e-02 3.288893e-02 -5.334384e-01 -7.751819e-02 -5.489083e-02 2.534971e-01 9.721944e-03 2.666989e-02 -1.134206e-03 -1.061248e-01 -1.624168e-01 -2.214221e-01 1.201930e-01 2.865762e-02 -1.240985e-02 1.457858e-01 -2.233478e-01
<VARIANCE> 39
 3.195404e+01 7.971497e+01 1.432480e+02 9.777130e+01 1.049320e+02 6.952373e+01 6.907137e+01 5.549921e+01 4.071708e+01 5.439943e+01 6.458102e+01 5.444500e+01 3.617941e+01 2.044659e+00 4.653790e+00 6.175705e+00 5.099533e+00 4.240831e+00 5.466706e+00 4.269345e+00 4.381234e+00 3.714484e+00 4.435248e+00 4.006769e+00 3.995094e+00 2.029347e+00 4.755770e-01 6.971405e-01 6.206965e-01 7.228517e-01 8.027691e-01 8.335819e-01 8.391504e-01 8.741238e-01 7.480614e-01 7.243689e-01 8.330460e-01 8.630553e-01 2.872131e-01
<GCONST> 1.389205e+02
<TRANSP> 5
 0.000000e+00 1.000000e+00 0.000000e+00 0.000000e+00 0.000000e+00
 0.000000e+00 7.540548e-01 2.459452e-01 0.000000e+00 0.000000e+00
 0.000000e+00 0.000000e+00 6.847714e-01 3.152287e-01 0.000000e+00
 0.000000e+00 0.000000e+00 0.000000e+00 7.056153e-01 2.943847e-01
 0.000000e+00 0.000000e+00 0.000000e+00 0.000000e+00 0.000000e+00
<ENDHMM>
~h "s"
<BEGINHMM>
<NUMSTATES> 5
<STATE> 2
<MEAN> 39
 -1.459085e+01 8.164700e+00 -1.135507e+01 -7.195168e-01 -1.185991e+01 -1.050127e+01 -7.634347e+00 -1.203697e+01 -5.228118e+00 -9.235476e+00 -5.261806e+00 -5.916200e+00 4.665111e+01 -2.690259e+00 1.822195e+00 -1.383271e+00 1.361829e+00 8.103646e-01 3.482267e-01 8.962399e-01 -3.298598e-01 1.094963e+00 4.371161e-01 8.351110e-01 -1.626651e-01 7.411575e-02 -2.138874e-02 -4.558761e-01 3.517057e-01 -3.250082e-01 4.343953e-01 -9.372256e-02 -1.351524e-02 1.501577e-01 -1.125590e-01 1.059179e-01 -4.403469e-02 2.160274e-01 2.568552e-01
<VARIANCE> 39
 7.890716e+01 6.981454e+01 6.019423e+01 6.784103e+01 5.625847e+01 6.322746e+01 6.719594e+01 5.232838e+01 4.204726e+01 4.422252e+01 4.399020e+01 3.194582e+01 7.014709e+01 4.266858e+00 7.802722e+00 6.710913e+00 3.313880e+00 5.397583e+00 4.008311e+00 5.780626e+00 3.927233e+00 3.700266e+00 3.392260e+00 3.932418e+00 2.900424e+00 1.884895e+00 7.697705e-01 9.979565e-01 8.458537e-01 5.997899e-01 8.558487e-01 8.141844e-01 1.082787e+00 7.582965e-01 7.496002e-01 8.124735e-01 7.016027e-01 5.554294e-01 3.187775e-01
<GCONST> 1.382942e+02
<STATE> 3
<MEAN> 39
 -1.812191e+01 4.224096e+00 -8.813141e+00 -5.284817e+00 -3.858048e+00 -1.233295e+01 -7.556770e+00 -1.207875e+01 -3.604039e+00 -8.625132e+00 -4.457714e+00 -2.267385e+00 4.976712e+01 8.062229e-02 -1.160301e+00 9.441940e-02 -1.158278e+00 8.428302e-01 1.655441e-01 -7.122291e-02 5.448382e-01 1.324898e-01 8.741289e-02 -1.761826e-01 2.544813e-01 1.006741e+00 6.047547e-01 -4.849491e-01 9.866974e-02 -6.630281e-02 -2.461124e-01 3.727943e-01 -2.822177e-01 2.103686e-01 -1.790214e-01 3.433064e-02 -2.221051e-01 -4.943585e-02 -7.394929e-02
<VARIANCE> 39
 9.971989e+01 1.326555e+02 6.454736e+01 7.751145e+01 6.601961e+01 1.035600e+02 8.787236e+01 5.567987e+01 5.303020e+01 4.631404e+01 5.955716e+01 4.791364e+01 5.882834e+01 1.472773e+01 1.417065e+01 7.077129e+00 9.281007e+00 8.086438e+00 8.515101e+00 9.161457e+00 6.485910e+00 5.667061e+00 4.957290e+00 6.680857e+00 5.247595e+00 4.371585e+00 1.770997e+00 1.449141e+00 1.400210e+00 1.368780e+00 1.568031e+00 1.314354e+00 1.778516e+00 1.344591e+00 1.078195e+00 1.043501e+00 1.222186e+00 1.049945e+00 5.980627e-01
<GCONST> 1.560994e+02
<STATE> 4
<MEAN> 39
 -2.284947e+01 6.187845e+00 -1.280475e+01 1.571491e-01 -4.281471e+00 -5.891582e+00 -2.735667e+00 -8.613620e+00 -1.355467e+00 -6.800717e+00 -1.994223e+00 -3.666289e+00 4.452599e+01 6.585468e-01 -9.898986e-01 4.588033e-01 -2.403503e-01 -1.524058e-01 3.645235e-01 -3.176466e-01 4.605729e-02 -2.673945e-01 -1.102002e-02 -1.802987e-02 1.800728e-01 -4.999804e-01 2.576484e-01 -1.594754e-01 1.771949e-01 -1.368555e-01 -1.001133e-01 -1.270651e-01 -1.084274e-01 -1.109940e-01 -1.240700e-01 -6.703827e-02 -1.611154e-01 3.178051e-02 2.840124e-04
<VARIANCE> 39
 5.212045e+01 9.086417e+01 4.535066e+01 6.709315e+01 5.326481e+01 7.800210e+01 5.452896e+01 5.078715e+01 4.104534e+01 4.495522e+01 5.563101e+01 2.767980e+01 7.289434e+01 3.012443e+00 3.104356e+00 3.194230e+00 4.448498e+00 4.367291e+00 5.062326e+00 4.593541e+00 4.029945e+00 3.633855e+00 3.720490e+00 4.088301e+00 2.433680e+00 3.026855e+00 5.887637e-01 5.336316e-01 4.347700e-01 7.344259e-01 8.206659e-01 9.038898e-01 9.512979e-01 7.919885e-01 7.249366e-01 6.830634e-01 9.513582e-01 5.230538e-01 3.809061e-01
<GCONST> 1.352337e+02
<TRANSP> 5
 0.000000e+00 1.000000e+00 0.000000e+00 0.000000e+00 0.000000e+00
 0.000000e+00 7.456136e-01 2.543864e-01 0.000000e+00 0.000000e+00
 0.000000e+00 0.000000e+00 7.236679e-01 2.763321e-01 0.000000e+00
 0.000000e+00 0.000000e+00 0.000000e+00 8.429619e-01 1.570381e-01
 0.000000e+00 0.000000e+00 0.000000e+00 0.000000e+00 0.000000e+00
<ENDHMM>
~h "t"
<BEGINHMM>
<NUMSTATES> 5
<STATE> 2
<MEAN> 39
 -9.611615e+00 -1.464701e+00 -2.865389e+00 -5.868113e+00 -7.689120e+00 -1.092902e+01 -9.633174e+00 -1.063488e+01 -7.122423e+00 -9.503544e+00 -7.205105e+00 -5.785705e+00 4.147977e+01 -4.273789e-01 -6.514100e-01 2.765782e-01 -5.481899e-01 5.138353e-01 -1.886073e-01 -5.002834e-01 -2.623054e-01 2.972914e-01 5.616425e-01 8.670886e-01 7.584936e-01 9.669365e-01 1.510624e-01 -3.565899e-01 1.821845e-01 -4.061124e-01 -1.634192e-02 2.963166e-02 -1.612981e-02 1.736567e-01 9.882492e-04 1.920895e-01 -3.846280e-02 2.137839e-01 5.667428e-01
<VARIANCE> 39
 6.687970e+01 4.653333e+01 5.938852e+01 4.567901e+01 7.120766e+01 7.331323e+01 6.826531e+01 8.835159e+01 5.010288e+01 4.405163e+01 5.453984e+01 4.169386e+01 7.583145e+01 8.842683e+00 5.433462e+00 5.706067e+00 7.423254e+00 8.077657e+00 7.555679e+00 6.972531e+00 7.090703e+00 5.267978e+00 5.397701e+00 6.448574e+00 4.683862e+00 8.405576e+00 1.257386e+00 6.848259e-01 8.056234e-01 1.003720e+00 1.377114e+00 1.271845e+00 1.163938e+00 1.407545e+00 9.115675e-01 9.081784e-01 1.344153e+00 8.785629e-01 1.105215e+00
<GCONST> 1.499328e+02
<STATE> 3
<MEAN> 39
 -8.112489e+00 -7.165229e+00 1.313894e+00 -1.322289e+01 -8.861807e+00 -1.043380e+01 -1.333844e+01 -9.438577e+00 -6.303747e+00 -4.601094e+00 -7.839907e+00 -1.900559e+00 5.193970e+01 2.254068e-01 -5.705130e-01 1.849729e-01 -4.800882e-01 -4.081254e-02 7.310894e-02 5.609814e-01 7.294137e-01 2.157527e-01 2.763009e-01 -4.715239e-01 3.038253e-01 1.085817e+00 -2.294213e-02 2.442695e-01 -1.194894e-01 4.200362e-01 6.797922e-02 1.442306e-01 2.258319e-01 1.306954e-02 -1.626956e-01 -1.048126e-01 -2.027333e-01 -2.982806e-01 -5.322787e-01
<VARIANCE> 39
 8.150322e+01 9.631281e+01 1.308527e+02 7.826900e+01 7.494828e+01 6.775697e+01 9.504214e+01 7.666331e+01 6.519451e+01 7.354370e+01 7.446033e+01 5.904586e+01 5.634307e+01 6.692633e+00 9.887636e+00 6.323461e+00 7.301450e+00 4.914490e+00 6.190462e+00 7.156678e+00 7.733139e+00 6.130417e+00 7.011413e+00 7.998537e+00 6.167354e+00 8.453100e+00 1.155776e+00 1.111629e+00 1.007466e+00 9.566200e-01 1.087887e+00 1.249943e+00 1.463671e+00 1.311638e+00 1.120988e+00 1.500837e+00 1.562006e+00 9.711461e-01 8.151621e-01
<GCONST> 1.553545e+02
<STATE> 4
<MEAN> 39
 -7.010763e+00 -8.607525e+00 -4.022861e+00 -8.436410e+00 -8.346452e+00 -9.149647e+00 -8.718344e+00 -3.382116e+00 -5.958121e+00 -6.555712e+00 -5.553198e+00 -3.035628e+00 4.661665e+01 -1.783093e-01 6.192677e-03 -9.718004e-02 3.029904e-01 1.997023e-01 1.259251e-01 1.613023e-01 2.096323e-01 1.257982e-01 3.104229e-02 -6.990000e-02 -1.052563e-01 -7.348055e-01 3.509861e-02 7.334221e-02 -2.093758e-02 4.914138e-02 7.503815e-04 -2.026848e-02 -2.772268e-01 -2.281303e-01 -9.883472e-02 -2.607175e-02 5.390177e-03 -2.072351e-02 -6.838386e-02
<VARIANCE> 39
 1.018018e+02 1.189652e+02 9.997347e+01 5.790673e+01 7.572777e+01 7.310126e+01 7.806475e+01 6.881897e+01 5.506400e+01 5.953343e+01 6.133163e+01 5.378926e+01 1.023035e+02 2.177789e+00 3.171674e+00 2.689090e+00 2.855311e+00 3.562142e+00 3.684407e+00 3.843630e+00 4.063758e+00 2.909728e+00 3.164299e+00 3.518718e+00 2.826190e+00 2.492654e+00 5.993208e-01 5.917834e-01 4.933204e-01 4.887016e-01 5.980237e-01 6.707979e-01 8.110969e-01 7.286293e-01 6.032623e-01 6.097481e-01 8.441600e-01 5.848379e-01 4.986677e-01
<GCONST> 1.361991e+02
<TRANSP> 5
 0.000000e+00 1.000000e+00 0.000000e+00 0.000000e+00 0.000000e+00
 0.000000e+00 7.357792e-01 2.642208e-01 0.000000e+00 0.000000e+00
 0.000000e+00 0.000000e+00 6.667793e-01 3.332207e-01 0.000000e+00
 0.000000e+00 0.000000e+00 0.000000e+00 7.074704e-01 2.925296e-01
 0.000000e+00 0.000000e+00 0.000000e+00 0.000000e+00 0.000000e+00
<ENDHMM>
~h "v"
<BEGINHMM>
<NUMSTATES> 5
<STATE> 2
<MEAN> 39
 -8.911248e+00 -5.866158e+00 -5.059332e+00 -7.706919e+00 -1.926646e+00 -8.993627e+00 -9.019237e+00 -9.903089e+00 -3.629919e+00 -6.631001e+00 -5.380507e+00 -1.636140e+00 4.640570e+01 1.348317e+00 -1.322715e+00 2.499722e-01 -1.086796e+00 1.115969e-01 -2.844754e-01 -1.425995e+00 -4.457534e-01 1.786852e-02 -5.092713e-02 -2.536640e-01 3.146732e-01 2.138885e+00 4.156766e-01 -2.726565e-01 6.089239e-02 -9.067367e-02 -1.775228e-01 1.032784e-01 -2.001469e-01 1.250346e-01 -2.003255e-01 -1.098537e-01 -4.883904e-01 -3.832185e-01 3.831607e-01
<VARIANCE> 39
 9.700858e+01 9.002442e+01 6.412202e+01 9.255313e+01 8.258406e+01 7.804306e+01 7.624407e+01 7.655674e+01 8.276215e+01 6.451463e+01 7.433447e+01 3.018314e+01 7.372169e+01 1.298055e+01 9.267489e+00 6.082352e+00 8.513733e+00 9.407239e+00 1.401612e+01 1.163842e+01 8.132217e+00 8.734863e+00 8.217320e+00 8.509524e+00 3.339946e+00 9.181615e+00 1.536088e+00 1.032985e+00 1.056363e+00 9.521427e-01 1.554234e+00 1.911812e+00 1.975488e+00 1.544776e+00 1.222040e+00 1.246495e+00 1.484737e+00 5.655928e-01 1.089861e+00
<GCONST> 1.584940e+02
<STATE> 3
<MEAN> 39
 1.484066e-02 -1.258428e+01 -6.770272e+00 -1.543062e+01 -4.021178e+00 -4.086327e+00 -1.475532e+01 -1.272926e+01 -4.017857e+00 -8.177730e+00 -1.100061e+01 -6.272225e+00 5.483689e+01 1.217770e+00 -1.183130e+00 4.043344e-02 -5.725756e-01 4.139589e-01 1.880339e+00 -3.657803e-01 7.683888e-02 -7.922112e-01 1.488621e-01 -1.113961e+00 -1.486253e+00 1.512874e+00 -6.854752e-01 7.238207e-01 9.187319e-02 6.944798e-01 -8.516803e-02 -2.437702e-01 4.761556e-01 3.948006e-01 -9.539028e-02 -1.071019e-01 1.992926e-01 -5.741900e-02 -7.986065e-01
<VARIANCE> 39
 3.997121e+01 7.751075e+01 4.965857e+01 8.414723e+01 4.455634e+01 1.454345e+02 4.959121e+01 5.618058e+01 1.022562e+02 6.173233e+01 4.985563e+01 5.235318e+01 3.949567e+01 5.106947e+00 9.033956e+00 3.159402e+00 5.479912e+00 3.919901e+00 8.821789e+00 5.301617e+00 5.912040e+00 4.812476e+00 5.645803e+00 4.547661e+00 2.836363e+00 5.747570e+00 6.879959e-01 1.392517e+00 6.181527e-01 8.498690e-01 9.259586e-01 1.783976e+00 9.789548e-01 1.101181e+00 1.048245e+00 1.255651e+00 7.856520e-01 6.668001e-01 9.872463e-01
<GCONST> 1.458414e+02
<STATE> 4
<MEAN> 39
 -1.099463e+00 -1.119639e+01 -7.375288e+00 -1.283394e+01 -4.697749e+00 -1.772199e+00 -9.396465e+00 -7.989179e+00 -6.775590e+00 -8.898455e+00 -1.135257e+01 -9.879401e+00 5.248204e+01 -4.637701e-01 8.864717e-01 5.643913e-02 3.045133e-01 -2.979730e-01 -5.981275e-01 3.910893e-01 2.419949e-01 2.036521e-02 -1.974539e-01 -1.748735e-02 -1.534173e-01 -7.829527e-01 -5.904706e-02 3.916625e-02 2.014984e-02 1.563361e-03 -4.049212e-02 -1.069195e-01 -5.381403e-02 -8.282277e-02 3.604902e-02 6.199127e-02 1.018545e-01 1.338975e-01 -8.758999e-02
<VARIANCE> 39
 5.016085e+01 8.925291e+01 6.342636e+01 7.215616e+01 4.565350e+01 8.131445e+01 7.069647e+01 7.923792e+01 4.801112e+01 7.305500e+01 6.157566e+01 3.758989e+01 7.010019e+01 2.465374e+00 3.798520e+00 2.669964e+00 3.500151e+00 3.930314e+00 3.678476e+00 4.168559e+00 4.087744e+00 3.565140e+00 4.260603e+00 3.611906e+00 2.770085e+00 2.289972e+00 3.605652e-01 6.141531e-01 4.710705e-01 6.396125e-01 7.343989e-01 6.937326e-01 7.982771e-01 7.391216e-01 6.357032e-01 8.145030e-01 6.604513e-01 4.906071e-01 3.445545e-01
<GCONST> 1.345935e+02
<TRANSP> 5
 0.000000e+00 1.000000e+00 0.000000e+00 0.000000e+00 0.000000e+00
 0.000000e+00 6.699421e-01 3.300579e-01 0.000000e+00 0.000000e+00
 0.000000e+00 0.000000e+00 6.492481e-01 3.507519e-01 0.000000e+00
 0.000000e+00 0.000000e+00 0.000000e+00 9.096988e-01 9.030119e-02
 0.000000e+00 0.000000e+00 0.000000e+00 0.000000e+00 0.000000e+00
<ENDHMM>
~h "w"
<BEGINHMM>
<NUMSTATES> 5
<STATE> 2
<MEAN> 39
 -6.154490e+00 -8.410683e+00 -4.233974e+00 -1.349177e+01 -3.661717e+00 -1.002945e+01 -1.225512e+01 -7.534191e+00 -8.161461e+00 -3.194333e+00 -6.599362e+00 -2.264366e+00 5.018509e+01 -1.245788e-01 -8.874470e-01 2.995009e-01 6.546675e-01 -3.184331e-01 4.284202e-02 1.299403e-01 5.409094e-01 -4.037795e-01 -5.693235e-01 -4.141873e-01 -2.835879e-01 -2.565750e-01 5.949946e-02 3.847964e-01 -2.028598e-01 3.005118e-01 -1.174607e-03 1.272440e-01 6.396201e-02 -3.966694e-01 6.815619e-02 -1.267646e-01 -6.354854e-02 -1.879962e-01 -3.356718e-01
<VARIANCE> 39
 9.527101e+01 1.453561e+02 6.394444e+01 1.269785e+02 8.536010e+01 9.411483e+01 4.588676e+01 8.831154e+01 6.397896e+01 9.151178e+01 5.334640e+01 5.701889e+01 1.249115e+02 1.837854e+00 2.816594e+00 2.463628e+00 2.591373e+00 3.209728e+00 3.299556e+00 5.217561e+00 4.017341e+00 3.130280e+00 3.347272e+00 4.258070e+00 2.581220e+00 3.183079e+00 2.557334e-01 6.186314e-01 2.796195e-01 6.180736e-01 6.277332e-01 5.556216e-01 7.414713e-01 8.943586e-01 6.033764e-01 7.942830e-01 7.271228e-01 4.383445e-01 3.021805e-01
<GCONST> 1.357021e+02
<STATE> 3
<MEAN> 39
 -2.130226e+00 -1.281319e+01 -8.071537e+00 -8.320606e+00 -3.425508e+00 -1.144520e+01 -1.446179e+01 -5.416750e+00 -1.290102e+01 -8.638902e+00 -4.194380e+00 -5.719406e+00 5.061283e+01 5.369666e-02 -4.910737e-03 -1.097361e-01 5.038360e-01 -8.177019e-02 3.666306e-01 2.267141e-01 -1.610462e-01 2.435158e-01 -1.664879e-01 -5.534870e-01 -1.921382e-01 -5.345907e-01 2.379887e-02 1.601313e-01 3.216241e-02 -4.574599e-02 -1.185187e-01 1.784522e-02 9.467401e-02 -6.815557e-02 1.880181e-01 1.236255e-01 7.598680e-02 5.609373e-02 1.264980e-02
<VARIANCE> 39
 8.811066e+01 1.817374e+02 6.292582e+01 9.751244e+01 6.432606e+01 7.658120e+01 5.857317e+01 1.177300e+02 6.386324e+01 8.379781e+01 6.606274e+01 2.495478e+01 1.079674e+02 9.304976e-01 1.946650e+00 1.614349e+00 1.992405e+00 1.990103e+00 2.633105e+00 2.689751e+00 3.995038e+00 2.259223e+00 2.839447e+00 3.226863e+00 1.621753e+00 1.825243e+00 1.542544e-01 3.050510e-01 2.433405e-01 2.047326e-01 3.030913e-01 3.305806e-01 4.472043e-01 6.139563e-01 5.447940e-01 4.523987e-01 6.989803e-01 2.872618e-01 1.669913e-01
<GCONST> 1.235597e+02
<STATE> 4
<MEAN> 39
 -1.055754e+01 -5.822933e+00 -6.856420e+00 -6.039457e+00 -3.135384e+00 -5.485760e+00 -7.215261e+00 -6.698716e+00 -5.281026e+00 -7.914615e+00 -6.981466e+00 -3.830574e+00 3.882746e+01 -1.233586e-01 -1.958805e-01 1.060047e-01 3.260928e-01 -1.483492e-02 7.042746e-01 3.333788e-01 3.745740e-02 2.113474e-01 2.238538e-01 -5.291361e-02 -9.074695e-03 -5.694547e-01 1.105393e-01 1.248808e-01 1.045808e-01 -8.228474e-02 -1.226447e-01 -2.976520e-01 -2.661605e-01 -2.410423e-01 -1.478906e-01 -4.488853e-02 4.228784e-02 5.297944e-02 2.164465e-01
<VARIANCE> 39
 5.831244e+01 9.603365e+01 4.087349e+01 6.770782e+01 4.941495e+01 5.409676e+01 4.354699e+01 7.781824e+01 6.190778e+01 5.390810e+01 3.340531e+01 2.266742e+01 1.199579e+02 9.074429e-01 1.863727e+00 1.488537e+00 1.644504e+00 2.366107e+00 4.257066e+00 2.330552e+00 4.673874e+00 2.969362e+00 2.616566e+00 2.396112e+00 1.423984e+00 1.173284e+00 2.401471e-01 3.241620e-01 2.974225e-01 3.062405e-01 5.853469e-01 8.053133e-01 6.864875e-01 7.837188e-01 5.791340e-01 5.484707e-01 5.835960e-01 3.667631e-01 2.652350e-01
<GCONST> 1.230018e+02
<TRANSP> 5
 0.000000e+00 1.000000e+00 0.000000e+00 0.000000e+00 0.000000e+00
 0.000000e+00 3.795171e-01 6.204829e-01 0.000000e+00 0.000000e+00
 0.000000e+00 0.000000e+00 5.232018e-01 4.767982e-01 0.000000e+00
 0.000000e+00 0.000000e+00 0.000000e+00 5.789529e-01 4.210471e-01
 0.000000e+00 0.000000e+00 0.000000e+00 0.000000e+00 0.000000e+00
<ENDHMM>
~h "y"
<BEGINHMM>
<NUMSTATES> 5
<STATE> 2
<MEAN> 39
 -1.469129e+00 1.644832e+00 7.634379e+00 -1.168626e+01 -7.801154e+00 -1.273923e+00 -2.265280e+01 -2.044558e+01 -1.266220e+01 -5.529360e+00 -3.209496e+00 -2.588235e+00 4.493913e+01 -4.334222e-01 -8.532513e-02 2.422911e+00 -1.175827e+00 -2.509485e+00 -5.363845e-01 -1.277430e-01 -1.861269e+00 2.508415e-01 1.220124e+00 -1.374029e-01 6.782528e-01 9.853777e-01 7.423317e-02 1.497808e-01 -2.459716e-01 1.939365e-01 -1.032794e-01 -9.291329e-01 4.345458e-01 5.299716e-01 -3.022678e-01 -7.632811e-02 4.862767e-01 -1.613823e-01 1.667374e-01
<VARIANCE> 39
 9.559063e+01 3.187701e+01 1.600488e+02 8.705544e+01 4.229179e+01 9.267712e+01 3.774502e+01 3.889371e+01 1.390606e+01 3.627701e+01 2.149037e+01 4.331170e+01 3.740733e+00 8.016122e+00 3.971527e+00 3.929755e+00 1.098503e+00 1.567634e+01 9.736027e+00 2.279258e+00 7.208331e+00 1.043004e+01 2.663077e+00 2.144430e+00 1.202756e+00 4.279630e-01 5.820159e-01 5.764444e-01 5.398985e-01 6.371130e-01 1.023451e+00 1.573033e+00 6.418080e-01 6.590869e-01 1.062070e+00 8.645125e-01 5.061024e-01 2.186008e-01 5.355360e-02
<GCONST> 1.276011e+02
<STATE> 3
<MEAN> 39
 -1.618899e+00 -1.838219e-01 1.749962e+01 -1.330632e+01 -2.239089e+01 -9.427227e+00 -1.672898e+01 -1.935728e+01 -1.805762e+01 -6.165541e+00 -2.238563e-01 -1.304717e+00 4.734072e+01 9.482636e-02 -1.165617e-01 7.863056e-01 2.237693e-01 -4.943355e-01 -2.454560e+00 1.358043e+00 1.483501e+00 -1.080273e+00 -8.582014e-01 5.874006e-01 1.410377e-01 7.808585e-01 -1.757860e-01 -3.554309e-02 -4.917946e-01 7.791726e-02 1.064911e+00 2.527479e-01 -1.470493e-01 6.548676e-01 3.905691e-01 -1.800241e-01 -3.736351e-02 -3.001712e-02 -1.189687e-01
<VARIANCE> 39
 2.234154e+01 3.075113e+01 1.788754e+02 4.630850e+01 1.627760e+02 3.222398e+01 5.432062e+01 7.559094e+01 5.657778e+01 3.570016e+01 3.753643e+01 2.085100e+01 7.976314e+00 7.642755e+00 5.005209e+00 1.803811e+00 3.047431e+00 9.083488e+00 6.925607e+00 6.038244e+00 5.901740e+00 7.397163e+00 2.164315e+00 1.903231e+00 4.548062e-01 7.632143e-01 2.292585e-01 3.287850e-01 9.815400e-01 2.879411e-01 1.556934e+00 3.218930e-01 8.086979e-01 2.088195e+00 8.204244e-01 7.543337e-01 3.984083e-01 2.270095e-01 7.054809e-02
<GCONST> 1.263390e+02
<STATE> 4
<MEAN> 39
 -1.264948e+01 9.474850e+00 3.525286e+00 -8.805350e+00 -5.330895e+00 -1.791180e+01 -7.606239e+00 -1.731680e+01 -1.104989e+01 -9.511846e+00 -1.440931e+00 -4.038753e+00 4.744359e+01 -7.873129e-02 -7.446758e-02 -3.689030e-01 3.621948e-02 2.502620e-01 1.643103e-02 -2.539244e-01 7.728368e-02 1.114623e+00 -1.236970e-01 1.023079e-01 -3.067043e-01 -2.269612e-01 1.134916e-01 -3.006898e-01 1.622708e-01 -6.014585e-02 -1.195855e-01 4.663339e-01 -3.003341e-01 -4.213122e-02 1.122389e-02 -5.329631e-03 -1.181335e-01 -3.748324e-02 -1.616560e-01
<VARIANCE> 39
 1.329072e+02 1.118907e+02 1.271589e+02 3.420361e+01 1.750491e+02 3.880250e+01 8.129446e+01 6.921778e+01 8.915570e+01 2.076523e+01 3.415476e+01 2.268694e+01 1.965779e+01 7.407678e+00 6.154858e+00 7.371816e+00 3.712330e+00 1.697795e+01 5.756580e+00 4.752767e+00 6.465325e+00 3.253187e+00 3.087474e+00 3.587459e+00 1.793399e+00 1.564560e+00 1.036455e+00 1.077368e+00 9.448262e-01 4.568399e-01 2.641775e+00 1.143100e+00 9.120231e-01 1.248333e+00 7.016037e-01 5.966914e-01 7.406586e-01 4.618944e-01 3.558484e-01
<GCONST> 1.415570e+02
<TRANSP> 5
 0.000000e+00 1.000000e+00 0.000000e+00 0.000000e+00 0.000000e+00
 0.000000e+00 2.727406e-01 7.272594e-01 0.000000e+00 0.000000e+00
 0.000000e+00 0.000000e+00 5.703371e-01 4.296629e-01 0.000000e+00
 0.000000e+00 0.000000e+00 0.000000e+00 8.358937e-01 1.641063e-01
 0.000000e+00 0.000000e+00 0.000000e+00 0.000000e+00 0.000000e+00
<ENDHMM>
~h "z"
<BEGINHMM>
<NUMSTATES> 5
<STATE> 2
<MEAN> 39
 -9.369647e+00 4.901603e+00 -1.993461e+00 -1.011181e+01 -1.031042e+01 -1.497674e+01 -9.268265e+00 -1.538136e+01 -7.926650e+00 -1.091337e+01 -7.348001e+00 -6.593782e+00 5.220842e+01 -4.117764e+00 4.891570e+00 -3.478570e+00 2.283795e+00 4.096977e-01 -1.055612e+00 2.476542e+00 -2.989253e-01 2.142871e+00 -7.357292e-01 1.456397e+00 -9.350592e-01 1.460038e-02 -3.220676e-01 -7.588989e-02 -2.810183e-01 1.829773e-01 3.499325e-01 3.868290e-01 -1.720968e-01 4.301662e-01 -5.666264e-02 5.785512e-01 3.437907e-03 2.472555e-01 -1.107898e-02
<VARIANCE> 39
 8.158395e+01 1.128187e+02 1.190699e+02 9.517178e+01 8.277923e+01 7.351686e+01 7.683080e+01 5.757232e+01 6.919975e+01 4.642271e+01 6.217009e+01 4.889059e+01 3.744197e+01 3.754270e+00 8.576555e+00 7.211679e+00 1.047952e+01 8.064039e+00 6.720581e+00 6.749471e+00 4.949709e+00 4.587822e+00 5.292882e+00 4.673443e+00 3.721087e+00 9.816837e-01 1.305368e+00 2.033016e+00 1.379565e+00 1.324391e+00 1.068781e+00 1.159526e+00 1.480429e+00 8.284823e-01 1.137797e+00 9.129174e-01 1.054807e+00 7.930824e-01 1.855597e-01
<GCONST> 1.484636e+02
<STATE> 3
<MEAN> 39
 -2.125302e+01 1.535535e+01 -1.411359e+01 -1.678737e+00 -7.514455e+00 -1.369509e+01 -5.235978e+00 -1.330026e+01 -4.381539e+00 -9.033964e+00 -5.564043e+00 -8.037369e+00 5.049323e+01 -6.728414e-01 -2.097669e-01 -2.236625e-01 8.266977e-01 2.154150e-01 4.958876e-01 -3.016248e-01 3.363722e-01 -5.764973e-02 5.335097e-01 3.506758e-01 6.194990e-01 -7.992119e-01 6.880993e-01 -9.133840e-01 6.662488e-01 -4.803243e-01 -7.849001e-02 7.830188e-02 -2.739694e-01 -3.649950e-03 -1.664544e-01 -6.422233e-03 -9.002918e-02 2.252645e-01 -8.288272e-02
<VARIANCE> 39
 3.044735e+01 3.759645e+01 5.256277e+01 4.523395e+01 8.164846e+01 4.840644e+01 5.329290e+01 4.969035e+01 4.659378e+01 5.101622e+01 5.139168e+01 3.763973e+01 2.787635e+01 4.087179e+00 5.343212e+00 4.628696e+00 4.319098e+00 6.330431e+00 5.070328e+00 5.108699e+00 5.184490e+00 3.714657e+00 4.150331e+00 4.669892e+00 3.724532e+00 1.220896e+00 6.230692e-01 8.735715e-01 6.959665e-01 6.181282e-01 1.301513e+00 9.582179e-01 1.144137e+00 9.981550e-01 9.115856e-01 8.381139e-01 9.866562e-01 8.412021e-01 2.280625e-01
<GCONST> 1.369103e+02
<STATE> 4
<MEAN> 39
 -2.246502e+01 8.089665e+00 -1.249006e+01 8.781950e-01 -4.991626e+00 -7.662553e+00 -2.231158e+00 -1.017746e+01 -1.292395e+00 -6.730436e+00 -1.102597e+00 -3.316732e+00 4.210131e+01 5.196236e-01 -1.236526e+00 4.173359e-01 -3.661910e-01 1.714026e-01 4.043713e-01 2.845432e-02 2.960576e-01 -9.611414e-02 1.770221e-02 -6.838318e-03 1.675340e-01 -7.216108e-01 1.759056e-01 -9.852624e-02 1.311526e-01 -1.065154e-01 -6.977575e-02 -1.628056e-02 -9.608185e-02 -8.852571e-02 -1.150360e-01 -1.188266e-01 -1.211744e-01 -5.896820e-02 4.142172e-02
<VARIANCE> 39
 4.193074e+01 8.472076e+01 2.462613e+01 5.405276e+01 5.949627e+01 5.993543e+01 6.619736e+01 4.240506e+01 4.606533e+01 3.502441e+01 3.179399e+01 2.343796e+01 6.579853e+01 2.576065e+00 2.745216e+00 2.494338e+00 3.485905e+00 3.840558e+00 3.559360e+00 4.158762e+00 4.063819e+00 3.195379e+00 3.555498e+00 3.324728e+00 2.652211e+00 2.712590e+00 3.923466e-01 4.754359e-01 4.209442e-01 6.766313e-01 6.864150e-01 6.700389e-01 7.862364e-01 8.374893e-01 5.820197e-01 6.626093e-01 6.220626e-01 5.360460e-01 3.076452e-01
<GCONST> 1.291587e+02
<TRANSP> 5
 0.000000e+00 1.000000e+00 0.000000e+00 0.000000e+00 0.000000e+00
 0.000000e+00 7.235543e-01 2.764457e-01 0.000000e+00 0.000000e+00
 0.000000e+00 0.000000e+00 7.755089e-01 2.244911e-01 0.000000e+00
 0.000000e+00 0.000000e+00 0.000000e+00 8.654960e-01 1.345041e-01
 0.000000e+00 0.000000e+00 0.000000e+00 0.000000e+00 0.000000e+00
<ENDHMM>
~h "aa"
<BEGINHMM>
<NUMSTATES> 5
<STATE> 2
<MEAN> 39
 -8.232135e+00 -2.130993e+00 -5.868073e+00 -6.188485e+00 -8.168555e+00 -6.712563e+00 -6.175242e+00 -6.540418e+00 -6.198306e+00 -1.007432e+01 -9.200866e+00 -8.456448e+00 3.783877e+01 -6.994951e-01 8.393814e-02 -4.453107e-01 3.264082e-01 1.115098e-01 9.240084e-01 -7.319927e-03 -7.401830e-02 -2.746222e-01 3.809310e-01 -3.275499e-03 -1.411515e-01 -1.476767e+00 2.630280e-02 -1.847199e-01 1.576239e-01 1.214224e-02 1.795191e-01 7.927246e-02 1.870424e-02 1.112703e-01 1.597655e-01 5.869396e-02 -1.577335e-01 9.693719e-02 2.179945e-01
<VARIANCE> 39
 4.944884e+01 4.119947e+01 2.626484e+01 1.813856e+01 3.722142e+01 3.378298e+01 2.660441e+01 4.956303e+01 5.069834e+01 2.998259e+01 2.799097e+01 1.444332e+01 6.207000e+01 9.815218e-01 8.366535e-01 1.523648e+00 2.016477e+00 2.762730e+00 1.611799e+00 1.840275e+00 2.864659e+00 4.935756e+00 3.222425e+00 2.263119e+00 9.046243e-01 5.811735e-01 1.686169e-01 1.841931e-01 1.167058e-01 4.174818e-01 4.027603e-01 2.056866e-01 4.889466e-01 4.932613e-01 8.888230e-01 5.057853e-01 4.753777e-01 1.812077e-01 5.574123e-02
<GCONST> 1.077179e+02
<STATE> 3
<MEAN> 39
 -1.196386e+01 -2.830578e+00 -6.259738e+00 -3.682459e+00 -5.801205e+00 -2.646809e+00 -3.826747e+00 -6.446521e+00 -5.582928e+00 -6.984808e+00 -7.645792e+00 -7.522312e+00 3.369815e+01 -3.584532e-01 -1.578772e-01 3.884239e-02 5.153934e-01 1.797226e-01 4.004155e-01 4.585787e-01 6.044790e-01 4.983721e-01 7.881914e-02 -3.383184e-01 2.747384e-01 -6.673234e-01 9.018555e-04 9.620633e-03 7.055090e-02 -3.554960e-02 2.834816e-02 -2.927814e-01 -2.747187e-01 -2.839719e-02 5.660112e-02 -1.475947e-01 1.503694e-01 1.949051e-01 2.382172e-01
<VARIANCE> 39
 5.486042e+01 5.635771e+01 2.836608e+01 1.500501e+01 2.646671e+01 3.286574e+01 2.206513e+01 3.584536e+01 2.626278e+01 3.587529e+01 3.363079e+01 2.398335e+01 8.286187e+01 5.119706e-01 7.332810e-01 9.214481e-01 1.027610e+00 1.485792e+00 2.578052e+00 2.095835e+00 2.404074e+00 2.941267e+00 2.699491e+00 1.975788e+00 1.967549e+00 4.320618e-01 1.328661e-01 1.210069e-01 1.840703e-01 2.451533e-01 3.397567e-01 3.548980e-01 2.977658e-01 2.982976e-01 5.126959e-01 4.531398e-01 5.048569e-01 3.029943e-01 1.062326e-01
<GCONST> 1.043388e+02
<STATE> 4
<MEAN> 39
 -1.247715e+01 -1.690115e+00 -3.838554e+00 2.176760e+00 -8.070869e-01 1.487043e+00 -6.840317e-01 -2.552999e+00 -1.891424e+00 -5.933203e+00 -2.378617e+00 -7.132682e-01 3.462694e+01 -1.745502e-01 2.495531e-02 -4.830472e-03 2.150892e-01 2.637783e-01 5.186821e-02 1.583421e-01 -1.544882e-02 1.061456e-01 -1.162577e-01 1.054356e-01 1.938549e-01 -2.165908e-01 -2.842928e-02 -4.038126e-02 3.124048e-02 -1.406476e-01 -1.416677e-02 -7.504122e-02 -9.235939e-02 -1.284743e-01 -1.006656e-01 3.280972e-02 -4.501955e-02 -6.795785e-02 1.150300e-01
<VARIANCE> 39
 5.636312e+01 4.791998e+01 6.742323e+01 4.030430e+01 5.188439e+01 4.511855e+01 3.802153e+01 4.811314e+01 3.938326e+01 2.481193e+01 3.492715e+01 2.278560e+01 2.802045e+01 1.213236e+00 1.461370e+00 2.326954e+00 2.857409e+00 2.246268e+00 2.920717e+00 2.339851e+00 5.152767e+00 3.835123e+00 2.287168e+00 3.162208e+00 2.129673e+00 1.279864e+00 2.429897e-01 2.744082e-01 5.401841e-01 5.214868e-01 4.508676e-01 5.936326e-01 4.717151e-01 1.080596e+00 8.316309e-01 4.628614e-01 5.979457e-01 3.200778e-01 3.054493e-01
<GCONST> 1.210555e+02
<TRANSP> 5
 0.000000e+00 1.000000e+00 0.000000e+00 0.000000e+00 0.000000e+00
 0.000000e+00 6.742414e-01 3.257586e-01 0.000000e+00 0.000000e+00
 0.000000e+00 0.000000e+00 5.193944e-01 4.806057e-01 0.000000e+00
 0.000000e+00 0.000000e+00 0.000000e+00 8.120137e-01 1.879862e-01
 0.000000e+00 0.000000e+00 0.000000e+00 0.000000e+00 0.000000e+00
<ENDHMM>
~h "ae"
<BEGINHMM>
<NUMSTATES> 5
<STATE> 2
<MEAN> 39
 -1.041736e+01 -6.937838e+00 -2.441844e+00 -6.564146e+00 -5.839287e+00 -7.775526e+00 -9.841742e+00 -9.975024e+00 -7.295729e+00 -9.188416e+00 -4.694054e+00 -2.782879e+00 4.388246e+01 1.130654e+00 -2.476479e+00 4.041938e-01 -1.632360e+00 -1.374113e-01 -8.278676e-01 -8.709229e-01 7.056326e-01 -3.411345e-01 1.638166e-01 -5.055340e-01 1.136171e+00 3.152466e+00 3.949849e-01 -5.969089e-01 6.095495e-02 -4.812443e-01 -5.139083e-03 -4.606866e-02 8.413962e-02 4.668016e-01 -1.576991e-01 6.653517e-02 -6.487986e-01 9.118110e-03 7.924479e-01
<VARIANCE> 39
 7.103304e+01 9.089034e+01 4.588606e+01 6.121596e+01 5.641219e+01 9.533471e+01 9.776241e+01 7.583186e+01 6.233768e+01 5.705163e+01 4.351402e+01 4.765654e+01 1.488943e+02 7.937269e+00 8.950327e+00 5.455412e+00 7.646975e+00 7.598599e+00 7.054943e+00 9.470634e+00 9.048719e+00 4.927010e+00 5.497926e+00 6.441755e+00 5.885621e+00 9.609020e+00 1.014421e+00 1.246249e+00 8.427332e-01 9.640591e-01 1.152657e+00 1.380869e+00 1.946713e+00 1.419018e+00 8.135003e-01 9.182298e-01 1.039844e+00 9.672239e-01 1.414404e+00
<GCONST> 1.539008e+02
<STATE> 3
<MEAN> 39
 -5.139806e+00 -1.995521e+01 1.975472e+00 -1.696410e+01 -5.132127e+00 -9.280584e+00 -1.097967e+01 -2.947052e+00 -9.438355e+00 -6.620350e+00 -1.280596e+01 8.162457e-01 5.984074e+01 3.397437e-01 -1.981634e+00 3.006110e-01 -8.597468e-01 6.902072e-01 5.089210e-01 1.019358e+00 1.741860e+00 -6.443072e-01 2.121670e-01 -1.365316e+00 5.336624e-01 2.040248e+00 -2.819817e-01 9.879364e-01 -1.821322e-01 7.690543e-01 3.986691e-02 4.749098e-02 2.739695e-02 -4.534442e-01 -2.470955e-02 -1.104242e-01 4.211669e-01 -3.109096e-01 -8.784001e-01
<VARIANCE> 39
 2.271470e+01 4.338026e+01 6.383413e+01 4.229533e+01 7.718269e+01 7.975340e+01 6.491161e+01 4.893731e+01 5.054788e+01 6.919546e+01 4.851348e+01 4.305238e+01 3.622822e+01 3.078736e+00 6.710941e+00 3.861690e+00 5.585482e+00 3.884271e+00 6.695499e+00 6.503314e+00 6.279110e+00 3.762951e+00 6.181945e+00 5.678434e+00 4.104228e+00 5.247437e+00 5.422476e-01 8.179723e-01 5.885157e-01 7.346430e-01 8.085740e-01 1.156462e+00 1.348183e+00 1.017868e+00 6.525036e-01 9.311612e-01 6.910665e-01 9.090252e-01 7.077162e-01
<GCONST> 1.409636e+02
<STATE> 4
<MEAN> 39
 -2.266666e+00 -2.016146e+01 -1.640139e+00 -1.231790e+01 -5.444492e+00 -8.512451e+00 -9.196110e+00 -4.726152e-01 -1.038268e+01 -9.921659e+00 -1.299637e+01 -2.447959e+00 5.854068e+01 3.927450e-01 1.302520e+00 -3.120897e-01 4.053501e-01 -6.005775e-01 -4.180365e-01 3.344794e-02 -2.515675e-01 2.095996e-01 -5.615535e-01 -2.504840e-02 -4.865171e-01 -1.159161e+00 -3.896529e-03 2.867458e-01 -1.135723e-01 8.662662e-02 -9.063244e-02 -8.817527e-02 -3.754616e-02 -1.842416e-01 6.801267e-02 -4.210591e-02 1.257716e-01 -1.897412e-02 -2.571114e-01
<VARIANCE> 39
 2.303653e+01 7.515539e+01 4.787947e+01 5.281046e+01 8.055741e+01 6.741798e+01 4.509102e+01 4.694464e+01 4.868929e+01 6.490029e+01 9.960853e+01 5.399586e+01 5.414787e+01 1.330343e+00 2.851871e+00 2.211158e+00 2.655915e+00 3.003508e+00 3.015212e+00 2.940012e+00 2.838284e+00 3.422251e+00 3.855542e+00 2.952734e+00 2.871281e+00 1.836031e+00 2.655473e-01 4.073558e-01 3.695241e-01 4.251861e-01 5.157740e-01 5.361595e-01 5.797044e-01 5.352961e-01 5.380609e-01 7.067712e-01 5.156098e-01 4.624558e-01 2.390663e-01
<GCONST> 1.262588e+02
<TRANSP> 5
 0.000000e+00 1.000000e+00 0.000000e+00 0.000000e+00 0.000000e+00
 0.000000e+00 6.521980e-01 3.478020e-01 0.000000e+00 0.000000e+00
 0.000000e+00 0.000000e+00 6.655685e-01 3.344316e-01 0.000000e+00
 0.000000e+00 0.000000e+00 0.000000e+00 8.665848e-01 1.334152e-01
 0.000000e+00 0.000000e+00 0.000000e+00 0.000000e+00 0.000000e+00
<ENDHMM>
~h "ah"
<BEGINHMM>
<NUMSTATES> 5
<STATE> 2
<MEAN> 39
 -7.233123e+00 -4.032261e+00 -5.206754e+00 -8.175949e+00 -6.712785e+00 -9.210686e+00 -1.080628e+01 -9.563616e+00 -5.175140e+00 -7.990877e+00 -5.360874e+00 -2.249940e+00 4.543018e+01 1.337016e+00 -2.652349e+00 2.751096e-01 -1.787193e+00 4.856177e-01 1.950870e-01 -8.231679e-01 4.266593e-01 -1.877641e-01 5.459924e-01 -1.288939e+00 6.638281e-01 2.442366e+00 1.078735e-01 -4.977572e-01 1.507331e-01 -2.110240e-01 3.765811e-01 2.222612e-01 7.923315e-02 2.229410e-01 -1.624394e-01 1.779238e-01 -4.039181e-01 -2.554448e-01 4.890156e-01
<VARIANCE> 39
 8.607780e+01 8.696247e+01 9.478656e+01 7.974720e+01 6.278958e+01 6.424380e+01 6.588288e+01 8.842929e+01 8.385661e+01 6.314380e+01 6.455767e+01 4.304461e+01 9.630367e+01 8.287644e+00 1.032169e+01 7.786009e+00 8.423459e+00 8.987818e+00 8.653390e+00 7.661328e+00 9.853178e+00 8.396981e+00 6.965966e+00 1.015894e+01 5.081435e+00 9.743505e+00 1.110739e+00 1.656097e+00 1.056103e+00 1.466404e+00 1.636985e+00 1.720031e+00 1.138581e+00 1.519903e+00 1.396760e+00 1.074913e+00 1.301663e+00 9.011928e-01 1.487861e+00
<GCONST> 1.587663e+02
<STATE> 3
<MEAN> 39
 -2.284227e+00 -2.148731e+01 -4.667233e+00 -1.394989e+01 1.857858e-01 -3.227462e+00 -1.261299e+01 -3.451760e+00 -6.901861e+00 -4.198647e+00 -1.510665e+01 -3.106642e+00 5.988909e+01 2.068756e-01 -1.039642e+00 5.563551e-01 -2.086196e-01 5.600230e-01 2.845516e-01 1.606316e-01 3.443144e-01 -5.178704e-01 -3.280466e-01 -8.752283e-01 -4.179559e-01 9.058996e-01 -1.664673e-01 1.060164e+00 -1.566157e-01 4.227230e-01 -5.008098e-01 -3.239621e-01 1.190456e-01 -2.893529e-01 4.757819e-02 -3.537081e-01 4.695436e-01 -1.451927e-01 -7.315807e-01
<VARIANCE> 39
 1.997296e+01 4.143049e+01 8.078597e+01 4.876168e+01 5.694490e+01 1.041644e+02 6.493069e+01 6.788721e+01 6.944091e+01 6.197633e+01 6.105762e+01 4.358968e+01 3.010020e+01 2.200271e+00 8.153687e+00 4.634060e+00 4.661461e+00 6.251089e+00 7.051580e+00 5.050506e+00 6.502643e+00 6.257042e+00 6.141269e+00 5.358331e+00 3.346327e+00 3.683272e+00 4.863952e-01 8.358417e-01 7.929215e-01 8.290233e-01 1.060399e+00 1.102275e+00 8.994427e-01 1.187697e+00 1.309821e+00 1.080194e+00 1.106162e+00 6.231562e-01 5.001509e-01
<GCONST> 1.426731e+02
<STATE> 4
<MEAN> 39
 -1.845764e+00 -1.424784e+01 -6.754549e-01 -1.465822e+01 -6.607339e+00 -7.733613e+00 -1.217581e+01 -7.950939e+00 -8.915925e+00 -7.801536e+00 -1.374651e+01 -6.553678e+00 5.685323e+01 -2.527820e-01 1.802187e+00 -4.900566e-01 4.542077e-01 -7.886700e-01 -3.484064e-01 2.677563e-01 -4.291683e-01 1.398873e-01 -8.547374e-01 3.962157e-01 -7.002142e-01 -9.344245e-01 -2.499135e-01 2.084855e-01 -2.548348e-01 2.052889e-01 1.279476e-01 6.684686e-02 2.835219e-02 -4.937763e-02 8.883164e-04 1.269938e-01 1.685225e-01 2.047019e-02 -8.714905e-02
<VARIANCE> 39
 3.706722e+01 7.479630e+01 1.081169e+02 6.179416e+01 5.881487e+01 7.992992e+01 6.768599e+01 7.029170e+01 5.373086e+01 9.205059e+01 6.180372e+01 5.319962e+01 3.325000e+01 4.450147e+00 6.743392e+00 4.596761e+00 4.194975e+00 4.528681e+00 5.135936e+00 3.946286e+00 4.302647e+00 3.939906e+00 4.278727e+00 5.244206e+00 4.433005e+00 2.192733e+00 7.064021e-01 6.996374e-01 6.246969e-01 7.870613e-01 8.460328e-01 8.428332e-01 8.881253e-01 7.329539e-01 6.685509e-01 9.473248e-01 1.097999e+00 9.808353e-01 3.591483e-01
<GCONST> 1.409500e+02
<TRANSP> 5
 0.000000e+00 1.000000e+00 0.000000e+00 0.000000e+00 0.000000e+00
 0.000000e+00 7.478451e-01 2.521549e-01 0.000000e+00 0.000000e+00
 0.000000e+00 0.000000e+00 7.794561e-01 2.205439e-01 0.000000e+00
 0.000000e+00 0.000000e+00 0.000000e+00 7.770460e-01 2.229540e-01
 0.000000e+00 0.000000e+00 0.000000e+00 0.000000e+00 0.000000e+00
<ENDHMM>
~h "ao"
<BEGINHMM>
<NUMSTATES> 5
<STATE> 2
<MEAN> 39
 -6.814535e+00 -6.754371e+00 -5.785825e+00 -9.407994e+00 -3.086046e+00 -6.616710e+00 -1.501126e+01 -1.197324e+01 -6.258501e+00 -5.558095e+00 -5.552150e+00 -2.980795e+00 4.837371e+01 1.591207e+00 -1.126058e+00 -7.487850e-01 -1.781681e+00 2.059689e-01 3.521629e-01 -5.383577e-01 1.707464e-01 -3.535011e-01 3.136501e-01 3.814335e-01 4.719679e-01 2.147529e+00 3.192143e-01 -1.923911e-01 -1.285016e-01 -2.576165e-01 9.923107e-02 4.883006e-03 4.306204e-02 3.653422e-01 -4.415837e-02 9.956555e-02 -2.916223e-01 -2.547940e-01 1.620065e-01
<VARIANCE> 39
 8.767551e+01 6.778645e+01 1.813283e+02 6.480095e+01 1.435955e+02 8.879144e+01 1.122269e+02 7.481982e+01 7.744215e+01 8.926787e+01 6.777579e+01 5.279665e+01 8.000704e+01 1.481326e+01 8.619821e+00 8.743528e+00 8.784790e+00 1.060087e+01 1.287037e+01 7.182826e+00 8.290046e+00 8.353853e+00 8.560922e+00 9.891513e+00 8.010787e+00 7.775369e+00 2.131386e+00 1.299396e+00 1.712735e+00 1.395172e+00 2.421779e+00 2.431298e+00 1.129014e+00 1.579804e+00 1.364001e+00 1.788636e+00 1.719345e+00 1.834252e+00 1.540884e+00
<GCONST> 1.652348e+02
<STATE> 3
<MEAN> 39
 9.782159e-01 -1.546771e+01 -9.357265e+00 -1.855355e+01 -7.239813e-01 -2.293627e+00 -1.635505e+01 -6.981281e+00 -7.164767e+00 -5.291572e-01 -9.180058e+00 -5.485332e+00 5.840473e+01 8.565812e-01 -1.419629e+00 -1.775012e+00 -1.071008e+00 1.440936e+00 2.165036e+00 7.317110e-01 1.177055e+00 -3.602777e-01 1.613111e+00 3.458180e-01 -7.270713e-01 7.986481e-01 -5.505049e-01 4.261191e-01 1.901112e-01 7.170151e-01 -3.333771e-01 -1.967886e-02 2.539193e-01 -2.141889e-01 -1.986736e-01 -3.701135e-01 5.231748e-01 3.022714e-01 -4.810389e-01
<VARIANCE> 39
 2.682736e+01 3.661024e+01 6.225670e+01 9.417560e+01 5.797707e+01 1.519950e+02 4.363491e+01 2.951230e+01 8.023873e+01 1.253863e+02 5.067414e+01 3.225966e+01 1.468304e+01 1.555602e+00 2.734060e+00 5.867674e+00 2.780445e+00 3.296149e+00 6.832104e+00 2.490868e+00 3.966842e+00 4.799899e+00 3.813954e+00 5.033812e+00 3.717060e+00 1.524605e+00 4.358012e-01 4.208881e-01 5.442383e-01 5.930145e-01 6.489872e-01 1.549318e+00 5.991378e-01 4.317406e-01 1.240438e+00 1.055301e+00 1.264580e+00 6.501135e-01 2.603538e-01
<GCONST> 1.332472e+02
<STATE> 4
<MEAN> 39
 4.851238e+00 -1.601498e+01 -1.474243e+01 -1.342008e+01 1.100116e+00 -5.925028e+00 -1.423155e+01 -1.569277e+00 -8.940547e+00 -5.029378e+00 -5.276910e+00 -4.980573e+00 5.572277e+01 5.273735e-02 1.445350e-01 3.765448e-01 4.500270e-01 -3.649021e-01 -7.450256e-01 1.129789e-01 1.635501e-01 3.297960e-01 -3.909304e-01 -1.026094e-01 -1.932805e-02 -2.852718e-01 -6.682307e-02 9.660577e-02 1.455265e-01 -1.214909e-02 -1.271581e-01 -3.902408e-02 4.287907e-03 -1.083227e-01 5.436872e-02 -3.223822e-02 -6.842370e-02 -1.596603e-02 -6.595467e-02
<VARIANCE> 39
 1.710513e+01 4.396976e+01 5.838769e+01 1.688802e+02 7.615426e+01 2.666625e+02 4.647379e+01 6.764854e+01 7.661784e+01 6.055858e+01 4.496428e+01 3.670315e+01 2.040953e+01 6.281903e-01 1.751395e+00 3.149630e+00 2.321135e+00 3.829943e+00 5.390788e+00 3.652608e+00 2.401948e+00 4.053887e+00 2.996216e+00 2.628718e+00 2.544310e+00 5.977214e-01 9.384616e-02 2.751280e-01 2.877609e-01 3.249027e-01 4.960580e-01 6.804152e-01 5.954623e-01 4.240517e-01 6.689459e-01 4.083923e-01 4.353929e-01 4.455554e-01 9.373780e-02
<GCONST> 1.217087e+02
<TRANSP> 5
 0.000000e+00 1.000000e+00 0.000000e+00 0.000000e+00 0.000000e+00
 0.000000e+00 8.023753e-01 1.976247e-01 0.000000e+00 0.000000e+00
 0.000000e+00 0.000000e+00 6.435348e-01 3.564652e-01 0.000000e+00
 0.000000e+00 0.000000e+00 0.000000e+00 9.381770e-01 6.182301e-02
 0.000000e+00 0.000000e+00 0.000000e+00 0.000000e+00 0.000000e+00
<ENDHMM>
~h "aw"
<BEGINHMM>
<NUMSTATES> 5
<STATE> 2
<MEAN> 39
 1.214905e+00 -1.633435e+01 -1.738511e+00 -1.455011e-01 -5.610725e+00 -1.267842e+01 -1.255262e+01 -2.526797e+00 -1.543932e+01 -1.967818e+01 -7.162198e+00 -5.392343e+00 5.020342e+01 -2.204254e-01 1.039991e+00 -8.319325e-02 3.206653e-01 -2.088778e-01 -3.271848e-01 -1.797348e-01 1.790781e-02 1.216228e-01 3.374471e-02 -8.591715e-02 -2.136853e-01 -9.368971e-01 -1.312831e-01 8.474530e-02 5.437142e-02 -1.038995e-01 4.369108e-02 3.023977e-02 6.654595e-02 -1.781796e-01 6.301987e-02 1.710927e-01 6.963933e-02 1.068367e-01 -3.802336e-02
<VARIANCE> 39
 1.239921e+01 1.803274e+02 9.635652e+00 2.531865e+01 7.889783e+01 1.248811e+02 4.164566e+01 5.136443e+01 3.877504e+01 2.383538e+01 2.606228e+01 4.772718e+01 8.242640e+01 6.660565e-01 2.155825e+00 1.066530e+00 2.254014e+00 2.858206e+00 4.418375e+00 2.756179e+00 2.875072e+00 3.046549e+00 2.517717e+00 2.875138e+00 3.444264e+00 9.011300e-01 6.323487e-02 2.416026e-01 2.120164e-01 3.226023e-01 5.890119e-01 5.783148e-01 4.855007e-01 4.383543e-01 4.091358e-01 5.741012e-01 4.124080e-01 6.802964e-01 7.801165e-02
<GCONST> 1.154294e+02
<STATE> 3
<MEAN> 39
 -7.418413e+00 -2.679543e+00 -1.526054e+00 -3.773768e+00 -9.526980e+00 -1.202961e+01 -1.371179e+01 -1.209704e+01 -1.222303e+01 -1.288824e+01 -1.046074e+01 -5.856225e+00 3.642029e+01 -6.231319e-01 -9.918172e-01 -1.536857e-01 4.005883e-01 1.553835e+00 1.429391e+00 5.335944e-01 -4.464062e-01 -5.652575e-02 1.708925e+00 1.147528e+00 1.641563e+00 8.238509e-02 1.637952e-01 -9.945624e-01 -1.427354e-01 -5.691729e-03 2.355349e-01 -3.291257e-01 5.698875e-01 4.828546e-01 1.474436e-01 2.620307e-01 1.689611e-01 2.184907e-01 1.081928e+00
<VARIANCE> 39
 2.501311e+01 6.784292e+01 2.055249e+01 1.208378e+01 4.335471e+01 3.814832e+01 3.675310e+01 7.055984e+01 1.500886e+01 3.102727e+01 1.435423e+01 2.532093e+01 7.544086e+01 1.955863e+00 7.600266e+00 2.499875e+00 2.521074e+00 7.271263e+00 6.320105e+00 2.960563e+00 3.856204e+00 2.001651e+00 1.333430e+00 2.009344e+00 1.971886e+00 4.801097e+00 3.588678e-01 1.393525e+00 4.163860e-01 2.211510e-01 8.364514e-01 9.605052e-01 6.570889e-01 9.008617e-01 1.681657e-01 5.296305e-01 2.987432e-01 3.133606e-01 9.126447e-01
<GCONST> 1.222932e+02
<STATE> 4
<MEAN> 39
 -1.014957e+01 -1.730262e+01 -5.592035e+00 -1.508703e+00 -2.078607e+00 -7.180493e+00 -6.114527e+00 -4.999341e+00 -8.922337e+00 -3.669418e+00 -2.087108e+00 1.361094e-01 4.242219e+01 6.261793e-01 -1.314145e+00 -5.170634e-01 -2.763806e-02 6.747081e-01 3.051274e-01 1.051642e-01 5.600765e-01 -1.106050e-01 3.042544e-01 2.094442e-01 -1.692194e-01 1.696609e+00 -7.936464e-02 5.215939e-01 6.847282e-02 -9.713501e-02 -1.097688e-01 -1.362665e-01 -8.909473e-02 -9.979347e-02 7.958694e-02 -2.211198e-01 -2.482723e-01 -2.809711e-01 -2.713988e-01
<VARIANCE> 39
 8.878399e+01 1.103218e+02 3.269825e+01 2.111364e+01 3.191825e+01 1.042965e+02 6.484451e+01 2.391430e+01 4.744195e+01 4.121101e+01 3.576331e+01 3.604460e+01 2.271820e+02 3.974108e+00 1.522917e+01 2.590527e+00 2.084143e+00 2.677647e+00 6.407665e+00 5.241179e+00 3.853107e+00 4.762150e+00 4.079552e+00 3.682629e+00 2.605460e+00 1.531176e+01 6.961362e-01 2.126028e+00 5.398957e-01 4.793356e-01 4.328017e-01 1.229911e+00 8.404067e-01 5.447504e-01 9.505631e-01 7.210011e-01 6.547992e-01 4.399812e-01 2.184538e+00
<GCONST> 1.394078e+02
<TRANSP> 5
 0.000000e+00 1.000000e+00 0.000000e+00 0.000000e+00 0.000000e+00
 0.000000e+00 8.803866e-01 1.196134e-01 0.000000e+00 0.000000e+00
 0.000000e+00 0.000000e+00 6.385330e-01 3.614670e-01 0.000000e+00
 0.000000e+00 0.000000e+00 0.000000e+00 8.625585e-01 1.374416e-01
 0.000000e+00 0.000000e+00 0.000000e+00 0.000000e+00 0.000000e+00
<ENDHMM>
~h "ax"
<BEGINHMM>
<NUMSTATES> 5
<STATE> 2
<MEAN> 39
 -4.446453e+00 -5.567749e+00 -2.721158e+00 -6.982833e+00 -6.567109e+00 -1.012223e+01 -1.166637e+01 -8.746923e+00 -9.823186e+00 -9.668925e+00 -9.827385e+00 -5.773974e+00 4.601394e+01 3.414766e-02 7.457966e-01 9.302850e-03 4.165886e-01 -4.580580e-01 -3.286905e-01 -2.784492e-01 -7.010937e-01 -2.281004e-01 -6.305359e-01 -1.965658e-01 -2.416759e-01 -5.820007e-01 -5.884474e-02 -1.470387e-01 -2.185101e-02 -2.017816e-01 2.924699e-02 3.253762e-03 2.341691e-02 1.303531e-02 1.212422e-01 1.755193e-01 1.157899e-01 1.691604e-01 2.746557e-01
<VARIANCE> 39
 7.134707e+01 1.229171e+02 5.532449e+01 6.574733e+01 7.324766e+01 6.565446e+01 6.211287e+01 1.026561e+02 7.107458e+01 4.643619e+01 5.350344e+01 5.807249e+01 1.127845e+02 4.724878e+00 4.271235e+00 3.504152e+00 2.482629e+00 4.480486e+00 5.261575e+00 4.855648e+00 4.634135e+00 4.401003e+00 3.085901e+00 2.973084e+00 3.556166e+00 3.581703e+00 6.470648e-01 7.333591e-01 5.877464e-01 5.813562e-01 7.572783e-01 8.560299e-01 9.280909e-01 7.959247e-01 7.993695e-01 6.200031e-01 6.889079e-01 7.794594e-01 5.896290e-01
<GCONST> 1.403395e+02
<STATE> 3
<MEAN> 39
 -6.288011e+00 -8.743594e-01 -2.955322e+00 -6.321708e+00 -7.713038e+00 -1.250708e+01 -1.228117e+01 -1.249302e+01 -9.916311e+00 -1.142007e+01 -8.774926e+00 -5.592858e+00 4.362402e+01 -1.953192e-01 -3.915284e-01 2.459382e-01 -3.639250e-01 1.551399e-02 -4.780861e-01 -1.619576e-01 -3.421415e-01 2.081900e-01 2.027304e-01 3.205509e-01 5.780652e-01 8.105885e-01 2.432540e-04 -4.797360e-01 4.586739e-02 -4.609516e-01 8.721357e-02 2.102460e-01 2.262934e-01 3.494297e-01 2.151364e-01 4.724349e-01 1.593867e-01 2.919236e-01 4.921171e-01
<VARIANCE> 39
 7.283676e+01 8.375914e+01 5.964473e+01 4.683513e+01 6.847750e+01 6.515281e+01 6.452691e+01 7.381889e+01 6.895219e+01 6.155132e+01 5.516162e+01 4.402711e+01 7.794841e+01 8.219172e+00 6.629094e+00 4.460774e+00 4.327881e+00 6.967819e+00 7.214477e+00 7.145126e+00 5.141732e+00 4.639517e+00 5.070741e+00 5.048311e+00 4.304000e+00 5.849501e+00 1.301506e+00 1.121316e+00 9.327452e-01 9.499500e-01 1.525794e+00 1.599669e+00 1.300337e+00 1.168855e+00 9.694483e-01 7.881424e-01 9.692558e-01 8.688439e-01 9.827987e-01
<GCONST> 1.492971e+02
<STATE> 4
<MEAN> 39
 -5.594644e+00 -7.019594e+00 -3.438012e+00 -1.216482e+01 -5.036369e+00 -9.135557e+00 -1.300353e+01 -1.032260e+01 -7.209681e+00 -5.978803e+00 -8.255539e+00 -2.395585e+00 4.822141e+01 3.668077e-01 -1.620671e+00 4.973672e-01 -1.527538e+00 2.439104e-01 8.339559e-02 1.694561e-02 7.720026e-01 2.839656e-01 9.893678e-01 -2.331166e-01 7.711194e-01 1.804544e+00 -3.991308e-03 8.775960e-02 -8.167905e-02 7.495548e-02 7.647776e-02 1.667430e-02 5.055486e-02 -4.030086e-02 -2.958716e-02 -1.174509e-01 -2.074565e-01 -1.817076e-01 8.291815e-02
<VARIANCE> 39
 6.930170e+01 8.481657e+01 6.457614e+01 1.085437e+02 6.843802e+01 1.166175e+02 6.024051e+01 6.892355e+01 5.144023e+01 6.707413e+01 6.562483e+01 4.276186e+01 9.622372e+01 6.651337e+00 7.389363e+00 6.485760e+00 9.589429e+00 7.125132e+00 9.384562e+00 6.264934e+00 6.757697e+00 5.252010e+00 6.435942e+00 8.361871e+00 5.064844e+00 7.140730e+00 1.172782e+00 1.199873e+00 8.285596e-01 1.791535e+00 1.318879e+00 1.659660e+00 1.229955e+00 1.220203e+00 8.810655e-01 1.002641e+00 1.214206e+00 8.274047e-01 1.244254e+00
<GCONST> 1.544108e+02
<TRANSP> 5
 0.000000e+00 1.000000e+00 0.000000e+00 0.000000e+00 0.000000e+00
 0.000000e+00 5.079008e-01 4.920992e-01 0.000000e+00 0.000000e+00
 0.000000e+00 0.000000e+00 4.558408e-01 5.441592e-01 0.000000e+00
 0.000000e+00 0.000000e+00 0.000000e+00 5.885412e-01 4.114589e-01
 0.000000e+00 0.000000e+00 0.000000e+00 0.000000e+00 0.000000e+00
<ENDHMM>
~h "ay"
<BEGINHMM>
<NUMSTATES> 5
<STATE> 2
<MEAN> 39
 -1.768211e+00 -2.615053e+01 -6.447857e+00 -9.860691e+00 4.808486e+00 9.178773e-01 -1.466930e+01 -4.234914e+00 -8.884822e+00 -3.726470e+00 -1.199121e+01 -3.106876e+00 6.180275e+01 -5.695797e-01 -1.045758e+00 9.126326e-01 3.662383e-01 3.810816e-01 -1.732689e-01 5.998827e-01 1.179572e+00 -4.601563e-01 9.343415e-02 -9.024962e-01 6.084555e-01 7.096375e-01 -2.612206e-01 7.184478e-01 1.009474e-01 -1.110730e-01 -5.134953e-01 -4.753543e-01 7.950898e-02 -1.463643e-01 -1.657355e-02 -4.753852e-01 1.005921e-01 1.372627e-01 -3.525035e-01
<VARIANCE> 39
 1.694189e+01 4.001900e+01 3.168800e+01 4.260049e+01 5.120095e+01 6.330740e+01 2.543978e+01 4.055264e+01 4.555323e+01 5.336371e+01 6.104494e+01 3.415926e+01 2.826456e+01 9.445346e-01 1.499777e+00 2.368171e+00 2.054358e+00 2.247000e+00 2.870350e+00 3.107687e+00 1.612352e+00 2.135381e+00 4.544050e+00 3.591269e+00 2.780544e+00 5.893582e-01 3.057506e-01 2.809850e-01 3.621442e-01 5.652917e-01 2.710223e-01 4.914739e-01 4.816408e-01 4.758755e-01 4.754125e-01 7.199198e-01 7.179902e-01 4.254116e-01 1.946598e-01
<GCONST> 1.172336e+02
<STATE> 3
<MEAN> 39
 -3.955860e+00 -2.663988e+01 -2.504342e+00 -1.088315e+01 1.717880e+00 -3.095499e+00 -1.161031e+01 -2.395543e-01 -1.018470e+01 -5.517578e+00 -1.209123e+01 3.456149e-01 6.371862e+01 -3.673956e-01 3.909150e-01 7.970415e-01 -6.066896e-01 -7.416899e-01 -6.765256e-01 7.642490e-01 4.323023e-01 -3.215654e-01 -4.633259e-01 3.235716e-02 3.931446e-01 3.491028e-02 5.875836e-02 1.951839e-01 5.072066e-02 -1.856166e-01 -1.992054e-01 -4.791172e-02 3.014686e-02 -1.073365e-01 1.207126e-02 8.930758e-02 1.380602e-01 -1.653322e-01 -9.642439e-02
<VARIANCE> 39
 1.650740e+01 4.164602e+01 3.843331e+01 3.294239e+01 6.035027e+01 5.089016e+01 2.963118e+01 3.960474e+01 5.314121e+01 4.902789e+01 7.777582e+01 4.140963e+01 2.175899e+01 5.379212e-01 7.353952e-01 1.411215e+00 1.342758e+00 1.592129e+00 1.832405e+00 2.269839e+00 1.971030e+00 2.303642e+00 2.269013e+00 3.087228e+00 2.534401e+00 2.553879e-01 6.915150e-02 1.217961e-01 1.172149e-01 1.810684e-01 2.046252e-01 2.471193e-01 3.576566e-01 3.152388e-01 3.785861e-01 4.223771e-01 4.777316e-01 4.125085e-01 3.381347e-02
<GCONST> 1.034602e+02
<STATE> 4
<MEAN> 39
 -5.599389e+00 -2.033660e+01 5.027207e+00 -1.954498e+01 -7.126161e+00 -7.614759e+00 -7.142609e+00 -6.789963e-01 -1.135308e+01 -6.794251e+00 -1.277799e+01 -4.267345e-01 6.166129e+01 4.921320e-01 1.695572e+00 9.467217e-01 -1.177523e+00 -1.620915e+00 -1.086823e+00 -4.670870e-01 -8.561660e-01 -6.345858e-02 3.843715e-01 3.828789e-01 -2.987780e-01 -9.770479e-01 2.845687e-01 2.309921e-01 -2.539417e-01 3.977800e-01 8.014020e-02 -8.616138e-02 -4.719684e-01 -2.936525e-01 1.710480e-02 -8.345369e-02 3.089324e-02 -9.147753e-04 -2.941280e-01
<VARIANCE> 39
 1.513917e+01 4.165213e+01 3.717422e+01 4.941786e+01 6.802755e+01 3.682132e+01 6.326184e+01 5.120942e+01 4.632348e+01 5.183241e+01 4.962188e+01 2.928836e+01 3.473112e+01 7.654661e-01 1.005644e+00 1.634597e+00 2.556504e+00 1.983587e+00 3.421494e+00 4.795444e+00 3.169866e+00 3.111685e+00 3.396752e+00 2.695307e+00 2.524665e+00 6.131662e-01 1.172427e-01 1.438204e-01 2.402974e-01 4.467361e-01 4.637895e-01 4.317332e-01 8.377454e-01 4.565409e-01 5.635199e-01 7.881286e-01 5.381504e-01 5.591583e-01 8.536796e-02
<GCONST> 1.163960e+02
<TRANSP> 5
 0.000000e+00 1.000000e+00 0.000000e+00 0.000000e+00 0.000000e+00
 0.000000e+00 6.856151e-01 3.143849e-01 0.000000e+00 0.000000e+00
 0.000000e+00 0.000000e+00 8.244604e-01 1.755396e-01 0.000000e+00
 0.000000e+00 0.000000e+00 0.000000e+00 7.871649e-01 2.128351e-01
 0.000000e+00 0.000000e+00 0.000000e+00 0.000000e+00 0.000000e+00
<ENDHMM>
~h "ch"
<BEGINHMM>
<NUMSTATES> 5
<STATE> 2
<MEAN> 39
 -8.772589e+00 1.111817e+00 -4.936098e-01 -3.269053e+00 -5.012163e+00 -1.001179e+01 -1.320674e+01 -1.755901e+01 -1.508429e+01 -1.357711e+01 -1.259332e+01 -1.098709e+01 4.196407e+01 -4.037320e-01 -1.041330e+00 1.337053e+00 -1.083490e+00 6.197062e-01 -4.816109e-01 -2.161947e+00 -1.208386e+00 -6.313719e-01 1.932045e+00 8.587979e-01 7.291078e-01 2.693969e+00 -6.986895e-01 -4.973843e-01 8.117288e-01 -1.008728e+00 -2.771723e-01 5.152881e-01 4.957612e-01 2.665568e-01 3.191181e-01 7.796235e-01 1.360788e-01 7.644275e-01 1.069395e+00
<VARIANCE> 39
 6.898459e+01 7.881124e+00 8.753664e+00 9.767245e+01 2.185729e+01 3.694082e+01 3.699000e+01 1.597797e+02 3.541919e+01 5.989838e+01 3.428688e+01 4.451260e+01 2.606146e+01 1.185029e+01 2.808526e+00 3.711166e+00 9.955368e+00 8.267765e+00 7.347198e+00 2.206344e+00 1.641438e+00 1.574727e+00 7.645113e+00 4.298654e+00 6.684316e+00 8.347645e+00 2.150903e+00 6.904726e-01 3.857890e-01 1.423012e+00 1.490974e+00 1.211992e+00 1.070920e+00 7.534867e-01 1.119068e-01 7.362206e-01 9.416690e-01 8.069103e-01 3.856555e-01
<GCONST> 1.352813e+02
<STATE> 3
<MEAN> 39
 -1.044660e+01 -3.049340e+00 1.286693e+01 -1.910754e+01 -8.053386e+00 -9.468517e+00 -1.501116e+01 -1.731630e+01 -1.457540e+01 -2.257667e+00 -1.449361e+01 -3.078990e+00 5.807322e+01 -1.287767e+00 1.037274e+00 6.049632e-01 -1.152898e+00 -1.174293e-01 2.413795e-01 7.595304e-01 7.394937e-01 2.103698e-01 -3.023696e-01 -4.522510e-01 -6.921197e-01 7.221727e-01 -3.313602e-01 4.958960e-01 -4.580677e-01 7.199442e-01 3.310421e-02 7.448763e-02 1.368279e-01 7.919694e-02 1.460744e-01 -3.985443e-01 1.629544e-01 -3.713741e-01 -6.054260e-01
<VARIANCE> 39
 2.574322e+01 7.933257e+01 1.959016e+01 4.962583e+01 4.661671e+01 2.189565e+01 3.085419e+01 5.669233e+01 7.050247e+00 5.930092e+01 5.502210e+01 5.222353e+01 2.594351e+01 4.235589e+00 5.796050e+00 5.408709e+00 8.261615e+00 5.447302e+00 4.696493e+00 4.227044e+00 3.929360e+00 9.244271e-01 7.095697e+00 2.961478e+00 6.659822e+00 5.804647e+00 3.374584e-01 8.323032e-01 4.041748e-01 5.406866e-01 1.565487e+00 1.278398e+00 9.961354e-01 7.290602e-01 1.439959e-01 1.325583e+00 6.147004e-01 1.134071e+00 6.832462e-01
<GCONST> 1.326876e+02
<STATE> 4
<MEAN> 39
 -2.377044e+01 3.015619e+00 1.009204e+01 -1.380209e+01 -1.269061e+01 -6.793136e+00 -1.056249e+01 -9.186638e+00 -9.789810e+00 -4.717307e+00 -1.754292e+00 -3.716772e+00 5.556217e+01 4.560556e-01 -6.053815e-01 1.501089e-02 3.017126e-01 -1.223051e+00 -7.609583e-02 -2.830954e-01 7.047433e-02 3.995920e-01 4.862596e-01 1.413214e+00 6.688571e-01 -1.815256e-01 6.152368e-01 -3.829244e-01 -1.015175e-01 -1.102884e-01 3.062119e-02 -1.864830e-01 -2.609234e-02 6.816764e-02 1.313118e-02 -3.553034e-02 -3.341051e-01 -1.314980e-01 -1.601537e-02
<VARIANCE> 39
 9.980772e+01 2.237230e+01 2.113371e+01 2.751740e+01 5.101936e+01 9.015869e+01 1.968697e+01 5.476040e+01 2.234604e+01 4.709979e+01 5.479609e+01 3.030628e+01 1.705233e+01 1.809642e+01 3.183964e+00 3.318849e+00 3.808055e+00 5.026084e+00 1.244575e+01 2.976734e+00 4.784518e+00 2.911424e+00 2.607958e+00 4.300578e+00 3.845260e+00 3.174775e+00 2.379530e+00 5.792884e-01 5.333279e-01 7.246863e-01 9.049235e-01 2.314579e+00 5.659510e-01 1.064182e+00 4.825969e-01 5.554669e-01 6.281351e-01 7.570387e-01 6.668997e-01
<GCONST> 1.348893e+02
<TRANSP> 5
 0.000000e+00 1.000000e+00 0.000000e+00 0.000000e+00 0.000000e+00
 0.000000e+00 7.446538e-01 2.553462e-01 0.000000e+00 0.000000e+00
 0.000000e+00 0.000000e+00 8.420912e-01 1.579088e-01 0.000000e+00
 0.000000e+00 0.000000e+00 0.000000e+00 9.094841e-01 9.051595e-02
 0.000000e+00 0.000000e+00 0.000000e+00 0.000000e+00 0.000000e+00
<ENDHMM>
~h "dh"
<BEGINHMM>
<NUMSTATES> 5
<STATE> 2
<MEAN> 39
 -8.368216e+00 -1.889760e+00 -4.152577e+00 -6.536659e+00 -7.291296e+00 -1.115410e+01 -1.010611e+01 -8.458057e+00 -5.427782e+00 -7.556379e+00 -7.873169e+00 -5.078234e+00 4.397232e+01 8.944511e-02 5.215293e-02 -3.954588e-01 3.003586e-01 1.501361e-01 5.169017e-01 -1.619028e-01 1.641860e-01 9.358203e-02 -2.594901e-02 -1.956242e-01 -3.403761e-01 -1.202114e+00 2.739662e-02 -2.680848e-02 1.655838e-01 -5.582919e-02 6.238536e-02 1.205229e-01 -1.138816e-01 -3.475225e-01 -2.631070e-01 -2.040367e-01 -6.003462e-02 -9.298119e-02 2.184567e-02
<VARIANCE> 39
 1.024694e+02 1.142406e+02 7.152519e+01 5.256819e+01 5.292832e+01 6.234821e+01 5.774235e+01 7.088931e+01 4.925293e+01 5.629876e+01 5.656272e+01 3.507018e+01 1.285934e+02 1.692600e+00 1.656209e+00 2.205884e+00 2.276912e+00 1.965324e+00 2.930852e+00 3.016328e+00 3.495105e+00 2.385488e+00 2.640459e+00 2.378452e+00 2.288458e+00 1.525331e+00 4.123504e-01 4.531889e-01 5.622201e-01 3.092665e-01 6.800902e-01 4.963371e-01 5.976720e-01 6.113101e-01 5.228928e-01 6.154329e-01 5.855934e-01 3.692300e-01 2.798882e-01
<GCONST> 1.273227e+02
<STATE> 3
<MEAN> 39
 -7.900562e+00 1.095962e+00 -4.681457e+00 -4.432620e+00 -7.782696e+00 -9.185865e+00 -1.044861e+01 -1.094352e+01 -7.455193e+00 -9.301976e+00 -8.127680e+00 -5.912944e+00 3.915446e+01 2.844713e-01 1.128425e-01 9.065992e-02 2.095301e-01 -6.645952e-02 4.306606e-01 -2.286807e-01 -5.890778e-01 -6.004440e-01 -6.079528e-01 -1.551954e-01 -3.813748e-01 -9.879557e-01 -1.216973e-01 -6.421654e-02 1.507517e-01 -1.123802e-01 2.020366e-02 -9.403941e-02 -8.024190e-02 -2.927493e-01 -1.571309e-01 -3.939161e-02 8.290708e-02 3.020511e-02 3.694206e-01
<VARIANCE> 39
 8.342056e+01 8.159679e+01 6.345781e+01 4.000770e+01 5.092130e+01 5.176593e+01 6.487302e+01 8.299715e+01 5.896502e+01 5.137284e+01 5.077925e+01 3.744118e+01 9.013589e+01 2.642181e+00 2.617667e+00 2.301855e+00 2.274001e+00 2.623428e+00 3.153907e+00 2.737711e+00 3.532409e+00 3.613032e+00 3.631200e+00 2.507527e+00 2.166041e+00 3.126287e+00 5.664685e-01 5.057802e-01 4.263688e-01 3.180695e-01 8.093487e-01 6.471584e-01 7.780974e-01 8.686413e-01 6.673401e-01 6.895971e-01 5.515183e-01 4.021322e-01 3.989671e-01
<GCONST> 1.307684e+02
<STATE> 4
<MEAN> 39
 -1.046933e+01 -1.115532e+00 -4.372025e+00 -4.487195e+00 -6.712181e+00 -5.792386e+00 -8.177956e+00 -9.234431e+00 -5.862678e+00 -8.081704e+00 -6.859277e+00 -6.033569e+00 3.530354e+01 -2.322337e-01 1.455221e-01 1.030317e-01 2.445200e-01 2.314548e-01 4.000091e-01 -9.289914e-02 -5.533938e-01 -2.588975e-01 9.030849e-03 1.229346e-06 -1.651130e-01 -6.647500e-01 -3.611515e-02 -5.709345e-02 1.168879e-01 -1.426509e-01 -2.598897e-02 -3.582987e-01 -1.014874e-01 -1.091999e-01 -3.351701e-02 1.085095e-02 7.902201e-02 1.751195e-01 5.237182e-01
<VARIANCE> 39
 6.552184e+01 5.657199e+01 3.792992e+01 3.314853e+01 4.321830e+01 5.347786e+01 5.210571e+01 7.505016e+01 4.925107e+01 4.492495e+01 4.442735e+01 4.080466e+01 7.803077e+01 2.138657e+00 2.442066e+00 2.421841e+00 1.828693e+00 3.032141e+00 2.962003e+00 2.619117e+00 3.306028e+00 3.668117e+00 4.067014e+00 2.452171e+00 1.878177e+00 2.153849e+00 4.629747e-01 3.082821e-01 3.432418e-01 3.527929e-01 7.009218e-01 5.106186e-01 6.137869e-01 6.503555e-01 6.865085e-01 7.344141e-01 5.013643e-01 4.413536e-01 4.284134e-01
<GCONST> 1.260578e+02
<TRANSP> 5
 0.000000e+00 1.000000e+00 0.000000e+00 0.000000e+00 0.000000e+00
 0.000000e+00 2.914878e-01 7.085122e-01 0.000000e+00 0.000000e+00
 0.000000e+00 0.000000e+00 2.417085e-01 7.582915e-01 0.000000e+00
 0.000000e+00 0.000000e+00 0.000000e+00 4.232092e-01 5.767908e-01
 0.000000e+00 0.000000e+00 0.000000e+00 0.000000e+00 0.000000e+00
<ENDHMM>
~h "ea"
<BEGINHMM>
<NUMSTATES> 5
<STATE> 2
<MEAN> 39
 -1.037278e+01 -5.190904e+00 2.796918e+00 -1.002407e+01 -8.179517e+00 -1.115856e+01 -9.993904e+00 -1.143346e+01 -9.629462e+00 -6.364933e+00 -4.526418e+00 -2.512542e+00 4.527775e+01 1.085012e+00 -2.344403e+00 2.145125e+00 -2.855048e+00 -1.217681e+00 -1.795228e+00 -1.101571e-01 7.691536e-01 -8.554697e-01 8.872766e-01 -3.332278e-01 5.818943e-01 4.438996e+00 -8.245319e-03 -4.776277e-01 5.692487e-02 -1.586328e-01 1.687534e-01 2.812713e-01 4.584669e-01 4.818331e-01 -8.760239e-02 -6.031368e-02 -4.139566e-01 -1.124175e-01 2.997894e-02
<VARIANCE> 39
 4.361079e+01 8.073093e+01 6.445957e+01 1.126903e+02 7.966515e+01 6.542160e+01 4.097328e+01 6.944862e+01 4.313996e+01 5.148318e+01 4.197424e+01 3.507706e+01 1.688266e+02 6.884555e+00 7.753158e+00 7.442730e+00 1.070782e+01 1.125119e+01 4.525260e+00 6.488276e+00 1.016197e+01 5.126639e+00 6.580524e+00 7.210124e+00 3.999228e+00 8.349543e+00 1.391144e+00 1.180417e+00 1.828834e+00 2.492017e+00 2.759470e+00 1.216699e+00 8.818507e-01 1.347676e+00 8.508763e-01 1.194777e+00 1.121902e+00 7.081473e-01 2.831754e+00
<GCONST> 1.550763e+02
<STATE> 3
<MEAN> 39
 -6.581782e+00 -2.108045e+01 9.834463e+00 -2.107273e+01 -1.101256e+01 -8.169381e+00 -4.532424e+00 -9.153036e-01 -1.272051e+01 -2.854280e+00 -1.077377e+01 -2.640503e+00 6.126641e+01 5.091128e-01 -1.289433e+00 -4.207478e-01 8.576081e-01 3.397911e-01 3.146568e-01 6.872125e-01 1.081281e+00 -4.132495e-01 -1.861181e-01 -2.475077e-01 -3.438702e-01 1.085435e-01 9.933946e-02 3.233882e-01 -3.302400e-01 4.372111e-01 -5.392374e-02 -3.354127e-01 -1.615800e-01 -2.309700e-01 5.915441e-02 -1.542172e-01 3.524735e-01 -1.921279e-02 -3.570479e-01
<VARIANCE> 39
 9.997834e+00 2.778912e+01 1.759975e+01 3.231940e+01 3.280259e+01 5.522845e+01 1.504371e+01 2.658639e+01 3.155061e+01 2.069410e+01 3.017045e+01 3.756594e+01 2.336175e+01 5.949369e-01 9.013709e-01 1.088149e+00 1.756947e+00 1.525925e+00 3.822867e+00 1.224506e+00 1.714256e+00 1.940717e+00 2.051314e+00 2.002099e+00 2.819305e+00 4.578375e-01 1.052973e-01 2.849561e-01 3.083541e-01 3.988259e-01 2.815748e-01 4.132475e-01 2.943043e-01 5.258161e-01 3.694962e-01 4.331649e-01 2.707462e-01 5.256622e-01 2.447071e-01
<GCONST> 1.038589e+02
<STATE> 4
<MEAN> 39
 9.482402e-01 -2.192573e+01 -1.511158e+00 -7.030900e+00 -8.570055e+00 -1.675713e+01 -2.943114e+00 1.007486e+00 -1.197336e+01 -8.697266e+00 -9.066258e+00 -5.618207e+00 5.588978e+01 1.585417e-01 8.835058e-01 -5.007463e-01 4.888623e-01 -2.670959e-01 -8.008948e-02 -2.438294e-01 -6.995805e-01 9.707609e-02 -5.048947e-01 1.182534e-01 -2.184106e-01 -8.034015e-01 -1.239793e-01 1.182309e-01 8.112289e-02 -1.603289e-01 -1.586796e-02 2.268295e-01 -4.484290e-02 -1.239349e-01 4.666237e-02 2.560454e-02 -2.212023e-02 7.855649e-02 -4.593186e-02
<VARIANCE> 39
 2.061919e+01 8.109084e+01 6.973461e+01 5.125383e+01 8.562383e+01 4.286423e+01 2.433226e+01 4.302042e+01 6.333250e+01 3.467688e+01 2.887470e+01 2.313534e+01 5.709845e+01 1.705096e+00 2.716015e+00 3.135596e+00 3.369315e+00 3.193215e+00 3.562607e+00 1.929581e+00 3.954781e+00 3.238136e+00 2.673758e+00 2.858338e+00 2.316406e+00 1.207313e+00 2.199722e-01 4.353893e-01 3.366740e-01 4.965686e-01 6.944040e-01 4.704595e-01 3.846798e-01 6.349642e-01 6.857752e-01 5.274310e-01 5.535098e-01 4.411583e-01 1.511128e-01
<GCONST> 1.222976e+02
<TRANSP> 5
 0.000000e+00 1.000000e+00 0.000000e+00 0.000000e+00 0.000000e+00
 0.000000e+00 8.391943e-01 1.608058e-01 0.000000e+00 0.000000e+00
 0.000000e+00 0.000000e+00 8.588872e-01 1.411128e-01 0.000000e+00
 0.000000e+00 0.000000e+00 0.000000e+00 9.309983e-01 6.900168e-02
 0.000000e+00 0.000000e+00 0.000000e+00 0.000000e+00 0.000000e+00
<ENDHMM>
~h "eh"
<BEGINHMM>
<NUMSTATES> 5
<STATE> 2
<MEAN> 39
 -6.163576e+00 -1.980464e+00 -5.222457e+00 -4.425925e+00 -9.057831e+00 -1.118252e+01 -1.327103e+01 -1.159737e+01 -5.364513e+00 -9.177081e+00 -7.045521e+00 -7.229130e+00 4.516496e+01 1.297502e+00 -3.355335e+00 1.933643e+00 -2.708848e+00 -4.752124e-01 -3.563998e-01 -1.061612e+00 1.568957e+00 -2.509281e-01 1.407323e-01 -1.663169e+00 8.220498e-01 3.220628e+00 -8.722372e-02 -7.926946e-01 3.366948e-01 -5.910797e-01 1.652210e-01 4.137269e-01 4.611689e-01 5.818900e-01 -2.657065e-01 1.025594e-01 -2.955548e-01 2.563263e-01 7.447369e-01
<VARIANCE> 39
 9.333570e+01 8.985736e+01 6.373876e+01 7.393821e+01 4.447723e+01 7.511839e+01 9.209387e+01 7.318542e+01 5.389221e+01 5.603168e+01 6.268225e+01 4.421103e+01 7.689601e+01 9.915341e+00 8.843074e+00 5.645716e+00 9.730767e+00 6.399417e+00 1.013154e+01 7.439021e+00 8.458508e+00 5.406838e+00 3.975276e+00 9.092130e+00 5.215673e+00 6.828407e+00 1.072675e+00 9.965404e-01 9.439359e-01 1.746382e+00 1.109483e+00 1.607373e+00 1.413816e+00 1.221400e+00 8.610592e-01 6.648747e-01 1.322318e+00 7.226468e-01 1.058518e+00
<GCONST> 1.531686e+02
<STATE> 3
<MEAN> 39
 -4.533309e+00 -2.057234e+01 4.059737e+00 -1.779781e+01 -8.572688e+00 -8.244815e+00 -9.129820e+00 2.733749e-01 -1.281961e+01 -6.362684e+00 -1.504590e+01 -1.775412e+00 6.145047e+01 2.034872e-01 -8.072891e-01 8.721747e-01 -1.103649e+00 -2.916681e-01 2.013144e-01 9.317188e-01 6.439723e-01 -9.142012e-01 1.418521e-01 -7.863033e-01 -2.014253e-02 9.403228e-01 1.055633e-02 1.066520e+00 -4.945174e-01 6.832932e-01 -1.346845e-01 -1.513009e-01 -1.245158e-01 -6.403854e-01 3.009461e-01 -2.558258e-01 4.398108e-01 -3.803138e-01 -8.792949e-01
<VARIANCE> 39
 1.302857e+01 2.595525e+01 3.837078e+01 3.043798e+01 6.709776e+01 5.441513e+01 4.177552e+01 2.468376e+01 3.440938e+01 4.465253e+01 4.895255e+01 3.259691e+01 1.117107e+01 2.735523e+00 9.068229e+00 3.428757e+00 5.222797e+00 5.383560e+00 5.330298e+00 4.586851e+00 6.391281e+00 3.097444e+00 4.741687e+00 3.855355e+00 3.539395e+00 5.717075e+00 5.028834e-01 5.803517e-01 4.946517e-01 5.643577e-01 8.265896e-01 9.582477e-01 8.246068e-01 8.303403e-01 5.320623e-01 7.628665e-01 7.565570e-01 6.690059e-01 3.333793e-01
<GCONST> 1.309052e+02
<STATE> 4
<MEAN> 39
 -1.850047e+00 -1.368524e+01 3.506229e+00 -1.480719e+01 -1.489048e+01 -9.848081e+00 -7.194010e+00 -1.451380e+00 -1.127768e+01 -7.694445e+00 -1.256408e+01 -4.494288e+00 5.608745e+01 1.949100e-01 1.371702e+00 -9.247793e-01 9.634185e-01 -6.146940e-01 -9.644766e-02 7.313496e-01 -3.957393e-01 9.624487e-01 -1.094397e+00 6.658617e-01 -9.684868e-01 -1.216386e+00 -4.355432e-01 1.973536e-01 -1.736655e-01 1.382587e-01 4.663326e-01 1.495891e-01 4.128256e-02 -1.294711e-01 1.162486e-01 6.502002e-02 1.848454e-01 4.241388e-02 -7.797626e-02
<VARIANCE> 39
 2.296386e+01 4.391021e+01 4.285775e+01 4.787966e+01 9.897584e+01 4.902872e+01 3.857426e+01 3.644763e+01 4.822042e+01 6.200637e+01 6.664953e+01 5.495287e+01 4.135855e+01 3.186352e+00 6.878135e+00 3.312333e+00 2.834085e+00 5.851168e+00 3.608147e+00 4.147387e+00 3.143999e+00 2.945928e+00 4.784722e+00 4.602211e+00 2.839331e+00 4.431372e+00 7.133269e-01 1.004511e+00 5.106090e-01 6.458892e-01 9.730828e-01 5.541200e-01 7.369427e-01 8.860472e-01 4.078840e-01 8.744395e-01 9.518836e-01 4.422356e-01 7.644272e-01
<GCONST> 1.348846e+02
<TRANSP> 5
 0.000000e+00 1.000000e+00 0.000000e+00 0.000000e+00 0.000000e+00
