~o
<STREAMINFO> 1 39
<VECSIZE> 39<NULLD><MFCC_D_A_0><DIAGC>
~s "silst"
<MEAN> 39
 -1.688775e+01 -5.055746e+00 -6.823434e+00 -2.575430e+00 -2.684014e+00 1.105527e+00 -1.668016e-01 -1.402974e+00 -2.272377e+00 -3.735553e+00 -2.769356e+00 -1.276277e+00 2.569448e+01 -1.767782e-01 -4.213628e-02 -6.932379e-02 -6.123257e-02 -4.193924e-02 -1.297656e-02 -3.553894e-02 1.394255e-02 1.254831e-02 1.331630e-01 7.176353e-02 6.744377e-02 -2.506756e-01 -1.357839e-03 1.804526e-02 3.061690e-02 1.195399e-02 1.697500e-02 -2.187750e-02 -4.405623e-03 -4.759073e-03 1.418545e-02 2.238572e-03 1.221924e-02 1.386969e-02 1.135001e-02
<VARIANCE> 39
 4.821107e+00 1.073727e+01 1.180260e+01 1.361692e+01 1.600170e+01 1.775504e+01 1.778852e+01 2.284029e+01 1.795447e+01 1.900847e+01 1.710387e+01 1.463344e+01 7.821856e+00 2.548681e-01 5.160745e-01 7.840736e-01 1.105895e+00 1.467554e+00 1.704029e+00 1.841455e+00 1.996163e+00 1.850971e+00 1.832629e+00 1.691175e+00 1.438537e+00 2.112150e-01 4.633803e-02 9.005777e-02 1.475902e-01 1.950432e-01 2.750008e-01 3.190526e-01 3.603913e-01 4.066700e-01 3.698055e-01 3.712725e-01 3.437605e-01 2.875614e-01 3.971412e-02
<GCONST> 8.546874e+01
~h "b"
<BEGINHMM>
<NUMSTATES> 5
<STATE> 2
<MEAN> 39
 5.022512e+00 -1.578238e+01 -1.426843e+01 -6.749312e+00 -2.728114e+00 -6.752860e+00 -1.397697e+01 -1.627383e+00 -8.857987e+00 -7.723497e+00 -3.846694e+00 -7.979251e+00 5.222789e+01 1.933300e-02 4.225181e-01 4.231596e-01 7.786887e-01 -7.267643e-01 -8.563404e-01 1.422149e-01 2.374414e-01 2.849423e-01 -8.731682e-01 -1.384377e-01 -1.040329e-01 -5.574690e-01 -9.186395e-02 1.159575e-01 1.049185e-01 -9.985511e-02 1.810314e-03 7.593669e-02 5.395445e-02 -8.348429e-02 2.814812e-02 1.039674e-02 3.282943e-02 5.999900e-02 -8.162744e-02
<VARIANCE> 39
 1.816091e+01 5.780103e+01 7.810878e+01 5.827608e+01 1.005156e+02 1.808759e+02 4.282598e+01 9.937656e+01 3.647267e+01 9.719486e+01 4.301815e+01 1.704940e+01 2.028184e+01 7.828824e-01 2.477631e+00 2.203323e+00 2.267207e+00 2.786565e+00 3.359072e+00 2.672376e+00 3.785426e+00 2.779997e+00 2.575485e+00 2.085529e+00 1.737870e+00 7.163950e-01 9.401217e-02 1.779515e-01 2.210331e-01 3.792864e-01 4.646781e-01 3.795780e-01 4.518988e-01 4.865773e-01 4.100975e-01 4.991665e-01 3.672326e-01 2.347894e-01 6.914336e-02
<GCONST> 1.162182e+02
<STATE> 3
<MEAN> 39
 1.415155e+00 -2.726256e+00 -1.839535e+00 -8.313643e+00 -1.527935e+01 -1.178600e+01 -1.099229e+01 -9.602038e+00 -8.115621e+00 -1.259402e+01 -9.193161e+00 -7.446537e+00 4.461912e+01 -7.640375e-01 1.677992e+00 -1.448887e-01 1.863746e-01 2.954500e-01 3.512780e-01 4.526069e-01 -4.841075e-01 5.349680e-01 3.315883e-01 -2.367158e-01 -4.403413e-01 -1.736782e+00 -2.321654e-01 -2.170675e-01 -1.654948e-01 4.522464e-02 3.013084e-01 1.868908e-01 5.998615e-02 8.155953e-02 -6.962316e-02 2.702751e-01 1.331934e-01 -2.260082e-02 1.122391e-03
<VARIANCE> 39
 3.193736e+01 5.208437e+01 6.059900e+01 3.437073e+01 6.193332e+01 2.889051e+01 2.964425e+01 8.134384e+01 5.515565e+01 5.294522e+01 7.560854e+01 3.617012e+01 1.694614e+01 1.242251e+00 1.825166e+00 2.738460e+00 2.439107e+00 1.976746e+00 3.110682e+00 2.370410e+00 3.362468e+00 3.516346e+00 4.463346e+00 2.935634e+00 3.228635e+00 3.731811e-01 1.651833e-01 2.990258e-01 4.447576e-01 4.020570e-01 4.286519e-01 3.812654e-01 5.277856e-01 5.357187e-01 7.492000e-01 7.018377e-01 6.959432e-01 6.509148e-01 7.061139e-02
<GCONST> 1.194733e+02
<STATE> 4
<MEAN> 39
 -5.616633e+00 -4.332506e-01 -5.066100e+00 -7.703742e+00 -1.130714e+01 -6.442192e+00 -7.747205e+00 -1.156333e+01 -9.265009e+00 -1.054937e+01 -9.074259e+00 -6.412727e+00 3.574133e+01 -1.089362e+00 -6.617557e-02 -2.365374e-01 6.663072e-01 9.351996e-01 5.944605e-01 4.134668e-01 1.532795e-01 7.217966e-02 2.773854e-02 3.095463e-01 2.344380e-01 -1.078377e+00 -3.623144e-02 -3.432922e-01 2.057407e-01 4.185189e-02 -5.365789e-02 -1.684634e-01 -1.344902e-01 1.185638e-01 5.654745e-02 1.671983e-02 2.205876e-01 1.770076e-01 3.257850e-01
<VARIANCE> 39
 4.106904e+01 2.256334e+01 2.636945e+01 2.391491e+01 4.408682e+01 2.952768e+01 1.857845e+01 3.478717e+01 3.577590e+01 3.463991e+01 3.229961e+01 2.282813e+01 2.587502e+01 6.331468e-01 1.803344e+00 2.282663e+00 1.202793e+00 1.759284e+00 1.878197e+00 2.057507e+00 3.267640e+00 3.089049e+00 2.444605e+00 2.756685e+00 2.179953e+00 4.567072e-01 2.003486e-01 2.913688e-01 2.587988e-01 2.063969e-01 3.747864e-01 3.894328e-01 4.361016e-01 6.920030e-01 6.248427e-01 5.742922e-01 5.635194e-01 5.419328e-01 1.283439e-01
<GCONST> 1.096945e+02
<TRANSP> 5
 0.000000e+00 1.000000e+00 0.000000e+00 0.000000e+00 0.000000e+00
 0.000000e+00 8.295959e-01 1.704041e-01 0.000000e+00 0.000000e+00
 0.000000e+00 0.000000e+00 6.253003e-01 3.746997e-01 0.000000e+00
 0.000000e+00 0.000000e+00 0.000000e+00 7.326623e-01 2.673378e-01
 0.000000e+00 0.000000e+00 0.000000e+00 0.000000e+00 0.000000e+00
<ENDHMM>
~h "d"
<BEGINHMM>
<NUMSTATES> 5
<STATE> 2
<MEAN> 39
 -8.161843e+00 -1.214421e-02 -2.772507e+00 -6.217568e+00 -9.458997e+00 -9.552425e+00 -7.957780e+00 -1.161389e+01 -8.537807e+00 -9.592716e+00 -6.564557e+00 -5.109177e+00 3.975677e+01 -1.367611e+00 -2.346307e-01 5.148807e-01 -6.558529e-01 1.112404e+00 -4.775214e-01 -9.764376e-02 -8.972511e-01 2.587811e-01 4.718405e-01 5.590204e-01 4.542683e-01 1.368003e+00 7.065446e-02 -4.807400e-01 3.983796e-01 -7.507091e-01 6.090021e-02 -3.165976e-01 -2.803512e-01 1.405376e-01 -7.388762e-02 3.918787e-01 1.025945e-02 3.791544e-01 9.649630e-01
<VARIANCE> 39
 6.429923e+01 4.931133e+01 4.242132e+01 4.609163e+01 5.676912e+01 5.149415e+01 4.839378e+01 6.271726e+01 4.976690e+01 5.147660e+01 5.218045e+01 3.112965e+01 9.906644e+01 6.993545e+00 6.358688e+00 6.247014e+00 6.230208e+00 7.512996e+00 5.999329e+00 4.829248e+00 6.646101e+00 4.958429e+00 4.803012e+00 3.976705e+00 3.831375e+00 8.847508e+00 1.160320e+00 8.887851e-01 8.725322e-01 8.304823e-01 1.273433e+00 8.301815e-01 8.601754e-01 1.260916e+00 9.334212e-01 8.073916e-01 7.550030e-01 7.196595e-01 1.213414e+00
<GCONST> 1.451064e+02
<STATE> 3
<MEAN> 39
 -9.886928e+00 -6.886286e+00 1.615033e+00 -1.402813e+01 -5.584789e+00 -1.263716e+01 -1.122457e+01 -1.153631e+01 -7.968662e+00 -4.141153e+00 -5.245662e+00 -2.502618e-01 5.143154e+01 5.541655e-01 -1.550079e+00 9.887055e-01 -1.408867e+00 -4.441909e-03 -7.248465e-01 -5.686705e-01 1.028869e+00 -2.373716e-01 7.429943e-01 -5.188492e-01 8.499359e-01 2.236616e+00 3.993814e-01 1.628372e-01 -2.294652e-01 5.783961e-01 -1.943225e-01 3.460647e-01 2.182682e-01 4.198099e-01 1.668948e-02 -2.898813e-01 -3.590023e-01 -3.473487e-01 -6.928718e-01
<VARIANCE> 39
 8.646911e+01 7.685854e+01 8.344934e+01 7.095707e+01 9.699992e+01 9.584075e+01 9.000191e+01 8.932474e+01 6.145520e+01 5.987518e+01 4.975304e+01 4.562133e+01 5.053642e+01 7.663044e+00 7.708704e+00 6.736091e+00 8.642448e+00 8.235408e+00 8.282782e+00 8.894958e+00 1.003099e+01 7.316753e+00 6.013222e+00 5.470406e+00 5.794200e+00 1.164877e+01 1.438031e+00 1.279902e+00 1.233693e+00 1.329872e+00 1.915754e+00 1.682981e+00 1.490586e+00 1.839049e+00 1.295562e+00 1.052823e+00 9.897412e-01 1.123362e+00 1.428864e+00
<GCONST> 1.577653e+02
<STATE> 4
<MEAN> 39
 -5.918851e+00 -9.271066e+00 2.694334e+00 -1.102323e+01 -7.473873e+00 -1.334272e+01 -1.047143e+01 -6.848991e+00 -1.066239e+01 -8.245433e+00 -9.805712e+00 -1.852618e+00 5.184288e+01 1.562669e-01 7.512397e-01 -2.410134e-01 5.431489e-01 -4.274125e-01 4.523196e-01 2.727025e-01 2.037011e-01 2.995653e-01 -4.229035e-01 -7.927153e-02 -6.275172e-01 -9.007300e-01 -1.051826e-01 1.333182e-01 -2.645655e-01 1.381540e-01 2.596337e-03 8.904842e-02 -2.829482e-02 -1.598582e-01 9.137993e-02 -2.291430e-03 1.479043e-01 -6.521091e-02 -2.224451e-01
<VARIANCE> 39
 6.477147e+01 1.083223e+02 7.266914e+01 7.671745e+01 6.903019e+01 9.852808e+01 7.423525e+01 6.355639e+01 5.515708e+01 5.940432e+01 6.101890e+01 4.639243e+01 8.290443e+01 3.551840e+00 4.352377e+00 4.715971e+00 4.303793e+00 5.070580e+00 5.152058e+00 5.078500e+00 5.154956e+00 4.391980e+00 4.444088e+00 4.106357e+00 3.989625e+00 3.249474e+00 6.012166e-01 7.701867e-01 7.567894e-01 7.081618e-01 8.887995e-01 9.653280e-01 1.047541e+00 8.949758e-01 8.479397e-01 9.044449e-01 7.331132e-01 8.268671e-01 6.767741e-01
<GCONST> 1.433586e+02
<TRANSP> 5
 0.000000e+00 1.000000e+00 0.000000e+00 0.000000e+00 0.000000e+00
 0.000000e+00 6.557221e-01 3.442779e-01 0.000000e+00 0.000000e+00
 0.000000e+00 0.000000e+00 6.691973e-01 3.308027e-01 0.000000e+00
 0.000000e+00 0.000000e+00 0.000000e+00 7.516353e-01 2.483647e-01
 0.000000e+00 0.000000e+00 0.000000e+00 0.000000e+00 0.000000e+00
<ENDHMM>
~h "f"
<BEGINHMM>
<NUMSTATES> 5
<STATE> 2
<MEAN> 39
 -1.511985e+01 -3.821428e+00 -2.670524e+00 -9.973943e+00 -6.005043e+00 -7.935685e+00 -4.897190e+00 -8.222697e+00 -4.859212e+00 -1.096547e+01 -8.452964e+00 -5.848768e+00 4.329671e+01 3.431058e-02 -2.640731e-01 1.111838e+00 4.578057e-02 -5.567309e-02 -1.099453e+00 -1.241179e+00 -6.627250e-01 -6.169162e-01 4.220006e-02 8.584982e-02 7.107006e-01 5.874076e-01 4.925618e-01 -2.394147e-01 6.661999e-02 -8.073095e-02 -1.212047e-01 -3.343151e-01 -5.685355e-01 -1.153764e-01 -3.743329e-01 7.140742e-02 -5.001518e-02 2.378478e-01 3.734138e-01
<VARIANCE> 39
 5.541058e+01 2.580716e+01 8.044023e+01 5.048628e+01 2.480591e+01 5.498494e+01 3.511096e+01 4.010094e+01 4.156868e+01 6.355835e+01 4.290637e+01 3.266500e+01 8.744176e+01 8.098062e+00 3.812648e+00 5.092044e+00 6.807034e+00 3.426210e+00 6.634524e+00 6.779810e+00 5.707041e+00 4.191478e+00 2.498700e+00 5.083668e+00 4.216306e+00 8.852869e+00 7.792009e-01 4.394881e-01 6.758198e-01 7.479337e-01 5.508439e-01 8.650006e-01 9.783189e-01 6.603013e-01 6.250227e-01 7.003853e-01 8.501154e-01 5.626537e-01 7.046905e-01
<GCONST> 1.378193e+02
<STATE> 3
<MEAN> 39
 -7.004457e+00 -6.635441e+00 2.032506e+00 -1.130612e+01 -7.932921e+00 -1.702330e+01 -1.714815e+01 -1.187885e+01 -8.436900e+00 -5.591675e+00 -9.333948e+00 7.655416e-01 4.968155e+01 1.530668e+00 -1.395960e+00 5.147790e-01 -6.167663e-01 -3.099640e-01 -4.293092e-01 -1.214747e+00 4.530159e-01 -4.827723e-01 4.265888e-01 -7.902820e-01 -1.501464e-01 1.559720e+00 -3.092271e-01 1.832504e-01 -2.956750e-01 3.319774e-01 1.505025e-01 6.365556e-01 7.250067e-01 2.435184e-01 1.419124e-01 -8.277012e-02 1.154067e-01 -4.262807e-01 -5.457771e-01
<VARIANCE> 39
 5.599636e+01 5.776033e+01 6.870642e+01 5.708667e+01 4.484059e+01 7.247370e+01 5.159119e+01 7.153146e+01 5.377071e+01 7.446214e+01 5.132093e+01 6.172602e+01 6.125240e+01 5.904377e+00 5.134147e+00 4.607635e+00 5.529549e+00 3.835956e+00 9.120502e+00 7.451575e+00 6.433289e+00 4.070138e+00 7.193239e+00 5.191899e+00 6.626779e+00 8.923744e+00 1.130677e+00 9.101801e-01 8.232852e-01 9.100506e-01 6.166121e-01 1.057381e+00 1.057938e+00 1.178085e+00 6.359744e-01 1.085583e+00 1.142699e+00 1.089103e+00 9.892229e-01
<GCONST> 1.473518e+02
<STATE> 4
<MEAN> 39
 -9.224097e+00 -7.624600e+00 9.003168e-02 -6.289106e+00 -9.486059e+00 -1.412750e+01 -1.289480e+01 -9.425762e+00 -8.289968e+00 -9.180680e+00 -8.182233e+00 -3.540697e+00 4.681859e+01 -5.492718e-01 1.171040e-01 -8.548066e-02 4.269215e-01 8.174375e-03 2.787839e-01 4.002189e-01 -1.628307e-01 -6.032014e-02 -1.999225e-02 2.198600e-01 -5.941129e-02 -6.530752e-01 2.882184e-02 8.231527e-02 -6.848200e-02 -3.494995e-02 3.678258e-02 2.886092e-02 8.751044e-03 -4.095012e-02 7.740480e-02 3.191657e-02 9.573340e-02 8.740357e-02 8.074252e-03
<VARIANCE> 39
 7.817219e+01 6.892577e+01 3.458702e+01 7.706988e+01 5.034297e+01 6.073436e+01 4.108746e+01 8.724681e+01 4.308800e+01 6.879501e+01 3.922353e+01 3.791840e+01 8.210197e+01 2.692391e+00 2.867849e+00 1.980512e+00 3.172607e+00 2.582454e+00 2.557092e+00 3.220330e+00 3.849903e+00 3.165673e+00 3.439753e+00 2.956528e+00 1.999073e+00 1.162008e+00 6.402112e-01 4.292368e-01 4.122676e-01 6.198685e-01 4.897437e-01 5.209497e-01 6.077334e-01 7.938510e-01 5.928511e-01 5.799996e-01 6.537602e-01 4.352999e-01 1.906174e-01
<GCONST> 1.279432e+02
<TRANSP> 5
 0.000000e+00 1.000000e+00 0.000000e+00 0.000000e+00 0.000000e+00
 0.000000e+00 6.655638e-01 3.344363e-01 0.000000e+00 0.000000e+00
 0.000000e+00 0.000000e+00 6.836609e-01 3.163391e-01 0.000000e+00
 0.000000e+00 0.000000e+00 0.000000e+00 8.683268e-01 1.316732e-01
 0.000000e+00 0.000000e+00 0.000000e+00 0.000000e+00 0.000000e+00
<ENDHMM>
~h "g"
<BEGINHMM>
<NUMSTATES> 5
<STATE> 2
<MEAN> 39
 -1.633029e+01 -3.622962e+00 -9.892420e+00 -2.554052e+00 -5.787066e+00 -3.626506e+00 -4.908143e+00 -9.030470e+00 -3.481291e+00 -4.868506e+00 -4.754230e+00 -2.900542e+00 4.126083e+01 8.003238e-01 -1.855485e-01 -2.809159e-01 -4.772112e-01 5.504312e-01 -4.295316e-01 -5.252354e-01 -4.081628e-02 -1.981713e-01 1.494504e-01 5.735271e-01 2.619235e-01 7.781652e-01 2.395606e-01 -1.615577e-01 2.729964e-01 -2.547094e-01 -1.182591e-01 3.507447e-02 -8.877200e-02 1.889883e-01 -8.899581e-02 1.271538e-02 -3.121207e-01 -1.011752e-01 4.828671e-01
<VARIANCE> 39
 1.427263e+02 9.673107e+01 5.464909e+01 2.786993e+01 4.167226e+01 6.823425e+01 4.306123e+01 4.402399e+01 5.825989e+01 4.695348e+01 4.033552e+01 1.959795e+01 9.355046e+01 1.131126e+01 8.973078e+00 6.357157e+00 5.718580e+00 4.730125e+00 8.012643e+00 5.469411e+00 6.909933e+00 5.092378e+00 5.284822e+00 3.900005e+00 2.736699e+00 1.263493e+01 1.393005e+00 9.866820e-01 1.241552e+00 1.289561e+00 9.565190e-01 1.020864e+00 7.282085e-01 1.158503e+00 9.453440e-01 1.227929e+00 1.102124e+00 4.164265e-01 1.876921e+00
<GCONST> 1.474360e+02
<STATE> 3
<MEAN> 39
 -6.216936e+00 -1.368272e+01 -1.292703e+01 -6.174830e+00 -5.160071e+00 -4.100892e+00 -1.314163e+01 -5.786747e+00 -9.061106e+00 -3.881211e+00 -9.522365e+00 -4.523233e+00 5.706668e+01 1.055657e-01 2.449140e-01 1.463794e+00 -4.944228e-01 -1.298550e+00 -1.041779e+00 -1.227736e-01 -1.063105e-01 -4.831950e-01 1.372338e-01 -3.868738e-01 -4.469774e-01 1.080307e+00 2.095096e-02 1.278885e-01 3.473516e-01 -1.120953e-02 -3.945459e-01 1.525268e-01 2.220398e-01 -7.708619e-02 6.386506e-02 7.080063e-03 -2.010291e-02 -5.152391e-02 -5.283598e-01
<VARIANCE> 39
 1.159560e+02 1.909423e+02 1.564212e+02 6.369701e+01 7.826308e+01 1.184239e+02 7.992177e+01 8.080935e+01 2.907927e+01 6.776962e+01 6.476122e+01 3.854450e+01 4.943514e+01 5.078250e+00 7.307172e+00 1.320637e+01 7.549456e+00 7.953623e+00 9.180395e+00 6.040855e+00 3.674735e+00 3.985031e+00 5.945387e+00 7.091331e+00 3.419908e+00 1.032001e+01 1.139077e+00 1.025387e+00 1.094210e+00 8.866565e-01 1.726948e+00 1.753393e+00 1.129823e+00 8.261836e-01 7.906834e-01 1.128093e+00 1.511817e+00 5.123084e-01 1.020909e+00
<GCONST> 1.532152e+02
<STATE> 4
<MEAN> 39
 -2.598242e+00 -6.315889e+00 4.531191e+00 -8.735165e+00 -1.148726e+01 -1.434964e+01 -1.145674e+01 -1.408409e+01 -1.271415e+01 -5.321779e+00 -9.248786e+00 -6.098279e+00 5.071166e+01 5.606392e-01 -1.053171e-01 -4.392573e-01 5.562537e-01 1.893148e-01 2.866282e-01 -1.542150e-01 1.125971e-01 5.465678e-02 4.009985e-02 -1.968364e-01 -1.553679e-01 -5.591787e-01 -8.835155e-02 -2.624575e-03 -4.418363e-01 1.086094e-01 2.991492e-01 1.907592e-01 -3.052035e-02 1.165735e-02 9.572271e-02 3.242273e-03 1.301765e-01 5.272353e-02 -9.138295e-02
<VARIANCE> 39
 2.469954e+01 8.681521e+01 1.146722e+02 7.743786e+01 1.856172e+02 9.566904e+01 7.279671e+01 9.465285e+01 3.620270e+01 4.866235e+01 4.899352e+01 4.517706e+01 4.548522e+01 3.071232e+00 6.647231e+00 9.463675e+00 5.104435e+00 1.386375e+01 8.850889e+00 4.711833e+00 8.050914e+00 3.847547e+00 7.244434e+00 6.239661e+00 4.739540e+00 3.746594e+00 3.996149e-01 1.419863e+00 1.173582e+00 9.169110e-01 2.496813e+00 2.044898e+00 8.070372e-01 1.540171e+00 9.033898e-01 1.524607e+00 1.287524e+00 1.017443e+00 6.909648e-01
<GCONST> 1.510054e+02
<TRANSP> 5
 0.000000e+00 1.000000e+00 0.000000e+00 0.000000e+00 0.000000e+00
 0.000000e+00 8.486785e-01 1.513215e-01 0.000000e+00 0.000000e+00
 0.000000e+00 0.000000e+00 8.561366e-01 1.438635e-01 0.000000e+00
 0.000000e+00 0.000000e+00 0.000000e+00 9.269980e-01 7.300203e-02
 0.000000e+00 0.000000e+00 0.000000e+00 0.000000e+00 0.000000e+00
<ENDHMM>
~h "k"
<BEGINHMM>
<NUMSTATES> 5
<STATE> 2
<MEAN> 39
 -4.948019e+00 -2.518687e+00 -3.284502e+00 -5.955008e+00 -1.198816e+01 -8.520596e+00 -8.377467e+00 -8.362307e+00 -6.060919e+00 -9.203541e+00 -9.458363e+00 -8.357414e+00 4.120773e+01 -6.136690e-01 -2.984562e-01 -3.719304e-01 2.902501e-01 4.869134e-01 3.913368e-01 6.945360e-01 -6.136894e-04 1.517362e-01 1.049548e-01 3.334938e-01 -1.158181e-01 -6.307427e-01 -1.447187e-01 -5.748514e-01 -1.110405e-01 1.976132e-03 7.064282e-01 -2.922089e-01 -1.028171e-01 -5.616580e-01 -9.937601e-02 5.857926e-01 3.148344e-01 6.215944e-01 7.131124e-01
<VARIANCE> 39
 4.295831e+01 6.106700e+01 6.615293e+01 5.532894e+01 9.359314e+01 4.013824e+01 4.889739e+01 5.322391e+01 5.498555e+01 4.871341e+01 6.516911e+01 4.475645e+01 8.115703e+01 1.920948e+00 4.595153e+00 2.774311e+00 2.557456e+00 4.650812e+00 5.163001e+00 2.861684e+00 4.735873e+00 4.947823e+00 3.711409e+00 3.766162e+00 2.280112e+00 3.638748e+00 5.360715e-01 1.074228e+00 1.001820e+00 8.650625e-01 1.135896e+00 9.990579e-01 8.519296e-01 1.025067e+00 1.336913e+00 7.801352e-01 9.831154e-01 8.421344e-01 1.092459e+00
<GCONST> 1.396301e+02
<STATE> 3
<MEAN> 39
 -7.390926e+00 -2.868671e+00 -3.747666e+00 -5.284133e+00 -8.962941e+00 -8.612198e+00 -7.624986e+00 -1.055135e+01 -7.055074e+00 -8.362881e+00 -7.201542e+00 -7.158561e+00 3.898316e+01 -1.070979e+00 -2.116082e+00 -6.291101e-01 -3.848821e-03 1.894017e+00 -8.937725e-01 9.403427e-01 -1.457754e+00 4.341047e-01 1.533806e+00 1.264987e+00 1.527640e+00 1.874971e+00 6.393155e-03 -3.446751e-01 -2.294111e-02 -3.298101e-01 2.671940e-01 -3.500992e-01 -8.608826e-02 -1.809590e-01 -2.891421e-04 3.907290e-01 4.529369e-02 6.534530e-01 9.984631e-01
<VARIANCE> 39
 3.974803e+01 4.875301e+01 5.769889e+01 4.544894e+01 8.058080e+01 6.010619e+01 5.790846e+01 5.650455e+01 5.249528e+01 4.413251e+01 6.120323e+01 4.318220e+01 8.870357e+01 5.527209e+00 6.844253e+00 1.056154e+01 4.709208e+00 9.710345e+00 7.695384e+00 6.612926e+00 5.896203e+00 7.441821e+00 5.431593e+00 5.760638e+00 6.162373e+00 5.287550e+00 3.995498e-01 8.244255e-01 1.011531e+00 8.394465e-01 9.660361e-01 1.174836e+00 8.464506e-01 1.066086e+00 1.094245e+00 1.099386e+00 9.913736e-01 8.241656e-01 1.194929e+00
<GCONST> 1.471716e+02
<STATE> 4
<MEAN> 39
 -6.474023e+00 -9.951855e+00 -5.321691e+00 -7.536882e+00 -4.159602e+00 -1.051287e+01 -6.910004e+00 -1.206833e+01 -6.511494e+00 -4.679729e+00 -7.094596e+00 -4.009050e+00 4.910637e+01 3.013407e-01 -5.864956e-01 1.113500e-01 -1.028730e+00 5.869528e-01 -2.109071e-02 -8.838709e-02 -2.135763e-01 -1.228956e-01 6.990264e-01 -3.691373e-01 5.650105e-01 1.623469e+00 2.260317e-01 3.413962e-01 2.612689e-02 -7.797660e-02 -2.193430e-01 2.216436e-01 -1.609246e-01 2.699824e-01 -5.489893e-02 -2.182207e-01 -2.823136e-01 -2.337198e-01 -3.319069e-01
<VARIANCE> 39
 7.371507e+01 8.124280e+01 1.174231e+02 8.495567e+01 1.165905e+02 9.225667e+01 6.767601e+01 6.812800e+01 5.759898e+01 7.035137e+01 7.765232e+01 4.361647e+01 7.226576e+01 6.255603e+00 9.514947e+00 1.013081e+01 7.690674e+00 9.889423e+00 8.959058e+00 8.674587e+00 9.847236e+00 7.765325e+00 7.760478e+00 6.766987e+00 6.503373e+00 7.575291e+00 7.950351e-01 1.562976e+00 1.655611e+00 1.299436e+00 1.775422e+00 1.947044e+00 1.418653e+00 1.726259e+00 1.204017e+00 1.232433e+00 1.099769e+00 9.115466e-01 9.837715e-01
<GCONST> 1.587989e+02
<TRANSP> 5
 0.000000e+00 1.000000e+00 0.000000e+00 0.000000e+00 0.000000e+00
 0.000000e+00 3.734930e-01 6.265070e-01 0.000000e+00 0.000000e+00
 0.000000e+00 0.000000e+00 2.028835e-01 7.971165e-01 0.000000e+00
 0.000000e+00 0.000000e+00 0.000000e+00 7.400122e-01 2.599878e-01
 0.000000e+00 0.000000e+00 0.000000e+00 0.000000e+00 0.000000e+00
<ENDHMM>
~h "l"
<BEGINHMM>
<NUMSTATES> 5
<STATE> 2
<MEAN> 39
 -2.725358e+00 -9.872053e+00 7.041698e-01 -1.397793e+01 -3.091620e+00 -9.517789e+00 -1.829300e+01 -1.050177e+01 -7.758543e+00 -7.641908e+00 -1.158736e+01 -1.704237e-01 5.315633e+01 8.901352e-01 -1.449764e+00 3.590799e-01 -1.348279e+00 7.399613e-01 -3.369199e-02 -1.182062e+00 7.196822e-01 2.891025e-01 6.223887e-01 -1.329532e+00 6.218661e-01 1.567265e+00 -2.737651e-01 2.046888e-02 -1.055101e-01 8.394074e-02 1.274313e-01 2.155141e-01 5.318817e-01 2.239924e-01 -1.344584e-01 8.779342e-02 -3.041569e-02 -2.804219e-01 -1.402059e-01
<VARIANCE> 39
 4.587546e+01 8.768465e+01 7.893178e+01 9.551687e+01 1.052137e+02 1.174211e+02 7.574919e+01 8.926594e+01 5.464619e+01 7.483437e+01 5.189473e+01 6.266639e+01 7.934881e+01 5.967366e+00 5.805025e+00 5.619412e+00 8.188772e+00 1.082496e+01 8.803221e+00 9.808257e+00 8.224387e+00 4.431703e+00 6.328638e+00 5.323903e+00 5.072183e+00 7.552845e+00 7.346449e-01 1.126198e+00 7.221867e-01 1.141042e+00 1.579249e+00 1.313021e+00 1.476941e+00 1.813254e+00 6.080837e-01 1.183110e+00 8.556946e-01 1.042625e+00 1.122477e+00
<GCONST> 1.538992e+02
<STATE> 3
<MEAN> 39
 -2.567497e+00 -1.503938e+01 1.842379e+00 -2.050382e+01 1.634705e+00 -1.172653e+01 -1.822259e+01 -5.397048e+00 -6.859738e+00 -6.723358e+00 -1.740226e+01 -6.142882e-01 5.823277e+01 4.998183e-02 5.774752e-01 -2.373981e-01 -1.350025e-01 1.881816e-01 -7.677953e-02 1.279853e-01 -2.965867e-01 -4.630741e-02 1.619746e-01 -3.801754e-02 -7.026095e-01 -3.217715e-01 -3.444642e-03 2.583672e-01 -1.431198e-01 2.842872e-01 -2.755747e-01 8.782146e-02 8.144861e-02 -2.161108e-01 -2.735336e-02 -6.384006e-02 3.020969e-01 -1.568425e-01 -1.921447e-01
<VARIANCE> 39
 1.612265e+01 4.595837e+01 4.655048e+01 6.922260e+01 8.434450e+01 8.660635e+01 7.244760e+01 6.662589e+01 7.282854e+01 8.856036e+01 4.968531e+01 4.000580e+01 2.295657e+01 9.760222e-01 2.566111e+00 2.239022e+00 3.671554e+00 4.909369e+00 4.861767e+00 5.405257e+00 4.377529e+00 4.605583e+00 3.923010e+00 3.270356e+00 2.861228e+00 1.454724e+00 1.299911e-01 3.828972e-01 3.574069e-01 6.662773e-01 6.717932e-01 8.636709e-01 8.175739e-01 8.192818e-01 7.792895e-01 8.653257e-01 6.257621e-01 5.599937e-01 2.048552e-01
<GCONST> 1.296993e+02
<STATE> 4
<MEAN> 39
 1.007906e+00 -8.572906e+00 -8.131010e+00 -1.896642e+01 -6.670390e-01 -2.778323e+00 -1.575148e+01 -1.085418e+01 -4.656148e+00 -4.085757e+00 -1.074878e+01 -6.128388e+00 5.240448e+01 -1.032841e-01 9.053324e-01 -3.349597e-01 7.679000e-01 -6.071505e-01 -2.870658e-01 5.801568e-01 -7.528524e-02 -8.839404e-02 -3.859644e-01 3.801879e-01 -2.835708e-01 -9.769230e-01 -1.215586e-01 -4.960909e-02 7.171649e-02 9.994142e-02 -5.524951e-02 -7.725498e-02 4.780814e-02 2.917538e-02 1.867501e-03 -2.235431e-02 -2.064444e-02 5.681401e-02 -1.476529e-02
<VARIANCE> 39
 2.594771e+01 1.028516e+02 5.192110e+01 1.014285e+02 8.772513e+01 1.153760e+02 7.118921e+01 5.895478e+01 6.138173e+01 5.140905e+01 5.956952e+01 4.766944e+01 6.041739e+01 1.546435e+00 1.934066e+00 1.996867e+00 3.495257e+00 3.545235e+00 3.832957e+00 3.237792e+00 3.470082e+00 3.547106e+00 3.012686e+00 3.342542e+00 2.506210e+00 8.870787e-01 1.737480e-01 2.692606e-01 2.617427e-01 4.891276e-01 5.527710e-01 5.323932e-01 5.386380e-01 5.852688e-01 6.880680e-01 5.382080e-01 6.350346e-01 4.393279e-01 1.042765e-01
<GCONST> 1.262253e+02
<TRANSP> 5
 0.000000e+00 1.000000e+00 0.000000e+00 0.000000e+00 0.000000e+00
 0.000000e+00 6.438797e-01 3.561203e-01 0.000000e+00 0.000000e+00
 0.000000e+00 0.000000e+00 7.548003e-01 2.451997e-01 0.000000e+00
 0.000000e+00 0.000000e+00 0.000000e+00 8.489826e-01 1.510174e-01
 0.000000e+00 0.000000e+00 0.000000e+00 0.000000e+00 0.000000e+00
<ENDHMM>
~h "m"
<BEGINHMM>
<NUMSTATES> 5
<STATE> 2
<MEAN> 39
 -3.198862e-02 -1.156445e+01 1.927087e+00 -1.235921e+01 -6.160461e+00 -1.287560e+01 -1.817204e+01 -8.232080e+00 -9.224906e+00 -8.428900e+00 -1.188669e+01 -3.582639e+00 5.447630e+01 1.336714e+00 6.549376e-01 -7.645152e-01 1.375906e+00 -1.045306e-02 3.196576e-01 -1.439963e+00 -8.010354e-01 -6.128943e-01 -3.442197e-01 -2.591850e-01 -1.947056e+00 -8.909258e-01 -1.375665e-01 1.972941e-01 -2.876825e-01 3.855430e-01 1.525418e-01 7.916955e-02 9.446532e-02 -1.484522e-01 -1.277688e-01 -6.509487e-03 2.630994e-01 -2.055250e-01 -2.024979e-01
<VARIANCE> 39
 1.831999e+01 1.089406e+02 3.042142e+01 7.860718e+01 5.958061e+01 7.587805e+01 4.636845e+01 6.757510e+01 5.233323e+01 5.893368e+01 4.267106e+01 5.603196e+01 5.299699e+01 2.412696e+00 4.262702e+00 1.953374e+00 3.830667e+00 3.027847e+00 2.955668e+00 4.759970e+00 5.155469e+00 4.024066e+00 4.497010e+00 2.974466e+00 3.628071e+00 2.254474e+00 2.608016e-01 9.602041e-01 4.223454e-01 6.272616e-01 4.731939e-01 8.022743e-01 6.586458e-01 7.972535e-01 6.141092e-01 6.749014e-01 7.954091e-01 8.932958e-01 3.699136e-01
<GCONST> 1.325855e+02
<STATE> 3
<MEAN> 39
 4.575189e+00 -1.070309e+01 -5.137343e+00 -4.441275e+00 -1.132445e+00 -9.224119e+00 -2.350871e+01 -1.272957e+01 -1.308194e+01 -7.907178e+00 -7.165647e+00 -1.161370e+01 5.098206e+01 1.146658e-01 -5.206865e-01 -5.618882e-01 -2.033872e-01 7.641128e-01 7.071033e-01 -3.099734e-01 2.740876e-01 1.371825e-01 -1.236386e-01 3.340423e-01 -3.430282e-02 1.314798e-01 -2.291557e-01 -1.605897e-01 1.314005e-01 -4.450856e-01 -2.456987e-02 1.096619e-01 3.181519e-01 2.462490e-01 2.814021e-01 4.907473e-02 -1.284951e-01 3.811898e-01 1.445048e-01
<VARIANCE> 39
 1.220258e+01 4.822488e+01 3.648315e+01 7.665012e+01 5.542052e+01 6.214072e+01 4.995004e+01 6.926318e+01 5.379465e+01 4.907952e+01 4.728035e+01 4.528340e+01 2.216434e+01 1.012781e+00 3.673289e+00 1.902197e+00 8.279981e+00 3.425162e+00 3.585089e+00 3.873574e+00 5.574882e+00 4.154907e+00 3.334112e+00 3.908866e+00 3.562078e+00 1.690510e+00 1.913340e-01 3.412211e-01 2.550011e-01 9.024039e-01 6.306348e-01 5.233926e-01 6.851772e-01 1.014361e+00 6.926126e-01 5.921876e-01 7.519482e-01 5.574441e-01 1.287377e-01
<GCONST> 1.268873e+02
<STATE> 4
<MEAN> 39
 3.137799e+00 -1.031156e+01 -6.080026e+00 -9.563978e+00 -1.235557e+00 -7.387537e+00 -1.937772e+01 -9.030322e+00 -1.490463e+01 -1.267751e+01 -8.602492e+00 -4.800241e+00 5.118953e+01 -8.741468e-02 5.094172e-01 -5.096333e-02 -8.416098e-02 -1.668780e-01 -1.551064e-01 3.252060e-01 -2.980648e-01 -2.547428e-03 1.279139e-01 -2.195484e-01 3.493888e-01 -4.107964e-01 -7.846925e-02 4.765373e-02 1.418523e-01 2.570185e-02 -1.351625e-01 -1.187474e-01 7.823866e-03 -4.666971e-02 4.337353e-02 3.486260e-02 -1.075857e-02 9.424537e-02 -1.957605e-03
<VARIANCE> 39
 1.626538e+01 7.721910e+01 5.205726e+01 1.467522e+02 7.913538e+01 1.166331e+02 4.522787e+01 6.091298e+01 7.841753e+01 7.595449e+01 3.266219e+01 6.197661e+01 4.607201e+01 6.547565e-01 2.338499e+00 1.234980e+00 3.258938e+00 2.894639e+00 3.116525e+00 2.015517e+00 3.353087e+00 2.788451e+00 2.317401e+00 2.819983e+00 2.468001e+00 9.683617e-01 1.261555e-01 2.662376e-01 2.220914e-01 5.602764e-01 3.899076e-01 4.783123e-01 3.835885e-01 5.144407e-01 3.421373e-01 3.789347e-01 5.478050e-01 5.172891e-01 1.060705e-01
<GCONST> 1.203161e+02
<TRANSP> 5
 0.000000e+00 1.000000e+00 0.000000e+00 0.000000e+00 0.000000e+00
 0.000000e+00 6.162927e-01 3.837074e-01 0.000000e+00 0.000000e+00
 0.000000e+00 0.000000e+00 7.733296e-01 2.266704e-01 0.000000e+00
 0.000000e+00 0.000000e+00 0.000000e+00 7.529107e-01 2.470892e-01
 0.000000e+00 0.000000e+00 0.000000e+00 0.000000e+00 0.000000e+00
<ENDHMM>
~h "n"
<BEGINHMM>
<NUMSTATES> 5
<STATE> 2
<MEAN> 39
 -2.494596e+00 -1.235147e+01 3.934250e+00 -1.580745e+01 -8.011490e+00 -1.398259e+01 -1.260955e+01 -5.909414e+00 -1.451545e+01 -7.034684e+00 -9.290521e+00 9.097109e-01 5.605422e+01 9.458928e-01 1.066477e+00 -4.804414e-01 1.164420e+00 -4.216430e-01 -2.815709e-01 -1.926818e-01 -9.662337e-01 -7.909455e-01 -6.484144e-01 2.241593e-01 -4.739640e-01 -1.072551e+00 1.224419e-01 1.562997e-01 -2.065073e-01 4.036258e-01 -3.204088e-02 1.932912e-01 -7.157859e-02 -2.246859e-01 1.368665e-01 -1.182461e-01 1.062530e-01 -1.518600e-01 -2.484841e-01
<VARIANCE> 39
 2.363506e+01 6.418486e+01 4.391932e+01 6.413679e+01 4.679308e+01 6.975603e+01 5.821169e+01 6.390240e+01 6.578882e+01 5.613163e+01 4.187375e+01 4.121338e+01 4.229929e+01 1.999615e+00 2.993541e+00 2.452895e+00 4.520730e+00 3.322147e+00 3.184970e+00 2.980603e+00 3.492461e+00 3.813040e+00 3.495669e+00 3.333133e+00 3.028123e+00 1.893490e+00 2.350595e-01 4.274879e-01 3.382598e-01 5.484601e-01 4.892465e-01 5.901626e-01 5.178531e-01 5.736703e-01 5.952443e-01 5.752689e-01 6.140730e-01 5.645828e-01 1.938414e-01
<GCONST> 1.268969e+02
<STATE> 3
<MEAN> 39
 3.661164e+00 -5.111334e+00 2.521592e-01 -4.478480e+00 -1.025966e+01 -1.281654e+01 -1.440566e+01 -1.415624e+01 -1.740584e+01 -1.261986e+01 -6.193878e+00 -2.085529e+00 4.797226e+01 4.640237e-01 1.117826e+00 -6.462905e-01 1.252614e+00 -2.809881e-01 2.273416e-01 -3.568211e-01 -7.691674e-01 2.911740e-01 -5.198026e-01 5.022942e-01 -3.624025e-01 -1.086782e+00 -3.744148e-01 -1.688269e-02 8.863153e-02 -3.700722e-01 8.982985e-02 -2.714522e-03 1.109318e-01 2.641482e-01 2.565186e-01 2.518868e-01 2.240111e-02 8.357674e-02 1.678607e-01
<VARIANCE> 39
 1.678385e+01 3.618007e+01 2.406322e+01 3.851896e+01 4.407567e+01 5.497493e+01 5.265797e+01 5.120515e+01 6.548833e+01 4.930751e+01 4.311403e+01 4.043360e+01 1.942829e+01 1.359339e+00 2.252142e+00 1.541297e+00 2.890279e+00 2.472407e+00 3.341175e+00 2.625313e+00 2.979594e+00 2.956413e+00 3.515914e+00 3.236249e+00 2.564049e+00 7.138762e-01 1.750246e-01 3.417262e-01 3.282343e-01 4.205816e-01 4.146720e-01 6.243587e-01 5.001931e-01 5.445157e-01 5.339644e-01 6.332802e-01 6.110467e-01 5.487580e-01 9.830100e-02
<GCONST> 1.180769e+02
<STATE> 4
<MEAN> 39
 -1.826868e+00 1.126324e+00 -2.063608e+00 -3.134130e+00 -9.601835e+00 -1.089224e+01 -1.359847e+01 -1.344803e+01 -1.074561e+01 -9.677090e+00 -4.510417e+00 -2.892431e+00 4.004148e+01 -9.353691e-01 1.422468e-01 -2.646792e-01 -2.012505e-02 4.015637e-01 4.329391e-01 2.169339e-01 2.830042e-01 4.916085e-01 2.958007e-01 1.332217e-01 -1.294800e-01 -4.406033e-01 -2.066367e-01 -2.436858e-01 9.144901e-02 -2.118416e-01 1.157558e-01 7.857196e-03 5.900164e-02 7.377405e-02 3.464887e-02 5.326604e-02 -1.181744e-01 5.027414e-02 2.331426e-01
<VARIANCE> 39
 5.822858e+01 3.932757e+01 2.685046e+01 2.872709e+01 3.501376e+01 4.769687e+01 6.039122e+01 6.248174e+01 6.297749e+01 4.349947e+01 3.767896e+01 2.687409e+01 5.077188e+01 1.799935e+00 3.125042e+00 2.315372e+00 3.141187e+00 2.276893e+00 3.966215e+00 3.455908e+00 4.372189e+00 3.724294e+00 3.450687e+00 3.091881e+00 2.481774e+00 1.413094e+00 3.683516e-01 4.309874e-01 4.367083e-01 6.601655e-01 4.312518e-01 7.255670e-01 6.526964e-01 8.558446e-01 6.407580e-01 5.938154e-01 6.028923e-01 4.768311e-01 2.888260e-01
<GCONST> 1.257623e+02
<TRANSP> 5
 0.000000e+00 1.000000e+00 0.000000e+00 0.000000e+00 0.000000e+00
 0.000000e+00 7.140768e-01 2.859232e-01 0.000000e+00 0.000000e+00
 0.000000e+00 0.000000e+00 7.554418e-01 2.445582e-01 0.000000e+00
 0.000000e+00 0.000000e+00 0.000000e+00 7.525231e-01 2.474769e-01
 0.000000e+00 0.000000e+00 0.000000e+00 0.000000e+00 0.000000e+00
<ENDHMM>
~h "p"
<BEGINHMM>
<NUMSTATES> 5
<STATE> 2
<MEAN> 39
 -3.438084e+00 -7.943525e+00 -3.010705e+00 -9.140779e+00 -8.435778e+00 -3.385074e+00 -8.875285e+00 -7.068879e+00 -8.902838e+00 -7.664751e+00 -1.287432e+01 -8.967443e+00 4.663638e+01 8.536765e-02 7.992319e-01 -9.948567e-01 5.062180e-01 -1.093609e-01 4.809034e-01 3.943065e-01 -4.950792e-01 1.810123e-01 -2.289018e-01 -3.257878e-01 -4.397891e-01 -1.014225e+00 -1.770872e-01 -1.584322e-02 5.822746e-02 -1.027031e-02 1.789370e-01 -2.004036e-02 -2.007827e-01 -2.817586e-01 -1.916014e-01 -1.124376e-01 1.627203e-01 2.384687e-01 -4.201104e-02
<VARIANCE> 39
 7.223695e+01 8.148621e+01 1.303171e+02 6.399097e+01 1.229780e+02 5.877744e+01 4.538348e+01 5.989174e+01 6.780759e+01 6.895255e+01 4.587138e+01 3.355849e+01 9.042356e+01 2.251878e+00 2.569316e+00 2.727046e+00 2.628164e+00 5.324738e+00 2.436235e+00 3.814284e+00 4.364213e+00 5.129340e+00 3.319665e+00 2.772782e+00 2.028574e+00 3.058587e+00 4.190044e-01 3.430475e-01 3.836099e-01 4.455189e-01 7.721700e-01 5.144693e-01 4.963656e-01 6.508709e-01 1.116480e+00 5.322608e-01 5.794187e-01 4.238431e-01 3.415951e-01
<GCONST> 1.324953e+02
<STATE> 3
<MEAN> 39
 -2.250080e+00 -8.824686e+00 -8.002876e+00 -7.351607e+00 -3.898708e+00 -2.086223e+00 -9.747402e+00 -8.575881e+00 -7.833788e+00 -8.692110e+00 -1.385730e+01 -9.268584e+00 4.481604e+01 -4.886617e-01 7.618597e-01 -2.257927e-01 1.552152e-01 -4.631893e-02 2.667572e-02 9.909440e-02 -2.871431e-01 -2.197043e-01 -1.676231e-01 2.273419e-01 3.182558e-01 -1.129956e+00 -1.082358e-01 -4.257547e-02 2.277659e-01 -2.282263e-01 -1.211535e-01 -8.693776e-02 5.279060e-02 1.097683e-01 -5.820803e-03 6.520794e-02 1.576774e-01 8.322130e-02 7.668109e-02
<VARIANCE> 39
 6.408399e+01 1.199190e+02 8.393452e+01 4.954475e+01 9.765308e+01 5.191969e+01 3.813020e+01 6.899619e+01 3.982952e+01 1.006948e+02 4.856709e+01 2.784821e+01 7.885662e+01 8.966777e-01 1.950275e+00 2.015677e+00 1.791092e+00 2.704890e+00 1.633042e+00 1.677317e+00 2.606186e+00 2.866507e+00 3.539672e+00 2.013721e+00 1.507988e+00 1.059873e+00 1.720294e-01 2.227508e-01 2.969820e-01 2.949384e-01 5.236539e-01 2.995767e-01 5.440312e-01 5.532258e-01 4.324784e-01 6.635221e-01 4.898480e-01 3.334959e-01 1.178421e-01
<GCONST> 1.195782e+02
<STATE> 4
<MEAN> 39
 -9.406320e+00 -3.151141e+00 -5.752170e+00 -4.820925e+00 -6.285157e+00 -4.396797e+00 -8.009705e+00 -9.027170e+00 -6.622537e+00 -1.005911e+01 -8.230625e+00 -4.605931e+00 3.562142e+01 -7.103915e-01 -1.298074e-01 1.074235e-01 -2.216136e-01 1.530426e-02 3.990264e-02 1.234411e-01 2.064554e-01 4.032893e-01 6.275911e-01 6.858410e-01 2.899539e-01 -5.854367e-01 1.554658e-02 -1.954792e-01 1.841683e-01 -8.853764e-02 3.699399e-02 -9.631239e-02 -1.856795e-01 3.148922e-02 8.758764e-02 1.020498e-01 -5.463296e-02 7.025723e-02 2.508763e-01
<VARIANCE> 39
 3.979092e+01 4.335751e+01 5.681843e+01 5.527179e+01 5.047571e+01 4.132659e+01 4.331162e+01 5.838119e+01 5.076404e+01 6.400974e+01 6.637567e+01 4.485677e+01 6.699664e+01 1.060743e+00 1.563634e+00 2.035204e+00 1.947724e+00 2.081961e+00 2.441326e+00 3.888715e+00 3.164083e+00 2.306556e+00 3.515651e+00 3.594889e+00 2.761158e+00 1.073183e+00 2.616062e-01 2.590828e-01 3.795284e-01 5.394798e-01 5.633566e-01 5.169421e-01 9.727336e-01 8.245952e-01 5.689296e-01 8.254611e-01 8.543936e-01 6.093310e-01 3.330143e-01
<GCONST> 1.251885e+02
<TRANSP> 5
 0.000000e+00 1.000000e+00 0.000000e+00 0.000000e+00 0.000000e+00
 0.000000e+00 5.124768e-01 4.875232e-01 0.000000e+00 0.000000e+00
 0.000000e+00 0.000000e+00 5.733601e-01 4.266399e-01 0.000000e+00
 0.000000e+00 0.000000e+00 0.000000e+00 6.854727e-01 3.145272e-01
 0.000000e+00 0.000000e+00 0.000000e+00 0.000000e+00 0.000000e+00
<ENDHMM>
~h "r"
<BEGINHMM>
<NUMSTATES> 5
<STATE> 2
<MEAN> 39
 -7.965595e+00 -9.237054e+00 -3.908577e+00 -7.931564e-01 -4.629115e+00 -1.161329e+01 -1.494669e+01 -1.093699e+01 -2.838565e+00 -6.083763e+00 -3.809501e+00 -2.230653e+00 4.450993e+01 3.583534e+00 -1.189628e+00 -1.203969e+00 1.105219e-01 5.182566e-02 -2.037870e+00 -2.171243e+00 -9.293934e-01 -8.879330e-01 5.632547e-02 -1.581724e-01 2.228576e-01 1.537935e+00 2.198783e-01 -3.586408e-01 1.929299e-01 -4.613933e-01 -7.669722e-02 1.191947e-01 2.250648e-01 3.737529e-01 -4.254206e-01 4.869952e-02 -2.910063e-01 -6.293193e-03 5.676911e-01
<VARIANCE> 39
 1.381317e+02 4.530299e+01 6.338408e+01 3.171260e+01 4.655198e+01 8.238171e+01 1.118604e+02 9.680586e+01 9.120274e+01 3.653209e+01 3.109549e+01 3.306688e+01 4.417770e+01 1.129267e+01 8.758741e+00 7.597167e+00 5.416338e+00 8.205551e+00 7.279956e+00 1.051586e+01 1.117482e+01 8.581395e+00 5.073448e+00 6.647018e+00 4.376535e+00 7.697421e+00 2.541701e+00 1.552356e+00 1.682643e+00 8.253751e-01 1.306148e+00 2.034018e+00 3.003420e+00 2.501571e+00 1.218338e+00 8.733772e-01 1.176242e+00 8.768035e-01 9.120753e-01
<GCONST> 1.554503e+02
<STATE> 3
<MEAN> 39
 3.178487e+00 -1.776697e+01 -3.468787e+00 -5.345305e+00 -6.731779e+00 -1.651748e+01 -1.591963e+01 -6.569515e+00 -9.829873e+00 -4.365432e+00 -7.073167e+00 -8.977643e-01 5.454244e+01 -6.613635e-01 -1.529282e+00 1.407579e+00 -1.195710e+00 -2.362181e-01 1.258070e+00 1.601191e+00 1.403424e+00 -1.091762e+00 2.752388e-01 -9.187212e-01 -3.600591e-01 1.628181e+00 -7.545165e-01 5.465291e-01 4.733391e-01 -2.481248e-01 -4.444003e-02 6.266965e-01 2.127260e-01 -1.845072e-01 5.181955e-02 3.898358e-02 8.748046e-02 -2.000997e-01 -3.715019e-01
<VARIANCE> 39
 2.823498e+01 6.308459e+01 1.429229e+02 6.242793e+01 1.131480e+02 6.907352e+01 5.542863e+01 5.320968e+01 5.590875e+01 4.055701e+01 9.640183e+01 4.002895e+01 2.944897e+01 4.635364e+00 9.473647e+00 1.025280e+01 6.125429e+00 8.424755e+00 6.983016e+00 6.538642e+00 7.684766e+00 6.142860e+00 6.149379e+00 6.138000e+00 3.744450e+00 2.605709e+00 1.098142e+00 1.331515e+00 1.597176e+00 1.318302e+00 1.391032e+00 1.444240e+00 1.430549e+00 1.326009e+00 1.264483e+00 9.173126e-01 1.107337e+00 6.002179e-01 4.611500e-01
<GCONST> 1.496452e+02
<STATE> 4
<MEAN> 39
 1.974919e-01 -1.723493e+01 4.775000e-02 -8.485348e+00 -6.130499e+00 -1.031082e+01 -1.323516e+01 -7.029662e+00 -1.312988e+01 -6.862263e+00 -1.050733e+01 -6.157588e+00 5.570952e+01 -3.427390e-01 5.714292e-01 6.793332e-01 -8.885862e-01 -3.882016e-01 5.633829e-01 1.927854e-01 1.312432e-01 -2.708185e-01 -1.172939e-02 4.316292e-02 -5.218636e-01 -9.124172e-02 -4.221356e-02 2.496484e-01 -5.390700e-03 2.752805e-02 1.406550e-03 -1.047773e-01 -1.591493e-01 -2.235221e-01 1.156203e-01 2.254307e-02 -8.076983e-03 1.422927e-01 -2.188904e-01
<VARIANCE> 39
 3.208833e+01 7.989928e+01 1.437331e+02 9.844633e+01 1.051483e+02 6.982990e+01 6.953723e+01 5.576315e+01 4.083220e+01 5.428810e+01 6.478378e+01 5.441563e+01 3.624871e+01 2.054764e+00 4.550230e+00 6.211501e+00 5.125329e+00 4.229270e+00 5.426428e+00 4.246481e+00 4.400417e+00 3.739762e+00 4.464374e+00 4.017959e+00 4.002878e+00 2.015457e+00 4.551348e-01 6.993220e-01 5.915303e-01 7.277275e-01 8.072970e-01 8.387269e-01 8.433697e-01 8.795052e-01 7.501619e-01 7.238944e-01 8.359951e-01 8.670430e-01 2.862844e-01
<GCONST> 1.389016e+02
<TRANSP> 5
 0.000000e+00 1.000000e+00 0.000000e+00 0.000000e+00 0.000000e+00
 0.000000e+00 7.533975e-01 2.466026e-01 0.000000e+00 0.000000e+00
 0.000000e+00 0.000000e+00 6.896831e-01 3.103169e-01 0.000000e+00
 0.000000e+00 0.000000e+00 0.000000e+00 7.104715e-01 2.895286e-01
 0.000000e+00 0.000000e+00 0.000000e+00 0.000000e+00 0.000000e+00
<ENDHMM>
~h "s"
<BEGINHMM>
<NUMSTATES> 5
<STATE> 2
<MEAN> 39
 -1.472891e+01 8.166395e+00 -1.148870e+01 -5.678504e-01 -1.188288e+01 -1.040378e+01 -7.540161e+00 -1.196214e+01 -5.179200e+00 -9.185429e+00 -5.264001e+00 -5.868485e+00 4.667033e+01 -2.675787e+00 1.816132e+00 -1.368070e+00 1.337741e+00 8.035232e-01 3.795350e-01 8.838906e-01 -3.351084e-01 1.095398e+00 4.561202e-01 8.302060e-01 -1.276860e-01 6.818667e-02 -1.212572e-02 -4.540097e-01 3.563000e-01 -3.243308e-01 4.269484e-01 -9.766131e-02 -1.222191e-02 1.471813e-01 -1.199719e-01 1.002863e-01 -5.274750e-02 2.066088e-01 2.501794e-01
<VARIANCE> 39
 7.780024e+01 7.047480e+01 5.942791e+01 6.660628e+01 5.584332e+01 6.296837e+01 6.707478e+01 5.257415e+01 4.141478e+01 4.444662e+01 4.446203e+01 3.185809e+01 7.010770e+01 4.278955e+00 7.676505e+00 6.648316e+00 3.269936e+00 5.241451e+00 3.931693e+00 5.784836e+00 3.942649e+00 3.702108e+00 3.376325e+00 3.888411e+00 2.817214e+00 1.874988e+00 7.623999e-01 1.003708e+00 8.508316e-01 6.021953e-01 8.433562e-01 8.184949e-01 1.093764e+00 7.581680e-01 7.371517e-01 8.051755e-01 6.982481e-01 5.434999e-01 3.109438e-01
<GCONST> 1.380462e+02
<STATE> 3
<MEAN> 39
 -1.830775e+01 4.119426e+00 -8.955382e+00 -5.313874e+00 -3.832807e+00 -1.200927e+01 -7.365841e+00 -1.186752e+01 -3.588901e+00 -8.409531e+00 -4.459894e+00 -2.146166e+00 4.968681e+01 1.376284e-01 -1.267717e+00 1.491393e-01 -1.253925e+00 9.086508e-01 1.618062e-01 -8.100758e-02 5.617171e-01 1.070106e-01 7.949192e-02 -1.919819e-01 2.456734e-01 1.013306e+00 6.131521e-01 -4.961531e-01 8.469808e-02 -5.425188e-02 -2.421957e-01 3.780028e-01 -2.778394e-01 2.140683e-01 -1.745575e-01 2.207673e-02 -2.262442e-01 -6.882768e-02 -6.394061e-02
<VARIANCE> 39
 1.011481e+02 1.350090e+02 6.489330e+01 7.881716e+01 6.708704e+01 1.037353e+02 8.971432e+01 5.605214e+01 5.408928e+01 4.546145e+01 5.947430e+01 4.766477e+01 6.026902e+01 1.479358e+01 1.407208e+01 7.033948e+00 9.171258e+00 7.973866e+00 8.761856e+00 9.399039e+00 6.613077e+00 5.732224e+00 4.931849e+00 6.514335e+00 5.056664e+00 4.432694e+00 1.748822e+00 1.420146e+00 1.391622e+00 1.368849e+00 1.571752e+00 1.344636e+00 1.820658e+00 1.381345e+00 1.091654e+00 1.031155e+00 1.181411e+00 9.868743e-01 6.139550e-01
<GCONST> 1.561816e+02
<STATE> 4
<MEAN> 39
 -2.287316e+01 6.035055e+00 -1.289316e+01 9.379840e-02 -4.222611e+00 -5.782218e+00 -2.534760e+00 -8.445356e+00 -1.318457e+00 -6.696490e+00 -1.986435e+00 -3.648886e+00 4.446100e+01 6.806263e-01 -9.818485e-01 4.645776e-01 -2.420665e-01 -1.669112e-01 3.634081e-01 -3.329400e-01 3.459405e-02 -2.646857e-01 -1.097747e-02 -4.182820e-02 1.705999e-01 -5.050777e-01 2.489153e-01 -1.489230e-01 1.774853e-01 -1.300273e-01 -1.022560e-01 -1.268932e-01 -1.115251e-01 -1.178670e-01 -1.222056e-01 -6.234454e-02 -1.573796e-01 2.822687e-02 -3.477052e-03
<VARIANCE> 39
 5.281700e+01 9.057181e+01 4.536019e+01 6.731477e+01 5.363830e+01 7.824541e+01 5.310039e+01 4.978976e+01 4.139520e+01 4.463951e+01 5.601161e+01 2.790948e+01 7.370656e+01 3.003439e+00 3.105549e+00 3.212168e+00 4.420041e+00 4.397277e+00 5.088560e+00 4.639708e+00 4.063951e+00 3.686094e+00 3.738544e+00 4.030061e+00 2.448259e+00 3.026814e+00 5.752486e-01 5.311955e-01 4.300113e-01 7.268274e-01 8.243400e-01 9.111560e-01 9.646961e-01 7.982876e-01 7.340938e-01 6.829950e-01 9.225535e-01 5.242160e-01 3.823701e-01
<GCONST> 1.352492e+02
<TRANSP> 5
 0.000000e+00 1.000000e+00 0.000000e+00 0.000000e+00 0.000000e+00
 0.000000e+00 7.496242e-01 2.503758e-01 0.000000e+00 0.000000e+00
 0.000000e+00 0.000000e+00 7.212511e-01 2.787490e-01 0.000000e+00
 0.000000e+00 0.000000e+00 0.000000e+00 8.447453e-01 1.552547e-01
 0.000000e+00 0.000000e+00 0.000000e+00 0.000000e+00 0.000000e+00
<ENDHMM>
~h "t"
<BEGINHMM>
<NUMSTATES> 5
<STATE> 2
<MEAN> 39
 -9.765018e+00 -1.159338e+00 -2.972722e+00 -5.534240e+00 -7.466834e+00 -1.085992e+01 -9.874875e+00 -1.100157e+01 -6.979971e+00 -9.374969e+00 -7.240902e+00 -5.607912e+00 4.078619e+01 -4.524424e-01 -6.447120e-01 2.720349e-01 -5.577517e-01 5.372590e-01 -1.626145e-01 -5.130608e-01 -2.365217e-01 3.387576e-01 5.683806e-01 8.938189e-01 7.623694e-01 1.032527e+00 1.658774e-01 -3.691097e-01 1.863392e-01 -4.451144e-01 -1.751393e-02 5.154365e-02 -8.866996e-03 1.876020e-01 -1.094932e-03 2.060894e-01 -5.555157e-02 2.208380e-01 5.891069e-01
<VARIANCE> 39
 6.591899e+01 4.223648e+01 5.847288e+01 4.612841e+01 7.041885e+01 7.282610e+01 7.033159e+01 8.709564e+01 5.019392e+01 4.509134e+01 5.322065e+01 4.227019e+01 6.579071e+01 8.810010e+00 5.426058e+00 5.837250e+00 7.763429e+00 7.802061e+00 7.516671e+00 7.264458e+00 6.809505e+00 5.354862e+00 5.440592e+00 6.182580e+00 4.684778e+00 8.683876e+00 1.248152e+00 6.880201e-01 8.225676e-01 1.019822e+00 1.333085e+00 1.276699e+00 1.206179e+00 1.370231e+00 9.384239e-01 9.275311e-01 1.331210e+00 8.992645e-01 1.137977e+00
<GCONST> 1.498309e+02
<STATE> 3
<MEAN> 39
 -8.038141e+00 -7.178596e+00 1.318906e+00 -1.336857e+01 -8.806105e+00 -1.026667e+01 -1.352839e+01 -9.341779e+00 -6.169331e+00 -4.459105e+00 -8.176840e+00 -1.873882e+00 5.196318e+01 2.329073e-01 -5.630521e-01 1.519102e-01 -5.058795e-01 -4.660317e-02 9.456812e-02 5.858414e-01 7.341594e-01 2.029538e-01 2.800162e-01 -5.199844e-01 2.811675e-01 1.124057e+00 -3.313723e-02 2.324813e-01 -1.170351e-01 4.434328e-01 6.213740e-02 1.466578e-01 2.308852e-01 -2.809148e-03 -1.751421e-01 -9.799235e-02 -1.798884e-01 -2.878418e-01 -5.416152e-01
<VARIANCE> 39
 8.294328e+01 9.749479e+01 1.335459e+02 7.988701e+01 7.533112e+01 6.632738e+01 9.732832e+01 7.620178e+01 6.589307e+01 7.484736e+01 7.365196e+01 5.920223e+01 5.490277e+01 6.700571e+00 1.004150e+01 6.359023e+00 7.495840e+00 4.760298e+00 6.157244e+00 7.340579e+00 7.554270e+00 6.183839e+00 7.176990e+00 7.928319e+00 6.158621e+00 8.562364e+00 1.129356e+00 1.122172e+00 1.005549e+00 9.618567e-01 1.053060e+00 1.258588e+00 1.489171e+00 1.256511e+00 1.135077e+00 1.525088e+00 1.550534e+00 9.602699e-01 8.136736e-01
<GCONST> 1.554151e+02
<STATE> 4
<MEAN> 39
 -6.035334e+00 -8.180829e+00 -4.460698e+00 -8.262272e+00 -8.631715e+00 -9.580676e+00 -9.184881e+00 -3.604364e+00 -6.318087e+00 -6.311733e+00 -6.269372e+00 -3.857447e+00 4.756559e+01 -1.988321e-01 -8.434258e-03 -1.067864e-01 3.254817e-01 1.767650e-01 1.386625e-01 1.871866e-01 2.228338e-01 1.458726e-01 2.655758e-02 -5.510503e-02 -1.267964e-01 -7.805729e-01 3.739066e-02 7.153924e-02 -1.862920e-02 5.635004e-02 -1.606196e-04 -3.015650e-02 -2.919817e-01 -2.393554e-01 -1.062559e-01 -2.946001e-02 1.149881e-02 -1.450388e-02 -9.023682e-02
<VARIANCE> 39
 1.003223e+02 1.198294e+02 1.050651e+02 6.022758e+01 7.943958e+01 7.482948e+01 8.018231e+01 6.979077e+01 5.717659e+01 6.142816e+01 6.050142e+01 4.949536e+01 9.866307e+01 2.171811e+00 2.987225e+00 2.632438e+00 2.920449e+00 3.711525e+00 3.800359e+00 3.833559e+00 4.185400e+00 3.037250e+00 3.146719e+00 3.673267e+00 2.829965e+00 2.448172e+00 6.157881e-01 5.794392e-01 4.769177e-01 5.009985e-01 6.198818e-01 6.568229e-01 8.655347e-01 7.335700e-01 6.186769e-01 6.203537e-01 8.670394e-01 5.922639e-01 5.042243e-01
<GCONST> 1.366064e+02
<TRANSP> 5
 0.000000e+00 1.000000e+00 0.000000e+00 0.000000e+00 0.000000e+00
 0.000000e+00 7.279928e-01 2.720072e-01 0.000000e+00 0.000000e+00
 0.000000e+00 0.000000e+00 6.697040e-01 3.302959e-01 0.000000e+00
 0.000000e+00 0.000000e+00 0.000000e+00 6.939611e-01 3.060389e-01
 0.000000e+00 0.000000e+00 0.000000e+00 0.000000e+00 0.000000e+00
<ENDHMM>
~h "v"
<BEGINHMM>
<NUMSTATES> 5
<STATE> 2
<MEAN> 39
 -9.070451e+00 -5.991971e+00 -4.912609e+00 -7.515797e+00 -1.870928e+00 -9.099071e+00 -8.955213e+00 -9.852584e+00 -3.420814e+00 -6.597690e+00 -5.279364e+00 -1.726317e+00 4.635686e+01 1.369613e+00 -1.327607e+00 2.280293e-01 -1.097131e+00 1.124068e-01 -2.919591e-01 -1.421504e+00 -4.262716e-01 -6.126150e-03 -2.476555e-02 -2.959942e-01 3.155000e-01 2.162625e+00 4.305980e-01 -2.648479e-01 5.762682e-02 -1.132033e-01 -1.788067e-01 1.177756e-01 -1.979294e-01 1.233257e-01 -2.142591e-01 -1.117695e-01 -5.067294e-01 -3.735723e-01 3.826684e-01
<VARIANCE> 39
 9.540964e+01 8.931733e+01 6.257906e+01 8.976894e+01 8.308981e+01 7.768883e+01 7.658047e+01 7.705956e+01 7.915673e+01 6.504490e+01 7.400284e+01 2.965550e+01 7.421559e+01 1.306252e+01 9.356728e+00 6.093925e+00 8.581719e+00 9.500987e+00 1.414872e+01 1.175198e+01 8.174294e+00 8.762574e+00 8.229928e+00 8.411716e+00 3.371934e+00 9.215848e+00 1.528804e+00 1.037092e+00 1.065733e+00 9.100793e-01 1.569545e+00 1.909546e+00 1.994355e+00 1.559729e+00 1.214495e+00 1.258382e+00 1.464478e+00 5.617907e-01 1.100704e+00
<GCONST> 1.584250e+02
<STATE> 3
<MEAN> 39
 -6.026977e-02 -1.292478e+01 -6.596393e+00 -1.535423e+01 -3.987342e+00 -4.208907e+00 -1.461605e+01 -1.259903e+01 -3.686832e+00 -8.075685e+00 -1.122285e+01 -6.608271e+00 5.489886e+01 1.331295e+00 -1.153557e+00 -2.574919e-02 -6.890350e-01 4.345579e-01 1.981821e+00 -3.663802e-01 8.911863e-02 -9.032409e-01 1.937834e-01 -1.236879e+00 -1.463551e+00 1.529158e+00 -6.766899e-01 7.534959e-01 1.018860e-01 6.912516e-01 -7.770244e-02 -2.167770e-01 4.774038e-01 3.784623e-01 -1.078558e-01 -1.259645e-01 2.294297e-01 -3.088732e-02 -8.216003e-01
<VARIANCE> 39
 4.028127e+01 7.405131e+01 4.914629e+01 8.526215e+01 4.545477e+01 1.477735e+02 4.966587e+01 5.670005e+01 9.942584e+01 6.264406e+01 4.800557e+01 4.834769e+01 4.020694e+01 4.629193e+00 9.203501e+00 3.030878e+00 4.977638e+00 3.987742e+00 8.535669e+00 5.413753e+00 6.016594e+00 4.383129e+00 5.663391e+00 3.917149e+00 2.839518e+00 5.867885e+00 6.941864e-01 1.382718e+00 6.253306e-01 8.427705e-01 9.444802e-01 1.790175e+00 1.000789e+00 1.113641e+00 1.061249e+00 1.269045e+00 7.336403e-01 6.445873e-01 9.852723e-01
<GCONST> 1.453076e+02
<STATE> 4
<MEAN> 39
 -1.085993e+00 -1.122130e+01 -7.369200e+00 -1.284534e+01 -4.687506e+00 -1.758273e+00 -9.371144e+00 -7.963450e+00 -6.762866e+00 -8.879040e+00 -1.138963e+01 -9.908669e+00 5.247612e+01 -4.513433e-01 8.967278e-01 5.269942e-02 2.954761e-01 -2.943508e-01 -5.872504e-01 3.908761e-01 2.374674e-01 9.118669e-03 -1.974879e-01 -1.694118e-02 -1.422947e-01 -7.868345e-01 -5.966476e-02 3.833994e-02 2.156448e-02 4.340619e-03 -3.974892e-02 -1.056515e-01 -5.456464e-02 -8.597078e-02 3.766008e-02 6.112742e-02 1.085572e-01 1.335492e-01 -8.685554e-02
<VARIANCE> 39
 5.017550e+01 8.928163e+01 6.358938e+01 7.226685e+01 4.573093e+01 8.143249e+01 7.066020e+01 7.922314e+01 4.806135e+01 7.310234e+01 6.124167e+01 3.734773e+01 7.028872e+01 2.417055e+00 3.772304e+00 2.670413e+00 3.474439e+00 3.935392e+00 3.647327e+00 4.179442e+00 4.088782e+00 3.529603e+00 4.270992e+00 3.600151e+00 2.731685e+00 2.290663e+00 3.601957e-01 6.149865e-01 4.713515e-01 6.375439e-01 7.361950e-01 6.945531e-01 8.002721e-01 7.371957e-01 6.358597e-01 8.160737e-01 6.453964e-01 4.889337e-01 3.452412e-01
<GCONST> 1.345092e+02
<TRANSP> 5
 0.000000e+00 1.000000e+00 0.000000e+00 0.000000e+00 0.000000e+00
 0.000000e+00 6.761726e-01 3.238275e-01 0.000000e+00 0.000000e+00
 0.000000e+00 0.000000e+00 6.513120e-01 3.486879e-01 0.000000e+00
 0.000000e+00 0.000000e+00 0.000000e+00 9.120243e-01 8.797569e-02
 0.000000e+00 0.000000e+00 0.000000e+00 0.000000e+00 0.000000e+00
<ENDHMM>
~h "w"
<BEGINHMM>
<NUMSTATES> 5
<STATE> 2
<MEAN> 39
 -5.739390e+00 -8.877422e+00 -4.072735e+00 -1.375197e+01 -3.520647e+00 -9.950500e+00 -1.239198e+01 -7.508173e+00 -8.326193e+00 -3.007114e+00 -6.624901e+00 -2.349677e+00 5.022424e+01 -1.377735e-01 -8.994288e-01 3.160378e-01 6.784663e-01 -3.618128e-01 8.003116e-04 1.293979e-01 5.761955e-01 -3.914597e-01 -5.703512e-01 -4.555348e-01 -2.719975e-01 -2.174414e-01 4.871785e-02 4.063046e-01 -2.031230e-01 3.101595e-01 -5.676524e-03 1.242665e-01 7.247286e-02 -3.948885e-01 6.426213e-02 -1.176526e-01 -6.262521e-02 -1.748543e-01 -3.387257e-01
<VARIANCE> 39
 9.011548e+01 1.377349e+02 6.213143e+01 1.265583e+02 8.649560e+01 9.593005e+01 4.324312e+01 9.034502e+01 6.405647e+01 9.106548e+01 5.378816e+01 5.802069e+01 1.278804e+02 1.852740e+00 2.877937e+00 2.509540e+00 2.596457e+00 3.208031e+00 2.967254e+00 5.310639e+00 3.995385e+00 3.186470e+00 3.410460e+00 4.289657e+00 2.623106e+00 3.128377e+00 2.539380e-01 6.008800e-01 2.810006e-01 6.282774e-01 6.417500e-01 5.517315e-01 7.555140e-01 9.138944e-01 6.127546e-01 8.082852e-01 7.448039e-01 4.314056e-01 3.081520e-01
<GCONST> 1.357011e+02
<STATE> 3
<MEAN> 39
 -1.760708e+00 -1.318026e+01 -7.973793e+00 -8.378347e+00 -3.277823e+00 -1.134676e+01 -1.459915e+01 -5.318490e+00 -1.304751e+01 -8.561869e+00 -4.202789e+00 -5.822129e+00 5.072076e+01 3.569328e-02 1.095371e-02 -9.780926e-02 5.151010e-01 -1.216167e-01 3.448582e-01 2.183705e-01 -1.304591e-01 2.600324e-01 -1.430271e-01 -5.719840e-01 -1.697966e-01 -5.070438e-01 2.447756e-02 1.703464e-01 1.745095e-02 -4.632077e-02 -1.254863e-01 1.340120e-02 9.342834e-02 -7.436047e-02 1.776817e-01 1.221105e-01 7.794798e-02 5.711183e-02 7.597901e-03
<VARIANCE> 39
 8.131809e+01 1.755625e+02 6.207670e+01 9.821741e+01 6.416649e+01 7.725297e+01 5.689145e+01 1.191318e+02 6.349317e+01 8.475726e+01 6.715542e+01 2.482556e+01 1.090816e+02 8.876112e-01 1.963397e+00 1.613979e+00 2.010283e+00 1.938546e+00 2.487453e+00 2.732878e+00 3.962699e+00 2.236587e+00 2.861110e+00 3.258692e+00 1.596675e+00 1.757342e+00 1.567416e-01 3.011625e-01 2.350764e-01 2.021456e-01 3.057121e-01 3.339302e-01 4.532905e-01 6.135170e-01 5.481624e-01 4.580327e-01 7.118072e-01 2.921970e-01 1.660151e-01
<GCONST> 1.233384e+02
<STATE> 4
<MEAN> 39
 -1.040160e+01 -6.033438e+00 -6.771606e+00 -6.110682e+00 -3.074623e+00 -5.386021e+00 -7.282447e+00 -6.628601e+00 -5.308856e+00 -7.803641e+00 -7.023278e+00 -3.857637e+00 3.874145e+01 -1.334933e-01 -1.826033e-01 9.644936e-02 3.298897e-01 -3.563196e-02 6.912292e-01 3.226172e-01 4.814725e-02 1.985348e-01 2.379464e-01 -7.092921e-02 -4.176952e-03 -5.489043e-01 1.233698e-01 1.327325e-01 8.226639e-02 -7.488714e-02 -1.226283e-01 -2.960385e-01 -2.716309e-01 -2.559387e-01 -1.558958e-01 -5.423705e-02 3.954163e-02 4.498374e-02 2.090887e-01
<VARIANCE> 39
 5.676809e+01 9.301127e+01 4.023265e+01 6.779211e+01 4.991561e+01 5.412403e+01 4.271249e+01 7.853639e+01 6.198504e+01 5.322694e+01 3.309336e+01 2.299105e+01 1.209346e+02 8.935973e-01 1.870513e+00 1.499572e+00 1.664502e+00 2.372760e+00 4.234450e+00 2.361701e+00 4.742486e+00 2.991619e+00 2.643765e+00 2.414039e+00 1.443301e+00 1.137805e+00 2.257766e-01 3.243444e-01 2.661446e-01 3.028512e-01 5.946044e-01 8.131867e-01 6.955301e-01 7.782545e-01 5.816364e-01 5.496242e-01 5.884680e-01 3.674574e-01 2.516515e-01
<GCONST> 1.227835e+02
<TRANSP> 5
 0.000000e+00 1.000000e+00 0.000000e+00 0.000000e+00 0.000000e+00
 0.000000e+00 3.887669e-01 6.112332e-01 0.000000e+00 0.000000e+00
 0.000000e+00 0.000000e+00 5.329750e-01 4.670250e-01 0.000000e+00
 0.000000e+00 0.000000e+00 0.000000e+00 5.884818e-01 4.115182e-01
 0.000000e+00 0.000000e+00 0.000000e+00 0.000000e+00 0.000000e+00
<ENDHMM>
~h "y"
<BEGINHMM>
<NUMSTATES> 5
<STATE> 2
<MEAN> 39
 -1.469129e+00 1.644832e+00 7.634379e+00 -1.168626e+01 -7.801154e+00 -1.273923e+00 -2.265280e+01 -2.044558e+01 -1.266220e+01 -5.529360e+00 -3.209496e+00 -2.588235e+00 4.493913e+01 -4.334222e-01 -8.532513e-02 2.422911e+00 -1.175827e+00 -2.509485e+00 -5.363845e-01 -1.277430e-01 -1.861269e+00 2.508415e-01 1.220124e+00 -1.374029e-01 6.782528e-01 9.853777e-01 7.423317e-02 1.497808e-01 -2.459716e-01 1.939365e-01 -1.032794e-01 -9.291329e-01 4.345458e-01 5.299716e-01 -3.022678e-01 -7.632811e-02 4.862767e-01 -1.613823e-01 1.667374e-01
<VARIANCE> 39
 9.559063e+01 3.187701e+01 1.600488e+02 8.705544e+01 4.229179e+01 9.267712e+01 3.774502e+01 3.889371e+01 1.390606e+01 3.627701e+01 2.149037e+01 4.331170e+01 3.740733e+00 8.016122e+00 3.971527e+00 3.929755e+00 1.098503e+00 1.567634e+01 9.736027e+00 2.279258e+00 7.208331e+00 1.043004e+01 2.663077e+00 2.144430e+00 1.202756e+00 4.279630e-01 5.820159e-01 5.764444e-01 5.398985e-01 6.371130e-01 1.023451e+00 1.573033e+00 6.418080e-01 6.590869e-01 1.062070e+00 8.645125e-01 5.061024e-01 2.186008e-01 5.355360e-02
<GCONST> 1.276011e+02
<STATE> 3
<MEAN> 39
 -1.618899e+00 -1.838219e-01 1.749962e+01 -1.330632e+01 -2.239089e+01 -9.427227e+00 -1.672898e+01 -1.935728e+01 -1.805762e+01 -6.165541e+00 -2.238563e-01 -1.304717e+00 4.734072e+01 9.482636e-02 -1.165617e-01 7.863056e-01 2.237693e-01 -4.943355e-01 -2.454560e+00 1.358043e+00 1.483501e+00 -1.080273e+00 -8.582014e-01 5.874006e-01 1.410377e-01 7.808585e-01 -1.757860e-01 -3.554309e-02 -4.917946e-01 7.791726e-02 1.064911e+00 2.527479e-01 -1.470493e-01 6.548676e-01 3.905691e-01 -1.800241e-01 -3.736351e-02 -3.001712e-02 -1.189687e-01
<VARIANCE> 39
 2.234154e+01 3.075113e+01 1.788754e+02 4.630850e+01 1.627760e+02 3.222398e+01 5.432062e+01 7.559094e+01 5.657778e+01 3.570016e+01 3.753643e+01 2.085100e+01 7.976314e+00 7.642755e+00 5.005209e+00 1.803811e+00 3.047431e+00 9.083488e+00 6.925607e+00 6.038244e+00 5.901740e+00 7.397163e+00 2.164315e+00 1.903231e+00 4.548062e-01 7.632143e-01 2.292585e-01 3.287850e-01 9.815400e-01 2.879411e-01 1.556934e+00 3.218930e-01 8.086979e-01 2.088195e+00 8.204244e-01 7.543337e-01 3.984083e-01 2.270095e-01 7.054809e-02
<GCONST> 1.263390e+02
<STATE> 4
<MEAN> 39
 -1.264948e+01 9.474850e+00 3.525286e+00 -8.805350e+00 -5.330895e+00 -1.791180e+01 -7.606239e+00 -1.731680e+01 -1.104989e+01 -9.511846e+00 -1.440931e+00 -4.038753e+00 4.744359e+01 -7.873129e-02 -7.446758e-02 -3.689030e-01 3.621948e-02 2.502620e-01 1.643103e-02 -2.539244e-01 7.728368e-02 1.114623e+00 -1.236970e-01 1.023079e-01 -3.067043e-01 -2.269612e-01 1.134916e-01 -3.006898e-01 1.622708e-01 -6.014585e-02 -1.195855e-01 4.663339e-01 -3.003341e-01 -4.213122e-02 1.122389e-02 -5.329631e-03 -1.181335e-01 -3.748324e-02 -1.616560e-01
<VARIANCE> 39
 1.329072e+02 1.118907e+02 1.271589e+02 3.420361e+01 1.750491e+02 3.880250e+01 8.129446e+01 6.921778e+01 8.915570e+01 2.076523e+01 3.415476e+01 2.268694e+01 1.965779e+01 7.407678e+00 6.154858e+00 7.371816e+00 3.712330e+00 1.697795e+01 5.756580e+00 4.752767e+00 6.465325e+00 3.253187e+00 3.087474e+00 3.587459e+00 1.793399e+00 1.564560e+00 1.036455e+00 1.077368e+00 9.448262e-01 4.568399e-01 2.641775e+00 1.143100e+00 9.120231e-01 1.248333e+00 7.016037e-01 5.966914e-01 7.406586e-01 4.618944e-01 3.558484e-01
<GCONST> 1.415570e+02
<TRANSP> 5
 0.000000e+00 1.000000e+00 0.000000e+00 0.000000e+00 0.000000e+00
 0.000000e+00 2.727406e-01 7.272594e-01 0.000000e+00 0.000000e+00
 0.000000e+00 0.000000e+00 5.703371e-01 4.296629e-01 0.000000e+00
 0.000000e+00 0.000000e+00 0.000000e+00 8.358937e-01 1.641063e-01
 0.000000e+00 0.000000e+00 0.000000e+00 0.000000e+00 0.000000e+00
<ENDHMM>
~h "z"
<BEGINHMM>
<NUMSTATES> 5
<STATE> 2
<MEAN> 39
 -9.509638e+00 5.175458e+00 -1.900603e+00 -1.001870e+01 -9.804648e+00 -1.514551e+01 -9.331724e+00 -1.539969e+01 -8.112947e+00 -1.095887e+01 -7.635950e+00 -6.533735e+00 5.224448e+01 -4.157956e+00 4.908984e+00 -3.527545e+00 2.292501e+00 5.359952e-01 -1.111851e+00 2.534506e+00 -2.762783e-01 2.084027e+00 -7.855684e-01 1.464420e+00 -9.402535e-01 3.284978e-02 -3.047631e-01 -1.065151e-01 -2.704657e-01 1.821361e-01 3.352239e-01 3.792993e-01 -1.942766e-01 4.333334e-01 -4.859522e-02 6.057454e-01 3.942643e-02 2.584797e-01 -1.890921e-02
<VARIANCE> 39
 8.138952e+01 1.139555e+02 1.213576e+02 9.129712e+01 7.785124e+01 7.474438e+01 7.986568e+01 5.935497e+01 6.804516e+01 4.761071e+01 5.937744e+01 4.762186e+01 3.878998e+01 3.473646e+00 8.789310e+00 7.201992e+00 1.074992e+01 7.977557e+00 6.755819e+00 7.039767e+00 4.926363e+00 4.424727e+00 5.436239e+00 4.292985e+00 3.587497e+00 9.332484e-01 1.311090e+00 2.073636e+00 1.384654e+00 1.364994e+00 1.061502e+00 1.172423e+00 1.539238e+00 8.424308e-01 1.039147e+00 9.238951e-01 9.907386e-01 7.313831e-01 1.865905e-01
<GCONST> 1.481670e+02
<STATE> 3
<MEAN> 39
 -2.124898e+01 1.522968e+01 -1.414902e+01 -1.652668e+00 -7.111641e+00 -1.383552e+01 -5.334671e+00 -1.319445e+01 -4.525226e+00 -9.084633e+00 -5.714053e+00 -8.062095e+00 5.041895e+01 -6.305664e-01 -2.669730e-01 -2.032371e-01 8.249401e-01 1.704248e-01 5.113976e-01 -3.151078e-01 3.202447e-01 -5.692402e-02 5.179877e-01 3.437575e-01 5.807027e-01 -8.155347e-01 6.830119e-01 -8.936172e-01 6.664150e-01 -4.679006e-01 -1.028303e-01 9.520517e-02 -2.655814e-01 -6.637156e-03 -1.821707e-01 -1.054814e-02 -1.032078e-01 2.273479e-01 -8.193435e-02
<VARIANCE> 39
 3.109381e+01 3.874499e+01 5.309375e+01 4.664183e+01 7.677849e+01 4.927391e+01 5.304113e+01 5.107330e+01 4.677504e+01 5.184707e+01 5.212139e+01 3.856416e+01 2.825551e+01 4.172211e+00 5.321405e+00 4.491672e+00 4.355808e+00 6.358441e+00 5.120707e+00 5.112020e+00 5.382499e+00 3.582828e+00 4.271768e+00 4.685663e+00 3.787262e+00 1.227144e+00 6.381940e-01 8.974351e-01 6.947685e-01 6.321292e-01 1.309165e+00 9.753925e-01 1.155263e+00 1.027780e+00 8.989382e-01 8.691621e-01 9.927948e-01 8.550725e-01 2.361188e-01
<GCONST> 1.373321e+02
<STATE> 4
<MEAN> 39
 -2.269944e+01 8.505713e+00 -1.233420e+01 1.032021e+00 -4.579799e+00 -7.808250e+00 -2.092959e+00 -1.061882e+01 -1.534100e+00 -7.141763e+00 -1.459232e+00 -3.505592e+00 4.257948e+01 5.411944e-01 -1.214558e+00 4.509311e-01 -3.887154e-01 8.425336e-02 4.083461e-01 2.535471e-02 2.820542e-01 -9.000288e-02 3.558810e-02 -4.081069e-02 1.835892e-01 -7.991546e-01 1.837319e-01 -9.933375e-02 1.354374e-01 -1.216942e-01 -6.890038e-02 -1.813444e-02 -1.015856e-01 -9.289184e-02 -1.162312e-01 -1.211272e-01 -1.281467e-01 -5.198115e-02 3.085868e-02
<VARIANCE> 39
 4.302706e+01 8.020770e+01 2.422686e+01 5.477031e+01 5.959301e+01 5.758406e+01 6.973411e+01 3.908190e+01 4.456650e+01 3.386819e+01 3.036798e+01 2.307237e+01 6.152151e+01 2.656442e+00 2.684447e+00 2.587138e+00 3.476978e+00 3.986022e+00 3.583273e+00 4.160036e+00 4.151240e+00 3.113652e+00 3.763153e+00 3.327408e+00 2.593326e+00 2.241074e+00 4.076995e-01 4.558937e-01 4.410444e-01 6.715745e-01 7.234110e-01 6.836162e-01 8.024306e-01 8.756065e-01 5.695416e-01 7.014720e-01 6.194708e-01 5.324419e-01 2.829194e-01
<GCONST> 1.289028e+02
<TRANSP> 5
 0.000000e+00 1.000000e+00 0.000000e+00 0.000000e+00 0.000000e+00
 0.000000e+00 7.199988e-01 2.800012e-01 0.000000e+00 0.000000e+00
 0.000000e+00 0.000000e+00 7.784861e-01 2.215139e-01 0.000000e+00
 0.000000e+00 0.000000e+00 0.000000e+00 8.580568e-01 1.419432e-01
 0.000000e+00 0.000000e+00 0.000000e+00 0.000000e+00 0.000000e+00
<ENDHMM>
~h "aa"
<BEGINHMM>
<NUMSTATES> 5
<STATE> 2
<MEAN> 39
 -8.398925e+00 -2.166953e+00 -6.053259e+00 -6.148839e+00 -7.983803e+00 -6.527161e+00 -6.225558e+00 -6.839465e+00 -6.316811e+00 -1.012191e+01 -9.249806e+00 -8.407969e+00 3.775456e+01 -7.173907e-01 6.862879e-02 -3.665581e-01 2.818443e-01 1.627328e-01 9.007127e-01 -1.343617e-02 -1.905139e-02 -3.530325e-01 3.566219e-01 -2.209739e-02 -1.203156e-01 -1.460481e+00 3.516137e-02 -1.791672e-01 1.661917e-01 9.878099e-03 2.008258e-01 8.623176e-02 2.342244e-02 1.258639e-01 1.623899e-01 6.454273e-02 -1.513088e-01 1.014032e-01 2.195274e-01
<VARIANCE> 39
 4.868925e+01 4.184285e+01 2.472316e+01 1.836337e+01 3.588029e+01 3.236782e+01 2.692094e+01 4.521254e+01 5.076390e+01 3.037358e+01 2.833964e+01 1.455826e+01 6.273935e+01 9.799703e-01 8.375824e-01 1.188552e+00 1.935845e+00 2.657920e+00 1.608272e+00 1.870201e+00 2.738443e+00 4.663328e+00 3.244185e+00 2.281944e+00 8.950899e-01 5.758458e-01 1.669824e-01 1.856086e-01 1.144611e-01 4.244666e-01 3.833129e-01 2.064507e-01 4.961789e-01 4.894472e-01 9.039285e-01 5.126147e-01 4.812644e-01 1.832060e-01 5.657670e-02
<GCONST> 1.071591e+02
<STATE> 3
<MEAN> 39
 -1.226574e+01 -3.010852e+00 -6.430499e+00 -3.589764e+00 -5.332325e+00 -2.228472e+00 -3.898886e+00 -6.709872e+00 -5.744369e+00 -6.939517e+00 -7.724448e+00 -7.405478e+00 3.349304e+01 -3.415640e-01 -1.953599e-01 1.402339e-01 4.884780e-01 2.527510e-01 3.846054e-01 4.603541e-01 6.760621e-01 4.242055e-01 5.731640e-02 -3.412324e-01 3.519482e-01 -6.409531e-01 1.647733e-02 1.814265e-02 5.538908e-02 -2.645134e-02 1.534491e-02 -2.803799e-01 -2.686927e-01 -3.414483e-02 8.557263e-02 -1.332423e-01 1.721067e-01 2.016101e-01 2.380053e-01
<VARIANCE> 39
 5.268215e+01 5.653592e+01 2.794975e+01 1.505484e+01 1.846362e+01 2.680125e+01 2.243214e+01 3.403437e+01 2.591425e+01 3.672537e+01 3.425916e+01 2.406630e+01 8.334966e+01 5.139841e-01 6.967795e-01 5.390134e-01 1.025647e+00 1.313551e+00 2.635087e+00 2.150110e+00 2.263930e+00 2.800181e+00 2.751281e+00 2.026736e+00 1.782982e+00 4.157893e-01 1.267255e-01 1.212771e-01 1.797614e-01 2.482444e-01 3.418918e-01 3.580304e-01 3.040591e-01 3.047343e-01 4.928260e-01 4.567592e-01 4.992837e-01 3.090818e-01 1.089882e-01
<GCONST> 1.028697e+02
<STATE> 4
<MEAN> 39
 -1.260012e+01 -1.739343e+00 -3.853808e+00 2.260799e+00 -5.614176e-01 1.700444e+00 -6.394685e-01 -2.578470e+00 -1.954309e+00 -5.925299e+00 -2.333921e+00 -5.978597e-01 3.457250e+01 -1.589024e-01 6.401133e-03 2.502260e-02 2.009778e-01 2.832706e-01 4.385544e-02 1.591002e-01 1.051374e-02 9.694860e-02 -1.029076e-01 1.154615e-01 2.286905e-01 -2.047320e-01 -2.462903e-02 -3.723696e-02 1.805333e-02 -1.349185e-01 -2.989736e-02 -7.208756e-02 -8.694322e-02 -1.351248e-01 -8.556959e-02 4.156696e-02 -4.171270e-02 -7.307757e-02 1.140160e-01
<VARIANCE> 39
 5.539837e+01 4.815403e+01 6.807358e+01 3.999341e+01 4.630391e+01 4.096741e+01 3.820085e+01 4.852845e+01 3.937725e+01 2.505360e+01 3.507435e+01 2.166736e+01 2.800102e+01 1.200618e+00 1.441187e+00 2.260149e+00 2.865843e+00 2.230322e+00 2.943420e+00 2.363179e+00 5.136148e+00 3.864905e+00 2.292016e+00 3.183655e+00 2.028324e+00 1.278444e+00 2.439588e-01 2.761516e-01 5.280093e-01 5.233818e-01 4.303674e-01 5.986840e-01 4.734651e-01 1.086927e+00 8.169130e-01 4.597376e-01 6.028169e-01 3.206280e-01 3.083982e-01
<GCONST> 1.206917e+02
<TRANSP> 5
 0.000000e+00 1.000000e+00 0.000000e+00 0.000000e+00 0.000000e+00
 0.000000e+00 6.860048e-01 3.139952e-01 0.000000e+00 0.000000e+00
 0.000000e+00 0.000000e+00 5.328755e-01 4.671245e-01 0.000000e+00
 0.000000e+00 0.000000e+00 0.000000e+00 8.201293e-01 1.798706e-01
 0.000000e+00 0.000000e+00 0.000000e+00 0.000000e+00 0.000000e+00
<ENDHMM>
~h "ae"
<BEGINHMM>
<NUMSTATES> 5
<STATE> 2
<MEAN> 39
 -1.042717e+01 -7.106409e+00 -2.651142e+00 -6.699296e+00 -5.805305e+00 -7.766197e+00 -9.676244e+00 -9.652280e+00 -7.145030e+00 -9.201644e+00 -4.946725e+00 -2.723158e+00 4.384629e+01 1.133634e+00 -2.478625e+00 3.834661e-01 -1.602444e+00 -5.648525e-02 -7.360134e-01 -9.978774e-01 6.158776e-01 -3.663282e-01 1.228024e-01 -5.179093e-01 1.136881e+00 3.083057e+00 3.722419e-01 -5.874201e-01 4.168861e-02 -4.653741e-01 3.138924e-02 -3.358328e-02 6.785209e-02 4.120399e-01 -1.890418e-01 4.325890e-02 -6.240811e-01 -7.271325e-03 8.039335e-01
<VARIANCE> 39
 7.256406e+01 9.330829e+01 4.520602e+01 6.065929e+01 5.680534e+01 9.938654e+01 1.011711e+02 7.383675e+01 6.213972e+01 5.880915e+01 4.326760e+01 4.963195e+01 1.516732e+02 7.879887e+00 9.153913e+00 5.457816e+00 7.697163e+00 7.549072e+00 7.116899e+00 9.233051e+00 8.849236e+00 5.122120e+00 5.310683e+00 6.384053e+00 6.039635e+00 9.869260e+00 1.022272e+00 1.291660e+00 7.976932e-01 9.226263e-01 1.134006e+00 1.423713e+00 1.982804e+00 1.372104e+00 8.216396e-01 9.042310e-01 1.055813e+00 9.964194e-01 1.400803e+00
<GCONST> 1.540591e+02
<STATE> 3
<MEAN> 39
 -5.195534e+00 -1.998961e+01 1.718650e+00 -1.701325e+01 -4.770865e+00 -9.032230e+00 -1.132755e+01 -3.095326e+00 -9.600386e+00 -6.834683e+00 -1.316503e+01 6.975650e-01 5.982860e+01 2.901038e-01 -1.893841e+00 3.519415e-01 -8.584086e-01 7.051730e-01 5.470945e-01 9.595753e-01 1.623121e+00 -6.972430e-01 2.260784e-01 -1.326313e+00 4.505501e-01 2.025709e+00 -2.678654e-01 9.963319e-01 -1.515106e-01 7.555255e-01 -1.143605e-02 7.315993e-03 7.144050e-02 -4.387257e-01 -3.949687e-03 -1.008737e-01 4.278638e-01 -3.040399e-01 -8.619456e-01
<VARIANCE> 39
 2.361019e+01 4.469759e+01 6.553524e+01 4.403448e+01 7.801833e+01 8.172565e+01 6.382384e+01 5.042237e+01 5.226275e+01 7.126400e+01 4.745697e+01 4.415802e+01 3.727695e+01 3.105297e+00 6.797229e+00 3.648864e+00 5.581355e+00 3.882050e+00 6.840962e+00 6.509048e+00 6.153712e+00 3.780701e+00 6.336728e+00 5.851821e+00 4.060223e+00 5.363334e+00 5.447187e-01 8.452891e-01 5.887805e-01 7.601327e-01 7.869632e-01 1.166148e+00 1.301044e+00 1.029511e+00 6.702034e-01 9.344665e-01 6.969157e-01 9.384819e-01 7.297844e-01
<GCONST> 1.414081e+02
<STATE> 4
<MEAN> 39
 -2.510641e+00 -2.004454e+01 -1.392902e+00 -1.260097e+01 -5.231367e+00 -8.019400e+00 -9.401896e+00 -1.132768e+00 -1.040369e+01 -9.830317e+00 -1.334344e+01 -2.606365e+00 5.863256e+01 3.924614e-01 1.325617e+00 -2.739484e-01 3.781598e-01 -6.387869e-01 -4.095078e-01 4.696214e-02 -2.763211e-01 2.168481e-01 -5.302900e-01 1.785646e-02 -4.696099e-01 -1.150894e+00 3.366699e-03 2.862475e-01 -1.251304e-01 9.479617e-02 -9.724848e-02 -9.653588e-02 -3.947860e-02 -1.823326e-01 7.760391e-02 -4.451089e-02 1.241626e-01 -1.968236e-02 -2.621189e-01
<VARIANCE> 39
 2.362985e+01 7.417960e+01 4.556057e+01 5.422060e+01 8.179205e+01 6.835735e+01 4.709089e+01 4.382010e+01 5.018186e+01 6.413262e+01 1.016406e+02 5.325395e+01 5.370226e+01 1.391058e+00 2.942411e+00 2.176231e+00 2.792477e+00 2.805487e+00 3.075969e+00 2.984554e+00 2.816958e+00 3.502383e+00 4.013094e+00 2.959468e+00 2.893204e+00 1.844442e+00 2.778772e-01 4.169231e-01 3.647654e-01 4.369215e-01 4.855795e-01 5.337854e-01 5.919705e-01 5.394428e-01 5.443396e-01 7.359220e-01 5.095103e-01 4.737600e-01 2.445147e-01
<GCONST> 1.265484e+02
<TRANSP> 5
 0.000000e+00 1.000000e+00 0.000000e+00 0.000000e+00 0.000000e+00
 0.000000e+00 6.530421e-01 3.469579e-01 0.000000e+00 0.000000e+00
 0.000000e+00 0.000000e+00 6.665186e-01 3.334813e-01 0.000000e+00
 0.000000e+00 0.000000e+00 0.000000e+00 8.616756e-01 1.383244e-01
 0.000000e+00 0.000000e+00 0.000000e+00 0.000000e+00 0.000000e+00
<ENDHMM>
~h "ah"
<BEGINHMM>
<NUMSTATES> 5
<STATE> 2
<MEAN> 39
 -7.029396e+00 -3.740263e+00 -5.187309e+00 -8.246525e+00 -6.693286e+00 -9.088169e+00 -1.098897e+01 -9.612569e+00 -5.206951e+00 -7.898625e+00 -5.550016e+00 -2.413364e+00 4.518816e+01 1.228293e+00 -2.587352e+00 2.490169e-01 -1.654809e+00 5.077986e-01 1.894123e-01 -8.481627e-01 3.388196e-01 -1.492225e-01 5.871781e-01 -1.113091e+00 6.837642e-01 2.362245e+00 1.024960e-01 -5.170935e-01 1.389410e-01 -2.261177e-01 3.315927e-01 1.820538e-01 8.618668e-02 2.186207e-01 -1.575601e-01 1.574308e-01 -3.780869e-01 -2.470080e-01 5.093519e-01
<VARIANCE> 39
 8.592162e+01 8.512182e+01 9.773260e+01 8.019289e+01 6.322746e+01 6.582852e+01 6.682140e+01 9.020467e+01 8.635207e+01 6.288512e+01 6.227317e+01 4.376712e+01 9.713089e+01 8.140679e+00 1.045933e+01 8.004875e+00 8.207943e+00 8.784568e+00 8.731811e+00 7.888519e+00 9.900145e+00 8.479342e+00 6.938512e+00 9.465125e+00 5.229187e+00 9.870647e+00 1.095826e+00 1.685799e+00 1.076918e+00 1.455668e+00 1.585382e+00 1.726398e+00 1.177004e+00 1.534954e+00 1.424603e+00 1.060843e+00 1.211919e+00 9.291350e-01 1.515966e+00
<GCONST> 1.588685e+02
<STATE> 3
<MEAN> 39
 -2.242877e+00 -2.127236e+01 -4.784698e+00 -1.380597e+01 -1.230600e-01 -3.218947e+00 -1.286583e+01 -3.520467e+00 -6.807004e+00 -4.112053e+00 -1.502287e+01 -3.098745e+00 5.969881e+01 1.635689e-01 -1.010228e+00 5.901349e-01 -2.032651e-01 4.942978e-01 2.438190e-01 2.088092e-01 3.708927e-01 -4.843777e-01 -3.440042e-01 -8.572346e-01 -3.302901e-01 9.139663e-01 -1.591212e-01 1.049667e+00 -1.382779e-01 4.099805e-01 -4.754271e-01 -3.151290e-01 1.385266e-01 -2.746844e-01 3.046925e-02 -3.441638e-01 4.485919e-01 -1.408936e-01 -7.136212e-01
<VARIANCE> 39
 2.065750e+01 4.168074e+01 8.369210e+01 4.982815e+01 5.574519e+01 1.078134e+02 6.589047e+01 7.029889e+01 7.097059e+01 6.356798e+01 6.328270e+01 4.451308e+01 3.035560e+01 2.227205e+00 8.109355e+00 4.717223e+00 4.791574e+00 5.891762e+00 7.184874e+00 5.182020e+00 6.682422e+00 6.410445e+00 6.065780e+00 5.442298e+00 3.238884e+00 3.645087e+00 4.890679e-01 8.494406e-01 8.133278e-01 8.320920e-01 1.033363e+00 1.127164e+00 9.250748e-01 1.214601e+00 1.313375e+00 1.076611e+00 1.075988e+00 6.262448e-01 5.095008e-01
<GCONST> 1.430867e+02
<STATE> 4
<MEAN> 39
 -1.965003e+00 -1.425518e+01 -1.908577e-01 -1.473393e+01 -6.833263e+00 -7.947814e+00 -1.227999e+01 -8.161728e+00 -9.157928e+00 -7.352922e+00 -1.348403e+01 -6.056793e+00 5.716641e+01 -2.501737e-01 1.806812e+00 -4.769022e-01 4.440774e-01 -7.721050e-01 -3.946241e-01 2.565973e-01 -4.608147e-01 1.013868e-01 -8.415467e-01 4.065078e-01 -7.066165e-01 -8.753662e-01 -2.550769e-01 2.198389e-01 -2.761893e-01 2.204663e-01 1.271297e-01 5.717525e-02 1.681344e-02 -5.344709e-02 3.074704e-03 1.124420e-01 1.678323e-01 -4.627369e-04 -8.773748e-02
<VARIANCE> 39
 3.767955e+01 7.591988e+01 1.081360e+02 6.414020e+01 5.914604e+01 8.190863e+01 6.988547e+01 7.270641e+01 5.348386e+01 9.016164e+01 6.173566e+01 4.878501e+01 3.021465e+01 4.517015e+00 7.043132e+00 4.714510e+00 4.328926e+00 4.508035e+00 5.171955e+00 3.999154e+00 4.478915e+00 4.030101e+00 4.166656e+00 5.227895e+00 4.344745e+00 2.173326e+00 7.146336e-01 7.143137e-01 6.279349e-01 8.087252e-01 8.257717e-01 8.594037e-01 9.201007e-01 7.633998e-01 6.867917e-01 9.186227e-01 1.082722e+00 9.565313e-01 3.581144e-01
<GCONST> 1.411308e+02
<TRANSP> 5
 0.000000e+00 1.000000e+00 0.000000e+00 0.000000e+00 0.000000e+00
 0.000000e+00 7.497480e-01 2.502520e-01 0.000000e+00 0.000000e+00
 0.000000e+00 0.000000e+00 7.800657e-01 2.199344e-01 0.000000e+00
 0.000000e+00 0.000000e+00 0.000000e+00 7.754964e-01 2.245036e-01
 0.000000e+00 0.000000e+00 0.000000e+00 0.000000e+00 0.000000e+00
<ENDHMM>
~h "ao"
<BEGINHMM>
<NUMSTATES> 5
<STATE> 2
<MEAN> 39
 -6.814535e+00 -6.754371e+00 -5.785825e+00 -9.407994e+00 -3.086046e+00 -6.616710e+00 -1.501126e+01 -1.197324e+01 -6.258501e+00 -5.558095e+00 -5.552150e+00 -2.980795e+00 4.837371e+01 1.591207e+00 -1.126058e+00 -7.487850e-01 -1.781681e+00 2.059689e-01 3.521629e-01 -5.383577e-01 1.707464e-01 -3.535011e-01 3.136501e-01 3.814335e-01 4.719679e-01 2.147529e+00 3.192143e-01 -1.923911e-01 -1.285016e-01 -2.576165e-01 9.923107e-02 4.883006e-03 4.306204e-02 3.653422e-01 -4.415837e-02 9.956555e-02 -2.916223e-01 -2.547940e-01 1.620065e-01
<VARIANCE> 39
 8.767551e+01 6.778645e+01 1.813283e+02 6.480095e+01 1.435955e+02 8.879144e+01 1.122269e+02 7.481982e+01 7.744215e+01 8.926787e+01 6.777579e+01 5.279665e+01 8.000704e+01 1.481326e+01 8.619821e+00 8.743528e+00 8.784790e+00 1.060087e+01 1.287037e+01 7.182826e+00 8.290046e+00 8.353853e+00 8.560922e+00 9.891513e+00 8.010787e+00 7.775369e+00 2.131386e+00 1.299396e+00 1.712735e+00 1.395172e+00 2.421779e+00 2.431298e+00 1.129014e+00 1.579804e+00 1.364001e+00 1.788636e+00 1.719345e+00 1.834252e+00 1.540884e+00
<GCONST> 1.652348e+02
<STATE> 3
<MEAN> 39
 9.782159e-01 -1.546771e+01 -9.357265e+00 -1.855355e+01 -7.239813e-01 -2.293627e+00 -1.635505e+01 -6.981281e+00 -7.164767e+00 -5.291572e-01 -9.180058e+00 -5.485332e+00 5.840473e+01 8.565812e-01 -1.419629e+00 -1.775012e+00 -1.071008e+00 1.440936e+00 2.165036e+00 7.317110e-01 1.177055e+00 -3.602777e-01 1.613111e+00 3.458180e-01 -7.270713e-01 7.986481e-01 -5.505049e-01 4.261191e-01 1.901112e-01 7.170151e-01 -3.333771e-01 -1.967886e-02 2.539193e-01 -2.141889e-01 -1.986736e-01 -3.701135e-01 5.231748e-01 3.022714e-01 -4.810389e-01
<VARIANCE> 39
 2.682736e+01 3.661024e+01 6.225670e+01 9.417560e+01 5.797707e+01 1.519950e+02 4.363491e+01 2.951230e+01 8.023873e+01 1.253863e+02 5.067414e+01 3.225966e+01 1.468304e+01 1.555602e+00 2.734060e+00 5.867674e+00 2.780445e+00 3.296149e+00 6.832104e+00 2.490868e+00 3.966842e+00 4.799899e+00 3.813954e+00 5.033812e+00 3.717060e+00 1.524605e+00 4.358012e-01 4.208881e-01 5.442383e-01 5.930145e-01 6.489872e-01 1.549318e+00 5.991378e-01 4.317406e-01 1.240438e+00 1.055301e+00 1.264580e+00 6.501135e-01 2.603538e-01
<GCONST> 1.332472e+02
<STATE> 4
<MEAN> 39
 4.851238e+00 -1.601498e+01 -1.474243e+01 -1.342008e+01 1.100116e+00 -5.925028e+00 -1.423155e+01 -1.569277e+00 -8.940547e+00 -5.029378e+00 -5.276910e+00 -4.980573e+00 5.572277e+01 5.273735e-02 1.445350e-01 3.765448e-01 4.500270e-01 -3.649021e-01 -7.450256e-01 1.129789e-01 1.635501e-01 3.297960e-01 -3.909304e-01 -1.026094e-01 -1.932805e-02 -2.852718e-01 -6.682307e-02 9.660577e-02 1.455265e-01 -1.214909e-02 -1.271581e-01 -3.902408e-02 4.287907e-03 -1.083227e-01 5.436872e-02 -3.223822e-02 -6.842370e-02 -1.596603e-02 -6.595467e-02
<VARIANCE> 39
 1.710513e+01 4.396976e+01 5.838769e+01 1.688802e+02 7.615426e+01 2.666625e+02 4.647379e+01 6.764854e+01 7.661784e+01 6.055858e+01 4.496428e+01 3.670315e+01 2.040953e+01 6.281903e-01 1.751395e+00 3.149630e+00 2.321135e+00 3.829943e+00 5.390788e+00 3.652608e+00 2.401948e+00 4.053887e+00 2.996216e+00 2.628718e+00 2.544310e+00 5.977214e-01 9.384616e-02 2.751280e-01 2.877609e-01 3.249027e-01 4.960580e-01 6.804152e-01 5.954623e-01 4.240517e-01 6.689459e-01 4.083923e-01 4.353929e-01 4.455554e-01 9.373780e-02
<GCONST> 1.217087e+02
<TRANSP> 5
 0.000000e+00 1.000000e+00 0.000000e+00 0.000000e+00 0.000000e+00
 0.000000e+00 8.023753e-01 1.976247e-01 0.000000e+00 0.000000e+00
 0.000000e+00 0.000000e+00 6.435348e-01 3.564652e-01 0.000000e+00
 0.000000e+00 0.000000e+00 0.000000e+00 9.381770e-01 6.182301e-02
 0.000000e+00 0.000000e+00 0.000000e+00 0.000000e+00 0.000000e+00
<ENDHMM>
~h "aw"
<BEGINHMM>
<NUMSTATES> 5
<STATE> 2
<MEAN> 39
 1.214905e+00 -1.633435e+01 -1.738511e+00 -1.455011e-01 -5.610725e+00 -1.267842e+01 -1.255262e+01 -2.526797e+00 -1.543932e+01 -1.967818e+01 -7.162198e+00 -5.392343e+00 5.020342e+01 -2.204254e-01 1.039991e+00 -8.319325e-02 3.206653e-01 -2.088778e-01 -3.271848e-01 -1.797348e-01 1.790781e-02 1.216228e-01 3.374471e-02 -8.591715e-02 -2.136853e-01 -9.368971e-01 -1.312831e-01 8.474530e-02 5.437142e-02 -1.038995e-01 4.369108e-02 3.023977e-02 6.654595e-02 -1.781796e-01 6.301987e-02 1.710927e-01 6.963933e-02 1.068367e-01 -3.802336e-02
<VARIANCE> 39
 1.239921e+01 1.803274e+02 9.635652e+00 2.531865e+01 7.889783e+01 1.248811e+02 4.164566e+01 5.136443e+01 3.877504e+01 2.383538e+01 2.606228e+01 4.772718e+01 8.242640e+01 6.660565e-01 2.155825e+00 1.066530e+00 2.254014e+00 2.858206e+00 4.418375e+00 2.756179e+00 2.875072e+00 3.046549e+00 2.517717e+00 2.875138e+00 3.444264e+00 9.011300e-01 6.323487e-02 2.416026e-01 2.120164e-01 3.226023e-01 5.890119e-01 5.783148e-01 4.855007e-01 4.383543e-01 4.091358e-01 5.741012e-01 4.124080e-01 6.802964e-01 7.801165e-02
<GCONST> 1.154294e+02
<STATE> 3
<MEAN> 39
 -7.418413e+00 -2.679543e+00 -1.526054e+00 -3.773768e+00 -9.526980e+00 -1.202961e+01 -1.371179e+01 -1.209704e+01 -1.222303e+01 -1.288824e+01 -1.046074e+01 -5.856225e+00 3.642029e+01 -6.231319e-01 -9.918172e-01 -1.536857e-01 4.005883e-01 1.553835e+00 1.429391e+00 5.335944e-01 -4.464062e-01 -5.652575e-02 1.708925e+00 1.147528e+00 1.641563e+00 8.238509e-02 1.637952e-01 -9.945624e-01 -1.427354e-01 -5.691729e-03 2.355349e-01 -3.291257e-01 5.698875e-01 4.828546e-01 1.474436e-01 2.620307e-01 1.689611e-01 2.184907e-01 1.081928e+00
<VARIANCE> 39
 2.501311e+01 6.784292e+01 2.055249e+01 1.208378e+01 4.335471e+01 3.814832e+01 3.675310e+01 7.055984e+01 1.500886e+01 3.102727e+01 1.435423e+01 2.532093e+01 7.544086e+01 1.955863e+00 7.600266e+00 2.499875e+00 2.521074e+00 7.271263e+00 6.320105e+00 2.960563e+00 3.856204e+00 2.001651e+00 1.333430e+00 2.009344e+00 1.971886e+00 4.801097e+00 3.588678e-01 1.393525e+00 4.163860e-01 2.211510e-01 8.364514e-01 9.605052e-01 6.570889e-01 9.008617e-01 1.681657e-01 5.296305e-01 2.987432e-01 3.133606e-01 9.126447e-01
<GCONST> 1.222932e+02
<STATE> 4
<MEAN> 39
 -1.014957e+01 -1.730262e+01 -5.592035e+00 -1.508703e+00 -2.078607e+00 -7.180493e+00 -6.114527e+00 -4.999341e+00 -8.922337e+00 -3.669418e+00 -2.087108e+00 1.361094e-01 4.242219e+01 6.261793e-01 -1.314145e+00 -5.170634e-01 -2.763806e-02 6.747081e-01 3.051274e-01 1.051642e-01 5.600765e-01 -1.106050e-01 3.042544e-01 2.094442e-01 -1.692194e-01 1.696609e+00 -7.936464e-02 5.215939e-01 6.847282e-02 -9.713501e-02 -1.097688e-01 -1.362665e-01 -8.909473e-02 -9.979347e-02 7.958694e-02 -2.211198e-01 -2.482723e-01 -2.809711e-01 -2.713988e-01
<VARIANCE> 39
 8.878399e+01 1.103218e+02 3.269825e+01 2.111364e+01 3.191825e+01 1.042965e+02 6.484451e+01 2.391430e+01 4.744195e+01 4.121101e+01 3.576331e+01 3.604460e+01 2.271820e+02 3.974108e+00 1.522917e+01 2.590527e+00 2.084143e+00 2.677647e+00 6.407665e+00 5.241179e+00 3.853107e+00 4.762150e+00 4.079552e+00 3.682629e+00 2.605460e+00 1.531176e+01 6.961362e-01 2.126028e+00 5.398957e-01 4.793356e-01 4.328017e-01 1.229911e+00 8.404067e-01 5.447504e-01 9.505631e-01 7.210011e-01 6.547992e-01 4.399812e-01 2.184538e+00
<GCONST> 1.394078e+02
<TRANSP> 5
 0.000000e+00 1.000000e+00 0.000000e+00 0.000000e+00 0.000000e+00
 0.000000e+00 8.803866e-01 1.196134e-01 0.000000e+00 0.000000e+00
 0.000000e+00 0.000000e+00 6.385330e-01 3.614670e-01 0.000000e+00
 0.000000e+00 0.000000e+00 0.000000e+00 8.625585e-01 1.374416e-01
 0.000000e+00 0.000000e+00 0.000000e+00 0.000000e+00 0.000000e+00
<ENDHMM>
~h "ax"
<BEGINHMM>
<NUMSTATES> 5
<STATE> 2
<MEAN> 39
 -4.361801e+00 -5.629882e+00 -2.727806e+00 -6.967510e+00 -6.568032e+00 -1.013767e+01 -1.169291e+01 -8.754035e+00 -9.833363e+00 -9.667554e+00 -9.900066e+00 -5.779325e+00 4.607302e+01 1.979476e-02 7.476404e-01 2.196602e-03 4.051182e-01 -4.439105e-01 -3.172934e-01 -2.717972e-01 -6.954356e-01 -2.249344e-01 -6.309535e-01 -1.947538e-01 -2.503032e-01 -5.907406e-01 -6.467482e-02 -1.455260e-01 -2.687044e-02 -2.003874e-01 3.767100e-02 1.308786e-02 2.544547e-02 1.582742e-02 1.233226e-01 1.779937e-01 1.230877e-01 1.678776e-01 2.679610e-01
<VARIANCE> 39
 7.074896e+01 1.225725e+02 5.529508e+01 6.606207e+01 7.342928e+01 6.582882e+01 6.206204e+01 1.022292e+02 7.146255e+01 4.658980e+01 5.310542e+01 5.839236e+01 1.126219e+02 4.677505e+00 4.237604e+00 3.454938e+00 2.467534e+00 4.460636e+00 5.195146e+00 4.876468e+00 4.653545e+00 4.409370e+00 3.082701e+00 2.989624e+00 3.511342e+00 3.546491e+00 6.386634e-01 7.344790e-01 5.817426e-01 5.847792e-01 7.418970e-01 8.427922e-01 9.317404e-01 7.860680e-01 8.004493e-01 6.162243e-01 6.813378e-01 7.819939e-01 5.797150e-01
<GCONST> 1.401849e+02
<STATE> 3
<MEAN> 39
 -6.405399e+00 -7.426863e-01 -3.525094e+00 -5.994802e+00 -7.265427e+00 -1.223699e+01 -1.260093e+01 -1.257737e+01 -9.676329e+00 -1.128526e+01 -8.923594e+00 -5.717264e+00 4.326793e+01 -2.244539e-01 -4.671801e-01 2.646881e-01 -3.422543e-01 2.626389e-02 -4.727783e-01 -1.393078e-01 -3.411056e-01 2.248118e-01 2.726392e-01 3.598887e-01 6.531443e-01 8.186402e-01 1.937016e-02 -5.084201e-01 5.243828e-02 -4.696771e-01 7.058372e-02 1.999761e-01 2.434755e-01 3.524339e-01 2.201854e-01 4.946340e-01 1.583717e-01 3.105017e-01 5.448902e-01
<VARIANCE> 39
 7.527234e+01 8.354399e+01 5.471047e+01 4.556297e+01 6.622770e+01 6.430039e+01 6.452020e+01 7.611721e+01 7.047596e+01 6.253983e+01 5.647741e+01 4.409293e+01 7.747156e+01 8.318745e+00 6.511770e+00 4.353172e+00 4.269493e+00 6.658235e+00 6.708715e+00 7.189231e+00 5.172822e+00 4.668871e+00 5.112397e+00 5.071105e+00 4.294552e+00 5.620565e+00 1.325274e+00 1.115889e+00 9.395376e-01 9.293985e-01 1.490643e+00 1.510840e+00 1.313071e+00 1.209807e+00 9.969181e-01 7.863325e-01 9.767731e-01 8.779797e-01 9.413130e-01
<GCONST> 1.490444e+02
<STATE> 4
<MEAN> 39
 -5.546516e+00 -7.239964e+00 -3.547862e+00 -1.208558e+01 -4.930570e+00 -9.073966e+00 -1.294942e+01 -1.034991e+01 -7.182657e+00 -5.821047e+00 -8.321209e+00 -2.311966e+00 4.831370e+01 3.638232e-01 -1.634399e+00 5.036713e-01 -1.568918e+00 2.655777e-01 8.219440e-02 2.814804e-02 7.968156e-01 3.030542e-01 9.787103e-01 -2.331101e-01 7.733788e-01 1.859583e+00 -4.227938e-03 9.743465e-02 -7.471468e-02 5.750443e-02 7.224446e-02 2.483078e-02 4.041293e-02 -2.495815e-02 -2.115345e-02 -1.215814e-01 -2.073146e-01 -1.793452e-01 7.894102e-02
<VARIANCE> 39
 6.982833e+01 8.229655e+01 6.394322e+01 1.084769e+02 6.819575e+01 1.177485e+02 6.064284e+01 6.925977e+01 5.189872e+01 6.547568e+01 6.616676e+01 4.271667e+01 9.660052e+01 6.712473e+00 7.468813e+00 6.532493e+00 9.468874e+00 7.130649e+00 9.481701e+00 6.315292e+00 6.665788e+00 5.249753e+00 6.451522e+00 8.459697e+00 5.105335e+00 7.011773e+00 1.171111e+00 1.205769e+00 8.260412e-01 1.774848e+00 1.302676e+00 1.665100e+00 1.236511e+00 1.204516e+00 8.771894e-01 9.984474e-01 1.222708e+00 8.303239e-01 1.252187e+00
<GCONST> 1.543970e+02
<TRANSP> 5
 0.000000e+00 1.000000e+00 0.000000e+00 0.000000e+00 0.000000e+00
 0.000000e+00 5.113455e-01 4.886545e-01 0.000000e+00 0.000000e+00
 0.000000e+00 0.000000e+00 4.326723e-01 5.673277e-01 0.000000e+00
 0.000000e+00 0.000000e+00 0.000000e+00 5.886655e-01 4.113344e-01
 0.000000e+00 0.000000e+00 0.000000e+00 0.000000e+00 0.000000e+00
<ENDHMM>
~h "ay"
<BEGINHMM>
<NUMSTATES> 5
<STATE> 2
<MEAN> 39
 -1.688989e+00 -2.608595e+01 -6.390691e+00 -1.007741e+01 4.775009e+00 1.045157e+00 -1.474033e+01 -3.989631e+00 -9.083622e+00 -3.570120e+00 -1.251236e+01 -2.982154e+00 6.176715e+01 -6.021905e-01 -1.078975e+00 9.483643e-01 3.822370e-01 3.935663e-01 -1.841600e-01 6.203845e-01 1.190200e+00 -4.988071e-01 7.558301e-02 -9.194394e-01 6.415330e-01 6.801198e-01 -2.581157e-01 7.229079e-01 1.069970e-01 -1.177051e-01 -5.221758e-01 -5.091701e-01 6.497999e-02 -1.679573e-01 -1.568848e-02 -4.881046e-01 1.089332e-01 1.345266e-01 -3.240085e-01
<VARIANCE> 39
 1.708324e+01 4.083440e+01 3.224026e+01 4.174837e+01 5.238187e+01 6.421143e+01 2.582422e+01 3.904623e+01 4.496067e+01 5.371029e+01 5.141590e+01 3.430621e+01 2.869945e+01 9.243298e-01 1.489349e+00 2.373402e+00 2.090949e+00 2.294930e+00 2.888655e+00 3.144740e+00 1.600657e+00 2.123754e+00 4.630182e+00 3.661057e+00 2.795899e+00 5.380123e-01 3.116915e-01 2.742350e-01 3.685986e-01 5.775015e-01 2.736759e-01 4.494927e-01 4.828219e-01 4.581380e-01 4.872574e-01 7.231732e-01 7.327953e-01 4.331331e-01 1.565488e-01
<GCONST> 1.168533e+02
<STATE> 3
<MEAN> 39
 -3.868546e+00 -2.639378e+01 -2.012297e+00 -1.153841e+01 1.491865e+00 -3.274365e+00 -1.191638e+01 4.542089e-01 -1.084499e+01 -5.040059e+00 -1.329651e+01 1.044825e+00 6.354584e+01 -3.798066e-01 4.242530e-01 8.228002e-01 -6.124600e-01 -7.734689e-01 -7.317358e-01 7.818779e-01 4.215099e-01 -2.527449e-01 -4.768229e-01 1.301775e-01 4.007903e-01 3.308609e-02 6.540906e-02 2.069159e-01 4.668012e-02 -1.861439e-01 -2.001593e-01 -4.498172e-02 3.600659e-02 -1.152594e-01 1.993736e-02 9.236711e-02 1.496273e-01 -1.821585e-01 -1.008439e-01
<VARIANCE> 39
 1.746814e+01 4.373893e+01 3.726863e+01 2.853309e+01 6.392405e+01 5.408940e+01 2.972712e+01 3.467482e+01 4.456624e+01 4.912582e+01 5.748842e+01 3.671168e+01 2.288642e+01 5.698961e-01 7.595916e-01 1.474626e+00 1.351565e+00 1.629438e+00 1.906727e+00 2.415217e+00 2.059600e+00 2.110799e+00 2.394073e+00 2.878078e+00 2.666989e+00 2.691382e-01 7.213949e-02 1.265025e-01 1.243473e-01 1.844646e-01 2.041789e-01 2.621270e-01 3.785164e-01 3.287534e-01 3.769132e-01 4.378724e-01 4.750819e-01 4.298453e-01 3.450988e-02
<GCONST> 1.035440e+02
<STATE> 4
<MEAN> 39
 -5.591308e+00 -2.020531e+01 5.067665e+00 -1.935412e+01 -6.773056e+00 -7.728096e+00 -7.165532e+00 -5.400682e-01 -1.113734e+01 -6.748489e+00 -1.276740e+01 -3.298158e-01 6.158410e+01 5.023704e-01 1.693311e+00 9.230841e-01 -1.126349e+00 -1.595371e+00 -1.101129e+00 -4.486331e-01 -8.388327e-01 -8.751533e-02 3.711956e-01 3.760054e-01 -3.599311e-01 -9.818723e-01 2.954444e-01 2.298131e-01 -2.610262e-01 4.014234e-01 6.865273e-02 -8.770362e-02 -4.976506e-01 -2.921720e-01 1.268552e-02 -7.807116e-02 1.006318e-02 -9.089279e-03 -3.016974e-01
<VARIANCE> 39
 1.572616e+01 4.201089e+01 3.801517e+01 4.873910e+01 6.627263e+01 3.783004e+01 6.589056e+01 5.214159e+01 4.699796e+01 5.334501e+01 5.159375e+01 3.026911e+01 3.596089e+01 7.844647e-01 1.030759e+00 1.681983e+00 2.571045e+00 1.919725e+00 3.563849e+00 4.998553e+00 3.193772e+00 3.172195e+00 3.393989e+00 2.747221e+00 2.466755e+00 6.314777e-01 1.161458e-01 1.471921e-01 2.418839e-01 4.627775e-01 4.709143e-01 4.499635e-01 8.548506e-01 4.641929e-01 5.627235e-01 7.937350e-01 5.247212e-01 5.697747e-01 8.768289e-02
<GCONST> 1.170200e+02
<TRANSP> 5
 0.000000e+00 1.000000e+00 0.000000e+00 0.000000e+00 0.000000e+00
 0.000000e+00 6.850241e-01 3.149759e-01 0.000000e+00 0.000000e+00
 0.000000e+00 0.000000e+00 8.156774e-01 1.843226e-01 0.000000e+00
 0.000000e+00 0.000000e+00 0.000000e+00 7.823202e-01 2.176798e-01
 0.000000e+00 0.000000e+00 0.000000e+00 0.000000e+00 0.000000e+00
<ENDHMM>
~h "ch"
<BEGINHMM>
<NUMSTATES> 5
<STATE> 2
<MEAN> 39
 -8.772589e+00 1.111817e+00 -4.936098e-01 -3.269053e+00 -5.012163e+00 -1.001179e+01 -1.320674e+01 -1.755901e+01 -1.508429e+01 -1.357711e+01 -1.259332e+01 -1.098709e+01 4.196407e+01 -4.037320e-01 -1.041330e+00 1.337053e+00 -1.083490e+00 6.197062e-01 -4.816109e-01 -2.161947e+00 -1.208386e+00 -6.313719e-01 1.932045e+00 8.587979e-01 7.291078e-01 2.693969e+00 -6.986895e-01 -4.973843e-01 8.117288e-01 -1.008728e+00 -2.771723e-01 5.152881e-01 4.957612e-01 2.665568e-01 3.191181e-01 7.796235e-01 1.360788e-01 7.644275e-01 1.069395e+00
<VARIANCE> 39
 6.898459e+01 7.881124e+00 8.753664e+00 9.767245e+01 2.185729e+01 3.694082e+01 3.699000e+01 1.597797e+02 3.541919e+01 5.989838e+01 3.428688e+01 4.451260e+01 2.606146e+01 1.185029e+01 2.808526e+00 3.711166e+00 9.955368e+00 8.267765e+00 7.347198e+00 2.206344e+00 1.641438e+00 1.574727e+00 7.645113e+00 4.298654e+00 6.684316e+00 8.347645e+00 2.150903e+00 6.904726e-01 3.857890e-01 1.423012e+00 1.490974e+00 1.211992e+00 1.070920e+00 7.534867e-01 1.119068e-01 7.362206e-01 9.416690e-01 8.069103e-01 3.856555e-01
<GCONST> 1.352813e+02
<STATE> 3
<MEAN> 39
 -1.044660e+01 -3.049340e+00 1.286693e+01 -1.910754e+01 -8.053386e+00 -9.468517e+00 -1.501116e+01 -1.731630e+01 -1.457540e+01 -2.257667e+00 -1.449361e+01 -3.078990e+00 5.807322e+01 -1.287767e+00 1.037274e+00 6.049632e-01 -1.152898e+00 -1.174293e-01 2.413795e-01 7.595304e-01 7.394937e-01 2.103698e-01 -3.023696e-01 -4.522510e-01 -6.921197e-01 7.221727e-01 -3.313602e-01 4.958960e-01 -4.580677e-01 7.199442e-01 3.310421e-02 7.448763e-02 1.368279e-01 7.919694e-02 1.460744e-01 -3.985443e-01 1.629544e-01 -3.713741e-01 -6.054260e-01
<VARIANCE> 39
 2.574322e+01 7.933257e+01 1.959016e+01 4.962583e+01 4.661671e+01 2.189565e+01 3.085419e+01 5.669233e+01 7.050247e+00 5.930092e+01 5.502210e+01 5.222353e+01 2.594351e+01 4.235589e+00 5.796050e+00 5.408709e+00 8.261615e+00 5.447302e+00 4.696493e+00 4.227044e+00 3.929360e+00 9.244271e-01 7.095697e+00 2.961478e+00 6.659822e+00 5.804647e+00 3.374584e-01 8.323032e-01 4.041748e-01 5.406866e-01 1.565487e+00 1.278398e+00 9.961354e-01 7.290602e-01 1.439959e-01 1.325583e+00 6.147004e-01 1.134071e+00 6.832462e-01
<GCONST> 1.326876e+02
<STATE> 4
<MEAN> 39
 -2.377044e+01 3.015619e+00 1.009204e+01 -1.380209e+01 -1.269061e+01 -6.793136e+00 -1.056249e+01 -9.186638e+00 -9.789810e+00 -4.717307e+00 -1.754292e+00 -3.716772e+00 5.556217e+01 4.560556e-01 -6.053815e-01 1.501089e-02 3.017126e-01 -1.223051e+00 -7.609583e-02 -2.830954e-01 7.047433e-02 3.995920e-01 4.862596e-01 1.413214e+00 6.688571e-01 -1.815256e-01 6.152368e-01 -3.829244e-01 -1.015175e-01 -1.102884e-01 3.062119e-02 -1.864830e-01 -2.609234e-02 6.816764e-02 1.313118e-02 -3.553034e-02 -3.341051e-01 -1.314980e-01 -1.601537e-02
<VARIANCE> 39
 9.980772e+01 2.237230e+01 2.113371e+01 2.751740e+01 5.101936e+01 9.015869e+01 1.968697e+01 5.476040e+01 2.234604e+01 4.709979e+01 5.479609e+01 3.030628e+01 1.705233e+01 1.809642e+01 3.183964e+00 3.318849e+00 3.808055e+00 5.026084e+00 1.244575e+01 2.976734e+00 4.784518e+00 2.911424e+00 2.607958e+00 4.300578e+00 3.845260e+00 3.174775e+00 2.379530e+00 5.792884e-01 5.333279e-01 7.246863e-01 9.049235e-01 2.314579e+00 5.659510e-01 1.064182e+00 4.825969e-01 5.554669e-01 6.281351e-01 7.570387e-01 6.668997e-01
<GCONST> 1.348893e+02
<TRANSP> 5
 0.000000e+00 1.000000e+00 0.000000e+00 0.000000e+00 0.000000e+00
 0.000000e+00 7.446538e-01 2.553462e-01 0.000000e+00 0.000000e+00
 0.000000e+00 0.000000e+00 8.420912e-01 1.579088e-01 0.000000e+00
 0.000000e+00 0.000000e+00 0.000000e+00 9.094841e-01 9.051595e-02
 0.000000e+00 0.000000e+00 0.000000e+00 0.000000e+00 0.000000e+00
<ENDHMM>
~h "dh"
<BEGINHMM>
<NUMSTATES> 5
<STATE> 2
<MEAN> 39
 -8.245381e+00 -2.012329e+00 -4.511162e+00 -6.358268e+00 -7.354417e+00 -1.130982e+01 -1.006666e+01 -8.413622e+00 -5.356807e+00 -7.357291e+00 -7.892229e+00 -5.060533e+00 4.410938e+01 8.441670e-02 4.266546e-02 -3.486246e-01 3.046647e-01 1.465143e-01 5.214452e-01 -1.800353e-01 1.595385e-01 1.144948e-01 -4.063130e-02 -1.983628e-01 -3.319606e-01 -1.180575e+00 2.607816e-02 -1.317757e-02 1.813720e-01 -6.620124e-02 6.573599e-02 1.197164e-01 -1.125252e-01 -3.528693e-01 -2.625024e-01 -2.174516e-01 -7.009608e-02 -1.050581e-01 2.469001e-02
<VARIANCE> 39
 1.014856e+02 1.161340e+02 6.841293e+01 5.199187e+01 5.341938e+01 6.267329e+01 5.848476e+01 7.238742e+01 5.020257e+01 5.627747e+01 5.596696e+01 3.599825e+01 1.310938e+02 1.726993e+00 1.650033e+00 2.165224e+00 2.298980e+00 1.986687e+00 2.988675e+00 3.060842e+00 3.414832e+00 2.329764e+00 2.528195e+00 2.363179e+00 2.305491e+00 1.540168e+00 3.995111e-01 4.483765e-01 5.124114e-01 3.080909e-01 6.800969e-01 4.993964e-01 6.106912e-01 6.208273e-01 5.167956e-01 6.196349e-01 5.634719e-01 3.727767e-01 2.574851e-01
<GCONST> 1.271354e+02
<STATE> 3
<MEAN> 39
 -7.827266e+00 1.091029e+00 -4.981198e+00 -4.275971e+00 -7.898035e+00 -9.304886e+00 -1.042238e+01 -1.097624e+01 -7.395733e+00 -9.139988e+00 -8.108034e+00 -5.843930e+00 3.925132e+01 2.873468e-01 1.494958e-01 1.605495e-01 1.885150e-01 -9.610803e-02 4.060338e-01 -2.648455e-01 -6.241434e-01 -6.041560e-01 -6.615255e-01 -1.832637e-01 -3.915814e-01 -9.664337e-01 -1.248196e-01 -5.430984e-02 1.485105e-01 -1.263275e-01 2.871065e-02 -9.087676e-02 -7.484372e-02 -2.978338e-01 -1.633522e-01 -5.008561e-02 6.791288e-02 1.524312e-02 3.623236e-01
<VARIANCE> 39
 8.314469e+01 8.333748e+01 6.233367e+01 3.981479e+01 5.105229e+01 5.235072e+01 6.652316e+01 8.275390e+01 5.977034e+01 5.075577e+01 5.084016e+01 3.833434e+01 9.225321e+01 2.649959e+00 2.634375e+00 2.152086e+00 2.326507e+00 2.644436e+00 3.224772e+00 2.727708e+00 3.369405e+00 3.615598e+00 3.633710e+00 2.366813e+00 2.218159e+00 3.158185e+00 5.724630e-01 5.048763e-01 4.193431e-01 3.163647e-01 8.168402e-01 6.342745e-01 7.974783e-01 8.838716e-01 6.661726e-01 6.602301e-01 5.583015e-01 4.010020e-01 3.904067e-01
<GCONST> 1.307309e+02
<STATE> 4
<MEAN> 39
 -1.042591e+01 -1.141352e+00 -4.527758e+00 -4.315501e+00 -6.764530e+00 -5.849494e+00 -8.165473e+00 -9.257933e+00 -5.749059e+00 -8.045211e+00 -6.845503e+00 -6.030341e+00 3.532831e+01 -2.359797e-01 1.806212e-01 1.377856e-01 2.190149e-01 2.280875e-01 3.988656e-01 -9.492575e-02 -5.723436e-01 -2.624231e-01 -2.261168e-02 -4.490355e-02 -1.799972e-01 -6.658999e-01 -4.079430e-02 -5.146195e-02 1.005550e-01 -1.520268e-01 -1.387111e-02 -3.461870e-01 -9.756600e-02 -1.107236e-01 -3.595095e-02 1.067460e-02 7.385021e-02 1.684631e-01 5.062146e-01
<VARIANCE> 39
 6.504727e+01 5.735315e+01 3.753336e+01 3.170322e+01 4.395782e+01 5.445901e+01 5.238295e+01 7.411301e+01 4.936239e+01 4.567526e+01 4.461049e+01 4.170734e+01 7.954604e+01 2.129610e+00 2.408240e+00 2.384879e+00 1.819261e+00 3.031434e+00 2.991396e+00 2.663850e+00 3.268734e+00 3.716313e+00 4.070402e+00 2.311735e+00 1.874546e+00 2.134983e+00 4.436851e-01 3.128010e-01 3.300196e-01 3.533424e-01 6.954651e-01 4.907735e-01 6.143282e-01 6.263849e-01 6.884522e-01 7.292712e-01 4.847614e-01 4.467492e-01 4.160615e-01
<GCONST> 1.258169e+02
<TRANSP> 5
 0.000000e+00 1.000000e+00 0.000000e+00 0.000000e+00 0.000000e+00
 0.000000e+00 2.997139e-01 7.002860e-01 0.000000e+00 0.000000e+00
 0.000000e+00 0.000000e+00 2.481658e-01 7.518342e-01 0.000000e+00
 0.000000e+00 0.000000e+00 0.000000e+00 4.330582e-01 5.669418e-01
 0.000000e+00 0.000000e+00 0.000000e+00 0.000000e+00 0.000000e+00
<ENDHMM>
~h "ea"
<BEGINHMM>
<NUMSTATES> 5
<STATE> 2
<MEAN> 39
 -1.037278e+01 -5.190904e+00 2.796918e+00 -1.002407e+01 -8.179517e+00 -1.115856e+01 -9.993904e+00 -1.143346e+01 -9.629462e+00 -6.364933e+00 -4.526418e+00 -2.512542e+00 4.527775e+01 1.085012e+00 -2.344403e+00 2.145125e+00 -2.855048e+00 -1.217681e+00 -1.795228e+00 -1.101571e-01 7.691536e-01 -8.554697e-01 8.872766e-01 -3.332278e-01 5.818943e-01 4.438996e+00 -8.245319e-03 -4.776277e-01 5.692487e-02 -1.586328e-01 1.687534e-01 2.812713e-01 4.584669e-01 4.818331e-01 -8.760239e-02 -6.031368e-02 -4.139566e-01 -1.124175e-01 2.997894e-02
<VARIANCE> 39
 4.361079e+01 8.073093e+01 6.445957e+01 1.126903e+02 7.966515e+01 6.542160e+01 4.097328e+01 6.944862e+01 4.313996e+01 5.148318e+01 4.197424e+01 3.507706e+01 1.688266e+02 6.884555e+00 7.753158e+00 7.442730e+00 1.070782e+01 1.125119e+01 4.525260e+00 6.488276e+00 1.016197e+01 5.126639e+00 6.580524e+00 7.210124e+00 3.999228e+00 8.349543e+00 1.391144e+00 1.180417e+00 1.828834e+00 2.492017e+00 2.759470e+00 1.216699e+00 8.818507e-01 1.347676e+00 8.508763e-01 1.194777e+00 1.121902e+00 7.081473e-01 2.831754e+00
<GCONST> 1.550763e+02
<STATE> 3
<MEAN> 39
 -6.581782e+00 -2.108045e+01 9.834463e+00 -2.107273e+01 -1.101256e+01 -8.169381e+00 -4.532424e+00 -9.153036e-01 -1.272051e+01 -2.854280e+00 -1.077377e+01 -2.640503e+00 6.126641e+01 5.091128e-01 -1.289433e+00 -4.207478e-01 8.576081e-01 3.397911e-01 3.146568e-01 6.872125e-01 1.081281e+00 -4.132495e-01 -1.861181e-01 -2.475077e-01 -3.438702e-01 1.085435e-01 9.933946e-02 3.233882e-01 -3.302400e-01 4.372111e-01 -5.392374e-02 -3.354127e-01 -1.615800e-01 -2.309700e-01 5.915441e-02 -1.542172e-01 3.524735e-01 -1.921279e-02 -3.570479e-01
<VARIANCE> 39
 9.997834e+00 2.778912e+01 1.759975e+01 3.231940e+01 3.280259e+01 5.522845e+01 1.504371e+01 2.658639e+01 3.155061e+01 2.069410e+01 3.017045e+01 3.756594e+01 2.336175e+01 5.949369e-01 9.013709e-01 1.088149e+00 1.756947e+00 1.525925e+00 3.822867e+00 1.224506e+00 1.714256e+00 1.940717e+00 2.051314e+00 2.002099e+00 2.819305e+00 4.578375e-01 1.052973e-01 2.849561e-01 3.083541e-01 3.988259e-01 2.815748e-01 4.132475e-01 2.943043e-01 5.258161e-01 3.694962e-01 4.331649e-01 2.707462e-01 5.256622e-01 2.447071e-01
<GCONST> 1.038589e+02
<STATE> 4
<MEAN> 39
 9.482402e-01 -2.192573e+01 -1.511158e+00 -7.030900e+00 -8.570055e+00 -1.675713e+01 -2.943114e+00 1.007486e+00 -1.197336e+01 -8.697266e+00 -9.066258e+00 -5.618207e+00 5.588978e+01 1.585417e-01 8.835058e-01 -5.007463e-01 4.888623e-01 -2.670959e-01 -8.008948e-02 -2.438294e-01 -6.995805e-01 9.707609e-02 -5.048947e-01 1.182534e-01 -2.184106e-01 -8.034015e-01 -1.239793e-01 1.182309e-01 8.112289e-02 -1.603289e-01 -1.586796e-02 2.268295e-01 -4.484290e-02 -1.239349e-01 4.666237e-02 2.560454e-02 -2.212023e-02 7.855649e-02 -4.593186e-02
<VARIANCE> 39
 2.061919e+01 8.109084e+01 6.973461e+01 5.125383e+01 8.562383e+01 4.286423e+01 2.433226e+01 4.302042e+01 6.333250e+01 3.467688e+01 2.887470e+01 2.313534e+01 5.709845e+01 1.705096e+00 2.716015e+00 3.135596e+00 3.369315e+00 3.193215e+00 3.562607e+00 1.929581e+00 3.954781e+00 3.238136e+00 2.673758e+00 2.858338e+00 2.316406e+00 1.207313e+00 2.199722e-01 4.353893e-01 3.366740e-01 4.965686e-01 6.944040e-01 4.704595e-01 3.846798e-01 6.349642e-01 6.857752e-01 5.274310e-01 5.535098e-01 4.411583e-01 1.511128e-01
<GCONST> 1.222976e+02
<TRANSP> 5
 0.000000e+00 1.000000e+00 0.000000e+00 0.000000e+00 0.000000e+00
 0.000000e+00 8.391943e-01 1.608058e-01 0.000000e+00 0.000000e+00
 0.000000e+00 0.000000e+00 8.588872e-01 1.411128e-01 0.000000e+00
 0.000000e+00 0.000000e+00 0.000000e+00 9.309983e-01 6.900168e-02
 0.000000e+00 0.000000e+00 0.000000e+00 0.000000e+00 0.000000e+00
<ENDHMM>
~h "eh"
<BEGINHMM>
<NUMSTATES> 5
<STATE> 2
<MEAN> 39
 -6.802362e+00 -1.875620e+00 -5.131271e+00 -4.496944e+00 -9.344051e+00 -1.093788e+01 -1.236847e+01 -1.115956e+01 -5.361302e+00 -9.442262e+00 -7.261878e+00 -7.210660e+00 4.506048e+01 1.406223e+00 -3.298990e+00 1.875743e+00 -2.801301e+00 -4.456638e-01 -3.104972e-01 -1.121524e+00 1.370793e+00 -3.130262e-01 2.396941e-01 -1.698090e+00 8.343605e-01 3.256041e+00 -7.029596e-02 -7.829511e-01 3.077981e-01 -5.422552e-01 1.930006e-01 3.736281e-01 3.520866e-01 5.645673e-01 -2.254109e-01 1.307745e-01 -2.697559e-01 2.477046e-01 7.401586e-01
<VARIANCE> 39
 8.770671e+01 9.222424e+01 6.601404e+01 7.671049e+01 4.438681e+01 7.645625e+01 7.592805e+01 6.874844e+01 5.580122e+01 5.528400e+01 6.382028e+01 4.609406e+01 7.960660e+01 1.005295e+01 8.946097e+00 5.715409e+00 9.561751e+00 6.619898e+00 1.031262e+01 6.556777e+00 7.612746e+00 5.409664e+00 3.785739e+00 9.393515e+00 5.407862e+00 6.989475e+00 1.112199e+00 1.012035e+00 9.611665e-01 1.750598e+00 1.132432e+00 1.608160e+00 1.140535e+00 1.175967e+00 8.403080e-01 6.167424e-01 1.358304e+00 7.519876e-01 1.096909e+00
<GCONST> 1.528070e+02
<STATE> 3
<MEAN> 39
 -4.660174e+00 -2.044668e+01 3.672438e+00 -1.772538e+01 -8.788408e+00 -8.352840e+00 -9.347681e+00 4.588689e-01 -1.266422e+01 -6.368566e+00 -1.522897e+01 -1.735601e+00 6.146115e+01 2.901678e-01 -8.563749e-01 8.395090e-01 -1.046256e+00 -3.054313e-01 1.238061e-01 7.943791e-01 6.709630e-01 -8.700907e-01 1.169376e-01 -7.583030e-01 -6.432192e-02 9.495242e-01 -2.177374e-02 1.057514e+00 -4.806087e-01 6.963579e-01 -1.239389e-01 -1.306862e-01 -7.419390e-02 -6.322974e-01 3.004374e-01 -2.810245e-01 4.400623e-01 -3.959459e-01 -8.869939e-01
<VARIANCE> 39
 1.284949e+01 2.673838e+01 3.752258e+01 3.147450e+01 6.935385e+01 5.631445e+01 4.056849e+01 2.472994e+01 3.429818e+01 4.691980e+01 5.057917e+01 3.432602e+01 1.168661e+01 2.630673e+00 9.041533e+00 3.330512e+00 5.333598e+00 5.395131e+00 5.316437e+00 3.793628e+00 6.424067e+00 3.021320e+00 4.978542e+00 3.989591e+00 3.664084e+00 5.874385e+00 5.016636e-01 5.845272e-01 4.995454e-01 5.823205e-01 7.742006e-01 9.807959e-01 7.822090e-01 7.629328e-01 5.210708e-01 7.757707e-01 7.925318e-01 6.899508e-01 3.498788e-01
<GCONST> 1.310202e+02
<STATE> 4
<MEAN> 39
 -1.819498e+00 -1.365728e+01 3.340188e+00 -1.460168e+01 -1.500938e+01 -9.923711e+00 -7.259754e+00 -1.329410e+00 -1.116019e+01 -7.755256e+00 -1.252899e+01 -4.612012e+00 5.601841e+01 1.489630e-01 1.329970e+00 -9.311961e-01 9.914498e-01 -5.310359e-01 -6.258333e-02 7.548137e-01 -4.087700e-01 9.803973e-01 -1.103904e+00 6.439572e-01 -9.986551e-01 -1.196078e+00 -4.556035e-01 1.951918e-01 -1.680143e-01 1.248211e-01 4.814765e-01 1.569034e-01 3.818603e-02 -1.394627e-01 1.152659e-01 6.714793e-02 1.787844e-01 6.170449e-02 -6.945533e-02
<VARIANCE> 39
 2.325793e+01 4.455753e+01 4.222885e+01 4.650811e+01 9.966678e+01 4.960144e+01 3.898877e+01 3.619381e+01 4.839356e+01 6.291644e+01 6.762433e+01 5.524611e+01 4.185436e+01 3.124729e+00 6.917190e+00 3.371455e+00 2.835605e+00 5.572536e+00 3.613866e+00 4.187077e+00 3.183823e+00 2.984448e+00 4.869521e+00 4.657335e+00 2.822379e+00 4.489550e+00 7.027078e-01 1.022895e+00 5.184643e-01 6.468422e-01 9.644508e-01 5.589089e-01 7.489179e-01 8.970656e-01 4.152026e-01 8.889251e-01 9.650946e-01 4.279725e-01 7.748650e-01
<GCONST> 1.350459e+02
<TRANSP> 5
 0.000000e+00 1.000000e+00 0.000000e+00 0.000000e+00 0.000000e+00
