~o
<STREAMINFO> 1 39
<VECSIZE> 39<NULLD><MFCC_D_A_0><DIAGC>
~h "b"
<BEGINHMM>
<NUMSTATES> 5
<STATE> 2
<MEAN> 39
 2.104453e+00 -9.698732e+00 -1.115830e+01 -6.805813e+00 -4.782271e+00 -1.254620e+01 -1.182573e+01 -3.192240e+00 -7.068630e+00 -1.165291e+01 -6.328513e+00 -7.910366e+00 4.913388e+01 -3.401583e-01 4.837157e-01 6.271439e-01 6.978453e-01 -6.920252e-01 -5.054939e-01 6.674589e-02 2.449585e-01 2.897722e-01 -5.991353e-01 1.728090e-01 3.560443e-02 -7.582483e-01 -8.558393e-02 -3.206654e-02 6.656094e-02 -1.305944e-01 3.447285e-02 1.813041e-01 1.003720e-02 -1.054409e-01 3.422000e-03 1.192126e-01 1.805803e-02 1.872449e-02 -5.638600e-02
<VARIANCE> 39
 7.299635e+01 1.141239e+02 9.250235e+01 5.580951e+01 1.011734e+02 8.259795e+01 6.008982e+01 1.154987e+02 3.484357e+01 8.033681e+01 6.360190e+01 3.339757e+01 2.452256e+01 1.508232e+00 2.217415e+00 2.916181e+00 2.912385e+00 3.143434e+00 3.958132e+00 3.260918e+00 4.168188e+00 3.411070e+00 3.227412e+00 2.401389e+00 2.055667e+00 7.951775e-01 2.194071e-01 1.898165e-01 3.088991e-01 4.056863e-01 4.894126e-01 4.152827e-01 5.216329e-01 5.731375e-01 5.244315e-01 6.026193e-01 4.833927e-01 3.640928e-01 8.034559e-02
<GCONST> 1.247042e+02
<STATE> 3
<MEAN> 39
 -1.399937e+00 -1.769400e+00 -1.198333e+00 -7.841166e+00 -1.293380e+01 -1.171709e+01 -1.204690e+01 -1.071548e+01 -8.087780e+00 -1.059279e+01 -7.741309e+00 -6.097780e+00 4.386419e+01 -4.258641e-01 6.999372e-01 -4.628532e-01 2.281241e-01 -9.829675e-02 7.342023e-01 3.982738e-01 -3.998022e-01 3.224309e-01 3.941164e-01 1.365243e-01 -2.731984e-01 -1.591237e+00 -1.330991e-01 -2.017318e-01 -1.567245e-01 -1.053309e-01 1.374963e-01 1.003955e-01 2.464784e-01 1.200700e-01 -7.663432e-02 1.228543e-01 -1.488519e-02 -1.452255e-02 7.042848e-04
<VARIANCE> 39
 6.838479e+01 6.049667e+01 4.922262e+01 2.661758e+01 7.821754e+01 2.419239e+01 3.863028e+01 9.357249e+01 4.277664e+01 5.577250e+01 5.167486e+01 3.601345e+01 3.214447e+01 1.550760e+00 2.459940e+00 2.948319e+00 2.246451e+00 2.188536e+00 2.463553e+00 2.586059e+00 3.667608e+00 3.528508e+00 3.516872e+00 2.501940e+00 2.869364e+00 7.543710e-01 1.969689e-01 2.439032e-01 5.079083e-01 3.579534e-01 4.797971e-01 4.478837e-01 4.510663e-01 6.687593e-01 7.770101e-01 6.153853e-01 5.009739e-01 5.814778e-01 7.241605e-02
<GCONST> 1.209961e+02
<STATE> 4
<MEAN> 39
 -7.085971e+00 -9.931679e-01 -5.075274e+00 -6.171732e+00 -9.982139e+00 -7.246886e+00 -8.236386e+00 -1.191226e+01 -8.063345e+00 -9.961263e+00 -7.436220e+00 -5.911910e+00 3.570666e+01 -7.270200e-01 -2.853795e-01 -1.446877e-01 5.504878e-01 5.939419e-01 6.886632e-01 3.799312e-01 2.355126e-01 2.194246e-01 2.316140e-01 1.862524e-01 1.533946e-01 -1.070632e+00 -6.466219e-02 -1.716013e-01 1.836773e-01 4.570623e-02 8.874848e-02 -2.339219e-01 -1.203797e-01 8.685129e-02 1.078766e-01 7.885236e-02 1.086774e-01 1.662554e-01 3.615258e-01
<VARIANCE> 39
 6.300975e+01 2.523977e+01 2.379091e+01 2.145493e+01 4.669624e+01 2.444432e+01 2.935971e+01 4.867615e+01 3.126105e+01 3.182838e+01 2.836261e+01 2.378000e+01 2.855534e+01 9.725389e-01 1.768680e+00 1.603804e+00 1.408976e+00 1.573249e+00 1.785655e+00 1.729016e+00 2.737796e+00 2.824415e+00 1.919653e+00 1.859660e+00 1.908476e+00 6.463448e-01 2.227565e-01 3.053409e-01 3.225162e-01 3.265621e-01 4.313943e-01 4.053179e-01 3.467388e-01 6.030505e-01 6.478216e-01 5.161794e-01 4.396792e-01 5.868137e-01 1.497971e-01
<GCONST> 1.102274e+02
<TRANSP> 5
 0.000000e+00 1.000000e+00 0.000000e+00 0.000000e+00 0.000000e+00
 0.000000e+00 8.227170e-01 1.772830e-01 0.000000e+00 0.000000e+00
 0.000000e+00 0.000000e+00 5.440801e-01 4.559199e-01 0.000000e+00
 0.000000e+00 0.000000e+00 0.000000e+00 7.253467e-01 2.746533e-01
 0.000000e+00 0.000000e+00 0.000000e+00 0.000000e+00 0.000000e+00
<ENDHMM>
~h "d"
<BEGINHMM>
<NUMSTATES> 5
<STATE> 2
<MEAN> 39
 -7.642118e+00 -1.119259e+00 -2.657187e+00 -6.414008e+00 -8.569812e+00 -9.481609e+00 -9.024949e+00 -1.136089e+01 -8.381763e+00 -8.907420e+00 -7.285983e+00 -4.376999e+00 4.073657e+01 -8.474010e-01 -5.058295e-01 6.183125e-01 -6.942585e-01 7.019796e-01 -4.639981e-01 -2.639952e-01 -6.429281e-01 2.594233e-03 3.483534e-01 4.132014e-01 7.319869e-01 1.229551e+00 5.688775e-02 -3.288700e-01 2.622672e-01 -6.289009e-01 7.033842e-03 -2.239788e-01 -2.515284e-01 -7.110484e-03 -8.717404e-02 1.394698e-01 1.940744e-02 2.036005e-01 8.868864e-01
<VARIANCE> 39
 7.917395e+01 6.702505e+01 4.815051e+01 5.654645e+01 5.650214e+01 6.314671e+01 6.121972e+01 6.358248e+01 5.348491e+01 5.274419e+01 5.292155e+01 3.753320e+01 1.008180e+02 5.577282e+00 6.173411e+00 5.610345e+00 6.698290e+00 7.279771e+00 5.747483e+00 5.127132e+00 6.207722e+00 4.828446e+00 4.321239e+00 3.968294e+00 3.749285e+00 7.266688e+00 8.305913e-01 9.650748e-01 8.686877e-01 9.116781e-01 1.201269e+00 8.961863e-01 9.965510e-01 1.247977e+00 9.637381e-01 9.185079e-01 7.113745e-01 7.565002e-01 1.090337e+00
<GCONST> 1.460253e+02
<STATE> 3
<MEAN> 39
 -7.940403e+00 -6.620453e+00 9.231727e-01 -1.296487e+01 -6.142840e+00 -1.106170e+01 -1.164563e+01 -1.108425e+01 -9.321195e+00 -5.734798e+00 -7.250871e+00 -1.002423e+00 4.951794e+01 2.489675e-01 -9.749911e-01 8.338681e-01 -1.232976e+00 -7.919779e-02 -5.103796e-01 -4.409827e-01 3.837880e-01 -4.375163e-01 2.622245e-01 -3.450375e-01 4.872768e-01 1.963404e+00 1.951315e-01 7.216452e-02 -1.323869e-01 2.949035e-01 -1.438239e-01 2.241101e-01 1.551604e-01 2.450511e-01 2.789322e-02 -1.024024e-01 -1.213792e-01 -2.303102e-01 -2.759905e-01
<VARIANCE> 39
 8.277184e+01 8.251690e+01 7.466346e+01 9.337778e+01 8.891987e+01 1.011017e+02 8.718971e+01 8.296226e+01 6.258756e+01 6.826289e+01 5.502169e+01 5.018263e+01 7.821393e+01 7.041781e+00 8.789405e+00 6.710801e+00 9.989023e+00 8.057240e+00 8.418205e+00 9.369020e+00 1.023183e+01 7.146181e+00 6.318728e+00 5.654622e+00 5.720315e+00 1.133679e+01 1.332405e+00 1.247989e+00 1.112787e+00 1.560850e+00 1.636374e+00 1.599481e+00 1.555546e+00 1.735941e+00 1.226767e+00 1.068764e+00 8.955482e-01 1.067764e+00 1.479776e+00
<GCONST> 1.584484e+02
<STATE> 4
<MEAN> 39
 -6.711544e+00 -7.135274e+00 1.084319e+00 -1.172402e+01 -7.730955e+00 -1.176793e+01 -1.129395e+01 -7.496800e+00 -1.130187e+01 -8.144897e+00 -9.403049e+00 -8.490592e-01 5.177763e+01 1.558286e-01 5.278217e-01 -1.582307e-01 5.138633e-01 -3.313951e-01 2.341519e-01 9.958854e-02 1.862112e-02 2.529001e-01 -2.138194e-01 2.152725e-01 -3.409538e-01 -4.066020e-01 7.591154e-03 1.049468e-01 -1.965676e-01 2.184870e-01 -2.040235e-02 5.428013e-02 -4.314912e-02 -9.441654e-02 1.197092e-01 -4.060891e-03 1.384033e-01 -7.814391e-02 -1.962824e-01
<VARIANCE> 39
 6.112167e+01 1.225205e+02 8.502067e+01 8.805700e+01 7.758003e+01 1.002074e+02 8.409045e+01 6.496349e+01 5.347146e+01 4.794104e+01 6.605455e+01 4.509917e+01 8.442715e+01 4.780913e+00 5.408508e+00 4.938661e+00 5.172887e+00 5.422801e+00 5.664887e+00 6.571136e+00 4.976230e+00 4.693212e+00 5.017074e+00 4.328586e+00 4.429323e+00 5.439249e+00 7.553433e-01 7.997425e-01 7.269911e-01 9.037718e-01 8.842115e-01 1.061074e+00 1.254251e+00 9.410151e-01 9.557925e-01 9.667560e-01 8.321424e-01 7.995152e-01 9.309288e-01
<GCONST> 1.471991e+02
<TRANSP> 5
 0.000000e+00 1.000000e+00 0.000000e+00 0.000000e+00 0.000000e+00
 0.000000e+00 5.401390e-01 4.598610e-01 0.000000e+00 0.000000e+00
 0.000000e+00 0.000000e+00 7.019818e-01 2.980182e-01 0.000000e+00
 0.000000e+00 0.000000e+00 0.000000e+00 7.208117e-01 2.791883e-01
 0.000000e+00 0.000000e+00 0.000000e+00 0.000000e+00 0.000000e+00
<ENDHMM>
~h "f"
<BEGINHMM>
<NUMSTATES> 5
<STATE> 2
<MEAN> 39
 -1.335741e+01 -4.034518e+00 -2.588497e+00 -7.515179e+00 -5.993946e+00 -7.304543e+00 -6.984011e+00 -9.298355e+00 -5.516967e+00 -1.059191e+01 -8.746208e+00 -5.334053e+00 4.109058e+01 5.990548e-01 -2.555412e-01 9.580879e-01 -8.468558e-02 -4.327449e-01 -1.166488e+00 -1.576334e+00 -8.452051e-01 -2.887523e-01 -2.755414e-02 -1.585091e-01 7.362195e-01 9.181914e-01 3.396505e-01 -2.990760e-01 -3.366672e-02 -2.181426e-01 -8.817974e-02 -4.053595e-01 -5.169697e-01 1.264490e-02 -2.642638e-01 6.556182e-02 -3.207096e-02 2.935337e-01 5.657779e-01
<VARIANCE> 39
 6.418069e+01 3.727513e+01 6.219920e+01 4.894735e+01 2.366663e+01 6.982109e+01 5.780341e+01 6.077011e+01 4.566201e+01 6.917835e+01 4.247351e+01 3.961780e+01 1.096816e+02 7.667315e+00 3.932808e+00 4.732688e+00 6.005911e+00 3.020270e+00 5.093828e+00 8.293212e+00 5.905973e+00 5.148182e+00 2.770707e+00 4.975244e+00 5.071964e+00 1.199395e+01 6.559893e-01 6.419550e-01 6.585649e-01 6.479865e-01 6.032882e-01 9.721962e-01 1.133452e+00 9.885605e-01 6.298993e-01 6.192427e-01 7.449625e-01 7.555033e-01 8.865942e-01
<GCONST> 1.412120e+02
<STATE> 3
<MEAN> 39
 -6.867837e+00 -6.650288e+00 1.679404e+00 -1.036910e+01 -8.481791e+00 -1.570947e+01 -1.626732e+01 -1.090697e+01 -8.399822e+00 -7.023785e+00 -9.783533e+00 4.289913e-02 4.888278e+01 1.065540e+00 -1.458220e+00 5.159298e-01 -7.600476e-01 -3.487289e-01 -6.885934e-01 -1.011229e+00 6.413009e-01 -3.511682e-01 3.289773e-01 -7.996402e-01 8.970015e-02 1.801010e+00 -2.691067e-01 6.514738e-02 -1.675329e-01 1.924961e-01 1.811726e-01 4.995255e-01 5.949848e-01 2.067578e-01 9.082492e-03 3.713111e-02 1.284670e-01 -2.980050e-01 -4.246512e-01
<VARIANCE> 39
 5.698167e+01 5.222036e+01 6.401838e+01 5.501194e+01 5.068583e+01 8.233450e+01 6.448151e+01 6.971164e+01 5.410626e+01 8.175594e+01 5.375511e+01 6.711079e+01 6.973921e+01 5.967376e+00 6.233050e+00 3.920700e+00 4.470182e+00 4.491297e+00 7.923203e+00 7.297167e+00 6.607590e+00 4.115858e+00 6.844738e+00 5.597908e+00 6.755164e+00 1.037434e+01 1.102828e+00 8.343126e-01 7.691334e-01 8.050092e-01 6.968072e-01 9.380224e-01 1.347763e+00 1.327762e+00 7.236962e-01 1.110080e+00 1.201711e+00 1.195147e+00 1.118960e+00
<GCONST> 1.485069e+02
<STATE> 4
<MEAN> 39
 -9.049777e+00 -8.456586e+00 1.326418e+00 -8.572894e+00 -1.003298e+01 -1.363964e+01 -1.208176e+01 -9.002203e+00 -8.630082e+00 -8.266477e+00 -8.988783e+00 -3.212754e+00 4.864426e+01 -5.400479e-01 2.185266e-01 -1.942678e-01 2.657671e-01 1.317413e-01 1.037526e-01 3.308660e-01 -2.097046e-01 -4.331341e-02 5.746762e-02 2.985755e-01 7.989082e-03 -3.985896e-01 5.261266e-02 8.096694e-02 -1.100108e-01 -5.457950e-03 1.617636e-02 1.277557e-02 6.101837e-03 -4.434754e-02 2.035145e-02 8.502893e-03 7.664251e-02 5.712499e-02 -2.449019e-02
<VARIANCE> 39
 7.652840e+01 6.098605e+01 4.269089e+01 8.466566e+01 5.405155e+01 8.366776e+01 4.254482e+01 7.906797e+01 3.819254e+01 5.953532e+01 4.066601e+01 3.818821e+01 7.782359e+01 3.676360e+00 2.915156e+00 2.050376e+00 3.587889e+00 2.776638e+00 3.210833e+00 3.665515e+00 3.431845e+00 2.945173e+00 3.541645e+00 3.215015e+00 2.155445e+00 1.651483e+00 7.219493e-01 4.372536e-01 3.740671e-01 6.253213e-01 4.672069e-01 6.074154e-01 7.359567e-01 6.712221e-01 5.752831e-01 5.577016e-01 6.734737e-01 4.544706e-01 2.806546e-01
<GCONST> 1.299950e+02
<TRANSP> 5
 0.000000e+00 1.000000e+00 0.000000e+00 0.000000e+00 0.000000e+00
 0.000000e+00 5.147401e-01 4.852600e-01 0.000000e+00 0.000000e+00
 0.000000e+00 0.000000e+00 6.870772e-01 3.129228e-01 0.000000e+00
 0.000000e+00 0.000000e+00 0.000000e+00 8.780956e-01 1.219043e-01
 0.000000e+00 0.000000e+00 0.000000e+00 0.000000e+00 0.000000e+00
<ENDHMM>
~h "g"
<BEGINHMM>
<NUMSTATES> 5
<STATE> 2
<MEAN> 39
 -1.368636e+01 -5.829513e+00 -9.846077e+00 -2.726759e+00 -5.689228e+00 -4.282573e+00 -5.592960e+00 -6.398109e+00 -4.628579e+00 -5.467927e+00 -5.838049e+00 -3.372897e+00 4.242255e+01 7.538356e-01 -2.878016e-01 -3.565818e-01 -2.753948e-01 -8.581806e-03 -4.968458e-01 -3.606354e-01 -1.997901e-01 -3.328896e-01 -3.083560e-01 4.751942e-01 5.544981e-02 9.688864e-01 1.837650e-01 -1.304640e-01 1.925341e-01 -2.639280e-01 -6.800006e-02 -3.880144e-02 -7.617196e-02 1.040419e-01 -1.415068e-01 8.606860e-02 -2.266596e-01 -3.395928e-02 4.867398e-01
<VARIANCE> 39
 1.712428e+02 1.209417e+02 6.051485e+01 2.597519e+01 3.701560e+01 7.945545e+01 3.696574e+01 6.026455e+01 6.388019e+01 5.497943e+01 4.767800e+01 2.699571e+01 1.226745e+02 1.038134e+01 9.262497e+00 5.495585e+00 5.362236e+00 5.127882e+00 6.746997e+00 4.641680e+00 6.732998e+00 6.155985e+00 4.997651e+00 4.446677e+00 2.718945e+00 1.614456e+01 1.220629e+00 1.080690e+00 1.099435e+00 1.134778e+00 8.418500e-01 8.959757e-01 6.358714e-01 9.922776e-01 1.003392e+00 1.164861e+00 1.013937e+00 4.708574e-01 2.190374e+00
<GCONST> 1.483965e+02
<STATE> 3
<MEAN> 39
 -8.217604e+00 -1.073059e+01 -1.020730e+01 -5.395753e+00 -7.810256e+00 -4.220081e+00 -1.020073e+01 -5.373895e+00 -1.080027e+01 -6.862223e+00 -1.124026e+01 -6.635059e+00 5.629037e+01 -2.519233e-01 6.471781e-01 8.849467e-01 -6.510617e-01 -6.852314e-01 -5.635629e-01 -9.344873e-02 -4.318650e-01 -1.875308e-01 -1.196712e-03 -1.828369e-01 -2.235679e-01 8.631791e-01 -3.364906e-03 4.231662e-02 2.331532e-01 -1.032333e-01 -1.518150e-01 1.089328e-01 2.266479e-02 -2.994257e-02 1.371114e-01 1.812217e-01 2.794033e-02 8.820338e-02 -3.021120e-01
<VARIANCE> 39
 1.092184e+02 1.907854e+02 1.350388e+02 6.225375e+01 5.639300e+01 1.045207e+02 7.729999e+01 6.607383e+01 4.390447e+01 7.771897e+01 6.480154e+01 5.608319e+01 7.152037e+01 5.909275e+00 7.614449e+00 1.086735e+01 7.877450e+00 6.559000e+00 1.153791e+01 6.115100e+00 3.661352e+00 4.602751e+00 6.156296e+00 6.171027e+00 4.167344e+00 1.031795e+01 1.002293e+00 9.479616e-01 1.032686e+00 1.101238e+00 1.255253e+00 2.158402e+00 1.218382e+00 7.719930e-01 7.837355e-01 1.005460e+00 1.291821e+00 7.204146e-01 1.265241e+00
<GCONST> 1.540366e+02
<STATE> 4
<MEAN> 39
 -5.617638e+00 -5.952281e+00 2.053175e+00 -1.291180e+01 -9.687697e+00 -1.216771e+01 -1.236832e+01 -1.335999e+01 -1.057673e+01 -4.509342e+00 -1.022111e+01 -4.423733e+00 5.219318e+01 9.664300e-02 -9.455760e-02 -1.791474e-02 3.648916e-03 2.691120e-02 1.085740e-01 -1.023780e-01 6.168012e-02 4.689023e-03 1.499083e-01 -1.666432e-02 5.058270e-02 -5.582514e-02 -4.803830e-02 -1.627169e-02 -9.873909e-02 6.856861e-02 1.023402e-01 4.040838e-02 3.269562e-02 4.996147e-02 1.102391e-02 -4.552802e-02 1.003356e-02 1.574187e-02 -3.217621e-02
<VARIANCE> 39
 4.570322e+01 1.068468e+02 1.091532e+02 9.423101e+01 1.169729e+02 7.898881e+01 5.705872e+01 7.887383e+01 3.829026e+01 7.079943e+01 5.378888e+01 4.882144e+01 7.711788e+01 4.393977e+00 7.354990e+00 7.115915e+00 5.912765e+00 9.511293e+00 6.543505e+00 5.229064e+00 7.043768e+00 3.889365e+00 6.809109e+00 5.904062e+00 5.923027e+00 5.696270e+00 7.400464e-01 1.242065e+00 1.087204e+00 9.203914e-01 1.750659e+00 1.354157e+00 9.860412e-01 1.382491e+00 8.458920e-01 1.242145e+00 1.219983e+00 1.192564e+00 7.770042e-01
<GCONST> 1.518608e+02
<TRANSP> 5
 0.000000e+00 1.000000e+00 0.000000e+00 0.000000e+00 0.000000e+00
 0.000000e+00 8.705463e-01 1.294537e-01 0.000000e+00 0.000000e+00
 0.000000e+00 0.000000e+00 9.026586e-01 9.734137e-02 0.000000e+00
 0.000000e+00 0.000000e+00 0.000000e+00 9.746547e-01 2.534532e-02
 0.000000e+00 0.000000e+00 0.000000e+00 0.000000e+00 0.000000e+00
<ENDHMM>
~h "k"
<BEGINHMM>
<NUMSTATES> 5
<STATE> 2
<MEAN> 39
 -3.860456e+00 -6.173946e+00 6.984115e-02 -7.409132e+00 -1.094545e+01 -8.400455e+00 -9.537771e+00 -8.955000e+00 -7.907801e+00 -8.047659e+00 -1.071678e+01 -6.350448e+00 4.760360e+01 -5.952714e-02 3.438077e-01 -8.951560e-02 3.925471e-01 2.783837e-01 2.272832e-01 2.819261e-01 -9.656520e-02 -5.166118e-01 -7.528466e-01 -6.323770e-01 -6.144056e-01 -5.037860e-01 -4.954018e-02 -7.829372e-02 -1.389628e-01 -2.109783e-02 1.877660e-01 -1.701069e-01 -2.462890e-02 -1.724961e-01 8.987369e-02 1.792873e-01 2.315166e-01 1.326152e-01 3.424982e-02
<VARIANCE> 39
 6.002877e+01 1.044860e+02 7.230569e+01 7.231590e+01 1.128576e+02 4.860448e+01 5.103379e+01 6.816019e+01 7.065201e+01 5.684762e+01 6.957050e+01 4.481033e+01 1.089169e+02 2.194797e+00 5.704759e+00 2.956496e+00 3.038876e+00 5.959887e+00 4.698667e+00 3.373124e+00 5.026719e+00 6.893212e+00 3.957158e+00 5.554184e+00 2.001948e+00 3.904622e+00 5.163167e-01 1.367546e+00 5.510606e-01 6.180536e-01 1.007855e+00 1.030113e+00 9.006838e-01 1.179913e+00 1.629097e+00 8.688071e-01 9.410378e-01 5.559360e-01 1.412843e+00
<GCONST> 1.434617e+02
<STATE> 3
<MEAN> 39
 -5.930313e+00 -4.671298e+00 4.583907e-02 -6.872077e+00 -8.087550e+00 -8.219951e+00 -8.321823e+00 -9.614974e+00 -9.871780e+00 -9.138905e+00 -9.342576e+00 -6.810220e+00 4.512792e+01 -4.253339e-02 -2.124301e-01 -6.221551e-01 1.725275e-01 5.377671e-01 -2.086299e-01 3.503588e-01 -4.519464e-01 1.250226e-01 -2.951834e-01 -5.147040e-02 -3.799364e-01 -9.120655e-02 -3.782092e-02 -4.025284e-01 -1.497093e-01 -3.798652e-01 4.740039e-02 -2.923626e-01 -2.383288e-02 -6.476972e-02 2.622020e-01 4.672444e-01 2.054768e-01 4.256563e-01 5.122738e-01
<VARIANCE> 39
 7.274429e+01 8.671221e+01 7.545518e+01 7.535491e+01 9.823470e+01 5.169363e+01 6.457767e+01 7.922811e+01 5.417303e+01 7.027230e+01 9.185016e+01 4.720943e+01 1.265667e+02 5.081475e+00 7.872715e+00 4.263721e+00 2.604443e+00 5.253829e+00 5.298824e+00 5.250111e+00 4.004603e+00 4.732938e+00 3.802197e+00 4.541418e+00 2.649975e+00 5.076712e+00 5.168014e-01 9.957272e-01 7.343886e-01 7.885725e-01 9.948967e-01 7.187006e-01 1.027791e+00 1.060660e+00 1.251284e+00 1.089708e+00 1.139723e+00 6.738843e-01 1.321872e+00
<GCONST> 1.459420e+02
<STATE> 4
<MEAN> 39
 -6.088157e+00 -7.002146e+00 -3.264978e+00 -6.682788e+00 -5.751460e+00 -9.773460e+00 -6.815866e+00 -1.081599e+01 -8.132103e+00 -8.971558e+00 -6.946485e+00 -6.122750e+00 4.729020e+01 2.541024e-01 -1.179267e+00 -5.324575e-01 -1.012304e+00 6.402339e-01 -3.845074e-01 2.470787e-01 1.507151e-01 -2.634877e-02 5.627456e-01 -2.460684e-02 5.012478e-01 1.506691e+00 8.026800e-02 -1.704386e-02 6.986107e-02 -1.133987e-01 4.387520e-02 1.860262e-01 -2.077978e-01 1.406955e-01 -4.923406e-02 1.787021e-01 -5.904169e-02 9.028435e-02 6.060402e-02
<VARIANCE> 39
 6.782541e+01 9.560284e+01 1.032196e+02 7.191000e+01 9.554224e+01 6.337604e+01 7.078358e+01 7.306591e+01 5.093590e+01 6.472661e+01 6.239285e+01 3.797835e+01 9.490961e+01 8.291356e+00 9.202405e+00 8.348016e+00 5.596396e+00 8.164312e+00 6.620158e+00 9.145846e+00 7.357994e+00 7.627009e+00 6.775135e+00 6.569530e+00 5.344666e+00 9.955460e+00 1.026704e+00 1.423894e+00 1.381358e+00 8.862199e-01 1.343398e+00 1.216956e+00 1.362465e+00 1.130329e+00 1.038058e+00 1.241182e+00 1.123448e+00 9.159832e-01 1.305152e+00
<GCONST> 1.552836e+02
<TRANSP> 5
 0.000000e+00 1.000000e+00 0.000000e+00 0.000000e+00 0.000000e+00
 0.000000e+00 4.290071e-01 5.709929e-01 0.000000e+00 0.000000e+00
 0.000000e+00 0.000000e+00 2.162579e-01 7.837422e-01 0.000000e+00
 0.000000e+00 0.000000e+00 0.000000e+00 6.062831e-01 3.937169e-01
 0.000000e+00 0.000000e+00 0.000000e+00 0.000000e+00 0.000000e+00
<ENDHMM>
~h "l"
<BEGINHMM>
<NUMSTATES> 5
<STATE> 2
<MEAN> 39
 -2.854655e+00 -1.317360e+01 1.202113e+00 -1.578087e+01 -4.539829e+00 -9.845723e+00 -1.736770e+01 -7.661242e+00 -6.884294e+00 -5.291049e+00 -1.285237e+01 -1.143357e-01 5.514252e+01 6.952457e-01 -5.296155e-01 -4.610761e-02 -9.636886e-01 5.845532e-01 1.218372e-01 -5.908748e-01 -1.708245e-02 4.894802e-02 5.047784e-01 -7.333016e-01 1.341348e-01 7.272109e-01 -2.244723e-01 2.140081e-01 -1.032949e-01 1.140333e-01 8.424982e-02 1.599836e-01 3.748296e-01 5.465065e-02 -1.210265e-01 3.068066e-02 7.576139e-02 -1.839525e-01 -1.703631e-01
<VARIANCE> 39
 4.049172e+01 7.681874e+01 7.701506e+01 8.397174e+01 7.977496e+01 8.582471e+01 8.459845e+01 9.257303e+01 6.633805e+01 8.861868e+01 5.276580e+01 5.796004e+01 7.410171e+01 3.860328e+00 6.076175e+00 4.299930e+00 5.716197e+00 7.088902e+00 6.526219e+00 8.377622e+00 5.670089e+00 4.960608e+00 5.922953e+00 4.929399e+00 3.463949e+00 7.185338e+00 4.324863e-01 8.789509e-01 5.673621e-01 7.160576e-01 1.176833e+00 9.997710e-01 1.503972e+00 1.182295e+00 7.500519e-01 1.324662e+00 8.704695e-01 7.257679e-01 9.761637e-01
<GCONST> 1.479244e+02
<STATE> 3
<MEAN> 39
 -2.556955e+00 -1.376552e+01 3.484144e+00 -2.081133e+01 -3.042099e+00 -1.040588e+01 -1.544915e+01 -7.038960e+00 -8.254475e+00 -4.780292e+00 -1.370682e+01 -8.178103e-02 5.711974e+01 8.715248e-02 7.051278e-01 -1.198450e-01 -1.631206e-01 8.531964e-02 -2.288803e-03 -6.289028e-02 -3.932342e-01 -1.814137e-01 2.542223e-01 2.476511e-01 -3.527151e-01 -3.800486e-01 -1.255377e-02 1.551672e-01 -1.042011e-01 2.053721e-01 -1.473798e-01 -2.041817e-03 6.558870e-02 -9.758400e-02 1.259564e-02 -8.166862e-02 1.289800e-01 -8.774584e-02 -1.248063e-01
<VARIANCE> 39
 2.538207e+01 4.941457e+01 7.723517e+01 1.054588e+02 1.216902e+02 1.052188e+02 6.574898e+01 7.319639e+01 8.510916e+01 7.932109e+01 5.248096e+01 4.096144e+01 3.426620e+01 1.334781e+00 2.009337e+00 2.273460e+00 4.492577e+00 4.174318e+00 3.815721e+00 4.549302e+00 5.003519e+00 4.972899e+00 4.244374e+00 2.921111e+00 2.821566e+00 1.668916e+00 1.861467e-01 3.023593e-01 3.235307e-01 6.808905e-01 6.000091e-01 7.332457e-01 7.323827e-01 9.421419e-01 7.333041e-01 7.924411e-01 5.149383e-01 5.449961e-01 2.539205e-01
<GCONST> 1.318858e+02
<STATE> 4
<MEAN> 39
 5.699887e-01 -7.852249e+00 -7.481263e+00 -1.773816e+01 -1.729996e+00 -4.184805e+00 -1.557061e+01 -1.063580e+01 -4.947604e+00 -3.893236e+00 -9.809217e+00 -5.427858e+00 5.103604e+01 -1.257667e-01 7.102942e-01 -3.130708e-01 6.960883e-01 -3.796531e-01 -1.718264e-01 4.521734e-01 -2.641187e-02 2.669498e-02 -2.997156e-01 1.774916e-01 -3.092822e-01 -8.275574e-01 -8.287881e-02 -3.437554e-02 5.698193e-02 9.025617e-02 -6.390285e-02 -3.723014e-02 5.349601e-02 7.224409e-04 2.595352e-03 -5.326590e-02 -9.776756e-03 2.019821e-02 -1.100833e-02
<VARIANCE> 39
 3.752987e+01 8.861662e+01 5.350092e+01 1.149890e+02 8.938733e+01 1.150967e+02 8.356352e+01 5.723911e+01 6.699086e+01 4.646638e+01 5.954663e+01 4.575319e+01 7.223527e+01 1.475555e+00 1.988397e+00 2.007613e+00 3.610842e+00 3.381404e+00 3.619150e+00 3.444383e+00 3.541812e+00 3.557590e+00 3.193582e+00 3.362457e+00 2.258133e+00 8.828819e-01 1.875754e-01 2.603519e-01 2.833258e-01 5.399945e-01 5.588995e-01 4.683419e-01 5.123237e-01 5.907691e-01 6.888136e-01 5.541984e-01 6.360368e-01 3.833636e-01 1.162020e-01
<GCONST> 1.268933e+02
<TRANSP> 5
 0.000000e+00 1.000000e+00 0.000000e+00 0.000000e+00 0.000000e+00
 0.000000e+00 6.497879e-01 3.502121e-01 0.000000e+00 0.000000e+00
 0.000000e+00 0.000000e+00 7.833225e-01 2.166776e-01 0.000000e+00
 0.000000e+00 0.000000e+00 0.000000e+00 8.590274e-01 1.409726e-01
 0.000000e+00 0.000000e+00 0.000000e+00 0.000000e+00 0.000000e+00
<ENDHMM>
~h "m"
<BEGINHMM>
<NUMSTATES> 5
<STATE> 2
<MEAN> 39
 -1.822100e-01 -1.492575e+01 -2.214652e+00 -1.263694e+01 -9.509630e-01 -6.705927e+00 -1.695066e+01 -5.982285e+00 -9.040661e+00 -7.401050e+00 -1.127276e+01 -6.637427e+00 5.668603e+01 1.278790e-01 4.220166e-01 -6.881630e-02 1.513219e-01 1.738142e-01 9.113163e-03 -3.884213e-01 -2.398991e-01 -2.472470e-01 1.442423e-01 -6.520882e-03 -6.288848e-01 -4.639319e-01 -6.656095e-02 1.655936e-01 2.121324e-02 7.859625e-02 -5.925811e-02 -8.028424e-02 -1.982276e-02 -1.820639e-01 -2.192372e-01 -9.040689e-02 7.646501e-02 5.975403e-02 -1.189430e-01
<VARIANCE> 39
 3.917839e+01 9.764162e+01 6.004117e+01 8.394613e+01 7.175384e+01 9.290967e+01 5.504689e+01 5.358167e+01 4.411046e+01 5.674151e+01 5.248795e+01 6.977933e+01 5.637001e+01 1.106615e+00 2.664015e+00 1.723408e+00 3.586419e+00 3.236182e+00 4.165787e+00 3.409976e+00 3.312978e+00 2.392685e+00 3.319847e+00 3.993325e+00 4.686965e+00 1.079893e+00 1.404438e-01 3.708088e-01 2.115826e-01 5.608827e-01 4.889908e-01 5.652092e-01 4.970916e-01 6.088349e-01 4.716908e-01 6.131632e-01 7.585654e-01 7.005648e-01 1.880386e-01
<GCONST> 1.272048e+02
<STATE> 3
<MEAN> 39
 -1.200967e-01 -1.151137e+01 -2.135811e+00 -1.007534e+01 -2.463934e+00 -9.206563e+00 -1.890952e+01 -8.440203e+00 -1.088495e+01 -7.662825e+00 -9.503944e+00 -7.186734e+00 5.342285e+01 1.634225e-01 4.611228e-01 -1.609575e-01 5.411610e-01 1.476147e-01 1.444462e-01 -2.906879e-01 -7.312375e-01 -1.038281e+00 -2.164816e-01 2.038047e-01 -3.588787e-01 -6.107131e-01 -6.144275e-03 -1.662653e-02 -4.307292e-02 -6.791622e-02 -4.263958e-02 1.374803e-01 1.115405e-01 -1.088112e-02 7.788350e-02 -6.482156e-02 2.008643e-02 2.064519e-01 3.848492e-02
<VARIANCE> 39
 4.713770e+01 1.031846e+02 4.394794e+01 1.139548e+02 5.144300e+01 7.952281e+01 6.663811e+01 7.242989e+01 4.980002e+01 5.740686e+01 5.250325e+01 6.763609e+01 6.982607e+01 1.152979e+00 2.376199e+00 2.141846e+00 4.634989e+00 2.646029e+00 3.499054e+00 3.333322e+00 3.415075e+00 2.843663e+00 2.804420e+00 3.510438e+00 4.115114e+00 1.185190e+00 1.380021e-01 2.548011e-01 2.633468e-01 7.758155e-01 4.646779e-01 5.140208e-01 6.082481e-01 5.895566e-01 5.418071e-01 5.986130e-01 6.735802e-01 7.160594e-01 1.218903e-01
<GCONST> 1.273876e+02
<STATE> 4
<MEAN> 39
 2.415111e+00 -1.077013e+01 -5.877047e+00 -9.880799e+00 -7.161720e-01 -5.726281e+00 -1.990504e+01 -1.121214e+01 -1.462075e+01 -9.174684e+00 -8.502906e+00 -5.794125e+00 5.207618e+01 1.047121e-01 3.773501e-01 -4.746688e-01 2.407421e-02 -1.091334e-01 8.953365e-02 2.041088e-01 -1.071436e-01 -5.467183e-02 -6.317849e-02 1.237163e-01 4.573413e-02 -3.801314e-01 -7.210606e-02 -1.116898e-02 9.413876e-02 -1.402948e-01 -7.481832e-02 -9.615836e-02 6.810762e-02 1.131462e-01 1.907975e-01 7.899856e-03 -1.481942e-02 1.024388e-01 3.944490e-02
<VARIANCE> 39
 3.029490e+01 7.332482e+01 5.533623e+01 1.506992e+02 7.008799e+01 1.214933e+02 5.766658e+01 6.206308e+01 6.683190e+01 7.546632e+01 3.243582e+01 6.470625e+01 4.256961e+01 9.324616e-01 2.278279e+00 1.612822e+00 6.269372e+00 3.382187e+00 3.474688e+00 2.384879e+00 4.416146e+00 3.034241e+00 2.144627e+00 2.605287e+00 2.377003e+00 1.319199e+00 1.576799e-01 2.300820e-01 2.409213e-01 7.641146e-01 4.618598e-01 5.308102e-01 3.977337e-01 6.602466e-01 4.430896e-01 4.017251e-01 5.428782e-01 4.182860e-01 1.064636e-01
<GCONST> 1.242292e+02
<TRANSP> 5
 0.000000e+00 1.000000e+00 0.000000e+00 0.000000e+00 0.000000e+00
 0.000000e+00 6.934685e-01 3.065315e-01 0.000000e+00 0.000000e+00
 0.000000e+00 0.000000e+00 5.062334e-01 4.937666e-01 0.000000e+00
 0.000000e+00 0.000000e+00 0.000000e+00 8.188781e-01 1.811219e-01
 0.000000e+00 0.000000e+00 0.000000e+00 0.000000e+00 0.000000e+00
<ENDHMM>
~h "n"
<BEGINHMM>
<NUMSTATES> 5
<STATE> 2
<MEAN> 39
 -2.030896e+00 -9.474356e+00 2.706738e+00 -1.159009e+01 -8.897701e+00 -1.404287e+01 -1.169563e+01 -7.470793e+00 -1.386628e+01 -9.891609e+00 -8.340968e+00 5.708671e-02 5.257422e+01 6.505092e-01 8.165764e-01 -5.508600e-01 1.023234e+00 -9.349051e-02 -1.255311e-02 -2.525496e-01 -8.727719e-01 -4.587782e-01 -4.870399e-01 1.055991e-01 -3.395504e-01 -9.655044e-01 1.789872e-02 7.880179e-02 -1.045092e-01 1.701985e-01 -5.499340e-03 1.225871e-01 -3.445513e-02 -2.293283e-02 8.634091e-02 2.796145e-02 5.907322e-02 -5.788555e-02 -1.145999e-01
<VARIANCE> 39
 4.484942e+01 8.303559e+01 3.874951e+01 8.072975e+01 4.311868e+01 6.258979e+01 4.821992e+01 7.003536e+01 6.969730e+01 5.581575e+01 4.791921e+01 4.348607e+01 7.453463e+01 1.718855e+00 2.920782e+00 1.929871e+00 3.718599e+00 2.816833e+00 3.288380e+00 2.909889e+00 2.922423e+00 3.436408e+00 3.736094e+00 2.975814e+00 2.929563e+00 1.647174e+00 2.585970e-01 4.251346e-01 3.218182e-01 5.663927e-01 4.690257e-01 5.163292e-01 5.249081e-01 5.465481e-01 5.112689e-01 6.215613e-01 5.733466e-01 5.495185e-01 2.123437e-01
<GCONST> 1.269328e+02
<STATE> 3
<MEAN> 39
 1.226617e+00 -3.544235e+00 -1.690609e-01 -5.046947e+00 -9.460320e+00 -1.131550e+01 -1.299381e+01 -1.395823e+01 -1.561592e+01 -1.162276e+01 -6.157341e+00 -2.907013e+00 4.668387e+01 2.459968e-01 8.397322e-01 -5.780362e-01 9.587931e-01 -1.939923e-01 3.362979e-01 -1.760290e-01 -5.258039e-01 1.754518e-01 -1.825035e-01 3.791141e-01 -3.304099e-01 -1.037153e+00 -2.779931e-01 -5.961962e-02 6.168006e-02 -2.476206e-01 1.404501e-02 2.063385e-02 7.090288e-02 1.921079e-01 1.894518e-01 1.677382e-01 3.720929e-02 7.960827e-02 1.476375e-01
<VARIANCE> 39
 5.453595e+01 6.794341e+01 3.025651e+01 4.321624e+01 4.005397e+01 4.953252e+01 4.964243e+01 6.381393e+01 8.312320e+01 4.993182e+01 4.636559e+01 3.146478e+01 4.903357e+01 1.891904e+00 2.506143e+00 1.742895e+00 2.958367e+00 2.368798e+00 3.086891e+00 2.497217e+00 3.044493e+00 3.026873e+00 3.692339e+00 2.773417e+00 2.314525e+00 8.438417e-01 2.374929e-01 3.745393e-01 3.249759e-01 4.732466e-01 4.896441e-01 6.098056e-01 5.273778e-01 5.254313e-01 5.492032e-01 6.300673e-01 5.193124e-01 4.387601e-01 1.489110e-01
<GCONST> 1.223225e+02
<STATE> 4
<MEAN> 39
 -3.471042e+00 -4.122086e-01 -2.422331e+00 -3.503575e+00 -8.792462e+00 -1.007287e+01 -1.231009e+01 -1.220251e+01 -1.071981e+01 -1.042685e+01 -5.691028e+00 -3.642050e+00 4.174974e+01 -6.796985e-01 1.682442e-01 -3.241994e-01 1.318480e-01 1.845577e-01 3.785462e-01 1.138751e-01 2.488572e-01 4.996359e-01 3.111014e-01 1.136178e-01 -1.353939e-01 -5.146465e-01 -1.736725e-01 -1.536087e-01 1.050707e-01 -2.109904e-01 8.395573e-02 -5.418281e-02 3.409978e-02 7.723720e-02 5.190704e-02 4.034634e-02 -5.983856e-02 7.521629e-02 2.341390e-01
<VARIANCE> 39
 8.156713e+01 5.569666e+01 3.569085e+01 4.860254e+01 3.762357e+01 5.079240e+01 5.925362e+01 6.112739e+01 7.838789e+01 5.056153e+01 4.015876e+01 2.759613e+01 6.359510e+01 2.447546e+00 3.486881e+00 2.457314e+00 3.580306e+00 2.513496e+00 4.153481e+00 3.483186e+00 4.233827e+00 4.049043e+00 3.874667e+00 3.002249e+00 2.323615e+00 1.638753e+00 4.032950e-01 4.645128e-01 4.588188e-01 7.483828e-01 5.174906e-01 7.382296e-01 7.084424e-01 7.847925e-01 6.920472e-01 7.028161e-01 5.821179e-01 4.416495e-01 3.172316e-01
<GCONST> 1.297796e+02
<TRANSP> 5
 0.000000e+00 1.000000e+00 0.000000e+00 0.000000e+00 0.000000e+00
 0.000000e+00 6.676794e-01 3.323206e-01 0.000000e+00 0.000000e+00
 0.000000e+00 0.000000e+00 6.076190e-01 3.923810e-01 0.000000e+00
 0.000000e+00 0.000000e+00 0.000000e+00 6.738347e-01 3.261653e-01
 0.000000e+00 0.000000e+00 0.000000e+00 0.000000e+00 0.000000e+00
<ENDHMM>
~h "p"
<BEGINHMM>
<NUMSTATES> 5
<STATE> 2
<MEAN> 39
 -3.341620e+00 -1.081142e+01 -6.902778e+00 -7.635955e+00 -3.023606e+00 -5.682427e+00 -9.203071e+00 -6.980206e+00 -8.695450e+00 -7.573769e+00 -1.062748e+01 -9.253912e+00 4.890762e+01 -7.454544e-03 4.369179e-01 -4.402593e-01 8.475379e-01 -1.045528e-01 -9.431489e-03 2.122102e-01 2.765512e-02 2.074568e-01 -1.914963e-01 3.426940e-01 3.718733e-02 -1.037907e+00 -5.971748e-02 1.208468e-02 8.336906e-02 -1.814704e-01 7.645339e-03 1.205610e-01 -7.736271e-02 -1.826039e-02 -3.409785e-02 -5.458375e-02 4.808709e-02 1.988329e-01 -8.067892e-02
<VARIANCE> 39
 9.953877e+01 1.793908e+02 8.140142e+01 6.656975e+01 1.082656e+02 9.672380e+01 4.886050e+01 8.610980e+01 4.288319e+01 8.425774e+01 6.981482e+01 3.015183e+01 8.961169e+01 8.060173e-01 2.197775e+00 3.218059e+00 1.559372e+00 4.169369e+00 3.505539e+00 3.274504e+00 2.563667e+00 2.871298e+00 2.859671e+00 2.581573e+00 1.289912e+00 1.581544e+00 2.847459e-01 3.113418e-01 3.134106e-01 3.858452e-01 6.397562e-01 6.063278e-01 3.710959e-01 3.990678e-01 5.297023e-01 4.312702e-01 5.548183e-01 3.770494e-01 1.962282e-01
<GCONST> 1.267054e+02
<STATE> 3
<MEAN> 39
 -4.686439e+00 -6.429047e+00 -8.858624e+00 -5.650720e+00 -4.134903e+00 -4.487904e+00 -8.385233e+00 -8.584941e+00 -7.325103e+00 -9.325336e+00 -1.245113e+01 -8.069447e+00 4.412823e+01 -2.901613e-01 7.100433e-01 -1.906890e-01 -2.875294e-02 -2.133770e-01 -4.758235e-02 1.498782e-01 -3.898412e-03 -8.153881e-02 -5.567820e-02 2.530638e-01 2.829347e-01 -1.295895e+00 -8.867158e-02 -1.065443e-01 1.746899e-01 -2.452126e-01 -3.578468e-02 -6.749154e-02 -6.604401e-02 1.361139e-01 -4.546480e-02 6.842214e-02 1.252291e-01 -2.072833e-02 1.181710e-01
<VARIANCE> 39
 9.839820e+01 1.418372e+02 7.448327e+01 3.940588e+01 7.727564e+01 6.754555e+01 6.212505e+01 7.870654e+01 4.663751e+01 1.059614e+02 7.425149e+01 3.216031e+01 7.907813e+01 9.368370e-01 2.327085e+00 2.625764e+00 1.918906e+00 3.375476e+00 2.691213e+00 2.817878e+00 2.691149e+00 2.941277e+00 3.750965e+00 3.043000e+00 1.192069e+00 1.120174e+00 2.684515e-01 2.130993e-01 2.906283e-01 2.798236e-01 5.233866e-01 4.479727e-01 6.180791e-01 5.619103e-01 4.479887e-01 6.964210e-01 6.153890e-01 4.086030e-01 1.636524e-01
<GCONST> 1.251127e+02
<STATE> 4
<MEAN> 39
 -1.308549e+01 -3.127634e+00 -8.769200e+00 -3.857870e+00 -5.948310e+00 -4.049343e+00 -5.321696e+00 -7.320329e+00 -3.803486e+00 -7.309542e+00 -4.955946e+00 -3.950666e+00 3.490390e+01 -3.729714e-01 -2.277345e-01 1.259051e-01 -6.311043e-02 4.402070e-02 1.014308e-01 9.802471e-02 3.097685e-01 -6.986955e-02 2.175491e-01 2.436456e-01 3.382340e-02 -6.645587e-01 3.170003e-02 -1.552707e-01 1.273255e-01 -6.499123e-02 7.523995e-02 -1.882309e-02 -1.781977e-01 -2.413656e-02 -5.115058e-02 5.786570e-02 -2.253394e-02 5.006308e-02 1.704189e-01
<VARIANCE> 39
 6.555560e+01 6.054763e+01 4.960556e+01 3.280119e+01 4.202361e+01 3.744958e+01 5.156106e+01 5.060064e+01 5.151215e+01 6.119653e+01 7.537295e+01 4.238642e+01 5.557899e+01 1.391737e+00 1.565263e+00 1.747000e+00 1.902833e+00 2.068600e+00 2.584245e+00 3.723409e+00 3.151729e+00 2.638318e+00 3.113656e+00 3.692073e+00 2.273391e+00 1.349826e+00 2.112948e-01 1.919722e-01 3.407674e-01 4.984504e-01 5.691026e-01 4.631968e-01 8.253250e-01 7.565066e-01 6.307582e-01 5.896426e-01 7.874445e-01 4.788965e-01 2.510351e-01
<GCONST> 1.232527e+02
<TRANSP> 5
 0.000000e+00 1.000000e+00 0.000000e+00 0.000000e+00 0.000000e+00
 0.000000e+00 5.206479e-01 4.793522e-01 0.000000e+00 0.000000e+00
 0.000000e+00 0.000000e+00 5.330054e-01 4.669946e-01 0.000000e+00
 0.000000e+00 0.000000e+00 0.000000e+00 7.316040e-01 2.683960e-01
 0.000000e+00 0.000000e+00 0.000000e+00 0.000000e+00 0.000000e+00
<ENDHMM>
~h "r"
<BEGINHMM>
<NUMSTATES> 5
<STATE> 2
<MEAN> 39
 -9.550436e+00 -9.088445e+00 -2.664849e+00 -4.638256e+00 -4.146749e+00 -9.848886e+00 -1.279391e+01 -9.542599e+00 -4.392651e+00 -6.501484e+00 -5.764076e+00 -1.316943e+00 4.608577e+01 2.157111e+00 -1.221428e+00 -4.911383e-01 -1.812844e-01 2.428554e-01 -7.479630e-01 -1.298118e+00 -3.971453e-01 -4.856826e-01 1.391885e-01 -2.692095e-02 3.505119e-01 1.785976e+00 1.280618e-01 -1.023728e-01 -1.067924e-02 -1.168514e-01 -8.716962e-02 1.202687e-01 1.685482e-01 1.211935e-01 -1.972760e-01 1.110360e-03 -2.121713e-01 -1.234835e-01 1.753820e-01
<VARIANCE> 39
 1.300258e+02 7.472300e+01 7.864046e+01 7.708408e+01 6.664558e+01 8.714959e+01 1.072549e+02 8.002162e+01 8.542029e+01 5.150941e+01 6.471062e+01 3.827272e+01 8.910222e+01 1.262910e+01 8.356483e+00 7.534472e+00 8.158683e+00 7.486552e+00 1.050977e+01 1.372514e+01 1.048015e+01 8.183481e+00 4.967620e+00 6.825779e+00 4.995812e+00 8.992970e+00 1.934931e+00 1.422554e+00 1.328810e+00 1.592523e+00 1.342603e+00 1.964906e+00 2.782341e+00 2.094362e+00 1.193294e+00 8.467530e-01 1.119642e+00 9.179943e-01 1.482009e+00
<GCONST> 1.604553e+02
<STATE> 3
<MEAN> 39
 -1.659983e+00 -1.145232e+01 -2.917170e+00 -9.207952e+00 -6.483284e+00 -1.371463e+01 -1.477970e+01 -1.004384e+01 -9.091236e+00 -5.120140e+00 -7.638958e+00 -2.144436e+00 5.541231e+01 -4.729917e-01 -1.760633e-01 2.804533e-01 -2.475444e-01 -4.511648e-01 5.237482e-01 6.858743e-01 6.102449e-01 -3.617173e-01 -5.575668e-02 -2.431393e-01 -5.653806e-01 7.502525e-01 -4.228107e-01 2.907530e-01 1.177614e-01 -2.951803e-02 -7.757927e-02 1.996402e-01 2.242783e-01 9.999835e-02 9.662507e-02 1.320677e-02 -3.817322e-02 -1.764774e-01 -2.922370e-01
<VARIANCE> 39
 8.194482e+01 1.521045e+02 1.862081e+02 1.103697e+02 9.740462e+01 9.869630e+01 6.205761e+01 6.495248e+01 7.532438e+01 7.183841e+01 7.770996e+01 5.053823e+01 3.311150e+01 5.580867e+00 1.317724e+01 1.191139e+01 8.867862e+00 6.661737e+00 6.976410e+00 6.267261e+00 5.531305e+00 6.860687e+00 6.273141e+00 4.844780e+00 4.328408e+00 3.037673e+00 1.122078e+00 1.553603e+00 1.678978e+00 1.497431e+00 1.238150e+00 1.314037e+00 1.265855e+00 1.102803e+00 1.148852e+00 1.118469e+00 9.183635e-01 8.259509e-01 4.749767e-01
<GCONST> 1.546696e+02
<STATE> 4
<MEAN> 39
 -2.168039e+00 -1.100790e+01 -1.598018e+00 -7.770399e+00 -6.105853e+00 -1.039887e+01 -1.467749e+01 -9.239924e+00 -1.139364e+01 -8.512597e+00 -9.314234e+00 -5.106778e+00 5.325451e+01 -1.917380e-01 2.143624e-01 1.899789e-01 -4.747165e-02 -2.029102e-01 -5.626474e-02 2.394436e-01 1.039293e-01 8.658427e-02 -7.814526e-02 -5.848001e-02 -1.752041e-01 -1.215284e-01 -4.262632e-02 5.403988e-02 6.526925e-02 -4.104808e-02 3.058250e-02 -1.461778e-02 9.444428e-03 -6.514338e-02 1.778448e-02 1.872171e-02 8.897136e-03 6.285391e-02 -5.748261e-02
<VARIANCE> 39
 6.944310e+01 1.470669e+02 1.070471e+02 7.469615e+01 8.682906e+01 8.210845e+01 5.557977e+01 6.943285e+01 6.211769e+01 5.886983e+01 5.493159e+01 5.305115e+01 4.999204e+01 3.554002e+00 6.634600e+00 5.279531e+00 5.630714e+00 4.881650e+00 5.239360e+00 4.826207e+00 5.160577e+00 4.325397e+00 4.402590e+00 4.701228e+00 4.173080e+00 2.848378e+00 5.224733e-01 9.273044e-01 6.490949e-01 8.603265e-01 8.505270e-01 8.592511e-01 9.523733e-01 8.734090e-01 7.736325e-01 7.968655e-01 8.746143e-01 7.935218e-01 4.064229e-01
<GCONST> 1.435439e+02
<TRANSP> 5
 0.000000e+00 1.000000e+00 0.000000e+00 0.000000e+00 0.000000e+00
 0.000000e+00 8.316540e-01 1.683460e-01 0.000000e+00 0.000000e+00
 0.000000e+00 0.000000e+00 7.355418e-01 2.644582e-01 0.000000e+00
 0.000000e+00 0.000000e+00 0.000000e+00 9.005573e-01 9.944274e-02
 0.000000e+00 0.000000e+00 0.000000e+00 0.000000e+00 0.000000e+00
<ENDHMM>
~h "s"
<BEGINHMM>
<NUMSTATES> 5
<STATE> 2
<MEAN> 39
 -1.421189e+01 5.975183e+00 -9.015947e+00 -1.549984e+00 -8.310442e+00 -8.497303e+00 -6.376920e+00 -1.104910e+01 -4.755997e+00 -7.948914e+00 -4.225623e+00 -5.226042e+00 4.484675e+01 -2.225497e+00 1.186173e+00 -6.939316e-01 7.705067e-01 7.205856e-01 6.120653e-02 8.047720e-01 3.590657e-02 9.667699e-01 1.904244e-01 8.338721e-01 1.393773e-01 4.270579e-01 6.516270e-02 -3.880185e-01 2.457478e-01 -3.119789e-01 6.985972e-02 -2.101935e-01 -8.220142e-02 7.436205e-02 -1.502869e-01 -2.199187e-02 -1.514806e-01 1.609428e-01 3.541757e-01
<VARIANCE> 39
 1.121337e+02 7.694525e+01 7.124849e+01 7.601422e+01 6.644647e+01 6.419582e+01 7.051678e+01 4.761630e+01 5.249506e+01 3.778630e+01 4.658392e+01 4.199133e+01 9.270623e+01 5.876968e+00 7.249791e+00 6.074525e+00 4.043347e+00 4.332801e+00 4.887223e+00 6.418852e+00 5.087604e+00 4.702598e+00 3.639140e+00 4.274043e+00 2.717107e+00 2.163486e+00 1.172190e+00 1.015354e+00 9.685459e-01 6.250837e-01 1.026871e+00 9.266559e-01 1.308405e+00 9.086747e-01 9.619495e-01 7.412148e-01 7.319855e-01 6.681111e-01 5.902653e-01
<GCONST> 1.432860e+02
<STATE> 3
<MEAN> 39
 -1.682041e+01 4.492243e+00 -8.137240e+00 -4.657026e+00 -5.545496e+00 -1.109079e+01 -7.667432e+00 -1.146695e+01 -4.249044e+00 -8.335196e+00 -4.452520e+00 -3.257229e+00 4.832380e+01 -9.158053e-02 -1.121505e+00 1.142644e-01 -8.160821e-01 6.523767e-01 3.538345e-02 -3.244872e-01 1.506107e-01 -6.572219e-02 7.674429e-02 -2.269051e-01 3.322698e-01 1.435185e+00 5.422488e-01 -5.480875e-01 1.771253e-01 -1.441819e-01 -9.437387e-02 2.911583e-01 -2.622097e-01 1.128440e-01 -2.044533e-01 7.119157e-02 -3.447830e-01 -3.112048e-02 9.790035e-03
<VARIANCE> 39
 9.844997e+01 1.352903e+02 8.064123e+01 7.664967e+01 7.345528e+01 9.913708e+01 7.029988e+01 6.006153e+01 5.684388e+01 3.954379e+01 5.223912e+01 4.883573e+01 6.718213e+01 1.492950e+01 1.342521e+01 8.468332e+00 8.381480e+00 8.166643e+00 8.262607e+00 8.195367e+00 6.377070e+00 5.626220e+00 4.683911e+00 6.150152e+00 5.196444e+00 6.174018e+00 1.616780e+00 1.426663e+00 1.353848e+00 1.069176e+00 1.489986e+00 1.434362e+00 1.391810e+00 1.276878e+00 9.963334e-01 9.538221e-01 1.140946e+00 9.360259e-01 7.546130e-01
<GCONST> 1.554748e+02
<STATE> 4
<MEAN> 39
 -2.148682e+01 3.266783e+00 -1.118359e+01 -9.438612e-01 -3.778380e+00 -5.641854e+00 -3.348140e+00 -8.490822e+00 -2.264031e+00 -6.387501e+00 -2.323655e+00 -2.818228e+00 4.391720e+01 6.705915e-01 -1.123409e+00 5.748670e-01 -4.423752e-01 -5.140703e-02 2.768056e-01 -3.610927e-01 1.826658e-02 -2.597505e-01 -1.734612e-02 -2.676952e-01 1.905235e-01 1.352012e-02 1.751297e-01 -6.046474e-02 1.302055e-01 -1.037485e-01 -5.864352e-02 -7.720629e-02 -4.972076e-02 -4.218617e-02 -4.780864e-02 -4.632660e-03 -1.190141e-01 1.022955e-02 -3.723463e-02
<VARIANCE> 39
 7.142835e+01 1.063573e+02 6.065643e+01 7.890197e+01 5.910026e+01 8.811303e+01 6.950547e+01 5.475387e+01 4.649115e+01 4.119878e+01 4.827758e+01 2.565392e+01 8.859618e+01 3.731557e+00 3.822901e+00 3.660866e+00 5.287108e+00 4.895547e+00 5.815296e+00 4.924368e+00 4.363095e+00 4.013454e+00 4.372148e+00 4.574427e+00 2.633126e+00 4.176593e+00 6.430193e-01 6.086565e-01 4.959665e-01 8.554893e-01 8.857308e-01 1.099187e+00 9.983535e-01 8.563845e-01 7.617531e-01 8.201780e-01 9.969957e-01 5.264491e-01 4.511834e-01
<GCONST> 1.399820e+02
<TRANSP> 5
 0.000000e+00 1.000000e+00 0.000000e+00 0.000000e+00 0.000000e+00
 0.000000e+00 5.510729e-01 4.489271e-01 0.000000e+00 0.000000e+00
 0.000000e+00 0.000000e+00 7.177593e-01 2.822406e-01 0.000000e+00
 0.000000e+00 0.000000e+00 0.000000e+00 8.201910e-01 1.798089e-01
 0.000000e+00 0.000000e+00 0.000000e+00 0.000000e+00 0.000000e+00
<ENDHMM>
~h "t"
<BEGINHMM>
<NUMSTATES> 5
<STATE> 2
<MEAN> 39
 -7.118864e+00 -2.751499e+00 -1.544527e+00 -7.899051e+00 -9.661950e+00 -1.094609e+01 -1.186589e+01 -9.947057e+00 -7.301635e+00 -8.347941e+00 -7.340293e+00 -4.709604e+00 4.362395e+01 -1.406090e-01 -3.033011e-01 6.190307e-02 -2.135126e-01 1.391526e-02 5.650355e-03 -7.490849e-02 6.334544e-02 4.630566e-01 4.167252e-01 2.463569e-01 2.078767e-01 4.642553e-01 -9.852098e-02 -2.049581e-01 -3.056316e-02 -1.321925e-01 2.422991e-01 1.809248e-01 1.461482e-01 8.282810e-02 -2.823250e-02 1.676821e-01 2.143767e-02 2.491587e-02 2.818755e-01
<VARIANCE> 39
 6.738103e+01 6.162388e+01 7.887106e+01 7.845676e+01 6.744378e+01 5.431566e+01 8.074877e+01 6.542365e+01 4.554647e+01 6.781635e+01 5.412126e+01 4.491531e+01 8.653137e+01 6.761320e+00 7.029754e+00 5.319556e+00 6.908850e+00 5.114722e+00 4.749128e+00 5.275046e+00 5.480774e+00 4.295547e+00 5.247131e+00 6.649434e+00 4.179204e+00 9.933817e+00 9.286596e-01 7.164928e-01 8.184840e-01 8.153216e-01 8.629190e-01 8.468447e-01 9.040023e-01 9.025404e-01 7.331522e-01 8.984053e-01 1.115117e+00 8.407638e-01 1.062388e+00
<GCONST> 1.468146e+02
<STATE> 3
<MEAN> 39
 -7.102659e+00 -5.337337e+00 -1.627801e+00 -9.639006e+00 -8.788297e+00 -1.022941e+01 -1.182551e+01 -8.533894e+00 -5.978252e+00 -6.823178e+00 -7.250831e+00 -4.136682e+00 4.770426e+01 -2.971791e-01 -9.285076e-01 -6.793100e-03 -1.437246e-01 5.216075e-01 4.957449e-01 6.850840e-01 4.541674e-01 9.293407e-02 4.316644e-01 4.280313e-02 2.053714e-01 7.637558e-01 -9.863764e-02 -1.285018e-02 4.465559e-02 2.497961e-01 1.903021e-01 1.353040e-01 3.011779e-02 -3.741372e-02 -2.191658e-01 -7.440560e-03 -1.120206e-02 -1.798085e-02 -1.768970e-01
<VARIANCE> 39
 9.173455e+01 1.008459e+02 9.644321e+01 5.819640e+01 7.152222e+01 6.518820e+01 9.966732e+01 6.117923e+01 4.927660e+01 6.303971e+01 6.042978e+01 4.968738e+01 9.355478e+01 5.175498e+00 7.458172e+00 4.112625e+00 4.188038e+00 4.511711e+00 4.412252e+00 4.360106e+00 4.842643e+00 4.171702e+00 5.087000e+00 6.743995e+00 4.816634e+00 1.020313e+01 9.104590e-01 9.691039e-01 8.047976e-01 6.841045e-01 7.391462e-01 9.233602e-01 9.412513e-01 8.544442e-01 7.102659e-01 9.016513e-01 1.206600e+00 8.651773e-01 1.109849e+00
<GCONST> 1.469711e+02
<STATE> 4
<MEAN> 39
 -9.455106e+00 -5.263288e+00 -2.451859e+00 -8.168144e+00 -7.230242e+00 -8.210920e+00 -7.657225e+00 -7.093485e+00 -5.896874e+00 -5.618999e+00 -6.280513e+00 -4.126061e+00 4.433856e+01 -5.107495e-01 -2.665949e-01 3.536832e-02 4.999179e-01 5.775828e-01 6.326047e-01 1.716332e-01 -5.129562e-02 -9.505796e-02 2.185390e-01 1.322976e-01 -5.579690e-02 -4.862853e-01 -1.450696e-02 1.155125e-01 7.803501e-03 2.144904e-02 -3.076325e-02 -7.025433e-02 -3.809872e-01 -2.358121e-01 -1.178614e-01 -1.793159e-01 -5.501170e-03 5.626835e-03 7.184032e-02
<VARIANCE> 39
 9.890791e+01 1.032641e+02 7.014413e+01 5.842924e+01 6.483604e+01 5.982812e+01 1.078554e+02 6.130011e+01 5.354566e+01 5.820220e+01 5.700593e+01 3.831215e+01 1.239334e+02 2.754596e+00 3.664785e+00 3.012374e+00 2.789403e+00 3.505554e+00 3.972159e+00 4.000865e+00 3.465710e+00 3.423660e+00 3.402714e+00 3.473261e+00 3.004337e+00 3.146106e+00 6.469887e-01 6.096786e-01 4.955454e-01 5.483588e-01 5.699345e-01 6.887442e-01 8.072649e-01 7.640228e-01 7.472436e-01 7.797977e-01 7.316231e-01 6.046814e-01 8.604109e-01
<GCONST> 1.373328e+02
<TRANSP> 5
 0.000000e+00 1.000000e+00 0.000000e+00 0.000000e+00 0.000000e+00
 0.000000e+00 5.193562e-01 4.806438e-01 0.000000e+00 0.000000e+00
 0.000000e+00 0.000000e+00 3.627559e-01 6.372440e-01 0.000000e+00
 0.000000e+00 0.000000e+00 0.000000e+00 4.205048e-01 5.794952e-01
 0.000000e+00 0.000000e+00 0.000000e+00 0.000000e+00 0.000000e+00
<ENDHMM>
~h "v"
<BEGINHMM>
<NUMSTATES> 5
<STATE> 2
<MEAN> 39
 -8.201142e+00 -5.480391e+00 -5.848107e+00 -8.851216e+00 -2.026038e+00 -9.796368e+00 -1.098312e+01 -9.779137e+00 -2.733595e+00 -4.688549e+00 -5.650169e+00 -2.780299e+00 4.545519e+01 1.067817e+00 -1.317112e+00 1.557936e-01 -1.100640e+00 5.596184e-01 3.892601e-01 -1.217451e+00 -4.013375e-01 -1.885773e-01 3.879802e-01 -2.299884e-01 2.077205e-01 1.969241e+00 2.906336e-01 -1.996222e-01 1.682968e-02 6.119878e-03 -1.437516e-01 1.158925e-01 -4.546197e-02 1.573684e-01 -1.927796e-01 -1.503583e-01 -3.498289e-01 -2.517985e-01 2.804232e-01
<VARIANCE> 39
 1.045507e+02 7.747099e+01 7.379729e+01 1.042608e+02 8.353392e+01 1.006066e+02 8.221024e+01 8.804168e+01 8.537962e+01 6.392198e+01 6.165256e+01 4.253201e+01 9.483396e+01 1.098467e+01 7.791223e+00 7.286771e+00 9.528364e+00 1.045978e+01 1.446837e+01 9.947331e+00 8.420959e+00 7.227449e+00 8.143049e+00 8.143659e+00 5.530488e+00 8.842743e+00 1.513473e+00 1.190508e+00 1.213661e+00 1.544803e+00 1.881634e+00 1.914459e+00 1.762296e+00 1.506123e+00 1.074493e+00 1.538731e+00 1.418128e+00 9.871267e-01 1.497078e+00
<GCONST> 1.614945e+02
<STATE> 3
<MEAN> 39
 -1.407600e+00 -9.747133e+00 -5.599779e+00 -1.343777e+01 -2.964370e+00 -7.814852e+00 -1.465123e+01 -1.080465e+01 -5.776657e+00 -7.520282e+00 -1.174246e+01 -6.669460e+00 5.258604e+01 4.080210e-01 -4.821707e-01 -1.142241e-01 1.387199e-01 1.737506e-01 5.213472e-01 1.137271e-01 3.011840e-01 -5.737044e-01 -2.402009e-01 -6.558796e-01 -5.534894e-01 8.101555e-01 -3.683476e-01 3.827603e-01 5.490024e-02 3.323787e-01 -1.036683e-01 -1.158760e-01 2.764958e-01 2.383654e-01 4.163718e-02 5.767554e-03 1.971167e-01 3.703840e-02 -3.815258e-01
<VARIANCE> 39
 5.341016e+01 8.438150e+01 6.157732e+01 6.847215e+01 4.756061e+01 1.285084e+02 5.894318e+01 5.651893e+01 6.531585e+01 6.163692e+01 5.970105e+01 6.272129e+01 5.430041e+01 7.241838e+00 9.816750e+00 4.882616e+00 4.722069e+00 5.173256e+00 9.024604e+00 6.752052e+00 5.718174e+00 4.298015e+00 6.352255e+00 5.736394e+00 5.083249e+00 5.430140e+00 1.063028e+00 1.343062e+00 7.971152e-01 9.797581e-01 1.051402e+00 1.681850e+00 1.080921e+00 1.284227e+00 8.426626e-01 1.191105e+00 1.019567e+00 9.136934e-01 8.515286e-01
<GCONST> 1.498391e+02
<STATE> 4
<MEAN> 39
 -2.068251e+00 -1.209871e+01 -7.071236e+00 -1.146701e+01 -5.094140e+00 -3.128198e+00 -9.908236e+00 -6.392297e+00 -7.776514e+00 -1.022073e+01 -1.033402e+01 -8.498688e+00 5.305006e+01 -4.647926e-01 6.395944e-01 3.631579e-01 3.199989e-01 -3.238842e-01 -4.897423e-01 3.528233e-01 2.672022e-01 -3.875102e-02 -2.367604e-01 7.918681e-02 -4.225151e-02 -5.657243e-01 -7.952501e-02 5.644555e-02 2.025975e-02 -9.444330e-03 -2.015147e-02 -9.723184e-02 -2.750992e-02 -1.018394e-01 7.325032e-02 7.722469e-02 9.876655e-02 1.072863e-01 -1.055872e-01
<VARIANCE> 39
 6.558355e+01 1.236334e+02 7.121017e+01 7.118848e+01 5.104449e+01 1.057116e+02 8.298042e+01 5.352610e+01 4.693963e+01 5.527466e+01 7.023695e+01 4.501155e+01 6.799034e+01 3.134182e+00 4.437256e+00 2.972506e+00 3.795583e+00 3.728312e+00 3.698036e+00 5.000684e+00 4.010736e+00 3.445882e+00 4.452315e+00 4.181121e+00 3.335562e+00 2.220881e+00 4.572062e-01 5.903619e-01 5.071188e-01 6.850545e-01 7.066249e-01 6.319591e-01 9.660316e-01 6.761621e-01 5.906702e-01 7.625384e-01 6.630824e-01 5.936500e-01 3.681707e-01
<GCONST> 1.368539e+02
<TRANSP> 5
 0.000000e+00 1.000000e+00 0.000000e+00 0.000000e+00 0.000000e+00
 0.000000e+00 7.918324e-01 2.081676e-01 0.000000e+00 0.000000e+00
 0.000000e+00 0.000000e+00 7.272429e-01 2.727571e-01 0.000000e+00
 0.000000e+00 0.000000e+00 0.000000e+00 9.049037e-01 9.509630e-02
 0.000000e+00 0.000000e+00 0.000000e+00 0.000000e+00 0.000000e+00
<ENDHMM>
~h "w"
<BEGINHMM>
<NUMSTATES> 5
<STATE> 2
<MEAN> 39
 -5.463861e+00 -9.775622e+00 -3.205785e+00 -1.107128e+01 -6.425376e+00 -1.102037e+01 -1.053846e+01 -6.760127e+00 -1.098248e+01 -5.272683e+00 -6.212697e+00 -4.014241e+00 5.031023e+01 -2.216477e-02 -8.041839e-02 -2.949211e-02 5.318598e-01 -2.305951e-01 2.694016e-01 4.155707e-01 2.967825e-01 -2.285097e-01 -3.522204e-01 1.050594e-02 4.759651e-02 -4.959829e-01 -8.812767e-03 2.662637e-01 -1.101503e-01 1.966351e-01 9.555538e-02 1.445798e-01 -6.558701e-02 -2.972513e-01 2.585906e-01 -3.129183e-02 -1.690948e-02 -6.533682e-02 -3.163396e-01
<VARIANCE> 39
 9.487599e+01 1.693867e+02 8.766080e+01 8.084531e+01 8.138445e+01 6.565121e+01 4.201286e+01 9.550245e+01 5.289157e+01 1.076541e+02 6.414565e+01 4.590207e+01 1.538060e+02 1.164338e+00 2.043346e+00 1.714463e+00 2.320407e+00 2.379094e+00 2.575186e+00 3.418305e+00 2.517989e+00 3.304963e+00 2.931734e+00 3.120363e+00 2.529676e+00 2.911057e+00 3.012791e-01 5.157683e-01 3.787224e-01 4.891968e-01 4.122254e-01 4.230418e-01 5.324125e-01 7.605563e-01 5.608932e-01 6.929564e-01 6.915956e-01 4.580089e-01 6.791974e-01
<GCONST> 1.317178e+02
<STATE> 3
<MEAN> 39
 -3.120413e+00 -1.183900e+01 -6.340261e+00 -7.545090e+00 -4.866991e+00 -1.156109e+01 -1.284545e+01 -6.003477e+00 -1.277526e+01 -8.239659e+00 -3.867471e+00 -5.096998e+00 4.980782e+01 5.985782e-02 2.058839e-01 -2.664596e-01 4.455262e-01 6.588095e-02 3.318849e-01 8.170363e-02 -3.810254e-01 3.728501e-01 -2.133595e-01 -3.676947e-01 -5.457167e-02 -6.048147e-01 1.505454e-02 9.471381e-02 1.453883e-02 -6.284871e-02 -1.686773e-02 1.248761e-02 -8.216268e-02 -1.605860e-01 1.268836e-01 6.823605e-02 -1.672960e-02 1.661617e-03 1.222940e-02
<VARIANCE> 39
 9.059388e+01 1.831217e+02 8.861324e+01 8.198255e+01 7.614224e+01 7.443094e+01 6.353130e+01 1.017718e+02 6.371588e+01 1.006259e+02 7.798113e+01 2.045813e+01 1.363178e+02 1.059437e+00 1.639629e+00 1.685464e+00 1.980630e+00 1.773497e+00 2.157764e+00 2.816665e+00 4.135971e+00 2.637307e+00 2.604100e+00 3.210582e+00 1.562728e+00 1.831577e+00 1.612514e-01 2.871954e-01 2.645437e-01 2.499528e-01 3.050510e-01 3.998052e-01 4.380654e-01 5.933171e-01 5.226455e-01 5.174322e-01 6.844028e-01 2.989500e-01 2.750451e-01
<GCONST> 1.250315e+02
<STATE> 4
<MEAN> 39
 -1.238336e+01 -6.042755e+00 -7.184140e+00 -4.870115e+00 -3.492811e+00 -2.896459e+00 -4.763665e+00 -5.586924e+00 -4.861924e+00 -6.889052e+00 -4.693670e+00 -2.298522e+00 3.503080e+01 -1.747379e-02 3.616845e-03 -1.708265e-02 1.518113e-01 -6.450862e-03 5.121839e-01 1.464394e-01 2.641611e-03 2.592021e-01 1.630748e-01 1.383773e-02 8.289360e-02 -3.924950e-01 2.297963e-02 4.716132e-02 8.766910e-02 -5.515355e-02 -6.923386e-02 -1.901236e-01 -1.966346e-01 -1.132207e-01 -9.668201e-02 3.673457e-02 3.469209e-02 -3.028066e-02 1.160633e-01
<VARIANCE> 39
 6.584020e+01 8.366608e+01 4.109629e+01 3.930922e+01 3.919128e+01 6.409670e+01 4.192330e+01 5.477909e+01 4.944481e+01 4.645137e+01 3.691346e+01 2.418954e+01 1.405935e+02 8.296917e-01 1.379325e+00 1.404567e+00 1.653317e+00 1.982454e+00 3.633103e+00 2.566929e+00 4.111561e+00 2.708442e+00 2.448231e+00 2.268586e+00 1.696654e+00 1.258884e+00 1.388321e-01 2.357409e-01 2.287335e-01 2.529009e-01 4.414924e-01 7.637850e-01 6.524897e-01 7.151269e-01 5.740448e-01 4.879662e-01 4.867229e-01 3.117413e-01 1.996446e-01
<GCONST> 1.186162e+02
<TRANSP> 5
 0.000000e+00 1.000000e+00 0.000000e+00 0.000000e+00 0.000000e+00
 0.000000e+00 3.091841e-01 6.908159e-01 0.000000e+00 0.000000e+00
 0.000000e+00 0.000000e+00 4.474366e-01 5.525634e-01 0.000000e+00
 0.000000e+00 0.000000e+00 0.000000e+00 6.714563e-01 3.285438e-01
 0.000000e+00 0.000000e+00 0.000000e+00 0.000000e+00 0.000000e+00
<ENDHMM>
~h "y"
<BEGINHMM>
<NUMSTATES> 5
<STATE> 2
<MEAN> 39
 -2.284367e-01 1.506946e+00 4.691499e+00 -1.217061e+01 -8.388169e+00 -6.206469e+00 -2.214946e+01 -1.720813e+01 -1.282518e+01 -5.503216e+00 -2.236352e+00 -1.971689e+00 4.467838e+01 -1.480058e-02 -2.003914e-01 1.575304e+00 -5.494105e-01 -2.355673e+00 -3.511323e-01 -4.879103e-01 -1.597248e+00 -8.222562e-02 2.636157e-01 -2.256784e-01 3.544518e-01 3.427387e-01 5.909559e-02 -2.238327e-01 4.087192e-02 1.588889e-01 -3.561810e-01 -1.602110e-01 5.695404e-01 2.922243e-01 1.028361e-01 1.726885e-01 1.990503e-01 2.160660e-02 1.975783e-01
<VARIANCE> 39
 7.419254e+01 5.361312e+01 1.557272e+02 6.453944e+01 5.048890e+01 1.308210e+02 4.218597e+01 3.697037e+01 1.159953e+01 4.203921e+01 3.043231e+01 3.023806e+01 1.434232e+01 5.383749e+00 2.758545e+00 6.891343e+00 3.003642e+00 9.656102e+00 8.101062e+00 2.172606e+00 5.613532e+00 9.013166e+00 2.728077e+00 2.459053e+00 8.683839e-01 1.477753e+00 3.675136e-01 4.955947e-01 4.765380e-01 4.939675e-01 7.807344e-01 2.040967e+00 2.637101e-01 8.602473e-01 8.864782e-01 5.084229e-01 5.226942e-01 2.035482e-01 4.969407e-02
<GCONST> 1.277401e+02
<STATE> 3
<MEAN> 39
 -2.179237e-02 -5.044818e-01 9.778546e+00 -1.145343e+01 -1.990430e+01 -1.042704e+01 -1.855955e+01 -1.853902e+01 -1.462360e+01 -5.495966e+00 -1.698990e+00 -9.150488e-01 4.563568e+01 -5.360717e-02 -4.806985e-01 6.783568e-01 3.108189e-01 -1.706390e+00 -1.397810e+00 1.608240e+00 9.197415e-01 -5.841794e-01 -9.008601e-01 7.684934e-01 -1.016585e-01 3.956424e-01 -2.336761e-01 -1.096553e-01 -2.742168e-01 -8.597261e-02 9.161985e-01 3.091940e-01 1.708494e-01 7.361139e-01 3.756437e-01 -1.839654e-01 1.532377e-01 5.873669e-02 -6.948263e-02
<VARIANCE> 39
 3.401537e+01 3.357438e+01 2.496419e+02 7.058467e+01 1.211936e+02 6.708064e+01 4.175446e+01 8.646987e+01 3.892279e+01 4.727149e+01 2.746117e+01 2.472684e+01 1.372087e+01 6.703044e+00 4.425793e+00 2.581806e+00 2.252112e+00 8.004607e+00 1.175144e+01 4.960610e+00 7.250141e+00 8.377036e+00 2.733485e+00 1.386922e+00 6.946552e-01 1.362695e+00 1.599174e-01 2.940930e-01 6.809658e-01 4.388331e-01 1.091255e+00 8.863664e-01 6.164569e-01 1.578669e+00 5.378232e-01 7.721291e-01 2.325478e-01 1.324593e-01 6.406846e-02
<GCONST> 1.275947e+02
<STATE> 4
<MEAN> 39
 -1.184742e+01 6.570795e+00 6.630793e+00 -9.033168e+00 -1.003017e+01 -1.759401e+01 -6.647383e+00 -1.596177e+01 -1.210158e+01 -9.536699e+00 -1.116552e+00 -3.276453e+00 4.724361e+01 3.072977e-03 -1.500524e-01 -7.502838e-01 3.643038e-01 4.689058e-01 -4.571272e-01 7.320425e-02 2.084495e-01 8.593752e-01 -2.128921e-01 -5.067205e-02 -1.506303e-01 -1.944914e-01 -6.000052e-02 -1.078396e-01 -1.128066e-01 -6.726229e-02 2.336204e-01 3.120155e-01 -3.224976e-01 2.048819e-02 1.184770e-01 5.601147e-02 -8.777370e-02 -3.502731e-02 -1.367127e-01
<VARIANCE> 39
 1.382306e+02 1.084469e+02 1.851138e+02 3.101857e+01 2.322773e+02 3.144076e+01 5.845191e+01 7.411607e+01 9.870049e+01 2.379503e+01 3.361710e+01 2.107337e+01 2.120586e+01 7.209115e+00 5.299076e+00 4.657134e+00 3.218420e+00 1.565173e+01 5.172342e+00 4.618302e+00 6.620694e+00 4.096734e+00 3.092161e+00 3.106321e+00 1.567969e+00 1.538709e+00 9.194554e-01 7.999718e-01 8.504087e-01 4.477776e-01 2.721172e+00 8.578450e-01 9.533213e-01 1.516901e+00 8.351380e-01 6.265951e-01 4.921885e-01 3.304340e-01 3.261108e-01
<GCONST> 1.396738e+02
<TRANSP> 5
 0.000000e+00 1.000000e+00 0.000000e+00 0.000000e+00 0.000000e+00
 0.000000e+00 4.741589e-01 5.258411e-01 0.000000e+00 0.000000e+00
 0.000000e+00 0.000000e+00 4.709626e-01 5.290375e-01 0.000000e+00
 0.000000e+00 0.000000e+00 0.000000e+00 8.465015e-01 1.534985e-01
 0.000000e+00 0.000000e+00 0.000000e+00 0.000000e+00 0.000000e+00
<ENDHMM>
~h "z"
<BEGINHMM>
<NUMSTATES> 5
<STATE> 2
<MEAN> 39
 -8.440390e+00 2.310077e+00 -9.771633e-02 -1.017680e+01 -1.122255e+01 -1.275838e+01 -1.095373e+01 -1.486092e+01 -1.014886e+01 -8.658524e+00 -7.000898e+00 -5.146632e+00 5.024707e+01 -2.792292e+00 3.254084e+00 -2.162097e+00 1.206998e+00 6.189429e-01 -9.249929e-01 1.283903e+00 -4.499815e-01 1.447572e+00 -3.666415e-01 1.257572e+00 -3.995409e-01 3.625517e-01 -3.726155e-01 5.981265e-02 -3.955524e-01 2.694512e-01 4.046746e-01 9.788041e-02 1.152152e-01 2.472794e-01 1.486397e-01 2.557970e-01 8.459503e-02 1.384849e-01 1.443622e-01
<VARIANCE> 39
 8.138475e+01 1.052775e+02 1.159619e+02 1.151473e+02 7.729063e+01 7.168736e+01 7.530667e+01 6.260890e+01 5.228663e+01 5.872262e+01 4.737930e+01 6.172386e+01 7.128940e+01 8.629694e+00 1.190582e+01 9.996633e+00 1.253560e+01 7.834290e+00 6.073019e+00 8.198015e+00 4.822469e+00 5.450411e+00 5.063655e+00 4.932728e+00 5.078550e+00 2.818017e+00 1.165550e+00 1.328853e+00 1.161330e+00 1.537951e+00 1.218031e+00 1.119874e+00 1.320291e+00 7.365602e-01 9.684997e-01 7.901586e-01 8.882865e-01 8.277197e-01 4.630075e-01
<GCONST> 1.521203e+02
<STATE> 3
<MEAN> 39
 -1.352150e+01 6.332643e+00 -9.432456e+00 -7.270549e+00 -6.571563e+00 -1.226038e+01 -8.630975e+00 -1.319831e+01 -5.192095e+00 -8.156800e+00 -6.085626e+00 -5.826194e+00 5.137676e+01 -8.487140e-01 3.805512e-01 -8.022629e-01 6.720524e-01 2.665213e-01 2.137992e-01 3.302488e-01 5.576436e-01 4.054459e-01 2.550872e-01 1.435215e-01 2.192570e-01 1.582583e-01 3.851323e-01 -5.118768e-01 3.477409e-01 -1.874575e-01 -1.121867e-01 2.565240e-01 -1.884399e-01 1.698976e-01 -2.132749e-01 9.519109e-02 -1.777200e-01 7.004602e-02 -1.421774e-01
<VARIANCE> 39
 1.201160e+02 1.886012e+02 7.488268e+01 1.263169e+02 7.689542e+01 8.557473e+01 7.941906e+01 7.393261e+01 5.039367e+01 6.437877e+01 5.951333e+01 5.562481e+01 4.196326e+01 8.634063e+00 1.363680e+01 8.241313e+00 1.022754e+01 8.106941e+00 7.817273e+00 8.282680e+00 5.639628e+00 4.770608e+00 5.733759e+00 4.764264e+00 4.556723e+00 3.597744e+00 1.154515e+00 2.019199e+00 1.226571e+00 1.302256e+00 1.516874e+00 1.395628e+00 1.474706e+00 1.149271e+00 9.451658e-01 1.118067e+00 1.029990e+00 9.385460e-01 4.105882e-01
<GCONST> 1.548421e+02
<STATE> 4
<MEAN> 39
 -2.176207e+01 9.011084e+00 -1.250064e+01 6.016655e-01 -5.698744e+00 -7.683739e+00 -3.413557e+00 -1.111685e+01 -2.167668e+00 -7.442630e+00 -1.894913e+00 -3.995382e+00 4.308733e+01 3.767884e-01 -9.001617e-01 3.175672e-01 -2.053414e-01 6.689540e-02 3.219078e-01 -2.629599e-02 2.442168e-01 -2.739407e-02 1.756010e-01 -6.357333e-03 2.376217e-01 -7.746604e-01 1.671486e-01 -1.494944e-01 1.843416e-01 -1.395301e-01 -3.734855e-02 -2.684215e-02 -5.404335e-02 -9.047872e-02 -9.876265e-02 -9.392737e-02 -7.715018e-02 -2.770386e-02 2.967823e-03
<VARIANCE> 39
 4.773148e+01 8.210458e+01 3.617152e+01 5.957176e+01 6.747284e+01 6.518736e+01 7.193172e+01 4.638718e+01 4.686155e+01 4.438495e+01 3.649083e+01 2.645561e+01 6.569147e+01 2.707265e+00 2.452864e+00 2.647763e+00 3.777159e+00 4.741347e+00 3.930973e+00 4.988177e+00 4.286500e+00 3.358977e+00 3.936484e+00 3.685238e+00 2.783536e+00 2.451862e+00 4.450136e-01 4.850130e-01 4.737447e-01 6.550425e-01 9.623845e-01 7.365389e-01 9.633015e-01 8.883397e-01 6.634662e-01 7.523854e-01 7.016667e-01 5.636204e-01 3.435902e-01
<GCONST> 1.329220e+02
<TRANSP> 5
 0.000000e+00 1.000000e+00 0.000000e+00 0.000000e+00 0.000000e+00
 0.000000e+00 6.854860e-01 3.145140e-01 0.000000e+00 0.000000e+00
 0.000000e+00 0.000000e+00 7.996598e-01 2.003401e-01 0.000000e+00
 0.000000e+00 0.000000e+00 0.000000e+00 8.870259e-01 1.129742e-01
 0.000000e+00 0.000000e+00 0.000000e+00 0.000000e+00 0.000000e+00
<ENDHMM>
~h "aa"
<BEGINHMM>
<NUMSTATES> 5
<STATE> 2
<MEAN> 39
 -8.749012e+00 -2.148299e+00 -7.716136e+00 -6.355574e+00 -7.957065e+00 -6.614450e+00 -6.533316e+00 -6.203088e+00 -5.869416e+00 -8.753824e+00 -9.623231e+00 -8.223360e+00 3.713467e+01 -7.187937e-01 1.299320e-02 -1.519407e-01 3.082762e-01 1.884525e-01 1.332595e+00 1.246647e-01 -1.258020e-01 -2.160166e-01 5.599126e-01 5.480555e-02 -6.240351e-02 -1.343991e+00 -5.677655e-03 -1.766816e-01 1.968926e-01 7.707912e-02 1.934996e-01 1.310245e-01 1.633708e-01 1.015794e-01 1.781020e-01 4.167467e-02 4.333234e-02 1.396061e-01 2.374049e-01
<VARIANCE> 39
 6.088737e+01 3.606950e+01 2.501048e+01 1.861899e+01 3.242624e+01 4.206853e+01 3.475325e+01 4.436401e+01 4.492888e+01 2.800748e+01 2.588297e+01 1.228471e+01 6.201971e+01 1.112775e+00 7.161866e-01 9.222472e-01 1.605444e+00 2.524841e+00 1.797210e+00 1.948358e+00 3.300483e+00 4.477324e+00 2.363860e+00 2.325509e+00 8.523233e-01 4.848435e-01 1.453299e-01 1.622039e-01 1.519352e-01 3.348486e-01 3.813170e-01 3.325862e-01 5.528231e-01 5.495470e-01 9.297137e-01 3.763371e-01 5.132256e-01 1.585321e-01 7.121909e-02
<GCONST> 1.067762e+02
<STATE> 3
<MEAN> 39
 -1.134093e+01 -2.727807e+00 -7.587851e+00 -3.998188e+00 -5.306998e+00 -1.348514e+00 -4.415051e+00 -6.402920e+00 -6.107203e+00 -6.954726e+00 -8.601238e+00 -8.159872e+00 3.459214e+01 -3.690387e-01 -1.569996e-01 1.096065e-01 5.170594e-01 4.111682e-01 9.675692e-01 4.759766e-01 2.564648e-01 5.386713e-01 1.223641e-01 4.022217e-02 2.479026e-01 -6.523387e-01 -6.587891e-02 -3.390554e-03 7.983579e-02 -4.031564e-02 4.843173e-02 -4.078739e-01 -2.149050e-01 -1.247116e-01 7.918118e-02 -2.450885e-01 4.369733e-02 1.422501e-01 2.113177e-01
<VARIANCE> 39
 6.988860e+01 6.025971e+01 3.284813e+01 1.734687e+01 1.654121e+01 5.131144e+01 3.299981e+01 4.109311e+01 3.404524e+01 4.040293e+01 2.625976e+01 2.228042e+01 9.382411e+01 6.834156e-01 9.579810e-01 8.207932e-01 1.075200e+00 1.573436e+00 2.342423e+00 2.186882e+00 2.643615e+00 3.031583e+00 2.155158e+00 2.659322e+00 1.917568e+00 5.606692e-01 1.317417e-01 1.479849e-01 2.393148e-01 2.824187e-01 3.406771e-01 4.613438e-01 3.400350e-01 3.436545e-01 5.509703e-01 4.885079e-01 6.337578e-01 2.993303e-01 1.022920e-01
<GCONST> 1.080181e+02
<STATE> 4
<MEAN> 39
 -1.359728e+01 -2.471914e+00 -5.009905e+00 8.624687e-01 -1.597224e+00 1.622784e+00 -1.103114e+00 -2.466027e+00 -1.399448e+00 -4.687088e+00 -1.907321e+00 -5.125272e-01 3.330110e+01 -1.677759e-01 2.073015e-02 1.246897e-01 1.193604e-01 2.516109e-01 6.864791e-02 2.329589e-01 1.877782e-02 1.252969e-01 -4.105657e-03 1.522873e-01 1.410369e-01 -2.468454e-01 8.506466e-03 -6.617190e-03 4.992725e-02 -8.083593e-02 -5.105304e-03 -1.137289e-01 -8.791436e-02 -1.208268e-01 -1.013160e-01 -1.677366e-04 -5.436483e-02 -5.560677e-02 5.637118e-02
<VARIANCE> 39
 5.337434e+01 3.941128e+01 6.032329e+01 3.761960e+01 4.015421e+01 3.504545e+01 3.185112e+01 4.378273e+01 3.218774e+01 2.232019e+01 3.318900e+01 2.153354e+01 3.517632e+01 1.227810e+00 1.227313e+00 2.504477e+00 2.581812e+00 2.042887e+00 2.657786e+00 2.266376e+00 4.957270e+00 3.384048e+00 2.040997e+00 3.176437e+00 1.880458e+00 1.337530e+00 2.201584e-01 2.346164e-01 5.115190e-01 5.012578e-01 4.073678e-01 5.547297e-01 4.310524e-01 9.800683e-01 6.631914e-01 4.098839e-01 6.059142e-01 3.298418e-01 2.470849e-01
<GCONST> 1.176690e+02
<TRANSP> 5
 0.000000e+00 1.000000e+00 0.000000e+00 0.000000e+00 0.000000e+00
 0.000000e+00 6.710455e-01 3.289545e-01 0.000000e+00 0.000000e+00
 0.000000e+00 0.000000e+00 4.641024e-01 5.358976e-01 0.000000e+00
 0.000000e+00 0.000000e+00 0.000000e+00 8.638646e-01 1.361354e-01
 0.000000e+00 0.000000e+00 0.000000e+00 0.000000e+00 0.000000e+00
<ENDHMM>
~h "ae"
<BEGINHMM>
<NUMSTATES> 5
<STATE> 2
<MEAN> 39
 -7.893249e+00 -9.385316e+00 -2.489527e+00 -9.474365e+00 -5.869026e+00 -9.577655e+00 -1.112905e+01 -9.239639e+00 -8.458092e+00 -8.993145e+00 -8.306171e+00 -2.680530e+00 4.822232e+01 8.314555e-01 -1.720835e+00 2.555169e-01 -1.172590e+00 1.936659e-01 -6.250530e-01 -8.127957e-01 6.655322e-01 -5.641083e-02 2.282297e-01 -7.532419e-01 7.337035e-01 1.649516e+00 1.400134e-01 -1.171416e-01 7.884485e-02 -1.175829e-01 1.108526e-02 1.055313e-02 7.642558e-02 3.052171e-01 8.138597e-03 2.736276e-02 -2.699504e-01 -1.387833e-02 2.357216e-01
<VARIANCE> 39
 6.110275e+01 9.391384e+01 6.102703e+01 7.783192e+01 7.163401e+01 9.473116e+01 9.791554e+01 7.112654e+01 6.559664e+01 4.538198e+01 5.375689e+01 4.519329e+01 1.168349e+02 6.132033e+00 8.968605e+00 4.696820e+00 6.518050e+00 8.988190e+00 6.953347e+00 8.603785e+00 9.745465e+00 4.910016e+00 3.840384e+00 7.638682e+00 5.268260e+00 6.874695e+00 8.224127e-01 1.353651e+00 7.344543e-01 9.490405e-01 1.328068e+00 1.438439e+00 1.579703e+00 1.724131e+00 8.057433e-01 7.771780e-01 1.185290e+00 7.520285e-01 1.000420e+00
<GCONST> 1.523894e+02
<STATE> 3
<MEAN> 39
 -4.360353e+00 -1.752507e+01 -3.517014e-01 -1.521119e+01 -4.667287e+00 -1.004895e+01 -1.260476e+01 -3.475317e+00 -8.860542e+00 -8.219276e+00 -1.250860e+01 -6.473736e-01 5.694855e+01 2.231111e-01 -1.286914e+00 4.454281e-01 -5.894581e-01 3.764183e-01 4.914662e-01 8.643774e-01 1.535315e+00 -4.212404e-01 -2.143105e-01 -9.802795e-01 4.090574e-01 1.119821e+00 -2.443768e-01 7.170967e-01 -8.791648e-02 5.977980e-01 -5.018329e-03 7.905538e-02 2.001449e-01 -4.612923e-01 -1.392359e-01 -9.013142e-02 3.044613e-01 -1.992776e-01 -5.861642e-01
<VARIANCE> 39
 3.716796e+01 7.237604e+01 6.717802e+01 5.582418e+01 9.105948e+01 8.576720e+01 7.247063e+01 6.313339e+01 7.270496e+01 5.097706e+01 6.186370e+01 5.205308e+01 7.254543e+01 3.037557e+00 6.769962e+00 2.581351e+00 4.879181e+00 4.660757e+00 7.138995e+00 5.321337e+00 6.951608e+00 4.072198e+00 4.237997e+00 5.650294e+00 3.539654e+00 4.646404e+00 4.762690e-01 9.294020e-01 5.184872e-01 7.074337e-01 9.751305e-01 1.075046e+00 9.856037e-01 1.057853e+00 7.027341e-01 6.761300e-01 8.464639e-01 7.030761e-01 4.232461e-01
<GCONST> 1.419753e+02
<STATE> 4
<MEAN> 39
 -3.377383e+00 -1.807330e+01 9.082692e-01 -1.440202e+01 -6.492378e+00 -9.037934e+00 -9.435328e+00 -2.289305e+00 -1.093013e+01 -1.012578e+01 -1.381508e+01 -2.410410e+00 5.711501e+01 3.105245e-01 1.041962e+00 -1.245452e-01 3.180708e-01 -4.967969e-01 -2.149876e-01 1.611421e-01 -3.034182e-01 2.123683e-02 -4.662477e-01 1.228715e-01 -4.225191e-01 -1.038377e+00 2.333338e-02 2.371743e-01 -1.068648e-01 1.451571e-01 -6.416464e-02 -6.989133e-02 -5.265212e-02 -1.986957e-01 2.168326e-02 -1.485118e-02 1.604197e-01 -4.321755e-02 -2.268213e-01
<VARIANCE> 39
 3.525880e+01 7.406236e+01 5.363198e+01 6.035126e+01 7.229550e+01 6.542383e+01 5.136750e+01 5.786008e+01 5.413671e+01 5.846147e+01 9.745234e+01 5.323979e+01 5.828365e+01 1.730616e+00 3.153175e+00 2.143591e+00 2.687198e+00 3.049419e+00 3.374536e+00 3.111810e+00 3.020379e+00 3.911334e+00 3.641678e+00 2.769165e+00 3.012139e+00 1.793961e+00 2.861392e-01 4.444323e-01 3.628807e-01 4.323967e-01 4.991305e-01 5.568700e-01 6.149861e-01 5.861478e-01 5.924749e-01 6.514566e-01 4.718224e-01 5.375022e-01 2.324458e-01
<GCONST> 1.281488e+02
<TRANSP> 5
 0.000000e+00 1.000000e+00 0.000000e+00 0.000000e+00 0.000000e+00
 0.000000e+00 6.206894e-01 3.793106e-01 0.000000e+00 0.000000e+00
 0.000000e+00 0.000000e+00 4.677615e-01 5.322385e-01 0.000000e+00
 0.000000e+00 0.000000e+00 0.000000e+00 8.398835e-01 1.601165e-01
 0.000000e+00 0.000000e+00 0.000000e+00 0.000000e+00 0.000000e+00
<ENDHMM>
~h "ah"
<BEGINHMM>
<NUMSTATES> 5
<STATE> 2
<MEAN> 39
 -6.210618e+00 -5.223827e+00 -4.244842e+00 -9.479592e+00 -5.283062e+00 -1.081239e+01 -1.202134e+01 -1.079687e+01 -6.295917e+00 -7.927999e+00 -7.725382e+00 -2.333744e+00 4.779479e+01 7.878638e-01 -2.022835e+00 4.814953e-01 -1.734139e+00 4.489764e-01 7.055581e-02 -7.064228e-01 4.636919e-01 -7.516089e-02 4.035831e-01 -8.710154e-01 5.993671e-01 2.141816e+00 8.258111e-02 -2.552219e-01 4.959671e-02 -1.153157e-01 1.508558e-01 2.766423e-01 8.076234e-02 2.924271e-01 -8.593990e-02 9.952103e-02 -2.618672e-01 -2.127681e-01 1.329244e-01
<VARIANCE> 39
 6.795952e+01 8.898113e+01 9.492618e+01 9.297005e+01 6.819859e+01 7.243257e+01 7.810162e+01 9.315829e+01 6.959908e+01 7.996997e+01 6.215066e+01 4.916895e+01 9.223491e+01 7.107606e+00 1.037605e+01 7.681758e+00 1.033013e+01 8.253103e+00 7.959386e+00 9.010099e+00 1.188571e+01 7.057319e+00 6.990674e+00 9.369351e+00 6.550717e+00 9.257870e+00 1.126168e+00 1.765337e+00 1.150066e+00 1.842145e+00 1.610592e+00 1.411399e+00 1.467526e+00 2.172617e+00 1.133541e+00 1.145243e+00 1.531859e+00 1.299364e+00 1.794480e+00
<GCONST> 1.607679e+02
<STATE> 3
<MEAN> 39
 -2.406790e+00 -1.646842e+01 -4.280961e+00 -1.464295e+01 -3.344860e+00 -5.754066e+00 -1.434879e+01 -5.051675e+00 -7.787419e+00 -4.000723e+00 -1.256907e+01 -3.129681e+00 5.794470e+01 2.727231e-02 -7.028733e-01 4.036509e-01 1.013629e-01 1.855074e-01 2.095272e-01 2.196868e-01 5.203875e-01 -1.866573e-01 -2.641945e-01 -8.104457e-01 -3.761690e-01 4.672065e-01 -1.216597e-01 6.217498e-01 -1.160077e-01 3.718711e-01 -2.644780e-01 -2.562526e-01 9.308103e-02 -2.621470e-01 7.871058e-02 -1.841097e-01 2.896288e-01 -8.292548e-02 -4.322525e-01
<VARIANCE> 39
 3.415162e+01 8.003978e+01 1.322196e+02 8.354056e+01 9.572397e+01 1.305573e+02 7.205400e+01 1.143060e+02 7.615588e+01 7.064203e+01 7.435033e+01 4.426524e+01 3.292170e+01 3.150560e+00 7.725101e+00 5.655541e+00 6.108216e+00 7.015944e+00 7.485639e+00 4.818587e+00 8.186832e+00 6.452901e+00 6.594561e+00 5.888810e+00 4.151149e+00 3.045640e+00 4.839345e-01 1.019818e+00 8.401509e-01 1.135751e+00 1.312029e+00 1.230767e+00 9.374849e-01 1.391796e+00 1.248749e+00 1.177017e+00 1.281238e+00 8.546517e-01 4.559939e-01
<GCONST> 1.496476e+02
<STATE> 4
<MEAN> 39
 -3.338447e+00 -1.301484e+01 -5.814453e-01 -1.344632e+01 -4.722507e+00 -9.678720e+00 -1.211297e+01 -8.011580e+00 -8.081949e+00 -7.412617e+00 -1.288968e+01 -4.198046e+00 5.618723e+01 -2.722948e-01 1.228290e+00 -4.898135e-01 7.174008e-01 -4.686805e-01 -4.313108e-01 3.338590e-01 -1.894329e-01 2.501473e-01 -5.052523e-01 2.414398e-01 -4.157729e-01 -5.693052e-01 -1.202116e-01 1.571589e-01 -1.505937e-01 1.008050e-01 3.929948e-02 3.341228e-03 3.493817e-02 -1.355582e-02 -8.049209e-03 2.968725e-02 1.334957e-01 4.320183e-02 -8.464294e-02
<VARIANCE> 39
 5.027284e+01 1.064210e+02 1.149691e+02 7.859492e+01 5.516335e+01 8.411646e+01 8.401916e+01 6.528118e+01 7.595609e+01 7.801740e+01 6.761842e+01 6.454878e+01 3.982696e+01 4.632822e+00 7.200636e+00 5.926721e+00 4.923099e+00 3.982036e+00 5.186559e+00 4.598721e+00 4.665002e+00 4.874236e+00 5.469797e+00 5.806390e+00 4.458007e+00 2.141038e+00 6.574837e-01 7.885946e-01 8.462747e-01 7.786973e-01 6.860332e-01 7.682248e-01 7.954398e-01 7.747129e-01 8.060485e-01 1.108446e+00 1.138295e+00 9.201863e-01 3.294908e-01
<GCONST> 1.440738e+02
<TRANSP> 5
 0.000000e+00 1.000000e+00 0.000000e+00 0.000000e+00 0.000000e+00
 0.000000e+00 8.238203e-01 1.761797e-01 0.000000e+00 0.000000e+00
 0.000000e+00 0.000000e+00 8.066167e-01 1.933833e-01 0.000000e+00
 0.000000e+00 0.000000e+00 0.000000e+00 8.697432e-01 1.302568e-01
 0.000000e+00 0.000000e+00 0.000000e+00 0.000000e+00 0.000000e+00
<ENDHMM>
~h "ao"
<BEGINHMM>
<NUMSTATES> 5
<STATE> 2
<MEAN> 39
 -8.420574e+00 -5.596282e+00 -4.490458e+00 -1.016793e+01 -2.881789e+00 -6.911710e+00 -1.506505e+01 -1.117806e+01 -6.046891e+00 -6.003923e+00 -5.377446e+00 -3.050720e+00 4.930358e+01 2.292593e+00 -1.043861e+00 -1.212454e+00 -1.845639e+00 2.069648e-01 1.288226e-01 -8.255872e-01 1.111381e-01 -1.709083e-01 3.229465e-01 -1.016992e-01 2.145334e-01 1.621524e+00 3.609769e-01 -1.905577e-01 -2.726103e-01 -1.518074e-01 1.776339e-01 1.290230e-01 9.321917e-02 2.497496e-01 2.936837e-02 1.282267e-01 -2.575441e-01 -2.920904e-01 5.084703e-02
<VARIANCE> 39
 1.043993e+02 6.389801e+01 1.376695e+02 8.171921e+01 1.267591e+02 9.517005e+01 1.202162e+02 7.423189e+01 7.749219e+01 6.999922e+01 6.918771e+01 4.410793e+01 6.557327e+01 1.354317e+01 6.914767e+00 7.642934e+00 9.520830e+00 9.335682e+00 1.473905e+01 8.242448e+00 8.062382e+00 8.909647e+00 8.387259e+00 1.111660e+01 6.972167e+00 6.510484e+00 2.332503e+00 1.067281e+00 1.475898e+00 1.771281e+00 2.021695e+00 2.698286e+00 1.527022e+00 1.611877e+00 1.536212e+00 1.493774e+00 1.826085e+00 1.467511e+00 1.257109e+00
<GCONST> 1.641113e+02
<STATE> 3
<MEAN> 39
 6.710557e-01 -1.388977e+01 -8.826130e+00 -2.242493e+01 2.186079e+00 1.080993e+00 -1.727557e+01 -7.103111e+00 -6.119489e+00 -2.588884e+00 -9.840508e+00 -4.224605e+00 5.866062e+01 7.268943e-01 -1.011605e+00 -1.130382e+00 -6.730942e-01 7.540621e-01 1.210992e+00 4.977835e-01 7.617492e-01 -2.354755e-01 1.233265e+00 1.159281e-01 -4.519073e-01 5.737077e-01 -4.592378e-01 3.013175e-01 1.775199e-01 5.142496e-01 -2.469739e-01 5.724405e-02 1.877887e-01 -1.939248e-01 -2.387165e-01 -2.428288e-01 4.324763e-01 2.016784e-01 -2.951197e-01
<VARIANCE> 39
 2.005209e+01 3.719972e+01 4.907610e+01 1.071421e+02 8.536893e+01 2.241442e+02 4.737831e+01 3.416195e+01 6.207402e+01 9.196381e+01 5.363143e+01 4.434438e+01 2.256355e+01 2.011154e+00 2.053323e+00 5.455275e+00 4.224996e+00 7.210025e+00 9.324341e+00 3.436112e+00 3.675291e+00 3.642172e+00 3.235417e+00 4.920200e+00 4.607612e+00 1.523668e+00 4.483288e-01 3.724881e-01 4.822775e-01 5.746261e-01 7.513710e-01 1.298141e+00 7.205348e-01 5.423224e-01 8.427861e-01 8.830126e-01 1.082577e+00 8.394631e-01 2.249611e-01
<GCONST> 1.350364e+02
<STATE> 4
<MEAN> 39
 5.066118e+00 -1.493803e+01 -1.434323e+01 -1.280775e+01 5.654557e-01 -7.379410e+00 -1.426032e+01 -2.065147e+00 -9.091294e+00 -4.984120e+00 -5.770300e+00 -5.597268e+00 5.472601e+01 5.078831e-02 2.431316e-01 3.157529e-01 4.900393e-01 -4.076973e-01 -6.350534e-01 1.316462e-01 1.626226e-01 2.782723e-01 -2.968724e-01 -2.988802e-02 2.782922e-04 -3.553604e-01 -9.970021e-02 9.297919e-02 1.307186e-01 -6.073654e-03 -1.100366e-01 -2.452847e-02 1.388814e-02 -8.081880e-02 6.020368e-02 -4.250296e-02 -5.699698e-02 -1.799979e-03 -7.178858e-02
<VARIANCE> 39
 1.280964e+01 5.356079e+01 5.916266e+01 1.580874e+02 6.787665e+01 2.481457e+02 4.604268e+01 7.166126e+01 8.035902e+01 6.421698e+01 4.315388e+01 3.946942e+01 2.138837e+01 8.944390e-01 1.961156e+00 3.235492e+00 2.627290e+00 3.902887e+00 6.065922e+00 3.825825e+00 2.744592e+00 4.315515e+00 3.007875e+00 2.480446e+00 2.787160e+00 8.034642e-01 1.267797e-01 2.859972e-01 3.132071e-01 3.786365e-01 5.184271e-01 7.599369e-01 6.480212e-01 4.408673e-01 7.214661e-01 4.431751e-01 4.413189e-01 5.030646e-01 1.011034e-01
<GCONST> 1.241624e+02
<TRANSP> 5
 0.000000e+00 1.000000e+00 0.000000e+00 0.000000e+00 0.000000e+00
 0.000000e+00 8.180418e-01 1.819582e-01 0.000000e+00 0.000000e+00
 0.000000e+00 0.000000e+00 7.066405e-01 2.933595e-01 0.000000e+00
 0.000000e+00 0.000000e+00 0.000000e+00 9.371008e-01 6.289926e-02
 0.000000e+00 0.000000e+00 0.000000e+00 0.000000e+00 0.000000e+00
<ENDHMM>
~h "aw"
<BEGINHMM>
<NUMSTATES> 5
<STATE> 2
<MEAN> 39
 1.120090e+00 -1.682204e+01 -2.165306e+00 -4.921374e-01 -5.410359e+00 -1.153736e+01 -1.279590e+01 -3.411608e+00 -1.562904e+01 -1.895004e+01 -7.142572e+00 -5.531079e+00 5.061911e+01 -1.696926e-01 9.456155e-01 -6.167339e-02 3.551863e-01 -2.083860e-01 -3.480218e-01 -1.699331e-01 3.962732e-02 1.320359e-01 7.560492e-02 -2.021775e-02 -1.948390e-01 -8.651693e-01 -1.374545e-01 1.095154e-01 6.607469e-02 -1.040358e-01 2.909761e-02 4.168466e-03 7.925859e-02 -1.142654e-01 1.308215e-01 1.394472e-01 2.126599e-02 1.128189e-01 -3.717737e-02
<VARIANCE> 39
 1.520064e+01 1.808422e+02 1.285983e+01 2.558489e+01 7.349115e+01 1.330874e+02 4.050141e+01 5.895675e+01 3.650771e+01 3.729578e+01 2.753908e+01 4.474265e+01 8.538930e+01 6.491221e-01 2.291447e+00 1.089317e+00 2.177583e+00 2.744046e+00 4.100771e+00 2.593830e+00 2.917109e+00 2.892560e+00 2.893275e+00 2.925609e+00 3.389841e+00 9.342694e-01 6.625555e-02 2.373478e-01 2.171387e-01 3.064507e-01 5.799959e-01 5.717084e-01 4.826921e-01 4.422455e-01 4.288009e-01 6.125273e-01 4.546355e-01 6.759955e-01 7.892173e-02
<GCONST> 1.166282e+02
<STATE> 3
<MEAN> 39
 -6.280785e+00 -3.269025e+00 -1.492528e+00 -3.659100e+00 -9.989082e+00 -1.343219e+01 -1.332065e+01 -1.046687e+01 -1.211559e+01 -1.346046e+01 -1.078422e+01 -6.290106e+00 3.782714e+01 -8.361378e-01 1.948178e-01 -2.299105e-01 4.866272e-02 1.326581e+00 1.548269e+00 4.617110e-03 -8.616764e-01 9.713966e-02 1.234046e+00 6.089022e-01 1.184897e+00 -7.901629e-01 7.008117e-02 -7.643716e-01 -9.251392e-02 -8.737256e-02 3.295754e-01 -1.546593e-01 5.001747e-01 4.227872e-01 2.025474e-01 3.838549e-01 2.729035e-01 1.870840e-01 8.441820e-01
<VARIANCE> 39
 2.661968e+01 6.268317e+01 1.794813e+01 1.606459e+01 4.988291e+01 5.266175e+01 4.109914e+01 6.706882e+01 1.438637e+01 4.051905e+01 1.922055e+01 2.276904e+01 7.258878e+01 1.495610e+00 3.135712e+00 1.338962e+00 2.486271e+00 4.957491e+00 5.259965e+00 2.296631e+00 2.693531e+00 2.694003e+00 2.578657e+00 3.587351e+00 1.737199e+00 1.829978e+00 3.777949e-01 1.051786e+00 4.051722e-01 2.766838e-01 9.371015e-01 9.833700e-01 8.124735e-01 9.200253e-01 2.630420e-01 6.354623e-01 5.182325e-01 3.281224e-01 7.320204e-01
<GCONST> 1.221378e+02
<STATE> 4
<MEAN> 39
 -1.064851e+01 -1.475417e+01 -5.162243e+00 -1.123487e+00 -2.658023e+00 -8.553186e+00 -5.392360e+00 -5.150078e+00 -9.081502e+00 -5.645319e+00 -3.559363e+00 -1.308849e-01 4.117749e+01 6.118972e-01 -1.391243e+00 -5.299835e-01 2.877627e-02 8.194672e-01 1.681657e-01 3.488789e-01 6.612598e-01 -1.520440e-01 2.755913e-01 1.537402e-01 -8.547720e-02 1.580014e+00 -1.268148e-02 2.356993e-01 2.196475e-02 -1.005182e-01 -1.014774e-01 -1.550331e-01 -9.201959e-02 -7.022265e-02 2.037594e-02 -6.509209e-02 -6.017530e-02 -2.237216e-01 -1.074694e-01
<VARIANCE> 39
 7.485857e+01 1.123783e+02 3.200938e+01 2.299554e+01 3.243493e+01 8.474026e+01 6.444020e+01 3.311058e+01 4.714490e+01 5.805917e+01 5.360468e+01 3.442925e+01 2.068038e+02 3.947826e+00 1.677348e+01 2.894207e+00 2.319819e+00 3.722346e+00 7.594593e+00 5.699814e+00 4.005823e+00 4.548989e+00 4.116054e+00 3.898234e+00 3.032143e+00 1.606063e+01 6.774459e-01 2.538661e+00 5.423452e-01 4.733149e-01 3.870500e-01 1.308166e+00 8.779284e-01 6.260436e-01 8.391821e-01 7.809067e-01 6.914260e-01 4.320101e-01 2.387040e+00
<GCONST> 1.415529e+02
<TRANSP> 5
 0.000000e+00 1.000000e+00 0.000000e+00 0.000000e+00 0.000000e+00
 0.000000e+00 8.868219e-01 1.131782e-01 0.000000e+00 0.000000e+00
 0.000000e+00 0.000000e+00 5.650234e-01 4.349767e-01 0.000000e+00
 0.000000e+00 0.000000e+00 0.000000e+00 8.718882e-01 1.281118e-01
 0.000000e+00 0.000000e+00 0.000000e+00 0.000000e+00 0.000000e+00
<ENDHMM>
~h "ax"
<BEGINHMM>
<NUMSTATES> 5
<STATE> 2
<MEAN> 39
 -5.318075e+00 -5.683573e+00 -4.605161e+00 -6.971637e+00 -5.551199e+00 -9.016694e+00 -1.098039e+01 -9.009351e+00 -8.704542e+00 -8.410048e+00 -8.236326e+00 -6.292558e+00 4.469608e+01 -3.952440e-02 8.985016e-01 4.348291e-02 3.397375e-01 -6.182877e-01 -7.444421e-01 -1.496859e-01 -6.136785e-01 -4.104177e-02 -7.416933e-01 -4.364517e-02 -2.619119e-01 -2.989284e-01 -7.464225e-02 -6.630249e-02 1.033283e-01 -1.809608e-01 -2.998647e-02 -7.506748e-02 -1.833457e-02 -2.688293e-02 1.055364e-01 1.367151e-01 6.461568e-02 1.799736e-01 3.134755e-01
<VARIANCE> 39
 9.091372e+01 1.180897e+02 5.149192e+01 5.848996e+01 6.734412e+01 7.893344e+01 6.780057e+01 9.358796e+01 8.357928e+01 5.056178e+01 5.056974e+01 4.596557e+01 1.194725e+02 4.804832e+00 3.632269e+00 3.356519e+00 2.495875e+00 4.506090e+00 5.333558e+00 4.657649e+00 5.149203e+00 5.574318e+00 3.775827e+00 3.420795e+00 2.899945e+00 4.935988e+00 7.114726e-01 7.105237e-01 6.112074e-01 5.716409e-01 7.827188e-01 8.537240e-01 9.184308e-01 7.898355e-01 8.704397e-01 5.762286e-01 6.489785e-01 6.184659e-01 5.660841e-01
<GCONST> 1.408360e+02
<STATE> 3
<MEAN> 39
 -7.001083e+00 -3.146810e+00 -3.054917e+00 -6.798631e+00 -7.137341e+00 -1.211707e+01 -1.180560e+01 -1.121107e+01 -8.834456e+00 -9.414576e+00 -8.411133e+00 -5.012368e+00 4.584291e+01 -1.615610e-02 1.199812e-01 2.026330e-01 -1.353215e-01 -2.582146e-01 -6.738974e-01 -1.950552e-01 -2.396619e-01 2.904596e-01 2.973470e-02 1.218126e-01 3.316281e-01 5.049778e-01 4.066117e-02 -2.867107e-01 7.188594e-02 -2.316201e-01 9.696357e-02 1.922611e-01 5.928078e-02 1.598994e-01 8.771456e-02 3.331422e-01 2.406339e-02 1.885432e-01 2.226001e-01
<VARIANCE> 39
 9.436487e+01 8.585531e+01 6.570877e+01 5.164571e+01 6.107275e+01 7.835972e+01 7.735031e+01 8.650085e+01 7.810170e+01 5.445183e+01 4.950005e+01 5.430228e+01 8.539810e+01 8.389218e+00 6.230345e+00 4.929931e+00 4.820126e+00 5.661458e+00 7.396494e+00 7.415014e+00 5.735908e+00 4.925395e+00 5.047810e+00 4.145851e+00 4.243710e+00 5.599139e+00 1.352260e+00 8.484339e-01 9.155719e-01 7.957445e-01 1.153360e+00 1.416993e+00 1.305263e+00 1.188622e+00 1.033035e+00 8.654247e-01 8.920777e-01 8.715784e-01 8.735449e-01
<GCONST> 1.494530e+02
<STATE> 4
<MEAN> 39
 -7.317923e+00 -3.384387e+00 -4.685297e+00 -7.346418e+00 -6.903831e+00 -1.091341e+01 -1.068932e+01 -1.004078e+01 -6.977918e+00 -7.962996e+00 -7.516005e+00 -4.393003e+00 4.440135e+01 -1.344185e-01 -7.257880e-01 4.616582e-01 -8.078765e-01 1.754698e-02 1.141227e-01 4.645113e-02 1.848094e-01 3.168541e-01 8.468331e-01 1.635416e-01 6.342573e-01 7.661213e-01 3.372047e-02 -2.175512e-01 5.008339e-02 -2.029766e-01 1.412341e-01 1.194273e-01 -9.927273e-02 -3.027812e-02 -1.239443e-01 1.614451e-01 -1.516898e-02 6.584515e-02 4.039856e-01
<VARIANCE> 39
 8.626395e+01 9.835609e+01 7.111631e+01 5.792099e+01 5.837810e+01 9.029546e+01 6.094070e+01 6.542336e+01 6.450634e+01 6.426414e+01 4.228515e+01 4.194809e+01 9.994709e+01 5.328982e+00 7.127919e+00 5.553341e+00 6.355094e+00 4.919397e+00 6.208751e+00 5.274189e+00 5.562758e+00 4.664706e+00 4.281100e+00 5.014969e+00 3.911189e+00 5.372896e+00 9.238640e-01 8.415136e-01 8.041949e-01 1.115537e+00 9.611618e-01 1.239438e+00 1.170339e+00 1.123899e+00 7.596517e-01 8.759477e-01 9.221936e-01 7.214749e-01 1.218021e+00
<GCONST> 1.474447e+02
<TRANSP> 5
 0.000000e+00 1.000000e+00 0.000000e+00 0.000000e+00 0.000000e+00
 0.000000e+00 3.289908e-01 6.710092e-01 0.000000e+00 0.000000e+00
 0.000000e+00 0.000000e+00 5.036301e-01 4.963699e-01 0.000000e+00
 0.000000e+00 0.000000e+00 0.000000e+00 3.436903e-01 6.563097e-01
 0.000000e+00 0.000000e+00 0.000000e+00 0.000000e+00 0.000000e+00
<ENDHMM>
~h "ay"
<BEGINHMM>
<NUMSTATES> 5
<STATE> 2
<MEAN> 39
 -2.463623e+00 -2.402175e+01 -4.802797e+00 -9.792416e+00 3.199726e+00 -1.459665e-01 -1.453794e+01 -5.688679e+00 -8.231794e+00 -5.028229e+00 -1.230200e+01 -2.282795e+00 5.986071e+01 -4.515448e-01 -9.959257e-01 7.023050e-01 2.913075e-01 6.579125e-01 1.994071e-01 5.513315e-01 9.601594e-01 -3.601295e-01 2.616075e-01 -6.262052e-01 4.786906e-01 4.186546e-01 -2.381780e-01 6.738150e-01 5.520411e-02 3.677021e-02 -4.304617e-01 -4.905051e-01 1.387897e-01 -3.852651e-02 -3.560993e-02 -3.527332e-01 2.154772e-01 8.177187e-02 -3.306437e-01
<VARIANCE> 39
 2.645682e+01 9.131550e+01 3.145737e+01 4.306755e+01 7.328071e+01 5.157153e+01 3.429066e+01 4.117514e+01 3.916917e+01 5.116668e+01 5.543605e+01 2.792022e+01 7.145853e+01 1.146030e+00 2.585609e+00 2.485185e+00 2.204714e+00 2.902182e+00 3.084968e+00 2.916944e+00 2.476151e+00 2.904834e+00 4.497140e+00 3.702175e+00 2.329873e+00 1.105089e+00 3.863107e-01 3.559617e-01 2.847523e-01 6.214300e-01 3.674597e-01 4.116818e-01 4.059335e-01 4.372709e-01 5.129969e-01 6.176762e-01 7.380294e-01 3.125967e-01 2.037651e-01
<GCONST> 1.216260e+02
<STATE> 3
<MEAN> 39
 -4.045777e+00 -2.351751e+01 -3.376500e+00 -8.905416e+00 1.825171e+00 -2.012381e+00 -1.334567e+01 -3.411299e+00 -9.902784e+00 -6.972727e+00 -1.263184e+01 -1.015961e+00 5.964461e+01 -3.947387e-01 2.108581e-01 5.364795e-01 -3.030229e-01 -4.318284e-01 -6.008298e-01 7.875133e-01 7.588553e-01 -4.804284e-01 -7.266428e-01 4.017029e-02 3.319817e-01 9.627186e-02 -1.903400e-04 3.309043e-01 3.723624e-02 -2.589171e-01 -2.939619e-01 -1.955745e-01 1.100186e-01 -8.701502e-02 -1.944593e-02 -1.074863e-02 1.978659e-01 -7.750855e-02 -8.493670e-02
<VARIANCE> 39
 2.533257e+01 1.103076e+02 3.139318e+01 4.167203e+01 7.306574e+01 5.395762e+01 4.164126e+01 6.071302e+01 4.782294e+01 4.623232e+01 6.177622e+01 3.093358e+01 9.428458e+01 1.588093e+00 1.515211e+00 2.754024e+00 1.957543e+00 2.303882e+00 2.297434e+00 2.945027e+00 2.620282e+00 3.322459e+00 3.065190e+00 3.577111e+00 2.790449e+00 1.001287e+00 2.625016e-01 2.147700e-01 2.581345e-01 2.495867e-01 4.062523e-01 3.962816e-01 3.861260e-01 4.619922e-01 5.151147e-01 5.376018e-01 5.856273e-01 3.727799e-01 1.500698e-01
<GCONST> 1.197315e+02
<STATE> 4
<MEAN> 39
 -4.071209e+00 -2.259833e+01 6.645883e-01 -1.350904e+01 -2.752153e+00 -5.037864e+00 -9.901030e+00 -2.154708e-01 -1.113799e+01 -6.348395e+00 -1.165530e+01 1.864830e-01 6.149861e+01 5.120468e-02 1.032625e+00 7.069204e-01 -7.647507e-01 -1.067720e+00 -8.491106e-01 2.891284e-01 -1.063994e-01 -1.478977e-01 2.321936e-03 3.354075e-01 6.707571e-04 -4.787943e-01 1.182364e-01 1.498318e-01 -5.790029e-02 2.963965e-02 -5.131841e-02 -5.934963e-02 -1.946360e-01 -1.636743e-01 6.369070e-02 7.104445e-02 -7.347785e-03 -4.701304e-02 -1.560895e-01
<VARIANCE> 39
 2.051322e+01 8.006758e+01 4.656112e+01 4.499413e+01 8.485429e+01 4.549585e+01 4.916521e+01 5.961847e+01 5.327900e+01 6.179122e+01 5.864189e+01 4.076443e+01 5.334113e+01 1.077804e+00 1.368203e+00 1.865741e+00 1.936591e+00 2.046629e+00 2.243896e+00 3.231322e+00 3.212922e+00 2.756604e+00 2.915889e+00 3.176908e+00 2.423365e+00 8.265378e-01 1.406334e-01 1.760963e-01 2.095913e-01 2.996261e-01 3.284923e-01 3.395515e-01 4.965123e-01 4.614617e-01 4.723275e-01 5.213707e-01 4.975663e-01 4.668146e-01 9.480337e-02
<GCONST> 1.169475e+02
<TRANSP> 5
 0.000000e+00 1.000000e+00 0.000000e+00 0.000000e+00 0.000000e+00
 0.000000e+00 5.611937e-01 4.388063e-01 0.000000e+00 0.000000e+00
 0.000000e+00 0.000000e+00 4.815783e-01 5.184217e-01 0.000000e+00
 0.000000e+00 0.000000e+00 0.000000e+00 8.505027e-01 1.494973e-01
 0.000000e+00 0.000000e+00 0.000000e+00 0.000000e+00 0.000000e+00
<ENDHMM>
~h "ch"
<BEGINHMM>
<NUMSTATES> 5
<STATE> 2
<MEAN> 39
 -5.180006e-01 2.448829e+00 -2.361843e+00 -4.149711e+00 -8.668663e+00 -1.127979e+01 -1.551798e+01 -1.411993e+01 -1.207201e+01 -1.134031e+01 -1.091339e+01 -5.143655e+00 4.407840e+01 -5.798429e-01 -1.540810e+00 2.012572e+00 -9.050783e-01 -1.315410e-01 -1.726511e+00 -3.344947e-01 -1.158622e+00 -3.809714e-01 4.681593e-01 -1.946020e-01 9.404736e-01 2.916185e+00 -1.249627e+00 -1.033074e+00 3.624086e-01 -4.445518e-01 2.914113e-01 9.230736e-01 7.511099e-01 1.767446e-01 3.775573e-01 6.081498e-01 5.191477e-02 1.394619e-01 8.370132e-01
<VARIANCE> 39
 5.116621e+01 3.241269e+01 1.823124e+01 6.530306e+01 1.399396e+01 4.849632e+01 4.995167e+01 6.971244e+01 1.979568e+01 2.369671e+01 2.941743e+01 2.553014e+01 3.895598e+01 1.843202e+01 6.117371e+00 1.866447e+00 2.417496e+00 1.509430e+00 5.082697e+00 1.197095e+01 2.193629e+00 3.771097e+00 2.806666e+00 1.419464e+00 3.086847e+00 1.231993e+01 1.508765e+00 7.950927e-01 5.395089e-01 5.813583e-01 3.577079e-01 9.195250e-01 1.573751e+00 7.622837e-01 3.622353e-01 3.320023e-01 2.449292e-01 4.389742e-01 1.017044e+00
<GCONST> 1.289302e+02
<STATE> 3
<MEAN> 39
 -1.180475e+01 -8.999869e-01 8.148943e+00 -1.247070e+01 -8.891523e+00 -8.414712e+00 -1.236608e+01 -2.065375e+01 -1.519824e+01 -7.713947e+00 -1.361019e+01 -6.218498e+00 5.297375e+01 -1.011278e+00 5.290050e-01 5.809359e-01 -8.235322e-01 1.354095e-02 -3.884628e-02 2.511022e-01 1.641951e-01 -4.043626e-02 1.099389e-01 -1.774312e-01 -5.517910e-01 4.240451e-01 3.158078e-03 3.005989e-01 -2.203353e-01 2.217766e-01 1.309248e-02 2.780678e-02 -8.116871e-02 1.444223e-01 6.500418e-02 -9.637237e-02 8.530967e-02 -8.595353e-02 -2.939688e-01
<VARIANCE> 39
 3.603069e+01 5.562457e+01 4.975400e+01 1.065930e+02 4.737786e+01 2.094427e+01 3.808602e+01 6.205016e+01 1.636970e+01 1.027502e+02 4.686037e+01 6.056307e+01 7.590784e+01 7.023143e+00 4.514143e+00 4.417408e+00 9.003584e+00 6.809883e+00 3.297237e+00 4.123375e+00 4.247090e+00 1.674751e+00 8.796499e+00 3.868735e+00 6.546651e+00 7.792629e+00 1.471823e+00 6.787082e-01 5.955591e-01 1.367174e+00 1.520067e+00 9.794095e-01 7.352316e-01 8.160565e-01 3.109938e-01 1.420309e+00 7.893878e-01 1.298457e+00 1.276746e+00
<GCONST> 1.424537e+02
<STATE> 4
<MEAN> 39
 -1.670642e+01 4.275060e-02 2.097749e+00 -1.144740e+01 -9.846340e+00 -1.113027e+01 -9.603935e+00 -7.976431e+00 -7.452890e+00 -6.958560e+00 -4.612144e+00 -4.499696e+00 5.336365e+01 3.950170e-01 -8.736749e-01 -1.548102e-01 1.412268e-01 -1.223138e-01 3.037244e-01 2.806392e-03 2.202990e-01 3.690254e-01 2.234100e-01 3.188110e-01 1.923629e-01 -4.445226e-02 1.670204e-01 -1.599264e-01 1.232215e-02 -3.688435e-02 7.226205e-02 1.181629e-02 8.277042e-03 -6.314810e-02 -6.021561e-02 -2.330414e-02 -1.198442e-01 1.441164e-02 9.418478e-02
<VARIANCE> 39
 1.373759e+02 1.132177e+02 1.408024e+02 4.636472e+01 9.668483e+01 1.027231e+02 3.723982e+01 6.628734e+01 7.294769e+01 6.480101e+01 6.924477e+01 2.836809e+01 3.325659e+01 1.273008e+01 9.742140e+00 4.787433e+00 3.753006e+00 6.371195e+00 8.971466e+00 4.224616e+00 6.791415e+00 5.592330e+00 3.153944e+00 5.308193e+00 3.494159e+00 4.921693e+00 1.897697e+00 2.025664e+00 6.292045e-01 6.226950e-01 1.111870e+00 1.541879e+00 7.955311e-01 1.275528e+00 9.236044e-01 5.219668e-01 7.098808e-01 7.016774e-01 1.032161e+00
<GCONST> 1.487400e+02
<TRANSP> 5
 0.000000e+00 1.000000e+00 0.000000e+00 0.000000e+00 0.000000e+00
 0.000000e+00 5.737993e-01 4.262007e-01 0.000000e+00 0.000000e+00
 0.000000e+00 0.000000e+00 9.033257e-01 9.667430e-02 0.000000e+00
 0.000000e+00 0.000000e+00 0.000000e+00 9.586773e-01 4.132271e-02
 0.000000e+00 0.000000e+00 0.000000e+00 0.000000e+00 0.000000e+00
<ENDHMM>
~h "dh"
<BEGINHMM>
<NUMSTATES> 5
<STATE> 2
<MEAN> 39
 -3.399616e+00 -9.996916e+00 -5.120296e+00 -9.528570e+00 -8.329937e+00 -6.874355e+00 -1.240348e+01 -4.254565e+00 -7.621625e+00 -2.724119e+00 -5.136316e+00 -2.523881e+00 4.850949e+01 1.009127e-01 8.890097e-02 -3.476319e-01 6.156682e-01 1.034034e-01 3.304850e-01 8.116549e-02 -1.182984e-02 5.393191e-02 -2.513498e-01 4.190417e-02 -1.476623e-01 -6.390423e-01 2.896989e-02 8.632214e-02 -2.492259e-02 1.872599e-02 2.494693e-03 -3.430063e-02 4.083919e-03 -1.736804e-01 -6.912772e-02 -1.715521e-01 -2.307456e-02 -7.913045e-02 -5.349595e-02
<VARIANCE> 39
 8.350451e+01 1.124647e+02 1.528439e+02 8.619212e+01 9.827361e+01 9.461732e+01 6.951707e+01 1.095424e+02 5.298597e+01 6.457304e+01 5.836690e+01 3.225330e+01 1.395645e+02 1.054525e+00 2.017047e+00 2.443341e+00 2.206496e+00 2.925912e+00 2.662117e+00 3.087309e+00 2.984823e+00 1.713442e+00 2.354581e+00 2.617644e+00 1.874342e+00 1.354453e+00 2.100176e-01 3.028968e-01 3.515579e-01 3.216065e-01 6.097148e-01 4.468110e-01 5.367845e-01 6.034541e-01 3.770526e-01 4.676086e-01 4.785005e-01 3.033127e-01 2.340555e-01
<GCONST> 1.265247e+02
<STATE> 3
<MEAN> 39
 -5.885209e+00 -5.344531e+00 -5.226512e+00 -5.897339e+00 -6.272833e+00 -5.015564e+00 -1.015216e+01 -8.013732e+00 -7.448020e+00 -5.990054e+00 -7.566290e+00 -5.391089e+00 4.277855e+01 1.100552e-01 3.402424e-01 -2.571273e-01 4.131307e-01 6.627309e-02 3.195611e-01 3.456541e-01 -4.070722e-01 -1.926618e-01 -6.236862e-01 -9.721532e-02 -4.121001e-01 -9.081565e-01 -3.071392e-02 3.956825e-03 7.663522e-02 -1.498255e-01 -6.269424e-02 -2.214866e-01 -8.318776e-02 -2.147947e-01 -2.674203e-02 -5.569991e-02 1.899044e-02 -7.670784e-03 1.850782e-01
<VARIANCE> 39
 9.031142e+01 1.246864e+02 4.987562e+01 4.616813e+01 6.559611e+01 7.559841e+01 7.932326e+01 9.807980e+01 5.751004e+01 5.062959e+01 6.202532e+01 4.248065e+01 1.581132e+02 1.166940e+00 2.367528e+00 1.855514e+00 1.581638e+00 1.907629e+00 2.592407e+00 2.828732e+00 3.416941e+00 2.580931e+00 2.453581e+00 1.991437e+00 1.994294e+00 2.330525e+00 3.214777e-01 3.428672e-01 2.918793e-01 2.615097e-01 5.578916e-01 5.094726e-01 6.347696e-01 6.946801e-01 5.968156e-01 6.177085e-01 4.683633e-01 4.247279e-01 3.278347e-01
<GCONST> 1.265809e+02
<STATE> 4
<MEAN> 39
 -1.293429e+01 -6.171101e+00 -7.205615e+00 -4.101995e+00 -3.997762e+00 -1.519229e+00 -4.588926e+00 -5.211724e+00 -3.851643e+00 -5.764054e+00 -4.071954e+00 -2.071127e+00 3.211900e+01 -1.180014e-01 1.307523e-02 -4.565245e-02 7.455371e-02 1.775181e-01 1.165235e-01 1.707366e-02 -1.246838e-01 -5.501022e-02 -1.529771e-02 7.047363e-02 -2.239920e-02 -3.224036e-01 2.667101e-03 3.927005e-02 7.740028e-02 -2.494336e-02 -2.558857e-02 -1.234113e-01 -8.625718e-02 -2.757330e-02 -2.092368e-02 -2.093570e-02 -1.836292e-03 1.616202e-02 1.084572e-01
<VARIANCE> 39
 4.634035e+01 4.176482e+01 2.273790e+01 1.866276e+01 2.867430e+01 4.191091e+01 4.146951e+01 5.405457e+01 3.178900e+01 3.357792e+01 2.745372e+01 2.781830e+01 7.792419e+01 1.060547e+00 1.146133e+00 1.232591e+00 1.175208e+00 2.219102e+00 2.443582e+00 2.281899e+00 3.008109e+00 2.336613e+00 2.661751e+00 1.980422e+00 1.567112e+00 1.173500e+00 1.773497e-01 1.877880e-01 2.269623e-01 2.317247e-01 4.573112e-01 4.074157e-01 5.022599e-01 5.447686e-01 4.521686e-01 4.688159e-01 3.901176e-01 3.030333e-01 2.165626e-01
<GCONST> 1.108322e+02
<TRANSP> 5
 0.000000e+00 1.000000e+00 0.000000e+00 0.000000e+00 0.000000e+00
 0.000000e+00 5.778052e-01 4.221949e-01 0.000000e+00 0.000000e+00
 0.000000e+00 0.000000e+00 3.205447e-01 6.794553e-01 0.000000e+00
 0.000000e+00 0.000000e+00 0.000000e+00 8.237746e-01 1.762254e-01
 0.000000e+00 0.000000e+00 0.000000e+00 0.000000e+00 0.000000e+00
<ENDHMM>
~h "ea"
<BEGINHMM>
<NUMSTATES> 5
<STATE> 2
<MEAN> 39
 -8.658377e+00 -5.298284e+00 3.071317e-01 -9.160736e+00 -8.462189e+00 -1.198135e+01 -9.192030e+00 -9.192750e+00 -9.517984e+00 -6.640431e+00 -5.788277e+00 -2.012665e+00 4.481878e+01 1.013106e+00 -2.613323e+00 1.967922e+00 -2.442586e+00 -9.434596e-01 -1.601175e+00 -6.655665e-02 4.053475e-01 -8.505049e-01 6.116802e-01 -2.230920e-01 6.858114e-01 4.496670e+00 5.732019e-02 -6.300468e-01 1.881295e-01 -3.203366e-01 1.223981e-01 2.839372e-01 4.291577e-01 3.250905e-01 -1.511311e-01 1.389902e-02 -4.256161e-01 -1.397919e-01 2.521660e-01
<VARIANCE> 39
 5.439150e+01 1.037517e+02 6.853962e+01 1.083620e+02 7.503284e+01 6.647833e+01 4.306137e+01 7.908869e+01 3.652724e+01 3.890246e+01 4.571663e+01 4.211495e+01 1.954179e+02 5.975222e+00 9.113578e+00 7.036688e+00 1.206701e+01 5.796669e+00 5.099358e+00 4.393384e+00 8.213325e+00 5.500691e+00 5.759767e+00 6.766386e+00 4.154493e+00 1.207960e+01 1.226889e+00 1.383315e+00 1.789945e+00 2.395069e+00 1.424531e+00 1.178021e+00 6.816271e-01 1.153206e+00 9.256998e-01 8.493748e-01 8.504086e-01 7.111527e-01 3.444889e+00
<GCONST> 1.534232e+02
<STATE> 3
<MEAN> 39
 -5.935657e+00 -2.104548e+01 7.870252e+00 -1.945157e+01 -9.236874e+00 -1.001250e+01 -5.041023e+00 -2.912807e+00 -1.267434e+01 -3.946372e+00 -1.107149e+01 -3.124300e+00 6.188467e+01 2.616107e-01 -1.582784e+00 -1.346973e-01 5.265393e-01 2.491134e-01 5.228545e-01 1.013949e+00 1.125119e+00 -3.578698e-01 1.632436e-03 -5.184435e-01 -8.521807e-01 5.138279e-01 1.037996e-01 5.830233e-01 -3.499832e-01 5.465519e-01 -2.045802e-01 -2.473615e-01 -1.345423e-01 -5.429703e-02 1.406719e-02 -1.105614e-01 2.598704e-01 -1.315264e-02 -6.245979e-01
<VARIANCE> 39
 2.021807e+01 2.393331e+01 3.964914e+01 7.566791e+01 5.673059e+01 5.876628e+01 2.030481e+01 2.306204e+01 1.993538e+01 2.717295e+01 5.730775e+01 5.937125e+01 2.173467e+01 9.096441e-01 2.011209e+00 1.000262e+00 1.882780e+00 1.576601e+00 2.699159e+00 1.175484e+00 2.400630e+00 1.734747e+00 2.200668e+00 1.664267e+00 3.042563e+00 7.343681e-01 1.677810e-01 4.823864e-01 3.520257e-01 5.893147e-01 2.631595e-01 4.470354e-01 3.048212e-01 4.976761e-01 3.552308e-01 3.941810e-01 4.622873e-01 6.135001e-01 4.104698e-01
<GCONST> 1.117785e+02
<STATE> 4
<MEAN> 39
 -1.385555e-01 -2.246061e+01 -1.047258e+00 -8.249499e+00 -8.355695e+00 -1.497618e+01 -3.068176e+00 5.196650e-01 -1.219818e+01 -8.863855e+00 -9.679516e+00 -5.606544e+00 5.681885e+01 3.426162e-02 7.229910e-01 -2.812610e-01 3.618684e-01 -2.275209e-01 -2.487493e-02 -1.310390e-01 -4.394897e-01 5.620828e-02 -4.637349e-01 5.884058e-02 -2.749950e-02 -7.164884e-01 -6.732251e-02 1.213510e-01 6.878212e-03 -7.989866e-02 1.642754e-02 9.471154e-02 -4.052825e-02 -9.188740e-02 7.254849e-02 1.874360e-02 4.096571e-03 5.878106e-02 -8.167101e-02
<VARIANCE> 39
 2.662970e+01 8.918323e+01 8.104903e+01 5.987661e+01 8.904665e+01 4.305951e+01 2.213877e+01 4.401276e+01 5.550328e+01 3.915095e+01 3.087935e+01 2.500481e+01 7.034941e+01 1.737325e+00 2.852345e+00 2.765412e+00 3.510834e+00 3.529574e+00 2.935833e+00 1.466939e+00 3.700102e+00 2.881288e+00 2.323725e+00 2.491963e+00 2.485935e+00 1.015035e+00 1.998221e-01 3.281257e-01 3.501038e-01 4.955417e-01 6.282058e-01 3.800018e-01 3.152521e-01 5.564908e-01 5.938815e-01 4.331142e-01 4.241719e-01 4.534185e-01 9.994991e-02
<GCONST> 1.203419e+02
<TRANSP> 5
 0.000000e+00 1.000000e+00 0.000000e+00 0.000000e+00 0.000000e+00
 0.000000e+00 7.514011e-01 2.485989e-01 0.000000e+00 0.000000e+00
 0.000000e+00 0.000000e+00 7.117225e-01 2.882775e-01 0.000000e+00
 0.000000e+00 0.000000e+00 0.000000e+00 9.313878e-01 6.861221e-02
 0.000000e+00 0.000000e+00 0.000000e+00 0.000000e+00 0.000000e+00
<ENDHMM>
~h "eh"
<BEGINHMM>
<NUMSTATES> 5
<STATE> 2
<MEAN> 39
 -9.249263e+00 -2.139837e+00 -7.722072e+00 -4.775492e+00 -8.238647e+00 -9.795759e+00 -1.090159e+01 -1.162801e+01 -5.215335e+00 -7.647640e+00 -4.892191e+00 -5.726552e+00 4.245252e+01 1.748618e+00 -2.415842e+00 8.386954e-01 -1.827152e+00 1.078844e-01 -6.806189e-01 -1.210432e+00 4.929891e-01 -5.264136e-01 -1.977419e-01 -1.424709e+00 5.313416e-01 2.679308e+00 1.548494e-01 -5.836217e-01 4.292024e-01 -3.859024e-01 6.592025e-02 7.017956e-02 4.157407e-02 4.532171e-01 -1.165156e-01 -9.226162e-03 -5.225115e-01 2.677714e-01 5.970521e-01
<VARIANCE> 39
 7.941141e+01 8.911470e+01 5.599348e+01 6.022391e+01 3.988235e+01 7.216235e+01 7.469059e+01 7.322533e+01 5.510119e+01 5.781701e+01 5.490996e+01 4.627575e+01 8.032436e+01 8.927897e+00 9.106222e+00 7.285636e+00 8.754533e+00 6.051480e+00 7.720814e+00 6.448868e+00 5.201385e+00 5.908587e+00 4.713943e+00 9.341926e+00 5.499052e+00 1.057479e+01 1.435492e+00 1.259889e+00 1.004813e+00 1.457955e+00 1.069538e+00 1.374921e+00 1.133659e+00 1.092129e+00 9.476251e-01 7.438263e-01 1.436769e+00 9.405509e-01 1.618663e+00
<GCONST> 1.530714e+02
<STATE> 3
<MEAN> 39
 -2.926901e+00 -1.825687e+01 -8.334980e-01 -1.426688e+01 -5.081472e+00 -9.900845e+00 -1.125053e+01 -1.716732e+00 -1.007784e+01 -7.016358e+00 -1.485180e+01 -1.095915e+00 5.895946e+01 4.428711e-01 -2.197308e+00 1.433731e+00 -1.295858e+00 1.953548e-01 1.432535e-01 8.140424e-01 1.371454e+00 -1.039546e+00 -3.165860e-01 -1.505329e+00 2.767723e-01 2.087458e+00 -3.141481e-01 8.983180e-01 -2.074170e-01 4.354071e-01 -1.683492e-01 1.490948e-01 2.492975e-01 -4.830325e-01 1.288067e-01 3.936189e-02 4.878314e-01 -4.619920e-01 -7.960443e-01
<VARIANCE> 39
 2.349414e+01 8.020457e+01 6.706400e+01 6.405673e+01 6.937016e+01 7.306974e+01 6.256715e+01 4.754271e+01 4.479225e+01 6.924798e+01 5.194426e+01 6.386602e+01 5.105440e+01 3.184141e+00 1.024123e+01 4.063835e+00 7.573108e+00 5.877362e+00 7.834068e+00 4.397106e+00 8.038946e+00 3.843981e+00 5.007840e+00 5.657347e+00 5.949780e+00 7.110308e+00 6.549618e-01 1.246569e+00 7.664964e-01 1.015037e+00 8.680176e-01 1.318598e+00 8.298879e-01 1.003167e+00 7.604726e-01 1.067003e+00 1.013521e+00 9.545267e-01 7.818906e-01
<GCONST> 1.459436e+02
<STATE> 4
<MEAN> 39
 -2.998304e+00 -1.296355e+01 1.554429e+00 -1.432935e+01 -1.099781e+01 -1.183477e+01 -8.438289e+00 -3.858741e+00 -9.232007e+00 -8.435187e+00 -1.441909e+01 -5.033981e+00 5.497364e+01 -4.744018e-01 8.281369e-01 -2.022568e-01 1.106131e-01 1.064082e-01 9.580497e-03 8.540583e-02 -3.834924e-01 3.407033e-01 -1.101479e-01 2.314963e-01 -2.729686e-01 -2.695791e-01 -1.102501e-01 1.790272e-01 -2.055378e-01 1.362750e-01 1.675322e-01 1.995108e-02 -3.974986e-02 -1.253129e-01 5.359878e-02 5.195254e-02 1.597884e-01 6.613383e-02 -1.069030e-01
<VARIANCE> 39
 4.003059e+01 1.058659e+02 6.028129e+01 9.183665e+01 9.062910e+01 7.054845e+01 6.884274e+01 4.650891e+01 5.328397e+01 5.418299e+01 5.108995e+01 5.354730e+01 7.625685e+01 4.397619e+00 9.050156e+00 5.180865e+00 7.403188e+00 7.297241e+00 6.312228e+00 6.058268e+00 5.626728e+00 4.630886e+00 5.670141e+00 4.608846e+00 4.615997e+00 5.345683e+00 6.277091e-01 1.258177e+00 7.972922e-01 1.141093e+00 1.176931e+00 1.178958e+00 1.057283e+00 9.483978e-01 8.050766e-01 9.085218e-01 8.831011e-01 7.582019e-01 7.121387e-01
<GCONST> 1.473366e+02
<TRANSP> 5
 0.000000e+00 1.000000e+00 0.000000e+00 0.000000e+00 0.000000e+00
 0.000000e+00 7.180296e-01 2.819705e-01 0.000000e+00 0.000000e+00
 0.000000e+00 0.000000e+00 6.984277e-01 3.015724e-01 0.000000e+00
 0.000000e+00 0.000000e+00 0.000000e+00 8.485486e-01 1.514514e-01
 0.000000e+00 0.000000e+00 0.000000e+00 0.000000e+00 0.000000e+00
<ENDHMM>
~h "er"
<BEGINHMM>
<NUMSTATES> 5
<STATE> 2
<MEAN> 39
 -1.022488e+01 1.547637e+00 -1.191048e+01 -9.293987e+00 -1.227520e+01 -1.546716e+01 -9.232576e+00 -4.220334e+00 -2.881516e+00 -8.593674e+00 -7.982758e+00 -3.236281e+00 4.660859e+01 -1.213233e+00 6.430274e-01 -4.161894e-01 7.220229e-02 2.323905e-01 6.575623e-01 3.260389e-01 -4.657019e-01 4.159784e-01 4.655266e-01 4.465269e-01 -6.558233e-02 -9.322002e-01 1.680464e-01 -6.062454e-01 7.113485e-01 -1.124687e-01 1.151118e-01 2.331952e-02 1.210080e-02 -5.403635e-02 -2.400467e-01 2.505687e-01 -1.095596e-02 1.577706e-01 3.094086e-02
<VARIANCE> 39
