~o
<STREAMINFO> 1 39
<VECSIZE> 39<NULLD><MFCC_D_A_0><DIAGC>
~s "silst"
<MEAN> 39
 -1.706884e+01 -5.434281e+00 -7.214041e+00 -3.000059e+00 -3.092147e+00 6.585721e-01 -6.953616e-01 -1.815742e+00 -2.501032e+00 -3.853831e+00 -2.800889e+00 -1.254769e+00 2.556029e+01 -1.685325e-01 -1.480750e-02 -2.771760e-02 -3.073929e-03 9.710610e-03 2.186056e-02 1.450452e-03 2.694423e-02 2.804232e-02 1.461633e-01 7.442075e-02 6.408976e-02 -2.455933e-01 8.009142e-03 2.792301e-02 4.075461e-02 2.250740e-02 2.658193e-02 -7.225950e-03 1.180733e-02 1.506782e-02 2.309720e-02 8.841177e-03 1.830756e-02 1.830189e-02 1.954564e-02
<VARIANCE> 39
 4.883636e+00 8.014151e+00 8.741284e+00 1.046431e+01 1.309356e+01 1.541464e+01 1.707453e+01 2.301775e+01 1.800382e+01 1.991899e+01 1.773206e+01 1.476254e+01 8.848973e+00 2.324876e-01 4.781116e-01 7.138132e-01 1.008504e+00 1.363286e+00 1.646432e+00 1.814302e+00 2.016734e+00 1.878973e+00 1.851471e+00 1.678418e+00 1.454437e+00 1.905133e-01 4.397599e-02 8.727069e-02 1.397126e-01 1.838977e-01 2.680773e-01 3.171697e-01 3.605182e-01 4.137069e-01 3.771484e-01 3.833063e-01 3.443680e-01 2.921817e-01 3.640744e-02
<GCONST> 8.369755e+01
~h "b"
<BEGINHMM>
<NUMSTATES> 5
<STATE> 2
<MEAN> 39
 4.944122e+00 -1.660320e+01 -1.545374e+01 -6.847056e+00 -1.701940e+00 -6.243338e+00 -1.408124e+01 -9.790033e-01 -8.466894e+00 -7.106799e+00 -3.558612e+00 -8.114583e+00 5.236441e+01 5.168285e-02 2.451618e-01 3.749058e-01 7.772500e-01 -7.298973e-01 -8.975930e-01 1.150966e-01 4.033870e-01 2.625722e-01 -9.202266e-01 -2.762110e-01 -1.766796e-01 -4.244996e-01 -7.105182e-02 1.309063e-01 1.193913e-01 -5.018010e-02 -6.341196e-02 3.850856e-02 8.011716e-02 -9.707971e-02 -3.149885e-02 -4.421525e-02 2.528219e-03 7.208548e-02 -7.949755e-02
<VARIANCE> 39
 2.132978e+01 5.559963e+01 5.597614e+01 5.476547e+01 9.081850e+01 1.825140e+02 4.273604e+01 8.382594e+01 3.278765e+01 9.345863e+01 4.012999e+01 1.563229e+01 3.148611e+01 5.810213e-01 2.737061e+00 1.704067e+00 2.113477e+00 2.838269e+00 3.164509e+00 2.960535e+00 4.307326e+00 2.863856e+00 2.783649e+00 2.211155e+00 1.818292e+00 8.420013e-01 8.494756e-02 2.408758e-01 1.845489e-01 3.835688e-01 4.269498e-01 3.780477e-01 4.091770e-01 4.820753e-01 4.439110e-01 4.848192e-01 3.509723e-01 1.987305e-01 7.758224e-02
<GCONST> 1.156433e+02
<STATE> 3
<MEAN> 39
 1.740831e+00 -4.734871e+00 -2.961103e+00 -6.921768e+00 -1.417519e+01 -1.283733e+01 -1.037487e+01 -5.399401e+00 -6.535161e+00 -1.482513e+01 -1.165888e+01 -8.600384e+00 4.510775e+01 -9.272500e-01 1.748489e+00 2.385521e-01 -5.132043e-02 2.043593e-01 7.988974e-01 5.656517e-01 -6.708465e-01 2.367944e-01 2.635467e-01 -1.911920e-01 -3.516815e-01 -1.648018e+00 -2.794697e-01 -2.233507e-01 -1.252097e-01 4.368073e-02 3.766621e-01 1.876184e-01 -8.232574e-02 -1.015176e-01 -4.728402e-02 4.313438e-01 3.872078e-01 1.048944e-01 1.950470e-02
<VARIANCE> 39
 3.922046e+01 6.122986e+01 4.099981e+01 4.002917e+01 5.598343e+01 3.425036e+01 2.556523e+01 6.512557e+01 3.186244e+01 4.223595e+01 7.758035e+01 4.066141e+01 3.471498e+01 1.232090e+00 1.876310e+00 3.372990e+00 2.561854e+00 1.975857e+00 3.251733e+00 2.827136e+00 3.710077e+00 3.483417e+00 4.908557e+00 3.013233e+00 3.065874e+00 5.942625e-01 1.846900e-01 4.385895e-01 4.486497e-01 5.165395e-01 4.321092e-01 4.385071e-01 5.940241e-01 6.981701e-01 6.840244e-01 6.954331e-01 6.112876e-01 7.793565e-01 1.381135e-01
<GCONST> 1.224128e+02
<STATE> 4
<MEAN> 39
 -5.659675e+00 -1.055907e+00 -5.773849e+00 -8.053155e+00 -1.108914e+01 -6.737437e+00 -7.661703e+00 -1.078814e+01 -9.125062e+00 -1.120401e+01 -1.007804e+01 -6.854626e+00 3.596891e+01 -1.243478e+00 -1.678822e-01 6.359421e-02 7.424788e-01 8.646490e-01 6.054518e-01 4.110226e-01 2.956900e-02 -7.890696e-02 5.193479e-02 6.296942e-01 4.872779e-01 -9.321335e-01 2.739630e-02 -3.593179e-01 2.953326e-01 3.066976e-02 -1.078433e-01 -2.641685e-01 -2.460741e-01 9.559429e-02 3.898057e-02 -3.307529e-02 2.594416e-01 2.345683e-01 4.272106e-01
<VARIANCE> 39
 4.111106e+01 3.232602e+01 2.409090e+01 2.641577e+01 4.323838e+01 3.003775e+01 2.049803e+01 3.716135e+01 3.692565e+01 3.040420e+01 3.631456e+01 2.957371e+01 3.532521e+01 6.569679e-01 1.620392e+00 2.135069e+00 1.303798e+00 1.182409e+00 1.577612e+00 2.025962e+00 3.703655e+00 3.428198e+00 2.496686e+00 2.722123e+00 2.173909e+00 5.492044e-01 2.782298e-01 3.514484e-01 4.781904e-01 2.494695e-01 4.286600e-01 4.391885e-01 6.114429e-01 7.692189e-01 6.669519e-01 6.429581e-01 6.467792e-01 5.796429e-01 2.640710e-01
<GCONST> 1.137132e+02
<TRANSP> 5
 0.000000e+00 1.000000e+00 0.000000e+00 0.000000e+00 0.000000e+00
 0.000000e+00 8.132038e-01 1.867962e-01 0.000000e+00 0.000000e+00
 0.000000e+00 0.000000e+00 6.515574e-01 3.484426e-01 0.000000e+00
 0.000000e+00 0.000000e+00 0.000000e+00 6.955071e-01 3.044929e-01
 0.000000e+00 0.000000e+00 0.000000e+00 0.000000e+00 0.000000e+00
<ENDHMM>
~h "d"
<BEGINHMM>
<NUMSTATES> 5
<STATE> 2
<MEAN> 39
 -6.069944e+00 4.384822e-01 -2.324486e+00 -6.015351e+00 -1.038978e+01 -1.010719e+01 -9.148818e+00 -1.153942e+01 -9.724118e+00 -1.092107e+01 -7.349886e+00 -5.497585e+00 3.998108e+01 -1.804367e+00 -4.007333e-01 1.940554e-01 -3.002581e-01 1.327330e+00 -3.371496e-01 6.427608e-02 -8.161166e-01 4.699185e-01 4.908768e-01 9.169132e-01 4.690885e-01 1.076312e+00 -2.092774e-01 -4.273582e-01 3.261906e-01 -7.329203e-01 2.699885e-01 -3.557132e-01 -1.871008e-01 1.454718e-01 8.831795e-02 4.671075e-01 1.459804e-01 4.459726e-01 9.853775e-01
<VARIANCE> 39
 5.354755e+01 4.652489e+01 4.262719e+01 3.760977e+01 5.364331e+01 4.074383e+01 4.650274e+01 6.332949e+01 4.615419e+01 4.282747e+01 5.078221e+01 3.014856e+01 7.253371e+01 5.923259e+00 6.607567e+00 6.648483e+00 5.331292e+00 7.357660e+00 5.361725e+00 4.708857e+00 5.950485e+00 4.746983e+00 4.189845e+00 4.022829e+00 4.025558e+00 7.730873e+00 9.454005e-01 8.970755e-01 8.297932e-01 6.633741e-01 1.188952e+00 6.825017e-01 8.664837e-01 1.122477e+00 7.956248e-01 6.490118e-01 7.174544e-01 7.442711e-01 8.236805e-01
<GCONST> 1.413443e+02
<STATE> 3
<MEAN> 39
 -1.215512e+01 -6.016096e+00 8.388358e-02 -1.203044e+01 -4.435452e+00 -1.391063e+01 -1.145014e+01 -1.159375e+01 -7.618940e+00 -5.537422e+00 -3.875798e+00 1.503479e-01 5.152156e+01 1.405278e-01 -1.204533e+00 1.005665e+00 -1.344898e+00 -1.234338e-01 -9.604396e-01 -3.573197e-01 1.394807e+00 4.473252e-01 9.711992e-01 -7.961929e-03 9.941397e-01 1.992970e+00 6.974104e-01 2.126525e-01 -6.643038e-02 4.438211e-01 -3.989902e-01 4.033016e-01 1.910478e-01 4.309474e-01 2.088652e-02 -2.479501e-01 -5.372903e-01 -3.904437e-01 -8.179305e-01
<VARIANCE> 39
 8.451001e+01 7.928632e+01 7.865134e+01 6.394738e+01 7.839577e+01 8.685147e+01 9.855189e+01 9.363177e+01 5.893926e+01 5.007225e+01 5.728255e+01 4.339494e+01 4.836315e+01 9.220513e+00 7.665055e+00 5.958512e+00 7.428477e+00 8.125700e+00 7.060878e+00 1.059734e+01 8.526025e+00 6.412100e+00 5.271594e+00 6.057228e+00 5.100517e+00 9.285399e+00 1.418428e+00 1.258831e+00 1.337394e+00 1.107510e+00 1.988004e+00 1.569759e+00 1.641573e+00 1.761214e+00 1.104017e+00 9.399992e-01 1.036405e+00 1.086166e+00 1.199332e+00
<GCONST> 1.559439e+02
<STATE> 4
<MEAN> 39
 -6.141714e+00 -7.064420e+00 1.585237e+00 -9.910215e+00 -8.335691e+00 -1.436715e+01 -9.811589e+00 -5.083878e+00 -8.443926e+00 -7.557694e+00 -7.966201e+00 -1.865924e+00 4.813397e+01 2.319776e-01 7.567072e-01 -1.556642e-01 5.110164e-01 -4.556967e-01 8.917630e-01 5.571650e-01 3.472446e-01 5.030187e-01 -3.030301e-01 -3.339136e-01 -8.873272e-01 -1.431171e+00 -1.742805e-01 1.180972e-01 -2.261752e-01 1.181258e-01 5.893585e-02 1.885615e-01 -1.059527e-01 -3.609909e-01 -7.334726e-02 -7.408968e-02 8.260691e-02 -1.095558e-01 -1.368251e-01
<VARIANCE> 39
 5.857391e+01 9.349588e+01 7.016567e+01 5.600611e+01 5.486047e+01 8.110418e+01 7.740932e+01 5.203862e+01 8.327969e+01 5.076519e+01 6.389645e+01 5.041354e+01 1.034015e+02 2.652316e+00 3.903003e+00 4.451775e+00 3.484135e+00 4.182236e+00 4.506406e+00 3.713248e+00 5.996089e+00 4.786015e+00 4.275732e+00 3.884434e+00 3.831661e+00 2.411730e+00 5.242580e-01 6.890018e-01 8.052498e-01 6.133907e-01 7.548392e-01 8.747543e-01 9.634775e-01 9.027542e-01 8.459842e-01 8.627508e-01 6.905079e-01 8.549985e-01 5.787650e-01
<GCONST> 1.403793e+02
<TRANSP> 5
 0.000000e+00 1.000000e+00 0.000000e+00 0.000000e+00 0.000000e+00
 0.000000e+00 6.441828e-01 3.558171e-01 0.000000e+00 0.000000e+00
 0.000000e+00 0.000000e+00 6.589501e-01 3.410499e-01 0.000000e+00
 0.000000e+00 0.000000e+00 0.000000e+00 7.127921e-01 2.872079e-01
 0.000000e+00 0.000000e+00 0.000000e+00 0.000000e+00 0.000000e+00
<ENDHMM>
~h "f"
<BEGINHMM>
<NUMSTATES> 5
<STATE> 2
<MEAN> 39
 -1.622452e+01 -4.415889e+00 -3.053813e+00 -9.609739e+00 -6.476223e+00 -9.069612e+00 -4.091678e+00 -8.328501e+00 -5.930343e+00 -1.280929e+01 -8.636043e+00 -5.574289e+00 4.465600e+01 -2.009325e-01 -1.975080e-01 7.863920e-01 5.045944e-01 -7.020140e-02 -9.227616e-01 -9.570762e-01 -6.351718e-01 -5.679810e-01 -1.048529e-01 1.975438e-01 4.952292e-01 -8.733992e-02 5.508757e-01 -1.703415e-01 3.928470e-02 1.706603e-02 -1.464096e-01 -2.347292e-01 -6.421281e-01 -1.896869e-01 -3.005594e-01 1.321267e-01 -9.002278e-02 1.185525e-01 2.838143e-01
<VARIANCE> 39
 4.100956e+01 2.413966e+01 6.725940e+01 4.692261e+01 2.594921e+01 4.790383e+01 3.192042e+01 3.403980e+01 3.902353e+01 5.562373e+01 4.004424e+01 2.926655e+01 7.931932e+01 7.656245e+00 3.308359e+00 3.105019e+00 3.736342e+00 3.117046e+00 5.857018e+00 6.073088e+00 5.187104e+00 2.891267e+00 2.810063e+00 4.850505e+00 3.833558e+00 4.591527e+00 7.046850e-01 4.378707e-01 5.798702e-01 6.067821e-01 5.174663e-01 7.195572e-01 1.108636e+00 6.660473e-01 4.925599e-01 7.571154e-01 7.556147e-01 5.247138e-01 5.500559e-01
<GCONST> 1.324296e+02
<STATE> 3
<MEAN> 39
 -7.330354e+00 -6.770499e+00 -6.362697e-01 -7.968973e+00 -7.509860e+00 -1.955262e+01 -1.664438e+01 -1.158580e+01 -8.171679e+00 -8.586872e+00 -8.605668e+00 9.732783e-01 4.883410e+01 1.790266e+00 -1.323520e+00 6.071423e-01 -2.377853e-01 -3.288947e-02 -4.655008e-01 -1.622767e+00 7.198931e-02 -6.092962e-01 3.971901e-01 -1.022019e+00 -2.778406e-01 1.222128e+00 -3.610961e-01 2.150354e-01 -1.949551e-01 1.076461e-01 2.124640e-01 8.030149e-01 7.839147e-01 1.796577e-01 9.335845e-02 6.334937e-02 6.589121e-02 -5.853349e-01 -4.280750e-01
<VARIANCE> 39
 6.009875e+01 5.313980e+01 4.705138e+01 3.438529e+01 3.216114e+01 7.262238e+01 4.642049e+01 6.500426e+01 5.933248e+01 7.517465e+01 4.475136e+01 6.717375e+01 5.199935e+01 6.949612e+00 6.076870e+00 3.901027e+00 4.018763e+00 4.197978e+00 9.890167e+00 6.884244e+00 6.003622e+00 4.331183e+00 8.234157e+00 4.611623e+00 7.113767e+00 7.185981e+00 1.146186e+00 1.007379e+00 6.370574e-01 5.961908e-01 5.345880e-01 1.270796e+00 9.272777e-01 1.110990e+00 6.434183e-01 1.163299e+00 1.100855e+00 9.813358e-01 6.898306e-01
<GCONST> 1.444809e+02
<STATE> 4
<MEAN> 39
 -1.135049e+01 -6.273820e+00 -1.028400e+00 -3.636987e+00 -6.512534e+00 -1.386625e+01 -1.290767e+01 -1.185006e+01 -8.159617e+00 -1.017947e+01 -8.336210e+00 -4.852579e+00 4.384853e+01 -7.036797e-01 -8.627874e-02 1.092524e-01 3.126698e-01 -3.403459e-02 3.789401e-01 3.865978e-01 -2.673865e-02 -6.489468e-02 2.498841e-01 1.257001e-01 -3.730414e-02 -6.114985e-01 9.856243e-02 4.593101e-02 -5.434629e-02 -1.022101e-01 -5.302300e-02 5.359401e-02 3.690023e-02 8.762820e-03 1.186621e-01 5.335870e-02 1.259247e-01 1.872545e-01 3.282329e-02
<VARIANCE> 39
 8.789233e+01 4.212016e+01 2.576388e+01 4.819403e+01 3.556231e+01 6.132353e+01 4.212547e+01 6.119223e+01 4.705023e+01 5.172786e+01 4.611891e+01 2.722858e+01 5.002417e+01 2.119970e+00 2.682359e+00 2.180758e+00 2.618648e+00 2.615810e+00 2.316677e+00 2.926694e+00 3.930390e+00 3.383456e+00 3.341912e+00 2.853218e+00 2.032010e+00 1.193050e+00 7.358503e-01 4.188548e-01 4.208488e-01 5.650716e-01 5.262873e-01 4.962365e-01 6.995519e-01 8.909053e-01 6.430750e-01 5.630778e-01 7.441911e-01 4.723174e-01 1.776815e-01
<GCONST> 1.252717e+02
<TRANSP> 5
 0.000000e+00 1.000000e+00 0.000000e+00 0.000000e+00 0.000000e+00
 0.000000e+00 7.086875e-01 2.913125e-01 0.000000e+00 0.000000e+00
 0.000000e+00 0.000000e+00 5.509769e-01 4.490231e-01 0.000000e+00
 0.000000e+00 0.000000e+00 0.000000e+00 8.400769e-01 1.599231e-01
 0.000000e+00 0.000000e+00 0.000000e+00 0.000000e+00 0.000000e+00
<ENDHMM>
~h "g"
<BEGINHMM>
<NUMSTATES> 5
<STATE> 2
<MEAN> 39
 -1.539729e+01 -7.983066e+00 -6.324594e+00 -3.316073e+00 -7.913088e+00 -1.444638e+00 -6.339302e+00 -1.161668e+01 -7.229824e+00 -2.635448e+00 -2.782372e+00 -4.670334e-02 3.848891e+01 2.486869e+00 -1.559087e-01 -7.638872e-01 -1.155293e+00 9.045237e-02 -1.388853e+00 -8.862092e-01 9.753583e-02 -1.330825e+00 -5.108637e-01 7.790355e-01 1.092314e-01 1.462214e+00 4.911375e-01 -9.586553e-02 4.276619e-01 -3.107490e-01 -3.336850e-01 1.178535e-01 2.321738e-02 3.819498e-01 -1.625025e-01 -1.431403e-01 -2.908324e-01 -1.063145e-01 5.615662e-01
<VARIANCE> 39
 1.054645e+02 4.882388e+01 5.853439e+01 3.191277e+01 4.344290e+01 8.198000e+01 6.723019e+01 4.243640e+01 4.936033e+01 5.148429e+01 2.657498e+01 1.027723e+01 1.046680e+02 7.799655e+00 1.138740e+01 8.642406e+00 5.045235e+00 3.506910e+00 6.731772e+00 9.666639e+00 6.754031e+00 3.725588e+00 3.196685e+00 2.319038e+00 3.184317e+00 1.399314e+01 1.483694e+00 1.948371e+00 1.420471e+00 1.283941e+00 1.608838e+00 3.960605e-01 9.901525e-01 1.495716e+00 1.336520e+00 1.561740e+00 8.305771e-01 4.556200e-01 2.241152e+00
<GCONST> 1.468846e+02
<STATE> 3
<MEAN> 39
 -2.245567e+00 -1.006118e+01 -6.878684e+00 -7.452406e+00 -4.010574e+00 -8.403090e+00 -1.176145e+01 -5.634781e+00 -9.411924e+00 -6.863972e+00 -4.252797e+00 -4.328862e+00 5.361772e+01 1.078168e+00 -8.033698e-01 3.055264e+00 -6.608826e-01 -1.944580e+00 -1.995359e+00 -6.890844e-01 3.871377e-01 -4.561538e-01 5.225196e-02 -1.675717e+00 -1.202752e+00 2.214585e+00 -1.248308e-01 -1.805134e-02 4.039527e-01 2.996660e-01 -7.721040e-01 4.370668e-01 6.002215e-01 -2.169100e-01 -5.742095e-02 3.337831e-01 -2.493138e-01 -2.580686e-01 -9.532582e-01
<VARIANCE> 39
 1.106785e+02 1.502662e+02 2.015858e+02 5.043056e+01 9.032460e+01 1.385779e+02 7.575009e+01 1.097771e+02 2.221420e+01 4.638525e+01 3.616364e+01 3.460933e+01 5.699429e+01 2.194784e+00 4.177181e+00 1.167035e+01 8.850535e+00 1.175238e+01 7.220793e+00 4.984615e+00 4.667147e+00 5.908031e+00 3.697771e+00 2.071663e+00 3.552171e+00 1.183632e+01 7.612855e-01 1.483146e+00 8.997130e-01 7.825378e-01 1.281955e+00 1.681167e+00 1.532812e+00 1.158549e+00 1.042365e+00 9.819387e-01 5.667354e-01 6.051511e-01 1.155607e+00
<GCONST> 1.493993e+02
<STATE> 4
<MEAN> 39
 -2.217312e+00 -8.763018e+00 4.076675e+00 -6.285809e+00 -8.056974e+00 -1.548360e+01 -1.061992e+01 -1.158515e+01 -1.347461e+01 -4.958461e+00 -9.780498e+00 -6.206292e+00 4.964077e+01 2.509869e-01 -2.508700e-01 -5.704670e-01 3.446030e-01 6.835625e-01 1.739735e-01 -3.540669e-01 1.457228e-01 1.144949e-01 9.494048e-02 -2.138277e-01 -5.562647e-02 -4.863711e-01 -4.335202e-02 1.426645e-01 -3.050153e-01 -4.348942e-02 1.583931e-01 1.343628e-01 -1.066114e-01 -4.041218e-02 1.691873e-01 -1.795700e-03 1.574124e-01 1.999379e-02 -5.984147e-02
<VARIANCE> 39
 1.674517e+01 8.583355e+01 9.634512e+01 5.703722e+01 1.763401e+02 1.038321e+02 6.737469e+01 8.834731e+01 3.481675e+01 4.710795e+01 3.545887e+01 4.867111e+01 4.898250e+01 2.560243e+00 9.352028e+00 7.774502e+00 3.689869e+00 1.566079e+01 1.013791e+01 4.940721e+00 7.763135e+00 4.244354e+00 6.698279e+00 3.874850e+00 3.572689e+00 4.059868e+00 3.895611e-01 1.856036e+00 1.333951e+00 8.531704e-01 3.076481e+00 2.411126e+00 7.096704e-01 1.635936e+00 9.796466e-01 1.392135e+00 8.776638e-01 7.233765e-01 7.468538e-01
<GCONST> 1.489587e+02
<TRANSP> 5
 0.000000e+00 1.000000e+00 0.000000e+00 0.000000e+00 0.000000e+00
 0.000000e+00 6.428265e-01 3.571735e-01 0.000000e+00 0.000000e+00
 0.000000e+00 0.000000e+00 6.917052e-01 3.082948e-01 0.000000e+00
 0.000000e+00 0.000000e+00 0.000000e+00 9.222593e-01 7.774070e-02
 0.000000e+00 0.000000e+00 0.000000e+00 0.000000e+00 0.000000e+00
<ENDHMM>
~h "k"
<BEGINHMM>
<NUMSTATES> 5
<STATE> 2
<MEAN> 39
 -4.331410e+00 -2.599364e+00 -5.557903e+00 -6.365747e+00 -1.145236e+01 -8.373832e+00 -5.627635e+00 -7.587076e+00 -5.216382e+00 -1.032131e+01 -1.009576e+01 -8.576628e+00 3.959351e+01 -6.795666e-01 3.672130e-01 -6.985983e-01 2.666202e-01 4.144917e-01 4.040385e-01 4.942390e-01 1.000230e-01 2.061733e-01 -8.502954e-02 1.161123e-01 -1.696005e-01 -1.652873e+00 -2.341320e-01 -5.985084e-01 8.872139e-02 3.893467e-02 5.119759e-01 -1.558748e-01 -2.258815e-01 -4.384630e-01 -2.448751e-01 3.565470e-01 1.261063e-01 4.578938e-01 6.607761e-01
<VARIANCE> 39
 4.409698e+01 4.139113e+01 5.127893e+01 4.810234e+01 8.717910e+01 3.268895e+01 4.234934e+01 3.679451e+01 3.505490e+01 4.234792e+01 6.274155e+01 3.232387e+01 5.278202e+01 1.727787e+00 2.572526e+00 1.984871e+00 2.065279e+00 3.138655e+00 2.647607e+00 2.415195e+00 3.396246e+00 4.212639e+00 2.927593e+00 2.864540e+00 2.185781e+00 1.728701e+00 4.058214e-01 5.086575e-01 6.771473e-01 4.875736e-01 9.281706e-01 8.940432e-01 7.679309e-01 8.926693e-01 9.549999e-01 7.953791e-01 8.450164e-01 7.263066e-01 3.662560e-01
<GCONST> 1.281882e+02
<STATE> 3
<MEAN> 39
 -8.082809e+00 -2.059192e+00 -6.211290e+00 -3.865489e+00 -7.473984e+00 -7.430901e+00 -5.819471e+00 -9.791903e+00 -5.239476e+00 -8.291590e+00 -7.965728e+00 -7.918110e+00 3.584032e+01 -1.369475e+00 -2.368677e+00 -1.061154e+00 3.762552e-01 2.650298e+00 -1.193644e+00 4.010075e-01 -1.932069e+00 6.443594e-01 2.167206e+00 1.476812e+00 2.329006e+00 2.339147e+00 9.187336e-02 -3.583747e-01 -1.308384e-01 -3.129691e-01 2.566354e-01 -5.152847e-01 -1.891305e-01 -2.335027e-01 -8.554088e-02 4.616762e-01 1.874013e-01 6.840824e-01 1.259012e+00
<VARIANCE> 39
 3.816092e+01 2.611614e+01 3.196107e+01 3.538271e+01 6.224272e+01 3.482876e+01 3.142268e+01 4.992164e+01 5.651401e+01 3.383769e+01 6.148825e+01 2.311832e+01 4.567277e+01 6.189284e+00 5.789601e+00 1.339696e+01 6.407619e+00 1.408476e+01 9.964608e+00 9.331572e+00 7.918028e+00 6.958739e+00 8.505874e+00 5.006424e+00 7.763483e+00 3.700351e+00 4.165876e-01 5.343060e-01 1.013835e+00 7.797596e-01 1.261515e+00 8.969058e-01 6.613179e-01 1.110703e+00 1.108225e+00 8.728856e-01 1.056128e+00 8.490193e-01 5.229932e-01
<GCONST> 1.429033e+02
<STATE> 4
<MEAN> 39
 -9.718640e+00 -1.067506e+01 -7.251492e+00 -5.344808e+00 -7.826949e-01 -1.173916e+01 -4.332139e+00 -1.166808e+01 -4.122740e+00 -2.714969e+00 -4.887612e+00 -2.737826e-01 4.794528e+01 3.291883e-01 -2.809509e-01 4.784142e-01 -9.643462e-01 3.088041e-01 1.341390e-01 -1.912922e-01 3.511690e-03 -2.404059e-01 6.560832e-01 -2.947154e-01 5.148094e-01 1.563794e+00 4.674990e-01 4.699602e-01 2.268123e-01 -2.304515e-01 -5.291865e-01 3.795149e-01 -2.744476e-01 2.744818e-01 -3.386844e-01 -4.812108e-01 -4.160395e-01 -6.260239e-01 -4.801513e-01
<VARIANCE> 39
 5.796947e+01 6.464870e+01 1.472211e+02 8.045841e+01 1.594709e+02 8.966321e+01 8.003684e+01 8.570652e+01 5.989835e+01 8.463198e+01 4.864874e+01 4.959936e+01 5.537844e+01 6.471262e+00 8.208828e+00 9.420370e+00 7.294075e+00 1.067704e+01 9.004398e+00 7.537531e+00 1.046230e+01 7.081457e+00 7.307197e+00 6.258106e+00 7.036463e+00 7.204411e+00 8.081031e-01 1.370642e+00 1.847711e+00 1.168257e+00 2.464450e+00 1.881460e+00 1.606228e+00 2.211154e+00 1.087505e+00 1.486741e+00 1.016812e+00 1.296573e+00 7.706579e-01
<GCONST> 1.590324e+02
<TRANSP> 5
 0.000000e+00 1.000000e+00 0.000000e+00 0.000000e+00 0.000000e+00
 0.000000e+00 7.018983e-01 2.981017e-01 0.000000e+00 0.000000e+00
 0.000000e+00 0.000000e+00 4.210782e-01 5.789218e-01 0.000000e+00
 0.000000e+00 0.000000e+00 0.000000e+00 7.625429e-01 2.374571e-01
 0.000000e+00 0.000000e+00 0.000000e+00 0.000000e+00 0.000000e+00
<ENDHMM>
~h "l"
<BEGINHMM>
<NUMSTATES> 5
<STATE> 2
<MEAN> 39
 -3.620880e+00 -8.761960e+00 1.506988e+00 -1.316551e+01 -3.193110e+00 -1.109568e+01 -1.857302e+01 -1.157985e+01 -7.681622e+00 -7.903343e+00 -1.086354e+01 5.020648e-01 5.247480e+01 1.302571e+00 -1.315936e+00 2.277722e-01 -1.664325e+00 9.807206e-01 -4.643813e-03 -1.267084e+00 6.493946e-01 1.702945e-01 5.329446e-01 -1.379863e+00 3.868762e-01 1.553180e+00 -3.003046e-01 -1.910312e-01 -1.725741e-01 3.476110e-02 1.629156e-01 3.606717e-01 5.850328e-01 3.220633e-01 -7.050194e-02 1.354542e-01 -1.713378e-01 -2.756406e-01 -1.091090e-02
<VARIANCE> 39
 6.430655e+01 8.042272e+01 7.388583e+01 1.050654e+02 9.639017e+01 1.224582e+02 9.222865e+01 1.031656e+02 6.211957e+01 5.770010e+01 5.700142e+01 5.132162e+01 7.424008e+01 6.127194e+00 6.303749e+00 5.770138e+00 7.230193e+00 8.735971e+00 1.039316e+01 1.401540e+01 1.086724e+01 5.396585e+00 5.750234e+00 5.632653e+00 5.207734e+00 6.062024e+00 7.857982e-01 1.188933e+00 6.232997e-01 1.093781e+00 1.325388e+00 1.785254e+00 2.380725e+00 2.040476e+00 7.141346e-01 9.080018e-01 8.787084e-01 1.029951e+00 1.024867e+00
<GCONST> 1.552123e+02
<STATE> 3
<MEAN> 39
 -2.190918e+00 -1.590969e+01 4.806252e-01 -2.185102e+01 4.918521e+00 -1.020527e+01 -1.925366e+01 -6.210427e+00 -4.939169e+00 -4.716775e+00 -1.861327e+01 -2.641747e+00 5.878296e+01 1.104088e-01 2.532314e-01 -3.686213e-01 -2.987069e-01 2.175129e-01 2.531218e-01 -3.993251e-02 -1.074274e-01 1.615678e-01 2.080307e-01 -5.948885e-02 -5.290196e-01 -1.828327e-01 4.895098e-02 2.974963e-01 -1.088445e-01 3.548598e-01 -4.102895e-01 3.104796e-02 1.146300e-01 -2.237945e-01 -1.346956e-01 -6.397205e-02 4.400651e-01 -1.111132e-01 -2.154866e-01
<VARIANCE> 39
 1.094467e+01 4.333175e+01 3.709520e+01 6.189530e+01 6.608974e+01 8.802573e+01 6.611494e+01 7.082467e+01 5.950360e+01 8.212101e+01 4.726916e+01 3.921634e+01 1.572922e+01 7.731940e-01 2.826283e+00 2.125535e+00 3.389561e+00 4.172148e+00 6.036448e+00 5.557876e+00 4.422708e+00 4.425834e+00 3.361091e+00 4.088191e+00 3.281928e+00 1.163049e+00 1.032358e-01 3.548634e-01 2.921025e-01 6.111608e-01 5.976648e-01 8.036227e-01 8.139039e-01 8.323013e-01 7.242487e-01 7.810329e-01 6.465453e-01 5.243075e-01 1.643465e-01
<GCONST> 1.264948e+02
<STATE> 4
<MEAN> 39
 1.610837e+00 -7.493996e+00 -8.015342e+00 -1.971937e+01 -2.816842e+00 -2.737537e-01 -1.588419e+01 -1.083001e+01 -4.467346e+00 -3.604799e+00 -9.155048e+00 -5.957410e+00 5.205925e+01 -1.588578e-01 7.520087e-01 -2.042833e-01 9.636386e-01 -6.865584e-01 -3.912691e-01 7.766948e-01 1.372708e-01 2.605495e-02 -2.823858e-01 5.356424e-01 -2.610877e-01 -8.981652e-01 -1.266657e-01 -3.845708e-02 8.206140e-02 7.741852e-02 -3.922985e-02 -1.167656e-01 6.244410e-02 -2.678379e-03 -1.071350e-02 -4.411375e-02 -4.170290e-02 6.171619e-02 -1.318846e-02
<VARIANCE> 39
 2.504066e+01 9.907172e+01 5.382295e+01 1.089204e+02 9.132137e+01 1.126780e+02 8.253337e+01 8.288065e+01 5.795938e+01 5.392441e+01 5.051867e+01 4.749721e+01 5.510117e+01 1.665238e+00 1.976082e+00 1.973451e+00 3.323489e+00 3.863475e+00 3.791124e+00 3.452296e+00 3.592400e+00 3.432653e+00 3.130954e+00 2.726480e+00 2.654957e+00 8.628498e-01 1.952924e-01 2.732291e-01 2.524970e-01 5.199358e-01 5.645361e-01 5.714546e-01 6.037620e-01 6.343334e-01 6.687583e-01 5.391945e-01 5.746182e-01 4.714960e-01 1.102536e-01
<GCONST> 1.269764e+02
<TRANSP> 5
 0.000000e+00 1.000000e+00 0.000000e+00 0.000000e+00 0.000000e+00
 0.000000e+00 6.524960e-01 3.475039e-01 0.000000e+00 0.000000e+00
 0.000000e+00 0.000000e+00 7.668448e-01 2.331551e-01 0.000000e+00
 0.000000e+00 0.000000e+00 0.000000e+00 8.081830e-01 1.918170e-01
 0.000000e+00 0.000000e+00 0.000000e+00 0.000000e+00 0.000000e+00
<ENDHMM>
~h "m"
<BEGINHMM>
<NUMSTATES> 5
<STATE> 2
<MEAN> 39
 7.293860e-01 -9.531013e+00 1.610233e+00 -9.690114e+00 -7.051098e+00 -1.414390e+01 -1.936038e+01 -9.961564e+00 -9.436230e+00 -8.467690e+00 -1.063135e+01 -3.085915e+00 5.218087e+01 1.644947e+00 6.508560e-01 -9.409701e-01 1.774563e+00 3.479851e-01 1.772050e-01 -1.739135e+00 -1.028245e+00 -7.803510e-01 -5.154409e-01 -2.849481e-01 -2.042742e+00 -6.484716e-01 -2.586203e-01 1.088101e-01 -2.865567e-01 1.998190e-01 2.133647e-01 2.220591e-01 2.572539e-01 -5.092544e-02 -7.323355e-02 3.963412e-02 1.689395e-01 -3.551282e-01 -1.206643e-01
<VARIANCE> 39
 2.088599e+01 1.011492e+02 3.250361e+01 6.345649e+01 4.488050e+01 5.522401e+01 5.318346e+01 7.176461e+01 6.431190e+01 6.443410e+01 3.594815e+01 4.666645e+01 5.974393e+01 2.819871e+00 4.093215e+00 2.567510e+00 3.809077e+00 3.633581e+00 3.664840e+00 6.141138e+00 5.604406e+00 4.680121e+00 3.675318e+00 2.581237e+00 3.472158e+00 3.807942e+00 3.386791e-01 1.126283e+00 3.690110e-01 5.937304e-01 4.012712e-01 8.332084e-01 8.259400e-01 9.619840e-01 6.913211e-01 6.964682e-01 6.287597e-01 7.936082e-01 4.570179e-01
<GCONST> 1.340840e+02
<STATE> 3
<MEAN> 39
 4.932161e+00 -1.034675e+01 -4.911374e+00 -2.796651e+00 -1.466969e+00 -1.018478e+01 -2.451276e+01 -1.287241e+01 -1.379436e+01 -8.400126e+00 -7.077695e+00 -1.228325e+01 5.039726e+01 5.817420e-02 -4.520753e-01 -5.295932e-01 -1.669858e-01 6.876789e-01 7.384232e-01 -4.313117e-01 3.421236e-01 2.361440e-01 1.497960e-01 4.243598e-01 -9.779825e-02 1.118454e-01 -2.214075e-01 -1.657644e-01 1.407048e-01 -5.577244e-01 -7.875383e-02 1.320605e-01 3.583556e-01 2.682399e-01 3.293394e-01 7.307377e-02 -8.292286e-02 4.961613e-01 1.764364e-01
<VARIANCE> 39
 9.132074e+00 3.288848e+01 3.291443e+01 6.131107e+01 5.337626e+01 5.660548e+01 3.992341e+01 5.962167e+01 5.087622e+01 5.187864e+01 4.954628e+01 4.456152e+01 1.532341e+01 5.541632e-01 3.297814e+00 1.671126e+00 6.648777e+00 2.572046e+00 3.403944e+00 3.217088e+00 5.559864e+00 4.166561e+00 3.552681e+00 3.392499e+00 4.122379e+00 1.437019e+00 1.520729e-01 3.365403e-01 2.649693e-01 6.564894e-01 5.813057e-01 4.612080e-01 5.993581e-01 8.897406e-01 6.457771e-01 5.935950e-01 7.186542e-01 5.842952e-01 1.268867e-01
<GCONST> 1.222903e+02
<STATE> 4
<MEAN> 39
 3.660920e+00 -1.050468e+01 -6.580172e+00 -8.027968e+00 -9.181346e-01 -5.483926e+00 -1.961165e+01 -9.456022e+00 -1.212586e+01 -1.045616e+01 -8.915689e+00 -6.983593e+00 5.082197e+01 -3.512222e-01 2.757443e-01 1.603757e-01 -6.501406e-01 -1.697700e-02 2.033695e-01 8.189714e-01 6.512737e-02 1.296289e-01 -7.068823e-02 -5.752562e-01 5.656896e-01 -1.338488e-01 -1.232164e-01 9.042566e-02 2.216862e-01 6.593968e-02 -2.418345e-01 -1.936100e-01 3.953689e-02 -1.686947e-01 -6.581014e-02 1.530727e-02 -4.799478e-02 6.356524e-02 -4.613506e-02
<VARIANCE> 39
 1.536171e+01 1.178363e+02 6.336798e+01 9.243972e+01 6.842368e+01 1.042991e+02 4.971966e+01 7.014207e+01 6.343382e+01 7.670925e+01 4.639360e+01 4.046069e+01 5.546227e+01 6.987279e-01 3.560187e+00 1.254883e+00 3.941089e+00 3.995988e+00 3.116306e+00 2.569697e+00 4.813652e+00 2.647319e+00 3.796286e+00 2.716589e+00 3.828151e+00 1.677880e+00 1.875791e-01 3.312182e-01 3.800473e-01 8.409495e-01 4.400950e-01 5.773734e-01 4.867823e-01 6.324201e-01 4.638818e-01 6.964713e-01 7.151495e-01 6.766779e-01 1.661468e-01
<GCONST> 1.275229e+02
<TRANSP> 5
 0.000000e+00 1.000000e+00 0.000000e+00 0.000000e+00 0.000000e+00
 0.000000e+00 5.932274e-01 4.067725e-01 0.000000e+00 0.000000e+00
 0.000000e+00 0.000000e+00 7.983341e-01 2.016659e-01 0.000000e+00
 0.000000e+00 0.000000e+00 0.000000e+00 6.265282e-01 3.734718e-01
 0.000000e+00 0.000000e+00 0.000000e+00 0.000000e+00 0.000000e+00
<ENDHMM>
~h "n"
<BEGINHMM>
<NUMSTATES> 5
<STATE> 2
<MEAN> 39
 -3.423780e+00 -1.264507e+01 4.847361e+00 -1.765530e+01 -7.354955e+00 -1.353489e+01 -1.180268e+01 -5.231592e+00 -1.475341e+01 -6.406747e+00 -1.003272e+01 1.183692e+00 5.737233e+01 1.088877e+00 1.354839e+00 -5.763260e-01 1.442874e+00 -3.804474e-01 -3.383048e-01 -2.030115e-01 -1.064713e+00 -1.046326e+00 -7.813714e-01 2.096309e-01 -4.819943e-01 -1.201105e+00 2.460035e-01 1.504632e-01 -2.326061e-01 5.399988e-01 -1.231675e-01 2.313867e-01 -1.501488e-01 -3.460234e-01 6.032388e-02 -1.589586e-01 1.841503e-01 -1.757038e-01 -3.452612e-01
<VARIANCE> 39
 1.614074e+01 5.588253e+01 3.814885e+01 5.444848e+01 5.497521e+01 6.733390e+01 4.802837e+01 6.907854e+01 6.676030e+01 6.381417e+01 3.975375e+01 3.686515e+01 3.205881e+01 1.741715e+00 2.393061e+00 1.956452e+00 3.654805e+00 2.997947e+00 3.163397e+00 2.981624e+00 3.164310e+00 3.718948e+00 3.391199e+00 2.795760e+00 3.009939e+00 1.639034e+00 2.012016e-01 4.559436e-01 2.987757e-01 4.531413e-01 4.819154e-01 6.053614e-01 4.616326e-01 5.150081e-01 6.407089e-01 6.050436e-01 5.387487e-01 5.395323e-01 1.744639e-01
<GCONST> 1.236200e+02
<STATE> 3
<MEAN> 39
 4.291175e+00 -5.548717e+00 2.964884e-01 -4.272825e+00 -1.020899e+01 -1.245471e+01 -1.485287e+01 -1.452282e+01 -1.810802e+01 -1.292154e+01 -5.952896e+00 -1.704262e+00 4.825763e+01 5.611355e-01 1.004806e+00 -5.790793e-01 1.201643e+00 -2.630814e-01 1.088488e-01 -4.401005e-01 -8.737722e-01 1.386836e-01 -4.963201e-01 4.794988e-01 -2.162999e-01 -1.001763e+00 -3.442551e-01 -2.677470e-03 8.884011e-02 -3.252383e-01 1.007478e-01 -5.038406e-02 7.834429e-02 2.768972e-01 2.510877e-01 2.304253e-01 -1.548328e-02 6.694431e-02 1.598239e-01
<VARIANCE> 39
 8.076956e+00 3.565078e+01 1.990220e+01 3.737705e+01 4.350063e+01 5.888987e+01 4.839499e+01 6.720023e+01 5.726307e+01 5.704677e+01 4.575527e+01 3.962093e+01 1.503713e+01 1.019469e+00 2.131990e+00 1.508872e+00 2.786157e+00 2.345967e+00 3.010082e+00 2.440374e+00 3.132329e+00 2.889565e+00 3.577394e+00 3.210244e+00 2.613895e+00 6.850773e-01 1.447408e-01 3.161356e-01 2.954048e-01 3.994506e-01 3.991816e-01 5.576206e-01 4.781846e-01 5.301007e-01 5.092421e-01 6.221924e-01 5.615473e-01 5.416543e-01 8.754238e-02
<GCONST> 1.156063e+02
<STATE> 4
<MEAN> 39
 -7.061572e-01 1.936484e+00 -1.717262e+00 -2.468205e+00 -1.041748e+01 -1.188004e+01 -1.443081e+01 -1.373941e+01 -1.129931e+01 -1.091955e+01 -5.577970e+00 -3.073741e+00 4.042225e+01 -1.154031e+00 1.014315e-01 -3.503342e-01 1.035772e-02 4.870108e-01 5.755281e-01 2.735836e-01 3.373520e-01 5.975623e-01 3.756395e-01 8.877105e-02 -3.536056e-01 -3.569753e-01 -3.018820e-01 -3.288857e-01 4.757403e-02 -2.344586e-01 1.763767e-01 9.672268e-02 1.247445e-01 9.859569e-02 8.580941e-02 9.519358e-02 -8.491912e-02 7.439821e-02 2.772987e-01
<VARIANCE> 39
 3.786178e+01 3.801236e+01 2.355961e+01 2.575983e+01 3.234761e+01 4.558273e+01 4.201647e+01 4.705794e+01 5.141894e+01 4.177002e+01 3.722585e+01 3.137845e+01 4.459214e+01 1.762728e+00 4.121449e+00 2.542912e+00 3.538958e+00 2.277611e+00 3.770590e+00 3.755248e+00 4.327018e+00 3.869747e+00 3.838374e+00 3.527198e+00 2.863811e+00 1.489296e+00 3.709287e-01 5.298780e-01 4.856761e-01 6.987984e-01 4.736975e-01 7.123910e-01 6.766689e-01 8.241581e-01 6.804006e-01 6.995210e-01 6.687785e-01 5.563670e-01 2.554008e-01
<GCONST> 1.258298e+02
<TRANSP> 5
 0.000000e+00 1.000000e+00 0.000000e+00 0.000000e+00 0.000000e+00
 0.000000e+00 7.059150e-01 2.940849e-01 0.000000e+00 0.000000e+00
 0.000000e+00 0.000000e+00 8.143596e-01 1.856404e-01 0.000000e+00
 0.000000e+00 0.000000e+00 0.000000e+00 7.326124e-01 2.673876e-01
 0.000000e+00 0.000000e+00 0.000000e+00 0.000000e+00 0.000000e+00
<ENDHMM>
~h "p"
<BEGINHMM>
<NUMSTATES> 5
<STATE> 2
<MEAN> 39
 -4.196487e+00 -1.055262e+01 -1.766209e+00 -1.027639e+01 -8.256226e+00 -3.566408e+00 -9.517900e+00 -6.311546e+00 -8.538257e+00 -6.322318e+00 -1.189693e+01 -6.468907e+00 4.769814e+01 3.501279e-01 1.332164e-02 -5.108305e-01 -3.159954e-01 -3.106309e-01 8.659607e-01 5.301296e-01 4.584348e-01 8.614887e-01 6.045421e-01 -8.951261e-01 -1.042446e+00 -8.286828e-02 -2.039427e-01 3.018521e-01 -9.589750e-03 3.023328e-01 1.471874e-01 -8.403765e-02 -1.029950e-01 -3.606601e-01 -1.171742e-01 -1.206600e-01 2.292314e-01 1.377121e-01 -3.117225e-01
<VARIANCE> 39
 5.351142e+01 8.078838e+01 1.197228e+02 6.402360e+01 1.165166e+02 7.240782e+01 3.623421e+01 4.929225e+01 6.562532e+01 6.030410e+01 4.895108e+01 4.116390e+01 1.080538e+02 2.370348e+00 5.515880e+00 2.626657e+00 6.010448e+00 6.845664e+00 4.679189e+00 3.805216e+00 6.401440e+00 6.356524e+00 5.648939e+00 4.323241e+00 2.647470e+00 8.069390e+00 4.189950e-01 5.321057e-01 4.051578e-01 6.292617e-01 8.452283e-01 9.633428e-01 6.891074e-01 9.526501e-01 1.198172e+00 6.949701e-01 9.105995e-01 5.931325e-01 8.145941e-01
<GCONST> 1.416940e+02
<STATE> 3
<MEAN> 39
 -1.850605e+00 -1.024056e+01 -7.641804e+00 -6.496504e+00 -3.932874e+00 -1.871437e+00 -9.816133e+00 -8.461816e+00 -8.282298e+00 -8.977710e+00 -1.512157e+01 -9.836062e+00 4.505094e+01 -5.094225e-01 6.436173e-01 -3.029768e-01 1.261864e-01 5.388455e-02 -8.094385e-02 1.585561e-01 -2.127892e-01 -1.958921e-01 -1.035855e-01 3.417432e-01 3.047619e-01 -1.077454e+00 -1.399871e-01 5.572908e-03 1.719464e-01 -2.519612e-01 -2.957480e-02 -3.260839e-02 -1.976568e-02 1.013644e-01 -4.151838e-02 5.135365e-02 2.085766e-01 1.665148e-01 1.059846e-01
<VARIANCE> 39
 4.855092e+01 1.216351e+02 8.117532e+01 5.066345e+01 8.844604e+01 4.721152e+01 4.227781e+01 7.499435e+01 4.166176e+01 1.111303e+02 4.904566e+01 3.410747e+01 9.786794e+01 6.628141e-01 1.737902e+00 2.183015e+00 1.951406e+00 2.987045e+00 1.559570e+00 1.965018e+00 2.500927e+00 2.832298e+00 3.384934e+00 2.047453e+00 1.139965e+00 9.534158e-01 1.476747e-01 2.362040e-01 3.036710e-01 3.655573e-01 5.612851e-01 2.830858e-01 4.975254e-01 5.622387e-01 4.250642e-01 7.623238e-01 4.837496e-01 3.659781e-01 1.270058e-01
<GCONST> 1.197202e+02
<STATE> 4
<MEAN> 39
 -8.472830e+00 -4.004050e+00 -4.792997e+00 -6.064389e+00 -6.898012e+00 -4.722826e+00 -7.758063e+00 -8.417601e+00 -6.963751e+00 -1.020838e+01 -8.377993e+00 -5.067311e+00 3.690379e+01 -7.644176e-01 -2.778417e-01 6.024465e-02 -2.772256e-01 2.425953e-01 1.024966e-01 -4.549240e-02 1.966731e-01 6.098230e-01 7.641897e-01 8.067951e-01 5.013881e-01 -4.121255e-01 7.642929e-03 -2.408822e-01 1.620207e-01 -2.497195e-02 3.351814e-02 -1.752518e-01 -1.963898e-01 -2.477496e-02 7.448204e-02 1.104960e-01 -2.217990e-02 1.280332e-01 3.518722e-01
<VARIANCE> 39
 3.461380e+01 4.822553e+01 5.569852e+01 5.982760e+01 4.216123e+01 4.150426e+01 3.832144e+01 6.225463e+01 4.203900e+01 6.317028e+01 5.973692e+01 4.638315e+01 7.677470e+01 1.314307e+00 1.811347e+00 2.335873e+00 2.298868e+00 1.744758e+00 2.595248e+00 5.230425e+00 4.353191e+00 2.671640e+00 3.877002e+00 4.793889e+00 2.813668e+00 1.417575e+00 3.496881e-01 3.826675e-01 4.777646e-01 6.834767e-01 4.864446e-01 5.832144e-01 9.689420e-01 8.478812e-01 6.241997e-01 8.045063e-01 9.904753e-01 5.388138e-01 4.859109e-01
<GCONST> 1.284525e+02
<TRANSP> 5
 0.000000e+00 1.000000e+00 0.000000e+00 0.000000e+00 0.000000e+00
 0.000000e+00 6.151986e-01 3.848015e-01 0.000000e+00 0.000000e+00
 0.000000e+00 0.000000e+00 6.386437e-01 3.613563e-01 0.000000e+00
 0.000000e+00 0.000000e+00 0.000000e+00 6.796637e-01 3.203362e-01
 0.000000e+00 0.000000e+00 0.000000e+00 0.000000e+00 0.000000e+00
<ENDHMM>
~h "r"
<BEGINHMM>
<NUMSTATES> 5
<STATE> 2
<MEAN> 39
 -8.507276e+00 -9.683745e+00 -3.845481e+00 -7.624165e-01 -4.785902e+00 -1.145528e+01 -1.429746e+01 -1.007232e+01 -2.753808e+00 -5.774510e+00 -3.573433e+00 -3.857615e+00 4.431562e+01 4.002006e+00 -7.023386e-01 -1.266735e+00 2.999187e-01 -2.415317e-01 -2.201166e+00 -2.612760e+00 -1.316478e+00 -8.745379e-01 -8.419465e-02 2.071724e-01 2.854646e-02 1.154592e+00 4.515096e-01 -4.754785e-01 8.190705e-02 -4.964086e-01 -1.257851e-01 6.340390e-02 1.369100e-01 3.362077e-01 -4.628312e-01 -3.012533e-02 -2.919031e-01 1.092041e-01 7.366587e-01
<VARIANCE> 39
 1.544320e+02 4.116227e+01 5.890022e+01 2.884025e+01 3.824083e+01 7.638337e+01 1.332652e+02 1.016835e+02 7.685789e+01 3.793266e+01 2.569370e+01 3.191375e+01 4.503366e+01 1.000193e+01 7.130645e+00 6.826049e+00 4.491783e+00 6.077095e+00 6.531257e+00 9.984827e+00 9.321380e+00 7.420193e+00 5.179393e+00 5.250904e+00 3.568179e+00 6.652664e+00 2.511747e+00 1.254873e+00 1.530512e+00 6.611877e-01 8.781710e-01 1.530001e+00 3.169529e+00 2.528072e+00 1.131710e+00 8.949957e-01 1.077077e+00 6.515260e-01 6.098123e-01
<GCONST> 1.509398e+02
<STATE> 3
<MEAN> 39
 5.396455e+00 -1.809563e+01 -6.135032e+00 -2.730623e+00 -7.545286e+00 -1.736893e+01 -1.779798e+01 -6.448330e+00 -7.534479e+00 -6.666946e+00 -5.204204e+00 -2.500121e+00 5.336949e+01 -1.272871e-01 -2.645380e+00 2.005610e+00 -1.223479e+00 -5.877033e-01 8.492495e-01 1.875797e+00 2.203726e+00 -1.260647e+00 4.067043e-01 -1.070388e+00 -6.197504e-02 2.089028e+00 -1.189200e+00 3.847135e-01 8.716204e-01 -4.908126e-01 2.082162e-01 8.864514e-01 5.838848e-01 -1.789698e-02 -1.666151e-01 3.000072e-01 -1.905770e-01 -1.758734e-01 -2.752104e-01
<VARIANCE> 39
 1.125671e+01 4.873396e+01 1.249825e+02 4.101771e+01 8.969302e+01 5.187605e+01 4.161662e+01 5.389235e+01 3.900927e+01 3.628971e+01 6.388845e+01 4.053910e+01 1.732297e+01 4.907670e+00 4.758553e+00 1.101367e+01 4.643252e+00 7.509900e+00 6.578516e+00 5.185723e+00 6.826221e+00 5.819816e+00 5.723397e+00 6.319720e+00 3.689095e+00 2.779462e+00 8.521619e-01 1.099411e+00 1.075620e+00 9.904181e-01 1.255892e+00 1.085524e+00 1.117536e+00 1.215365e+00 1.139554e+00 8.246543e-01 1.041880e+00 5.495297e-01 4.246148e-01
<GCONST> 1.420211e+02
<STATE> 4
<MEAN> 39
 1.877151e+00 -2.274224e+01 -2.994452e+00 -9.303857e+00 -6.182636e+00 -8.765985e+00 -1.133448e+01 -3.152745e+00 -1.204066e+01 -5.000772e+00 -8.757346e+00 -5.414990e+00 5.840388e+01 -9.058436e-01 4.890841e-01 1.650062e+00 -1.821813e+00 -3.229523e-01 1.129217e+00 5.034077e-01 -4.915795e-01 -6.077172e-01 8.683206e-01 -6.526409e-01 -3.115158e-01 4.100264e-01 1.168191e-03 6.722180e-01 -2.713799e-01 2.936507e-02 -3.985045e-02 -1.534832e-01 -4.419270e-01 -4.630014e-01 4.524308e-01 -1.976850e-01 -8.573711e-03 -5.744087e-02 -3.851606e-01
<VARIANCE> 39
 2.175897e+01 4.995431e+01 1.602754e+02 6.914721e+01 7.447226e+01 7.575526e+01 3.695562e+01 7.406392e+01 4.516123e+01 6.169198e+01 6.580459e+01 3.755155e+01 2.001230e+01 1.742543e+00 2.040364e+00 3.264299e+00 3.950651e+00 3.423995e+00 5.091261e+00 3.678137e+00 3.818128e+00 3.528347e+00 3.924270e+00 3.725819e+00 2.645918e+00 9.441609e-01 2.842773e-01 3.826000e-01 5.495622e-01 5.062495e-01 7.524979e-01 7.874297e-01 6.648062e-01 7.324728e-01 6.445162e-01 6.751044e-01 7.081036e-01 5.225379e-01 1.563486e-01
<GCONST> 1.290371e+02
<TRANSP> 5
 0.000000e+00 1.000000e+00 0.000000e+00 0.000000e+00 0.000000e+00
 0.000000e+00 7.041069e-01 2.958931e-01 0.000000e+00 0.000000e+00
 0.000000e+00 0.000000e+00 6.369481e-01 3.630519e-01 0.000000e+00
 0.000000e+00 0.000000e+00 0.000000e+00 6.626372e-01 3.373629e-01
 0.000000e+00 0.000000e+00 0.000000e+00 0.000000e+00 0.000000e+00
<ENDHMM>
~h "s"
<BEGINHMM>
<NUMSTATES> 5
<STATE> 2
<MEAN> 39
 -1.541233e+01 8.798353e+00 -1.131997e+01 -7.868396e-01 -1.198590e+01 -1.106895e+01 -8.166880e+00 -1.272997e+01 -5.900462e+00 -9.500217e+00 -5.669292e+00 -5.963074e+00 4.816810e+01 -2.806720e+00 2.059617e+00 -1.504011e+00 1.476403e+00 8.889087e-01 3.985249e-01 8.909686e-01 -3.653724e-01 1.015836e+00 4.554001e-01 9.158150e-01 -3.023432e-01 -2.643325e-02 4.549200e-02 -5.172444e-01 4.178537e-01 -3.489019e-01 4.631163e-01 -8.092529e-02 -3.572288e-02 1.884497e-01 -1.075097e-01 2.008709e-01 -6.846444e-03 2.742034e-01 1.818201e-01
<VARIANCE> 39
 6.658727e+01 7.802367e+01 7.303056e+01 7.975364e+01 4.756693e+01 6.625312e+01 6.292907e+01 5.234819e+01 4.155738e+01 4.849668e+01 4.694075e+01 2.906127e+01 5.841916e+01 4.241672e+00 7.857917e+00 7.027960e+00 3.727462e+00 5.988333e+00 3.552844e+00 5.055736e+00 3.457877e+00 3.700691e+00 4.081333e+00 4.053997e+00 2.969496e+00 1.715328e+00 8.075715e-01 9.977986e-01 8.834006e-01 6.305367e-01 7.882695e-01 7.475681e-01 9.709541e-01 6.808628e-01 6.962812e-01 9.490072e-01 8.155041e-01 5.467669e-01 2.472645e-01
<GCONST> 1.380230e+02
<STATE> 3
<MEAN> 39
 -1.996771e+01 4.206718e+00 -7.968729e+00 -5.242348e+00 -2.867658e+00 -1.123766e+01 -6.636100e+00 -1.089253e+01 -3.299567e+00 -7.828941e+00 -3.446440e+00 -1.700979e+00 4.956533e+01 1.115882e-01 -1.246201e+00 8.668241e-02 -1.230862e+00 8.814459e-01 5.522908e-02 7.623241e-02 4.631017e-01 2.138510e-01 -2.914286e-02 -8.918903e-02 1.801588e-01 9.479107e-01 6.905899e-01 -4.324099e-01 -1.026173e-01 1.614965e-02 -4.144134e-01 3.261747e-01 -2.809348e-01 1.444609e-01 -1.585106e-01 -2.837293e-02 -2.015791e-01 -1.433438e-01 -8.852594e-02
<VARIANCE> 39
 9.180402e+01 1.128098e+02 5.640745e+01 8.004125e+01 5.932599e+01 1.014620e+02 9.047385e+01 5.274783e+01 5.587463e+01 3.916125e+01 5.210099e+01 3.824933e+01 5.906383e+01 1.485021e+01 1.311172e+01 7.211791e+00 9.412340e+00 7.397175e+00 8.506517e+00 9.578585e+00 6.137254e+00 5.682156e+00 4.530709e+00 6.836564e+00 4.193027e+00 3.693306e+00 1.663119e+00 1.204421e+00 1.302786e+00 1.422935e+00 1.535127e+00 1.440439e+00 1.880469e+00 1.254625e+00 1.056500e+00 9.590218e-01 1.200487e+00 7.396955e-01 6.377687e-01
<GCONST> 1.539017e+02
<STATE> 4
<MEAN> 39
 -2.355011e+01 6.457685e+00 -1.335266e+01 1.132378e+00 -4.315135e+00 -5.790405e+00 -2.974544e+00 -8.721366e+00 -8.510571e-01 -6.242003e+00 -1.344472e+00 -3.662752e+00 4.412457e+01 6.844987e-01 -9.547939e-01 2.600846e-01 -1.316603e-01 -1.855090e-01 4.149970e-01 -2.106124e-01 1.006457e-01 -2.210486e-01 -4.466271e-02 -1.407777e-01 6.440891e-02 -6.282588e-01 2.596231e-01 -1.646391e-01 2.285830e-01 -2.080678e-01 -1.054596e-01 -1.205393e-01 -1.187041e-01 -1.166272e-01 -1.333145e-01 -6.950379e-02 -1.396888e-01 2.604914e-02 2.037845e-02
<VARIANCE> 39
 4.751397e+01 7.930994e+01 3.487698e+01 5.611576e+01 5.391836e+01 7.435382e+01 5.713594e+01 4.493089e+01 4.682387e+01 4.152232e+01 4.534824e+01 2.751433e+01 6.681631e+01 2.590940e+00 2.983145e+00 3.074470e+00 4.028874e+00 4.074197e+00 4.800927e+00 4.095331e+00 3.351303e+00 3.316190e+00 3.289864e+00 3.437186e+00 2.144241e+00 3.296336e+00 5.804722e-01 4.727337e-01 4.215744e-01 6.521906e-01 7.490998e-01 8.163742e-01 8.874400e-01 7.409176e-01 7.052323e-01 6.573510e-01 8.599907e-01 5.175642e-01 3.876655e-01
<GCONST> 1.322544e+02
<TRANSP> 5
 0.000000e+00 1.000000e+00 0.000000e+00 0.000000e+00 0.000000e+00
 0.000000e+00 7.675095e-01 2.324906e-01 0.000000e+00 0.000000e+00
 0.000000e+00 0.000000e+00 7.194132e-01 2.805869e-01 0.000000e+00
 0.000000e+00 0.000000e+00 0.000000e+00 8.365753e-01 1.634246e-01
 0.000000e+00 0.000000e+00 0.000000e+00 0.000000e+00 0.000000e+00
<ENDHMM>
~h "t"
<BEGINHMM>
<NUMSTATES> 5
<STATE> 2
<MEAN> 39
 -9.679952e+00 -1.322577e-01 -4.576534e+00 -4.367085e+00 -9.100643e+00 -9.961177e+00 -8.862379e+00 -1.094145e+01 -6.963524e+00 -9.950425e+00 -7.575083e+00 -7.073028e+00 3.981873e+01 -9.624543e-01 -4.757442e-01 4.173574e-02 -5.300481e-01 8.396509e-01 -2.938805e-01 -3.288352e-01 -3.806111e-01 3.893047e-01 6.722019e-01 1.209772e+00 6.772040e-01 9.162596e-01 1.412211e-01 -3.716548e-01 3.022257e-01 -5.029565e-01 2.368138e-02 -7.379781e-02 -1.174162e-01 1.583296e-01 -4.270199e-02 2.368950e-01 2.682150e-02 3.357980e-01 6.476653e-01
<VARIANCE> 39
 6.283814e+01 3.728363e+01 5.660696e+01 3.629596e+01 5.699333e+01 6.336712e+01 5.457195e+01 8.334739e+01 4.174704e+01 4.617094e+01 5.464583e+01 3.304746e+01 6.089318e+01 7.204262e+00 4.748545e+00 6.348299e+00 6.683918e+00 6.601454e+00 6.928178e+00 6.117609e+00 6.410647e+00 5.136923e+00 5.081532e+00 5.987206e+00 4.343893e+00 7.737782e+00 1.123276e+00 6.441870e-01 8.939116e-01 8.474156e-01 1.131534e+00 1.272351e+00 9.005406e-01 1.182243e+00 9.187343e-01 8.400798e-01 1.208673e+00 7.347800e-01 1.006412e+00
<GCONST> 1.456441e+02
<STATE> 3
<MEAN> 39
 -1.000723e+01 -6.231928e+00 2.107175e+00 -1.383012e+01 -7.478148e+00 -1.233498e+01 -1.395923e+01 -1.070011e+01 -6.996691e+00 -4.451716e+00 -5.984002e+00 -2.277969e-01 5.128053e+01 9.125940e-01 -1.295636e+00 7.145777e-01 -8.912613e-01 -2.549133e-01 -2.365542e-01 9.032077e-02 1.124452e+00 1.530777e-01 4.401426e-01 -8.411089e-01 7.572455e-01 1.618751e+00 1.613389e-01 1.669436e-01 -1.730612e-01 5.538973e-01 -6.660725e-02 4.135518e-01 3.026152e-01 1.177007e-01 -8.271845e-02 -1.842105e-01 -4.435159e-01 -4.677322e-01 -6.894687e-01
<VARIANCE> 39
 8.561608e+01 8.218349e+01 1.197094e+02 7.080443e+01 8.863001e+01 7.494189e+01 7.287409e+01 8.372092e+01 7.394711e+01 6.866688e+01 7.649741e+01 4.770339e+01 4.549560e+01 7.086781e+00 7.805966e+00 5.913254e+00 7.712742e+00 6.876612e+00 7.155130e+00 9.050076e+00 7.708019e+00 6.616553e+00 7.433731e+00 8.131286e+00 5.104022e+00 8.525249e+00 1.469092e+00 1.181176e+00 9.928164e-01 9.675861e-01 1.425125e+00 1.579596e+00 1.753534e+00 1.528667e+00 1.190346e+00 1.573838e+00 1.707530e+00 8.716424e-01 7.836836e-01
<GCONST> 1.564797e+02
<STATE> 4
<MEAN> 39
 -3.325922e+00 -9.905375e+00 -2.870653e+00 -8.742761e+00 -1.045533e+01 -1.180511e+01 -1.127462e+01 -3.083345e+00 -7.443970e+00 -5.149817e+00 -5.690638e+00 -1.900112e+00 4.905370e+01 -1.474977e-02 2.559052e-01 -1.975209e-01 5.463603e-01 5.986355e-02 4.653499e-01 4.142047e-01 2.401923e-01 2.468109e-01 -2.261839e-01 -1.464903e-01 -3.769172e-01 -8.742836e-01 -1.306168e-01 1.010531e-01 -3.010034e-02 3.932378e-02 6.852585e-02 6.715773e-02 -1.119744e-01 -2.012765e-01 -5.370575e-02 -4.564202e-04 7.817268e-02 -1.981903e-02 -8.943512e-02
<VARIANCE> 39
 6.312536e+01 1.203091e+02 1.030779e+02 5.557507e+01 9.510621e+01 8.762281e+01 7.379415e+01 7.547677e+01 4.967346e+01 6.122050e+01 7.765597e+01 5.814267e+01 9.478284e+01 1.729800e+00 3.770638e+00 3.113890e+00 2.821546e+00 3.877416e+00 4.083071e+00 3.166115e+00 4.030664e+00 2.764637e+00 2.939721e+00 3.341923e+00 2.865246e+00 1.947029e+00 3.779055e-01 4.774408e-01 4.865366e-01 4.577181e-01 7.157297e-01 5.990274e-01 6.553297e-01 6.833778e-01 5.982741e-01 5.380582e-01 7.961583e-01 5.893924e-01 3.537799e-01
<GCONST> 1.344893e+02
<TRANSP> 5
 0.000000e+00 1.000000e+00 0.000000e+00 0.000000e+00 0.000000e+00
 0.000000e+00 7.561495e-01 2.438505e-01 0.000000e+00 0.000000e+00
 0.000000e+00 0.000000e+00 6.883591e-01 3.116409e-01 0.000000e+00
 0.000000e+00 0.000000e+00 0.000000e+00 7.270375e-01 2.729624e-01
 0.000000e+00 0.000000e+00 0.000000e+00 0.000000e+00 0.000000e+00
<ENDHMM>
~h "v"
<BEGINHMM>
<NUMSTATES> 5
<STATE> 2
<MEAN> 39
 -7.473016e+00 -5.644165e+00 -5.453012e+00 -1.113871e+01 -2.998622e+00 -9.472725e+00 -8.826141e+00 -1.173177e+01 -5.955303e+00 -7.643927e+00 -6.274038e+00 -2.628815e+00 5.034990e+01 8.377020e-01 -1.193960e+00 2.001222e-01 -7.439708e-01 4.381922e-01 -4.922910e-01 -1.226592e+00 2.418882e-02 2.397660e-01 2.447451e-01 -3.616390e-01 3.108416e-01 1.640707e+00 3.549597e-01 -8.544861e-02 2.429505e-01 4.437163e-03 -1.451838e-01 3.457216e-02 -4.482583e-01 2.001438e-02 -8.958507e-02 1.073544e-01 -4.294124e-01 -3.149653e-01 3.105064e-02
<VARIANCE> 39
 1.152260e+02 9.611746e+01 8.107480e+01 7.042078e+01 5.436279e+01 8.038717e+01 9.058427e+01 7.004816e+01 7.673715e+01 6.844920e+01 9.239653e+01 4.325930e+01 6.519518e+01 1.054551e+01 7.221840e+00 5.821764e+00 6.685715e+00 7.552095e+00 1.210966e+01 1.437249e+01 7.110097e+00 8.132994e+00 5.584163e+00 7.584097e+00 3.073132e+00 6.525277e+00 1.487022e+00 1.039866e+00 1.160630e+00 7.940742e-01 1.581404e+00 1.708297e+00 2.160026e+00 1.409527e+00 1.309249e+00 1.235361e+00 1.599646e+00 6.036389e-01 8.169673e-01
<GCONST> 1.564971e+02
<STATE> 3
<MEAN> 39
 1.814558e-01 -1.293939e+01 -7.078232e+00 -1.474914e+01 -2.262126e+00 -4.179031e+00 -1.545456e+01 -1.160927e+01 -2.601699e+00 -6.108696e+00 -1.038643e+01 -7.603876e+00 5.549605e+01 8.765560e-01 -2.691486e-01 1.875058e-01 -6.003350e-02 1.750030e-01 1.231748e+00 -4.199388e-01 3.830206e-01 -5.860008e-01 -2.807673e-01 -1.172534e+00 -1.530885e+00 5.347156e-01 -4.805455e-01 7.677764e-01 6.411920e-02 4.789336e-01 -2.354617e-01 -2.871520e-01 5.564842e-01 2.389880e-01 -2.015633e-01 -4.850482e-01 4.148334e-03 -3.869962e-02 -7.240767e-01
<VARIANCE> 39
 2.974271e+01 5.800296e+01 4.967177e+01 5.051934e+01 3.865022e+01 1.517143e+02 5.423071e+01 4.734465e+01 7.845390e+01 6.322075e+01 4.221527e+01 5.499118e+01 2.900508e+01 3.539172e+00 7.596196e+00 2.397474e+00 4.125093e+00 2.684420e+00 5.454252e+00 4.583026e+00 4.890923e+00 3.431172e+00 5.188015e+00 3.551314e+00 3.513749e+00 4.734702e+00 4.775738e-01 1.120995e+00 5.368598e-01 6.720338e-01 7.195491e-01 1.059867e+00 1.007045e+00 9.773070e-01 1.015667e+00 8.195139e-01 6.974314e-01 6.333780e-01 8.089530e-01
<GCONST> 1.383029e+02
<STATE> 4
<MEAN> 39
 -4.686596e+00 -9.008595e+00 -5.313821e+00 -1.124171e+01 -5.338089e+00 -3.714669e+00 -6.315598e+00 -5.009830e+00 -6.371329e+00 -1.223226e+01 -1.410221e+01 -1.127520e+01 5.031336e+01 -8.046379e-01 1.099444e+00 2.420571e-01 4.581655e-01 -3.757382e-01 -7.136719e-01 7.706847e-01 2.051597e-01 -9.606238e-02 -3.475310e-01 5.237100e-02 8.881801e-02 -1.219142e+00 2.629676e-02 -4.137665e-03 1.314938e-02 -1.466165e-02 -2.091971e-02 -6.590827e-02 -1.946601e-01 -2.169977e-01 -4.008526e-02 1.972470e-01 1.997902e-01 1.971492e-01 -4.962561e-02
<VARIANCE> 39
 5.731780e+01 7.861102e+01 5.003065e+01 3.806969e+01 3.310776e+01 6.358335e+01 6.852554e+01 5.363367e+01 5.173485e+01 3.967778e+01 4.633165e+01 3.323749e+01 5.847659e+01 3.095537e+00 3.016300e+00 2.508613e+00 3.561358e+00 3.634969e+00 3.199691e+00 5.021158e+00 4.312757e+00 3.785291e+00 4.002475e+00 3.386296e+00 2.809965e+00 1.262680e+00 5.095823e-01 4.734493e-01 4.452014e-01 7.254298e-01 5.998394e-01 6.948755e-01 9.797172e-01 6.968615e-01 6.512508e-01 7.768967e-01 6.088322e-01 5.126492e-01 2.392654e-01
<GCONST> 1.306111e+02
<TRANSP> 5
 0.000000e+00 1.000000e+00 0.000000e+00 0.000000e+00 0.000000e+00
 0.000000e+00 5.900245e-01 4.099756e-01 0.000000e+00 0.000000e+00
 0.000000e+00 0.000000e+00 6.764743e-01 3.235257e-01 0.000000e+00
 0.000000e+00 0.000000e+00 0.000000e+00 8.532529e-01 1.467471e-01
 0.000000e+00 0.000000e+00 0.000000e+00 0.000000e+00 0.000000e+00
<ENDHMM>
~h "w"
<BEGINHMM>
<NUMSTATES> 5
<STATE> 2
<MEAN> 39
 -4.748145e+00 -5.848472e+00 -6.171517e+00 -1.410567e+01 2.289505e-01 -6.645648e+00 -1.318377e+01 -1.057784e+01 -9.453421e+00 -3.976317e+00 -5.754749e+00 -2.895447e+00 4.699244e+01 5.689694e-01 -1.535876e+00 3.097655e-01 -4.494605e-01 1.027007e-01 2.571995e-01 -6.797500e-01 3.913178e-01 -3.040494e-01 -1.416703e-01 -5.952953e-01 -1.730018e-01 1.305799e+00 -1.316928e-01 7.687077e-02 -1.128455e-01 3.927965e-01 -2.447283e-01 -1.932778e-02 2.724979e-01 2.461558e-02 1.353708e-01 -1.108407e-01 -1.761615e-01 -9.861224e-02 -1.587645e-01
<VARIANCE> 39
 1.089652e+02 9.947012e+01 4.180698e+01 1.163443e+02 8.098701e+01 1.205889e+02 5.820320e+01 7.946112e+01 4.841654e+01 8.118303e+01 5.188662e+01 3.588671e+01 1.352725e+02 6.736724e+00 4.978949e+00 2.514153e+00 8.874698e+00 7.286080e+00 5.208587e+00 7.543360e+00 8.161209e+00 4.463857e+00 6.081300e+00 5.740054e+00 2.574116e+00 9.053570e+00 9.832603e-01 9.728175e-01 3.699038e-01 1.627702e+00 1.524577e+00 1.069127e+00 1.383730e+00 1.696547e+00 7.095610e-01 1.282705e+00 9.657439e-01 5.026143e-01 8.567024e-01
<GCONST> 1.501871e+02
<STATE> 3
<MEAN> 39
 -1.848513e+00 -1.410231e+01 -8.645988e+00 -7.576507e+00 -1.626117e+00 -1.192024e+01 -1.431659e+01 -4.106536e+00 -1.338605e+01 -8.759789e+00 -3.708382e+00 -6.021462e+00 5.133814e+01 -4.300522e-02 -2.890609e-03 -1.009365e-02 5.508769e-01 -4.797776e-01 2.283695e-01 4.104390e-01 8.296807e-02 2.019933e-01 -2.513780e-01 -4.906794e-01 -3.736717e-02 -5.360103e-01 7.040624e-02 2.535734e-01 8.922629e-04 -3.025251e-02 -1.574505e-01 6.448712e-03 2.193909e-03 -2.454859e-01 1.466034e-01 2.024598e-01 9.637249e-02 3.459129e-02 -5.745228e-02
<VARIANCE> 39
 8.012817e+01 1.603940e+02 5.778949e+01 7.695215e+01 5.557333e+01 8.911761e+01 5.879751e+01 1.195146e+02 6.044185e+01 8.243568e+01 7.130719e+01 2.690054e+01 9.939582e+01 1.062964e+00 1.960829e+00 2.081325e+00 2.185178e+00 2.714939e+00 3.206811e+00 2.602969e+00 4.621012e+00 2.395576e+00 3.394643e+00 3.859819e+00 1.880177e+00 1.825689e+00 2.099723e-01 3.610700e-01 2.708637e-01 2.560116e-01 4.496025e-01 4.150182e-01 4.722098e-01 5.705606e-01 5.353257e-01 4.758015e-01 7.237328e-01 3.039265e-01 2.240314e-01
<GCONST> 1.265395e+02
<STATE> 4
<MEAN> 39
 -1.058199e+01 -5.889123e+00 -5.948072e+00 -6.000597e+00 -2.242374e+00 -7.776405e+00 -6.556276e+00 -6.688203e+00 -4.903757e+00 -8.333244e+00 -7.116112e+00 -2.894602e+00 3.830209e+01 8.005348e-02 -1.105033e-01 1.936651e-01 4.377461e-01 -3.127836e-01 7.452071e-01 2.408173e-01 5.119351e-02 3.144011e-01 1.797089e-01 -2.880316e-02 -4.090316e-03 -6.947656e-01 2.315292e-01 1.081092e-01 2.392391e-02 -1.475488e-01 -6.638898e-02 -1.742904e-01 -3.899138e-01 -2.668643e-01 -2.072915e-01 1.936949e-02 3.164138e-02 -2.256211e-02 2.752425e-01
<VARIANCE> 39
 4.853735e+01 9.102992e+01 2.937904e+01 4.891037e+01 3.994666e+01 6.537180e+01 4.390092e+01 9.076025e+01 7.042739e+01 4.565487e+01 3.643393e+01 2.383565e+01 1.092884e+02 1.146973e+00 2.456180e+00 1.967560e+00 1.935158e+00 3.189976e+00 4.956862e+00 2.911202e+00 4.355980e+00 3.360272e+00 2.963165e+00 2.718982e+00 1.840802e+00 1.548510e+00 3.464270e-01 3.786075e-01 3.432498e-01 3.704590e-01 7.153197e-01 9.753292e-01 6.095542e-01 8.500935e-01 6.944923e-01 5.048334e-01 6.847371e-01 3.673615e-01 3.779110e-01
<GCONST> 1.265424e+02
<TRANSP> 5
 0.000000e+00 1.000000e+00 0.000000e+00 0.000000e+00 0.000000e+00
 0.000000e+00 5.244433e-01 4.755567e-01 0.000000e+00 0.000000e+00
 0.000000e+00 0.000000e+00 4.927600e-01 5.072401e-01 0.000000e+00
 0.000000e+00 0.000000e+00 0.000000e+00 6.141912e-01 3.858089e-01
 0.000000e+00 0.000000e+00 0.000000e+00 0.000000e+00 0.000000e+00
<ENDHMM>
~h "y"
<BEGINHMM>
<NUMSTATES> 5
<STATE> 2
<MEAN> 39
 -9.135334e-01 3.305244e+00 6.908884e+00 -1.241135e+01 -7.335007e+00 -2.021060e+00 -2.370526e+01 -1.992030e+01 -1.348369e+01 -5.147387e+00 -1.323971e+00 -3.297009e+00 4.419537e+01 -4.641719e-01 -3.674242e-01 2.748299e+00 -1.575850e+00 -2.063776e+00 1.559506e-01 -4.178567e-01 -1.600648e+00 6.560617e-01 8.717782e-01 -6.278762e-01 7.348925e-01 8.498062e-01 -2.257559e-02 -3.504494e-02 -6.839894e-03 2.131266e-01 -2.776652e-01 -5.697564e-01 3.746313e-01 1.879437e-01 -1.234466e-01 9.907746e-02 1.888720e-01 -6.169148e-03 2.289673e-01
<VARIANCE> 39
 8.236811e+01 3.504359e+01 1.313485e+02 7.179499e+01 3.131768e+01 8.083923e+01 3.992822e+01 2.478927e+01 1.168213e+01 2.609532e+01 2.905917e+01 3.804110e+01 4.572300e+00 6.121225e+00 2.846600e+00 3.324603e+00 1.677613e+00 1.315019e+01 9.345345e+00 2.064698e+00 6.442955e+00 9.355229e+00 2.452369e+00 2.697288e+00 9.728864e-01 3.867450e-01 5.567030e-01 6.601585e-01 6.645222e-01 5.614559e-01 1.103670e+00 1.861384e+00 6.234507e-01 9.058877e-01 1.008828e+00 9.283577e-01 6.433909e-01 3.037913e-01 4.445261e-02
<GCONST> 1.262527e+02
<STATE> 3
<MEAN> 39
 -2.051286e+00 -1.789513e+00 1.979137e+01 -1.300437e+01 -2.186706e+01 -1.113582e+01 -1.491765e+01 -1.748314e+01 -1.993819e+01 -6.279464e+00 -2.212297e-01 -1.007989e+00 4.814584e+01 3.014717e-01 -4.951470e-01 -1.521632e-02 7.353780e-01 2.450928e-01 -2.323187e+00 8.926204e-01 1.642081e+00 -6.313351e-01 -1.229051e+00 2.954772e-01 2.494214e-01 5.702912e-01 -3.460262e-01 1.845093e-01 -7.064873e-01 1.939610e-02 1.017815e+00 1.921301e-01 -2.364276e-01 4.648364e-01 6.317259e-01 -8.353307e-02 -2.272407e-01 -6.431200e-02 -1.266096e-01
<VARIANCE> 39
 2.065009e+01 2.934302e+01 1.472836e+02 3.747625e+01 1.283215e+02 4.102795e+01 6.194585e+01 7.850705e+01 5.481076e+01 3.445905e+01 3.175519e+01 1.609941e+01 9.834927e+00 6.128609e+00 5.518295e+00 4.215082e+00 3.708810e+00 9.050331e+00 5.617279e+00 7.091054e+00 6.383492e+00 6.935910e+00 1.759944e+00 1.935709e+00 5.938470e-01 7.550204e-01 2.809500e-01 4.896314e-01 8.781611e-01 2.740800e-01 1.426338e+00 2.846358e-01 1.207820e+00 1.980620e+00 8.696948e-01 7.539154e-01 4.031722e-01 2.221726e-01 7.486828e-02
<GCONST> 1.273327e+02
<STATE> 4
<MEAN> 39
 -1.343307e+01 1.164410e+01 -1.126410e-01 -8.252872e+00 -1.679709e+00 -1.721411e+01 -8.785471e+00 -1.833708e+01 -9.896824e+00 -9.635797e+00 -1.907963e+00 -4.658104e+00 4.723112e+01 -3.490193e-01 1.245429e-01 4.680934e-01 -6.972672e-01 -2.223210e-01 4.120197e-01 -3.876900e-01 -2.759247e-01 1.101689e+00 -2.596422e-02 1.272397e-01 -4.683478e-01 -1.769882e-02 2.296662e-01 -4.195164e-01 4.787135e-01 -1.527394e-01 -3.402730e-01 4.777123e-01 -2.185979e-01 -5.468794e-02 -8.491200e-02 -6.017686e-02 -2.259490e-02 -3.522336e-02 -5.839424e-02
<VARIANCE> 39
 1.463294e+02 8.151919e+01 5.837170e+01 3.728740e+01 1.266023e+02 4.611040e+01 9.473009e+01 6.599315e+01 5.899750e+01 1.999675e+01 3.804029e+01 2.503388e+01 1.718944e+01 8.485262e+00 6.158056e+00 9.142565e+00 4.361506e+00 1.771620e+01 6.462085e+00 5.142480e+00 5.298169e+00 3.421368e+00 3.156530e+00 3.811765e+00 1.860783e+00 1.556995e+00 1.054572e+00 1.013094e+00 6.058131e-01 5.128717e-01 2.438716e+00 1.276074e+00 6.645923e-01 1.280372e+00 4.288570e-01 5.843039e-01 8.426132e-01 5.045674e-01 4.085569e-01
<GCONST> 1.401435e+02
<TRANSP> 5
 0.000000e+00 1.000000e+00 0.000000e+00 0.000000e+00 0.000000e+00
 0.000000e+00 4.019535e-01 5.980465e-01 0.000000e+00 0.000000e+00
 0.000000e+00 0.000000e+00 6.776304e-01 3.223697e-01 0.000000e+00
 0.000000e+00 0.000000e+00 0.000000e+00 8.137549e-01 1.862451e-01
 0.000000e+00 0.000000e+00 0.000000e+00 0.000000e+00 0.000000e+00
<ENDHMM>
~h "z"
<BEGINHMM>
<NUMSTATES> 5
<STATE> 2
<MEAN> 39
 -8.327203e+00 3.496534e+00 -3.286175e+00 -1.112107e+01 -9.287107e+00 -1.521178e+01 -9.441758e+00 -1.492047e+01 -7.213957e+00 -1.178723e+01 -9.194853e+00 -7.059438e+00 5.282437e+01 -4.425967e+00 5.605182e+00 -3.792143e+00 2.386835e+00 8.567198e-02 -1.358064e+00 2.826643e+00 -4.495562e-01 2.154293e+00 -1.111527e+00 1.548304e+00 -1.024802e+00 4.007153e-02 -4.329437e-01 -2.552989e-02 -3.120911e-01 2.568413e-01 3.551534e-01 4.802799e-01 -1.055670e-01 5.217118e-01 -9.321719e-02 6.822262e-01 7.225041e-02 2.692653e-01 2.514484e-02
<VARIANCE> 39
 7.139842e+01 1.145125e+02 1.320534e+02 8.640176e+01 7.447479e+01 8.045463e+01 8.029151e+01 6.161479e+01 7.073428e+01 5.390090e+01 5.913292e+01 5.055584e+01 3.698529e+01 2.959637e+00 8.079546e+00 6.969814e+00 1.082017e+01 9.223674e+00 5.846240e+00 6.396449e+00 4.751340e+00 4.178325e+00 5.212139e+00 4.127114e+00 3.699762e+00 8.743660e-01 1.202246e+00 2.008238e+00 1.361495e+00 1.403971e+00 9.812426e-01 1.248693e+00 1.402257e+00 8.754257e-01 9.997680e-01 8.721551e-01 9.401841e-01 7.264541e-01 1.773966e-01
<GCONST> 1.473541e+02
<STATE> 3
<MEAN> 39
 -2.205751e+01 1.628489e+01 -1.492648e+01 -1.172066e+00 -7.273281e+00 -1.379085e+01 -3.974610e+00 -1.242530e+01 -4.581023e+00 -9.652529e+00 -6.278241e+00 -8.283759e+00 5.103408e+01 -9.935848e-01 1.998013e-01 -4.407386e-01 1.014431e+00 5.744969e-01 5.740514e-01 -1.081386e-01 3.194709e-01 -1.010032e-01 4.673186e-01 3.217701e-01 5.168085e-01 -8.468598e-01 7.729511e-01 -9.665790e-01 7.065221e-01 -5.299296e-01 -1.043850e-01 5.923910e-02 -3.848167e-01 -7.504764e-02 -2.023999e-01 -6.410550e-03 -8.706550e-02 2.609313e-01 -1.168932e-01
<VARIANCE> 39
 2.393161e+01 2.444980e+01 6.151720e+01 4.603295e+01 6.610224e+01 5.284162e+01 4.501756e+01 4.886060e+01 4.579706e+01 4.939470e+01 5.632652e+01 3.087078e+01 2.280924e+01 3.203081e+00 4.136911e+00 4.581665e+00 3.609904e+00 4.708320e+00 4.729273e+00 4.160784e+00 4.756450e+00 3.136574e+00 3.838931e+00 4.268667e+00 3.130800e+00 1.056153e+00 5.230181e-01 8.075879e-01 6.743814e-01 4.476500e-01 1.075105e+00 8.619618e-01 1.039208e+00 8.583208e-01 8.005153e-01 7.230886e-01 9.033750e-01 7.018855e-01 1.853033e-01
<GCONST> 1.318400e+02
<STATE> 4
<MEAN> 39
 -2.274526e+01 7.999309e+00 -1.281743e+01 4.582620e-01 -4.716260e+00 -6.743509e+00 -2.122189e+00 -1.011465e+01 -1.341268e+00 -7.691755e+00 -1.669617e+00 -3.628841e+00 4.122182e+01 6.598870e-01 -1.254752e+00 4.861120e-01 -4.444220e-01 -1.269532e-01 4.033629e-01 -1.275154e-01 2.305713e-01 -6.542529e-02 6.772834e-02 1.660709e-01 1.950631e-01 -9.636313e-01 1.852659e-01 -5.843743e-02 9.156979e-02 -3.882354e-02 -7.139900e-02 3.506162e-02 -9.298157e-02 -7.038364e-02 -8.146612e-02 -7.619337e-02 -1.064820e-01 -8.472491e-02 3.406630e-02
<VARIANCE> 39
 3.282275e+01 5.861599e+01 2.747806e+01 5.700337e+01 6.094322e+01 6.218909e+01 6.789687e+01 4.367063e+01 4.277402e+01 3.565986e+01 3.683618e+01 2.388416e+01 5.372884e+01 2.454460e+00 2.815034e+00 2.651557e+00 3.219429e+00 4.038951e+00 3.913247e+00 4.800650e+00 4.353065e+00 3.359397e+00 3.646347e+00 3.381223e+00 2.824118e+00 1.516093e+00 3.521114e-01 3.898649e-01 4.155874e-01 6.285951e-01 7.386183e-01 7.105408e-01 8.523456e-01 9.335982e-01 6.270936e-01 7.456824e-01 6.064986e-01 5.348103e-01 2.413084e-01
<GCONST> 1.284705e+02
<TRANSP> 5
 0.000000e+00 1.000000e+00 0.000000e+00 0.000000e+00 0.000000e+00
 0.000000e+00 6.801831e-01 3.198170e-01 0.000000e+00 0.000000e+00
 0.000000e+00 0.000000e+00 8.098798e-01 1.901202e-01 0.000000e+00
 0.000000e+00 0.000000e+00 0.000000e+00 8.545275e-01 1.454725e-01
 0.000000e+00 0.000000e+00 0.000000e+00 0.000000e+00 0.000000e+00
<ENDHMM>
~h "aa"
<BEGINHMM>
<NUMSTATES> 5
<STATE> 2
<MEAN> 39
 -7.783052e+00 -2.833664e+00 -6.414036e+00 -6.266434e+00 -8.495470e+00 -7.032316e+00 -6.073433e+00 -6.648583e+00 -6.125212e+00 -1.018741e+01 -9.454268e+00 -8.590666e+00 3.944442e+01 -5.436091e-01 8.686247e-02 -5.752128e-01 3.643784e-01 -1.209424e-01 7.068347e-01 -1.455163e-01 -3.207644e-01 -3.995771e-01 2.042075e-01 -1.125549e-01 -2.870671e-01 -1.576617e+00 2.850767e-02 -1.996228e-01 2.147055e-01 -6.195503e-02 2.632790e-01 5.433769e-02 -9.723605e-02 1.262989e-01 7.323593e-02 7.160711e-02 -2.006345e-01 7.167961e-02 2.145383e-01
<VARIANCE> 39
 5.022276e+01 5.199656e+01 2.732969e+01 1.554787e+01 4.344526e+01 3.494200e+01 2.617951e+01 3.896413e+01 5.067383e+01 3.445555e+01 3.734697e+01 1.599795e+01 7.097005e+01 1.215388e+00 1.771577e+00 1.334427e+00 2.309277e+00 3.026556e+00 1.649461e+00 1.943137e+00 2.771953e+00 4.247626e+00 3.008885e+00 2.715484e+00 8.731840e-01 6.770510e-01 2.006013e-01 1.988727e-01 1.590958e-01 4.596052e-01 5.050362e-01 2.001125e-01 4.584367e-01 5.189041e-01 8.663366e-01 6.091967e-01 4.111085e-01 2.025874e-01 5.774628e-02
<GCONST> 1.106336e+02
<STATE> 3
<MEAN> 39
 -1.167726e+01 -3.312893e+00 -7.549172e+00 -3.840980e+00 -6.536527e+00 -2.509286e+00 -4.454021e+00 -6.550373e+00 -6.433254e+00 -6.731465e+00 -8.412746e+00 -7.677959e+00 3.626744e+01 -3.181347e-01 -5.183700e-01 5.940077e-02 5.490162e-01 2.839335e-01 5.812658e-01 3.712094e-01 8.628666e-01 8.657245e-01 4.336817e-01 -1.223124e-01 5.038825e-01 -7.208743e-01 -7.375103e-02 3.273547e-02 1.211703e-01 2.543807e-02 2.334699e-01 -2.364225e-01 -1.354473e-01 5.431716e-02 2.064987e-01 -1.090994e-01 3.771789e-01 3.113621e-01 2.512335e-01
<VARIANCE> 39
 6.391180e+01 6.880581e+01 3.750473e+01 2.072714e+01 2.990741e+01 4.020839e+01 3.606073e+01 2.659500e+01 2.835680e+01 3.649186e+01 4.015321e+01 2.132477e+01 9.885493e+01 6.839581e-01 1.848065e+00 8.545707e-01 1.657775e+00 1.811211e+00 3.414250e+00 2.265806e+00 2.619030e+00 2.418237e+00 3.665406e+00 2.794218e+00 1.692216e+00 5.429386e-01 1.533591e-01 1.364787e-01 2.979536e-01 2.539008e-01 5.135112e-01 4.831530e-01 4.210938e-01 3.054640e-01 4.791453e-01 5.385715e-01 5.276577e-01 2.040472e-01 1.538790e-01
<GCONST> 1.109305e+02
<STATE> 4
<MEAN> 39
 -1.198826e+01 -2.389124e+00 -3.714439e+00 2.414294e+00 -4.255642e-01 1.886417e+00 -8.470570e-01 -2.185269e+00 -1.815177e+00 -5.901279e+00 -2.565801e+00 -6.518559e-01 3.493126e+01 -1.325032e-01 -1.851606e-02 2.408700e-02 2.043766e-01 2.486694e-01 2.631637e-02 1.442154e-01 7.927425e-02 1.388170e-01 -1.026781e-01 9.383766e-02 2.454892e-01 -2.149969e-01 -6.292295e-02 5.798057e-03 2.418092e-02 -1.450815e-01 -1.696177e-02 -5.884640e-02 -3.941575e-02 -1.147153e-01 -1.114295e-01 8.605743e-03 -4.491231e-02 -4.156686e-02 1.067764e-01
<VARIANCE> 39
 5.306744e+01 5.316629e+01 6.941488e+01 4.077962e+01 4.683037e+01 4.557865e+01 4.025583e+01 4.552978e+01 3.986345e+01 2.364105e+01 3.996462e+01 2.352917e+01 3.504834e+01 1.336383e+00 1.852573e+00 2.473254e+00 2.987916e+00 2.511633e+00 3.232593e+00 2.551302e+00 5.196627e+00 3.865087e+00 2.284673e+00 3.032642e+00 1.975287e+00 1.341368e+00 2.551102e-01 2.720118e-01 5.656274e-01 5.481488e-01 4.480588e-01 6.239368e-01 4.636364e-01 1.107692e+00 7.837121e-01 4.074547e-01 6.707012e-01 3.277788e-01 2.989288e-01
<GCONST> 1.222052e+02
<TRANSP> 5
 0.000000e+00 1.000000e+00 0.000000e+00 0.000000e+00 0.000000e+00
 0.000000e+00 6.643654e-01 3.356346e-01 0.000000e+00 0.000000e+00
 0.000000e+00 0.000000e+00 5.373669e-01 4.626331e-01 0.000000e+00
 0.000000e+00 0.000000e+00 0.000000e+00 8.126733e-01 1.873267e-01
 0.000000e+00 0.000000e+00 0.000000e+00 0.000000e+00 0.000000e+00
<ENDHMM>
~h "ae"
<BEGINHMM>
<NUMSTATES> 5
<STATE> 2
<MEAN> 39
 -1.174439e+01 -7.721886e+00 -3.042260e+00 -6.286827e+00 -5.497102e+00 -5.233990e+00 -8.122542e+00 -6.919721e+00 -5.856216e+00 -8.335601e+00 -3.865852e+00 -2.675923e+00 4.179531e+01 1.374418e+00 -2.634513e+00 8.617002e-01 -1.629318e+00 -4.209104e-01 -5.206602e-01 -5.092421e-01 7.359657e-01 -1.165960e+00 -1.912304e-01 -8.692015e-01 1.147131e+00 3.501602e+00 4.287145e-01 -5.935584e-01 1.630577e-01 -5.462946e-01 -8.666077e-02 -2.344951e-01 -5.434475e-02 1.268969e-01 -3.391222e-01 8.702023e-02 -6.911156e-01 8.570910e-03 1.049502e+00
<VARIANCE> 39
 6.862164e+01 9.844080e+01 3.909747e+01 5.205116e+01 5.677310e+01 7.990856e+01 8.496856e+01 6.577213e+01 6.504012e+01 6.348208e+01 4.096365e+01 3.924824e+01 1.832723e+02 7.066382e+00 7.366312e+00 5.311493e+00 7.193840e+00 5.388455e+00 6.740891e+00 6.975095e+00 8.010688e+00 5.085166e+00 6.116576e+00 7.602141e+00 6.169585e+00 1.336409e+01 8.525894e-01 7.826304e-01 6.047783e-01 8.136477e-01 9.927158e-01 1.286657e+00 1.220406e+00 1.174489e+00 7.908980e-01 9.175618e-01 1.002374e+00 8.250973e-01 1.633384e+00
<GCONST> 1.506414e+02
<STATE> 3
<MEAN> 39
 -5.673701e+00 -2.003182e+01 2.804928e+00 -1.705031e+01 -5.561374e+00 -8.079248e+00 -1.046742e+01 -4.103654e+00 -1.154435e+01 -5.749481e+00 -1.429986e+01 4.857644e-01 6.115126e+01 3.512856e-01 -1.404778e+00 1.672820e-01 -7.812246e-01 6.639922e-01 4.261552e-01 5.777915e-01 1.257069e+00 -7.690836e-01 3.581116e-01 -1.311454e+00 1.108177e-01 1.946670e+00 -2.382696e-01 1.011178e+00 -2.440583e-01 7.083992e-01 8.170356e-02 -6.705457e-03 4.871937e-02 -3.175973e-01 1.708282e-01 -1.356151e-01 4.937947e-01 -3.413221e-01 -1.007417e+00
<VARIANCE> 39
 2.571803e+01 4.494287e+01 7.017825e+01 4.195569e+01 6.774461e+01 9.357620e+01 6.428718e+01 5.649197e+01 4.378239e+01 8.166447e+01 4.556685e+01 5.187883e+01 2.172259e+01 2.650794e+00 6.691885e+00 3.480481e+00 5.571397e+00 4.164465e+00 7.739409e+00 5.417613e+00 5.598572e+00 3.922897e+00 6.540793e+00 5.159567e+00 3.745417e+00 6.912117e+00 5.227499e-01 9.934844e-01 5.896274e-01 7.827147e-01 7.522492e-01 1.459588e+00 1.114619e+00 1.140481e+00 6.476073e-01 1.061373e+00 5.745479e-01 9.439201e-01 9.414765e-01
<GCONST> 1.414209e+02
<STATE> 4
<MEAN> 39
 -2.722993e+00 -2.193065e+01 -1.015170e+00 -1.306821e+01 -4.056010e+00 -4.978691e+00 -9.593383e+00 -1.065528e+00 -1.168947e+01 -9.599606e+00 -1.420456e+01 -2.919821e+00 6.106510e+01 5.025494e-01 1.426816e+00 -9.374486e-02 1.789464e-01 -7.061139e-01 -5.682252e-01 1.138452e-01 -1.576867e-01 4.179011e-01 -7.890188e-01 -1.574599e-01 -6.162912e-01 -1.066238e+00 2.322612e-02 3.471838e-01 -1.529755e-01 7.985453e-02 -1.424629e-01 -2.107455e-01 9.768642e-03 -1.684373e-01 1.325900e-01 -1.090912e-01 8.807363e-02 -7.728096e-02 -3.481628e-01
<VARIANCE> 39
 1.905422e+01 5.371469e+01 4.761832e+01 5.850195e+01 4.918439e+01 5.451229e+01 3.913254e+01 4.078650e+01 4.639539e+01 7.285332e+01 7.234067e+01 3.893596e+01 2.771015e+01 1.089682e+00 2.667360e+00 2.135623e+00 2.969928e+00 2.633803e+00 3.136675e+00 2.944334e+00 2.661716e+00 3.026307e+00 3.969066e+00 2.805914e+00 2.896288e+00 2.027276e+00 2.305399e-01 3.160886e-01 3.575265e-01 4.782683e-01 4.487535e-01 4.879255e-01 5.345524e-01 5.777220e-01 5.216250e-01 7.500581e-01 4.896346e-01 4.630578e-01 2.021041e-01
<GCONST> 1.224725e+02
<TRANSP> 5
 0.000000e+00 1.000000e+00 0.000000e+00 0.000000e+00 0.000000e+00
 0.000000e+00 6.128613e-01 3.871387e-01 0.000000e+00 0.000000e+00
 0.000000e+00 0.000000e+00 6.898916e-01 3.101084e-01 0.000000e+00
 0.000000e+00 0.000000e+00 0.000000e+00 8.260686e-01 1.739314e-01
 0.000000e+00 0.000000e+00 0.000000e+00 0.000000e+00 0.000000e+00
<ENDHMM>
~h "ah"
<BEGINHMM>
<NUMSTATES> 5
<STATE> 2
<MEAN> 39
 -7.894183e+00 -4.966275e+00 -7.466955e+00 -8.478352e+00 -6.517110e+00 -6.320536e+00 -9.687729e+00 -6.460890e+00 -3.456235e+00 -7.314290e+00 -7.355507e+00 -3.665317e+00 4.608851e+01 1.452231e+00 -3.076652e+00 -2.963022e-01 -1.396865e+00 9.305527e-01 6.176272e-01 -9.035336e-01 4.523304e-01 -8.547133e-02 7.498801e-02 -1.288221e+00 2.651042e-01 2.549291e+00 1.309508e-01 -6.152862e-01 7.854727e-02 -6.462915e-02 4.207212e-01 1.213066e-01 -7.421555e-02 3.172180e-02 -2.496193e-01 6.064430e-02 -4.288821e-01 -1.069388e-01 6.226385e-01
<VARIANCE> 39
 9.817605e+01 1.115593e+02 8.215772e+01 9.009402e+01 5.880524e+01 6.626199e+01 8.910275e+01 1.128193e+02 8.679319e+01 5.862205e+01 6.278830e+01 4.418497e+01 1.131333e+02 9.201270e+00 1.167202e+01 5.812717e+00 7.981119e+00 6.825375e+00 9.305489e+00 8.137082e+00 1.049559e+01 7.437215e+00 6.724627e+00 9.117527e+00 4.527091e+00 1.183066e+01 1.203795e+00 1.657129e+00 8.491664e-01 1.437162e+00 1.215367e+00 1.629142e+00 1.578161e+00 1.762278e+00 1.224631e+00 1.092685e+00 1.225317e+00 7.415487e-01 1.572841e+00
<GCONST> 1.590224e+02
<STATE> 3
<MEAN> 39
 -2.040469e+00 -2.367830e+01 -5.781960e+00 -1.272766e+01 1.783206e+00 -2.251490e+00 -1.236397e+01 -3.768405e+00 -6.717037e+00 -5.975764e+00 -1.532453e+01 -3.882221e+00 6.137081e+01 3.593281e-01 -5.308084e-01 5.167540e-01 -2.345403e-01 2.966829e-01 -2.002029e-02 -2.911477e-02 2.967862e-01 -4.991046e-01 -5.207069e-01 -8.217097e-01 -3.071911e-01 8.218178e-01 -1.062730e-01 1.126851e+00 -3.933707e-02 2.433459e-01 -6.719567e-01 -4.180602e-01 8.781922e-02 -2.034942e-01 5.409965e-02 -2.889971e-01 3.642725e-01 -1.584490e-01 -8.338827e-01
<VARIANCE> 39
 1.475657e+01 1.914609e+01 4.241417e+01 4.313026e+01 4.394549e+01 8.381646e+01 4.371880e+01 4.520225e+01 6.625594e+01 5.552142e+01 6.143834e+01 3.972130e+01 1.777637e+01 1.859352e+00 6.848142e+00 3.327836e+00 4.494706e+00 5.183734e+00 6.107139e+00 3.758816e+00 4.217079e+00 5.672377e+00 5.020496e+00 5.086445e+00 3.035571e+00 3.878725e+00 4.393561e-01 6.828302e-01 5.820200e-01 7.613387e-01 6.238984e-01 8.125072e-01 6.764899e-01 9.190433e-01 1.143605e+00 9.903673e-01 1.049268e+00 5.561931e-01 4.839308e-01
<GCONST> 1.341182e+02
<STATE> 4
<MEAN> 39
 4.144657e-01 -1.494158e+01 -4.952642e+00 -1.214697e+01 -3.954836e+00 -6.714639e+00 -1.257565e+01 -5.969732e+00 -8.566196e+00 -1.218882e+01 -1.762837e+01 -7.302500e+00 5.611692e+01 -3.330515e-02 2.510492e+00 -3.581616e-01 7.017928e-01 -1.400817e+00 -1.132140e+00 3.312168e-01 -5.758362e-01 4.571138e-02 -1.430543e+00 4.217459e-01 -8.992638e-01 -1.621355e+00 -4.970824e-01 1.926806e-01 -2.540814e-01 1.590575e-01 2.863259e-01 1.227561e-01 1.878070e-01 -2.101726e-02 4.775329e-02 2.629842e-01 3.614221e-01 4.846568e-02 1.526889e-02
<VARIANCE> 39
 1.872395e+01 5.121822e+01 4.581580e+01 4.473018e+01 3.808168e+01 8.994203e+01 5.813081e+01 4.584941e+01 4.797736e+01 6.248603e+01 3.854699e+01 4.869967e+01 2.650632e+01 3.785154e+00 5.393995e+00 4.469770e+00 3.344997e+00 3.704400e+00 3.888616e+00 3.415443e+00 2.919215e+00 4.617423e+00 3.954676e+00 3.739795e+00 4.013458e+00 1.497702e+00 6.105875e-01 1.041794e+00 6.600651e-01 7.223544e-01 7.608003e-01 7.520374e-01 6.607974e-01 6.085028e-01 7.480230e-01 8.888290e-01 7.693846e-01 8.644120e-01 3.150931e-01
<GCONST> 1.330882e+02
<TRANSP> 5
 0.000000e+00 1.000000e+00 0.000000e+00 0.000000e+00 0.000000e+00
 0.000000e+00 7.503356e-01 2.496644e-01 0.000000e+00 0.000000e+00
 0.000000e+00 0.000000e+00 8.108016e-01 1.891985e-01 0.000000e+00
 0.000000e+00 0.000000e+00 0.000000e+00 6.975434e-01 3.024566e-01
 0.000000e+00 0.000000e+00 0.000000e+00 0.000000e+00 0.000000e+00
<ENDHMM>
~h "ao"
<BEGINHMM>
<NUMSTATES> 5
<STATE> 2
<MEAN> 39
 -7.281213e+00 -6.706660e+00 -4.520570e+00 -9.775282e+00 -5.503844e+00 -4.343177e+00 -1.437202e+01 -1.196834e+01 -5.758088e+00 -7.337934e+00 -3.652378e+00 -3.920603e+00 4.781083e+01 2.221269e+00 -1.445538e+00 -9.245204e-01 -2.000964e+00 -1.048120e-01 7.028253e-01 -4.122823e-01 3.220231e-01 -5.356580e-01 8.921399e-02 2.828163e-01 4.021063e-01 2.591244e+00 2.937111e-01 -3.109249e-01 -2.969186e-01 -2.333875e-01 3.706889e-01 -1.576889e-01 -8.025808e-02 4.366256e-01 -3.437715e-02 3.603944e-01 -3.467857e-01 -1.460229e-01 2.602648e-01
<VARIANCE> 39
 9.315719e+01 8.180221e+01 1.447807e+02 8.421651e+01 9.647208e+01 9.122182e+01 8.175052e+01 5.419418e+01 8.182493e+01 5.147176e+01 4.793904e+01 4.034963e+01 9.873981e+01 1.501143e+01 8.518008e+00 8.044987e+00 9.666539e+00 6.564945e+00 1.552561e+01 5.278505e+00 5.783802e+00 6.149985e+00 5.928015e+00 9.250604e+00 6.277768e+00 7.696691e+00 2.287078e+00 1.366367e+00 1.387367e+00 1.568266e+00 1.279769e+00 2.783501e+00 7.469305e-01 8.984520e-01 1.280849e+00 1.054272e+00 1.658702e+00 1.351264e+00 1.792732e+00
<GCONST> 1.594346e+02
<STATE> 3
<MEAN> 39
 9.113618e-01 -1.595645e+01 -9.393924e+00 -1.794118e+01 -4.718016e-01 -2.370439e+00 -1.655243e+01 -7.010065e+00 -6.683506e+00 4.365343e-01 -8.790262e+00 -5.770364e+00 5.851220e+01 8.947255e-01 -1.321130e+00 -1.852369e+00 -7.708531e-01 1.369369e+00 1.854319e+00 7.401946e-01 1.290521e+00 -4.971285e-01 1.691587e+00 4.813105e-01 -7.448174e-01 6.388221e-01 -4.896939e-01 4.344437e-01 1.364344e-01 5.906152e-01 -3.004542e-01 -3.015982e-02 2.444978e-01 -1.401958e-01 -2.312028e-01 -4.786768e-01 4.787975e-01 3.247016e-01 -4.464396e-01
<VARIANCE> 39
 2.518739e+01 2.657834e+01 6.096644e+01 8.624618e+01 5.439445e+01 1.534401e+02 4.438225e+01 2.842120e+01 8.192014e+01 1.182426e+02 5.117903e+01 3.083683e+01 1.298616e+01 1.384442e+00 2.855260e+00 5.596249e+00 2.499540e+00 3.476097e+00 7.136824e+00 2.535302e+00 4.021049e+00 4.967752e+00 4.174456e+00 5.236567e+00 3.548302e+00 1.528854e+00 3.937655e-01 3.220266e-01 5.426218e-01 5.402638e-01 5.913556e-01 1.741923e+00 6.113428e-01 3.813653e-01 1.215653e+00 8.784224e-01 1.333753e+00 6.755578e-01 2.076794e-01
<GCONST> 1.316225e+02
<STATE> 4
<MEAN> 39
 4.805611e+00 -1.653642e+01 -1.545723e+01 -1.182123e+01 1.297325e+00 -7.735598e+00 -1.382070e+01 -5.358106e-01 -9.619552e+00 -5.101588e+00 -4.779667e+00 -4.949322e+00 5.539764e+01 -1.005123e-03 1.552424e-01 3.579114e-01 4.296483e-01 -3.140137e-01 -8.711141e-01 7.634100e-02 2.092613e-01 2.670583e-01 -5.402498e-01 -1.018929e-01 4.251516e-03 -3.429503e-01 -6.828460e-02 8.328866e-02 1.535175e-01 -7.710247e-03 -1.179473e-01 -3.375274e-02 4.508773e-03 -1.276892e-01 5.541676e-02 -3.084923e-02 -7.733354e-02 -3.813617e-03 -5.405144e-02
<VARIANCE> 39
 1.840616e+01 3.590105e+01 5.635817e+01 1.391028e+02 6.541279e+01 2.540398e+02 4.649817e+01 6.244124e+01 7.612544e+01 6.424231e+01 4.138469e+01 3.736538e+01 2.711078e+01 6.773501e-01 1.695034e+00 2.986320e+00 2.202231e+00 3.953884e+00 4.741000e+00 3.407041e+00 2.297620e+00 4.185856e+00 2.968857e+00 2.690501e+00 2.455140e+00 5.076970e-01 8.100656e-02 2.374146e-01 2.469857e-01 2.841738e-01 4.757859e-01 6.309514e-01 5.422754e-01 3.850099e-01 6.796722e-01 4.336367e-01 4.404134e-01 4.328258e-01 6.641778e-02
<GCONST> 1.197398e+02
<TRANSP> 5
 0.000000e+00 1.000000e+00 0.000000e+00 0.000000e+00 0.000000e+00
 0.000000e+00 7.466841e-01 2.533159e-01 0.000000e+00 0.000000e+00
 0.000000e+00 0.000000e+00 6.626002e-01 3.373998e-01 0.000000e+00
 0.000000e+00 0.000000e+00 0.000000e+00 9.331356e-01 6.686435e-02
 0.000000e+00 0.000000e+00 0.000000e+00 0.000000e+00 0.000000e+00
<ENDHMM>
~h "aw"
<BEGINHMM>
<NUMSTATES> 5
<STATE> 2
<MEAN> 39
 3.557710e-01 -2.286296e+01 -2.311841e+00 -2.174272e+00 -2.394157e+00 -1.076272e+01 -9.352628e+00 1.167861e+00 -1.650018e+01 -1.798221e+01 -8.718715e+00 -9.270266e+00 5.444581e+01 1.114990e-02 1.073372e+00 -2.654455e-01 7.116110e-01 -4.997648e-01 -4.776535e-01 -2.911463e-01 1.629931e-01 2.405419e-02 -1.421373e-01 2.469778e-01 -1.306425e-01 -1.108004e+00 -1.695163e-01 1.129474e-01 6.344926e-02 -1.686870e-01 1.240187e-02 5.974722e-02 1.481924e-01 -1.958768e-01 9.292377e-02 2.267715e-01 6.019178e-02 1.622761e-01 -2.816116e-02
<VARIANCE> 39
 7.339612e+00 1.308307e+02 1.191002e+01 3.285382e+01 1.023912e+02 1.868989e+02 3.394092e+01 4.308803e+01 3.348193e+01 1.929433e+01 2.651379e+01 3.142449e+01 6.023427e+01 7.723089e-01 2.398817e+00 1.303645e+00 2.200465e+00 4.254392e+00 6.647386e+00 2.099585e+00 2.895848e+00 2.746808e+00 2.214133e+00 2.803979e+00 3.639089e+00 8.056777e-01 8.170945e-02 2.791749e-01 2.280032e-01 2.577850e-01 8.553799e-01 9.164169e-01 3.281213e-01 5.795435e-01 3.194705e-01 4.134669e-01 3.531358e-01 7.411392e-01 9.494438e-02
<GCONST> 1.154479e+02
<STATE> 3
<MEAN> 39
 -5.632699e+00 -5.036205e+00 -2.848603e+00 -6.067198e+00 -1.041183e+01 -1.246689e+01 -1.430430e+01 -1.008245e+01 -1.058641e+01 -1.089184e+01 -9.379550e+00 -4.055610e+00 3.897953e+01 -5.925961e-01 -8.241047e-01 -4.098478e-02 2.361574e-01 1.150802e+00 1.010958e+00 8.966442e-01 -4.874401e-01 -1.944361e-01 1.648238e+00 1.364286e+00 1.798761e+00 7.898375e-02 -4.897124e-02 -8.624420e-01 -4.944705e-02 5.911574e-03 2.544781e-01 -3.537138e-01 8.574483e-01 1.680947e-01 2.142754e-01 3.519215e-01 1.134376e-01 1.667343e-02 9.832639e-01
<VARIANCE> 39
 3.817048e+01 6.115585e+01 3.092838e+01 1.811373e+01 5.085337e+01 4.852518e+01 3.899936e+01 4.855149e+01 1.357040e+01 2.701148e+01 1.752611e+01 2.930132e+01 8.662254e+01 2.312729e+00 8.290366e+00 3.449509e+00 2.660053e+00 1.282820e+01 8.205869e+00 5.633908e+00 3.919237e+00 2.134688e+00 2.729086e+00 1.913645e+00 3.888631e+00 4.937569e+00 4.266922e-01 1.523018e+00 4.334466e-01 2.333950e-01 1.109886e+00 1.536703e+00 5.402727e-01 1.207919e+00 1.458856e-01 5.978503e-01 2.542200e-01 4.326654e-01 7.704721e-01
<GCONST> 1.284905e+02
<STATE> 4
<MEAN> 39
 -8.004940e+00 -1.915129e+01 -6.033490e+00 -3.363079e+00 -6.514621e-02 -5.389987e+00 -7.309991e+00 -4.535497e+00 -9.207559e+00 -2.023571e+00 -1.434184e+00 -1.716419e+00 4.475302e+01 4.206811e-01 -6.302010e-01 -2.643887e-01 -1.968379e-01 5.768446e-01 3.978453e-01 -3.260311e-02 4.283066e-01 1.951957e-01 1.285553e-01 4.109784e-02 -5.266781e-01 8.605003e-01 -6.463267e-02 3.864869e-01 -3.863252e-02 -1.461787e-01 -1.671832e-01 -1.083991e-01 -1.145501e-01 -2.304060e-02 1.202515e-01 -1.985582e-01 -1.172769e-01 -2.182637e-01 -2.091680e-01
<VARIANCE> 39
 1.070311e+02 1.230222e+02 2.935605e+01 1.783681e+01 5.038466e+01 1.175686e+02 7.021780e+01 2.393606e+01 4.853976e+01 2.442337e+01 3.371634e+01 5.901461e+01 2.394962e+02 3.663308e+00 1.121584e+01 2.344404e+00 1.674718e+00 3.619999e+00 6.133815e+00 5.211312e+00 3.230088e+00 4.946931e+00 3.837627e+00 3.512061e+00 2.809255e+00 1.177910e+01 6.384202e-01 1.556507e+00 4.915655e-01 3.277712e-01 4.737163e-01 1.080437e+00 8.216010e-01 5.754064e-01 9.177244e-01 6.528177e-01 6.684745e-01 4.711706e-01 1.622668e+00
<GCONST> 1.379610e+02
<TRANSP> 5
 0.000000e+00 1.000000e+00 0.000000e+00 0.000000e+00 0.000000e+00
 0.000000e+00 8.018073e-01 1.981927e-01 0.000000e+00 0.000000e+00
 0.000000e+00 0.000000e+00 5.393623e-01 4.606377e-01 0.000000e+00
 0.000000e+00 0.000000e+00 0.000000e+00 8.723260e-01 1.276740e-01
 0.000000e+00 0.000000e+00 0.000000e+00 0.000000e+00 0.000000e+00
<ENDHMM>
~h "ax"
<BEGINHMM>
<NUMSTATES> 5
<STATE> 2
<MEAN> 39
 -4.055676e+00 -4.922908e+00 -3.616236e+00 -6.636464e+00 -8.374857e+00 -1.026782e+01 -9.967382e+00 -8.122151e+00 -8.396239e+00 -1.031724e+01 -9.911108e+00 -7.171677e+00 4.411196e+01 -2.775876e-01 7.240766e-01 -1.273992e-01 2.559669e-01 -1.133260e-01 -2.378289e-01 -2.453423e-01 -7.840673e-01 1.260848e-01 -2.956851e-01 5.180686e-02 4.465169e-02 -7.835933e-01 -1.198185e-01 -3.886203e-01 3.819900e-02 -3.253956e-01 2.595063e-01 -3.715315e-02 -8.561489e-02 -3.027617e-02 1.279802e-02 3.024304e-01 1.681100e-01 3.216171e-01 5.711938e-01
<VARIANCE> 39
 6.771151e+01 8.919536e+01 6.536573e+01 5.548343e+01 7.211717e+01 6.548705e+01 5.910644e+01 9.352967e+01 8.039812e+01 4.739531e+01 4.497572e+01 4.812860e+01 8.906540e+01 4.134984e+00 4.336349e+00 3.177886e+00 2.565498e+00 4.785262e+00 4.585069e+00 4.570850e+00 4.630644e+00 4.306581e+00 2.731299e+00 3.270748e+00 2.874537e+00 3.084766e+00 6.980955e-01 6.579920e-01 7.167768e-01 7.119451e-01 8.658072e-01 9.184272e-01 9.648786e-01 1.012081e+00 8.527528e-01 6.297694e-01 7.325621e-01 6.212088e-01 5.568392e-01
<GCONST> 1.393319e+02
<STATE> 3
<MEAN> 39
 -6.421438e+00 5.183336e-01 -2.352964e+00 -4.625693e+00 -7.573982e+00 -1.172139e+01 -1.206242e+01 -1.418873e+01 -9.578093e+00 -1.089749e+01 -7.584248e+00 -5.505289e+00 4.156944e+01 -1.895601e-01 -1.359986e+00 2.451516e-01 -1.109558e+00 4.962135e-01 -4.594826e-01 -5.097929e-01 -2.075222e-01 1.209762e-01 6.480147e-01 6.368327e-01 1.082917e+00 1.893808e+00 6.911930e-02 -7.390358e-01 5.275070e-02 -6.496149e-01 1.860598e-01 1.089716e-01 1.349448e-01 4.785069e-01 1.917717e-01 4.978939e-01 1.257084e-03 3.707147e-01 8.068529e-01
<VARIANCE> 39
 6.743285e+01 6.764484e+01 4.299026e+01 2.813509e+01 4.598201e+01 5.986313e+01 6.523361e+01 8.002401e+01 6.894464e+01 5.557837e+01 3.576637e+01 4.305021e+01 6.444382e+01 9.587236e+00 6.311175e+00 4.653375e+00 4.302955e+00 6.662552e+00 9.449772e+00 8.905114e+00 7.309323e+00 5.986596e+00 5.853086e+00 5.470510e+00 5.075677e+00 5.136286e+00 1.177611e+00 8.476824e-01 7.381111e-01 8.161508e-01 1.308727e+00 1.754818e+00 1.382582e+00 1.167615e+00 1.076663e+00 8.010453e-01 9.042894e-01 9.888320e-01 8.445046e-01
<GCONST> 1.477450e+02
<STATE> 4
<MEAN> 39
 -4.778545e+00 -1.130206e+01 -1.193561e+00 -1.466706e+01 -4.598381e+00 -1.153122e+01 -1.390532e+01 -9.406064e+00 -7.171889e+00 -4.437609e+00 -8.843962e+00 2.904442e-01 5.270567e+01 2.565370e-01 -1.858156e+00 5.478193e-01 -1.538722e+00 4.363581e-01 -9.049875e-02 1.931041e-01 1.161822e+00 2.116643e-01 7.127067e-01 -7.166263e-01 7.015957e-01 2.052478e+00 -2.943034e-02 4.783944e-01 -1.237308e-01 4.322273e-01 -9.963128e-02 1.052227e-01 2.378785e-01 -1.621921e-03 -3.141998e-02 -2.986889e-01 -1.439112e-01 -4.459992e-01 -3.836127e-01
<VARIANCE> 39
 6.476975e+01 7.267355e+01 7.223656e+01 8.234649e+01 7.432722e+01 1.226714e+02 7.259549e+01 8.431680e+01 5.910825e+01 5.836348e+01 6.586307e+01 4.666453e+01 6.877779e+01 5.985262e+00 7.417558e+00 6.349622e+00 8.694256e+00 7.309012e+00 1.043670e+01 7.131736e+00 7.277880e+00 5.275294e+00 6.160663e+00 6.986043e+00 5.813597e+00 5.713277e+00 1.097206e+00 1.206625e+00 9.629999e-01 1.352589e+00 1.453668e+00 1.641346e+00 1.411787e+00 1.403520e+00 9.529325e-01 9.593104e-01 1.196357e+00 8.294175e-01 9.102814e-01
<GCONST> 1.539929e+02
<TRANSP> 5
 0.000000e+00 1.000000e+00 0.000000e+00 0.000000e+00 0.000000e+00
 0.000000e+00 4.497881e-01 5.502120e-01 0.000000e+00 0.000000e+00
 0.000000e+00 0.000000e+00 4.865489e-01 5.134511e-01 0.000000e+00
 0.000000e+00 0.000000e+00 0.000000e+00 6.405399e-01 3.594601e-01
 0.000000e+00 0.000000e+00 0.000000e+00 0.000000e+00 0.000000e+00
<ENDHMM>
~h "ay"
<BEGINHMM>
<NUMSTATES> 5
<STATE> 2
<MEAN> 39
 -1.078239e+00 -2.567883e+01 -7.113525e+00 -1.012546e+01 4.636737e+00 1.467776e+00 -1.517991e+01 -4.785659e+00 -8.353876e+00 -4.207830e+00 -1.197981e+01 -3.244297e+00 6.151420e+01 -6.025494e-01 -1.539382e+00 1.145133e+00 3.047580e-01 6.153935e-01 9.864917e-02 6.625718e-01 1.286455e+00 -5.045987e-01 4.341109e-01 -6.911408e-01 7.169471e-01 9.005088e-01 -3.869010e-01 7.602802e-01 2.203431e-01 -1.336398e-02 -5.092651e-01 -5.932487e-01 1.254953e-01 -1.516344e-01 -3.856365e-02 -3.731924e-01 7.857662e-02 1.817705e-01 -3.913185e-01
<VARIANCE> 39
 1.480892e+01 2.842459e+01 2.756048e+01 4.525967e+01 4.748036e+01 5.851029e+01 2.491097e+01 3.822213e+01 4.196584e+01 5.042181e+01 5.259237e+01 3.563841e+01 1.692949e+01 1.127512e+00 2.573319e+00 2.651753e+00 2.645898e+00 3.151361e+00 2.875534e+00 3.394100e+00 1.705716e+00 2.743056e+00 4.661107e+00 4.426543e+00 2.372101e+00 6.932697e-01 4.104039e-01 3.374714e-01 4.282728e-01 7.431251e-01 3.131258e-01 4.814470e-01 5.143515e-01 5.906084e-01 5.132316e-01 7.261567e-01 7.453367e-01 4.231323e-01 1.870037e-01
<GCONST> 1.191430e+02
<STATE> 3
<MEAN> 39
 -5.088596e+00 -2.781007e+01 -2.946539e+00 -1.076479e+01 1.867450e+00 -1.824378e+00 -1.144206e+01 1.689219e-01 -1.196253e+01 -6.222422e+00 -1.366067e+01 1.214121e+00 6.499085e+01 -4.537485e-01 4.116204e-01 9.622285e-01 -7.711360e-01 -9.582581e-01 -8.591799e-01 8.719454e-01 5.816470e-01 -3.064952e-01 -4.903817e-01 3.643328e-02 2.760959e-01 1.292770e-01 1.061177e-01 2.701488e-01 3.239742e-02 -2.377487e-01 -2.194605e-01 -6.020273e-02 4.192783e-02 -1.507431e-01 6.136709e-02 1.269985e-01 1.159080e-01 -2.312869e-01 -1.376150e-01
<VARIANCE> 39
 7.567564e+00 2.172883e+01 3.021221e+01 2.985709e+01 5.582095e+01 5.133381e+01 2.589919e+01 3.333973e+01 4.093878e+01 5.075958e+01 5.676966e+01 3.874643e+01 8.182906e+00 5.549899e-01 8.803075e-01 1.638470e+00 1.740858e+00 1.728318e+00 1.870297e+00 2.590980e+00 2.126216e+00 2.135314e+00 2.807503e+00 3.429295e+00 2.829925e+00 2.442101e-01 7.014216e-02 1.225785e-01 1.291154e-01 2.060385e-01 2.036862e-01 2.795030e-01 3.903738e-01 3.984447e-01 3.683103e-01 5.258207e-01 5.810972e-01 4.453997e-01 3.454915e-02
<GCONST> 1.021400e+02
<STATE> 4
<MEAN> 39
 -5.852036e+00 -1.920810e+01 6.904049e+00 -2.080426e+01 -8.710988e+00 -8.962671e+00 -6.691499e+00 -1.362085e+00 -1.215967e+01 -5.769254e+00 -1.328351e+01 -9.017719e-01 6.203387e+01 6.500444e-01 1.811788e+00 9.120794e-01 -7.326538e-01 -1.255169e+00 -1.024173e+00 -7.338166e-01 -1.103447e+00 -2.496136e-01 2.615537e-01 8.045319e-02 -3.464077e-01 -1.160630e+00 2.491453e-01 1.947854e-01 -4.156290e-01 5.757681e-01 1.619446e-01 -1.320760e-02 -4.192354e-01 -1.833418e-01 7.233336e-02 -2.560667e-01 2.305866e-02 3.143435e-03 -3.215682e-01
<VARIANCE> 39
 9.948229e+00 3.495602e+01 2.934904e+01 4.514272e+01 5.020391e+01 4.473126e+01 5.492488e+01 5.993198e+01 3.855517e+01 5.335974e+01 3.657114e+01 2.859209e+01 2.032803e+01 7.558993e-01 1.107558e+00 1.672734e+00 3.305545e+00 2.237772e+00 3.581054e+00 4.558079e+00 2.956596e+00 3.012123e+00 4.050356e+00 2.485218e+00 2.867240e+00 7.133069e-01 1.341099e-01 1.538728e-01 3.101537e-01 4.740192e-01 4.443404e-01 5.336575e-01 9.845243e-01 4.644804e-01 6.134720e-01 7.425596e-01 4.678132e-01 5.379223e-01 7.046737e-02
<GCONST> 1.156309e+02
<TRANSP> 5
 0.000000e+00 1.000000e+00 0.000000e+00 0.000000e+00 0.000000e+00
 0.000000e+00 6.900551e-01 3.099450e-01 0.000000e+00 0.000000e+00
 0.000000e+00 0.000000e+00 8.342673e-01 1.657327e-01 0.000000e+00
 0.000000e+00 0.000000e+00 0.000000e+00 8.111712e-01 1.888288e-01
 0.000000e+00 0.000000e+00 0.000000e+00 0.000000e+00 0.000000e+00
<ENDHMM>
~h "ch"
<BEGINHMM>
<NUMSTATES> 5
<STATE> 2
<MEAN> 39
 -8.489293e+00 8.486119e-01 -1.078221e+00 -4.595943e+00 -4.927140e+00 -1.064946e+01 -1.335096e+01 -1.699606e+01 -1.550807e+01 -1.417262e+01 -1.406384e+01 -1.168282e+01 4.292426e+01 -1.119857e+00 -1.187678e+00 1.228711e+00 -1.246518e+00 6.821414e-01 6.192714e-03 -1.861761e+00 -9.986637e-01 -4.754258e-01 2.225115e+00 1.072814e+00 4.394174e-01 2.400539e+00 -8.222732e-01 -4.084617e-01 9.230243e-01 -1.066484e+00 -3.907860e-01 4.411620e-01 4.529233e-01 2.000251e-01 2.366614e-01 7.771868e-01 2.461977e-01 8.172865e-01 1.047956e+00
<VARIANCE> 39
 7.628168e+01 7.673240e+00 9.056174e+00 1.068721e+02 1.951873e+01 4.208803e+01 3.736038e+01 1.866665e+02 3.217110e+01 5.338612e+01 2.653263e+01 4.323022e+01 2.037089e+01 8.241487e+00 2.682826e+00 3.864227e+00 9.412479e+00 8.503420e+00 4.582628e+00 1.288777e+00 1.239699e+00 1.108071e+00 6.906909e+00 4.389990e+00 6.925702e+00 8.653783e+00 2.296701e+00 5.438586e-01 3.629086e-01 1.467512e+00 1.385245e+00 1.256141e+00 1.178635e+00 7.364944e-01 1.923519e-01 7.654560e-01 8.762973e-01 7.920297e-01 3.480759e-01
<GCONST> 1.330906e+02
<STATE> 3
<MEAN> 39
 -1.028517e+01 -3.266099e+00 1.295529e+01 -1.912909e+01 -8.264515e+00 -9.463814e+00 -1.505197e+01 -1.750858e+01 -1.457242e+01 -2.074000e+00 -1.431357e+01 -2.886194e+00 5.816207e+01 -1.224721e+00 1.029546e+00 6.515541e-01 -1.244863e+00 -1.314534e-01 2.105362e-01 7.518959e-01 7.571756e-01 2.029196e-01 -3.074796e-01 -5.151291e-01 -6.740533e-01 7.431924e-01 -3.304527e-01 5.194725e-01 -4.807266e-01 7.321416e-01 6.768804e-02 6.245441e-02 1.333439e-01 8.762595e-02 1.438912e-01 -4.253130e-01 1.325877e-01 -3.999660e-01 -6.297845e-01
<VARIANCE> 39
 2.423302e+01 7.642995e+01 1.915737e+01 5.003117e+01 4.690693e+01 2.184951e+01 3.134360e+01 5.783142e+01 7.017992e+00 5.767228e+01 5.483600e+01 5.036570e+01 2.547700e+01 4.287742e+00 5.851831e+00 5.539754e+00 8.565094e+00 5.526464e+00 4.707505e+00 4.334668e+00 3.975412e+00 9.281988e-01 7.237493e+00 2.766986e+00 6.972218e+00 5.940577e+00 3.395518e-01 7.950511e-01 3.744544e-01 5.367612e-01 1.590787e+00 1.278884e+00 1.005605e+00 7.425688e-01 1.444861e-01 1.319752e+00 6.323105e-01 1.102392e+00 6.541992e-01
<GCONST> 1.325620e+02
<STATE> 4
<MEAN> 39
 -2.422429e+01 3.200294e+00 1.129916e+01 -1.370609e+01 -1.309620e+01 -6.848631e+00 -9.654962e+00 -8.952547e+00 -8.483941e+00 -3.186840e+00 -2.035094e+00 -5.453606e+00 5.587526e+01 2.299989e-01 -4.454755e-01 1.175418e-01 2.845245e-01 -1.458873e+00 -2.918669e-02 -1.217493e-01 1.098902e-01 4.549599e-01 2.650644e-01 1.506565e+00 7.623659e-01 -3.358542e-01 6.121191e-01 -3.239465e-01 -1.720324e-01 -2.258224e-01 7.927068e-03 -1.969752e-01 -8.494662e-02 2.880386e-02 -5.782428e-02 2.023505e-02 -1.441934e-01 1.176182e-01 -9.234961e-02
<VARIANCE> 39
 9.044948e+01 2.411560e+01 1.334448e+01 2.683444e+01 6.436247e+01 8.719548e+01 1.555041e+01 4.716413e+01 3.481811e+01 5.754037e+01 5.732750e+01 3.492094e+01 1.165074e+01 1.747040e+01 2.713207e+00 3.214259e+00 3.340557e+00 4.130763e+00 1.222994e+01 3.224490e+00 4.465075e+00 2.934125e+00 2.206734e+00 3.781374e+00 4.054599e+00 3.380964e+00 2.178793e+00 6.594076e-01 4.719687e-01 5.092047e-01 8.501965e-01 2.158988e+00 5.122305e-01 8.991430e-01 4.840665e-01 4.989582e-01 6.087361e-01 9.454871e-01 5.683419e-01
<GCONST> 1.330042e+02
<TRANSP> 5
 0.000000e+00 1.000000e+00 0.000000e+00 0.000000e+00 0.000000e+00
 0.000000e+00 7.271990e-01 2.728010e-01 0.000000e+00 0.000000e+00
 0.000000e+00 0.000000e+00 8.403423e-01 1.596576e-01 0.000000e+00
 0.000000e+00 0.000000e+00 0.000000e+00 9.092889e-01 9.071115e-02
 0.000000e+00 0.000000e+00 0.000000e+00 0.000000e+00 0.000000e+00
<ENDHMM>
~h "dh"
<BEGINHMM>
<NUMSTATES> 5
<STATE> 2
<MEAN> 39
 -6.838999e+00 -1.960357e+00 -4.205339e+00 -5.745082e+00 -8.098747e+00 -1.204072e+01 -1.038038e+01 -8.118442e+00 -4.470179e+00 -8.441330e+00 -8.779629e+00 -5.685749e+00 4.352260e+01 -2.027836e-01 5.511381e-01 -2.101382e-01 2.296225e-01 -6.444444e-02 6.170913e-01 -5.187768e-02 -3.644945e-01 -7.111070e-02 -1.381896e-02 2.755001e-04 -3.046476e-01 -1.296332e+00 -8.681251e-03 -1.251011e-01 1.470571e-01 -7.983345e-02 1.117043e-01 1.047464e-01 -1.646704e-01 -2.796546e-01 -2.624590e-01 -6.436862e-03 -3.141865e-02 -8.170422e-03 7.255588e-02
<VARIANCE> 39
 8.813492e+01 9.156435e+01 6.294423e+01 4.361762e+01 4.963515e+01 7.201160e+01 6.246692e+01 7.341347e+01 5.279551e+01 5.106597e+01 6.038995e+01 5.055392e+01 1.101939e+02 2.156207e+00 1.991028e+00 2.055277e+00 2.070197e+00 2.034945e+00 2.327987e+00 3.221766e+00 3.841131e+00 2.365201e+00 2.982736e+00 2.472095e+00 2.334525e+00 1.542400e+00 3.810734e-01 4.055856e-01 4.645717e-01 4.153348e-01 6.614417e-01 4.073055e-01 6.216899e-01 6.329199e-01 5.557061e-01 5.530147e-01 5.577717e-01 6.245090e-01 1.883065e-01
<GCONST> 1.272840e+02
<STATE> 3
<MEAN> 39
 -6.996545e+00 2.922126e+00 -3.619066e+00 -3.456763e+00 -9.004816e+00 -9.284386e+00 -1.026200e+01 -1.194995e+01 -8.308190e+00 -9.869928e+00 -8.363434e+00 -5.948366e+00 3.719590e+01 6.551279e-01 5.710002e-01 5.705143e-01 1.550943e-01 -2.967240e-01 1.677846e-01 -5.282636e-01 -9.013476e-01 -8.971995e-01 -8.016673e-01 -4.173740e-01 -4.388577e-01 -5.090997e-01 -2.727841e-01 -2.577950e-01 1.078009e-01 -1.266847e-01 1.897959e-01 -8.371741e-02 8.324657e-03 -8.689530e-02 -5.744971e-03 1.133598e-01 1.220515e-01 1.017962e-01 4.248876e-01
<VARIANCE> 39
 8.414829e+01 6.477357e+01 4.947124e+01 2.300119e+01 5.763709e+01 5.495741e+01 5.908700e+01 8.396008e+01 5.262509e+01 5.195395e+01 4.874818e+01 3.564423e+01 7.860444e+01 4.351429e+00 3.085114e+00 2.381417e+00 2.089403e+00 3.264911e+00 3.563481e+00 3.294502e+00 3.673466e+00 3.817461e+00 3.357553e+00 2.370583e+00 2.191726e+00 4.330770e+00 8.497770e-01 5.902086e-01 4.044659e-01 2.338807e-01 9.425023e-01 7.067830e-01 8.868667e-01 1.127825e+00 6.786091e-01 6.104551e-01 6.140612e-01 4.190784e-01 5.006557e-01
<GCONST> 1.320547e+02
<STATE> 4
<MEAN> 39
 -7.952765e+00 1.290243e+00 -3.886992e+00 -3.206375e+00 -7.155035e+00 -7.525762e+00 -1.033504e+01 -1.292429e+01 -8.466889e+00 -9.488882e+00 -8.623672e+00 -7.545997e+00 3.658232e+01 -6.547521e-01 -2.450518e-01 1.234150e-01 -9.002680e-02 5.034802e-01 2.301483e-01 -4.240737e-02 -4.130262e-01 -5.122784e-02 1.699427e-01 3.031791e-01 1.731409e-02 -1.052336e-01 -1.697226e-01 -2.302246e-01 1.133939e-01 -3.816843e-01 -5.614009e-02 -4.771250e-01 -8.092910e-02 -8.053130e-02 6.089183e-02 1.760079e-01 3.197818e-01 4.205494e-01 8.555706e-01
<VARIANCE> 39
 7.260740e+01 4.771425e+01 3.586680e+01 3.020522e+01 4.303857e+01 5.501899e+01 5.889017e+01 7.866877e+01 5.942836e+01 5.352017e+01 4.912858e+01 3.958792e+01 7.702493e+01 2.641853e+00 3.616077e+00 2.814594e+00 2.381095e+00 5.018620e+00 3.012689e+00 2.913490e+00 3.288387e+00 4.109369e+00 4.279655e+00 3.659233e+00 2.223781e+00 2.900501e+00 5.921308e-01 4.580097e-01 5.815268e-01 4.582254e-01 8.395388e-01 4.923729e-01 8.061745e-01 7.679791e-01 7.219397e-01 7.444501e-01 6.597794e-01 4.839586e-01 6.007861e-01
<GCONST> 1.319091e+02
<TRANSP> 5
 0.000000e+00 1.000000e+00 0.000000e+00 0.000000e+00 0.000000e+00
 0.000000e+00 4.716923e-01 5.283077e-01 0.000000e+00 0.000000e+00
 0.000000e+00 0.000000e+00 3.055254e-01 6.944746e-01 0.000000e+00
 0.000000e+00 0.000000e+00 0.000000e+00 3.481896e-01 6.518103e-01
 0.000000e+00 0.000000e+00 0.000000e+00 0.000000e+00 0.000000e+00
<ENDHMM>
~h "ea"
<BEGINHMM>
<NUMSTATES> 5
<STATE> 2
<MEAN> 39
 -1.038074e+01 -6.435785e+00 3.249748e+00 -1.125889e+01 -8.510793e+00 -1.175316e+01 -9.771968e+00 -1.102384e+01 -9.471985e+00 -5.682443e+00 -3.826884e+00 -1.776253e+00 4.722411e+01 1.206338e+00 -2.653054e+00 2.344129e+00 -3.225916e+00 -1.400783e+00 -1.902059e+00 -2.994728e-02 9.507109e-01 -9.496078e-01 9.317178e-01 -5.243214e-01 5.521197e-01 4.855756e+00 -8.206284e-03 -4.118726e-01 5.510943e-02 -6.685144e-02 2.399688e-01 3.717749e-01 4.663014e-01 5.314645e-01 -1.041427e-01 -9.726684e-02 -5.477919e-01 -2.203634e-01 -1.547572e-01
<VARIANCE> 39
 4.178507e+01 7.796179e+01 6.568459e+01 1.134807e+02 7.885355e+01 7.136994e+01 3.913373e+01 6.703020e+01 4.005427e+01 4.989631e+01 3.927799e+01 3.823555e+01 1.573910e+02 6.580939e+00 6.687410e+00 6.887078e+00 1.068878e+01 1.140019e+01 4.748877e+00 6.511027e+00 1.039321e+01 4.828666e+00 6.522434e+00 7.172087e+00 4.092523e+00 7.777534e+00 1.323374e+00 1.204370e+00 1.811581e+00 2.635429e+00 2.783415e+00 1.180536e+00 8.322958e-01 1.318435e+00 7.851917e-01 1.280701e+00 1.005048e+00 6.938328e-01 2.713665e+00
<GCONST> 1.542886e+02
<STATE> 3
<MEAN> 39
 -6.046882e+00 -2.215198e+01 9.346555e+00 -2.016002e+01 -1.082317e+01 -8.563605e+00 -4.120148e+00 -2.279254e-01 -1.337463e+01 -3.168903e+00 -1.078841e+01 -3.006613e+00 6.139466e+01 6.148170e-01 -1.152077e+00 -4.958434e-01 9.819506e-01 3.366002e-01 -1.724215e-02 6.276985e-01 9.670941e-01 -3.461301e-01 -3.463295e-01 -5.896779e-02 -3.489169e-01 1.907386e-03 8.704693e-02 3.144637e-01 -2.815041e-01 3.622581e-01 -7.337746e-02 -3.178141e-01 -1.618192e-01 -2.526213e-01 1.020534e-01 -1.203641e-01 2.999118e-01 -1.556379e-02 -3.133564e-01
<VARIANCE> 39
 1.125941e+01 3.274676e+01 1.788437e+01 3.424239e+01 3.121936e+01 5.271738e+01 1.488643e+01 2.940710e+01 3.529808e+01 2.152051e+01 2.825552e+01 3.324158e+01 2.138357e+01 6.004421e-01 9.277643e-01 1.076826e+00 1.731794e+00 1.404163e+00 4.144805e+00 1.191850e+00 1.784103e+00 1.972001e+00 2.054015e+00 2.250874e+00 2.684843e+00 4.526348e-01 9.752019e-02 2.455062e-01 2.857646e-01 3.885880e-01 2.799625e-01 3.721517e-01 2.757148e-01 4.707715e-01 3.986005e-01 4.196465e-01 2.814383e-01 4.653375e-01 2.086628e-01
<GCONST> 1.033705e+02
<STATE> 4
<MEAN> 39
 1.167142e+00 -2.121377e+01 -2.476525e+00 -6.297812e+00 -8.193789e+00 -1.726177e+01 -2.943215e+00 1.101407e+00 -1.138127e+01 -9.163224e+00 -8.935254e+00 -5.731488e+00 5.518761e+01 6.342372e-02 9.476262e-01 -4.780847e-01 4.232241e-01 -2.891964e-01 7.713655e-02 -3.006634e-01 -7.154909e-01 8.392976e-02 -4.385487e-01 3.538150e-02 -2.337005e-01 -8.252648e-01 -1.210225e-01 1.067267e-01 1.029394e-01 -1.487525e-01 -3.317291e-02 2.517049e-01 -3.893561e-02 -1.353862e-01 1.518203e-02 3.704080e-02 -2.173358e-02 9.207658e-02 -4.613622e-02
<VARIANCE> 39
 2.114014e+01 8.655234e+01 6.410262e+01 5.080658e+01 8.576149e+01 4.126233e+01 2.570337e+01 3.967931e+01 6.323750e+01 3.526696e+01 2.923408e+01 2.320873e+01 6.129104e+01 1.725649e+00 2.695697e+00 3.283881e+00 3.394926e+00 3.526205e+00 3.455917e+00 1.981867e+00 3.953054e+00 3.348972e+00 2.777491e+00 2.803979e+00 2.289781e+00 1.290882e+00 2.283213e-01 4.584656e-01 3.512935e-01 5.307549e-01 6.967117e-01 4.959640e-01 3.969262e-01 6.647541e-01 6.735758e-01 5.583746e-01 5.911103e-01 4.627582e-01 1.629814e-01
<GCONST> 1.231546e+02
<TRANSP> 5
 0.000000e+00 1.000000e+00 0.000000e+00 0.000000e+00 0.000000e+00
 0.000000e+00 8.189428e-01 1.810572e-01 0.000000e+00 0.000000e+00
 0.000000e+00 0.000000e+00 8.782503e-01 1.217496e-01 0.000000e+00
 0.000000e+00 0.000000e+00 0.000000e+00 9.233984e-01 7.660159e-02
 0.000000e+00 0.000000e+00 0.000000e+00 0.000000e+00 0.000000e+00
<ENDHMM>
~h "eh"
<BEGINHMM>
<NUMSTATES> 5
<STATE> 2
<MEAN> 39
 -7.216145e+00 -2.961798e+00 -4.539691e+00 -5.353357e+00 -9.709350e+00 -1.019554e+01 -1.184709e+01 -1.060260e+01 -5.137933e+00 -9.029582e+00 -7.284249e+00 -6.819868e+00 4.547837e+01 1.425599e+00 -3.548471e+00 1.808356e+00 -2.876076e+00 -3.054934e-01 -2.327104e-01 -9.572858e-01 1.223897e+00 -4.118174e-01 1.269149e-01 -1.590830e+00 1.015366e+00 3.508092e+00 -3.591481e-02 -7.217267e-01 2.971382e-01 -4.856188e-01 2.214222e-01 2.661429e-01 3.404682e-01 5.371004e-01 -2.696111e-01 1.150494e-01 -2.716475e-01 1.699548e-01 7.238372e-01
<VARIANCE> 39
 8.275929e+01 1.050760e+02 6.926302e+01 7.509066e+01 4.866974e+01 7.275131e+01 7.451788e+01 8.028671e+01 5.774463e+01 5.591056e+01 6.431538e+01 4.695571e+01 8.729590e+01 9.481398e+00 9.296012e+00 5.314415e+00 9.556008e+00 7.755232e+00 1.015596e+01 7.004586e+00 8.233789e+00 5.008520e+00 4.006705e+00 9.123826e+00 4.993297e+00 7.001535e+00 1.126661e+00 1.083829e+00 9.071227e-01 1.601441e+00 1.132230e+00 1.540058e+00 1.082347e+00 1.310738e+00 8.707356e-01 6.251847e-01 1.361129e+00 8.021892e-01 1.214296e+00
<GCONST> 1.534801e+02
<STATE> 3
<MEAN> 39
 -5.268161e+00 -2.143033e+01 3.877136e+00 -1.828695e+01 -7.822596e+00 -6.887899e+00 -8.454964e+00 -8.092839e-02 -1.242054e+01 -6.887554e+00 -1.451195e+01 -1.895438e+00 6.234244e+01 2.094527e-01 -8.118325e-01 7.574652e-01 -9.026529e-01 2.778457e-01 2.087035e-01 7.262544e-01 5.845440e-01 -9.425700e-01 2.289161e-01 -8.097520e-01 -8.379987e-02 9.947478e-01 4.742834e-02 1.129976e+00 -4.890907e-01 7.153077e-01 -2.293859e-01 -2.952775e-01 -2.048531e-01 -5.985700e-01 3.019402e-01 -2.653339e-01 3.592210e-01 -3.645917e-01 -9.633560e-01
<VARIANCE> 39
 8.297045e+00 2.407082e+01 3.159139e+01 2.241644e+01 6.721268e+01 5.113659e+01 4.570647e+01 2.229678e+01 3.283204e+01 4.335595e+01 4.655306e+01 3.515015e+01 1.084037e+01 2.231411e+00 6.916860e+00 3.063070e+00 3.824249e+00 4.323655e+00 4.680314e+00 3.483931e+00 5.788938e+00 2.554039e+00 4.480424e+00 3.686701e+00 3.105888e+00 4.283950e+00 4.398587e-01 5.217518e-01 4.578954e-01 5.666569e-01 7.891837e-01 8.216090e-01 7.031444e-01 7.502179e-01 4.113810e-01 7.033958e-01 7.711294e-01 6.508265e-01 3.322286e-01
<GCONST> 1.262642e+02
<STATE> 4
<MEAN> 39
 -1.371492e+00 -1.403949e+01 1.638581e+00 -1.477455e+01 -1.523392e+01 -1.033217e+01 -6.150273e+00 -1.407559e+00 -1.123826e+01 -7.835567e+00 -1.537272e+01 -6.755332e+00 5.533144e+01 4.006823e-01 2.193932e+00 -9.500742e-01 9.105911e-01 -1.002866e+00 -8.069019e-01 8.226920e-01 -5.355484e-01 1.186849e+00 -1.500329e+00 8.828969e-01 -1.066214e+00 -1.935152e+00 -4.610209e-01 2.848946e-01 -2.116085e-01 1.866317e-01 3.313944e-01 2.396465e-01 3.624423e-02 -1.196338e-01 1.891006e-01 -7.128455e-04 2.758131e-01 -2.269097e-02 -1.134511e-01
<VARIANCE> 39
 1.301349e+01 3.986343e+01 4.104293e+01 5.340710e+01 9.743773e+01 6.398254e+01 4.361361e+01 3.510690e+01 3.399482e+01 4.617547e+01 5.175725e+01 3.557152e+01 5.012623e+01 2.259923e+00 3.291186e+00 2.645798e+00 1.731725e+00 4.882119e+00 2.852331e+00 4.541414e+00 2.646468e+00 2.183255e+00 3.241960e+00 3.794882e+00 2.117811e+00 1.710032e+00 5.795313e-01 5.559829e-01 4.205880e-01 4.172778e-01 7.973361e-01 6.276983e-01 7.987636e-01 8.878740e-01 3.764450e-01 6.826259e-01 8.687791e-01 3.790149e-01 4.619079e-01
<GCONST> 1.265600e+02
<TRANSP> 5
 0.000000e+00 1.000000e+00 0.000000e+00 0.000000e+00 0.000000e+00
