~o
<STREAMINFO> 1 39
<VECSIZE> 39<NULLD><MFCC_D_A_0><DIAGC>
~s "silst"
<MEAN> 39
 -1.707450e+01 -5.436334e+00 -7.214863e+00 -2.999335e+00 -3.090109e+00 6.621794e-01 -6.899267e-01 -1.809751e+00 -2.496795e+00 -3.848941e+00 -2.795768e+00 -1.252390e+00 2.555568e+01 -1.683635e-01 -1.469406e-02 -2.757118e-02 -3.463006e-03 9.394011e-03 2.157599e-02 5.770214e-04 2.649080e-02 2.757072e-02 1.459660e-01 7.454042e-02 6.418878e-02 -2.455315e-01 8.201060e-03 2.787824e-02 4.080627e-02 2.258621e-02 2.666290e-02 -7.462473e-03 1.146240e-02 1.450060e-02 2.277367e-02 8.541941e-03 1.786434e-02 1.821290e-02 1.979596e-02
<VARIANCE> 39
 4.862254e+00 8.000644e+00 8.733466e+00 1.045781e+01 1.308243e+01 1.537364e+01 1.702276e+01 2.296545e+01 1.799536e+01 1.989697e+01 1.768247e+01 1.475340e+01 8.842485e+00 2.322194e-01 4.780557e-01 7.137924e-01 1.009656e+00 1.363255e+00 1.647389e+00 1.811963e+00 2.015830e+00 1.878893e+00 1.850751e+00 1.677259e+00 1.454249e+00 1.907580e-01 4.402318e-02 8.729789e-02 1.398113e-01 1.837773e-01 2.679377e-01 3.169478e-01 3.598511e-01 4.131035e-01 3.773649e-01 3.833086e-01 3.441033e-01 2.921820e-01 3.648451e-02
<GCONST> 8.367293e+01
~h "b"
<BEGINHMM>
<NUMSTATES> 5
<STATE> 2
<MEAN> 39
 4.961442e+00 -1.657775e+01 -1.547476e+01 -6.855099e+00 -1.694389e+00 -6.228568e+00 -1.406914e+01 -1.002297e+00 -8.463905e+00 -7.118550e+00 -3.555654e+00 -8.122274e+00 5.234340e+01 5.136824e-02 2.474650e-01 3.737984e-01 7.811962e-01 -7.240537e-01 -8.983089e-01 1.165379e-01 4.056007e-01 2.588595e-01 -9.210390e-01 -2.753214e-01 -1.702428e-01 -4.268764e-01 -7.240783e-02 1.291605e-01 1.204830e-01 -5.076307e-02 -6.190899e-02 3.981454e-02 7.895802e-02 -9.677289e-02 -3.220998e-02 -4.283385e-02 2.815520e-03 7.229872e-02 -7.806632e-02
<VARIANCE> 39
 2.129936e+01 5.569553e+01 5.574797e+01 5.495190e+01 9.066121e+01 1.827124e+02 4.274962e+01 8.372384e+01 3.273912e+01 9.359320e+01 4.004587e+01 1.558501e+01 3.140962e+01 5.810599e-01 2.746879e+00 1.705434e+00 2.114764e+00 2.823555e+00 3.166198e+00 2.962229e+00 4.304572e+00 2.869015e+00 2.782508e+00 2.211912e+00 1.811754e+00 8.454641e-01 8.488237e-02 2.410627e-01 1.847231e-01 3.837150e-01 4.266635e-01 3.781739e-01 4.088455e-01 4.808546e-01 4.431716e-01 4.852913e-01 3.508558e-01 1.989456e-01 7.758908e-02
<GCONST> 1.156341e+02
<STATE> 3
<MEAN> 39
 1.769593e+00 -4.725496e+00 -3.043742e+00 -6.975255e+00 -1.423044e+01 -1.281141e+01 -1.030482e+01 -5.420763e+00 -6.611866e+00 -1.489771e+01 -1.174143e+01 -8.650312e+00 4.511133e+01 -9.282819e-01 1.749188e+00 2.536407e-01 -5.468027e-02 2.080534e-01 8.031587e-01 5.667491e-01 -6.753121e-01 2.427839e-01 2.542672e-01 -1.979335e-01 -3.404998e-01 -1.640192e+00 -2.824475e-01 -2.217297e-01 -1.160296e-01 4.600912e-02 3.885175e-01 1.936992e-01 -9.394147e-02 -1.111666e-01 -4.635271e-02 4.410438e-01 3.936879e-01 1.073377e-01 2.066857e-02
<VARIANCE> 39
 3.921377e+01 6.167437e+01 4.139542e+01 4.017584e+01 5.586890e+01 3.506742e+01 2.563820e+01 6.549022e+01 3.193006e+01 4.191033e+01 7.708144e+01 4.017076e+01 3.475277e+01 1.230389e+00 1.865601e+00 3.363152e+00 2.571213e+00 1.977916e+00 3.258558e+00 2.842043e+00 3.719693e+00 3.496913e+00 4.872166e+00 3.018762e+00 3.066095e+00 5.901881e-01 1.842917e-01 4.401791e-01 4.433180e-01 5.168666e-01 4.086244e-01 4.375056e-01 5.833218e-01 6.914938e-01 6.885706e-01 6.837190e-01 6.075957e-01 7.768598e-01 1.384998e-01
<GCONST> 1.223234e+02
<STATE> 4
<MEAN> 39
 -5.640331e+00 -1.052978e+00 -5.779188e+00 -8.042981e+00 -1.108095e+01 -6.745602e+00 -7.674739e+00 -1.079928e+01 -9.107821e+00 -1.122045e+01 -1.010345e+01 -6.804366e+00 3.598697e+01 -1.240451e+00 -1.600031e-01 6.821467e-02 7.512111e-01 8.724750e-01 6.030144e-01 3.987515e-01 2.516973e-02 -8.264354e-02 5.914640e-02 6.350675e-01 4.861741e-01 -9.336216e-01 2.702805e-02 -3.607053e-01 2.915072e-01 3.216407e-02 -1.124124e-01 -2.660981e-01 -2.433448e-01 9.949993e-02 3.860763e-02 -3.084565e-02 2.634402e-01 2.283256e-01 4.258580e-01
<VARIANCE> 39
 4.115241e+01 3.237403e+01 2.420004e+01 2.650556e+01 4.334303e+01 3.009684e+01 2.076984e+01 3.704707e+01 3.721989e+01 3.024433e+01 3.584647e+01 2.997136e+01 3.540815e+01 6.553704e-01 1.621312e+00 2.116428e+00 1.281177e+00 1.146433e+00 1.578819e+00 1.995740e+00 3.710848e+00 3.436864e+00 2.517404e+00 2.718608e+00 2.168813e+00 5.521414e-01 2.784778e-01 3.514297e-01 4.876708e-01 2.483656e-01 4.390924e-01 4.389971e-01 6.237981e-01 7.739173e-01 6.673251e-01 6.388805e-01 6.374485e-01 5.874932e-01 2.648310e-01
<GCONST> 1.137463e+02
<TRANSP> 5
 0.000000e+00 1.000000e+00 0.000000e+00 0.000000e+00 0.000000e+00
 0.000000e+00 8.132153e-01 1.867848e-01 0.000000e+00 0.000000e+00
 0.000000e+00 0.000000e+00 6.495792e-01 3.504208e-01 0.000000e+00
 0.000000e+00 0.000000e+00 0.000000e+00 6.956290e-01 3.043710e-01
 0.000000e+00 0.000000e+00 0.000000e+00 0.000000e+00 0.000000e+00
<ENDHMM>
~h "d"
<BEGINHMM>
<NUMSTATES> 5
<STATE> 2
<MEAN> 39
 -6.081054e+00 2.713144e-01 -2.399419e+00 -6.196265e+00 -1.059874e+01 -1.004163e+01 -8.983962e+00 -1.147615e+01 -9.600368e+00 -1.097292e+01 -7.466101e+00 -5.493179e+00 4.002422e+01 -1.807461e+00 -4.066391e-01 1.854601e-01 -2.661349e-01 1.336856e+00 -3.392594e-01 4.601413e-02 -8.553850e-01 5.025762e-01 4.994090e-01 8.969377e-01 4.590434e-01 1.098495e+00 -2.113210e-01 -4.238037e-01 3.377733e-01 -7.269672e-01 2.722550e-01 -3.575574e-01 -1.912164e-01 1.269728e-01 8.830178e-02 4.800700e-01 1.597017e-01 4.358958e-01 9.923627e-01
<VARIANCE> 39
 5.315516e+01 4.720315e+01 4.280492e+01 3.932485e+01 5.555259e+01 4.039124e+01 4.770619e+01 6.417950e+01 4.585873e+01 4.306308e+01 5.143751e+01 3.027042e+01 7.237823e+01 5.962380e+00 6.632194e+00 6.620675e+00 5.388822e+00 7.276108e+00 5.324420e+00 4.689656e+00 6.188754e+00 4.767490e+00 4.215902e+00 4.001071e+00 4.039234e+00 7.795273e+00 9.506899e-01 8.944467e-01 8.299673e-01 6.662024e-01 1.185228e+00 6.821640e-01 8.633240e-01 1.179759e+00 7.911174e-01 6.415989e-01 7.329610e-01 7.448291e-01 8.155808e-01
<GCONST> 1.415744e+02
<STATE> 3
<MEAN> 39
 -1.196873e+01 -6.260295e+00 2.762982e-01 -1.223140e+01 -4.841668e+00 -1.383811e+01 -1.122178e+01 -1.146677e+01 -7.335612e+00 -5.388935e+00 -3.935747e+00 8.677687e-02 5.160596e+01 1.909152e-01 -1.186068e+00 1.014991e+00 -1.329824e+00 -6.488959e-02 -9.461128e-01 -3.606713e-01 1.428788e+00 3.747286e-01 9.398212e-01 -5.383782e-03 9.803855e-01 1.962476e+00 6.768296e-01 2.133380e-01 -8.137138e-02 4.415778e-01 -3.734672e-01 4.034249e-01 1.992787e-01 4.301249e-01 1.235647e-02 -2.605387e-01 -5.201365e-01 -3.874915e-01 -8.030862e-01
<VARIANCE> 39
 8.433395e+01 7.901273e+01 7.843237e+01 6.362457e+01 8.273808e+01 8.518807e+01 9.991770e+01 9.435378e+01 6.187370e+01 5.003011e+01 5.571167e+01 4.306300e+01 4.742666e+01 9.017501e+00 7.550680e+00 5.947526e+00 7.374902e+00 8.200213e+00 6.995238e+00 1.043576e+01 8.675112e+00 6.510403e+00 5.560906e+00 6.054459e+00 5.047883e+00 9.259355e+00 1.427649e+00 1.280635e+00 1.337812e+00 1.132476e+00 1.976265e+00 1.577722e+00 1.623467e+00 1.832868e+00 1.138317e+00 9.652271e-01 1.015194e+00 1.087089e+00 1.236866e+00
<GCONST> 1.561318e+02
<STATE> 4
<MEAN> 39
 -6.054474e+00 -7.237705e+00 1.623150e+00 -9.976815e+00 -8.231918e+00 -1.437204e+01 -9.837796e+00 -5.008368e+00 -8.472270e+00 -7.543899e+00 -7.956853e+00 -1.822184e+00 4.836650e+01 2.391787e-01 7.921033e-01 -1.931978e-01 5.540518e-01 -4.393640e-01 9.061378e-01 5.610939e-01 3.288798e-01 4.982825e-01 -3.229329e-01 -3.194118e-01 -9.035794e-01 -1.431009e+00 -1.707144e-01 1.354767e-01 -2.316024e-01 1.204301e-01 3.142434e-02 1.750531e-01 -9.890556e-02 -3.604855e-01 -7.306209e-02 -8.182559e-02 7.878815e-02 -1.100289e-01 -1.576010e-01
<VARIANCE> 39
 5.851445e+01 9.412188e+01 6.942905e+01 5.600544e+01 5.535984e+01 8.114081e+01 7.775215e+01 5.326092e+01 8.236439e+01 5.134103e+01 6.374844e+01 4.944824e+01 1.038217e+02 2.590264e+00 3.913973e+00 4.590921e+00 3.657779e+00 4.242999e+00 4.580248e+00 3.673481e+00 6.002523e+00 4.848691e+00 4.341310e+00 3.882349e+00 3.871786e+00 2.391247e+00 5.178852e-01 6.865901e-01 7.927814e-01 6.194572e-01 7.850561e-01 8.632746e-01 9.534882e-01 9.064634e-01 8.542250e-01 8.552467e-01 6.906397e-01 8.540267e-01 5.653715e-01
<GCONST> 1.404781e+02
<TRANSP> 5
 0.000000e+00 1.000000e+00 0.000000e+00 0.000000e+00 0.000000e+00
 0.000000e+00 6.483867e-01 3.516133e-01 0.000000e+00 0.000000e+00
 0.000000e+00 0.000000e+00 6.689606e-01 3.310394e-01 0.000000e+00
 0.000000e+00 0.000000e+00 0.000000e+00 7.131188e-01 2.868811e-01
 0.000000e+00 0.000000e+00 0.000000e+00 0.000000e+00 0.000000e+00
<ENDHMM>
~h "f"
<BEGINHMM>
<NUMSTATES> 5
<STATE> 2
<MEAN> 39
 -1.582438e+01 -4.398042e+00 -3.318328e+00 -9.696708e+00 -6.454622e+00 -9.068691e+00 -3.950238e+00 -8.205506e+00 -5.769106e+00 -1.300538e+01 -8.724261e+00 -5.692303e+00 4.488111e+01 -2.158785e-01 -9.770241e-02 7.635783e-01 4.933746e-01 -1.007746e-01 -1.004255e+00 -9.035211e-01 -6.123489e-01 -6.029591e-01 -1.412041e-01 1.806187e-01 4.707117e-01 -1.288836e-01 5.414708e-01 -1.784434e-01 7.088552e-02 -4.261924e-03 -1.492980e-01 -2.281537e-01 -6.618338e-01 -1.776925e-01 -3.228001e-01 1.344127e-01 -9.316882e-02 1.308399e-01 2.773190e-01
<VARIANCE> 39
 4.469751e+01 2.371104e+01 6.792701e+01 4.885987e+01 2.582885e+01 4.760972e+01 3.022615e+01 3.382477e+01 3.934710e+01 5.696148e+01 4.026932e+01 2.933306e+01 8.001051e+01 7.578542e+00 3.503091e+00 3.091633e+00 3.695122e+00 3.079894e+00 5.871410e+00 6.210980e+00 5.099986e+00 2.946267e+00 2.819114e+00 4.795665e+00 3.838694e+00 4.629225e+00 6.970707e-01 4.302933e-01 5.948161e-01 6.371809e-01 5.105308e-01 7.264150e-01 1.097465e+00 6.562202e-01 5.177771e-01 7.558588e-01 7.476902e-01 5.410010e-01 5.453684e-01
<GCONST> 1.326495e+02
<STATE> 3
<MEAN> 39
 -7.105304e+00 -6.595338e+00 -6.909422e-01 -7.894305e+00 -7.525076e+00 -1.967635e+01 -1.654843e+01 -1.143711e+01 -8.242338e+00 -8.746964e+00 -8.677150e+00 9.612926e-01 4.894688e+01 1.791724e+00 -1.224066e+00 5.858561e-01 -2.639128e-01 -7.427958e-02 -4.989610e-01 -1.651948e+00 5.602379e-02 -6.608007e-01 3.417366e-01 -1.008577e+00 -2.630654e-01 1.164089e+00 -3.553760e-01 1.867716e-01 -1.883417e-01 9.328425e-02 2.090373e-01 8.203377e-01 7.778293e-01 1.822674e-01 1.235761e-01 6.436580e-02 7.258458e-02 -5.700580e-01 -4.228230e-01
<VARIANCE> 39
 5.949024e+01 5.508760e+01 4.701709e+01 3.451932e+01 3.170960e+01 7.322928e+01 4.742828e+01 6.536691e+01 5.878484e+01 7.730542e+01 4.470964e+01 6.672981e+01 5.094490e+01 6.789496e+00 6.368535e+00 3.897409e+00 3.961493e+00 4.151240e+00 9.855142e+00 6.854256e+00 5.942802e+00 4.356017e+00 8.218864e+00 4.564536e+00 7.226541e+00 7.327982e+00 1.134557e+00 1.037553e+00 6.352276e-01 5.978643e-01 5.358392e-01 1.283577e+00 9.293493e-01 1.094951e+00 6.515343e-01 1.161128e+00 1.096275e+00 9.983770e-01 6.899583e-01
<GCONST> 1.445728e+02
<STATE> 4
<MEAN> 39
 -1.106758e+01 -5.880807e+00 -9.885004e-01 -3.772276e+00 -6.711506e+00 -1.408227e+01 -1.309455e+01 -1.185450e+01 -8.279836e+00 -1.056938e+01 -8.273806e+00 -4.912187e+00 4.390377e+01 -7.380559e-01 -1.255111e-01 1.321398e-01 2.908682e-01 -1.109627e-02 3.943714e-01 3.556671e-01 -6.485052e-02 -5.910098e-02 2.676511e-01 1.156134e-01 -4.777280e-02 -6.088486e-01 8.363337e-02 3.092532e-02 -4.751379e-02 -8.657076e-02 -3.852245e-02 5.322612e-02 3.894889e-02 5.454845e-03 1.142491e-01 5.929733e-02 1.177040e-01 1.724400e-01 3.884294e-02
<VARIANCE> 39
 8.807944e+01 4.407878e+01 2.474284e+01 4.627521e+01 3.460646e+01 6.004978e+01 4.157845e+01 5.873251e+01 4.551566e+01 5.309304e+01 4.538197e+01 2.634687e+01 4.799908e+01 2.171560e+00 2.661153e+00 2.148035e+00 2.565324e+00 2.568915e+00 2.366776e+00 2.967620e+00 3.793310e+00 3.396545e+00 3.352881e+00 2.900003e+00 1.951678e+00 1.154482e+00 7.160757e-01 4.253052e-01 4.073470e-01 5.542970e-01 5.062898e-01 5.063193e-01 6.948906e-01 8.495312e-01 6.627684e-01 5.647106e-01 7.306814e-01 4.631610e-01 1.748028e-01
<GCONST> 1.247929e+02
<TRANSP> 5
 0.000000e+00 1.000000e+00 0.000000e+00 0.000000e+00 0.000000e+00
 0.000000e+00 7.140560e-01 2.859440e-01 0.000000e+00 0.000000e+00
 0.000000e+00 0.000000e+00 5.538816e-01 4.461184e-01 0.000000e+00
 0.000000e+00 0.000000e+00 0.000000e+00 8.491135e-01 1.508865e-01
 0.000000e+00 0.000000e+00 0.000000e+00 0.000000e+00 0.000000e+00
<ENDHMM>
~h "g"
<BEGINHMM>
<NUMSTATES> 5
<STATE> 2
<MEAN> 39
 -1.535472e+01 -7.991316e+00 -6.307279e+00 -3.274729e+00 -7.852955e+00 -1.373856e+00 -6.234312e+00 -1.147737e+01 -7.146478e+00 -2.546357e+00 -2.705835e+00 -4.306889e-02 3.854375e+01 2.490005e+00 -1.478423e-01 -7.558021e-01 -1.140903e+00 7.791179e-02 -1.382891e+00 -8.669630e-01 1.252562e-01 -1.340211e+00 -4.781247e-01 7.696512e-01 9.530738e-02 1.433252e+00 4.809482e-01 -1.109285e-01 4.158125e-01 -3.141753e-01 -3.337854e-01 1.132573e-01 1.023321e-02 3.621835e-01 -1.662736e-01 -1.501449e-01 -2.971878e-01 -1.099496e-01 5.568713e-01
<VARIANCE> 39
 1.068068e+02 4.853098e+01 5.871258e+01 3.215007e+01 4.357933e+01 8.101706e+01 6.729023e+01 4.317489e+01 5.002264e+01 5.090911e+01 2.673422e+01 1.058854e+01 1.046010e+02 7.843530e+00 1.137576e+01 8.799030e+00 5.114537e+00 3.662999e+00 6.623776e+00 9.778808e+00 6.785230e+00 3.769685e+00 3.369605e+00 2.339788e+00 3.155860e+00 1.409216e+01 1.477861e+00 1.951879e+00 1.414143e+00 1.277734e+00 1.598748e+00 4.088120e-01 9.964600e-01 1.541260e+00 1.330643e+00 1.523166e+00 8.201042e-01 4.581074e-01 2.251423e+00
<GCONST> 1.471178e+02
<STATE> 3
<MEAN> 39
 -2.185936e+00 -1.015635e+01 -6.826817e+00 -7.418113e+00 -4.042888e+00 -8.438392e+00 -1.179118e+01 -5.591276e+00 -9.400309e+00 -6.760365e+00 -4.247858e+00 -4.371692e+00 5.365979e+01 1.065124e+00 -8.136200e-01 3.047000e+00 -6.495019e-01 -1.954904e+00 -1.987235e+00 -6.864743e-01 3.802075e-01 -4.698136e-01 6.134391e-02 -1.675412e+00 -1.208200e+00 2.186900e+00 -1.310811e-01 -1.738004e-02 3.895690e-01 2.944295e-01 -7.693799e-01 4.347835e-01 5.959350e-01 -2.308036e-01 -5.345962e-02 3.195658e-01 -2.480434e-01 -2.553330e-01 -9.523934e-01
<VARIANCE> 39
 1.098079e+02 1.485162e+02 2.026970e+02 5.115142e+01 9.138243e+01 1.420958e+02 7.428815e+01 1.089172e+02 2.227293e+01 4.532991e+01 3.587814e+01 3.455606e+01 5.656357e+01 2.263992e+00 4.121460e+00 1.172570e+01 8.798956e+00 1.171093e+01 7.076756e+00 4.996030e+00 4.665687e+00 5.931351e+00 3.793461e+00 2.040486e+00 3.526335e+00 1.191613e+01 7.358730e-01 1.482078e+00 9.038081e-01 7.849071e-01 1.292882e+00 1.710503e+00 1.542178e+00 1.158102e+00 1.033195e+00 9.765229e-01 5.504345e-01 6.076564e-01 1.159822e+00
<GCONST> 1.493485e+02
<STATE> 4
<MEAN> 39
 -2.233919e+00 -8.901022e+00 4.065938e+00 -6.288166e+00 -8.074245e+00 -1.548578e+01 -1.056745e+01 -1.159328e+01 -1.346928e+01 -4.874503e+00 -9.784933e+00 -6.238196e+00 4.970382e+01 2.448084e-01 -2.696976e-01 -5.941454e-01 3.471510e-01 7.061420e-01 1.675984e-01 -3.715081e-01 1.427080e-01 1.277712e-01 1.007103e-01 -2.119008e-01 -4.509597e-02 -4.915969e-01 -4.099276e-02 1.445981e-01 -3.015246e-01 -4.432012e-02 1.601925e-01 1.282993e-01 -1.116135e-01 -3.307322e-02 1.710531e-01 -3.251662e-03 1.570462e-01 2.411015e-02 -5.552073e-02
<VARIANCE> 39
 1.661441e+01 8.199138e+01 9.729770e+01 5.760350e+01 1.773724e+02 1.040710e+02 6.758858e+01 8.853178e+01 3.499671e+01 4.668687e+01 3.539836e+01 4.890195e+01 4.793563e+01 2.530577e+00 9.389631e+00 7.783022e+00 3.717416e+00 1.569954e+01 1.022876e+01 4.941312e+00 7.832511e+00 4.256223e+00 6.676387e+00 3.854972e+00 3.580215e+00 4.103959e+00 3.859040e-01 1.873821e+00 1.347578e+00 8.600510e-01 3.104905e+00 2.427140e+00 7.128209e-01 1.643925e+00 9.840375e-01 1.403096e+00 8.780669e-01 7.233595e-01 7.544098e-01
<GCONST> 1.490106e+02
<TRANSP> 5
 0.000000e+00 1.000000e+00 0.000000e+00 0.000000e+00 0.000000e+00
 0.000000e+00 6.424174e-01 3.575825e-01 0.000000e+00 0.000000e+00
 0.000000e+00 0.000000e+00 6.913171e-01 3.086829e-01 0.000000e+00
 0.000000e+00 0.000000e+00 0.000000e+00 9.213408e-01 7.865920e-02
 0.000000e+00 0.000000e+00 0.000000e+00 0.000000e+00 0.000000e+00
<ENDHMM>
~h "k"
<BEGINHMM>
<NUMSTATES> 5
<STATE> 2
<MEAN> 39
 -4.437422e+00 -2.358518e+00 -5.403358e+00 -6.021869e+00 -1.104417e+01 -8.649672e+00 -6.104885e+00 -7.817878e+00 -5.257962e+00 -1.004049e+01 -1.004356e+01 -8.548634e+00 3.942220e+01 -7.223523e-01 3.469450e-01 -6.750097e-01 2.689404e-01 5.285504e-01 3.819728e-01 4.713813e-01 7.517683e-02 1.796351e-01 -6.807713e-02 1.117403e-01 -1.514835e-01 -1.612003e+00 -2.149446e-01 -5.940305e-01 7.561618e-02 4.460746e-02 5.081249e-01 -1.464371e-01 -1.907369e-01 -4.048516e-01 -2.503419e-01 3.416944e-01 1.157368e-01 4.789097e-01 6.488492e-01
<VARIANCE> 39
 4.401754e+01 3.978761e+01 5.344508e+01 4.203728e+01 8.928333e+01 3.630309e+01 4.254274e+01 3.899268e+01 3.613477e+01 4.347654e+01 6.458881e+01 3.388274e+01 5.313003e+01 1.453042e+00 2.561227e+00 1.803614e+00 1.915511e+00 3.080013e+00 2.761806e+00 2.345083e+00 3.038155e+00 4.233646e+00 3.007327e+00 2.915638e+00 2.189543e+00 1.622076e+00 4.106949e-01 5.103943e-01 6.981568e-01 4.893774e-01 9.792482e-01 9.191064e-01 7.406912e-01 8.042727e-01 9.501457e-01 8.387970e-01 8.654482e-01 7.278638e-01 3.523625e-01
<GCONST> 1.279314e+02
<STATE> 3
<MEAN> 39
 -7.972864e+00 -1.992107e+00 -6.164350e+00 -3.684441e+00 -6.583036e+00 -7.610199e+00 -6.217845e+00 -9.616482e+00 -5.314629e+00 -7.715353e+00 -8.031130e+00 -7.429097e+00 3.584735e+01 -1.286218e+00 -2.342900e+00 -1.201913e+00 3.593841e-01 2.745692e+00 -1.199476e+00 4.827826e-01 -1.765512e+00 5.226901e-01 2.179366e+00 1.442316e+00 2.392230e+00 2.211870e+00 9.700575e-02 -3.774333e-01 -1.320472e-01 -3.255264e-01 2.107868e-01 -5.229028e-01 -1.670061e-01 -2.348410e-01 -1.025724e-01 3.735564e-01 1.655222e-01 6.437885e-01 1.297076e+00
<VARIANCE> 39
 4.091458e+01 2.493689e+01 3.662660e+01 3.406607e+01 6.919200e+01 4.495069e+01 3.896272e+01 4.706556e+01 5.606648e+01 3.727559e+01 6.154251e+01 2.950111e+01 4.661177e+01 5.650373e+00 6.115071e+00 1.337534e+01 6.238671e+00 1.387179e+01 9.847169e+00 9.093154e+00 7.477781e+00 6.879848e+00 8.722996e+00 4.915995e+00 7.479008e+00 3.668683e+00 4.142464e-01 5.745734e-01 1.004839e+00 7.820526e-01 1.337733e+00 9.865267e-01 7.587100e-01 1.114425e+00 1.111380e+00 9.771755e-01 1.053662e+00 8.972463e-01 4.698961e-01
<GCONST> 1.440880e+02
<STATE> 4
<MEAN> 39
 -9.667928e+00 -1.057645e+01 -7.522175e+00 -5.088606e+00 -1.308082e-01 -1.195513e+01 -4.498365e+00 -1.151563e+01 -4.419811e+00 -2.707367e+00 -4.979219e+00 -1.352289e-01 4.778094e+01 2.915287e-01 -3.136515e-01 4.451920e-01 -9.616662e-01 3.113002e-01 1.140054e-01 -1.881019e-01 -5.681216e-02 -2.305671e-01 5.885219e-01 -3.402399e-01 4.735316e-01 1.633164e+00 4.597370e-01 4.528133e-01 2.432201e-01 -2.512883e-01 -5.481422e-01 4.051774e-01 -2.791530e-01 2.457514e-01 -3.190134e-01 -4.757077e-01 -4.056983e-01 -6.361312e-01 -4.500510e-01
<VARIANCE> 39
 5.947902e+01 6.559883e+01 1.461787e+02 7.722400e+01 1.531673e+02 9.371300e+01 8.384632e+01 8.448476e+01 5.785643e+01 8.697221e+01 5.203611e+01 5.051521e+01 5.784274e+01 6.584645e+00 8.334873e+00 9.298244e+00 7.238818e+00 1.084402e+01 9.267449e+00 7.580433e+00 1.018015e+01 7.152447e+00 7.271595e+00 6.169131e+00 7.308678e+00 7.139215e+00 7.660192e-01 1.419780e+00 1.862633e+00 1.157188e+00 2.455043e+00 1.923272e+00 1.649354e+00 2.153030e+00 1.085768e+00 1.506629e+00 1.050349e+00 1.300625e+00 7.722474e-01
<GCONST> 1.592841e+02
<TRANSP> 5
 0.000000e+00 1.000000e+00 0.000000e+00 0.000000e+00 0.000000e+00
 0.000000e+00 6.928405e-01 3.071595e-01 0.000000e+00 0.000000e+00
 0.000000e+00 0.000000e+00 4.060365e-01 5.939635e-01 0.000000e+00
 0.000000e+00 0.000000e+00 0.000000e+00 7.577899e-01 2.422102e-01
 0.000000e+00 0.000000e+00 0.000000e+00 0.000000e+00 0.000000e+00
<ENDHMM>
~h "l"
<BEGINHMM>
<NUMSTATES> 5
<STATE> 2
<MEAN> 39
 -3.742665e+00 -8.697318e+00 1.536672e+00 -1.314671e+01 -3.308342e+00 -1.093678e+01 -1.839533e+01 -1.167222e+01 -7.651223e+00 -7.882767e+00 -1.077719e+01 4.688955e-01 5.249798e+01 1.320028e+00 -1.324484e+00 2.330163e-01 -1.706270e+00 1.042924e+00 7.979564e-03 -1.316252e+00 6.019727e-01 1.924105e-01 5.010883e-01 -1.412058e+00 3.434356e-01 1.578671e+00 -2.918140e-01 -1.879872e-01 -1.780514e-01 4.560705e-02 1.728189e-01 3.429616e-01 5.710766e-01 3.257538e-01 -7.372472e-02 1.311554e-01 -1.806239e-01 -2.748262e-01 -2.609910e-02
<VARIANCE> 39
 6.511911e+01 8.096454e+01 7.446638e+01 1.053864e+02 9.507514e+01 1.231863e+02 9.299704e+01 1.017625e+02 6.280045e+01 5.645695e+01 5.772631e+01 5.075721e+01 7.431676e+01 6.103276e+00 6.321400e+00 5.867211e+00 6.953284e+00 8.188057e+00 1.034978e+01 1.391937e+01 1.103087e+01 5.371262e+00 5.857713e+00 5.506069e+00 5.054852e+00 6.104238e+00 7.910613e-01 1.204350e+00 6.182715e-01 1.088606e+00 1.319710e+00 1.818949e+00 2.405827e+00 2.035066e+00 7.216662e-01 9.142483e-01 8.685730e-01 1.003247e+00 1.031556e+00
<GCONST> 1.551198e+02
<STATE> 3
<MEAN> 39
 -2.176528e+00 -1.584354e+01 4.869931e-01 -2.195529e+01 4.996084e+00 -1.023100e+01 -1.938621e+01 -6.319605e+00 -4.790156e+00 -4.613148e+00 -1.863770e+01 -2.660823e+00 5.878398e+01 1.308854e-01 2.475532e-01 -3.758003e-01 -2.801037e-01 1.981852e-01 2.209767e-01 -4.955555e-02 -8.269250e-02 1.576796e-01 2.031923e-01 -4.129317e-02 -5.183450e-01 -1.960586e-01 4.430800e-02 2.947037e-01 -1.180129e-01 3.615561e-01 -4.162028e-01 3.426099e-02 1.313087e-01 -2.088330e-01 -1.441682e-01 -7.581614e-02 4.431629e-01 -1.025688e-01 -2.154286e-01
<VARIANCE> 39
 1.093460e+01 4.259250e+01 3.739450e+01 6.283070e+01 6.689286e+01 8.774793e+01 6.590966e+01 7.074113e+01 5.857611e+01 8.168562e+01 4.656459e+01 3.951527e+01 1.502569e+01 7.644453e-01 2.823168e+00 2.155030e+00 3.345637e+00 4.171649e+00 6.198108e+00 5.522672e+00 4.445483e+00 4.443109e+00 3.379541e+00 4.084359e+00 3.350638e+00 1.163181e+00 1.091943e-01 3.585898e-01 2.927890e-01 5.989684e-01 6.001461e-01 8.049408e-01 8.182729e-01 8.463576e-01 7.232621e-01 7.900077e-01 6.508726e-01 5.459842e-01 1.717149e-01
<GCONST> 1.266505e+02
<STATE> 4
<MEAN> 39
 1.623483e+00 -7.578382e+00 -7.991080e+00 -1.968750e+01 -2.786947e+00 -2.958255e-01 -1.588393e+01 -1.079472e+01 -4.467345e+00 -3.602103e+00 -9.184902e+00 -5.935478e+00 5.208710e+01 -1.513969e-01 7.499066e-01 -2.158218e-01 9.718929e-01 -6.875909e-01 -4.031341e-01 7.857780e-01 1.445474e-01 1.745708e-02 -3.052376e-01 5.363865e-01 -2.500283e-01 -9.027663e-01 -1.297989e-01 -3.473532e-02 8.128759e-02 7.536774e-02 -4.367844e-02 -1.141012e-01 6.449628e-02 -3.342795e-03 -8.661460e-03 -3.926108e-02 -4.084583e-02 6.159168e-02 -1.370810e-02
<VARIANCE> 39
 2.488250e+01 9.959112e+01 5.411451e+01 1.079028e+02 9.099198e+01 1.138317e+02 8.200569e+01 8.306339e+01 5.770171e+01 5.403030e+01 5.108202e+01 4.757964e+01 5.496418e+01 1.652358e+00 2.000248e+00 1.966141e+00 3.391615e+00 3.916314e+00 3.831775e+00 3.474230e+00 3.610107e+00 3.396301e+00 3.152690e+00 2.754449e+00 2.709761e+00 8.594783e-01 1.956139e-01 2.713256e-01 2.564728e-01 5.143333e-01 5.546335e-01 5.732268e-01 6.041321e-01 6.322287e-01 6.676748e-01 5.366275e-01 5.744861e-01 4.714442e-01 1.123721e-01
<GCONST> 1.270554e+02
<TRANSP> 5
 0.000000e+00 1.000000e+00 0.000000e+00 0.000000e+00 0.000000e+00
 0.000000e+00 6.492257e-01 3.507743e-01 0.000000e+00 0.000000e+00
 0.000000e+00 0.000000e+00 7.663422e-01 2.336578e-01 0.000000e+00
 0.000000e+00 0.000000e+00 0.000000e+00 8.091018e-01 1.908982e-01
 0.000000e+00 0.000000e+00 0.000000e+00 0.000000e+00 0.000000e+00
<ENDHMM>
~h "m"
<BEGINHMM>
<NUMSTATES> 5
<STATE> 2
<MEAN> 39
 6.904544e-01 -9.551799e+00 1.578926e+00 -9.851963e+00 -7.003903e+00 -1.394326e+01 -1.925708e+01 -9.917002e+00 -9.480493e+00 -8.509300e+00 -1.080185e+01 -3.164023e+00 5.222670e+01 1.643779e+00 6.802179e-01 -9.301187e-01 1.747038e+00 3.330776e-01 1.505009e-01 -1.741527e+00 -1.044911e+00 -7.372901e-01 -4.986553e-01 -2.870916e-01 -2.049510e+00 -6.632147e-01 -2.485423e-01 1.104064e-01 -2.869291e-01 2.107918e-01 2.084255e-01 2.154075e-01 2.491766e-01 -6.739067e-02 -9.031567e-02 3.350303e-02 1.795053e-01 -3.567663e-01 -1.259528e-01
<VARIANCE> 39
 2.124715e+01 1.033110e+02 3.362498e+01 6.505065e+01 4.504836e+01 5.670452e+01 5.300190e+01 7.192865e+01 6.370128e+01 6.582578e+01 3.552111e+01 4.639077e+01 6.101266e+01 2.764045e+00 4.024633e+00 2.494397e+00 3.853927e+00 3.582118e+00 3.582562e+00 6.066256e+00 5.521971e+00 4.685987e+00 3.581539e+00 2.512545e+00 3.435174e+00 3.737344e+00 3.399178e-01 1.094703e+00 3.679153e-01 6.004241e-01 4.036868e-01 8.376311e-01 8.156337e-01 9.726663e-01 6.807088e-01 6.831629e-01 6.348774e-01 7.817997e-01 4.500097e-01
<GCONST> 1.339636e+02
<STATE> 3
<MEAN> 39
 4.883165e+00 -1.053436e+01 -4.813045e+00 -2.747335e+00 -1.062726e+00 -9.987960e+00 -2.440507e+01 -1.277451e+01 -1.355945e+01 -8.202133e+00 -7.212868e+00 -1.270134e+01 5.056031e+01 7.452888e-02 -4.244830e-01 -5.399469e-01 -1.769075e-01 6.531949e-01 7.729972e-01 -4.278480e-01 3.031251e-01 2.316689e-01 2.179376e-01 4.495386e-01 -1.611693e-01 1.003996e-01 -2.227650e-01 -1.684726e-01 1.152234e-01 -5.641004e-01 -7.635278e-02 1.283301e-01 3.609247e-01 2.738994e-01 3.325941e-01 5.951307e-02 -8.567274e-02 5.033344e-01 1.733971e-01
<VARIANCE> 39
 9.672498e+00 3.167992e+01 3.366932e+01 6.373007e+01 5.058113e+01 5.639165e+01 4.202350e+01 5.955179e+01 4.864309e+01 5.158734e+01 4.955742e+01 4.021189e+01 1.538879e+01 5.427269e-01 3.206163e+00 1.582919e+00 6.607933e+00 2.598295e+00 3.308943e+00 3.220755e+00 5.701522e+00 4.062861e+00 3.422760e+00 3.469865e+00 4.105757e+00 1.415426e+00 1.549592e-01 3.067741e-01 2.531375e-01 6.572157e-01 5.639174e-01 4.549925e-01 6.021500e-01 9.031135e-01 6.082801e-01 5.868793e-01 7.397830e-01 5.954152e-01 1.219971e-01
<GCONST> 1.218497e+02
<STATE> 4
<MEAN> 39
 3.874998e+00 -1.021221e+01 -6.935036e+00 -7.964059e+00 -1.240802e+00 -5.556742e+00 -2.023447e+01 -1.022269e+01 -1.270387e+01 -1.049757e+01 -8.819297e+00 -7.153828e+00 5.065031e+01 -3.103645e-01 2.854689e-01 9.426711e-02 -5.016948e-01 6.346847e-02 1.234966e-01 7.168373e-01 1.006098e-01 9.520217e-02 -2.110271e-01 -4.875736e-01 6.072223e-01 -1.752283e-01 -1.305284e-01 6.833950e-02 2.572019e-01 4.275802e-02 -2.321104e-01 -1.748278e-01 5.650800e-02 -1.358322e-01 -4.349476e-02 1.619922e-02 -4.729040e-02 1.020653e-01 -2.612468e-02
<VARIANCE> 39
 1.489162e+01 1.110752e+02 6.008245e+01 8.961865e+01 6.920084e+01 1.011159e+02 4.792922e+01 7.037690e+01 6.721825e+01 7.627528e+01 4.415053e+01 3.971241e+01 5.142155e+01 6.341973e-01 3.439223e+00 1.216748e+00 4.092547e+00 3.912469e+00 3.110980e+00 2.503607e+00 4.423865e+00 2.562177e+00 3.853702e+00 2.631265e+00 3.760643e+00 1.550756e+00 1.693882e-01 3.134995e-01 3.624152e-01 7.816480e-01 4.837184e-01 5.582826e-01 4.521126e-01 6.025727e-01 4.626133e-01 6.654789e-01 6.797895e-01 6.631843e-01 1.548287e-01
<GCONST> 1.262711e+02
<TRANSP> 5
 0.000000e+00 1.000000e+00 0.000000e+00 0.000000e+00 0.000000e+00
 0.000000e+00 5.913457e-01 4.086543e-01 0.000000e+00 0.000000e+00
 0.000000e+00 0.000000e+00 7.887446e-01 2.112554e-01 0.000000e+00
 0.000000e+00 0.000000e+00 0.000000e+00 6.312251e-01 3.687749e-01
 0.000000e+00 0.000000e+00 0.000000e+00 0.000000e+00 0.000000e+00
<ENDHMM>
~h "n"
<BEGINHMM>
<NUMSTATES> 5
<STATE> 2
<MEAN> 39
 -3.406220e+00 -1.268126e+01 4.856675e+00 -1.770320e+01 -7.448722e+00 -1.358035e+01 -1.180433e+01 -5.225819e+00 -1.471036e+01 -6.479899e+00 -1.009846e+01 1.125825e+00 5.735323e+01 1.089950e+00 1.372095e+00 -5.859989e-01 1.449682e+00 -3.986012e-01 -3.364760e-01 -1.908004e-01 -1.078634e+00 -1.021733e+00 -7.891495e-01 2.163861e-01 -4.882568e-01 -1.219650e+00 2.437680e-01 1.455036e-01 -2.381101e-01 5.470827e-01 -1.125193e-01 2.356109e-01 -1.389873e-01 -3.376862e-01 6.091180e-02 -1.598346e-01 1.848516e-01 -1.773048e-01 -3.437651e-01
<VARIANCE> 39
 1.612615e+01 5.555089e+01 3.754249e+01 5.391982e+01 5.685576e+01 6.613087e+01 4.821774e+01 6.856471e+01 6.681013e+01 6.274724e+01 3.961728e+01 3.658476e+01 3.181289e+01 1.733197e+00 2.387673e+00 1.951613e+00 3.632641e+00 3.011291e+00 3.104320e+00 3.016705e+00 3.170226e+00 3.735925e+00 3.368647e+00 2.784985e+00 2.995542e+00 1.631588e+00 2.031685e-01 4.554419e-01 2.993077e-01 4.444385e-01 4.869968e-01 6.009718e-01 4.801707e-01 5.385240e-01 6.348820e-01 6.019905e-01 5.332136e-01 5.334485e-01 1.744932e-01
<GCONST> 1.235752e+02
<STATE> 3
<MEAN> 39
 4.307313e+00 -5.618302e+00 2.813752e-01 -4.269749e+00 -1.018192e+01 -1.236659e+01 -1.483670e+01 -1.458405e+01 -1.814888e+01 -1.284982e+01 -5.920278e+00 -1.698940e+00 4.825331e+01 5.584863e-01 1.004223e+00 -5.861382e-01 1.215853e+00 -2.619551e-01 1.033425e-01 -4.191259e-01 -8.661737e-01 1.375176e-01 -4.966174e-01 4.856090e-01 -2.208237e-01 -9.979028e-01 -3.422846e-01 1.247444e-03 9.174342e-02 -3.305265e-01 9.699576e-02 -5.731646e-02 7.277729e-02 2.810733e-01 2.475737e-01 2.266645e-01 -2.188018e-02 7.042244e-02 1.584342e-01
<VARIANCE> 39
 8.052851e+00 3.498455e+01 1.997274e+01 3.795237e+01 4.416805e+01 5.815919e+01 4.872635e+01 6.699528e+01 5.713446e+01 5.642482e+01 4.581569e+01 4.001191e+01 1.506604e+01 1.012998e+00 2.094374e+00 1.519969e+00 2.775492e+00 2.347368e+00 2.981524e+00 2.444990e+00 3.168671e+00 2.870203e+00 3.594241e+00 3.198565e+00 2.621855e+00 6.879860e-01 1.418653e-01 3.077267e-01 2.938883e-01 3.971992e-01 3.984544e-01 5.445529e-01 4.763409e-01 5.328720e-01 5.014120e-01 6.210592e-01 5.579137e-01 5.424988e-01 8.706094e-02
<GCONST> 1.154853e+02
<STATE> 4
<MEAN> 39
 -6.470716e-01 1.951395e+00 -1.708851e+00 -2.544461e+00 -1.045304e+01 -1.171101e+01 -1.426187e+01 -1.381507e+01 -1.135067e+01 -1.093415e+01 -5.502108e+00 -3.071784e+00 4.040969e+01 -1.170224e+00 1.058962e-01 -3.700297e-01 -3.204569e-03 4.737180e-01 6.034274e-01 2.882041e-01 3.653053e-01 6.287450e-01 3.536665e-01 7.936622e-02 -3.504266e-01 -3.918009e-01 -3.078114e-01 -3.330037e-01 4.866616e-02 -2.365757e-01 1.825536e-01 1.045109e-01 1.212161e-01 9.393204e-02 8.748826e-02 1.042811e-01 -8.234304e-02 7.896958e-02 2.814815e-01
<VARIANCE> 39
 3.716030e+01 3.872508e+01 2.398746e+01 2.585071e+01 3.332965e+01 4.430704e+01 4.104450e+01 4.700451e+01 5.244629e+01 4.243559e+01 3.723157e+01 3.195746e+01 4.461386e+01 1.628137e+00 4.168572e+00 2.545984e+00 3.516505e+00 2.334914e+00 3.662117e+00 3.637186e+00 4.291322e+00 3.798151e+00 3.829358e+00 3.508851e+00 2.873919e+00 1.446021e+00 3.619302e-01 5.358263e-01 4.974824e-01 7.076587e-01 4.821882e-01 6.846693e-01 6.574631e-01 8.236583e-01 6.818060e-01 7.067493e-01 6.785365e-01 5.599536e-01 2.531211e-01
<GCONST> 1.257090e+02
<TRANSP> 5
 0.000000e+00 1.000000e+00 0.000000e+00 0.000000e+00 0.000000e+00
 0.000000e+00 7.084430e-01 2.915571e-01 0.000000e+00 0.000000e+00
 0.000000e+00 0.000000e+00 8.131520e-01 1.868480e-01 0.000000e+00
 0.000000e+00 0.000000e+00 0.000000e+00 7.275609e-01 2.724390e-01
 0.000000e+00 0.000000e+00 0.000000e+00 0.000000e+00 0.000000e+00
<ENDHMM>
~h "p"
<BEGINHMM>
<NUMSTATES> 5
<STATE> 2
<MEAN> 39
 -4.258609e+00 -1.043914e+01 -1.772317e+00 -1.021705e+01 -8.213842e+00 -3.584639e+00 -9.523258e+00 -6.364655e+00 -8.534322e+00 -6.346085e+00 -1.177254e+01 -6.293245e+00 4.758877e+01 3.548951e-01 -4.061913e-02 -5.194919e-01 -3.235824e-01 -3.075038e-01 8.660353e-01 5.192108e-01 4.725370e-01 8.498642e-01 5.840586e-01 -9.125305e-01 -1.033422e+00 -4.299533e-02 -2.005972e-01 2.928320e-01 -2.607821e-03 2.914515e-01 1.432840e-01 -8.314978e-02 -1.065735e-01 -3.544472e-01 -1.177192e-01 -1.145221e-01 2.082707e-01 1.196008e-01 -2.955523e-01
<VARIANCE> 39
 5.355649e+01 8.093667e+01 1.193592e+02 6.409473e+01 1.152938e+02 7.227782e+01 3.636680e+01 5.019722e+01 6.527898e+01 6.178585e+01 5.032012e+01 4.210424e+01 1.084063e+02 2.377165e+00 5.636013e+00 2.607507e+00 6.022501e+00 6.940445e+00 4.706792e+00 3.792904e+00 6.434923e+00 6.285840e+00 5.472961e+00 4.242861e+00 2.664019e+00 8.175096e+00 4.164281e-01 5.416138e-01 4.232227e-01 6.474782e-01 8.543181e-01 9.753985e-01 6.915739e-01 9.690652e-01 1.200176e+00 7.219905e-01 9.400182e-01 6.186520e-01 8.251504e-01
<GCONST> 1.420291e+02
<STATE> 3
<MEAN> 39
 -1.859297e+00 -1.028502e+01 -7.703585e+00 -6.528453e+00 -3.908362e+00 -1.890294e+00 -9.811356e+00 -8.427498e+00 -8.196626e+00 -8.886312e+00 -1.504502e+01 -9.787549e+00 4.506865e+01 -5.091090e-01 6.422687e-01 -2.917463e-01 1.219540e-01 4.504496e-02 -7.788771e-02 1.485524e-01 -2.183334e-01 -2.017658e-01 -1.126802e-01 3.410144e-01 3.094026e-01 -1.076663e+00 -1.421586e-01 9.606633e-03 1.708052e-01 -2.545741e-01 -2.883055e-02 -3.090046e-02 -1.834629e-02 1.001867e-01 -4.360510e-02 4.677998e-02 2.017298e-01 1.593679e-01 1.065146e-01
<VARIANCE> 39
 4.898417e+01 1.215528e+02 8.100821e+01 5.156534e+01 8.849095e+01 4.746847e+01 4.231648e+01 7.448126e+01 4.239307e+01 1.139167e+02 4.895710e+01 3.404604e+01 9.763180e+01 6.660689e-01 1.737310e+00 2.133672e+00 1.920858e+00 2.953495e+00 1.561575e+00 1.980539e+00 2.516383e+00 2.804817e+00 3.340240e+00 2.040244e+00 1.158083e+00 9.536505e-01 1.470549e-01 2.355364e-01 3.071816e-01 3.645483e-01 5.635032e-01 2.841879e-01 5.006841e-01 5.681310e-01 4.367073e-01 7.792459e-01 4.898725e-01 3.629934e-01 1.261582e-01
<GCONST> 1.198124e+02
<STATE> 4
<MEAN> 39
 -8.470741e+00 -3.986350e+00 -4.766202e+00 -6.046186e+00 -6.932394e+00 -4.749526e+00 -7.756806e+00 -8.432438e+00 -6.951663e+00 -1.025768e+01 -8.396672e+00 -5.081578e+00 3.690606e+01 -7.614544e-01 -2.839404e-01 5.126779e-02 -2.743437e-01 2.450698e-01 1.006896e-01 -5.257386e-02 1.885879e-01 5.980418e-01 7.424017e-01 7.939911e-01 4.913108e-01 -4.152926e-01 6.048892e-03 -2.399845e-01 1.599945e-01 -2.599153e-02 3.717548e-02 -1.752338e-01 -1.924068e-01 -1.992495e-02 7.407960e-02 1.166897e-01 -1.704193e-02 1.303348e-01 3.526636e-01
<VARIANCE> 39
 3.471841e+01 4.815213e+01 5.557444e+01 5.932218e+01 4.251313e+01 4.110748e+01 3.826133e+01 6.204334e+01 4.227483e+01 6.180615e+01 6.010318e+01 4.665360e+01 7.634278e+01 1.301805e+00 1.816494e+00 2.303964e+00 2.298357e+00 1.758215e+00 2.600627e+00 5.280932e+00 4.450017e+00 2.673817e+00 3.902077e+00 4.823317e+00 2.811568e+00 1.414162e+00 3.500981e-01 3.844352e-01 4.763766e-01 6.796969e-01 4.905255e-01 5.825880e-01 9.625245e-01 8.393878e-01 6.261106e-01 7.931225e-01 9.846374e-01 5.377081e-01 4.863980e-01
<GCONST> 1.284277e+02
<TRANSP> 5
 0.000000e+00 1.000000e+00 0.000000e+00 0.000000e+00 0.000000e+00
 0.000000e+00 6.204664e-01 3.795336e-01 0.000000e+00 0.000000e+00
 0.000000e+00 0.000000e+00 6.371388e-01 3.628612e-01 0.000000e+00
 0.000000e+00 0.000000e+00 0.000000e+00 6.811813e-01 3.188187e-01
 0.000000e+00 0.000000e+00 0.000000e+00 0.000000e+00 0.000000e+00
<ENDHMM>
~h "r"
<BEGINHMM>
<NUMSTATES> 5
<STATE> 2
<MEAN> 39
 -8.661859e+00 -9.705980e+00 -3.815057e+00 -7.645031e-01 -4.731551e+00 -1.136676e+01 -1.419050e+01 -1.002126e+01 -2.734934e+00 -5.750179e+00 -3.608295e+00 -3.857147e+00 4.422898e+01 3.980247e+00 -6.813843e-01 -1.263566e+00 3.100431e-01 -2.355159e-01 -2.196270e+00 -2.608691e+00 -1.324490e+00 -8.617612e-01 -7.780564e-02 2.139858e-01 2.706092e-02 1.130334e+00 4.722991e-01 -4.666197e-01 6.879929e-02 -4.971040e-01 -1.321352e-01 5.280785e-02 1.221479e-01 3.270258e-01 -4.598884e-01 -3.351653e-02 -2.851717e-01 1.091923e-01 7.417343e-01
<VARIANCE> 39
 1.538090e+02 4.113727e+01 5.852882e+01 2.906344e+01 3.825695e+01 7.596346e+01 1.329536e+02 1.018113e+02 7.729298e+01 3.773345e+01 2.580679e+01 3.190441e+01 4.559945e+01 1.010439e+01 7.061778e+00 6.774571e+00 4.470360e+00 6.022559e+00 6.546013e+00 9.972466e+00 9.168921e+00 7.368485e+00 5.181262e+00 5.189787e+00 3.557953e+00 6.601670e+00 2.481478e+00 1.258682e+00 1.516992e+00 6.608037e-01 8.714362e-01 1.510917e+00 3.149364e+00 2.523605e+00 1.131485e+00 8.863084e-01 1.075302e+00 6.464087e-01 6.061190e-01
<GCONST> 1.508096e+02
<STATE> 3
<MEAN> 39
 5.354333e+00 -1.761407e+01 -5.564087e+00 -2.785473e+00 -8.174039e+00 -1.759621e+01 -1.801300e+01 -6.552620e+00 -7.526203e+00 -6.577129e+00 -4.676787e+00 -2.036848e+00 5.309204e+01 -8.167116e-02 -2.558792e+00 1.896932e+00 -1.173487e+00 -5.483121e-01 7.874105e-01 1.748524e+00 2.133984e+00 -1.188882e+00 3.825844e-01 -1.012447e+00 -5.991320e-02 2.012032e+00 -1.146054e+00 3.348437e-01 8.434444e-01 -4.752982e-01 2.103653e-01 8.610879e-01 5.815513e-01 1.001009e-02 -1.737403e-01 2.781666e-01 -1.955589e-01 -1.711493e-01 -2.489709e-01
<VARIANCE> 39
 1.103532e+01 5.180486e+01 1.294920e+02 4.083459e+01 9.610152e+01 5.127473e+01 4.147029e+01 5.318657e+01 3.895539e+01 3.590765e+01 6.436190e+01 4.309891e+01 1.820969e+01 4.842022e+00 5.334229e+00 1.108782e+01 4.907815e+00 7.476741e+00 6.554985e+00 5.417912e+00 6.922975e+00 6.085122e+00 5.735623e+00 6.201054e+00 3.580783e+00 3.030690e+00 8.780255e-01 1.118433e+00 1.099770e+00 1.018297e+00 1.242926e+00 1.101156e+00 1.132542e+00 1.192734e+00 1.176486e+00 8.706509e-01 1.004179e+00 5.356641e-01 4.281876e-01
<GCONST> 1.426654e+02
<STATE> 4
<MEAN> 39
 1.949693e+00 -2.282299e+01 -3.101827e+00 -9.251605e+00 -6.118909e+00 -8.757498e+00 -1.140778e+01 -3.020700e+00 -1.200978e+01 -5.215990e+00 -8.683278e+00 -5.473490e+00 5.838493e+01 -9.204416e-01 4.508625e-01 1.656055e+00 -1.812759e+00 -2.728451e-01 1.144400e+00 5.539659e-01 -4.394631e-01 -6.611818e-01 8.537056e-01 -6.740392e-01 -3.197011e-01 4.282803e-01 -2.271900e-02 6.866403e-01 -2.573581e-01 2.008127e-02 -3.140178e-02 -1.396225e-01 -4.245079e-01 -4.684765e-01 4.584081e-01 -1.717061e-01 -1.766295e-02 -6.301577e-02 -3.841404e-01
<VARIANCE> 39
 2.149665e+01 5.033922e+01 1.580827e+02 7.033774e+01 7.079228e+01 7.604984e+01 3.684155e+01 7.437044e+01 4.556703e+01 6.202237e+01 6.425195e+01 3.718728e+01 1.976894e+01 1.765998e+00 2.112651e+00 3.312464e+00 3.928132e+00 3.482917e+00 5.133548e+00 3.763253e+00 3.833581e+00 3.624652e+00 4.001273e+00 3.735376e+00 2.658386e+00 9.798517e-01 3.212768e-01 4.025401e-01 5.605076e-01 5.239239e-01 7.759547e-01 7.951151e-01 6.687859e-01 7.340285e-01 6.662238e-01 6.797292e-01 7.023528e-01 5.200543e-01 1.627974e-01
<GCONST> 1.295018e+02
<TRANSP> 5
 0.000000e+00 1.000000e+00 0.000000e+00 0.000000e+00 0.000000e+00
 0.000000e+00 7.038513e-01 2.961486e-01 0.000000e+00 0.000000e+00
 0.000000e+00 0.000000e+00 6.523523e-01 3.476477e-01 0.000000e+00
 0.000000e+00 0.000000e+00 0.000000e+00 6.619015e-01 3.380985e-01
 0.000000e+00 0.000000e+00 0.000000e+00 0.000000e+00 0.000000e+00
<ENDHMM>
~h "s"
<BEGINHMM>
<NUMSTATES> 5
<STATE> 2
<MEAN> 39
 -1.532140e+01 8.542492e+00 -1.118435e+01 -9.600369e-01 -1.196854e+01 -1.092209e+01 -8.039052e+00 -1.268101e+01 -6.019098e+00 -9.547570e+00 -5.603268e+00 -5.973432e+00 4.825409e+01 -2.841355e+00 2.127923e+00 -1.566637e+00 1.525933e+00 8.722918e-01 4.067888e-01 9.124534e-01 -3.445081e-01 1.082991e+00 4.502944e-01 9.152933e-01 -3.023442e-01 -1.446614e-02 3.294238e-02 -5.005999e-01 4.068085e-01 -3.363687e-01 4.614984e-01 -7.951844e-02 -3.631741e-02 2.000155e-01 -1.046559e-01 1.980823e-01 -1.177125e-02 2.632255e-01 1.832574e-01
<VARIANCE> 39
 6.787612e+01 8.031995e+01 7.595768e+01 8.122352e+01 4.816787e+01 6.662489e+01 6.339421e+01 5.231865e+01 4.167759e+01 4.913037e+01 4.722020e+01 2.964238e+01 5.937239e+01 4.356814e+00 7.728438e+00 7.037708e+00 3.790347e+00 5.894663e+00 3.655577e+00 5.198531e+00 3.482121e+00 3.634273e+00 4.126455e+00 4.131343e+00 2.895264e+00 1.708768e+00 8.235904e-01 9.961658e-01 8.902766e-01 6.464906e-01 7.819408e-01 7.730449e-01 1.001038e+00 6.835569e-01 6.979303e-01 9.384252e-01 8.151883e-01 5.251047e-01 2.495719e-01
<GCONST> 1.383402e+02
<STATE> 3
<MEAN> 39
 -1.997716e+01 4.340832e+00 -7.993514e+00 -5.235132e+00 -2.930591e+00 -1.124472e+01 -6.579216e+00 -1.082842e+01 -3.193940e+00 -7.832212e+00 -3.390568e+00 -1.710954e+00 4.954973e+01 1.064559e-01 -1.229102e+00 7.466239e-02 -1.199242e+00 8.723259e-01 5.580992e-02 6.958682e-02 4.600185e-01 2.070057e-01 -2.772152e-02 -1.029693e-01 1.710964e-01 9.448310e-01 6.918086e-01 -4.451863e-01 -9.979469e-02 1.633416e-02 -4.034175e-01 3.345529e-01 -2.857640e-01 1.344554e-01 -1.736728e-01 -2.813592e-02 -2.021029e-01 -1.449189e-01 -9.009200e-02
<VARIANCE> 39
 9.053795e+01 1.111947e+02 5.648720e+01 8.034952e+01 5.924793e+01 1.012204e+02 9.044965e+01 5.211147e+01 5.603033e+01 3.880820e+01 5.218716e+01 3.812776e+01 5.928368e+01 1.490264e+01 1.307709e+01 7.233880e+00 9.426658e+00 7.372150e+00 8.523713e+00 9.615262e+00 6.175801e+00 5.691709e+00 4.523862e+00 6.848705e+00 4.213152e+00 3.720883e+00 1.643159e+00 1.196733e+00 1.313010e+00 1.424943e+00 1.505867e+00 1.432903e+00 1.890867e+00 1.235215e+00 1.064216e+00 9.637081e-01 1.204249e+00 7.375212e-01 6.377820e-01
<GCONST> 1.538553e+02
<STATE> 4
<MEAN> 39
 -2.355676e+01 6.533897e+00 -1.339345e+01 1.201902e+00 -4.405581e+00 -5.811569e+00 -3.024805e+00 -8.729301e+00 -8.831109e-01 -6.280099e+00 -1.388512e+00 -3.673891e+00 4.415062e+01 6.718066e-01 -9.563202e-01 2.532811e-01 -1.212879e-01 -1.710671e-01 4.237218e-01 -2.113295e-01 9.634630e-02 -2.281285e-01 -4.297782e-02 -1.324119e-01 6.632169e-02 -6.345928e-01 2.549006e-01 -1.673834e-01 2.293415e-01 -2.129609e-01 -1.015124e-01 -1.210592e-01 -1.124742e-01 -1.178123e-01 -1.301686e-01 -6.573503e-02 -1.321878e-01 2.677001e-02 2.015479e-02
<VARIANCE> 39
 4.735711e+01 7.881697e+01 3.444216e+01 5.582509e+01 5.419270e+01 7.432355e+01 5.743896e+01 4.460777e+01 4.689420e+01 4.151291e+01 4.532894e+01 2.759345e+01 6.676369e+01 2.577837e+00 2.985542e+00 3.057885e+00 4.006526e+00 4.078090e+00 4.770036e+00 4.085021e+00 3.311047e+00 3.320766e+00 3.296806e+00 3.398492e+00 2.134757e+00 3.280324e+00 5.724138e-01 4.658536e-01 4.244840e-01 6.476361e-01 7.333527e-01 8.069757e-01 8.746616e-01 7.384791e-01 7.037513e-01 6.607145e-01 8.560272e-01 5.166397e-01 3.861642e-01
<GCONST> 1.320936e+02
<TRANSP> 5
 0.000000e+00 1.000000e+00 0.000000e+00 0.000000e+00 0.000000e+00
 0.000000e+00 7.625683e-01 2.374317e-01 0.000000e+00 0.000000e+00
 0.000000e+00 0.000000e+00 7.205869e-01 2.794132e-01 0.000000e+00
 0.000000e+00 0.000000e+00 0.000000e+00 8.385881e-01 1.614120e-01
 0.000000e+00 0.000000e+00 0.000000e+00 0.000000e+00 0.000000e+00
<ENDHMM>
~h "t"
<BEGINHMM>
<NUMSTATES> 5
<STATE> 2
<MEAN> 39
 -9.589344e+00 -1.102341e-01 -4.613666e+00 -4.377974e+00 -9.204916e+00 -9.953253e+00 -8.812617e+00 -1.087998e+01 -6.934220e+00 -9.992252e+00 -7.658940e+00 -7.132265e+00 3.973482e+01 -9.533915e-01 -4.457884e-01 2.012178e-02 -4.973801e-01 8.603918e-01 -2.864669e-01 -3.181137e-01 -3.730848e-01 4.032721e-01 6.622272e-01 1.196064e+00 6.537977e-01 8.462751e-01 1.253025e-01 -3.755209e-01 2.939724e-01 -4.999798e-01 4.455230e-02 -7.226569e-02 -1.233067e-01 1.537284e-01 -4.015605e-02 2.394414e-01 3.606278e-02 3.377787e-01 6.552703e-01
<VARIANCE> 39
 6.249441e+01 3.718101e+01 5.580875e+01 3.553231e+01 5.561297e+01 6.249362e+01 5.403706e+01 8.335359e+01 4.165448e+01 4.578186e+01 5.500483e+01 3.289724e+01 6.072548e+01 7.127773e+00 4.747139e+00 6.243488e+00 6.596736e+00 6.365608e+00 6.871738e+00 6.019795e+00 6.393317e+00 5.098058e+00 4.974337e+00 6.003294e+00 4.325927e+00 7.714636e+00 1.093892e+00 6.382557e-01 8.642676e-01 8.219140e-01 1.106789e+00 1.259619e+00 8.749760e-01 1.167805e+00 9.140548e-01 8.252041e-01 1.200998e+00 7.294039e-01 9.994928e-01
<GCONST> 1.451864e+02
<STATE> 3
<MEAN> 39
 -9.977025e+00 -6.137794e+00 2.042671e+00 -1.376842e+01 -7.351467e+00 -1.231782e+01 -1.398923e+01 -1.072720e+01 -7.027215e+00 -4.556648e+00 -6.017771e+00 -3.303062e-01 5.111666e+01 8.933502e-01 -1.290222e+00 6.901683e-01 -8.896089e-01 -2.435254e-01 -2.554109e-01 7.968906e-02 1.110055e+00 1.539594e-01 4.089262e-01 -8.185379e-01 7.432452e-01 1.626277e+00 1.678317e-01 1.581229e-01 -1.637726e-01 5.426818e-01 -8.104922e-02 4.084894e-01 3.056584e-01 1.159163e-01 -8.943056e-02 -1.805863e-01 -4.375821e-01 -4.495879e-01 -6.711329e-01
<VARIANCE> 39
 8.606858e+01 8.211538e+01 1.190977e+02 7.155270e+01 8.944476e+01 7.509505e+01 7.363066e+01 8.326651e+01 7.325251e+01 6.838384e+01 7.590768e+01 4.761708e+01 4.581704e+01 7.201804e+00 7.848861e+00 5.707267e+00 7.690546e+00 7.092510e+00 7.258913e+00 9.081134e+00 7.725260e+00 6.585164e+00 7.376369e+00 8.167758e+00 5.129874e+00 8.581477e+00 1.490442e+00 1.184305e+00 9.889498e-01 9.867792e-01 1.455558e+00 1.577780e+00 1.764646e+00 1.539458e+00 1.188625e+00 1.572680e+00 1.710739e+00 8.749558e-01 7.851771e-01
<GCONST> 1.565988e+02
<STATE> 4
<MEAN> 39
 -3.452928e+00 -9.836719e+00 -2.928086e+00 -8.685301e+00 -1.040392e+01 -1.172765e+01 -1.120909e+01 -3.091932e+00 -7.365191e+00 -5.217826e+00 -5.648896e+00 -1.929617e+00 4.888534e+01 -2.659104e-02 2.294900e-01 -1.830567e-01 5.614144e-01 8.251831e-02 4.661824e-01 4.141450e-01 2.416230e-01 2.354887e-01 -2.273455e-01 -1.413773e-01 -3.637782e-01 -8.713884e-01 -1.259277e-01 1.029088e-01 -2.823521e-02 3.815040e-02 5.759038e-02 6.745522e-02 -1.186047e-01 -2.040106e-01 -5.710372e-02 2.168384e-03 7.642739e-02 -1.950513e-02 -8.372935e-02
<VARIANCE> 39
 6.417675e+01 1.206938e+02 1.012094e+02 5.491898e+01 9.460049e+01 8.684029e+01 7.378766e+01 7.502885e+01 4.999174e+01 6.049273e+01 7.715085e+01 5.784397e+01 9.626311e+01 1.705293e+00 3.725722e+00 3.062670e+00 2.814690e+00 3.849658e+00 4.010134e+00 3.167564e+00 3.995890e+00 2.755298e+00 2.899560e+00 3.310875e+00 2.836468e+00 1.948021e+00 3.838566e-01 4.692760e-01 4.756835e-01 4.509344e-01 7.068115e-01 6.057210e-01 6.519697e-01 6.796786e-01 5.941648e-01 5.231864e-01 7.954965e-01 5.776320e-01 3.633327e-01
<GCONST> 1.342616e+02
<TRANSP> 5
 0.000000e+00 1.000000e+00 0.000000e+00 0.000000e+00 0.000000e+00
 0.000000e+00 7.539153e-01 2.460847e-01 0.000000e+00 0.000000e+00
 0.000000e+00 0.000000e+00 6.926602e-01 3.073398e-01 0.000000e+00
 0.000000e+00 0.000000e+00 0.000000e+00 7.273961e-01 2.726039e-01
 0.000000e+00 0.000000e+00 0.000000e+00 0.000000e+00 0.000000e+00
<ENDHMM>
~h "v"
<BEGINHMM>
<NUMSTATES> 5
<STATE> 2
<MEAN> 39
 -7.316171e+00 -5.695271e+00 -5.462287e+00 -1.118605e+01 -2.809782e+00 -9.662024e+00 -8.671342e+00 -1.170445e+01 -6.136826e+00 -7.684500e+00 -6.369963e+00 -2.608905e+00 5.048431e+01 8.074945e-01 -1.161660e+00 2.192251e-01 -7.564218e-01 4.370445e-01 -4.736331e-01 -1.270823e+00 2.886900e-02 2.736401e-01 2.363045e-01 -3.498683e-01 3.269252e-01 1.689725e+00 3.456488e-01 -6.931247e-02 2.600764e-01 3.273945e-02 -1.846846e-01 4.105229e-02 -4.743853e-01 2.665337e-02 -6.762435e-02 1.062890e-01 -4.163518e-01 -3.179962e-01 1.341899e-02
<VARIANCE> 39
 1.142118e+02 9.538205e+01 8.202484e+01 6.926987e+01 5.228613e+01 7.877327e+01 9.234320e+01 7.084335e+01 7.735047e+01 6.880577e+01 9.322089e+01 4.412788e+01 6.432933e+01 1.089236e+01 7.390192e+00 5.840828e+00 6.658186e+00 7.370516e+00 1.206808e+01 1.417764e+01 7.116623e+00 8.219072e+00 5.619955e+00 7.559175e+00 3.057700e+00 6.491678e+00 1.507748e+00 1.038724e+00 1.152344e+00 7.777877e-01 1.481564e+00 1.669888e+00 2.136855e+00 1.413091e+00 1.329356e+00 1.249826e+00 1.623336e+00 6.083142e-01 7.902793e-01
<GCONST> 1.563978e+02
<STATE> 3
<MEAN> 39
 2.013301e-01 -1.274025e+01 -7.105124e+00 -1.481512e+01 -2.293585e+00 -4.172921e+00 -1.550423e+01 -1.166854e+01 -2.475594e+00 -6.114436e+00 -1.047350e+01 -7.714231e+00 5.541431e+01 8.863808e-01 -2.280459e-01 1.672489e-01 -1.888490e-02 1.703127e-01 1.220546e+00 -4.078729e-01 3.850777e-01 -5.640703e-01 -3.142568e-01 -1.174892e+00 -1.549734e+00 5.009424e-01 -4.849094e-01 7.578078e-01 6.225182e-02 4.818005e-01 -2.272264e-01 -2.946896e-01 5.643615e-01 2.420984e-01 -2.064631e-01 -4.786732e-01 1.019044e-02 -2.725060e-02 -7.213363e-01
<VARIANCE> 39
 2.978913e+01 5.760074e+01 4.834637e+01 5.004214e+01 3.886139e+01 1.524626e+02 5.456707e+01 4.699025e+01 7.785250e+01 6.365618e+01 4.078267e+01 5.495660e+01 2.878438e+01 3.556551e+00 7.709582e+00 2.372138e+00 4.099896e+00 2.707753e+00 5.495056e+00 4.586819e+00 4.868918e+00 3.450622e+00 5.264627e+00 3.559573e+00 3.480141e+00 4.772401e+00 4.775212e-01 1.127404e+00 5.342883e-01 6.611698e-01 7.230732e-01 1.063350e+00 1.009471e+00 9.667763e-01 1.017321e+00 8.242817e-01 6.803879e-01 6.255763e-01 8.095772e-01
<GCONST> 1.382181e+02
<STATE> 4
<MEAN> 39
 -4.779999e+00 -8.823303e+00 -5.375014e+00 -1.117806e+01 -5.202157e+00 -3.804180e+00 -6.340805e+00 -4.992329e+00 -6.313946e+00 -1.223663e+01 -1.418256e+01 -1.117751e+01 5.015062e+01 -8.153503e-01 1.064779e+00 2.540736e-01 4.479507e-01 -3.803473e-01 -7.058043e-01 7.645475e-01 1.957494e-01 -1.052568e-01 -3.266466e-01 7.950241e-02 1.069010e-01 -1.213311e+00 2.955876e-02 -1.030523e-02 1.250270e-02 -2.169545e-02 -2.255528e-02 -6.100609e-02 -1.972892e-01 -2.196991e-01 -4.813563e-02 2.019721e-01 2.004013e-01 1.931597e-01 -4.763201e-02
<VARIANCE> 39
 5.783029e+01 7.830146e+01 4.978352e+01 3.805812e+01 3.196778e+01 6.386811e+01 6.788432e+01 5.388517e+01 5.176501e+01 3.945289e+01 4.591707e+01 3.313672e+01 5.760184e+01 3.158748e+00 3.033418e+00 2.534357e+00 3.603028e+00 3.694827e+00 3.257503e+00 5.031905e+00 4.291267e+00 3.810016e+00 4.009352e+00 3.339041e+00 2.769247e+00 1.297543e+00 5.101473e-01 4.796818e-01 4.422562e-01 7.293967e-01 6.041384e-01 6.977929e-01 9.720253e-01 6.965789e-01 6.557558e-01 7.739117e-01 6.057268e-01 5.043436e-01 2.382337e-01
<GCONST> 1.306226e+02
<TRANSP> 5
 0.000000e+00 1.000000e+00 0.000000e+00 0.000000e+00 0.000000e+00
 0.000000e+00 5.842684e-01 4.157315e-01 0.000000e+00 0.000000e+00
 0.000000e+00 0.000000e+00 6.767150e-01 3.232850e-01 0.000000e+00
 0.000000e+00 0.000000e+00 0.000000e+00 8.517964e-01 1.482036e-01
 0.000000e+00 0.000000e+00 0.000000e+00 0.000000e+00 0.000000e+00
<ENDHMM>
~h "w"
<BEGINHMM>
<NUMSTATES> 5
<STATE> 2
<MEAN> 39
 -5.155282e+00 -5.593847e+00 -6.018099e+00 -1.404703e+01 2.578609e-01 -6.839565e+00 -1.304433e+01 -1.042052e+01 -9.528718e+00 -4.050627e+00 -5.740630e+00 -2.836425e+00 4.699816e+01 5.975170e-01 -1.539174e+00 3.309985e-01 -4.383165e-01 7.993929e-02 2.728648e-01 -7.662280e-01 3.606357e-01 -3.381787e-01 -2.075246e-01 -5.799080e-01 -1.836437e-01 1.230982e+00 -1.088085e-01 8.198024e-02 -1.237797e-01 4.009126e-01 -2.596164e-01 -1.177946e-02 2.631243e-01 -5.090013e-03 1.437774e-01 -1.029097e-01 -1.807285e-01 -1.046704e-01 -1.643365e-01
<VARIANCE> 39
 1.134376e+02 1.030249e+02 4.200439e+01 1.163268e+02 8.022376e+01 1.227988e+02 5.813188e+01 7.739050e+01 4.748357e+01 7.867017e+01 5.115062e+01 3.571608e+01 1.345430e+02 6.660424e+00 4.925310e+00 2.574726e+00 8.767613e+00 7.212569e+00 5.066503e+00 7.612009e+00 8.115234e+00 4.454195e+00 6.088938e+00 5.531944e+00 2.541905e+00 9.170780e+00 9.935364e-01 9.652855e-01 3.599870e-01 1.635056e+00 1.507907e+00 1.075722e+00 1.389230e+00 1.674251e+00 6.972087e-01 1.259671e+00 9.555638e-01 5.024197e-01 8.530781e-01
<GCONST> 1.500051e+02
<STATE> 3
<MEAN> 39
 -1.932246e+00 -1.390100e+01 -8.609561e+00 -7.600156e+00 -1.606332e+00 -1.183365e+01 -1.439416e+01 -4.256728e+00 -1.343694e+01 -8.790264e+00 -3.748219e+00 -5.989424e+00 5.118870e+01 -2.023861e-02 -8.444279e-03 -2.865355e-02 5.538404e-01 -4.823429e-01 2.450459e-01 4.063938e-01 4.143013e-02 2.298830e-01 -2.336030e-01 -5.197698e-01 -4.196835e-02 -5.570070e-01 6.957430e-02 2.525012e-01 -4.792435e-03 -2.958731e-02 -1.586819e-01 4.332200e-03 1.581741e-02 -2.344281e-01 1.641293e-01 2.044113e-01 9.985320e-02 3.998897e-02 -5.194432e-02
<VARIANCE> 39
 8.091150e+01 1.611459e+02 5.810477e+01 7.876380e+01 5.625727e+01 8.835120e+01 5.787994e+01 1.201770e+02 6.025093e+01 8.273982e+01 7.092793e+01 2.689403e+01 9.985878e+01 1.054899e+00 1.940663e+00 2.064716e+00 2.185822e+00 2.677476e+00 3.263057e+00 2.606104e+00 4.619864e+00 2.444488e+00 3.389712e+00 3.853717e+00 1.846710e+00 1.884002e+00 2.132588e-01 3.606561e-01 2.776515e-01 2.651650e-01 4.493421e-01 3.980918e-01 4.879380e-01 5.977727e-01 5.361090e-01 4.843375e-01 7.219044e-01 3.097797e-01 2.176099e-01
<GCONST> 1.267032e+02
<STATE> 4
<MEAN> 39
 -1.056730e+01 -5.843858e+00 -5.957901e+00 -6.024684e+00 -2.251144e+00 -7.766868e+00 -6.557054e+00 -6.770442e+00 -4.902510e+00 -8.367723e+00 -7.113544e+00 -2.929711e+00 3.827122e+01 9.450644e-02 -1.129438e-01 1.939942e-01 4.468511e-01 -3.232229e-01 7.489344e-01 2.385038e-01 5.118901e-02 3.165879e-01 1.831622e-01 -1.536592e-02 2.629445e-03 -6.927653e-01 2.312149e-01 1.035238e-01 2.110364e-02 -1.509622e-01 -6.580234e-02 -1.793042e-01 -3.950407e-01 -2.635527e-01 -2.085893e-01 2.307911e-02 3.089970e-02 -2.214456e-02 2.858686e-01
<VARIANCE> 39
 4.891612e+01 9.106696e+01 2.943596e+01 4.963304e+01 3.991622e+01 6.506802e+01 4.391542e+01 9.125563e+01 6.996712e+01 4.546027e+01 3.579240e+01 2.412635e+01 1.087743e+02 1.147589e+00 2.473462e+00 1.948398e+00 1.965052e+00 3.157209e+00 4.955858e+00 2.938360e+00 4.374193e+00 3.337922e+00 2.979399e+00 2.738502e+00 1.857651e+00 1.559041e+00 3.456978e-01 3.771723e-01 3.511328e-01 3.836625e-01 7.138466e-01 9.726569e-01 6.148103e-01 8.492596e-01 6.930073e-01 5.069544e-01 6.655648e-01 3.652846e-01 3.852681e-01
<GCONST> 1.266261e+02
<TRANSP> 5
 0.000000e+00 1.000000e+00 0.000000e+00 0.000000e+00 0.000000e+00
 0.000000e+00 5.258844e-01 4.741155e-01 0.000000e+00 0.000000e+00
 0.000000e+00 0.000000e+00 4.933713e-01 5.066288e-01 0.000000e+00
 0.000000e+00 0.000000e+00 0.000000e+00 6.155402e-01 3.844598e-01
 0.000000e+00 0.000000e+00 0.000000e+00 0.000000e+00 0.000000e+00
<ENDHMM>
~h "y"
<BEGINHMM>
<NUMSTATES> 5
<STATE> 2
<MEAN> 39
 -7.494959e-01 3.510016e+00 6.483582e+00 -1.189533e+01 -7.429172e+00 -2.255127e+00 -2.367810e+01 -1.996180e+01 -1.362312e+01 -4.960247e+00 -9.839887e-01 -3.488513e+00 4.408652e+01 -4.748026e-01 -2.772003e-01 2.694630e+00 -1.546612e+00 -1.980849e+00 2.153128e-01 -4.580062e-01 -1.567141e+00 5.244333e-01 7.945610e-01 -5.435618e-01 7.039056e-01 7.805750e-01 -9.194326e-03 -4.838866e-02 -1.125836e-02 1.641395e-01 -2.339779e-01 -5.442274e-01 3.442699e-01 1.975372e-01 -9.392211e-02 8.304294e-02 1.680499e-01 -1.273420e-02 2.180908e-01
<VARIANCE> 39
 7.979204e+01 3.399706e+01 1.270226e+02 7.211224e+01 3.008729e+01 7.746916e+01 3.783432e+01 2.472249e+01 1.245554e+01 2.521422e+01 3.040986e+01 3.670650e+01 4.519005e+00 5.784931e+00 2.804362e+00 3.284505e+00 1.771242e+00 1.270352e+01 8.943463e+00 1.997251e+00 6.354682e+00 9.111445e+00 2.425364e+00 2.737117e+00 1.019929e+00 4.380969e-01 5.417089e-01 6.293658e-01 6.503994e-01 5.828297e-01 1.089771e+00 1.790923e+00 6.162409e-01 9.009581e-01 1.001121e+00 8.802279e-01 6.528200e-01 3.008269e-01 4.481559e-02
<GCONST> 1.258688e+02
<STATE> 3
<MEAN> 39
 -2.050127e+00 -1.786687e+00 1.979086e+01 -1.300549e+01 -2.187068e+01 -1.113568e+01 -1.491776e+01 -1.748182e+01 -1.993925e+01 -6.281404e+00 -2.191491e-01 -1.008753e+00 4.814440e+01 3.008385e-01 -4.936532e-01 -1.549828e-02 7.348320e-01 2.460014e-01 -2.322769e+00 8.944118e-01 1.641162e+00 -6.319126e-01 -1.228868e+00 2.950698e-01 2.488978e-01 5.699426e-01 -3.465199e-01 1.849173e-01 -7.066641e-01 1.929860e-02 1.018487e+00 1.918623e-01 -2.361028e-01 4.650487e-01 6.320263e-01 -8.340523e-02 -2.273511e-01 -6.440406e-02 -1.265491e-01
<VARIANCE> 39
 2.065075e+01 2.930795e+01 1.472789e+02 3.745784e+01 1.282960e+02 4.100826e+01 6.193688e+01 7.851261e+01 5.480945e+01 3.446795e+01 3.175106e+01 1.609544e+01 9.829064e+00 6.128268e+00 5.521702e+00 4.215938e+00 3.707929e+00 9.051158e+00 5.617568e+00 7.087594e+00 6.386172e+00 6.932192e+00 1.759715e+00 1.937020e+00 5.948045e-01 7.556365e-01 2.814682e-01 4.903969e-01 8.781003e-01 2.741190e-01 1.425798e+00 2.848038e-01 1.208163e+00 1.979717e+00 8.695565e-01 7.539080e-01 4.031565e-01 2.222358e-01 7.488976e-02
<GCONST> 1.273365e+02
<STATE> 4
<MEAN> 39
 -1.341999e+01 1.164391e+01 -9.991485e-02 -8.264309e+00 -1.684505e+00 -1.720059e+01 -8.804170e+00 -1.834723e+01 -9.899832e+00 -9.638492e+00 -1.901343e+00 -4.660567e+00 4.723038e+01 -3.489630e-01 1.200453e-01 4.765204e-01 -7.015305e-01 -2.245053e-01 4.179600e-01 -3.919309e-01 -2.773653e-01 1.100800e+00 -2.562703e-02 1.255736e-01 -4.660113e-01 -1.705579e-02 2.287894e-01 -4.190597e-01 4.778473e-01 -1.528539e-01 -3.401449e-01 4.771115e-01 -2.181929e-01 -5.502966e-02 -8.490201e-02 -5.915646e-02 -2.460088e-02 -3.404802e-02 -5.816289e-02
<VARIANCE> 39
 1.463167e+02 8.138823e+01 5.850554e+01 3.736494e+01 1.264825e+02 4.620940e+01 9.499537e+01 6.594428e+01 5.896637e+01 1.998744e+01 3.809291e+01 2.502619e+01 1.717151e+01 8.477598e+00 6.164337e+00 9.177142e+00 4.372215e+00 1.770225e+01 6.484519e+00 5.144501e+00 5.299649e+00 3.418615e+00 3.156416e+00 3.812562e+00 1.865875e+00 1.556634e+00 1.054009e+00 1.011707e+00 6.060497e-01 5.126116e-01 2.436413e+00 1.275071e+00 6.640020e-01 1.279418e+00 4.284379e-01 5.849233e-01 8.457215e-01 5.049175e-01 4.085028e-01
<GCONST> 1.401590e+02
<TRANSP> 5
 0.000000e+00 1.000000e+00 0.000000e+00 0.000000e+00 0.000000e+00
 0.000000e+00 4.388274e-01 5.611726e-01 0.000000e+00 0.000000e+00
 0.000000e+00 0.000000e+00 6.776354e-01 3.223646e-01 0.000000e+00
 0.000000e+00 0.000000e+00 0.000000e+00 8.139646e-01 1.860354e-01
 0.000000e+00 0.000000e+00 0.000000e+00 0.000000e+00 0.000000e+00
<ENDHMM>
~h "z"
<BEGINHMM>
<NUMSTATES> 5
<STATE> 2
<MEAN> 39
 -8.151164e+00 3.331704e+00 -3.293314e+00 -1.101936e+01 -9.329994e+00 -1.522838e+01 -9.549265e+00 -1.486930e+01 -7.180661e+00 -1.181659e+01 -9.232159e+00 -6.995502e+00 5.276369e+01 -4.400270e+00 5.618468e+00 -3.780541e+00 2.358390e+00 6.828132e-02 -1.345881e+00 2.807666e+00 -4.571143e-01 2.162591e+00 -1.149353e+00 1.508362e+00 -1.083701e+00 2.804043e-02 -4.478506e-01 7.917490e-04 -3.215697e-01 2.573024e-01 3.563860e-01 4.679833e-01 -9.326947e-02 5.131511e-01 -9.120497e-02 6.849058e-01 7.861412e-02 2.726350e-01 2.584447e-02
<VARIANCE> 39
 7.117380e+01 1.133540e+02 1.300328e+02 8.661018e+01 7.394386e+01 8.011192e+01 8.021909e+01 6.118487e+01 7.078107e+01 5.370129e+01 5.919155e+01 5.124714e+01 3.704378e+01 3.001122e+00 8.082113e+00 6.966328e+00 1.076824e+01 9.178255e+00 5.853758e+00 6.359159e+00 4.707887e+00 4.139514e+00 5.193436e+00 4.254227e+00 3.953844e+00 8.871795e-01 1.190927e+00 2.000884e+00 1.341423e+00 1.384359e+00 9.734952e-01 1.251367e+00 1.396226e+00 8.728071e-01 9.920357e-01 8.790923e-01 9.374110e-01 7.427526e-01 1.779945e-01
<GCONST> 1.473778e+02
<STATE> 3
<MEAN> 39
 -2.189212e+01 1.628663e+01 -1.486919e+01 -9.633224e-01 -7.410991e+00 -1.378582e+01 -4.273733e+00 -1.264623e+01 -4.542832e+00 -9.605782e+00 -6.288739e+00 -8.217082e+00 5.082569e+01 -1.015503e+00 2.166613e-01 -4.333588e-01 9.747816e-01 5.924950e-01 5.402431e-01 -6.581257e-02 2.658071e-01 -1.071637e-01 4.835916e-01 3.588805e-01 5.164619e-01 -8.410518e-01 7.571763e-01 -9.546051e-01 6.904107e-01 -5.284314e-01 -9.080710e-02 4.970067e-02 -3.619337e-01 -6.131970e-02 -1.919373e-01 2.557041e-03 -8.595613e-02 2.707355e-01 -1.080326e-01
<VARIANCE> 39
 2.461239e+01 2.378110e+01 6.028518e+01 4.542968e+01 6.607108e+01 5.231845e+01 4.743325e+01 4.933424e+01 4.512762e+01 4.845892e+01 5.579423e+01 3.009866e+01 2.349816e+01 3.228127e+00 4.109193e+00 4.555707e+00 3.629811e+00 4.913891e+00 4.613664e+00 4.136773e+00 4.714846e+00 3.087664e+00 3.787129e+00 4.216088e+00 3.110268e+00 1.059141e+00 5.309440e-01 8.248491e-01 6.900315e-01 4.366916e-01 1.114234e+00 8.443059e-01 1.024770e+00 8.592544e-01 7.855192e-01 7.205119e-01 8.978758e-01 7.079917e-01 1.850524e-01
<GCONST> 1.317936e+02
<STATE> 4
<MEAN> 39
 -2.272122e+01 7.832772e+00 -1.275500e+01 3.659643e-01 -4.654013e+00 -6.726004e+00 -2.068107e+00 -1.004176e+01 -1.317968e+00 -7.606162e+00 -1.636968e+00 -3.564791e+00 4.109497e+01 6.703099e-01 -1.271643e+00 5.007767e-01 -4.603219e-01 -1.198917e-01 4.106538e-01 -1.115715e-01 2.603165e-01 -6.077638e-02 7.406935e-02 1.482852e-01 1.985378e-01 -9.550877e-01 1.864215e-01 -6.219391e-02 9.611434e-02 -3.667844e-02 -7.432379e-02 4.146238e-02 -1.059776e-01 -6.776028e-02 -8.699954e-02 -8.674283e-02 -1.125477e-01 -9.057564e-02 4.013041e-02
<VARIANCE> 39
 3.339756e+01 5.819152e+01 2.716102e+01 5.729339e+01 6.088158e+01 6.235970e+01 6.774784e+01 4.407073e+01 4.213146e+01 3.578014e+01 3.686399e+01 2.382210e+01 5.389886e+01 2.438098e+00 2.861089e+00 2.641923e+00 3.252280e+00 4.015045e+00 3.932073e+00 4.749867e+00 4.396471e+00 3.379427e+00 3.628065e+00 3.379318e+00 2.817998e+00 1.528703e+00 3.641829e-01 4.023339e-01 4.158910e-01 6.316627e-01 7.441493e-01 7.074622e-01 8.561227e-01 9.380713e-01 6.256675e-01 7.480474e-01 6.092383e-01 5.360322e-01 2.508438e-01
<GCONST> 1.286225e+02
<TRANSP> 5
 0.000000e+00 1.000000e+00 0.000000e+00 0.000000e+00 0.000000e+00
 0.000000e+00 6.777703e-01 3.222297e-01 0.000000e+00 0.000000e+00
 0.000000e+00 0.000000e+00 8.156900e-01 1.843101e-01 0.000000e+00
 0.000000e+00 0.000000e+00 0.000000e+00 8.509398e-01 1.490603e-01
 0.000000e+00 0.000000e+00 0.000000e+00 0.000000e+00 0.000000e+00
<ENDHMM>
~h "aa"
<BEGINHMM>
<NUMSTATES> 5
<STATE> 2
<MEAN> 39
 -7.753842e+00 -2.821785e+00 -6.171360e+00 -6.174913e+00 -8.362009e+00 -7.071775e+00 -6.083060e+00 -6.512288e+00 -6.010724e+00 -1.016447e+01 -9.382763e+00 -8.523104e+00 3.971335e+01 -5.569945e-01 1.096488e-01 -6.143675e-01 3.916786e-01 -1.728093e-01 7.145520e-01 -1.180678e-01 -3.358977e-01 -4.310291e-01 1.960161e-01 -9.230012e-02 -3.200082e-01 -1.599005e+00 3.701517e-02 -1.990575e-01 1.952866e-01 -7.403029e-02 2.452513e-01 4.724021e-02 -9.695500e-02 1.102236e-01 5.840506e-02 6.824294e-02 -2.101303e-01 6.509948e-02 2.068603e-01
<VARIANCE> 39
 5.062910e+01 5.288250e+01 2.775042e+01 1.614974e+01 4.385134e+01 3.457955e+01 2.667599e+01 4.069561e+01 5.142847e+01 3.575172e+01 4.006948e+01 1.576032e+01 7.187505e+01 1.305293e+00 1.844970e+00 1.403346e+00 2.438630e+00 3.336931e+00 1.663872e+00 1.997900e+00 2.863292e+00 4.237394e+00 3.045264e+00 2.650472e+00 8.736642e-01 6.926116e-01 1.998539e-01 2.054807e-01 1.690941e-01 4.685864e-01 4.882560e-01 1.997520e-01 4.610671e-01 5.217189e-01 8.788585e-01 6.532109e-01 4.197810e-01 2.028165e-01 5.649294e-02
<GCONST> 1.114537e+02
<STATE> 3
<MEAN> 39
 -1.167815e+01 -3.362950e+00 -7.588352e+00 -3.912800e+00 -6.586453e+00 -2.556163e+00 -4.582861e+00 -6.668829e+00 -6.606187e+00 -7.004539e+00 -8.603823e+00 -7.864364e+00 3.625616e+01 -2.989955e-01 -5.089490e-01 2.360675e-02 5.329806e-01 2.228852e-01 5.859851e-01 4.059415e-01 8.575752e-01 8.733207e-01 4.548852e-01 -1.310676e-01 4.702622e-01 -7.361817e-01 -6.934452e-02 2.832958e-02 1.007361e-01 1.855387e-02 2.299465e-01 -2.457647e-01 -1.298431e-01 7.562830e-02 2.293237e-01 -8.230817e-02 3.879771e-01 3.272288e-01 2.456150e-01
<VARIANCE> 39
 6.415913e+01 6.872509e+01 3.590630e+01 2.066584e+01 3.009126e+01 4.057706e+01 3.593937e+01 2.700163e+01 2.907705e+01 3.826311e+01 4.022898e+01 2.190146e+01 9.944442e+01 6.900496e-01 1.884804e+00 9.202665e-01 1.606198e+00 1.895818e+00 3.347690e+00 2.155445e+00 2.535134e+00 2.469504e+00 3.599220e+00 2.886473e+00 1.635024e+00 5.644786e-01 1.459849e-01 1.366677e-01 2.620047e-01 2.562400e-01 5.188873e-01 4.501885e-01 4.204968e-01 3.139252e-01 4.817798e-01 5.500257e-01 4.929617e-01 2.078947e-01 1.467975e-01
<GCONST> 1.108034e+02
<STATE> 4
<MEAN> 39
 -1.202879e+01 -2.307634e+00 -3.777268e+00 2.404243e+00 -4.972297e-01 1.843231e+00 -7.965166e-01 -2.215872e+00 -1.842130e+00 -5.833710e+00 -2.498612e+00 -6.319440e-01 3.494786e+01 -1.315830e-01 -1.808657e-02 1.286057e-02 1.986641e-01 2.369654e-01 6.998446e-03 1.416259e-01 5.701382e-02 1.338242e-01 -8.809660e-02 1.123712e-01 2.446219e-01 -2.198060e-01 -5.879273e-02 2.015945e-03 2.371272e-02 -1.423983e-01 -4.976192e-03 -5.531989e-02 -4.318441e-02 -1.111490e-01 -1.111199e-01 3.445286e-03 -5.171220e-02 -4.333042e-02 1.004617e-01
<VARIANCE> 39
 5.401032e+01 5.343353e+01 6.993338e+01 4.079699e+01 4.725157e+01 4.530742e+01 4.027211e+01 4.502279e+01 3.991996e+01 2.264335e+01 3.903378e+01 2.263084e+01 3.487902e+01 1.321217e+00 1.836123e+00 2.482196e+00 2.977284e+00 2.474101e+00 3.215543e+00 2.527673e+00 5.215720e+00 3.833449e+00 2.285676e+00 3.034194e+00 1.974786e+00 1.349500e+00 2.444540e-01 2.707254e-01 5.526813e-01 5.485876e-01 4.644868e-01 6.205874e-01 4.582329e-01 1.095825e+00 7.803115e-01 4.049083e-01 6.754509e-01 3.259815e-01 2.890424e-01
<GCONST> 1.219667e+02
<TRANSP> 5
 0.000000e+00 1.000000e+00 0.000000e+00 0.000000e+00 0.000000e+00
 0.000000e+00 6.615287e-01 3.384712e-01 0.000000e+00 0.000000e+00
 0.000000e+00 0.000000e+00 5.422360e-01 4.577641e-01 0.000000e+00
 0.000000e+00 0.000000e+00 0.000000e+00 8.144423e-01 1.855577e-01
 0.000000e+00 0.000000e+00 0.000000e+00 0.000000e+00 0.000000e+00
<ENDHMM>
~h "ae"
<BEGINHMM>
<NUMSTATES> 5
<STATE> 2
<MEAN> 39
 -1.170152e+01 -8.057532e+00 -3.128958e+00 -5.946908e+00 -5.047502e+00 -4.933923e+00 -8.426218e+00 -7.080606e+00 -6.064064e+00 -8.408867e+00 -4.017476e+00 -2.636542e+00 4.163082e+01 1.247024e+00 -2.656308e+00 8.717526e-01 -1.738188e+00 -4.537983e-01 -3.871673e-01 -3.451238e-01 8.114391e-01 -1.052272e+00 -1.789853e-01 -8.325409e-01 9.739336e-01 3.573784e+00 4.289106e-01 -5.658734e-01 1.764905e-01 -6.005460e-01 -1.071375e-01 -2.226173e-01 -1.712477e-02 1.737266e-01 -3.488228e-01 7.431109e-02 -6.979783e-01 -3.995445e-03 1.055544e+00
<VARIANCE> 39
 6.875533e+01 9.388631e+01 3.992358e+01 5.184943e+01 5.713829e+01 8.022176e+01 8.719590e+01 6.580317e+01 6.372602e+01 6.458856e+01 4.675275e+01 3.918740e+01 1.903875e+02 6.966681e+00 7.399149e+00 5.461611e+00 7.122526e+00 5.382360e+00 7.003546e+00 7.221538e+00 8.179444e+00 4.995140e+00 6.084080e+00 7.808281e+00 5.572123e+00 1.294846e+01 8.204476e-01 7.263058e-01 6.264692e-01 7.410208e-01 9.761211e-01 1.380151e+00 1.239796e+00 1.162938e+00 7.911839e-01 9.244553e-01 1.022126e+00 7.836252e-01 1.636306e+00
<GCONST> 1.506516e+02
<STATE> 3
<MEAN> 39
 -5.903387e+00 -2.077706e+01 2.694102e+00 -1.742868e+01 -6.222627e+00 -6.882459e+00 -9.838370e+00 -3.573886e+00 -1.180748e+01 -6.072806e+00 -1.417287e+01 -6.698775e-02 6.158412e+01 3.486172e-01 -1.411868e+00 2.617458e-01 -9.167737e-01 6.091188e-01 3.830344e-01 5.846084e-01 1.303179e+00 -8.714510e-01 4.289162e-01 -1.327908e+00 1.801272e-01 2.013386e+00 -1.997642e-01 1.029565e+00 -2.243076e-01 7.600302e-01 1.279146e-01 -7.285114e-02 -1.141864e-02 -3.700951e-01 1.352480e-01 -6.883290e-02 5.029671e-01 -2.771939e-01 -1.063591e+00
<VARIANCE> 39
 2.568922e+01 3.666132e+01 7.026819e+01 3.961382e+01 5.561512e+01 7.241155e+01 6.033121e+01 5.415433e+01 4.456231e+01 8.179751e+01 4.298861e+01 4.666480e+01 2.039913e+01 2.771680e+00 6.735154e+00 3.449610e+00 5.257782e+00 4.129112e+00 7.694671e+00 5.414008e+00 5.671478e+00 3.906686e+00 6.228024e+00 5.438328e+00 3.485475e+00 7.504851e+00 5.140945e-01 8.020976e-01 5.818514e-01 6.950472e-01 7.356033e-01 1.348023e+00 1.086275e+00 1.136967e+00 5.898100e-01 9.635342e-01 6.148710e-01 7.793832e-01 8.977404e-01
<GCONST> 1.395297e+02
<STATE> 4
<MEAN> 39
 -2.712985e+00 -2.216311e+01 -1.181725e+00 -1.290864e+01 -3.789114e+00 -4.879978e+00 -9.614915e+00 -9.848720e-01 -1.189783e+01 -9.485987e+00 -1.433459e+01 -2.938702e+00 6.106574e+01 5.223044e-01 1.356685e+00 -6.303881e-02 1.299037e-01 -6.889836e-01 -5.622430e-01 9.857195e-02 -1.456546e-01 4.105384e-01 -7.302971e-01 -1.661070e-01 -5.886868e-01 -1.053030e+00 2.390967e-02 3.418637e-01 -1.495045e-01 7.581815e-02 -1.442911e-01 -2.038582e-01 -6.693244e-03 -1.799865e-01 1.651753e-01 -1.101202e-01 9.524640e-02 -7.404160e-02 -3.353117e-01
<VARIANCE> 39
 1.993040e+01 5.183517e+01 4.886697e+01 5.636752e+01 4.913799e+01 5.534850e+01 3.905468e+01 4.091531e+01 4.469053e+01 7.364263e+01 7.376855e+01 4.027687e+01 2.815607e+01 1.065061e+00 2.511109e+00 2.019763e+00 2.819232e+00 2.635921e+00 3.169901e+00 2.868392e+00 2.571979e+00 2.961723e+00 3.952493e+00 2.823973e+00 2.707664e+00 2.039459e+00 2.227528e-01 2.976212e-01 3.519390e-01 4.583178e-01 4.372918e-01 4.837428e-01 5.204433e-01 5.604132e-01 4.810195e-01 7.462250e-01 4.935174e-01 4.588572e-01 1.978336e-01
<GCONST> 1.218546e+02
<TRANSP> 5
 0.000000e+00 1.000000e+00 0.000000e+00 0.000000e+00 0.000000e+00
 0.000000e+00 6.065072e-01 3.934928e-01 0.000000e+00 0.000000e+00
 0.000000e+00 0.000000e+00 6.809589e-01 3.190411e-01 0.000000e+00
 0.000000e+00 0.000000e+00 0.000000e+00 8.246267e-01 1.753732e-01
 0.000000e+00 0.000000e+00 0.000000e+00 0.000000e+00 0.000000e+00
<ENDHMM>
~h "ah"
<BEGINHMM>
<NUMSTATES> 5
<STATE> 2
<MEAN> 39
 -7.801767e+00 -5.446802e+00 -7.080870e+00 -8.615358e+00 -6.243160e+00 -6.341567e+00 -9.309491e+00 -5.986426e+00 -3.643264e+00 -7.292376e+00 -7.570553e+00 -3.581163e+00 4.605648e+01 1.445116e+00 -3.140744e+00 -3.780496e-01 -1.445149e+00 8.805139e-01 7.217658e-01 -8.507892e-01 5.488164e-01 -1.508936e-01 -1.675183e-02 -1.304677e+00 1.885296e-01 2.629068e+00 1.095466e-01 -6.061670e-01 6.899616e-02 -5.743838e-02 4.087340e-01 1.270305e-01 -7.010959e-02 1.834194e-02 -2.520771e-01 5.472296e-02 -4.018326e-01 -1.242189e-01 6.221312e-01
<VARIANCE> 39
 1.009578e+02 1.114172e+02 7.694698e+01 9.255557e+01 5.719370e+01 6.676447e+01 8.536614e+01 1.068158e+02 8.759131e+01 5.874210e+01 6.407001e+01 4.391623e+01 1.162015e+02 9.347607e+00 1.168810e+01 5.649743e+00 8.233780e+00 6.732307e+00 9.161954e+00 8.243816e+00 1.045855e+01 7.511990e+00 6.451855e+00 9.089384e+00 4.293662e+00 1.203372e+01 1.213329e+00 1.678411e+00 8.553910e-01 1.474294e+00 1.203078e+00 1.627499e+00 1.583527e+00 1.752375e+00 1.207429e+00 1.002582e+00 1.250098e+00 6.765136e-01 1.622958e+00
<GCONST> 1.587740e+02
<STATE> 3
<MEAN> 39
 -2.038916e+00 -2.382058e+01 -5.628763e+00 -1.280031e+01 1.880270e+00 -2.316381e+00 -1.230745e+01 -3.574261e+00 -6.876798e+00 -6.036293e+00 -1.542220e+01 -3.874488e+00 6.146474e+01 3.441491e-01 -5.012950e-01 5.100461e-01 -2.346364e-01 2.703902e-01 -1.716545e-02 -3.079797e-02 2.824549e-01 -4.763227e-01 -5.207303e-01 -7.966797e-01 -3.154657e-01 8.067046e-01 -9.505153e-02 1.126737e+00 -4.744837e-02 2.459898e-01 -6.767810e-01 -4.235478e-01 7.676125e-02 -2.169612e-01 6.720777e-02 -2.812102e-01 3.722954e-01 -1.491620e-01 -8.374151e-01
<VARIANCE> 39
 1.451899e+01 1.761221e+01 4.174314e+01 4.232207e+01 4.366674e+01 8.446060e+01 4.256763e+01 4.318724e+01 6.486484e+01 5.401746e+01 6.154598e+01 3.889161e+01 1.720330e+01 1.878728e+00 6.770211e+00 3.317091e+00 4.459553e+00 5.229040e+00 6.103957e+00 3.763155e+00 4.215117e+00 5.662600e+00 5.010708e+00 4.997680e+00 3.086611e+00 3.802692e+00 4.230148e-01 6.679900e-01 5.662013e-01 7.560716e-01 6.194967e-01 8.157414e-01 6.474045e-01 9.109070e-01 1.147948e+00 9.631774e-01 1.045929e+00 5.416649e-01 4.813285e-01
<GCONST> 1.335747e+02
<STATE> 4
<MEAN> 39
 -1.294609e-01 -1.464078e+01 -5.096233e+00 -1.239734e+01 -4.234953e+00 -6.484091e+00 -1.220305e+01 -6.134609e+00 -8.525178e+00 -1.245430e+01 -1.746191e+01 -7.747942e+00 5.595351e+01 -5.113550e-02 2.450736e+00 -3.401242e-01 6.324594e-01 -1.377825e+00 -1.052467e+00 2.547206e-01 -5.979890e-01 3.503941e-02 -1.300928e+00 4.812114e-01 -8.581524e-01 -1.640817e+00 -4.338929e-01 1.300041e-01 -2.167128e-01 1.670653e-01 3.021205e-01 1.176668e-01 1.699403e-01 4.020363e-03 1.198765e-02 2.396169e-01 3.192101e-01 7.298749e-02 1.064335e-02
<VARIANCE> 39
 2.622872e+01 5.240550e+01 4.504518e+01 4.665426e+01 3.795562e+01 8.773489e+01 5.626728e+01 4.486163e+01 4.677280e+01 6.331368e+01 3.838799e+01 4.866322e+01 2.662494e+01 3.652616e+00 5.204640e+00 4.324049e+00 3.579886e+00 3.607715e+00 3.926408e+00 3.082576e+00 2.777598e+00 4.448989e+00 3.981550e+00 3.714982e+00 3.929126e+00 1.432853e+00 5.884649e-01 9.625685e-01 6.332441e-01 7.674815e-01 7.244193e-01 7.387918e-01 6.693662e-01 5.985042e-01 7.380552e-01 8.822653e-01 6.836290e-01 8.495758e-01 3.084698e-01
<GCONST> 1.327250e+02
<TRANSP> 5
 0.000000e+00 1.000000e+00 0.000000e+00 0.000000e+00 0.000000e+00
 0.000000e+00 7.499479e-01 2.500522e-01 0.000000e+00 0.000000e+00
 0.000000e+00 0.000000e+00 8.138566e-01 1.861434e-01 0.000000e+00
 0.000000e+00 0.000000e+00 0.000000e+00 7.135846e-01 2.864154e-01
 0.000000e+00 0.000000e+00 0.000000e+00 0.000000e+00 0.000000e+00
<ENDHMM>
~h "ao"
<BEGINHMM>
<NUMSTATES> 5
<STATE> 2
<MEAN> 39
 -7.190372e+00 -6.622098e+00 -4.468053e+00 -9.739716e+00 -5.564360e+00 -4.416245e+00 -1.444672e+01 -1.194294e+01 -5.691785e+00 -7.431142e+00 -3.696721e+00 -4.005267e+00 4.782738e+01 2.193423e+00 -1.429531e+00 -9.144314e-01 -2.006232e+00 -9.834082e-02 7.151186e-01 -4.077915e-01 3.214138e-01 -5.186445e-01 7.873558e-02 2.888723e-01 3.958004e-01 2.580969e+00 2.745805e-01 -3.154858e-01 -2.870519e-01 -2.326487e-01 3.654704e-01 -1.479339e-01 -8.071897e-02 4.238098e-01 -4.483923e-02 3.658276e-01 -3.355952e-01 -1.368432e-01 2.626504e-01
<VARIANCE> 39
 9.249274e+01 8.247174e+01 1.439272e+02 8.433920e+01 9.573065e+01 9.157050e+01 8.128670e+01 5.410251e+01 8.333769e+01 5.133247e+01 4.816335e+01 4.105371e+01 9.739924e+01 1.505591e+01 8.558110e+00 8.033103e+00 9.558937e+00 6.510734e+00 1.547859e+01 5.285423e+00 5.772467e+00 6.191521e+00 5.862348e+00 9.277056e+00 6.252767e+00 7.692037e+00 2.294110e+00 1.365064e+00 1.399753e+00 1.571111e+00 1.274580e+00 2.796196e+00 7.506290e-01 9.121271e-01 1.306434e+00 1.044236e+00 1.667932e+00 1.371240e+00 1.783851e+00
<GCONST> 1.594795e+02
<STATE> 3
<MEAN> 39
 9.189667e-01 -1.595216e+01 -9.401644e+00 -1.796674e+01 -4.171417e-01 -2.334632e+00 -1.655913e+01 -7.009921e+00 -6.679600e+00 4.045365e-01 -8.761172e+00 -5.763917e+00 5.850974e+01 8.876195e-01 -1.322361e+00 -1.845943e+00 -7.652115e-01 1.364933e+00 1.861823e+00 7.502057e-01 1.281204e+00 -4.976987e-01 1.686758e+00 4.835034e-01 -7.332909e-01 6.378877e-01 -4.881324e-01 4.340228e-01 1.387239e-01 5.933172e-01 -3.028082e-01 -3.316816e-02 2.439515e-01 -1.403806e-01 -2.300995e-01 -4.766864e-01 4.784140e-01 3.262410e-01 -4.450771e-01
<VARIANCE> 39
 2.532209e+01 2.667986e+01 6.062870e+01 8.609984e+01 5.486175e+01 1.531012e+02 4.441442e+01 2.845812e+01 8.238424e+01 1.185583e+02 5.089079e+01 3.074847e+01 1.298698e+01 1.385391e+00 2.831941e+00 5.583757e+00 2.505889e+00 3.465952e+00 7.118599e+00 2.548230e+00 4.058463e+00 4.960406e+00 4.159377e+00 5.221844e+00 3.569569e+00 1.518066e+00 3.915192e-01 3.203740e-01 5.398788e-01 5.358410e-01 5.902659e-01 1.730088e+00 6.077601e-01 3.767012e-01 1.215489e+00 8.811867e-01 1.331405e+00 6.721780e-01 2.073762e-01
<GCONST> 1.315690e+02
<STATE> 4
<MEAN> 39
 4.825959e+00 -1.654819e+01 -1.547727e+01 -1.178418e+01 1.234072e+00 -7.738278e+00 -1.379426e+01 -5.313411e-01 -9.632376e+00 -5.120996e+00 -4.743143e+00 -4.943944e+00 5.536251e+01 -1.985582e-03 1.591895e-01 3.506422e-01 4.275253e-01 -3.178104e-01 -8.604555e-01 8.469148e-02 2.096591e-01 2.680325e-01 -5.389581e-01 -9.599558e-02 9.402568e-03 -3.423745e-01 -6.960832e-02 8.477668e-02 1.535206e-01 -7.567156e-03 -1.149252e-01 -3.291320e-02 4.961138e-03 -1.274543e-01 5.567676e-02 -3.093092e-02 -7.735290e-02 -4.510534e-03 -5.290178e-02
<VARIANCE> 39
 1.824377e+01 3.594298e+01 5.616040e+01 1.385790e+02 6.431696e+01 2.544512e+02 4.670410e+01 6.260362e+01 7.618120e+01 6.448862e+01 4.089809e+01 3.748387e+01 2.704175e+01 6.792406e-01 1.694989e+00 2.970366e+00 2.203227e+00 3.957701e+00 4.725421e+00 3.382785e+00 2.302192e+00 4.198354e+00 2.970049e+00 2.689676e+00 2.459870e+00 5.082922e-01 8.039916e-02 2.376292e-01 2.475844e-01 2.849155e-01 4.738702e-01 6.307963e-01 5.427806e-01 3.855488e-01 6.813165e-01 4.338029e-01 4.420141e-01 4.316847e-01 6.652245e-02
<GCONST> 1.197083e+02
<TRANSP> 5
 0.000000e+00 1.000000e+00 0.000000e+00 0.000000e+00 0.000000e+00
 0.000000e+00 7.479520e-01 2.520480e-01 0.000000e+00 0.000000e+00
 0.000000e+00 0.000000e+00 6.628247e-01 3.371753e-01 0.000000e+00
 0.000000e+00 0.000000e+00 0.000000e+00 9.330546e-01 6.694538e-02
 0.000000e+00 0.000000e+00 0.000000e+00 0.000000e+00 0.000000e+00
<ENDHMM>
~h "aw"
<BEGINHMM>
<NUMSTATES> 5
<STATE> 2
<MEAN> 39
 3.509973e-01 -2.287215e+01 -2.303987e+00 -2.189129e+00 -2.391375e+00 -1.076147e+01 -9.339192e+00 1.161347e+00 -1.649080e+01 -1.798020e+01 -8.724762e+00 -9.262326e+00 5.445810e+01 1.336982e-02 1.070052e+00 -2.697046e-01 7.149717e-01 -4.960446e-01 -4.743916e-01 -2.919623e-01 1.646633e-01 2.254351e-02 -1.444876e-01 2.466183e-01 -1.302716e-01 -1.106540e+00 -1.696563e-01 1.139915e-01 6.436203e-02 -1.681524e-01 1.164333e-02 5.981266e-02 1.468242e-01 -1.942704e-01 9.280813e-02 2.268906e-01 6.136195e-02 1.612357e-01 -2.881924e-02
<VARIANCE> 39
 7.348440e+00 1.307847e+02 1.196409e+01 3.302172e+01 1.023220e+02 1.867259e+02 3.403388e+01 4.308429e+01 3.352517e+01 1.927786e+01 2.649475e+01 3.145407e+01 6.029062e+01 7.762159e-01 2.404654e+00 1.318318e+00 2.208175e+00 4.263024e+00 6.652979e+00 2.098005e+00 2.892416e+00 2.745741e+00 2.218282e+00 2.800418e+00 3.635606e+00 8.060503e-01 8.154643e-02 2.798873e-01 2.283305e-01 2.579112e-01 8.537183e-01 9.149060e-01 3.291601e-01 5.814603e-01 3.191524e-01 4.127852e-01 3.540995e-01 7.414220e-01 9.492685e-02
<GCONST> 1.154895e+02
<STATE> 3
<MEAN> 39
 -5.637097e+00 -5.035809e+00 -2.843767e+00 -6.068881e+00 -1.042336e+01 -1.247404e+01 -1.430567e+01 -1.008226e+01 -1.058245e+01 -1.089275e+01 -9.373896e+00 -4.054168e+00 3.897798e+01 -5.925912e-01 -8.241534e-01 -4.163072e-02 2.372018e-01 1.150368e+00 1.010714e+00 8.954615e-01 -4.882195e-01 -1.960844e-01 1.645705e+00 1.362222e+00 1.798080e+00 7.807332e-02 -4.851838e-02 -8.615724e-01 -4.960112e-02 5.585122e-03 2.557850e-01 -3.517321e-01 8.571492e-01 1.678975e-01 2.142233e-01 3.525715e-01 1.137904e-01 1.661764e-02 9.831133e-01
<VARIANCE> 39
 3.816531e+01 6.111831e+01 3.095468e+01 1.810797e+01 5.096362e+01 4.858230e+01 3.897702e+01 4.852685e+01 1.358693e+01 2.699364e+01 1.753979e+01 2.928646e+01 8.655871e+01 2.311482e+00 8.284496e+00 3.448066e+00 2.660308e+00 1.282276e+01 8.200996e+00 5.633816e+00 3.918404e+00 2.137354e+00 2.736189e+00 1.916738e+00 3.887056e+00 4.936678e+00 4.263942e-01 1.523715e+00 4.331895e-01 2.334180e-01 1.111868e+00 1.540385e+00 5.398311e-01 1.207373e+00 1.457553e-01 5.980018e-01 2.540643e-01 4.323893e-01 7.701302e-01
<GCONST> 1.284945e+02
<STATE> 4
<MEAN> 39
 -8.009102e+00 -1.914170e+01 -6.031955e+00 -3.366253e+00 -8.679283e-02 -5.391468e+00 -7.322945e+00 -4.548792e+00 -9.189445e+00 -2.023786e+00 -1.440117e+00 -1.709124e+00 4.474661e+01 4.190239e-01 -6.296754e-01 -2.617584e-01 -1.972842e-01 5.829942e-01 3.944631e-01 -3.313041e-02 4.328057e-01 2.013126e-01 1.272153e-01 4.055849e-02 -5.189395e-01 8.623348e-01 -6.467860e-02 3.867886e-01 -3.781777e-02 -1.455798e-01 -1.650497e-01 -1.073164e-01 -1.147268e-01 -2.224343e-02 1.201900e-01 -1.974518e-01 -1.157634e-01 -2.182774e-01 -2.090368e-01
<VARIANCE> 39
 1.070456e+02 1.229378e+02 2.936322e+01 1.789645e+01 5.018883e+01 1.176433e+02 7.062557e+01 2.399153e+01 4.852591e+01 2.443795e+01 3.392867e+01 5.896103e+01 2.395281e+02 3.667924e+00 1.122412e+01 2.347366e+00 1.682142e+00 3.618152e+00 6.148722e+00 5.221821e+00 3.237458e+00 4.962466e+00 3.843027e+00 3.518022e+00 2.793810e+00 1.178172e+01 6.387144e-01 1.557135e+00 4.919710e-01 3.276371e-01 4.722637e-01 1.080305e+00 8.220443e-01 5.762864e-01 9.185084e-01 6.536765e-01 6.717398e-01 4.714327e-01 1.623460e+00
<GCONST> 1.379978e+02
<TRANSP> 5
 0.000000e+00 1.000000e+00 0.000000e+00 0.000000e+00 0.000000e+00
 0.000000e+00 8.020061e-01 1.979939e-01 0.000000e+00 0.000000e+00
 0.000000e+00 0.000000e+00 5.395987e-01 4.604013e-01 0.000000e+00
 0.000000e+00 0.000000e+00 0.000000e+00 8.722559e-01 1.277441e-01
 0.000000e+00 0.000000e+00 0.000000e+00 0.000000e+00 0.000000e+00
<ENDHMM>
~h "ax"
<BEGINHMM>
<NUMSTATES> 5
<STATE> 2
<MEAN> 39
 -4.209496e+00 -4.904641e+00 -3.837324e+00 -6.650319e+00 -8.412289e+00 -1.017533e+01 -9.852821e+00 -7.870298e+00 -8.155446e+00 -1.031811e+01 -9.916377e+00 -7.282120e+00 4.419631e+01 -2.706485e-01 7.180451e-01 -1.248916e-01 2.384012e-01 -1.058039e-01 -2.515067e-01 -2.493614e-01 -8.092309e-01 1.125544e-01 -2.902708e-01 7.396881e-02 8.780549e-02 -7.808715e-01 -9.132519e-02 -4.004642e-01 5.045566e-02 -3.324204e-01 2.543337e-01 -5.800180e-02 -1.039104e-01 -4.404031e-02 1.059787e-02 3.148928e-01 1.611115e-01 3.463815e-01 5.818578e-01
<VARIANCE> 39
 6.921815e+01 8.924950e+01 6.798186e+01 5.533287e+01 7.402531e+01 6.783958e+01 5.866697e+01 9.108078e+01 8.045882e+01 4.832303e+01 4.537870e+01 4.832051e+01 8.923228e+01 4.248874e+00 4.342074e+00 3.182844e+00 2.583391e+00 4.685170e+00 4.509769e+00 4.455028e+00 4.674508e+00 4.330626e+00 2.756285e+00 3.324235e+00 3.020559e+00 3.102509e+00 7.258983e-01 6.877559e-01 7.164711e-01 7.124841e-01 9.105437e-01 9.425887e-01 9.497321e-01 9.959400e-01 8.678502e-01 6.395359e-01 7.528807e-01 6.413054e-01 5.549147e-01
<GCONST> 1.397393e+02
<STATE> 3
<MEAN> 39
 -6.436577e+00 6.362938e-01 -2.495053e+00 -4.797772e+00 -7.694816e+00 -1.167884e+01 -1.216194e+01 -1.446797e+01 -9.774565e+00 -1.086931e+01 -7.340105e+00 -5.349765e+00 4.172071e+01 -1.031840e-01 -1.333659e+00 2.554589e-01 -1.095713e+00 4.694681e-01 -5.197782e-01 -5.498387e-01 -2.426676e-01 1.206767e-01 6.313537e-01 5.867518e-01 1.106446e+00 1.894995e+00 7.604881e-02 -7.266859e-01 6.109214e-02 -5.985489e-01 1.956868e-01 1.172797e-01 1.285868e-01 4.934749e-01 2.160834e-01 4.969180e-01 -3.559132e-02 3.501384e-01 7.587492e-01
<VARIANCE> 39
 6.783010e+01 6.686707e+01 4.719117e+01 2.917629e+01 4.655886e+01 6.051886e+01 6.422530e+01 7.868230e+01 6.896131e+01 5.396387e+01 3.595717e+01 4.247664e+01 6.371589e+01 9.685349e+00 6.172981e+00 4.517831e+00 4.369142e+00 6.783211e+00 9.561169e+00 9.050837e+00 7.347500e+00 6.027414e+00 5.924385e+00 5.403404e+00 5.319139e+00 5.119935e+00 1.204010e+00 8.560179e-01 7.365746e-01 8.390079e-01 1.304495e+00 1.726807e+00 1.388711e+00 1.159386e+00 1.084614e+00 8.017382e-01 9.109032e-01 9.922166e-01 8.632373e-01
<GCONST> 1.479625e+02
<STATE> 4
<MEAN> 39
 -4.653438e+00 -1.122894e+01 -1.337353e+00 -1.447860e+01 -4.552375e+00 -1.167985e+01 -1.416160e+01 -9.527451e+00 -6.927752e+00 -4.306623e+00 -8.963560e+00 4.507523e-01 5.280588e+01 2.816873e-01 -1.864314e+00 5.654999e-01 -1.465010e+00 4.401324e-01 -8.570392e-02 2.002817e-01 1.159611e+00 1.948430e-01 6.957280e-01 -7.812150e-01 6.863824e-01 2.002621e+00 -6.887027e-02 5.105798e-01 -1.447617e-01 4.317608e-01 -1.122354e-01 1.167292e-01 2.618616e-01 -5.319347e-03 -4.342047e-02 -3.265947e-01 -1.207627e-01 -4.835978e-01 -3.840831e-01
<VARIANCE> 39
 6.304543e+01 7.243111e+01 7.245753e+01 8.253976e+01 7.297775e+01 1.217311e+02 7.404988e+01 8.520872e+01 5.907685e+01 5.820533e+01 6.527941e+01 4.765779e+01 6.668160e+01 5.966815e+00 7.558204e+00 6.322347e+00 8.696538e+00 7.244480e+00 1.020475e+01 7.179354e+00 7.161345e+00 5.243376e+00 6.286152e+00 6.968129e+00 6.025580e+00 5.655739e+00 1.108624e+00 1.254269e+00 9.641627e-01 1.324266e+00 1.415725e+00 1.610971e+00 1.405722e+00 1.386944e+00 9.312962e-01 1.005437e+00 1.216074e+00 9.029624e-01 8.854979e-01
<GCONST> 1.540238e+02
<TRANSP> 5
 0.000000e+00 1.000000e+00 0.000000e+00 0.000000e+00 0.000000e+00
 0.000000e+00 4.442843e-01 5.557156e-01 0.000000e+00 0.000000e+00
 0.000000e+00 0.000000e+00 5.008141e-01 4.991860e-01 0.000000e+00
 0.000000e+00 0.000000e+00 0.000000e+00 6.414827e-01 3.585172e-01
 0.000000e+00 0.000000e+00 0.000000e+00 0.000000e+00 0.000000e+00
<ENDHMM>
~h "ay"
<BEGINHMM>
<NUMSTATES> 5
<STATE> 2
<MEAN> 39
 -9.456547e-01 -2.568803e+01 -7.324830e+00 -1.013522e+01 4.740770e+00 1.569340e+00 -1.523724e+01 -4.818484e+00 -8.480843e+00 -4.342669e+00 -1.196626e+01 -3.306476e+00 6.148907e+01 -5.925734e-01 -1.601828e+00 1.166449e+00 3.215817e-01 6.515578e-01 1.166559e-01 6.579165e-01 1.324105e+00 -4.862971e-01 4.960665e-01 -6.758559e-01 7.204012e-01 9.184781e-01 -4.068165e-01 7.775967e-01 2.335455e-01 -3.079087e-03 -5.105633e-01 -5.954738e-01 1.260199e-01 -1.583897e-01 -2.920216e-02 -3.606294e-01 8.588210e-02 1.863847e-01 -4.003917e-01
<VARIANCE> 39
 1.441512e+01 2.816203e+01 2.476600e+01 4.539725e+01 4.611836e+01 5.911087e+01 2.492061e+01 3.850276e+01 4.176056e+01 5.141703e+01 5.303805e+01 3.581299e+01 1.706678e+01 1.164611e+00 2.614796e+00 2.709397e+00 2.717727e+00 3.199586e+00 2.887382e+00 3.459574e+00 1.653755e+00 2.801309e+00 4.621190e+00 4.410784e+00 2.389081e+00 7.063969e-01 4.213260e-01 3.348758e-01 4.352114e-01 7.610253e-01 3.200488e-01 4.739035e-01 5.296686e-01 5.996935e-01 5.161684e-01 7.535419e-01 7.485141e-01 4.156201e-01 1.910335e-01
<GCONST> 1.193261e+02
<STATE> 3
<MEAN> 39
 -4.984225e+00 -2.797066e+01 -3.190546e+00 -1.055068e+01 2.103720e+00 -1.675210e+00 -1.160641e+01 6.621242e-03 -1.181568e+01 -6.008240e+00 -1.347602e+01 1.254653e+00 6.493941e+01 -4.646399e-01 3.696961e-01 9.565985e-01 -7.476585e-01 -9.312189e-01 -8.443558e-01 8.716063e-01 5.877008e-01 -3.105845e-01 -5.189374e-01 3.685119e-02 3.039252e-01 1.514568e-01 1.015982e-01 2.744821e-01 3.687328e-02 -2.525441e-01 -2.228426e-01 -5.799020e-02 5.671327e-02 -1.401811e-01 5.628645e-02 1.106748e-01 1.026952e-01 -2.373603e-01 -1.348346e-01
<VARIANCE> 39
 7.529146e+00 2.041553e+01 2.962979e+01 2.920251e+01 5.465848e+01 5.091176e+01 2.544912e+01 3.359859e+01 4.219578e+01 5.078590e+01 5.849083e+01 3.830548e+01 8.508555e+00 5.627202e-01 8.586807e-01 1.636877e+00 1.734174e+00 1.724699e+00 1.875471e+00 2.518785e+00 2.124292e+00 2.129432e+00 2.803804e+00 3.506138e+00 2.839048e+00 2.481630e-01 6.922222e-02 1.219803e-01 1.282140e-01 2.014003e-01 2.050906e-01 2.684141e-01 3.904836e-01 3.946898e-01 3.715844e-01 5.322633e-01 5.931101e-01 4.399113e-01 3.447836e-02
<GCONST> 1.020094e+02
<STATE> 4
<MEAN> 39
 -5.843257e+00 -1.945275e+01 6.665387e+00 -2.068243e+01 -8.445485e+00 -8.850498e+00 -6.675505e+00 -1.140478e+00 -1.227090e+01 -5.961404e+00 -1.336873e+01 -8.382068e-01 6.219736e+01 6.212257e-01 1.797522e+00 9.476368e-01 -7.834402e-01 -1.266443e+00 -1.043319e+00 -7.078637e-01 -1.076588e+00 -2.306270e-01 3.058734e-01 7.183279e-02 -3.584237e-01 -1.127977e+00 2.424395e-01 1.930208e-01 -4.037382e-01 5.667294e-01 1.571076e-01 -1.621378e-02 -4.266533e-01 -1.911789e-01 7.718761e-02 -2.421798e-01 2.333566e-02 1.540522e-02 -3.158691e-01
<VARIANCE> 39
 9.497466e+00 3.431677e+01 3.057259e+01 4.537807e+01 5.014144e+01 4.458530e+01 5.453146e+01 5.993912e+01 3.803974e+01 5.449865e+01 3.733050e+01 2.840111e+01 2.000718e+01 7.493396e-01 1.097805e+00 1.641940e+00 3.223205e+00 2.223724e+00 3.519523e+00 4.589768e+00 3.006196e+00 2.995327e+00 3.993987e+00 2.488831e+00 2.831583e+00 7.027793e-01 1.299463e-01 1.537254e-01 3.113006e-01 4.715873e-01 4.415313e-01 5.249674e-01 9.676775e-01 4.565369e-01 6.095581e-01 7.465655e-01 4.675930e-01 5.307663e-01 6.863397e-02
<GCONST> 1.153667e+02
<TRANSP> 5
 0.000000e+00 1.000000e+00 0.000000e+00 0.000000e+00 0.000000e+00
 0.000000e+00 6.895241e-01 3.104759e-01 0.000000e+00 0.000000e+00
 0.000000e+00 0.000000e+00 8.358088e-01 1.641912e-01 0.000000e+00
 0.000000e+00 0.000000e+00 0.000000e+00 8.174517e-01 1.825483e-01
 0.000000e+00 0.000000e+00 0.000000e+00 0.000000e+00 0.000000e+00
<ENDHMM>
~h "ch"
<BEGINHMM>
<NUMSTATES> 5
<STATE> 2
<MEAN> 39
 -8.490027e+00 8.493348e-01 -1.076655e+00 -4.589822e+00 -4.925340e+00 -1.064665e+01 -1.335083e+01 -1.699597e+01 -1.550459e+01 -1.416859e+01 -1.405694e+01 -1.167972e+01 4.291982e+01 -1.117021e+00 -1.187173e+00 1.229486e+00 -1.245718e+00 6.814555e-01 3.412724e-03 -1.863311e+00 -9.999833e-01 -4.763184e-01 2.224091e+00 1.072308e+00 4.409620e-01 2.402786e+00 -8.216240e-01 -4.090364e-01 9.228325e-01 -1.066532e+00 -3.905051e-01 4.414731e-01 4.532784e-01 2.005892e-01 2.370034e-01 7.772639e-01 2.457214e-01 8.173815e-01 1.048161e+00
<VARIANCE> 39
 7.626133e+01 7.674822e+00 9.051257e+00 1.068620e+02 1.950693e+01 4.207531e+01 3.735489e+01 1.865771e+02 3.219510e+01 5.341371e+01 2.658742e+01 4.324512e+01 2.040386e+01 8.261844e+00 2.683843e+00 3.862726e+00 9.413330e+00 8.502165e+00 4.598632e+00 1.294138e+00 1.241467e+00 1.110426e+00 6.909835e+00 4.389345e+00 6.923472e+00 8.649921e+00 2.296375e+00 5.448077e-01 3.627000e-01 1.467055e+00 1.385495e+00 1.256152e+00 1.178202e+00 7.362999e-01 1.920718e-01 7.652051e-01 8.765677e-01 7.917188e-01 3.482351e-01
<GCONST> 1.331056e+02
<STATE> 3
<MEAN> 39
 -1.028713e+01 -3.262995e+00 1.295391e+01 -1.912869e+01 -8.262607e+00 -9.464285e+00 -1.505203e+01 -1.750713e+01 -1.457317e+01 -2.077156e+00 -1.431566e+01 -2.888805e+00 5.816045e+01 -1.225203e+00 1.029713e+00 6.512125e-01 -1.244260e+00 -1.314289e-01 2.108501e-01 7.516230e-01 7.569580e-01 2.031000e-01 -3.071370e-01 -5.145675e-01 -6.739681e-01 7.431656e-01 -3.304554e-01 5.191547e-01 -4.804238e-01 7.319683e-01 6.737371e-02 6.269068e-02 1.333887e-01 8.759216e-02 1.439494e-01 -4.249679e-01 1.328629e-01 -3.995984e-01 -6.294567e-01
<VARIANCE> 39
 2.424745e+01 7.646509e+01 1.916237e+01 5.002168e+01 4.691244e+01 2.184562e+01 3.133724e+01 5.782850e+01 7.018907e+00 5.770901e+01 5.484546e+01 5.038852e+01 2.548429e+01 4.287835e+00 5.850833e+00 5.539211e+00 8.565022e+00 5.525327e+00 4.706742e+00 4.334209e+00 3.974740e+00 9.281740e-01 7.236437e+00 2.767812e+00 6.970748e+00 5.939323e+00 3.394751e-01 7.954164e-01 3.748146e-01 5.367814e-01 1.590871e+00 1.278873e+00 1.005424e+00 7.424231e-01 1.444676e-01 1.320056e+00 6.325232e-01 1.102797e+00 6.545836e-01
<GCONST> 1.325656e+02
<STATE> 4
<MEAN> 39
 -2.418029e+01 3.188664e+00 1.129745e+01 -1.372934e+01 -1.314384e+01 -6.864562e+00 -9.642276e+00 -8.902713e+00 -8.427328e+00 -3.149303e+00 -2.018787e+00 -5.463575e+00 5.583771e+01 2.273537e-01 -4.394168e-01 1.077120e-01 2.821720e-01 -1.451066e+00 -2.855926e-02 -1.230950e-01 1.164017e-01 4.605836e-01 2.680062e-01 1.502969e+00 7.662563e-01 -3.497895e-01 6.095267e-01 -3.309631e-01 -1.719722e-01 -2.234355e-01 1.432483e-02 -1.947325e-01 -8.334776e-02 2.233400e-02 -6.252424e-02 1.835787e-02 -1.444530e-01 1.209550e-01 -8.548896e-02
<VARIANCE> 39
 9.065231e+01 2.405660e+01 1.331253e+01 2.688108e+01 6.467358e+01 8.695967e+01 1.552023e+01 4.760619e+01 3.548397e+01 5.765742e+01 5.710740e+01 3.475780e+01 1.199356e+01 1.739890e+01 2.712150e+00 3.229117e+00 3.328505e+00 4.129503e+00 1.218261e+01 3.213128e+00 4.462321e+00 2.931292e+00 2.202108e+00 3.771278e+00 4.046112e+00 3.417711e+00 2.173122e+00 6.700397e-01 4.703173e-01 5.089251e-01 8.573803e-01 2.152460e+00 5.110244e-01 9.042738e-01 4.875241e-01 4.975004e-01 6.062785e-01 9.443970e-01 5.790117e-01
<GCONST> 1.330810e+02
<TRANSP> 5
 0.000000e+00 1.000000e+00 0.000000e+00 0.000000e+00 0.000000e+00
 0.000000e+00 7.272328e-01 2.727672e-01 0.000000e+00 0.000000e+00
 0.000000e+00 0.000000e+00 8.403738e-01 1.596262e-01 0.000000e+00
 0.000000e+00 0.000000e+00 0.000000e+00 9.096141e-01 9.038586e-02
 0.000000e+00 0.000000e+00 0.000000e+00 0.000000e+00 0.000000e+00
<ENDHMM>
~h "dh"
<BEGINHMM>
<NUMSTATES> 5
<STATE> 2
<MEAN> 39
 -6.859409e+00 -1.983186e+00 -4.138945e+00 -5.727613e+00 -8.097480e+00 -1.202991e+01 -1.033796e+01 -8.017571e+00 -4.460603e+00 -8.446785e+00 -8.778786e+00 -5.619872e+00 4.340614e+01 -2.223782e-01 5.654771e-01 -2.070477e-01 2.397625e-01 -6.533453e-02 6.292950e-01 -4.954460e-02 -3.575583e-01 -7.261307e-02 -7.880859e-03 5.734228e-03 -3.042748e-01 -1.288029e+00 -9.598042e-03 -1.288057e-01 1.452111e-01 -8.058437e-02 1.183008e-01 1.031612e-01 -1.728366e-01 -2.866531e-01 -2.612517e-01 -1.807213e-03 -2.935925e-02 -1.399926e-02 7.652222e-02
<VARIANCE> 39
 8.834278e+01 8.980753e+01 6.234446e+01 4.298023e+01 4.855330e+01 7.185868e+01 6.235255e+01 7.341161e+01 5.294061e+01 5.107812e+01 6.100484e+01 5.119297e+01 1.098373e+02 2.165990e+00 2.017637e+00 2.086181e+00 2.072300e+00 2.068038e+00 2.342047e+00 3.218567e+00 3.806066e+00 2.380355e+00 3.037880e+00 2.444919e+00 2.319499e+00 1.531942e+00 3.873283e-01 4.089502e-01 4.742348e-01 4.228991e-01 6.583332e-01 4.100068e-01 6.165207e-01 6.341180e-01 5.613615e-01 5.609207e-01 5.606930e-01 6.296920e-01 1.919082e-01
<GCONST> 1.274005e+02
<STATE> 3
<MEAN> 39
 -7.012368e+00 2.990798e+00 -3.519054e+00 -3.432989e+00 -9.073112e+00 -9.364080e+00 -1.026009e+01 -1.193295e+01 -8.317002e+00 -1.003646e+01 -8.594762e+00 -6.097862e+00 3.719176e+01 6.106476e-01 5.503436e-01 5.619360e-01 1.696836e-01 -2.621312e-01 2.092082e-01 -5.150678e-01 -8.777591e-01 -8.741958e-01 -7.943275e-01 -4.144026e-01 -4.822427e-01 -5.679093e-01 -2.843026e-01 -2.733518e-01 9.592324e-02 -1.299308e-01 2.012687e-01 -8.857386e-02 5.939379e-03 -9.683399e-02 -4.328318e-03 1.253310e-01 1.415158e-01 1.132140e-01 4.425919e-01
<VARIANCE> 39
 8.351193e+01 6.492900e+01 4.952586e+01 2.321203e+01 5.714837e+01 5.395930e+01 5.793182e+01 8.314754e+01 5.215040e+01 5.261921e+01 4.948753e+01 3.546207e+01 7.801314e+01 4.291087e+00 3.220551e+00 2.522692e+00 2.094073e+00 3.308479e+00 3.471285e+00 3.095075e+00 3.646696e+00 3.853032e+00 3.408653e+00 2.431140e+00 2.213534e+00 4.089941e+00 8.382155e-01 5.945023e-01 4.252293e-01 2.390861e-01 9.294879e-01 6.729078e-01 8.410235e-01 1.109478e+00 6.727846e-01 6.253034e-01 6.397871e-01 4.224665e-01 4.977681e-01
<GCONST> 1.320097e+02
<STATE> 4
<MEAN> 39
 -7.973818e+00 1.361673e+00 -3.943939e+00 -3.082695e+00 -7.048862e+00 -7.534927e+00 -1.039858e+01 -1.302441e+01 -8.509549e+00 -9.625688e+00 -8.668376e+00 -7.688235e+00 3.660162e+01 -6.904736e-01 -2.847417e-01 1.151372e-01 -1.212321e-01 5.167742e-01 2.080160e-01 -7.001185e-02 -4.470378e-01 -5.991086e-03 2.116379e-01 3.764467e-01 4.332657e-02 -5.815893e-03 -1.610633e-01 -2.429384e-01 1.333331e-01 -4.162131e-01 -8.984549e-02 -5.015558e-01 -7.694480e-02 -7.897940e-02 5.096538e-02 2.007320e-01 3.395906e-01 4.607604e-01 8.955612e-01
<VARIANCE> 39
 7.138926e+01 4.767846e+01 3.623075e+01 3.069461e+01 4.490670e+01 5.440073e+01 5.938625e+01 7.753620e+01 5.860187e+01 5.319680e+01 4.737807e+01 3.887789e+01 7.765607e+01 2.804660e+00 3.789335e+00 2.925907e+00 2.421043e+00 5.089005e+00 3.059594e+00 2.883711e+00 3.416546e+00 4.248925e+00 4.452302e+00 3.949548e+00 2.279128e+00 3.115683e+00 6.108650e-01 4.788682e-01 6.012450e-01 4.726081e-01 8.882499e-01 4.931287e-01 8.370745e-01 7.791336e-01 7.279160e-01 7.404838e-01 6.514453e-01 4.758195e-01 5.974411e-01
<GCONST> 1.325588e+02
<TRANSP> 5
 0.000000e+00 1.000000e+00 0.000000e+00 0.000000e+00 0.000000e+00
 0.000000e+00 4.779193e-01 5.220808e-01 0.000000e+00 0.000000e+00
 0.000000e+00 0.000000e+00 2.987053e-01 7.012948e-01 0.000000e+00
 0.000000e+00 0.000000e+00 0.000000e+00 3.341183e-01 6.658817e-01
 0.000000e+00 0.000000e+00 0.000000e+00 0.000000e+00 0.000000e+00
<ENDHMM>
~h "ea"
<BEGINHMM>
<NUMSTATES> 5
<STATE> 2
<MEAN> 39
 -1.048526e+01 -6.779388e+00 3.356228e+00 -1.161709e+01 -8.515530e+00 -1.188338e+01 -9.631775e+00 -1.081555e+01 -9.344212e+00 -5.431443e+00 -3.648107e+00 -1.654245e+00 4.761080e+01 1.277479e+00 -2.726704e+00 2.418674e+00 -3.317656e+00 -1.470307e+00 -1.946075e+00 -1.818314e-04 1.015793e+00 -9.763647e-01 9.615424e-01 -5.769113e-01 5.621440e-01 4.930887e+00 3.363494e-03 -3.975238e-01 4.803830e-02 -3.898284e-02 2.539736e-01 3.931383e-01 4.616589e-01 5.358920e-01 -1.172527e-01 -1.205555e-01 -5.844910e-01 -2.392865e-01 -1.894342e-01
<VARIANCE> 39
 4.170655e+01 7.495081e+01 6.535230e+01 1.127815e+02 7.872578e+01 7.272997e+01 3.820397e+01 6.648952e+01 3.926698e+01 4.885054e+01 3.899869e+01 3.868771e+01 1.564489e+02 6.283656e+00 6.419138e+00 6.592759e+00 1.071293e+01 1.140641e+01 4.729825e+00 6.493377e+00 1.038664e+01 4.720401e+00 6.434699e+00 7.159483e+00 4.107510e+00 7.761132e+00 1.327074e+00 1.186393e+00 1.793722e+00 2.666630e+00 2.800245e+00 1.170040e+00 8.287706e-01 1.332953e+00 7.796539e-01 1.290699e+00 9.787286e-01 6.971360e-01 2.730310e+00
<GCONST> 1.539854e+02
<STATE> 3
<MEAN> 39
 -6.044307e+00 -2.215509e+01 9.343893e+00 -2.015757e+01 -1.082245e+01 -8.565514e+00 -4.118165e+00 -2.245803e-01 -1.337416e+01 -3.169574e+00 -1.078809e+01 -3.010937e+00 6.139430e+01 6.152623e-01 -1.151406e+00 -4.960751e-01 9.826940e-01 3.362719e-01 -1.892722e-02 6.270481e-01 9.664329e-01 -3.460617e-01 -3.468224e-01 -5.824444e-02 -3.492353e-01 1.253668e-03 8.700635e-02 3.144280e-01 -2.812417e-01 3.619741e-01 -7.367665e-02 -3.177671e-01 -1.618797e-01 -2.528397e-01 1.018472e-01 -1.202570e-01 2.996345e-01 -1.522894e-02 -3.131344e-01
<VARIANCE> 39
 1.127018e+01 3.273499e+01 1.788266e+01 3.424098e+01 3.121567e+01 5.272046e+01 1.488031e+01 2.940463e+01 3.530045e+01 2.152011e+01 2.825436e+01 3.318257e+01 2.137959e+01 5.999680e-01 9.277607e-01 1.077257e+00 1.731400e+00 1.404226e+00 4.144249e+00 1.192513e+00 1.785247e+00 1.971778e+00 2.054110e+00 2.251087e+00 2.684445e+00 4.525695e-01 9.742926e-02 2.454348e-01 2.856117e-01 3.886286e-01 2.800182e-01 3.718593e-01 2.755960e-01 4.704850e-01 3.986697e-01 4.195542e-01 2.816625e-01 4.649038e-01 2.085637e-01
<GCONST> 1.033647e+02
<STATE> 4
<MEAN> 39
 1.175273e+00 -2.122451e+01 -2.422664e+00 -6.293630e+00 -8.242772e+00 -1.723330e+01 -2.953038e+00 1.039392e+00 -1.140284e+01 -9.168878e+00 -8.928096e+00 -5.706707e+00 5.519276e+01 5.368979e-02 9.519212e-01 -4.670329e-01 4.136535e-01 -2.813694e-01 8.458465e-02 -2.975644e-01 -7.238380e-01 9.367225e-02 -4.399520e-01 3.337125e-02 -2.218914e-01 -8.209046e-01 -1.236257e-01 1.024334e-01 1.037528e-01 -1.547342e-01 -2.889017e-02 2.502079e-01 -3.726065e-02 -1.296553e-01 1.439714e-02 4.067427e-02 -1.786768e-02 9.245613e-02 -4.393850e-02
<VARIANCE> 39
 2.105051e+01 8.602431e+01 6.429140e+01 5.070164e+01 8.599179e+01 4.135672e+01 2.561356e+01 4.056997e+01 6.337486e+01 3.508819e+01 2.919772e+01 2.316833e+01 6.110121e+01 1.735855e+00 2.693549e+00 3.299663e+00 3.417952e+00 3.524103e+00 3.454038e+00 1.979573e+00 3.976086e+00 3.352890e+00 2.782455e+00 2.805179e+00 2.315207e+00 1.284021e+00 2.303025e-01 4.595578e-01 3.504796e-01 5.347376e-01 7.022558e-01 4.952867e-01 3.960440e-01 6.661292e-01 6.716007e-01 5.586335e-01 5.902849e-01 4.623783e-01 1.636092e-01
<GCONST> 1.232108e+02
<TRANSP> 5
 0.000000e+00 1.000000e+00 0.000000e+00 0.000000e+00 0.000000e+00
 0.000000e+00 8.131365e-01 1.868636e-01 0.000000e+00 0.000000e+00
 0.000000e+00 0.000000e+00 8.783054e-01 1.216946e-01 0.000000e+00
 0.000000e+00 0.000000e+00 0.000000e+00 9.235050e-01 7.649502e-02
 0.000000e+00 0.000000e+00 0.000000e+00 0.000000e+00 0.000000e+00
<ENDHMM>
~h "eh"
<BEGINHMM>
<NUMSTATES> 5
<STATE> 2
<MEAN> 39
 -7.098680e+00 -3.026700e+00 -4.497427e+00 -5.308376e+00 -9.685602e+00 -1.018219e+01 -1.191130e+01 -1.052975e+01 -5.144347e+00 -9.060371e+00 -7.369897e+00 -6.857747e+00 4.554490e+01 1.419033e+00 -3.574181e+00 1.788675e+00 -2.890821e+00 -3.019835e-01 -1.978084e-01 -9.717187e-01 1.243014e+00 -4.074662e-01 1.232550e-01 -1.612520e+00 1.000271e+00 3.484263e+00 -3.816767e-02 -7.079260e-01 2.777272e-01 -4.843646e-01 2.172381e-01 2.718664e-01 3.388632e-01 5.200557e-01 -2.688987e-01 1.076825e-01 -2.697647e-01 1.574121e-01 7.217699e-01
<VARIANCE> 39
 8.256300e+01 1.068252e+02 6.884184e+01 7.547146e+01 4.901550e+01 7.211200e+01 7.482973e+01 7.950342e+01 5.789707e+01 5.588624e+01 6.475651e+01 4.758221e+01 8.767795e+01 9.509233e+00 9.284539e+00 5.128061e+00 9.554482e+00 7.783547e+00 1.021536e+01 7.053698e+00 8.050010e+00 5.040762e+00 3.990249e+00 9.185981e+00 5.029142e+00 6.934251e+00 1.122179e+00 1.094659e+00 8.839278e-01 1.609258e+00 1.134702e+00 1.501540e+00 1.088954e+00 1.293916e+00 8.685807e-01 6.288796e-01 1.366611e+00 8.026125e-01 1.208665e+00
<GCONST> 1.534371e+02
<STATE> 3
<MEAN> 39
 -5.279692e+00 -2.150633e+01 3.949645e+00 -1.830543e+01 -7.874907e+00 -6.802258e+00 -8.406069e+00 -1.032429e-01 -1.246017e+01 -7.035743e+00 -1.445732e+01 -2.017783e+00 6.238990e+01 1.847668e-01 -7.878300e-01 7.694185e-01 -9.322764e-01 2.966669e-01 2.025281e-01 7.144737e-01 5.933556e-01 -9.511731e-01 2.308599e-01 -8.420801e-01 -8.628999e-02 9.935347e-01 5.956218e-02 1.129748e+00 -4.867301e-01 7.187372e-01 -2.277234e-01 -3.125883e-01 -2.081516e-01 -5.975993e-01 3.002497e-01 -2.598622e-01 3.581352e-01 -3.485690e-01 -9.631512e-01
<VARIANCE> 39
 8.161324e+00 2.379726e+01 3.040443e+01 2.172779e+01 6.692637e+01 5.004633e+01 4.566558e+01 2.179003e+01 3.152834e+01 4.245510e+01 4.635103e+01 3.683531e+01 1.086137e+01 2.231036e+00 6.820391e+00 3.042588e+00 3.793478e+00 4.277048e+00 4.693989e+00 3.514810e+00 5.664818e+00 2.515526e+00 4.432092e+00 3.646885e+00 3.107474e+00 4.244187e+00 4.369849e-01 5.143464e-01 4.397286e-01 5.588093e-01 7.789413e-01 7.939252e-01 7.064312e-01 7.441756e-01 4.125830e-01 6.957033e-01 7.652502e-01 6.622627e-01 3.302227e-01
<GCONST> 1.258741e+02
<STATE> 4
<MEAN> 39
 -1.395314e+00 -1.430136e+01 1.705339e+00 -1.487637e+01 -1.502373e+01 -1.026791e+01 -6.242539e+00 -1.311564e+00 -1.143402e+01 -7.780563e+00 -1.563416e+01 -6.758425e+00 5.558561e+01 4.590952e-01 2.232438e+00 -9.487370e-01 9.187678e-01 -1.079048e+00 -8.463383e-01 8.283813e-01 -5.419753e-01 1.164111e+00 -1.551632e+00 8.724763e-01 -1.043825e+00 -1.979000e+00 -4.545145e-01 3.077962e-01 -2.228785e-01 2.041238e-01 2.990354e-01 2.443300e-01 6.745756e-02 -1.230205e-01 2.016881e-01 -1.267358e-02 3.079294e-01 -4.496428e-02 -1.282142e-01
<VARIANCE> 39
 1.309472e+01 3.728876e+01 4.064594e+01 5.283645e+01 9.720325e+01 6.458610e+01 4.382784e+01 3.382552e+01 3.404541e+01 4.638113e+01 4.958150e+01 3.559701e+01 4.820716e+01 2.170765e+00 3.221874e+00 2.677233e+00 1.673706e+00 4.666830e+00 2.797435e+00 4.740924e+00 2.625905e+00 2.236967e+00 3.069217e+00 3.727906e+00 2.190669e+00 1.558884e+00 5.727839e-01 5.374198e-01 4.191741e-01 4.076400e-01 7.826775e-01 6.455246e-01 7.963952e-01 8.674602e-01 3.862005e-01 6.739804e-01 8.567206e-01 3.841495e-01 4.531026e-01
<GCONST> 1.260621e+02
<TRANSP> 5
 0.000000e+00 1.000000e+00 0.000000e+00 0.000000e+00 0.000000e+00
