~o
<STREAMINFO> 1 39
<VECSIZE> 39<NULLD><MFCC_D_A_0><DIAGC>
~h "b"
<BEGINHMM>
<NUMSTATES> 5
<STATE> 2
<MEAN> 39
 3.451154e+00 -1.172469e+01 -1.163268e+01 -6.423421e+00 -4.093738e+00 -1.281114e+01 -1.268810e+01 -2.262871e+00 -7.161460e+00 -1.046412e+01 -5.243711e+00 -7.184612e+00 5.042965e+01 -1.972152e-01 5.840771e-01 6.030365e-01 7.245271e-01 -8.031728e-01 -5.865741e-01 4.335395e-02 3.993083e-01 3.408101e-01 -7.103462e-01 5.936065e-02 -9.943315e-02 -7.163732e-01 -1.138535e-01 1.613352e-02 8.391972e-02 -9.318122e-02 1.965167e-02 1.631028e-01 4.943321e-02 -1.212865e-01 1.746144e-03 5.254650e-02 4.241555e-02 1.726629e-02 -8.735187e-02
<VARIANCE> 39
 6.019736e+01 1.006201e+02 8.593355e+01 5.939853e+01 1.038667e+02 8.671426e+01 5.159194e+01 1.214099e+02 3.647237e+01 8.671627e+01 5.022424e+01 2.743797e+01 1.870999e+01 1.389184e+00 2.484106e+00 3.072698e+00 2.790585e+00 3.478032e+00 3.945625e+00 2.882180e+00 3.794459e+00 3.468462e+00 3.569269e+00 2.197894e+00 2.006654e+00 8.349859e-01 1.940816e-01 2.092489e-01 3.261293e-01 4.633486e-01 5.138581e-01 3.792749e-01 5.123609e-01 5.454003e-01 5.263284e-01 7.098461e-01 4.267079e-01 3.378756e-01 8.770379e-02
<GCONST> 1.238485e+02
<STATE> 3
<MEAN> 39
 -3.639698e-01 -1.766260e+00 -2.019314e+00 -7.850152e+00 -1.341963e+01 -1.229024e+01 -1.194369e+01 -1.133249e+01 -8.511335e+00 -1.094564e+01 -7.324417e+00 -5.930785e+00 4.462452e+01 -5.385001e-01 9.861339e-01 -2.998726e-01 2.101454e-01 -6.450088e-02 5.828047e-01 3.462311e-01 -4.437142e-01 3.412332e-01 2.414899e-01 8.631371e-02 -3.975587e-01 -1.605630e+00 -1.530881e-01 -1.783021e-01 -1.198260e-01 -6.574828e-02 1.811049e-01 1.004301e-01 1.745182e-01 6.549709e-02 -8.135075e-02 1.926351e-01 -2.276979e-03 -5.579885e-02 -1.083670e-02
<VARIANCE> 39
 6.777637e+01 5.869677e+01 5.804259e+01 3.617412e+01 7.608614e+01 2.304735e+01 4.422935e+01 9.131482e+01 5.001822e+01 6.357056e+01 5.574083e+01 3.750525e+01 2.154800e+01 1.514193e+00 2.054542e+00 2.907721e+00 2.431483e+00 2.036196e+00 2.869692e+00 2.392481e+00 3.372529e+00 3.618369e+00 3.584844e+00 2.575426e+00 3.039665e+00 7.481258e-01 2.049330e-01 2.557983e-01 5.447631e-01 4.414387e-01 4.565765e-01 4.177441e-01 4.582937e-01 5.843806e-01 6.885214e-01 6.045222e-01 5.522472e-01 6.460940e-01 7.539891e-02
<GCONST> 1.216029e+02
<STATE> 4
<MEAN> 39
 -6.548078e+00 -2.900684e-01 -5.199067e+00 -6.351453e+00 -1.061881e+01 -7.859514e+00 -8.187428e+00 -1.186467e+01 -7.955127e+00 -9.992126e+00 -7.026928e+00 -5.968357e+00 3.642112e+01 -7.870643e-01 -1.600375e-01 -1.567256e-01 5.299739e-01 6.154010e-01 7.182245e-01 4.521413e-01 2.299647e-01 2.852044e-01 1.817520e-01 2.250500e-01 1.190065e-01 -1.146235e+00 -6.282339e-02 -2.234161e-01 1.545689e-01 1.929437e-02 1.078496e-01 -1.846494e-01 -1.114779e-01 9.595509e-02 8.790901e-02 8.555056e-02 6.526257e-02 1.775600e-01 3.195221e-01
<VARIANCE> 39
 6.156880e+01 2.406065e+01 2.712788e+01 2.725664e+01 5.187729e+01 2.511448e+01 2.737127e+01 4.517107e+01 3.397519e+01 3.929665e+01 3.180842e+01 2.630978e+01 2.886795e+01 1.129610e+00 1.659333e+00 1.841395e+00 1.606567e+00 1.593523e+00 1.802064e+00 1.695656e+00 2.866153e+00 2.845149e+00 1.805706e+00 2.094480e+00 2.320214e+00 6.691219e-01 1.946697e-01 2.953637e-01 3.050317e-01 3.950966e-01 4.283731e-01 3.576813e-01 3.487846e-01 6.194949e-01 6.086801e-01 4.979562e-01 5.172949e-01 6.123766e-01 1.420075e-01
<GCONST> 1.116547e+02
<TRANSP> 5
 0.000000e+00 1.000000e+00 0.000000e+00 0.000000e+00 0.000000e+00
 0.000000e+00 8.050007e-01 1.949994e-01 0.000000e+00 0.000000e+00
 0.000000e+00 0.000000e+00 5.678347e-01 4.321654e-01 0.000000e+00
 0.000000e+00 0.000000e+00 0.000000e+00 7.380514e-01 2.619486e-01
 0.000000e+00 0.000000e+00 0.000000e+00 0.000000e+00 0.000000e+00
<ENDHMM>
~h "sp"
<BeginHMM>
 <NumStates> 3
 <State> 2
  <Mean> 39
   -1.733781e+01 -4.349220e+00 -6.101759e+00 -1.741211e+00 -2.047633e+00 1.483627e+00 6.015935e-01 -3.516771e-01 -1.793194e+00 -3.133909e+00 -2.343704e+00 -1.089551e+00 2.463301e+01 -7.629105e-02 2.587766e-02 3.618941e-03 -1.041409e-02 1.193106e-03 2.210733e-02 1.626871e-02 4.114772e-02 3.669417e-02 9.086250e-02 3.945099e-02 3.410872e-02 -1.255472e-01 -1.169690e-03 2.539585e-03 3.623095e-03 3.150948e-03 7.861141e-03 -1.229829e-02 6.744834e-04 -6.989563e-03 7.379558e-04 2.106453e-03 9.787122e-03 4.516409e-03 5.892825e-03
  <Variance> 39
   6.880121e+00 1.251482e+01 1.524706e+01 1.654529e+01 1.856292e+01 1.912218e+01 1.817119e+01 2.066889e+01 1.770275e+01 1.843719e+01 1.588804e+01 1.351043e+01 1.085918e+01 3.273163e-01 5.814220e-01 9.346914e-01 1.270790e+00 1.433505e+00 1.686303e+00 1.758551e+00 1.864270e+00 1.756097e+00 1.688655e+00 1.532548e+00 1.346500e+00 2.540986e-01 5.257215e-02 1.044360e-01 1.704460e-01 2.355319e-01 2.705205e-01 3.153582e-01 3.344479e-01 3.747323e-01 3.521225e-01 3.455104e-01 3.105875e-01 2.663058e-01 3.631131e-02
<TransP> 3
  0.0 1.0 0.0
  0.0 9.638144e-01 3.618551e-02
  0.0 0.0 0.0
<EndHMM>
~h "d"
<BEGINHMM>
<NUMSTATES> 5
<STATE> 2
<MEAN> 39
 -9.125615e+00 -6.479750e-01 -3.575464e+00 -6.289582e+00 -8.473864e+00 -9.158800e+00 -8.439770e+00 -1.215361e+01 -8.293933e+00 -9.239733e+00 -6.657019e+00 -4.886413e+00 4.122901e+01 -8.540923e-01 -4.830017e-01 7.866305e-01 -8.295423e-01 6.891459e-01 -4.953431e-01 -2.394458e-01 -4.755269e-01 7.836838e-02 3.148665e-01 1.675262e-01 6.835598e-01 1.311153e+00 1.786301e-01 -3.750743e-01 3.287290e-01 -6.424218e-01 -3.137605e-02 -1.965352e-01 -2.214138e-01 9.237137e-02 -1.064651e-01 1.644646e-01 -2.759041e-02 2.261074e-01 8.271186e-01
<VARIANCE> 39
 7.412154e+01 8.169405e+01 5.114253e+01 6.025098e+01 5.467308e+01 6.419952e+01 5.334955e+01 7.191312e+01 5.005655e+01 5.648883e+01 5.146839e+01 3.628971e+01 1.060153e+02 6.986730e+00 6.507515e+00 6.063274e+00 6.510674e+00 7.176202e+00 6.195345e+00 5.065339e+00 6.677681e+00 4.935781e+00 4.602239e+00 4.226130e+00 4.050320e+00 8.286688e+00 9.531042e-01 9.295042e-01 9.689006e-01 1.009378e+00 1.124133e+00 9.494238e-01 9.770608e-01 1.354662e+00 1.007909e+00 9.711030e-01 8.143743e-01 7.973269e-01 1.343446e+00
<GCONST> 1.479082e+02
<STATE> 3
<MEAN> 39
 -8.022093e+00 -6.967078e+00 1.365631e+00 -1.335596e+01 -6.922905e+00 -1.142521e+01 -1.163019e+01 -1.083061e+01 -8.409103e+00 -5.177842e+00 -7.390672e+00 -9.662642e-01 5.001662e+01 4.379764e-01 -1.062307e+00 5.926425e-01 -1.120270e+00 -3.349386e-02 -3.884895e-01 -2.986385e-01 5.542430e-01 -3.436741e-01 3.584592e-01 -3.886653e-01 4.336985e-01 1.801411e+00 1.580756e-01 9.943969e-02 -2.371152e-01 3.479227e-01 -6.031919e-02 2.750151e-01 1.775668e-01 2.025148e-01 -4.012990e-03 -1.127444e-01 -9.440616e-02 -2.676301e-01 -3.100678e-01
<VARIANCE> 39
 7.730705e+01 8.603356e+01 7.987284e+01 8.715781e+01 8.188425e+01 9.589320e+01 8.400712e+01 8.633247e+01 6.623341e+01 7.509702e+01 5.272917e+01 4.952092e+01 7.192026e+01 6.649816e+00 9.440845e+00 7.689231e+00 9.660833e+00 7.537462e+00 8.271746e+00 9.312384e+00 9.906788e+00 7.348428e+00 6.840536e+00 5.874362e+00 6.169331e+00 1.133582e+01 1.221839e+00 1.364781e+00 1.268395e+00 1.514711e+00 1.541240e+00 1.476585e+00 1.640738e+00 1.670290e+00 1.246737e+00 1.140705e+00 9.739776e-01 1.168562e+00 1.412804e+00
<GCONST> 1.587029e+02
<STATE> 4
<MEAN> 39
 -5.734949e+00 -9.106152e+00 1.723933e+00 -1.237853e+01 -7.994449e+00 -1.097910e+01 -1.024580e+01 -6.683729e+00 -1.071904e+01 -7.311661e+00 -9.518011e+00 -1.889868e+00 5.288615e+01 1.240174e-01 6.168543e-01 -2.949604e-01 5.242667e-01 -2.370086e-01 2.933855e-01 1.300324e-01 7.562406e-03 2.064428e-01 -3.224424e-01 1.053771e-01 -4.950408e-01 -4.505574e-01 -6.667178e-02 1.417433e-01 -2.002319e-01 1.769787e-01 -2.326433e-02 1.879101e-02 -6.632200e-02 -1.135040e-01 1.421206e-01 -2.659199e-02 1.405837e-01 -5.047306e-02 -2.040965e-01
<VARIANCE> 39
 6.078883e+01 1.452969e+02 8.289511e+01 9.282642e+01 8.355278e+01 1.125276e+02 7.332424e+01 7.648797e+01 4.843281e+01 5.885656e+01 6.252277e+01 4.242473e+01 8.091502e+01 4.089458e+00 5.396868e+00 4.963473e+00 4.591743e+00 5.410625e+00 5.497007e+00 6.216423e+00 5.080927e+00 4.297783e+00 5.167146e+00 4.513915e+00 4.161537e+00 4.469248e+00 6.344393e-01 7.966485e-01 7.073773e-01 7.347080e-01 9.588407e-01 1.011602e+00 1.184697e+00 8.903551e-01 8.677684e-01 9.837210e-01 8.588297e-01 7.574606e-01 7.799445e-01
<GCONST> 1.461702e+02
<TRANSP> 5
 0.000000e+00 1.000000e+00 0.000000e+00 0.000000e+00 0.000000e+00
 0.000000e+00 5.482055e-01 4.517946e-01 0.000000e+00 0.000000e+00
 0.000000e+00 0.000000e+00 7.369605e-01 2.630395e-01 0.000000e+00
 0.000000e+00 0.000000e+00 0.000000e+00 7.411790e-01 2.588210e-01
 0.000000e+00 0.000000e+00 0.000000e+00 0.000000e+00 0.000000e+00
<ENDHMM>
~h "f"
<BEGINHMM>
<NUMSTATES> 5
<STATE> 2
<MEAN> 39
 -1.346644e+01 -4.334695e+00 -1.438654e+00 -9.520921e+00 -6.983356e+00 -8.521206e+00 -6.557538e+00 -8.389209e+00 -4.535764e+00 -1.019890e+01 -9.018236e+00 -5.968151e+00 4.268258e+01 3.104284e-01 -1.950033e-01 8.678490e-01 -2.047898e-02 -2.400495e-01 -8.206850e-01 -1.220957e+00 -7.434903e-01 -3.835740e-01 1.222143e-01 -8.159152e-02 5.637774e-01 4.141178e-01 2.538471e-01 -2.410814e-01 2.600804e-02 -7.982286e-02 -1.067640e-02 -3.061104e-01 -4.321806e-01 -6.354383e-02 -3.172224e-01 8.901859e-02 4.202718e-02 2.935114e-01 4.948735e-01
<VARIANCE> 39
 5.974440e+01 2.810254e+01 7.640042e+01 5.297567e+01 2.540373e+01 6.699117e+01 5.300976e+01 4.738146e+01 3.894182e+01 6.408904e+01 4.504196e+01 4.354490e+01 9.122890e+01 7.135772e+00 4.121679e+00 5.033248e+00 6.562439e+00 3.014136e+00 4.688287e+00 7.839505e+00 5.411715e+00 4.973040e+00 2.915971e+00 5.700105e+00 5.146062e+00 1.068510e+01 5.365989e-01 5.919368e-01 6.786962e-01 8.044477e-01 5.711085e-01 9.815220e-01 9.879724e-01 7.419415e-01 6.610684e-01 5.380804e-01 8.528385e-01 7.803579e-01 8.670831e-01
<GCONST> 1.400661e+02
<STATE> 3
<MEAN> 39
 -7.947810e+00 -7.423250e+00 3.090685e+00 -1.130771e+01 -8.678539e+00 -1.506356e+01 -1.458193e+01 -9.687886e+00 -8.817886e+00 -5.383143e+00 -9.457552e+00 3.496861e-02 4.962351e+01 1.056941e+00 -1.086113e+00 5.504845e-01 -5.080642e-01 -3.391799e-01 -6.539926e-01 -7.082538e-01 3.162319e-01 -4.483304e-01 2.541130e-01 -6.347432e-01 3.374071e-02 1.490525e+00 -2.341600e-01 1.212810e-01 -2.534800e-01 2.174145e-01 1.578322e-01 3.768927e-01 5.002782e-01 9.262583e-02 5.683798e-02 -9.485949e-02 1.358622e-01 -2.469929e-01 -3.966078e-01
<VARIANCE> 39
 6.819003e+01 5.025114e+01 6.959490e+01 6.220716e+01 5.068432e+01 6.445026e+01 6.920607e+01 6.584560e+01 5.713496e+01 1.039208e+02 5.694246e+01 6.335319e+01 7.250417e+01 6.132421e+00 5.906492e+00 4.344543e+00 5.811712e+00 4.551224e+00 6.371609e+00 6.374607e+00 5.871794e+00 3.583350e+00 6.842921e+00 5.935022e+00 6.466163e+00 1.070276e+01 1.245812e+00 7.659082e-01 7.310746e-01 9.709817e-01 7.259285e-01 7.543698e-01 1.409706e+00 1.106873e+00 6.950769e-01 1.165026e+00 1.266555e+00 1.145285e+00 1.240108e+00
<GCONST> 1.487240e+02
<STATE> 4
<MEAN> 39
 -9.872378e+00 -8.545563e+00 3.887071e-01 -6.866068e+00 -9.417576e+00 -1.449511e+01 -1.190442e+01 -9.742534e+00 -8.250508e+00 -8.745901e+00 -8.642079e+00 -2.698845e+00 4.737145e+01 -4.824604e-01 1.469038e-01 -2.217977e-01 3.169826e-01 1.338864e-01 9.698272e-02 1.608629e-01 -2.675966e-01 -4.795951e-02 1.123843e-01 4.015957e-01 1.526215e-01 -4.634126e-01 8.617868e-02 9.646676e-02 -1.024586e-01 -7.133949e-02 7.195499e-03 4.216573e-02 9.949800e-03 1.241949e-02 2.959268e-02 3.133475e-02 6.886261e-02 5.717359e-02 -1.709085e-03
<VARIANCE> 39
 7.636708e+01 5.956609e+01 3.586251e+01 7.589834e+01 5.219471e+01 6.869990e+01 3.937817e+01 8.893771e+01 4.100293e+01 6.589432e+01 4.189087e+01 3.683888e+01 8.564095e+01 3.108031e+00 2.804344e+00 2.053463e+00 2.939862e+00 2.642863e+00 3.062184e+00 4.000970e+00 4.103285e+00 3.186740e+00 3.628679e+00 2.983901e+00 2.200631e+00 1.605978e+00 6.343305e-01 3.834255e-01 3.788903e-01 5.658786e-01 4.223537e-01 5.784861e-01 7.941515e-01 7.738972e-01 5.939302e-01 6.027390e-01 6.205327e-01 4.455185e-01 2.966858e-01
<GCONST> 1.293264e+02
<TRANSP> 5
 0.000000e+00 1.000000e+00 0.000000e+00 0.000000e+00 0.000000e+00
 0.000000e+00 5.636013e-01 4.363987e-01 0.000000e+00 0.000000e+00
 0.000000e+00 0.000000e+00 6.782703e-01 3.217296e-01 0.000000e+00
 0.000000e+00 0.000000e+00 0.000000e+00 8.628243e-01 1.371756e-01
 0.000000e+00 0.000000e+00 0.000000e+00 0.000000e+00 0.000000e+00
<ENDHMM>
~h "g"
<BEGINHMM>
<NUMSTATES> 5
<STATE> 2
<MEAN> 39
 -1.393787e+01 -5.452518e+00 -1.009302e+01 -2.566050e+00 -5.554189e+00 -4.076000e+00 -5.549257e+00 -6.498557e+00 -4.393088e+00 -5.413743e+00 -5.646881e+00 -3.359433e+00 4.198148e+01 7.451943e-01 -2.712325e-01 -3.417329e-01 -2.660148e-01 3.616855e-02 -5.312500e-01 -3.590616e-01 -2.224965e-01 -3.293132e-01 -2.431174e-01 5.383577e-01 1.238975e-01 9.050736e-01 1.989292e-01 -1.579529e-01 2.169069e-01 -2.834990e-01 -9.175274e-02 -6.514799e-02 -8.438120e-02 9.612069e-02 -1.730067e-01 7.120910e-02 -2.392126e-01 -3.777240e-02 5.523836e-01
<VARIANCE> 39
 1.722416e+02 1.146557e+02 5.930622e+01 2.542621e+01 3.680783e+01 7.960037e+01 3.649155e+01 5.751668e+01 6.323433e+01 5.462009e+01 4.639817e+01 2.616784e+01 1.221308e+02 1.029992e+01 9.115900e+00 5.499634e+00 5.236273e+00 5.017490e+00 6.954321e+00 4.493991e+00 6.939496e+00 6.089526e+00 4.744681e+00 4.314588e+00 2.662670e+00 1.505714e+01 1.248903e+00 1.081916e+00 1.084738e+00 1.143099e+00 8.509322e-01 9.106410e-01 6.415029e-01 9.871176e-01 1.012574e+00 1.174683e+00 9.913135e-01 4.583811e-01 2.185231e+00
<GCONST> 1.479546e+02
<STATE> 3
<MEAN> 39
 -8.177913e+00 -1.093814e+01 -1.012095e+01 -5.388740e+00 -7.833137e+00 -4.133698e+00 -1.019216e+01 -5.295220e+00 -1.082006e+01 -6.746430e+00 -1.118852e+01 -6.530647e+00 5.623696e+01 -2.159098e-01 6.126624e-01 8.691977e-01 -6.632608e-01 -6.870207e-01 -5.385879e-01 -1.129473e-01 -4.222411e-01 -2.291351e-01 -1.776762e-02 -2.161675e-01 -2.372259e-01 9.562160e-01 -1.311059e-02 5.828735e-02 2.280720e-01 -1.045835e-01 -1.392321e-01 1.153837e-01 3.071442e-02 -2.695950e-02 1.510011e-01 1.723754e-01 2.168848e-02 7.988359e-02 -3.108327e-01
<VARIANCE> 39
 1.078415e+02 1.900305e+02 1.346112e+02 6.184524e+01 5.604711e+01 1.033518e+02 7.658298e+01 6.573667e+01 4.398697e+01 7.679306e+01 6.458198e+01 5.661137e+01 7.341895e+01 5.942042e+00 7.841305e+00 1.067974e+01 7.838272e+00 6.539901e+00 1.146183e+01 6.134858e+00 3.644182e+00 4.739104e+00 6.143635e+00 6.184934e+00 4.098879e+00 1.123006e+01 9.814940e-01 9.582779e-01 1.027666e+00 1.103030e+00 1.250902e+00 2.139060e+00 1.198547e+00 7.562177e-01 7.774478e-01 9.879838e-01 1.288026e+00 7.152083e-01 1.315700e+00
<GCONST> 1.540398e+02
<STATE> 4
<MEAN> 39
 -5.576541e+00 -5.513028e+00 1.972758e+00 -1.286240e+01 -9.875984e+00 -1.222410e+01 -1.235695e+01 -1.364247e+01 -1.031725e+01 -4.688995e+00 -1.008307e+01 -4.406538e+00 5.198792e+01 1.259264e-01 -9.045262e-02 -1.549068e-02 2.258914e-02 1.577469e-02 1.365318e-01 -1.048011e-01 5.439593e-02 -2.995523e-03 1.531838e-01 -1.969450e-02 5.050422e-02 -8.787337e-02 -5.257083e-02 -1.886272e-02 -1.117547e-01 7.561106e-02 1.113748e-01 5.085627e-02 3.342036e-02 4.916682e-02 8.011138e-03 -4.800420e-02 1.073626e-02 7.746008e-03 -3.865913e-02
<VARIANCE> 39
 4.506473e+01 1.046701e+02 1.114424e+02 9.637315e+01 1.197625e+02 8.058066e+01 5.805173e+01 7.790370e+01 3.824016e+01 7.312439e+01 5.181490e+01 4.941108e+01 7.511504e+01 4.407378e+00 7.135453e+00 7.243308e+00 6.080927e+00 9.744959e+00 6.493659e+00 5.201849e+00 6.875010e+00 3.941667e+00 7.151808e+00 5.804752e+00 5.871747e+00 5.717923e+00 7.401767e-01 1.210041e+00 1.088063e+00 9.397187e-01 1.817464e+00 1.349547e+00 9.955725e-01 1.360154e+00 8.516136e-01 1.304845e+00 1.207125e+00 1.173523e+00 7.870486e-01
<GCONST> 1.520084e+02
<TRANSP> 5
 0.000000e+00 1.000000e+00 0.000000e+00 0.000000e+00 0.000000e+00
 0.000000e+00 8.672714e-01 1.327286e-01 0.000000e+00 0.000000e+00
 0.000000e+00 0.000000e+00 9.030693e-01 9.693072e-02 0.000000e+00
 0.000000e+00 0.000000e+00 0.000000e+00 9.728057e-01 2.719433e-02
 0.000000e+00 0.000000e+00 0.000000e+00 0.000000e+00 0.000000e+00
<ENDHMM>
~h "k"
<BEGINHMM>
<NUMSTATES> 5
<STATE> 2
<MEAN> 39
 -6.725721e+00 -5.494761e+00 2.098888e-01 -7.867947e+00 -9.228430e+00 -9.206883e+00 -8.167625e+00 -8.553539e+00 -7.544689e+00 -8.330598e+00 -8.128477e+00 -5.466393e+00 4.399838e+01 4.614285e-02 4.408465e-02 -2.959198e-01 5.089486e-01 6.240565e-01 -2.226294e-01 -1.060385e-01 -3.618327e-01 -8.160346e-01 -1.992312e-01 -2.704104e-01 -2.480065e-01 -3.243616e-01 8.159269e-02 -2.672638e-01 -2.126960e-01 -7.102341e-02 3.139468e-01 -1.920562e-01 -1.593629e-01 -2.826321e-01 -2.665301e-02 3.373374e-01 2.768782e-01 3.376691e-01 3.955382e-01
<VARIANCE> 39
 5.616583e+01 9.990791e+01 7.130817e+01 6.895245e+01 7.614292e+01 4.689264e+01 3.744608e+01 6.703097e+01 7.245326e+01 6.323146e+01 5.431792e+01 5.496010e+01 1.286051e+02 3.270655e+00 4.764305e+00 4.537890e+00 2.915025e+00 5.502883e+00 3.803973e+00 3.654009e+00 4.605838e+00 5.298034e+00 3.865301e+00 5.148682e+00 2.646666e+00 3.962446e+00 6.036836e-01 1.436217e+00 9.696456e-01 6.783748e-01 1.028944e+00 8.046618e-01 7.211323e-01 8.274610e-01 1.278475e+00 8.192657e-01 9.680283e-01 6.720376e-01 1.560668e+00
<GCONST> 1.431027e+02
<STATE> 3
<MEAN> 39
 -6.161591e+00 -6.089788e+00 -4.284592e-01 -7.162338e+00 -7.813567e+00 -9.537361e+00 -8.246691e+00 -9.813465e+00 -1.031233e+01 -7.717445e+00 -7.856399e+00 -5.787596e+00 4.464111e+01 3.410141e-01 -9.365950e-01 -6.623114e-01 2.019426e-02 1.104097e+00 -4.537330e-01 -1.313382e-01 -6.574669e-01 -6.306050e-01 1.954278e-01 2.116229e-01 2.968037e-01 9.578934e-01 3.298273e-02 -2.635559e-01 -7.368820e-02 -3.048214e-01 2.332300e-02 -1.231443e-01 -4.193280e-02 7.925150e-02 3.240916e-01 3.416516e-01 1.337099e-01 3.168203e-01 5.119650e-01
<VARIANCE> 39
 5.920521e+01 1.066446e+02 7.564375e+01 7.685664e+01 8.322445e+01 5.722016e+01 5.041375e+01 6.668475e+01 6.214306e+01 6.820884e+01 8.283731e+01 4.325417e+01 1.285611e+02 6.635858e+00 8.806886e+00 6.252303e+00 3.370725e+00 6.560456e+00 5.059316e+00 6.583389e+00 4.544691e+00 7.206979e+00 4.916544e+00 6.863763e+00 3.841850e+00 5.633527e+00 5.258722e-01 1.301363e+00 8.348231e-01 7.240240e-01 1.166097e+00 9.380038e-01 6.671003e-01 9.877378e-01 1.158605e+00 9.663541e-01 1.063534e+00 6.841565e-01 1.435249e+00
<GCONST> 1.486084e+02
<STATE> 4
<MEAN> 39
 -4.686555e+00 -9.582094e+00 -1.922374e+00 -8.031301e+00 -6.230523e+00 -9.509894e+00 -7.652036e+00 -9.495724e+00 -1.010865e+01 -7.060389e+00 -7.491641e+00 -5.895298e+00 4.989525e+01 1.426754e-01 -7.756133e-01 -2.265020e-02 -6.536734e-01 5.005577e-01 -1.361438e-01 2.390012e-01 2.886903e-01 2.910358e-01 2.596942e-01 -1.801797e-01 5.061337e-01 1.372553e+00 2.550979e-02 1.916442e-01 -4.980154e-03 -2.834228e-02 -1.555686e-01 9.832511e-02 1.549505e-03 1.884065e-01 2.045619e-01 -7.475647e-02 -1.151490e-01 8.617736e-03 -2.423866e-01
<VARIANCE> 39
 7.474476e+01 9.580772e+01 1.122243e+02 6.960806e+01 1.125748e+02 9.230594e+01 6.362225e+01 7.034797e+01 5.529519e+01 6.279921e+01 9.105016e+01 3.941702e+01 8.551988e+01 5.426570e+00 1.087293e+01 8.333035e+00 4.457293e+00 8.180109e+00 7.905857e+00 6.601636e+00 7.067267e+00 6.831214e+00 7.397491e+00 6.961027e+00 5.600049e+00 8.328080e+00 8.897924e-01 1.542714e+00 1.198697e+00 7.454565e-01 1.273701e+00 1.527530e+00 1.238233e+00 1.203830e+00 1.031676e+00 1.183087e+00 1.275971e+00 6.884773e-01 1.194625e+00
<GCONST> 1.548855e+02
<TRANSP> 5
 0.000000e+00 1.000000e+00 0.000000e+00 0.000000e+00 0.000000e+00
 0.000000e+00 2.582785e-01 7.417215e-01 0.000000e+00 0.000000e+00
 0.000000e+00 0.000000e+00 2.166870e-01 7.833130e-01 0.000000e+00
 0.000000e+00 0.000000e+00 0.000000e+00 5.764466e-01 4.235535e-01
 0.000000e+00 0.000000e+00 0.000000e+00 0.000000e+00 0.000000e+00
<ENDHMM>
~h "l"
<BEGINHMM>
<NUMSTATES> 5
<STATE> 2
<MEAN> 39
 -2.744764e+00 -1.212123e+01 2.882714e-01 -1.523767e+01 -3.588851e+00 -9.049541e+00 -1.701014e+01 -8.413277e+00 -7.743131e+00 -4.428475e+00 -1.252219e+01 -2.109934e+00 5.446912e+01 6.521702e-01 -6.728543e-01 1.059887e-01 -8.665634e-01 3.345079e-01 -5.700439e-03 -5.794958e-01 2.186409e-01 1.521919e-01 4.156811e-01 -7.105755e-01 2.202752e-01 9.101252e-01 -1.390569e-01 1.630657e-01 -7.687934e-02 1.199549e-01 3.100156e-02 1.560437e-01 2.992233e-01 4.693387e-02 -1.161992e-01 -5.328873e-02 2.102581e-02 -1.517371e-01 -1.857795e-01
<VARIANCE> 39
 3.899459e+01 7.781759e+01 8.672070e+01 8.854742e+01 9.205821e+01 9.571597e+01 8.335202e+01 8.419743e+01 6.031260e+01 9.196736e+01 5.323654e+01 7.493908e+01 7.119950e+01 3.584657e+00 6.317690e+00 4.718862e+00 6.634132e+00 7.007417e+00 6.486294e+00 7.606031e+00 6.056530e+00 3.857319e+00 5.776518e+00 5.243526e+00 4.895588e+00 7.357528e+00 4.349767e-01 8.947095e-01 7.173229e-01 8.489344e-01 1.050281e+00 1.028188e+00 1.246114e+00 1.252124e+00 6.103313e-01 1.121339e+00 9.031588e-01 1.021478e+00 9.578208e-01
<GCONST> 1.488936e+02
<STATE> 3
<MEAN> 39
 -1.986321e+00 -1.440743e+01 2.879120e+00 -1.903829e+01 -2.277625e+00 -1.194261e+01 -1.639030e+01 -6.109795e+00 -8.866138e+00 -5.917218e+00 -1.404866e+01 2.733291e-01 5.703190e+01 -8.860592e-03 5.360680e-01 -5.442430e-02 -6.896870e-02 1.179847e-01 -5.922326e-02 1.324792e-01 -4.144890e-01 -3.317933e-01 1.783392e-01 1.842345e-01 -3.589561e-01 -2.719336e-01 -4.347264e-02 1.856438e-01 -9.660489e-02 1.531874e-01 -1.749896e-01 3.514157e-02 1.089625e-01 -1.276045e-01 -1.260204e-02 -3.921218e-02 1.779464e-01 -1.110426e-01 -1.202512e-01
<VARIANCE> 39
 1.998883e+01 4.721864e+01 6.176344e+01 9.924397e+01 1.203302e+02 1.010595e+02 6.679272e+01 7.802954e+01 9.511343e+01 8.489855e+01 5.514268e+01 4.824784e+01 2.954338e+01 1.323888e+00 2.185702e+00 2.196608e+00 4.483004e+00 4.896877e+00 4.195724e+00 5.113760e+00 4.872318e+00 4.668921e+00 4.327084e+00 3.198012e+00 3.190520e+00 1.681547e+00 2.093649e-01 3.645434e-01 3.488367e-01 7.309096e-01 6.970502e-01 8.094612e-01 8.204127e-01 9.108191e-01 7.411894e-01 8.442487e-01 5.801387e-01 6.784662e-01 2.702011e-01
<GCONST> 1.334046e+02
<STATE> 4
<MEAN> 39
 1.916900e-01 -8.925261e+00 -6.447455e+00 -1.771068e+01 -7.235532e-01 -5.250817e+00 -1.605828e+01 -1.060597e+01 -5.604024e+00 -4.741920e+00 -1.064727e+01 -5.472262e+00 5.262298e+01 -1.499089e-01 8.514813e-01 -3.404541e-01 6.764808e-01 -6.060630e-01 -1.758106e-01 4.857251e-01 -1.075039e-01 1.015708e-03 -3.533294e-01 3.049583e-01 -3.065890e-01 -8.674105e-01 -8.271720e-02 -3.118742e-02 5.236657e-02 1.057301e-01 -4.328012e-02 -3.348387e-02 6.306309e-02 2.976831e-02 -3.668811e-03 -5.140114e-02 -2.707041e-02 1.174405e-02 -1.719886e-02
<VARIANCE> 39
 3.470192e+01 9.091907e+01 6.257157e+01 1.196282e+02 8.870748e+01 1.156352e+02 7.479578e+01 5.800694e+01 7.417513e+01 5.061703e+01 5.975230e+01 5.025413e+01 5.514883e+01 1.492566e+00 2.112520e+00 2.118559e+00 4.178152e+00 3.572925e+00 3.795559e+00 3.592102e+00 3.531318e+00 3.692554e+00 3.237276e+00 3.439688e+00 2.412261e+00 9.609621e-01 1.996018e-01 2.777706e-01 3.014397e-01 5.954806e-01 5.967988e-01 5.066082e-01 5.386946e-01 5.794605e-01 6.917878e-01 5.699063e-01 6.492277e-01 4.077190e-01 1.279378e-01
<GCONST> 1.282611e+02
<TRANSP> 5
 0.000000e+00 1.000000e+00 0.000000e+00 0.000000e+00 0.000000e+00
 0.000000e+00 7.501367e-01 2.498632e-01 0.000000e+00 0.000000e+00
 0.000000e+00 0.000000e+00 7.882407e-01 2.117592e-01 0.000000e+00
 0.000000e+00 0.000000e+00 0.000000e+00 8.586352e-01 1.413648e-01
 0.000000e+00 0.000000e+00 0.000000e+00 0.000000e+00 0.000000e+00
<ENDHMM>
~h "m"
<BEGINHMM>
<NUMSTATES> 5
<STATE> 2
<MEAN> 39
 -6.157422e-01 -1.247265e+01 1.111667e+00 -1.196602e+01 -4.460538e+00 -1.057711e+01 -1.686220e+01 -7.132967e+00 -9.014401e+00 -8.581408e+00 -1.219658e+01 -4.835113e+00 5.464663e+01 8.379571e-01 5.616578e-01 -5.280349e-01 7.171175e-01 1.497700e-01 2.405207e-01 -9.215602e-01 -4.746386e-01 -4.666212e-01 9.019761e-02 -7.444598e-03 -1.588104e+00 -6.065726e-01 -9.713305e-02 1.474074e-01 -1.484490e-01 2.464488e-01 8.540217e-02 -2.667960e-03 1.885500e-02 -2.660592e-01 -1.241372e-01 2.054026e-02 2.184014e-01 5.899111e-02 -1.529217e-01
<VARIANCE> 39
 2.763861e+01 1.141569e+02 4.281372e+01 7.024916e+01 5.866623e+01 9.171298e+01 5.179673e+01 5.272617e+01 5.486283e+01 5.494709e+01 4.949541e+01 6.137004e+01 7.345056e+01 2.657946e+00 3.715574e+00 1.930245e+00 5.060393e+00 2.888180e+00 3.831186e+00 4.507504e+00 4.868074e+00 3.645070e+00 4.177653e+00 4.086165e+00 4.264251e+00 2.844580e+00 2.483715e-01 7.615414e-01 3.433335e-01 6.378936e-01 4.619589e-01 7.298234e-01 6.579213e-01 5.901694e-01 7.507474e-01 6.014485e-01 7.332988e-01 8.386571e-01 3.890581e-01
<GCONST> 1.338179e+02
<STATE> 3
<MEAN> 39
 2.864008e+00 -1.218550e+01 -4.171857e+00 -7.506107e+00 -1.330532e+00 -7.676549e+00 -2.099471e+01 -1.147215e+01 -1.188515e+01 -6.804075e+00 -8.455106e+00 -1.020814e+01 5.274997e+01 1.121486e-01 -1.741831e-01 -5.524581e-01 -1.101257e-01 6.307525e-01 5.860990e-01 -5.723710e-02 -2.462746e-02 -7.277410e-02 -1.852186e-01 1.542232e-01 -5.292594e-03 -8.812606e-03 -1.748588e-01 -6.289787e-02 7.345892e-02 -1.969894e-01 8.822728e-03 -5.699745e-03 1.741219e-01 1.111696e-01 1.361764e-01 -1.169178e-02 -1.088489e-01 2.701491e-01 4.769488e-02
<VARIANCE> 39
 2.846043e+01 8.099737e+01 4.985565e+01 9.534335e+01 6.246671e+01 7.322850e+01 6.825700e+01 8.196902e+01 4.716566e+01 5.253052e+01 5.633682e+01 5.610231e+01 4.344839e+01 1.785653e+00 3.893337e+00 2.309716e+00 9.476064e+00 3.729847e+00 4.331853e+00 3.929153e+00 5.402008e+00 3.938471e+00 3.391201e+00 3.970697e+00 2.958335e+00 2.491942e+00 2.046996e-01 3.866297e-01 2.882706e-01 1.152046e+00 6.200857e-01 6.730958e-01 7.015111e-01 9.185303e-01 6.457366e-01 6.079304e-01 7.456900e-01 4.941098e-01 1.802547e-01
<GCONST> 1.328219e+02
<STATE> 4
<MEAN> 39
 7.408342e-01 -1.134865e+01 -4.194655e+00 -1.172585e+01 -1.229203e+00 -5.062388e+00 -1.836406e+01 -9.110956e+00 -1.426376e+01 -1.029521e+01 -9.368605e+00 -4.694064e+00 5.325271e+01 -6.349000e-02 4.524937e-01 -1.870142e-01 -1.183967e-02 -1.875766e-01 -2.720430e-01 2.208341e-01 -1.259127e-01 4.322428e-02 6.749488e-02 1.453782e-01 1.646188e-01 -4.134900e-01 -3.495542e-02 3.860666e-02 3.886916e-02 -5.478575e-03 -1.106017e-01 -1.131751e-01 3.515845e-02 -1.594905e-02 8.593755e-02 1.040097e-02 1.415662e-03 6.466416e-02 -2.412585e-02
<VARIANCE> 39
 3.238084e+01 8.928510e+01 6.882108e+01 1.316837e+02 7.801151e+01 1.209939e+02 5.426025e+01 7.105248e+01 7.244543e+01 7.856549e+01 3.872616e+01 6.095569e+01 5.745314e+01 1.077985e+00 2.342309e+00 1.938766e+00 4.116227e+00 3.369383e+00 3.373893e+00 2.407954e+00 3.584774e+00 3.278398e+00 2.263645e+00 2.991206e+00 2.395149e+00 1.225912e+00 1.598694e-01 2.463634e-01 2.653341e-01 6.602462e-01 4.496123e-01 4.550705e-01 4.030462e-01 6.253339e-01 4.481086e-01 4.155739e-01 5.547412e-01 4.344521e-01 1.207453e-01
<GCONST> 1.252404e+02
<TRANSP> 5
 0.000000e+00 1.000000e+00 0.000000e+00 0.000000e+00 0.000000e+00
 0.000000e+00 5.388067e-01 4.611933e-01 0.000000e+00 0.000000e+00
 0.000000e+00 0.000000e+00 6.566544e-01 3.433456e-01 0.000000e+00
 0.000000e+00 0.000000e+00 0.000000e+00 8.261688e-01 1.738311e-01
 0.000000e+00 0.000000e+00 0.000000e+00 0.000000e+00 0.000000e+00
<ENDHMM>
~h "n"
<BEGINHMM>
<NUMSTATES> 5
<STATE> 2
<MEAN> 39
 -2.256841e+00 -9.159470e+00 2.345518e+00 -1.143269e+01 -9.190397e+00 -1.415435e+01 -1.134342e+01 -7.335319e+00 -1.359099e+01 -9.269504e+00 -7.522864e+00 2.005751e-01 5.247953e+01 5.998272e-01 6.888842e-01 -3.742381e-01 8.761971e-01 -2.363265e-01 -6.473763e-02 -2.064646e-01 -7.496325e-01 -3.921530e-01 -4.257461e-01 2.141104e-01 -2.805640e-01 -8.323280e-01 -1.830335e-02 1.091945e-01 -1.019775e-01 1.796738e-01 4.754329e-03 1.606826e-01 -3.833522e-02 -6.994409e-02 1.091968e-01 3.891040e-02 1.836106e-02 -9.513115e-02 -1.415623e-01
<VARIANCE> 39
 4.714477e+01 8.116861e+01 4.392752e+01 7.985966e+01 4.214685e+01 6.364576e+01 4.357991e+01 7.940681e+01 6.708626e+01 5.334982e+01 4.680154e+01 4.735932e+01 7.808823e+01 1.974717e+00 3.298867e+00 2.450492e+00 4.371420e+00 3.025404e+00 3.586318e+00 3.123306e+00 3.842349e+00 3.773241e+00 3.953267e+00 3.535686e+00 2.857153e+00 2.291391e+00 2.987502e-01 4.475648e-01 3.720554e-01 6.620452e-01 5.067562e-01 5.881622e-01 5.283260e-01 6.963602e-01 5.326358e-01 6.477556e-01 6.078661e-01 5.605391e-01 2.614841e-01
<GCONST> 1.302309e+02
<STATE> 3
<MEAN> 39
 4.721560e-01 -4.349286e+00 -3.024032e-01 -5.451699e+00 -9.883211e+00 -1.230226e+01 -1.258301e+01 -1.282638e+01 -1.535458e+01 -1.136448e+01 -6.041325e+00 -2.293889e+00 4.707465e+01 2.357527e-01 7.941157e-01 -5.452101e-01 9.994777e-01 -2.176562e-01 3.763660e-01 -1.988851e-01 -5.269573e-01 1.349948e-01 -2.843469e-01 3.637405e-01 -3.408119e-01 -1.005113e+00 -2.678710e-01 -4.706768e-03 3.965494e-02 -2.161069e-01 2.935223e-02 7.812387e-02 9.505620e-02 1.458790e-01 2.058877e-01 1.664330e-01 1.422266e-02 5.524342e-02 1.261685e-01
<VARIANCE> 39
 5.813819e+01 6.137889e+01 3.440915e+01 5.442090e+01 4.223355e+01 5.492713e+01 5.264056e+01 6.948543e+01 8.884091e+01 4.804101e+01 4.490823e+01 3.729923e+01 5.287391e+01 2.089516e+00 2.869066e+00 2.072953e+00 3.611047e+00 2.641668e+00 3.272669e+00 2.597539e+00 3.251092e+00 3.281546e+00 3.792426e+00 2.981286e+00 2.219647e+00 1.208586e+00 2.888296e-01 3.968130e-01 3.756220e-01 6.052749e-01 5.190697e-01 6.715702e-01 5.633234e-01 6.645777e-01 5.909319e-01 6.170030e-01 5.666814e-01 5.008353e-01 2.214703e-01
<GCONST> 1.263317e+02
<STATE> 4
<MEAN> 39
 -2.197171e+00 -2.469468e-01 -1.918814e+00 -3.651219e+00 -9.096083e+00 -9.980258e+00 -1.232709e+01 -1.311262e+01 -1.142926e+01 -1.016758e+01 -4.499960e+00 -2.819263e+00 4.174874e+01 -6.332871e-01 2.816529e-01 -2.992297e-01 1.940467e-01 1.422610e-01 4.377040e-01 1.722618e-01 1.218993e-01 4.526647e-01 2.150671e-01 8.546806e-02 -1.585538e-01 -5.769691e-01 -1.910680e-01 -1.194024e-01 8.885746e-02 -1.895139e-01 8.789553e-02 -8.037713e-02 2.609120e-02 4.357392e-02 7.788122e-02 8.524783e-02 -5.624560e-02 5.835754e-02 2.340700e-01
<VARIANCE> 39
 7.221227e+01 5.424537e+01 2.976420e+01 4.149849e+01 3.702104e+01 5.096513e+01 6.302638e+01 6.593366e+01 8.158427e+01 4.428986e+01 4.046804e+01 2.750405e+01 6.316969e+01 2.177068e+00 3.415475e+00 2.329137e+00 2.985222e+00 2.641563e+00 3.918024e+00 3.230050e+00 3.944882e+00 4.034150e+00 3.442734e+00 2.837051e+00 2.442644e+00 1.597943e+00 3.904216e-01 4.502444e-01 4.389000e-01 6.399560e-01 5.053498e-01 7.283008e-01 6.450189e-01 7.399115e-01 6.924320e-01 6.295409e-01 5.534489e-01 4.772876e-01 3.528035e-01
<GCONST> 1.282092e+02
<TRANSP> 5
 0.000000e+00 1.000000e+00 0.000000e+00 0.000000e+00 0.000000e+00
 0.000000e+00 6.380860e-01 3.619140e-01 0.000000e+00 0.000000e+00
 0.000000e+00 0.000000e+00 5.422817e-01 4.577183e-01 0.000000e+00
 0.000000e+00 0.000000e+00 0.000000e+00 6.932145e-01 3.067855e-01
 0.000000e+00 0.000000e+00 0.000000e+00 0.000000e+00 0.000000e+00
<ENDHMM>
~h "p"
<BEGINHMM>
<NUMSTATES> 5
<STATE> 2
<MEAN> 39
 -5.126432e+00 -6.243904e+00 -5.697732e+00 -7.877266e+00 -6.831709e+00 -7.653214e+00 -7.930690e+00 -7.616583e+00 -6.661109e+00 -8.113649e+00 -1.238741e+01 -7.516516e+00 4.756833e+01 -1.259909e-01 4.936822e-01 -7.334211e-01 7.546519e-01 5.442767e-01 4.515644e-01 1.182390e-01 -5.503641e-01 -5.562304e-02 5.517031e-02 1.661799e-01 -6.468520e-04 -1.180716e+00 -1.234999e-01 -1.836156e-02 1.717328e-01 -1.623470e-01 7.312828e-02 2.253183e-01 -2.672725e-01 -1.294183e-01 -1.580796e-01 -3.830033e-02 2.732336e-02 9.765234e-02 -2.495680e-02
<VARIANCE> 39
 1.028484e+02 1.387907e+02 1.000402e+02 7.192487e+01 9.679401e+01 8.689243e+01 6.831592e+01 7.656394e+01 4.851994e+01 8.666702e+01 5.870383e+01 3.872458e+01 8.434100e+01 1.165778e+00 2.273653e+00 3.120528e+00 1.870100e+00 3.660147e+00 2.260160e+00 2.806884e+00 3.489337e+00 3.589756e+00 3.029055e+00 2.655448e+00 1.476898e+00 1.629720e+00 2.894759e-01 4.155544e-01 3.611656e-01 5.355259e-01 6.156628e-01 4.891406e-01 4.666955e-01 4.975846e-01 6.975527e-01 4.927294e-01 5.197819e-01 3.226295e-01 2.250376e-01
<GCONST> 1.288407e+02
<STATE> 3
<MEAN> 39
 -2.692556e+00 -6.779190e+00 -8.825909e+00 -6.991023e+00 -4.150067e+00 -4.185098e+00 -1.044455e+01 -9.019602e+00 -7.264258e+00 -6.546413e+00 -1.174395e+01 -7.559465e+00 4.580641e+01 -3.062395e-01 6.490568e-01 -9.468095e-02 1.774078e-01 -1.633948e-01 1.018624e-01 -4.615396e-03 -1.277486e-01 -1.988216e-01 -2.739282e-01 2.048354e-01 8.381188e-02 -1.104712e+00 -9.167605e-02 -7.324506e-02 9.606960e-02 -1.884688e-01 -8.294953e-02 -1.055645e-01 -1.957844e-02 1.624995e-01 2.075382e-02 3.465090e-02 1.018181e-01 -2.215383e-02 5.978641e-02
<VARIANCE> 39
 8.947160e+01 1.587691e+02 6.881177e+01 4.323896e+01 8.194048e+01 6.786851e+01 7.987186e+01 8.681518e+01 3.918233e+01 1.067235e+02 5.447050e+01 2.968525e+01 7.552365e+01 1.021370e+00 2.122757e+00 1.974805e+00 1.867777e+00 3.344647e+00 2.729990e+00 1.679516e+00 3.008339e+00 2.970911e+00 3.185713e+00 2.526101e+00 1.238622e+00 9.580116e-01 2.135515e-01 2.306989e-01 2.742239e-01 2.601824e-01 4.881671e-01 3.601765e-01 4.912665e-01 6.217948e-01 4.589561e-01 5.669866e-01 5.465891e-01 3.596428e-01 1.418838e-01
<GCONST> 1.225111e+02
<STATE> 4
<MEAN> 39
 -1.207944e+01 -3.063179e+00 -7.742431e+00 -4.333358e+00 -5.234739e+00 -3.805900e+00 -6.783734e+00 -8.708690e+00 -5.069213e+00 -8.763424e+00 -7.014328e+00 -4.789276e+00 3.441274e+01 -4.451804e-01 -2.733783e-01 3.259724e-02 -1.103968e-01 2.532766e-02 1.966183e-02 1.629663e-01 4.344209e-01 2.166528e-01 1.966720e-01 3.221460e-01 1.086695e-01 -6.714644e-01 5.250813e-02 -1.507094e-01 5.815491e-02 -7.269420e-02 1.965217e-02 -1.441655e-02 -1.069195e-01 1.628218e-02 -3.421570e-02 7.998532e-02 2.124474e-02 8.099665e-02 1.873191e-01
<VARIANCE> 39
 5.183277e+01 5.135670e+01 4.639853e+01 3.460630e+01 4.442775e+01 3.443137e+01 5.308081e+01 5.457803e+01 4.841647e+01 5.151404e+01 6.176663e+01 3.535382e+01 5.572630e+01 1.429386e+00 1.454045e+00 1.854370e+00 1.614487e+00 2.108217e+00 1.830599e+00 3.637397e+00 3.066524e+00 2.267024e+00 3.462101e+00 3.291264e+00 2.012723e+00 1.343442e+00 2.116001e-01 2.096693e-01 3.236377e-01 4.354611e-01 5.528876e-01 3.653895e-01 7.501950e-01 7.395457e-01 5.196392e-01 7.377809e-01 7.359084e-01 4.470361e-01 2.589983e-01
<GCONST> 1.209326e+02
<TRANSP> 5
 0.000000e+00 1.000000e+00 0.000000e+00 0.000000e+00 0.000000e+00
 0.000000e+00 4.499066e-01 5.500934e-01 0.000000e+00 0.000000e+00
 0.000000e+00 0.000000e+00 6.498104e-01 3.501896e-01 0.000000e+00
 0.000000e+00 0.000000e+00 0.000000e+00 7.467504e-01 2.532496e-01
 0.000000e+00 0.000000e+00 0.000000e+00 0.000000e+00 0.000000e+00
<ENDHMM>
~h "r"
<BEGINHMM>
<NUMSTATES> 5
<STATE> 2
<MEAN> 39
 -1.008176e+01 -8.683573e+00 -1.974835e+00 -3.711373e+00 -4.473882e+00 -9.997856e+00 -1.305637e+01 -9.905666e+00 -3.638912e+00 -5.854046e+00 -4.406408e+00 -1.054204e+00 4.519867e+01 2.520770e+00 -1.418252e+00 -5.292002e-01 -2.261456e-01 2.165198e-01 -9.387816e-01 -1.367470e+00 -3.616782e-01 -5.785499e-01 2.853287e-01 -1.370858e-01 4.076127e-01 2.096724e+00 1.562608e-01 -1.855949e-01 -8.535266e-03 -1.710683e-01 -6.263359e-02 1.839518e-01 2.166369e-01 1.983777e-01 -2.553177e-01 -7.466856e-03 -2.833586e-01 -1.695728e-01 2.384951e-01
<VARIANCE> 39
 1.387002e+02 6.181165e+01 8.435805e+01 6.744178e+01 6.161834e+01 8.697442e+01 1.027516e+02 8.071017e+01 8.557705e+01 4.628439e+01 4.903901e+01 3.659208e+01 7.619466e+01 1.297042e+01 8.687608e+00 8.438299e+00 8.329300e+00 8.118525e+00 1.034656e+01 1.294403e+01 1.126083e+01 8.766923e+00 5.050104e+00 7.010518e+00 5.010623e+00 9.377758e+00 2.166917e+00 1.506943e+00 1.477269e+00 1.591994e+00 1.455609e+00 2.002911e+00 2.576942e+00 2.156235e+00 1.287791e+00 8.981340e-01 1.163018e+00 9.502034e-01 1.574755e+00
<GCONST> 1.606004e+02
<STATE> 3
<MEAN> 39
 -1.330832e+00 -1.324368e+01 -2.848102e+00 -8.427153e+00 -5.713209e+00 -1.205285e+01 -1.466757e+01 -9.446011e+00 -9.804276e+00 -5.412816e+00 -9.133400e+00 -2.522909e+00 5.551555e+01 -3.901328e-01 -5.453939e-01 4.473185e-01 -3.583880e-01 -3.362586e-01 7.864959e-01 7.503086e-01 7.959644e-01 -5.354878e-01 1.088861e-02 -3.836424e-01 -5.895382e-01 8.802273e-01 -4.323623e-01 4.007574e-01 1.439691e-01 -1.159103e-02 -1.623809e-01 1.699936e-01 1.422631e-01 -2.163593e-02 1.284601e-01 -1.646923e-02 7.666546e-02 -1.617549e-01 -3.654839e-01
<VARIANCE> 39
 6.772159e+01 1.391436e+02 1.941160e+02 1.024752e+02 9.308436e+01 1.097483e+02 6.416338e+01 6.285927e+01 6.992217e+01 6.502467e+01 8.324441e+01 5.107585e+01 3.575790e+01 4.725161e+00 1.188425e+01 1.073535e+01 7.606338e+00 5.432539e+00 7.500718e+00 6.542036e+00 5.698402e+00 6.534127e+00 6.299357e+00 5.231010e+00 4.699804e+00 3.061589e+00 1.039571e+00 1.445748e+00 1.441300e+00 1.224957e+00 1.056024e+00 1.435415e+00 1.276933e+00 1.116536e+00 1.110219e+00 1.094886e+00 9.894565e-01 8.445595e-01 5.265483e-01
<GCONST> 1.535300e+02
<STATE> 4
<MEAN> 39
 -3.028547e+00 -1.111901e+01 -1.901318e+00 -8.387933e+00 -6.720356e+00 -1.006629e+01 -1.324650e+01 -8.449955e+00 -1.061307e+01 -8.077632e+00 -9.778009e+00 -5.551109e+00 5.428640e+01 -1.417151e-01 3.669546e-01 1.011099e-01 -5.594996e-02 -2.334667e-01 -2.803178e-02 1.548995e-01 3.835601e-02 4.897856e-02 -1.858173e-01 -2.629104e-02 -2.301771e-01 -1.911161e-01 -3.454941e-02 7.563342e-02 3.745097e-02 -1.286996e-02 4.215872e-02 -1.980561e-02 -8.343043e-03 -9.528590e-02 1.199409e-02 3.143850e-03 1.808988e-03 5.807994e-02 -6.735332e-02
<VARIANCE> 39
 8.377610e+01 1.639190e+02 1.138449e+02 7.411661e+01 8.324263e+01 7.793390e+01 5.968381e+01 7.103703e+01 6.221389e+01 5.919765e+01 5.837248e+01 5.530298e+01 4.702173e+01 4.302183e+00 7.427822e+00 5.795749e+00 5.573860e+00 5.194549e+00 5.277102e+00 4.692100e+00 4.844254e+00 4.529374e+00 4.266998e+00 4.512836e+00 4.198066e+00 2.744186e+00 5.968373e-01 9.790653e-01 7.474285e-01 8.816464e-01 9.457608e-01 8.736799e-01 9.262208e-01 8.791083e-01 8.207082e-01 7.679405e-01 8.209317e-01 8.067452e-01 3.940074e-01
<GCONST> 1.446479e+02
<TRANSP> 5
 0.000000e+00 1.000000e+00 0.000000e+00 0.000000e+00 0.000000e+00
 0.000000e+00 8.125458e-01 1.874541e-01 0.000000e+00 0.000000e+00
 0.000000e+00 0.000000e+00 7.328175e-01 2.671825e-01 0.000000e+00
 0.000000e+00 0.000000e+00 0.000000e+00 9.058979e-01 9.410210e-02
 0.000000e+00 0.000000e+00 0.000000e+00 0.000000e+00 0.000000e+00
<ENDHMM>
~h "s"
<BEGINHMM>
<NUMSTATES> 5
<STATE> 2
<MEAN> 39
 -1.284910e+01 5.553176e+00 -8.993258e+00 -1.651409e+00 -9.008820e+00 -9.090588e+00 -7.406005e+00 -1.112126e+01 -4.746888e+00 -7.769758e+00 -4.226033e+00 -4.887589e+00 4.412023e+01 -2.336582e+00 1.183716e+00 -7.127765e-01 8.808621e-01 7.911986e-01 1.550830e-01 8.351288e-01 -9.927285e-02 9.184740e-01 3.542114e-01 7.324150e-01 5.709990e-02 4.130282e-01 -6.577269e-02 -3.628778e-01 2.514794e-01 -2.944111e-01 2.539997e-01 -1.772854e-01 -6.168415e-02 3.212943e-02 -1.124332e-01 -4.613509e-02 -1.344134e-01 1.278630e-01 4.131283e-01
<VARIANCE> 39
 1.104376e+02 7.720721e+01 6.763371e+01 7.323232e+01 6.143943e+01 6.705809e+01 6.773141e+01 4.689906e+01 4.754498e+01 3.841895e+01 4.585185e+01 3.725674e+01 8.272524e+01 5.454642e+00 6.901226e+00 5.558526e+00 3.759464e+00 4.953546e+00 4.931407e+00 6.303456e+00 4.642500e+00 4.156615e+00 3.650748e+00 4.644978e+00 2.666229e+00 2.154730e+00 1.015653e+00 1.021972e+00 9.354929e-01 6.088718e-01 1.050826e+00 9.287690e-01 1.169369e+00 8.336996e-01 8.778187e-01 7.600562e-01 7.612910e-01 5.897664e-01 5.532166e-01
<GCONST> 1.418629e+02
<STATE> 3
<MEAN> 39
 -1.629979e+01 4.259160e+00 -8.055504e+00 -4.796216e+00 -4.767471e+00 -1.134870e+01 -8.212426e+00 -1.186057e+01 -4.171781e+00 -7.820039e+00 -4.528614e+00 -3.186835e+00 4.893435e+01 -4.414011e-01 -1.052736e+00 1.651040e-01 -6.888336e-01 8.540004e-01 7.149175e-03 -1.420890e-01 2.302714e-01 5.140615e-02 8.844860e-02 -2.255920e-01 3.622355e-01 1.450573e+00 5.500365e-01 -4.949070e-01 2.290977e-01 -1.710038e-01 -2.032579e-01 2.408365e-01 -2.297300e-01 1.907796e-01 -2.533212e-01 6.346509e-03 -3.057572e-01 -6.442182e-03 -3.367510e-02
<VARIANCE> 39
 1.029858e+02 1.443397e+02 7.026407e+01 8.316003e+01 7.599529e+01 9.646970e+01 7.409366e+01 6.076708e+01 5.521785e+01 4.448823e+01 5.267408e+01 4.374957e+01 6.609494e+01 1.392974e+01 1.396369e+01 7.982377e+00 8.455680e+00 8.382266e+00 7.382796e+00 7.983213e+00 6.615311e+00 5.971153e+00 5.214527e+00 6.069698e+00 4.619607e+00 5.702998e+00 1.641900e+00 1.556967e+00 1.290465e+00 1.162277e+00 1.554126e+00 1.320958e+00 1.400195e+00 1.277294e+00 1.077079e+00 1.036618e+00 1.202702e+00 8.967154e-01 7.422317e-01
<GCONST> 1.556293e+02
<STATE> 4
<MEAN> 39
 -2.179645e+01 3.458291e+00 -1.104660e+01 -6.957710e-01 -3.466635e+00 -5.528087e+00 -3.082830e+00 -8.137895e+00 -1.869531e+00 -6.264245e+00 -2.349278e+00 -2.753750e+00 4.403203e+01 6.208689e-01 -1.024157e+00 5.847464e-01 -4.871013e-01 -1.463854e-01 2.270656e-01 -3.136093e-01 3.527877e-02 -2.897536e-01 -5.200477e-02 -2.513099e-01 2.112067e-01 -4.386585e-03 2.056749e-01 -7.154539e-02 1.150930e-01 -1.193791e-01 -8.702222e-02 -7.088259e-02 -6.119058e-02 -6.627753e-02 -8.028947e-02 -1.503696e-02 -1.323924e-01 1.104464e-02 -3.634951e-02
<VARIANCE> 39
 6.734753e+01 1.055138e+02 6.041875e+01 7.650566e+01 5.683012e+01 8.398011e+01 6.929678e+01 5.435899e+01 4.557766e+01 4.040189e+01 4.954524e+01 2.461344e+01 8.938979e+01 3.873230e+00 3.551527e+00 3.707884e+00 5.292284e+00 4.850399e+00 5.734160e+00 5.318429e+00 4.187517e+00 3.925370e+00 4.118960e+00 4.598740e+00 2.596072e+00 3.943470e+00 6.689366e-01 5.878415e-01 4.946795e-01 8.498285e-01 8.518431e-01 1.096031e+00 1.015414e+00 8.438066e-01 7.611118e-01 7.831026e-01 9.583799e-01 4.924411e-01 4.349462e-01
<GCONST> 1.393446e+02
<TRANSP> 5
 0.000000e+00 1.000000e+00 0.000000e+00 0.000000e+00 0.000000e+00
 0.000000e+00 5.558728e-01 4.441271e-01 0.000000e+00 0.000000e+00
 0.000000e+00 0.000000e+00 7.258494e-01 2.741506e-01 0.000000e+00
 0.000000e+00 0.000000e+00 0.000000e+00 8.164904e-01 1.835096e-01
 0.000000e+00 0.000000e+00 0.000000e+00 0.000000e+00 0.000000e+00
<ENDHMM>
~h "t"
<BEGINHMM>
<NUMSTATES> 5
<STATE> 2
<MEAN> 39
 -8.130442e+00 -2.400058e+00 -1.789803e+00 -7.159029e+00 -8.444943e+00 -1.099257e+01 -1.092706e+01 -9.564274e+00 -7.405667e+00 -8.900115e+00 -7.294753e+00 -4.395408e+00 4.291370e+01 -3.071662e-02 -6.525846e-01 4.138409e-01 -7.211093e-01 -4.388111e-02 -1.382550e-01 -2.414679e-01 -4.964959e-02 1.634450e-01 4.587627e-01 3.336649e-01 4.708142e-01 1.048656e+00 1.214054e-02 -3.529129e-01 3.083768e-02 -2.596063e-01 1.645580e-01 1.573847e-01 7.098904e-02 1.017382e-01 7.525567e-03 2.462017e-01 -3.128827e-02 3.400463e-02 4.766689e-01
<VARIANCE> 39
 7.270078e+01 6.095169e+01 6.734770e+01 6.940895e+01 6.486882e+01 5.839532e+01 8.744547e+01 7.679020e+01 5.076550e+01 6.356971e+01 5.690145e+01 4.766560e+01 9.980038e+01 9.142265e+00 7.587925e+00 6.456776e+00 7.410927e+00 6.814399e+00 5.619704e+00 7.696068e+00 7.230224e+00 4.895157e+00 5.579967e+00 6.212777e+00 4.091735e+00 1.062916e+01 1.303261e+00 7.831836e-01 9.004085e-01 9.562884e-01 1.105041e+00 1.008861e+00 1.308232e+00 1.257729e+00 8.734320e-01 9.336537e-01 1.122877e+00 8.320422e-01 1.254876e+00
<GCONST> 1.512744e+02
<STATE> 3
<MEAN> 39
 -8.026748e+00 -6.210751e+00 3.307791e-01 -1.132750e+01 -9.109961e+00 -1.022623e+01 -1.126697e+01 -8.992658e+00 -7.311174e+00 -6.940906e+00 -7.809387e+00 -3.163425e+00 5.009414e+01 -1.953954e-01 -6.311873e-01 2.190481e-01 -3.458902e-01 1.400410e-01 2.848628e-01 4.098878e-01 1.423218e-01 -2.323170e-02 3.651842e-01 -1.475819e-01 -1.754024e-02 1.284992e+00 -4.486960e-02 1.756468e-01 -5.185646e-02 3.073227e-01 2.085238e-01 1.105705e-01 -1.119441e-02 -5.714919e-02 -1.040045e-01 3.490582e-02 -5.794396e-02 -1.201536e-01 -3.440117e-01
<VARIANCE> 39
 8.876722e+01 1.001093e+02 1.187512e+02 8.074777e+01 7.035787e+01 6.251788e+01 9.838926e+01 6.810575e+01 4.952988e+01 6.473201e+01 6.239750e+01 5.494021e+01 8.538721e+01 7.526647e+00 1.004962e+01 6.851645e+00 6.295585e+00 4.326135e+00 5.669433e+00 5.649641e+00 6.313808e+00 4.834214e+00 6.040954e+00 7.418149e+00 5.456899e+00 1.090956e+01 1.295301e+00 1.209666e+00 1.083531e+00 9.540101e-01 9.551393e-01 9.288951e-01 1.270026e+00 1.095011e+00 9.557034e-01 1.137785e+00 1.268715e+00 9.166960e-01 1.182796e+00
<GCONST> 1.532209e+02
<STATE> 4
<MEAN> 39
 -1.034301e+01 -6.835873e+00 -2.100811e+00 -9.286502e+00 -8.103704e+00 -8.695326e+00 -6.787915e+00 -5.507474e+00 -6.049946e+00 -6.687134e+00 -5.721843e+00 -3.371991e+00 4.589180e+01 -1.685118e-01 -8.655994e-02 1.594500e-01 3.780590e-01 4.186513e-01 3.214093e-01 -1.249538e-01 -1.077223e-01 -5.542943e-02 1.859902e-01 -3.054943e-04 -7.981406e-02 -4.863496e-01 2.738668e-02 1.523076e-01 -6.058496e-02 9.085745e-02 5.216608e-02 1.655960e-03 -3.037214e-01 -1.767254e-01 -4.160749e-02 -8.738390e-02 1.401905e-03 -5.646001e-03 -9.366708e-02
<VARIANCE> 39
 1.070477e+02 1.344178e+02 8.737494e+01 6.111556e+01 6.673795e+01 5.854698e+01 8.727757e+01 6.610699e+01 4.683470e+01 5.493469e+01 5.691821e+01 5.664758e+01 1.180862e+02 3.029780e+00 3.737228e+00 2.933695e+00 3.098288e+00 3.515183e+00 4.297752e+00 4.176937e+00 3.480232e+00 3.260375e+00 3.516249e+00 3.221514e+00 2.839653e+00 3.446930e+00 7.540774e-01 7.269275e-01 5.217437e-01 5.547706e-01 5.285568e-01 8.349130e-01 8.591468e-01 7.230453e-01 6.211059e-01 7.471901e-01 7.835783e-01 5.748695e-01 8.357147e-01
<GCONST> 1.385043e+02
<TRANSP> 5
 0.000000e+00 1.000000e+00 0.000000e+00 0.000000e+00 0.000000e+00
 0.000000e+00 5.991986e-01 4.008014e-01 0.000000e+00 0.000000e+00
 0.000000e+00 0.000000e+00 5.175789e-01 4.824211e-01 0.000000e+00
 0.000000e+00 0.000000e+00 0.000000e+00 5.090747e-01 4.909253e-01
 0.000000e+00 0.000000e+00 0.000000e+00 0.000000e+00 0.000000e+00
<ENDHMM>
~h "v"
<BEGINHMM>
<NUMSTATES> 5
<STATE> 2
<MEAN> 39
 -9.574934e+00 -3.526855e+00 -5.725083e+00 -7.815273e+00 -2.931535e+00 -1.130015e+01 -1.053274e+01 -9.545318e+00 -3.555256e+00 -4.973966e+00 -4.594505e+00 -2.792223e+00 4.615806e+01 7.997907e-01 -9.141429e-01 1.258569e-01 -7.658184e-01 3.621003e-01 2.513347e-01 -9.728557e-01 -3.959964e-01 -1.351589e-01 1.787114e-01 -1.573135e-01 2.145213e-01 1.571493e+00 2.459040e-01 -2.571157e-01 3.346965e-02 -7.442256e-02 -5.263825e-02 1.362920e-01 -3.455614e-02 1.379715e-01 -1.651044e-01 -9.571653e-02 -3.257218e-01 -2.570307e-01 3.175887e-01
<VARIANCE> 39
 1.369381e+02 1.101233e+02 9.163416e+01 1.067435e+02 9.205297e+01 1.062089e+02 7.577094e+01 8.031306e+01 8.463786e+01 5.461759e+01 5.485582e+01 3.631223e+01 8.767104e+01 1.231144e+01 1.013484e+01 8.900509e+00 1.111353e+01 1.209697e+01 1.392713e+01 1.021809e+01 8.224297e+00 7.223587e+00 7.676665e+00 7.256432e+00 4.385155e+00 8.153316e+00 1.529681e+00 1.266988e+00 1.430234e+00 1.884829e+00 2.306274e+00 1.904276e+00 1.850319e+00 1.538642e+00 1.070558e+00 1.324834e+00 1.339030e+00 7.991285e-01 1.224812e+00
<GCONST> 1.622494e+02
<STATE> 3
<MEAN> 39
 -6.833861e-01 -1.254739e+01 -6.664827e+00 -1.414101e+01 -2.255901e+00 -5.463465e+00 -1.499437e+01 -1.013771e+01 -7.100584e+00 -6.606421e+00 -1.166675e+01 -5.682850e+00 5.534229e+01 5.588745e-01 -1.115978e+00 -1.974935e-01 -3.073615e-01 5.022609e-01 1.030141e+00 4.136797e-02 3.061131e-01 -5.912988e-01 -1.826453e-01 -9.006571e-01 -1.145505e+00 1.521716e+00 -6.127064e-01 5.579332e-01 3.319563e-02 5.210774e-01 -1.184707e-01 -2.144375e-01 3.882903e-01 2.940671e-01 2.569300e-02 2.294425e-03 2.731647e-01 5.472106e-02 -5.923957e-01
<VARIANCE> 39
 4.280862e+01 7.893288e+01 7.693690e+01 7.942350e+01 5.371940e+01 1.253235e+02 5.665950e+01 6.715192e+01 9.141035e+01 7.227846e+01 7.411848e+01 5.052633e+01 3.678450e+01 7.274277e+00 1.119161e+01 5.265645e+00 7.007039e+00 5.505462e+00 1.114562e+01 5.808547e+00 6.917100e+00 5.448392e+00 7.242641e+00 6.230091e+00 4.862707e+00 4.458227e+00 7.695658e-01 1.286240e+00 8.247973e-01 1.078972e+00 1.187647e+00 1.961529e+00 8.304906e-01 1.503603e+00 1.022327e+00 1.465181e+00 1.125715e+00 1.033908e+00 7.749962e-01
<GCONST> 1.518488e+02
<STATE> 4
<MEAN> 39
 -1.215146e+00 -1.232349e+01 -6.739710e+00 -1.289516e+01 -4.861513e+00 -2.366329e+00 -1.142365e+01 -7.840047e+00 -7.484783e+00 -9.425980e+00 -1.031586e+01 -8.226914e+00 5.314454e+01 -4.018352e-01 6.118089e-01 2.848747e-01 3.103835e-01 -3.000044e-01 -4.465516e-01 3.410652e-01 2.646155e-01 -3.595137e-02 -2.833000e-01 -4.133894e-02 -8.510432e-02 -5.297530e-01 -9.434215e-02 8.628216e-02 3.219765e-02 6.144285e-03 -4.132470e-02 -1.120583e-01 2.394782e-03 -6.819528e-02 6.543025e-02 5.532151e-02 7.621299e-02 1.038037e-01 -1.035237e-01
<VARIANCE> 39
 5.972907e+01 1.186935e+02 6.776920e+01 7.570583e+01 4.955808e+01 1.054381e+02 9.149101e+01 7.651046e+01 4.810121e+01 6.673619e+01 6.494422e+01 4.751793e+01 6.448134e+01 2.802433e+00 4.454265e+00 3.084500e+00 3.731262e+00 4.081585e+00 4.057165e+00 4.932992e+00 4.424811e+00 3.488412e+00 4.332606e+00 4.150356e+00 3.411417e+00 2.440732e+00 4.206284e-01 6.153319e-01 5.072808e-01 6.745558e-01 7.162829e-01 6.771375e-01 9.361110e-01 7.240010e-01 6.172874e-01 8.068877e-01 7.084143e-01 6.492414e-01 3.949735e-01
<GCONST> 1.379532e+02
<TRANSP> 5
 0.000000e+00 1.000000e+00 0.000000e+00 0.000000e+00 0.000000e+00
 0.000000e+00 8.205445e-01 1.794555e-01 0.000000e+00 0.000000e+00
 0.000000e+00 0.000000e+00 6.293252e-01 3.706748e-01 0.000000e+00
 0.000000e+00 0.000000e+00 0.000000e+00 9.156384e-01 8.436156e-02
 0.000000e+00 0.000000e+00 0.000000e+00 0.000000e+00 0.000000e+00
<ENDHMM>
~h "w"
<BEGINHMM>
<NUMSTATES> 5
<STATE> 2
<MEAN> 39
 -6.180042e+00 -9.005342e+00 -2.331373e+00 -1.216759e+01 -7.111212e+00 -1.101176e+01 -1.106030e+01 -6.990223e+00 -1.002622e+01 -5.206849e+00 -6.700464e+00 -2.784235e+00 5.039382e+01 -7.348917e-03 -2.072029e-01 -9.878265e-02 6.135023e-01 -1.252190e-01 1.466068e-01 1.202541e-01 -1.434600e-01 -5.374603e-01 -3.800657e-01 1.779897e-01 -9.767639e-02 -6.101167e-01 7.656533e-02 2.894536e-01 -1.817273e-01 1.986587e-01 9.134650e-03 1.257755e-01 -5.866101e-02 -3.063505e-01 1.585381e-01 -7.585853e-02 -7.165700e-02 -1.974107e-01 -3.147425e-01
<VARIANCE> 39
 9.170977e+01 1.681155e+02 8.673096e+01 8.759813e+01 8.696185e+01 5.568031e+01 4.578250e+01 9.573559e+01 5.645749e+01 1.037581e+02 5.804345e+01 4.117185e+01 1.553809e+02 1.319954e+00 2.023577e+00 1.762098e+00 1.906899e+00 2.482467e+00 2.806035e+00 3.552623e+00 2.811748e+00 3.627898e+00 2.999357e+00 3.625397e+00 2.849339e+00 2.561201e+00 2.256807e-01 4.423791e-01 2.632071e-01 3.671906e-01 3.981727e-01 3.742287e-01 5.544468e-01 7.331617e-01 6.307904e-01 6.117339e-01 5.545782e-01 4.089573e-01 4.968804e-01
<GCONST> 1.301464e+02
<STATE> 3
<MEAN> 39
 -3.393301e+00 -1.072038e+01 -5.775062e+00 -7.812151e+00 -5.987719e+00 -1.191387e+01 -1.324465e+01 -6.726011e+00 -1.239948e+01 -8.713944e+00 -4.379718e+00 -4.752748e+00 4.889707e+01 9.347723e-02 1.702467e-01 -3.519880e-01 4.644450e-01 7.959861e-02 2.730142e-01 5.365697e-02 -5.008831e-01 2.787043e-01 -1.995960e-01 -3.613612e-01 -2.535524e-01 -7.315352e-01 3.519904e-03 1.085590e-01 -1.484776e-02 -5.342354e-02 -3.409943e-02 7.834222e-02 5.140210e-02 -1.655035e-02 1.959641e-01 3.718573e-02 -3.794440e-02 9.831619e-04 4.162557e-03
<VARIANCE> 39
 8.700403e+01 1.939313e+02 8.393570e+01 7.876786e+01 7.780765e+01 6.445149e+01 5.906168e+01 1.100359e+02 6.524640e+01 8.659830e+01 7.222987e+01 1.871996e+01 1.368280e+02 1.195045e+00 1.479558e+00 1.638027e+00 1.519731e+00 1.753853e+00 2.441875e+00 2.883886e+00 4.023115e+00 2.919772e+00 2.817244e+00 3.410321e+00 1.918273e+00 1.894250e+00 1.329013e-01 2.539700e-01 2.331389e-01 2.351909e-01 2.813466e-01 3.188765e-01 4.188706e-01 6.558392e-01 6.027960e-01 4.892963e-01 6.204527e-01 2.674572e-01 2.099997e-01
<GCONST> 1.237134e+02
<STATE> 4
<MEAN> 39
 -1.261812e+01 -5.082371e+00 -6.965185e+00 -4.870524e+00 -4.377215e+00 -3.483583e+00 -5.226438e+00 -6.553073e+00 -5.156035e+00 -6.856454e+00 -4.998678e+00 -2.506058e+00 3.377464e+01 -1.227757e-01 -8.374023e-02 -9.035437e-02 1.791263e-01 1.049336e-01 4.685872e-01 1.787036e-01 1.365242e-02 2.706760e-01 1.963829e-01 1.102643e-01 1.031524e-01 -3.895330e-01 2.196655e-02 3.825133e-02 7.719757e-02 -3.425580e-02 -6.943142e-02 -1.343274e-01 -1.341919e-01 -7.186903e-02 -5.382656e-02 3.692437e-02 7.257047e-02 3.486820e-02 1.057923e-01
<VARIANCE> 39
 5.319279e+01 7.166724e+01 3.574154e+01 3.401130e+01 3.504702e+01 5.306874e+01 4.141576e+01 4.915002e+01 4.252512e+01 3.958092e+01 3.316088e+01 2.054609e+01 1.143283e+02 8.506667e-01 1.146938e+00 1.178256e+00 1.321876e+00 1.890305e+00 3.101126e+00 2.428520e+00 3.590661e+00 2.669781e+00 2.292077e+00 2.396723e+00 1.830332e+00 1.153110e+00 1.393336e-01 1.966998e-01 2.304098e-01 2.127610e-01 3.649112e-01 6.024760e-01 5.897095e-01 6.880084e-01 5.960926e-01 4.271815e-01 5.077271e-01 3.514076e-01 1.719800e-01
<GCONST> 1.147684e+02
<TRANSP> 5
 0.000000e+00 1.000000e+00 0.000000e+00 0.000000e+00 0.000000e+00
 0.000000e+00 3.772066e-01 6.227934e-01 0.000000e+00 0.000000e+00
 0.000000e+00 0.000000e+00 4.883811e-01 5.116189e-01 0.000000e+00
 0.000000e+00 0.000000e+00 0.000000e+00 7.333524e-01 2.666477e-01
 0.000000e+00 0.000000e+00 0.000000e+00 0.000000e+00 0.000000e+00
<ENDHMM>
~h "y"
<BEGINHMM>
<NUMSTATES> 5
<STATE> 2
<MEAN> 39
 6.960177e-01 -2.192125e+00 -3.894522e-01 -1.307364e+01 -7.072714e+00 -7.074576e+00 -1.856913e+01 -1.601709e+01 -1.200635e+01 -3.662961e+00 -3.613594e+00 -2.650106e+00 4.654368e+01 1.936710e-02 -1.364216e-01 8.859378e-01 2.737107e-01 -1.857173e+00 -1.260515e+00 -1.585360e-01 -1.408524e+00 -4.637259e-01 2.338261e-01 2.220211e-01 1.445357e-01 7.492515e-02 -3.524795e-02 7.385460e-02 -3.098220e-02 2.959483e-01 -3.224023e-01 -3.983381e-01 4.211521e-01 3.937727e-01 -3.220250e-02 -1.927144e-01 4.073255e-01 -5.770097e-02 5.695313e-03
<VARIANCE> 39
 6.915282e+01 9.325319e+01 2.274953e+02 6.439425e+01 6.793909e+01 1.247940e+02 5.277739e+01 6.847221e+01 1.171407e+01 5.698889e+01 1.840985e+01 1.912174e+01 2.967594e+01 4.258139e+00 3.048848e+00 5.718957e+00 1.365100e+00 9.510967e+00 5.816706e+00 2.187571e+00 4.666662e+00 5.149166e+00 3.139252e+00 1.647080e+00 7.857468e-01 1.950899e+00 2.885900e-01 4.478801e-01 4.294996e-01 3.214018e-01 7.498174e-01 1.561513e+00 3.380389e-01 8.455827e-01 9.583594e-01 5.956305e-01 2.752836e-01 1.211490e-01 1.491676e-01
<GCONST> 1.267157e+02
<STATE> 3
<MEAN> 39
 6.754339e-01 -1.657214e+00 5.442977e+00 -1.152764e+01 -1.683474e+01 -1.177285e+01 -1.643665e+01 -1.651384e+01 -1.454638e+01 -4.312774e+00 -1.094619e+00 -2.243052e+00 4.593721e+01 -1.637886e-01 -4.861479e-01 4.316965e-01 7.511615e-01 -1.269331e+00 -1.566255e+00 1.378973e+00 1.057893e+00 -6.889850e-01 -1.164122e+00 6.157142e-01 -1.290445e-01 1.025943e-01 -2.283103e-01 -9.207375e-02 -1.416574e-01 -6.400437e-02 5.854113e-01 4.669993e-01 1.835488e-02 5.074191e-01 3.404451e-01 -3.214993e-01 7.843573e-02 8.530745e-02 -7.453741e-02
<VARIANCE> 39
 3.999594e+01 6.677172e+01 2.982218e+02 6.915643e+01 1.851970e+02 6.893736e+01 3.539668e+01 1.104237e+02 3.020871e+01 4.285902e+01 2.218463e+01 1.963976e+01 2.598586e+01 3.863665e+00 4.043083e+00 1.910803e+00 1.392022e+00 5.875638e+00 8.593633e+00 4.540160e+00 5.406616e+00 4.684304e+00 2.300334e+00 1.469678e+00 7.038513e-01 1.277629e+00 1.798259e-01 2.082377e-01 5.413138e-01 3.802633e-01 1.145222e+00 7.394056e-01 5.606707e-01 1.556254e+00 6.055185e-01 6.982381e-01 2.471724e-01 1.158943e-01 5.407507e-02
<GCONST> 1.247339e+02
<STATE> 4
<MEAN> 39
 -1.213752e+01 7.283397e+00 4.464123e+00 -8.705986e+00 -8.998818e+00 -1.797929e+01 -6.283202e+00 -1.594365e+01 -1.161689e+01 -9.577416e+00 -8.515726e-01 -3.735214e+00 4.682332e+01 -1.047334e-01 -9.588659e-03 -6.342467e-01 2.783381e-01 2.735033e-01 -2.829740e-01 7.361138e-02 -4.470561e-02 7.944982e-01 -2.448604e-01 -6.800563e-02 -1.742438e-01 -2.808499e-01 -2.012317e-02 -1.183616e-01 -1.050020e-02 -1.126233e-01 1.273304e-01 3.399357e-01 -2.782435e-01 5.181949e-03 5.914170e-02 4.495440e-02 -6.793267e-02 -5.331094e-02 -1.073433e-01
<VARIANCE> 39
 1.481417e+02 1.072082e+02 1.826016e+02 3.053628e+01 2.447708e+02 2.781012e+01 4.818244e+01 7.515366e+01 8.527439e+01 2.375791e+01 3.397279e+01 2.012774e+01 2.316006e+01 7.211973e+00 5.064311e+00 4.577887e+00 2.930271e+00 1.603240e+01 5.137692e+00 4.248466e+00 6.271607e+00 3.468997e+00 3.274960e+00 3.287004e+00 1.605703e+00 1.540981e+00 9.144952e-01 8.068115e-01 7.792131e-01 4.320033e-01 2.627491e+00 8.599021e-01 9.033132e-01 1.303400e+00 6.751916e-01 5.861451e-01 4.944592e-01 3.532278e-01 3.371602e-01
<GCONST> 1.385212e+02
<TRANSP> 5
 0.000000e+00 1.000000e+00 0.000000e+00 0.000000e+00 0.000000e+00
 0.000000e+00 4.025416e-01 5.974583e-01 0.000000e+00 0.000000e+00
 0.000000e+00 0.000000e+00 5.122535e-01 4.877464e-01 0.000000e+00
 0.000000e+00 0.000000e+00 0.000000e+00 8.374854e-01 1.625145e-01
 0.000000e+00 0.000000e+00 0.000000e+00 0.000000e+00 0.000000e+00
<ENDHMM>
~h "z"
<BEGINHMM>
<NUMSTATES> 5
<STATE> 2
<MEAN> 39
 -1.176092e+01 6.552832e+00 -4.025657e+00 -7.212102e+00 -1.119959e+01 -1.340260e+01 -8.063149e+00 -1.552960e+01 -8.116407e+00 -1.045069e+01 -5.694242e+00 -7.180851e+00 5.084701e+01 -3.234466e+00 3.518998e+00 -2.693748e+00 2.033074e+00 5.159605e-01 -6.359528e-01 1.555310e+00 -5.344295e-02 1.764604e+00 -2.674225e-01 1.181756e+00 -4.728666e-01 -5.929682e-02 -1.282977e-02 -2.769443e-01 -2.406564e-02 -2.955862e-02 2.447990e-01 2.749991e-01 -1.985835e-01 3.421724e-01 -8.372317e-02 3.569475e-01 -1.586452e-01 2.333844e-01 -1.384694e-02
<VARIANCE> 39
 1.013492e+02 9.771035e+01 8.775390e+01 1.031884e+02 8.312495e+01 7.547923e+01 6.855899e+01 5.838403e+01 5.255626e+01 4.565222e+01 5.547147e+01 4.936893e+01 4.637741e+01 6.415904e+00 9.324832e+00 7.037523e+00 7.336053e+00 6.707377e+00 6.260981e+00 7.426508e+00 4.002855e+00 4.792938e+00 4.200565e+00 5.412809e+00 4.284028e+00 1.491766e+00 1.241101e+00 1.260613e+00 1.087401e+00 1.118058e+00 1.093511e+00 1.076367e+00 1.264799e+00 7.186397e-01 9.448164e-01 8.379248e-01 1.010969e+00 8.951734e-01 2.909699e-01
<GCONST> 1.474164e+02
<STATE> 3
<MEAN> 39
 -1.817631e+01 1.276335e+01 -1.294408e+01 -2.790939e+00 -8.744875e+00 -1.187542e+01 -7.625659e+00 -1.392995e+01 -4.051992e+00 -8.086782e+00 -4.787891e+00 -6.529247e+00 4.893108e+01 -4.772706e-01 -3.220977e-02 -3.313026e-01 4.092176e-01 1.860252e-01 2.092957e-01 -1.221402e-01 4.884171e-01 3.415215e-01 7.198980e-01 3.317952e-01 7.174980e-01 -4.729923e-01 4.536552e-01 -6.879393e-01 5.192711e-01 -3.786223e-01 -7.235333e-02 8.713055e-02 -5.104540e-02 1.194711e-01 -2.508779e-01 4.119434e-02 -9.354569e-02 1.644883e-01 -6.167082e-02
<VARIANCE> 39
 8.763886e+01 8.888277e+01 4.943121e+01 8.408130e+01 8.839902e+01 6.455553e+01 8.738496e+01 5.702429e+01 4.533252e+01 5.954876e+01 4.795725e+01 4.570413e+01 4.093705e+01 5.319959e+00 7.073646e+00 4.771157e+00 7.078738e+00 7.890981e+00 6.486077e+00 7.692268e+00 5.257781e+00 3.519821e+00 4.372026e+00 4.142780e+00 4.522088e+00 2.370558e+00 8.114344e-01 1.015154e+00 6.727763e-01 7.757672e-01 1.657424e+00 1.091738e+00 1.622910e+00 9.466055e-01 7.463119e-01 9.325528e-01 9.492199e-01 8.869826e-01 3.513110e-01
<GCONST> 1.453463e+02
<STATE> 4
<MEAN> 39
 -2.126839e+01 6.604614e+00 -1.222105e+01 3.733337e-01 -5.231241e+00 -6.603586e+00 -2.716894e+00 -1.011051e+01 -1.060861e+00 -6.115321e+00 -7.684280e-01 -3.191255e+00 4.103080e+01 3.340656e-01 -1.062236e+00 3.965824e-01 -3.685503e-01 3.128720e-01 2.798858e-01 1.586052e-01 3.851395e-01 -1.338754e-01 1.103945e-01 -5.556216e-02 1.982289e-01 -6.515332e-01 1.265802e-01 -8.060925e-02 1.540495e-01 -9.800891e-02 -5.972834e-02 -2.392191e-02 -1.010800e-01 -9.856412e-02 -1.162101e-01 -1.032230e-01 -1.069804e-01 -5.482077e-02 4.171350e-02
<VARIANCE> 39
 5.148126e+01 9.187832e+01 2.850659e+01 6.043799e+01 6.161456e+01 6.484113e+01 6.411432e+01 4.491216e+01 4.453197e+01 3.849789e+01 3.450225e+01 2.322783e+01 7.403550e+01 2.180406e+00 2.546603e+00 2.417089e+00 3.602963e+00 3.882955e+00 3.748231e+00 4.347178e+00 4.030246e+00 3.381348e+00 3.417664e+00 3.562705e+00 2.439430e+00 2.848906e+00 3.504563e-01 4.523254e-01 4.311789e-01 6.871006e-01 7.098107e-01 6.961923e-01 8.119764e-01 8.212367e-01 6.613724e-01 6.515340e-01 6.605319e-01 5.182970e-01 3.423106e-01
<GCONST> 1.302085e+02
<TRANSP> 5
 0.000000e+00 1.000000e+00 0.000000e+00 0.000000e+00 0.000000e+00
 0.000000e+00 6.897801e-01 3.102199e-01 0.000000e+00 0.000000e+00
 0.000000e+00 0.000000e+00 7.104857e-01 2.895143e-01 0.000000e+00
 0.000000e+00 0.000000e+00 0.000000e+00 8.715127e-01 1.284872e-01
 0.000000e+00 0.000000e+00 0.000000e+00 0.000000e+00 0.000000e+00
<ENDHMM>
~h "aa"
<BEGINHMM>
<NUMSTATES> 5
<STATE> 2
<MEAN> 39
 -9.264321e+00 -2.265069e+00 -6.213316e+00 -5.612737e+00 -7.128096e+00 -6.439015e+00 -6.668282e+00 -6.894946e+00 -6.257154e+00 -8.532347e+00 -7.995132e+00 -7.849233e+00 3.700190e+01 -5.481246e-01 5.936399e-03 -4.904563e-01 3.667864e-01 2.004277e-01 1.284212e+00 3.508126e-01 2.889796e-02 -1.775514e-01 5.980431e-01 -2.145728e-01 -4.074714e-02 -1.318106e+00 2.751251e-02 -1.216276e-01 1.564208e-01 4.125318e-02 1.675400e-01 7.545716e-02 9.823514e-02 1.265601e-01 2.021859e-01 -5.779730e-02 -1.236711e-02 9.510067e-02 2.281933e-01
<VARIANCE> 39
 4.897789e+01 3.841654e+01 3.144869e+01 2.288898e+01 3.374298e+01 4.052434e+01 3.183348e+01 4.775266e+01 4.258768e+01 3.057976e+01 2.386670e+01 1.867073e+01 6.275108e+01 8.088199e-01 6.985979e-01 1.415726e+00 2.169747e+00 2.833896e+00 1.674425e+00 1.914173e+00 2.554337e+00 4.458591e+00 3.427548e+00 2.877427e+00 1.150670e+00 5.184203e-01 1.253450e-01 1.811060e-01 1.254853e-01 4.162520e-01 3.891396e-01 3.051827e-01 5.483804e-01 5.357456e-01 7.733719e-01 4.468420e-01 5.646477e-01 1.662901e-01 5.386957e-02
<GCONST> 1.082741e+02
<STATE> 3
<MEAN> 39
 -1.235586e+01 -3.483658e+00 -6.752326e+00 -3.779005e+00 -5.069698e+00 -1.472844e+00 -3.455284e+00 -5.501201e+00 -4.989458e+00 -6.396555e+00 -7.342780e+00 -5.713342e+00 3.222274e+01 -3.696747e-01 -4.280283e-02 -9.923811e-02 3.350137e-01 2.201165e-01 4.402253e-01 4.111521e-01 3.808447e-01 4.090064e-01 9.553201e-02 -4.547118e-02 2.792265e-01 -6.280926e-01 -1.159871e-02 4.728582e-02 7.560986e-02 1.317274e-02 -1.923217e-02 -3.102556e-01 -2.227088e-01 -8.459155e-03 7.491925e-02 -1.334138e-01 2.296928e-02 7.808044e-02 1.339159e-01
<VARIANCE> 39
 5.058054e+01 4.585326e+01 2.596818e+01 1.477499e+01 2.800580e+01 3.677457e+01 2.586751e+01 3.942285e+01 2.654823e+01 3.158917e+01 3.209052e+01 3.060750e+01 7.889180e+01 5.285042e-01 6.623766e-01 9.364859e-01 1.191685e+00 1.361430e+00 2.196213e+00 1.706113e+00 1.873331e+00 2.719819e+00 2.345115e+00 1.918854e+00 1.915073e+00 4.103990e-01 1.108658e-01 1.272549e-01 1.529198e-01 2.449216e-01 2.774932e-01 3.001983e-01 3.134865e-01 2.384513e-01 4.527818e-01 4.075601e-01 4.830081e-01 3.140552e-01 5.289178e-02
<GCONST> 1.016715e+02
<STATE> 4
<MEAN> 39
 -1.329772e+01 -1.873736e+00 -4.095354e+00 1.536069e+00 -1.557270e+00 1.546552e+00 -7.422056e-01 -2.140004e+00 -1.782126e+00 -4.794331e+00 -1.757722e+00 -4.123383e-01 3.397865e+01 -1.404507e-01 5.538185e-02 8.265472e-02 1.464147e-01 2.632115e-01 -7.068571e-03 1.857298e-01 -1.928297e-02 1.230900e-01 -3.075452e-02 7.967737e-02 7.409115e-02 -2.637601e-01 9.175912e-03 -2.344525e-02 6.014591e-02 -8.432919e-02 1.776032e-02 -1.015357e-01 -1.298723e-01 -1.265011e-01 -8.637021e-02 1.469592e-02 -2.616277e-02 -5.432179e-02 8.510233e-02
<VARIANCE> 39
 5.858804e+01 4.190211e+01 6.542338e+01 3.902780e+01 5.143090e+01 3.808596e+01 3.234948e+01 4.578440e+01 3.258775e+01 2.314831e+01 3.502380e+01 1.992458e+01 3.056662e+01 1.328661e+00 1.255361e+00 2.804776e+00 2.798894e+00 2.008211e+00 2.760674e+00 2.322307e+00 4.762130e+00 3.180915e+00 2.254769e+00 2.555252e+00 1.714300e+00 1.182996e+00 2.477600e-01 2.340938e-01 5.893478e-01 5.360236e-01 4.275679e-01 5.727566e-01 4.566859e-01 9.365805e-01 6.816049e-01 4.616803e-01 5.278077e-01 2.742113e-01 2.215348e-01
<GCONST> 1.182540e+02
<TRANSP> 5
 0.000000e+00 1.000000e+00 0.000000e+00 0.000000e+00 0.000000e+00
 0.000000e+00 6.218540e-01 3.781460e-01 0.000000e+00 0.000000e+00
 0.000000e+00 0.000000e+00 5.580564e-01 4.419436e-01 0.000000e+00
 0.000000e+00 0.000000e+00 0.000000e+00 8.317201e-01 1.682799e-01
 0.000000e+00 0.000000e+00 0.000000e+00 0.000000e+00 0.000000e+00
<ENDHMM>
~h "ae"
<BEGINHMM>
<NUMSTATES> 5
<STATE> 2
<MEAN> 39
 -9.043113e+00 -8.139543e+00 -2.173832e+00 -8.977530e+00 -6.357547e+00 -9.441774e+00 -1.043751e+01 -1.034525e+01 -8.660982e+00 -8.972095e+00 -7.270879e+00 -2.522920e+00 4.767207e+01 9.442318e-01 -1.834106e+00 1.710414e-01 -1.241832e+00 5.751392e-02 -8.230243e-01 -7.438860e-01 7.012948e-01 -2.368629e-03 3.046417e-01 -5.581504e-01 1.031409e+00 1.909449e+00 2.526030e-01 -2.165908e-01 9.599549e-02 -2.171615e-01 -4.205649e-02 -6.609944e-02 3.235992e-02 3.951939e-01 4.426707e-02 9.406914e-02 -4.002339e-01 -8.564640e-03 3.067837e-01
<VARIANCE> 39
 6.630661e+01 8.680359e+01 6.891208e+01 8.110513e+01 7.431334e+01 9.516870e+01 9.792412e+01 7.144402e+01 6.923357e+01 4.689758e+01 5.231721e+01 4.499155e+01 1.042775e+02 6.535634e+00 8.296081e+00 4.761154e+00 6.548649e+00 9.434563e+00 6.995776e+00 9.081509e+00 9.592287e+00 4.979014e+00 4.210057e+00 7.239497e+00 5.222901e+00 6.978052e+00 7.878940e-01 1.252260e+00 8.037612e-01 9.754190e-01 1.415201e+00 1.413690e+00 1.546942e+00 1.673699e+00 7.869394e-01 7.727976e-01 1.247366e+00 7.277799e-01 1.033379e+00
<GCONST> 1.527116e+02
<STATE> 3
<MEAN> 39
 -4.692192e+00 -1.602522e+01 -8.167922e-02 -1.486291e+01 -4.802243e+00 -1.130709e+01 -1.257436e+01 -4.154460e+00 -8.562821e+00 -7.406601e+00 -1.213581e+01 7.877815e-02 5.641901e+01 4.840983e-01 -1.569990e+00 2.059537e-01 -6.206874e-01 4.471272e-01 4.411584e-01 6.694380e-01 1.647525e+00 -2.105061e-01 -4.632628e-02 -1.219569e+00 3.807017e-01 1.223499e+00 -3.246380e-01 6.141058e-01 -1.093729e-01 5.880324e-01 1.032505e-01 2.156074e-01 2.433339e-01 -3.627405e-01 -1.294437e-01 -1.305998e-01 2.617359e-01 -2.393380e-01 -5.828986e-01
<VARIANCE> 39
 3.950195e+01 7.269292e+01 6.860716e+01 5.028809e+01 9.171590e+01 9.480867e+01 7.306974e+01 6.677048e+01 6.957899e+01 5.366718e+01 5.909630e+01 5.140654e+01 6.888073e+01 3.459421e+00 6.911021e+00 3.060509e+00 5.130317e+00 5.080935e+00 7.490177e+00 6.019941e+00 7.160524e+00 4.204556e+00 4.310486e+00 6.293257e+00 3.848505e+00 5.147830e+00 4.923476e-01 9.496868e-01 5.737032e-01 7.480454e-01 1.058664e+00 1.205071e+00 1.060354e+00 1.212030e+00 7.427728e-01 7.340564e-01 8.963634e-01 7.623447e-01 5.054222e-01
<GCONST> 1.440981e+02
<STATE> 4
<MEAN> 39
 -2.759084e+00 -1.698045e+01 -1.104139e+00 -1.286135e+01 -7.129245e+00 -9.579753e+00 -9.436740e+00 -1.560906e+00 -9.995378e+00 -1.039070e+01 -1.372233e+01 -2.813089e+00 5.566005e+01 2.786458e-01 1.005739e+00 -2.825395e-01 4.365102e-01 -4.824058e-01 -1.507672e-01 2.164978e-01 -2.335537e-01 1.280589e-01 -5.199695e-01 1.091988e-01 -4.647653e-01 -1.124960e+00 -2.755691e-02 2.366013e-01 -4.384400e-02 1.006385e-01 -4.850112e-02 -8.780759e-02 -3.035669e-02 -1.931698e-01 9.686500e-05 -1.760333e-02 1.901307e-01 -1.318802e-03 -1.864488e-01
<VARIANCE> 39
 3.796122e+01 8.670805e+01 5.510725e+01 5.300031e+01 7.322658e+01 6.719789e+01 5.332661e+01 6.424390e+01 5.472163e+01 6.263855e+01 9.801097e+01 5.495465e+01 7.821308e+01 1.707303e+00 3.052062e+00 2.228132e+00 2.462969e+00 3.361629e+00 3.306374e+00 3.117698e+00 3.231961e+00 3.761899e+00 3.517198e+00 2.881151e+00 3.061759e+00 1.841563e+00 2.755208e-01 4.558794e-01 3.835736e-01 4.195783e-01 5.563596e-01 5.973877e-01 6.354743e-01 6.144094e-01 5.644550e-01 6.505706e-01 5.088228e-01 5.366433e-01 2.750134e-01
<GCONST> 1.293949e+02
<TRANSP> 5
 0.000000e+00 1.000000e+00 0.000000e+00 0.000000e+00 0.000000e+00
 0.000000e+00 5.617610e-01 4.382391e-01 0.000000e+00 0.000000e+00
 0.000000e+00 0.000000e+00 4.708064e-01 5.291936e-01 0.000000e+00
 0.000000e+00 0.000000e+00 0.000000e+00 8.434058e-01 1.565942e-01
 0.000000e+00 0.000000e+00 0.000000e+00 0.000000e+00 0.000000e+00
<ENDHMM>
~h "ah"
<BEGINHMM>
<NUMSTATES> 5
<STATE> 2
<MEAN> 39
 -5.366819e+00 -4.776389e+00 -3.530153e+00 -9.283219e+00 -5.597373e+00 -1.000960e+01 -1.195121e+01 -1.133953e+01 -7.518573e+00 -8.744041e+00 -7.712029e+00 -2.474178e+00 4.741029e+01 6.491743e-01 -2.074960e+00 5.579481e-01 -1.780382e+00 5.053373e-01 -8.940506e-02 -6.903626e-01 3.914813e-01 -8.200620e-02 5.550379e-01 -9.355417e-01 6.266922e-01 2.270106e+00 8.301671e-02 -3.387224e-01 4.786044e-02 -1.403053e-01 1.447490e-01 2.318024e-01 8.176129e-02 3.137558e-01 -1.581033e-02 1.732312e-01 -2.110469e-01 -1.586593e-01 1.865139e-01
<VARIANCE> 39
 7.020000e+01 8.958830e+01 9.487149e+01 9.592701e+01 6.425174e+01 6.813029e+01 6.970403e+01 7.051232e+01 5.532025e+01 8.179429e+01 6.558424e+01 4.995435e+01 9.471619e+01 7.706978e+00 9.860103e+00 8.137780e+00 1.102984e+01 8.666692e+00 7.885319e+00 7.622563e+00 9.684610e+00 6.471753e+00 7.698149e+00 9.871981e+00 6.829182e+00 9.669887e+00 1.169913e+00 1.644432e+00 1.218490e+00 1.944618e+00 1.776137e+00 1.517389e+00 1.239943e+00 1.638333e+00 1.056115e+00 1.227812e+00 1.622633e+00 1.362518e+00 1.834987e+00
<GCONST> 1.601066e+02
<STATE> 3
<MEAN> 39
 -2.719901e+00 -1.619416e+01 -5.681426e+00 -1.310222e+01 -2.204904e+00 -6.749610e+00 -1.333423e+01 -4.719579e+00 -5.982946e+00 -5.029748e+00 -1.316383e+01 -3.173921e+00 5.707711e+01 -1.208497e-01 -7.396914e-01 4.056657e-01 9.399404e-02 2.183743e-01 1.539376e-01 3.620794e-01 4.989621e-01 -2.476342e-02 -4.178455e-01 -7.262969e-01 -4.268643e-01 5.976340e-01 -1.235198e-01 6.571916e-01 -1.333317e-01 3.672640e-01 -2.944016e-01 -1.877542e-01 1.148890e-01 -2.401468e-01 4.779245e-03 -2.210130e-01 3.124857e-01 -9.560858e-02 -4.692545e-01
<VARIANCE> 39
 4.220181e+01 9.547553e+01 1.259255e+02 7.911240e+01 7.741653e+01 1.172351e+02 8.382509e+01 1.119336e+02 8.251285e+01 8.500848e+01 6.931164e+01 4.079881e+01 4.166998e+01 3.570647e+00 9.415869e+00 6.098197e+00 5.701084e+00 7.609747e+00 7.064473e+00 6.332771e+00 7.888343e+00 7.087132e+00 7.045649e+00 5.661154e+00 3.972053e+00 3.560276e+00 5.749359e-01 1.371789e+00 9.332696e-01 1.059808e+00 1.333049e+00 1.249969e+00 1.244033e+00 1.381540e+00 1.347546e+00 1.263740e+00 1.206250e+00 7.961795e-01 5.811419e-01
<GCONST> 1.519837e+02
<STATE> 4
<MEAN> 39
 -4.288634e+00 -1.182238e+01 -3.127122e-01 -1.360213e+01 -6.331517e+00 -1.041738e+01 -1.176871e+01 -8.945191e+00 -8.509497e+00 -7.524759e+00 -1.144611e+01 -4.593525e+00 5.545842e+01 -1.572168e-01 7.701987e-01 -3.038036e-01 3.981518e-01 -3.606088e-01 -2.216837e-01 1.900462e-01 -8.422175e-02 1.172594e-01 -2.979103e-01 2.333701e-01 -2.726909e-01 -4.142357e-01 -5.051554e-02 9.289090e-02 -1.037143e-01 8.375809e-02 2.518920e-02 1.322253e-02 -1.092388e-02 -1.703617e-02 -7.151984e-03 3.420645e-02 8.457018e-02 3.443669e-02 -6.516977e-02
<VARIANCE> 39
 6.051058e+01 1.208692e+02 1.187711e+02 7.897041e+01 6.478452e+01 7.720831e+01 7.752366e+01 7.722581e+01 8.804295e+01 7.421630e+01 7.016605e+01 6.157496e+01 4.022451e+01 4.837628e+00 7.546846e+00 6.081384e+00 5.899465e+00 4.391021e+00 5.137244e+00 5.166235e+00 5.223256e+00 5.350597e+00 5.424192e+00 6.369563e+00 4.324487e+00 2.408407e+00 6.840704e-01 8.449031e-01 9.109969e-01 9.062557e-01 7.622740e-01 8.462064e-01 8.851006e-01 8.814910e-01 9.222345e-01 1.062137e+00 1.287096e+00 8.973697e-01 3.625470e-01
<GCONST> 1.466205e+02
<TRANSP> 5
 0.000000e+00 1.000000e+00 0.000000e+00 0.000000e+00 0.000000e+00
 0.000000e+00 8.068284e-01 1.931715e-01 0.000000e+00 0.000000e+00
 0.000000e+00 0.000000e+00 7.827305e-01 2.172694e-01 0.000000e+00
 0.000000e+00 0.000000e+00 0.000000e+00 9.033582e-01 9.664177e-02
 0.000000e+00 0.000000e+00 0.000000e+00 0.000000e+00 0.000000e+00
<ENDHMM>
~h "ao"
<BEGINHMM>
<NUMSTATES> 5
<STATE> 2
<MEAN> 39
 -7.100012e+00 -5.560817e+00 -4.078357e+00 -1.019597e+01 -3.219656e+00 -7.882976e+00 -1.572464e+01 -1.122229e+01 -6.177934e+00 -6.861961e+00 -6.059680e+00 -4.136869e+00 4.940368e+01 1.687914e+00 -7.970675e-01 -7.714735e-01 -1.906208e+00 1.915894e-01 3.248394e-01 -8.944793e-01 -1.665075e-01 -1.845610e-01 1.891716e-01 4.450962e-03 1.535898e-01 1.583785e+00 2.479769e-01 -2.001096e-01 -2.255232e-01 -1.676166e-01 2.096118e-01 1.702173e-01 1.004721e-01 2.504215e-01 -3.423407e-02 1.505222e-01 -2.245325e-01 -1.892174e-01 1.027091e-01
<VARIANCE> 39
 9.907999e+01 6.699153e+01 1.362593e+02 8.493471e+01 1.324613e+02 1.085875e+02 1.193169e+02 7.267603e+01 7.595420e+01 7.400800e+01 6.880206e+01 5.188008e+01 6.414284e+01 1.541000e+01 8.410837e+00 8.032703e+00 9.594401e+00 1.036556e+01 1.457517e+01 8.834924e+00 8.019764e+00 9.207888e+00 9.388299e+00 1.040137e+01 7.364578e+00 6.940350e+00 2.400659e+00 1.119496e+00 1.485226e+00 1.722644e+00 2.219151e+00 2.704683e+00 1.467120e+00 1.513716e+00 1.462156e+00 1.609953e+00 1.795909e+00 1.592980e+00 1.184578e+00
<GCONST> 1.652692e+02
<STATE> 3
<MEAN> 39
 1.424461e+00 -1.401791e+01 -8.290529e+00 -1.836526e+01 -6.580628e-01 -3.245635e+00 -1.711995e+01 -7.808340e+00 -7.968190e+00 -2.844900e+00 -9.734477e+00 -6.017584e+00 5.730230e+01 8.465179e-01 -1.353407e+00 -1.581254e+00 -1.178130e+00 1.264079e+00 2.375692e+00 7.136614e-01 8.701144e-01 -3.636763e-01 1.451712e+00 2.522036e-01 -5.706567e-01 8.008134e-01 -5.758567e-01 3.797977e-01 1.845294e-01 6.714867e-01 -3.153407e-01 9.737898e-02 3.265614e-01 -1.608494e-01 -2.028504e-01 -2.629102e-01 5.639139e-01 2.922917e-01 -3.897879e-01
<VARIANCE> 39
 2.826674e+01 5.368517e+01 4.640852e+01 1.022167e+02 5.890980e+01 1.977349e+02 5.268125e+01 3.184868e+01 6.602811e+01 1.201426e+02 4.274025e+01 3.735334e+01 2.176271e+01 2.113241e+00 2.803580e+00 6.455685e+00 3.368003e+00 5.114436e+00 6.108782e+00 2.705259e+00 3.836304e+00 4.531974e+00 3.608536e+00 4.807952e+00 3.917701e+00 1.567287e+00 4.660586e-01 5.267568e-01 4.365038e-01 6.258297e-01 8.233408e-01 1.472199e+00 7.102219e-01 4.668222e-01 1.014342e+00 1.250243e+00 1.126218e+00 6.586320e-01 2.358221e-01
<GCONST> 1.353893e+02
<STATE> 4
<MEAN> 39
 4.742698e+00 -1.367506e+01 -1.285504e+01 -1.411818e+01 -1.069219e-01 -5.864553e+00 -1.449481e+01 -3.639206e+00 -8.906276e+00 -5.638855e+00 -6.075540e+00 -5.508835e+00 5.470245e+01 3.663108e-02 2.695034e-01 2.453460e-01 4.566968e-01 -3.346238e-01 -5.575121e-01 1.642743e-01 1.527317e-01 2.585853e-01 -2.194924e-01 -4.311937e-02 -1.517063e-02 -3.674329e-01 -8.712274e-02 9.672184e-02 1.090167e-01 -1.107011e-03 -8.968948e-02 -5.963856e-02 1.874445e-03 -5.288751e-02 6.829450e-02 -2.349409e-02 -4.793994e-02 8.860353e-03 -7.002849e-02
<VARIANCE> 39
 1.495253e+01 6.161607e+01 6.133276e+01 1.786665e+02 8.129581e+01 2.592491e+02 5.730683e+01 6.921622e+01 7.408987e+01 6.140363e+01 4.454954e+01 3.771299e+01 2.531973e+01 7.868761e-01 1.988990e+00 2.966444e+00 2.603065e+00 3.741844e+00 6.064241e+00 3.703013e+00 2.669578e+00 4.038723e+00 3.037257e+00 2.663512e+00 2.802704e+00 7.413427e-01 1.326522e-01 3.186846e-01 2.953914e-01 3.734778e-01 5.302337e-01 7.420915e-01 6.324896e-01 4.541292e-01 6.983200e-01 4.628484e-01 4.788133e-01 5.045843e-01 1.017008e-01
<GCONST> 1.248665e+02
<TRANSP> 5
 0.000000e+00 1.000000e+00 0.000000e+00 0.000000e+00 0.000000e+00
 0.000000e+00 8.071353e-01 1.928647e-01 0.000000e+00 0.000000e+00
 0.000000e+00 0.000000e+00 5.595042e-01 4.404958e-01 0.000000e+00
 0.000000e+00 0.000000e+00 0.000000e+00 9.439728e-01 5.602723e-02
 0.000000e+00 0.000000e+00 0.000000e+00 0.000000e+00 0.000000e+00
<ENDHMM>
~h "aw"
<BEGINHMM>
<NUMSTATES> 5
<STATE> 2
<MEAN> 39
 2.218881e-01 -1.511487e+01 -1.619547e+00 -3.771605e-01 -5.642205e+00 -1.295526e+01 -1.240041e+01 -3.333959e+00 -1.537642e+01 -1.990340e+01 -7.179358e+00 -5.328277e+00 4.922555e+01 -2.613310e-01 9.279489e-01 -7.287855e-02 4.677877e-01 -1.780760e-01 -3.370172e-01 -1.448444e-01 -9.445128e-02 1.281731e-01 -4.011505e-02 -1.522508e-01 -3.641620e-01 -9.563336e-01 -1.216649e-01 5.404069e-02 5.696189e-02 -7.673254e-02 7.743450e-02 5.149265e-02 7.511462e-02 -1.017919e-01 8.326266e-02 1.844653e-01 5.468895e-02 6.565571e-02 -1.675983e-02
<VARIANCE> 39
 2.754573e+01 1.912307e+02 8.009480e+00 2.713687e+01 7.774319e+01 1.109391e+02 4.174598e+01 6.344968e+01 3.881359e+01 2.062796e+01 2.546601e+01 4.349106e+01 8.862827e+01 6.726794e-01 2.425459e+00 1.077893e+00 2.342006e+00 2.844278e+00 4.231524e+00 2.604063e+00 3.272738e+00 2.904868e+00 2.363925e+00 2.564511e+00 3.228091e+00 8.547598e-01 7.466679e-02 2.105859e-01 2.120358e-01 3.358452e-01 5.937928e-01 5.465636e-01 4.764727e-01 4.926705e-01 3.997231e-01 5.565474e-01 3.912090e-01 5.867594e-01 8.232190e-02
<GCONST> 1.158406e+02
<STATE> 3
<MEAN> 39
 -9.289927e+00 -1.839757e+00 -9.989715e-01 -4.016997e+00 -1.003901e+01 -1.421429e+01 -1.259142e+01 -1.174398e+01 -1.099506e+01 -1.314422e+01 -1.043136e+01 -6.782289e+00 3.603110e+01 -6.631663e-01 -6.580137e-01 -2.671219e-01 5.945396e-01 1.726833e+00 1.733260e+00 3.036805e-01 -5.444972e-01 -1.306266e-01 1.420638e+00 7.186051e-01 1.169982e+00 -4.357634e-01 1.768088e-01 -9.124870e-01 -2.098453e-01 -1.260798e-01 3.699906e-01 -1.532350e-01 6.449324e-01 6.178889e-01 8.616854e-02 4.089744e-01 3.630599e-01 2.351280e-01 1.045589e+00
<VARIANCE> 39
 2.863255e+01 1.661407e+01 1.484871e+01 1.568948e+01 5.226951e+01 1.857680e+01 4.179799e+01 6.844302e+01 2.010716e+01 3.671499e+01 1.365870e+01 2.333677e+01 3.194415e+01 1.729776e+00 5.938888e+00 2.136403e+00 3.397513e+00 6.248526e+00 5.573962e+00 2.595374e+00 3.826066e+00 1.648284e+00 2.028668e+00 2.068441e+00 1.940772e+00 3.399773e+00 5.425039e-01 1.384668e+00 4.567007e-01 2.259282e-01 9.004415e-01 1.064858e+00 6.949890e-01 9.500269e-01 3.330117e-01 5.990797e-01 3.826123e-01 3.399831e-01 8.081919e-01
<GCONST> 1.210621e+02
<STATE> 4
<MEAN> 39
 -1.197947e+01 -1.464213e+01 -5.047292e+00 -1.031281e+00 -2.567308e+00 -8.967178e+00 -5.205774e+00 -5.370935e+00 -8.373065e+00 -5.084161e+00 -2.980121e+00 -1.498032e-01 4.019047e+01 8.617665e-01 -1.473535e+00 -7.293453e-01 -1.553736e-02 7.418917e-01 3.255596e-01 3.465001e-01 6.806681e-01 -3.284905e-01 3.385093e-01 3.075013e-01 -4.868156e-02 1.664759e+00 5.399048e-02 3.687099e-01 -2.120964e-02 -2.086413e-01 -1.529846e-01 -1.123578e-01 -7.363228e-02 -9.830366e-02 -3.878904e-02 -7.601883e-02 -8.215681e-02 -1.974665e-01 -9.490521e-02
<VARIANCE> 39
 7.055388e+01 1.060265e+02 3.079300e+01 1.974222e+01 2.966325e+01 8.071265e+01 5.725682e+01 2.978742e+01 4.823158e+01 5.173504e+01 4.476772e+01 3.440140e+01 1.900248e+02 5.172022e+00 1.619776e+01 3.119236e+00 2.580356e+00 3.238476e+00 7.016754e+00 5.460317e+00 4.000929e+00 4.713004e+00 4.014694e+00 3.440203e+00 2.945440e+00 1.593664e+01 9.009573e-01 2.437338e+00 6.169969e-01 6.249018e-01 3.877866e-01 1.279705e+00 8.578239e-01 6.109438e-01 9.451777e-01 7.776560e-01 6.393791e-01 4.952350e-01 2.380134e+00
<GCONST> 1.412805e+02
<TRANSP> 5
 0.000000e+00 1.000000e+00 0.000000e+00 0.000000e+00 0.000000e+00
 0.000000e+00 8.830742e-01 1.169258e-01 0.000000e+00 0.000000e+00
 0.000000e+00 0.000000e+00 5.658224e-01 4.341777e-01 0.000000e+00
 0.000000e+00 0.000000e+00 0.000000e+00 8.667464e-01 1.332536e-01
 0.000000e+00 0.000000e+00 0.000000e+00 0.000000e+00 0.000000e+00
<ENDHMM>
~h "ax"
<BEGINHMM>
<NUMSTATES> 5
<STATE> 2
<MEAN> 39
 -5.749240e+00 -4.916033e+00 -3.781689e+00 -7.274980e+00 -6.720308e+00 -1.026470e+01 -1.109792e+01 -9.309660e+00 -9.499682e+00 -9.213179e+00 -8.711743e+00 -5.131073e+00 4.529557e+01 1.946079e-01 6.260518e-01 1.514152e-03 3.017181e-01 -4.834503e-01 -6.092982e-01 -4.136056e-01 -6.509758e-01 -1.168226e-01 -7.478312e-01 -2.173743e-01 -1.733322e-01 -2.158130e-01 -5.341213e-02 -1.094352e-01 3.372851e-02 -1.170736e-01 -2.379667e-02 -1.476614e-02 2.990222e-02 2.812046e-02 1.175698e-01 1.851408e-01 1.242722e-01 1.937824e-01 2.466287e-01
<VARIANCE> 39
 8.432965e+01 1.198413e+02 6.003252e+01 5.993036e+01 6.217858e+01 7.026974e+01 6.543442e+01 9.563137e+01 7.225405e+01 4.538899e+01 5.203182e+01 4.801719e+01 1.172460e+02 6.033375e+00 4.179447e+00 3.315771e+00 2.687111e+00 4.505933e+00 5.653906e+00 4.773115e+00 4.803594e+00 4.902178e+00 3.663059e+00 3.203603e+00 3.444812e+00 5.261058e+00 7.765308e-01 7.268875e-01 5.425587e-01 5.568893e-01 7.575610e-01 8.714538e-01 9.304792e-01 7.665370e-01 7.913706e-01 5.806594e-01 6.976046e-01 8.125365e-01 5.804254e-01
<GCONST> 1.412162e+02
<STATE> 3
<MEAN> 39
 -6.673603e+00 -3.009326e+00 -3.770176e+00 -7.224784e+00 -7.444011e+00 -1.266508e+01 -1.171808e+01 -1.114318e+01 -9.532279e+00 -1.051811e+01 -8.509204e+00 -4.843586e+00 4.584930e+01 6.462343e-03 1.288017e-01 1.298243e-01 -1.240009e-01 -2.647649e-01 -4.731486e-01 -1.664105e-01 -2.203849e-01 1.843916e-01 7.316174e-02 2.289061e-01 3.821749e-01 4.011623e-01 -5.326611e-02 -2.370455e-01 7.555547e-02 -2.376511e-01 1.021441e-01 2.139744e-01 1.172959e-01 1.905829e-01 1.110638e-01 3.703355e-01 1.387004e-01 2.045456e-01 2.107936e-01
<VARIANCE> 39
 8.235998e+01 1.002557e+02 7.134626e+01 5.539353e+01 6.593144e+01 7.720477e+01 6.465263e+01 8.150877e+01 7.098795e+01 5.606248e+01 5.312556e+01 4.923507e+01 9.259686e+01 7.362853e+00 7.254093e+00 5.123919e+00 4.851346e+00 6.253571e+00 6.464818e+00 6.178990e+00 4.625467e+00 4.495878e+00 4.677961e+00 4.594281e+00 4.597541e+00 5.786505e+00 1.333970e+00 9.820741e-01 8.305374e-01 8.195979e-01 1.232659e+00 1.309461e+00 1.124168e+00 1.018947e+00 9.514453e-01 7.949812e-01 9.740220e-01 7.641954e-01 8.044265e-01
<GCONST> 1.485726e+02
<STATE> 4
<MEAN> 39
 -7.654071e+00 -3.833858e+00 -4.688923e+00 -7.619756e+00 -7.260214e+00 -1.070387e+01 -1.059097e+01 -9.501945e+00 -7.345438e+00 -8.361655e+00 -7.254124e+00 -3.904677e+00 4.495139e+01 1.139693e-01 -7.637836e-01 5.137620e-01 -8.158916e-01 7.021542e-02 1.197409e-01 -5.233968e-02 2.176153e-01 3.714242e-01 8.365489e-01 2.065422e-01 6.018484e-01 7.068751e-01 2.785703e-02 -1.150251e-01 -2.491535e-02 -1.464687e-01 1.448911e-01 1.567102e-02 -7.770032e-02 -2.053155e-02 -3.878128e-02 9.715799e-02 -4.380152e-02 -9.111769e-03 3.140262e-01
<VARIANCE> 39
 8.524364e+01 1.033479e+02 7.619769e+01 6.985541e+01 6.092722e+01 1.007178e+02 5.275735e+01 6.682372e+01 6.080087e+01 5.900237e+01 4.742236e+01 4.405083e+01 9.896058e+01 5.599437e+00 7.304564e+00 4.939086e+00 6.665795e+00 5.393045e+00 7.035129e+00 4.838614e+00 5.686114e+00 4.539741e+00 4.156512e+00 6.377806e+00 4.226866e+00 6.269484e+00 9.762335e-01 8.074116e-01 7.452383e-01 1.086011e+00 1.011988e+00 1.479199e+00 1.008307e+00 9.928198e-01 8.739172e-01 7.953709e-01 1.046588e+00 7.511760e-01 1.087811e+00
<GCONST> 1.483130e+02
<TRANSP> 5
 0.000000e+00 1.000000e+00 0.000000e+00 0.000000e+00 0.000000e+00
 0.000000e+00 3.755437e-01 6.244563e-01 0.000000e+00 0.000000e+00
 0.000000e+00 0.000000e+00 4.670528e-01 5.329472e-01 0.000000e+00
 0.000000e+00 0.000000e+00 0.000000e+00 4.139352e-01 5.860647e-01
 0.000000e+00 0.000000e+00 0.000000e+00 0.000000e+00 0.000000e+00
<ENDHMM>
~h "ay"
<BEGINHMM>
<NUMSTATES> 5
<STATE> 2
<MEAN> 39
 -3.235836e+00 -2.528212e+01 -4.905326e+00 -9.762753e+00 3.893755e+00 -5.866327e-01 -1.361278e+01 -4.271789e+00 -8.176439e+00 -4.493927e+00 -1.159522e+01 -1.799599e+00 6.013001e+01 -3.109415e-01 -7.267958e-01 7.056436e-01 7.209660e-02 3.300528e-01 -1.222063e-01 5.512629e-01 1.095991e+00 -4.058845e-01 1.389955e-01 -7.643543e-01 5.165983e-01 4.080170e-01 -1.772033e-01 6.117879e-01 -5.811568e-03 -7.361086e-02 -3.939578e-01 -3.433999e-01 7.606970e-02 -1.629837e-01 -8.612650e-03 -4.148534e-01 1.609620e-01 4.296575e-02 -2.701806e-01
<VARIANCE> 39
 2.713586e+01 6.536305e+01 2.946095e+01 4.092156e+01 6.095827e+01 5.162628e+01 2.864984e+01 4.222622e+01 4.229272e+01 5.165774e+01 6.853143e+01 3.082269e+01 8.529237e+01 8.214087e-01 1.347520e+00 2.339319e+00 1.716394e+00 1.756964e+00 2.643385e+00 2.338656e+00 2.017038e+00 2.284561e+00 3.795401e+00 2.897432e+00 2.258954e+00 7.721488e-01 2.318380e-01 2.823689e-01 2.654248e-01 3.662871e-01 3.010393e-01 4.129086e-01 3.567630e-01 4.258038e-01 4.054497e-01 6.066141e-01 6.080182e-01 3.134901e-01 2.176188e-01
<GCONST> 1.159429e+02
<STATE> 3
<MEAN> 39
 -3.816338e+00 -2.488150e+01 -1.686906e+00 -1.096422e+01 5.236800e-01 -3.632540e+00 -1.107950e+01 -9.016466e-01 -9.398018e+00 -5.940196e+00 -1.156599e+01 -2.978911e-01 6.165881e+01 -2.825051e-01 4.418935e-01 6.254686e-01 -4.413959e-01 -6.124158e-01 -5.462838e-01 6.074907e-01 3.436247e-01 -2.532035e-01 -3.114850e-01 3.300160e-02 1.565118e-01 -4.092014e-02 4.069588e-02 1.943935e-01 1.939785e-02 -1.292102e-01 -1.561589e-01 -9.343246e-02 -3.672393e-02 -1.170528e-01 1.732370e-02 5.891756e-02 1.042825e-01 -8.391304e-02 -8.856708e-02
<VARIANCE> 39
 2.488041e+01 6.850732e+01 4.038092e+01 4.062275e+01 7.516819e+01 4.613832e+01 3.541121e+01 4.510496e+01 5.188165e+01 5.261458e+01 7.990425e+01 4.418779e+01 6.345274e+01 5.792592e-01 9.486855e-01 1.329497e+00 1.472962e+00 1.644751e+00 1.821217e+00 2.175744e+00 1.962045e+00 2.403048e+00 2.343339e+00 2.631764e+00 2.354920e+00 4.257736e-01 8.677383e-02 1.445374e-01 1.390011e-01 2.003979e-01 2.401818e-01 2.492336e-01 3.374152e-01 3.080713e-01 3.650329e-01 4.181581e-01 4.043606e-01 4.006435e-01 5.793453e-02
<GCONST> 1.080131e+02
<STATE> 4
<MEAN> 39
 -5.445391e+00 -2.059131e+01 4.610003e-01 -1.446206e+01 -3.966641e+00 -5.528455e+00 -8.810905e+00 -1.074821e+00 -9.326565e+00 -6.773223e+00 -1.111960e+01 -6.647468e-01 5.854148e+01 2.932316e-01 1.232425e+00 5.678883e-01 -9.227493e-01 -1.258832e+00 -9.052498e-01 -1.022466e-01 -2.387290e-01 3.490254e-03 1.697618e-01 3.151487e-01 -4.256523e-02 -6.951892e-01 1.914007e-01 1.551774e-01 -5.727179e-02 1.037260e-01 -3.603454e-02 -7.904926e-02 -2.376627e-01 -2.177678e-01 -1.603559e-02 -3.476147e-02 -1.151979e-02 3.995234e-04 -1.623275e-01
<VARIANCE> 39
 2.736633e+01 8.371318e+01 4.694061e+01 5.355089e+01 7.209513e+01 3.841318e+01 5.566875e+01 4.891496e+01 5.801666e+01 5.510791e+01 6.817261e+01 3.666738e+01 1.317336e+02 8.742884e-01 1.200017e+00 1.708380e+00 1.902551e+00 2.069417e+00 2.369669e+00 3.173933e+00 3.061828e+00 2.512713e+00 3.158761e+00 3.571641e+00 2.526715e+00 8.981504e-01 1.282633e-01 1.812100e-01 2.040647e-01 2.888016e-01 3.974832e-01 3.374291e-01 5.397013e-01 4.319600e-01 4.235546e-01 5.585936e-01 6.064687e-01 5.011138e-01 1.234309e-01
<GCONST> 1.183261e+02
<TRANSP> 5
 0.000000e+00 1.000000e+00 0.000000e+00 0.000000e+00 0.000000e+00
 0.000000e+00 6.217481e-01 3.782518e-01 0.000000e+00 0.000000e+00
 0.000000e+00 0.000000e+00 7.891806e-01 2.108193e-01 0.000000e+00
 0.000000e+00 0.000000e+00 0.000000e+00 7.629105e-01 2.370895e-01
 0.000000e+00 0.000000e+00 0.000000e+00 0.000000e+00 0.000000e+00
<ENDHMM>
~h "ch"
<BEGINHMM>
<NUMSTATES> 5
<STATE> 2
<MEAN> 39
 -7.353556e+00 1.232112e+00 2.504623e-01 -2.747817e+00 -6.629813e+00 -1.024699e+01 -1.420624e+01 -1.919284e+01 -1.478390e+01 -1.305105e+01 -1.195546e+01 -8.802102e+00 4.264401e+01 4.155185e-01 -9.471528e-01 1.395764e+00 -1.103051e+00 4.732128e-01 -9.483566e-01 -1.967931e+00 -1.060782e+00 -5.054676e-01 1.602037e+00 2.186512e-01 9.105396e-01 2.692920e+00 -7.387673e-01 -6.242393e-01 5.112171e-01 -7.845638e-01 2.023745e-02 6.392413e-01 5.819885e-01 3.037618e-01 3.507265e-01 7.151974e-01 5.657559e-02 4.007763e-01 8.631408e-01
<VARIANCE> 39
 6.895673e+01 1.418671e+01 1.757569e+01 7.916766e+01 3.022667e+01 3.964394e+01 4.541740e+01 1.098802e+02 3.319695e+01 6.934198e+01 3.690714e+01 5.190434e+01 4.372576e+01 1.115558e+01 4.218978e+00 4.259768e+00 1.080088e+01 7.299642e+00 6.726320e+00 4.598350e+00 2.389022e+00 2.186575e+00 7.414783e+00 3.899284e+00 7.260385e+00 1.086794e+01 1.956140e+00 7.220402e-01 6.705818e-01 1.545166e+00 1.603531e+00 1.184119e+00 1.215657e+00 8.113571e-01 1.332930e-01 9.198923e-01 9.777732e-01 1.042667e+00 7.509500e-01
<GCONST> 1.416104e+02
<STATE> 3
<MEAN> 39
 -1.071693e+01 -2.334003e+00 1.129867e+01 -1.655196e+01 -7.859215e+00 -9.057436e+00 -1.394399e+01 -1.821734e+01 -1.467362e+01 -3.967563e+00 -1.439213e+01 -4.273930e+00 5.620525e+01 -1.168256e+00 8.706606e-01 4.709658e-01 -9.808688e-01 -9.061201e-02 6.330095e-02 5.932698e-01 4.858038e-01 1.124061e-01 -1.168448e-01 -2.474883e-01 -7.505196e-01 5.744914e-01 -2.303887e-01 3.969972e-01 -3.345250e-01 4.398858e-01 -3.454606e-02 2.083901e-02 3.364564e-02 1.026421e-01 1.248086e-01 -2.282377e-01 1.744317e-01 -2.079928e-01 -4.388878e-01
<VARIANCE> 39
 3.100069e+01 7.216050e+01 3.593838e+01 8.690148e+01 4.370570e+01 2.458611e+01 3.437061e+01 6.342091e+01 1.069647e+01 7.873264e+01 5.370958e+01 5.913805e+01 5.253211e+01 4.425634e+00 5.660994e+00 4.979460e+00 8.338896e+00 6.383337e+00 3.920299e+00 4.204453e+00 4.189788e+00 1.070489e+00 8.140624e+00 3.506821e+00 6.170969e+00 6.432823e+00 7.648955e-01 8.235202e-01 5.667313e-01 1.086912e+00 1.478398e+00 1.216286e+00 9.273040e-01 7.541513e-01 1.820110e-01 1.417661e+00 6.380586e-01 1.297951e+00 9.473910e-01
<GCONST> 1.386862e+02
<STATE> 4
<MEAN> 39
 -1.620942e+01 -1.059023e+00 -5.145094e-01 -1.190233e+01 -8.734437e+00 -1.045120e+01 -9.989498e+00 -9.059656e+00 -7.954884e+00 -7.604226e+00 -5.860787e+00 -4.521286e+00 5.428211e+01 1.155330e-01 -2.180911e-01 -5.409271e-01 3.292115e-01 -3.525943e-01 1.380059e-01 7.668515e-02 1.396005e-01 3.535879e-01 1.197070e-01 3.354342e-01 1.586256e-01 -5.201260e-02 1.500407e-01 -1.020100e-01 1.823130e-02 1.181203e-02 2.732319e-02 4.353532e-02 4.099910e-02 -2.455841e-02 -2.016805e-02 -4.839320e-02 -1.061389e-01 -2.146205e-02 2.537145e-02
<VARIANCE> 39
 1.428334e+02 1.579425e+02 1.678964e+02 4.699487e+01 8.231634e+01 1.062842e+02 3.855678e+01 6.209132e+01 6.308768e+01 5.598403e+01 7.284682e+01 2.588786e+01 2.805486e+01 1.380147e+01 1.325142e+01 5.973267e+00 4.256262e+00 6.706386e+00 9.117099e+00 4.332576e+00 6.383896e+00 5.216394e+00 3.158745e+00 5.044285e+00 3.182377e+00 4.360725e+00 1.981257e+00 2.070926e+00 8.722366e-01 7.182539e-01 1.116952e+00 1.518957e+00 7.974781e-01 1.234840e+00 8.446849e-01 5.150358e-01 6.832598e-01 6.322544e-01 8.823977e-01
<GCONST> 1.491667e+02
<TRANSP> 5
 0.000000e+00 1.000000e+00 0.000000e+00 0.000000e+00 0.000000e+00
 0.000000e+00 6.858352e-01 3.141648e-01 0.000000e+00 0.000000e+00
 0.000000e+00 0.000000e+00 8.587419e-01 1.412580e-01 0.000000e+00
 0.000000e+00 0.000000e+00 0.000000e+00 9.599150e-01 4.008502e-02
 0.000000e+00 0.000000e+00 0.000000e+00 0.000000e+00 0.000000e+00
<ENDHMM>
~h "dh"
<BEGINHMM>
<NUMSTATES> 5
<STATE> 2
<MEAN> 39
 -7.175943e+00 -6.071370e+00 -5.225074e+00 -8.832651e+00 -5.578288e+00 -6.318840e+00 -1.077838e+01 -6.823286e+00 -7.230056e+00 -3.289710e+00 -6.507842e+00 -3.282070e+00 4.629081e+01 1.826728e-01 -1.765975e-02 -6.172714e-01 5.640456e-01 2.953831e-01 4.788330e-01 1.582142e-01 2.197823e-01 -1.652838e-01 -5.378752e-02 -1.833333e-01 -1.833017e-01 -6.723396e-01 9.791355e-02 9.539197e-02 6.885165e-02 3.264802e-02 -1.038884e-01 2.237529e-03 -5.670850e-02 -3.077463e-01 -1.438698e-01 -2.489768e-01 -7.691338e-03 -9.968337e-02 -6.778187e-02
<VARIANCE> 39
 1.058619e+02 1.246439e+02 9.997797e+01 7.885097e+01 6.897908e+01 7.846790e+01 6.733255e+01 7.868613e+01 5.502015e+01 6.051234e+01 5.461687e+01 2.880073e+01 1.786855e+02 1.231436e+00 1.710659e+00 2.240299e+00 2.038037e+00 2.265565e+00 2.478960e+00 2.728032e+00 2.769125e+00 1.947925e+00 2.533699e+00 2.432472e+00 2.195518e+00 1.889962e+00 3.515337e-01 4.252233e-01 4.943169e-01 3.485954e-01 6.428414e-01 5.381714e-01 5.637382e-01 6.312191e-01 4.859611e-01 5.801353e-01 5.130388e-01 3.550669e-01 3.946825e-01
<GCONST> 1.282332e+02
<STATE> 3
<MEAN> 39
 -7.697257e+00 -4.124291e+00 -5.504085e+00 -6.269289e+00 -5.267482e+00 -5.749754e+00 -1.033892e+01 -8.071210e+00 -7.299641e+00 -5.419709e+00 -7.063744e+00 -4.316109e+00 4.211319e+01 3.377136e-01 1.389844e-01 -1.983701e-01 4.814676e-01 8.586705e-02 4.273723e-01 7.700908e-02 -3.856780e-01 -4.292974e-01 -6.059529e-01 -8.785050e-02 -3.028264e-01 -7.263296e-01 4.317367e-02 3.124441e-02 1.560165e-01 -9.404111e-02 -1.917951e-01 -1.985828e-01 -1.552204e-01 -2.959582e-01 -5.922376e-02 -1.386565e-01 8.578521e-02 -2.319126e-02 1.980003e-01
<VARIANCE> 39
 9.295567e+01 1.202428e+02 6.627917e+01 5.551823e+01 6.129803e+01 6.585713e+01 7.438358e+01 8.194492e+01 5.472277e+01 5.398989e+01 5.600823e+01 3.586020e+01 1.699194e+02 1.662425e+00 2.247240e+00 2.255731e+00 1.813469e+00 2.190415e+00 2.589055e+00 2.577385e+00 3.513161e+00 2.650358e+00 2.877294e+00 2.223689e+00 2.202629e+00 2.985549e+00 4.074479e-01 3.928691e-01 3.641486e-01 2.669114e-01 5.347939e-01 6.223199e-01 6.034283e-01 6.702874e-01 5.491344e-01 6.529889e-01 4.382560e-01 3.825371e-01 4.444358e-01
<GCONST> 1.285481e+02
<STATE> 4
<MEAN> 39
 -1.016530e+01 -6.949038e+00 -7.411842e+00 -4.367263e+00 -5.164366e+00 -2.548483e+00 -6.551348e+00 -4.274252e+00 -4.828383e+00 -6.150305e+00 -4.229447e+00 -2.402077e+00 3.532962e+01 -1.039284e-01 1.434509e-01 9.345285e-02 1.246286e-01 5.588885e-02 9.537083e-02 8.835816e-03 -2.766710e-01 -5.556765e-02 -1.301969e-01 7.107542e-02 -9.821681e-02 -4.181611e-01 -2.100533e-02 2.975050e-02 6.966888e-02 -4.705316e-02 -2.434470e-02 -1.593069e-01 -6.713575e-02 -1.461289e-02 2.089317e-02 -1.016783e-02 3.557811e-03 3.746385e-02 1.311384e-01
<VARIANCE> 39
 7.521700e+01 6.250779e+01 4.991499e+01 2.541116e+01 4.844920e+01 6.532245e+01 6.048549e+01 6.893758e+01 3.995630e+01 3.563508e+01 3.909789e+01 3.860103e+01 1.190605e+02 1.234827e+00 1.498099e+00 1.624261e+00 1.316492e+00 2.731094e+00 2.702673e+00 2.411986e+00 3.109444e+00 2.195973e+00 2.810753e+00 2.186392e+00 1.709000e+00 1.384054e+00 1.991223e-01 1.816814e-01 2.464733e-01 2.571489e-01 5.154854e-01 4.224462e-01 4.914784e-01 5.175458e-01 4.014928e-01 4.229002e-01 4.016642e-01 3.175434e-01 2.345927e-01
<GCONST> 1.176325e+02
<TRANSP> 5
 0.000000e+00 1.000000e+00 0.000000e+00 0.000000e+00 0.000000e+00
 0.000000e+00 3.449830e-01 6.550170e-01 0.000000e+00 0.000000e+00
 0.000000e+00 0.000000e+00 2.268304e-01 7.731696e-01 0.000000e+00
 0.000000e+00 0.000000e+00 0.000000e+00 7.990934e-01 2.009065e-01
 0.000000e+00 0.000000e+00 0.000000e+00 0.000000e+00 0.000000e+00
<ENDHMM>
~h "ea"
<BEGINHMM>
<NUMSTATES> 5
<STATE> 2
<MEAN> 39
 -9.436442e+00 -6.444839e+00 1.424691e+00 -1.033603e+01 -8.350530e+00 -1.131233e+01 -9.862360e+00 -9.686589e+00 -9.468416e+00 -5.722198e+00 -5.114837e+00 -1.982041e+00 4.611126e+01 9.811881e-01 -2.411155e+00 2.204026e+00 -3.053984e+00 -1.134993e+00 -1.560411e+00 2.249584e-01 7.784522e-01 -5.735374e-01 9.822426e-01 -5.033267e-01 4.156650e-01 4.470865e+00 6.581249e-02 -5.392876e-01 1.535351e-01 -2.826519e-01 1.491205e-01 3.300018e-01 4.503528e-01 4.201080e-01 -1.123687e-01 3.789831e-03 -4.621976e-01 -1.543925e-01 8.124779e-02
<VARIANCE> 39
 4.458310e+01 1.059911e+02 6.733191e+01 1.149073e+02 7.352042e+01 6.220893e+01 3.808494e+01 6.972983e+01 3.318579e+01 4.928282e+01 5.039347e+01 3.485525e+01 1.955974e+02 5.471936e+00 9.262312e+00 5.951992e+00 1.084023e+01 6.779788e+00 4.485014e+00 3.995461e+00 9.306515e+00 4.688581e+00 4.902610e+00 6.413955e+00 4.151036e+00 1.231722e+01 1.183669e+00 1.414432e+00 1.673652e+00 2.668670e+00 1.473240e+00 1.081068e+00 6.355871e-01 1.452629e+00 7.917465e-01 1.002051e+00 7.668365e-01 7.199639e-01 3.555110e+00
<GCONST> 1.524423e+02
<STATE> 3
<MEAN> 39
 -6.190442e+00 -2.015378e+01 9.275380e+00 -2.139495e+01 -1.024370e+01 -7.300700e+00 -5.250463e+00 -1.662442e+00 -1.106000e+01 -2.532177e+00 -1.042813e+01 -2.838571e+00 6.048056e+01 3.174843e-01 -1.256136e+00 -3.310727e-01 7.273760e-01 3.334644e-01 5.437661e-01 8.851048e-01 1.019628e+00 -2.146311e-01 -6.712820e-02 -2.574643e-01 -4.742028e-01 2.643847e-01 1.201021e-01 4.138156e-01 -3.548480e-01 5.518051e-01 -1.436338e-01 -3.001661e-01 -1.476024e-01 -1.510241e-01 -1.102848e-02 -1.159416e-01 3.409940e-01 -1.484380e-02 -4.805692e-01
<VARIANCE> 39
 1.243040e+01 2.965302e+01 3.339901e+01 4.780210e+01 6.293694e+01 6.220368e+01 1.964082e+01 2.259214e+01 3.102202e+01 2.616563e+01 4.674360e+01 3.676071e+01 3.082517e+01 7.151789e-01 1.869742e+00 1.055371e+00 1.897402e+00 1.591868e+00 2.849002e+00 1.183746e+00 2.068998e+00 1.894675e+00 2.056351e+00 1.754640e+00 2.656878e+00 5.826244e-01 1.260466e-01 4.095190e-01 2.788339e-01 4.548324e-01 3.234779e-01 3.807478e-01 2.635424e-01 4.749735e-01 3.290082e-01 4.035239e-01 3.205711e-01 4.923116e-01 3.525887e-01
<GCONST> 1.085496e+02
<STATE> 4
<MEAN> 39
 -1.510096e-01 -2.195755e+01 -1.232290e+00 -7.849494e+00 -8.621056e+00 -1.455196e+01 -2.921179e+00 7.756319e-01 -1.162653e+01 -8.864317e+00 -9.136728e+00 -5.415925e+00 5.607357e+01 6.676754e-02 7.062835e-01 -3.221806e-01 4.384893e-01 -2.243511e-01 -1.428688e-01 -1.153965e-01 -4.621159e-01 6.111387e-02 -4.753808e-01 9.489004e-02 -5.276683e-02 -7.109312e-01 -6.439851e-02 1.072907e-01 1.072510e-02 -9.858729e-02 1.089292e-02 1.052975e-01 -4.800474e-02 -9.644444e-02 6.117961e-02 2.763721e-02 -6.817721e-03 4.315396e-02 -6.606001e-02
<VARIANCE> 39
 2.493921e+01 9.073498e+01 7.716557e+01 5.870580e+01 9.168719e+01 4.781904e+01 2.390899e+01 4.470101e+01 6.016644e+01 3.801712e+01 3.461208e+01 2.348126e+01 7.563398e+01 1.737854e+00 2.974293e+00 2.710541e+00 3.501164e+00 3.404819e+00 3.117188e+00 1.796377e+00 3.698093e+00 3.002250e+00 2.488933e+00 2.681925e+00 2.441151e+00 1.239143e+00 2.004849e-01 3.895099e-01 3.416939e-01 4.985527e-01 6.159863e-01 3.835243e-01 3.665353e-01 5.525347e-01 6.077472e-01 4.339707e-01 4.922636e-01 4.435399e-01 1.378303e-01
<GCONST> 1.219991e+02
<TRANSP> 5
 0.000000e+00 1.000000e+00 0.000000e+00 0.000000e+00 0.000000e+00
 0.000000e+00 7.549971e-01 2.450029e-01 0.000000e+00 0.000000e+00
 0.000000e+00 0.000000e+00 7.659003e-01 2.340996e-01 0.000000e+00
 0.000000e+00 0.000000e+00 0.000000e+00 9.353183e-01 6.468172e-02
 0.000000e+00 0.000000e+00 0.000000e+00 0.000000e+00 0.000000e+00
<ENDHMM>
~h "eh"
<BEGINHMM>
<NUMSTATES> 5
<STATE> 2
<MEAN> 39
 -7.592000e+00 -5.137286e+00 -5.505679e+00 -6.190122e+00 -8.720325e+00 -1.024166e+01 -9.161510e+00 -9.391294e+00 -6.142553e+00 -8.730725e+00 -8.146192e+00 -6.212899e+00 4.559150e+01 1.402810e+00 -2.166667e+00 1.176764e+00 -1.926184e+00 2.514607e-02 -8.305452e-01 -1.168793e+00 6.045525e-01 -3.146177e-01 3.601518e-02 -1.347064e+00 6.792336e-01 2.641274e+00 4.762784e-02 -4.284795e-01 3.030555e-01 -3.218008e-01 4.833899e-02 1.187641e-01 1.065182e-01 2.312225e-01 -1.649429e-01 5.079707e-02 -2.909388e-01 2.234513e-01 4.253389e-01
<VARIANCE> 39
 7.338200e+01 1.151516e+02 9.168790e+01 8.086002e+01 5.995264e+01 8.771426e+01 1.016465e+02 7.627534e+01 6.699086e+01 6.107731e+01 7.093532e+01 5.307662e+01 9.344880e+01 8.008076e+00 1.084914e+01 1.018068e+01 1.084314e+01 6.943138e+00 9.812472e+00 7.337036e+00 6.865146e+00 6.760644e+00 4.442091e+00 9.198109e+00 6.178162e+00 1.144174e+01 1.265130e+00 1.567576e+00 1.343349e+00 1.685786e+00 1.221968e+00 1.989291e+00 1.277401e+00 1.195418e+00 1.053612e+00 6.845737e-01 1.310781e+00 1.043917e+00 1.713272e+00
<GCONST> 1.587691e+02
<STATE> 3
<MEAN> 39
 -4.155076e+00 -1.675808e+01 1.872678e+00 -1.600895e+01 -7.350771e+00 -1.061925e+01 -1.064541e+01 -1.978383e+00 -1.163115e+01 -7.189549e+00 -1.524675e+01 -1.254110e+00 5.832919e+01 4.840419e-01 -8.963495e-01 1.129145e+00 -8.776233e-01 -4.850324e-01 8.168170e-02 5.692167e-01 7.160741e-01 -8.971234e-01 -2.738690e-02 -6.093143e-01 1.259535e-01 9.741330e-01 -1.470890e-01 7.364689e-01 -2.874233e-01 5.601909e-01 -2.876605e-02 5.619599e-02 1.182281e-01 -4.038337e-01 1.760326e-01 -7.022709e-02 4.353596e-01 -2.870307e-01 -7.389405e-01
<VARIANCE> 39
 2.088554e+01 7.081345e+01 6.733044e+01 5.593035e+01 6.059518e+01 5.550682e+01 4.251089e+01 5.376930e+01 4.329802e+01 7.106522e+01 5.876258e+01 4.629391e+01 6.122778e+01 2.983623e+00 1.093366e+01 3.234969e+00 6.836507e+00 5.098610e+00 5.551938e+00 4.656817e+00 7.378203e+00 3.180548e+00 4.475145e+00 4.717305e+00 5.296706e+00 7.910044e+00 5.879243e-01 1.177585e+00 6.384548e-01 8.473966e-01 7.316477e-01 9.962187e-01 7.078376e-01 9.837872e-01 5.421864e-01 8.365928e-01 8.333233e-01 8.932667e-01 8.418617e-01
<GCONST> 1.416053e+02
<STATE> 4
<MEAN> 39
 -5.018506e+00 -9.161440e+00 1.421154e+00 -1.396539e+01 -1.021227e+01 -1.135816e+01 -9.912294e+00 -6.193017e+00 -8.898983e+00 -6.043266e+00 -1.260508e+01 -2.856819e+00 5.322744e+01 -1.386299e-01 1.563489e-01 -3.020246e-01 2.511455e-01 2.783929e-01 1.429895e-01 1.777411e-01 -9.784403e-02 1.346756e-01 -2.055238e-01 1.678207e-01 -2.718227e-01 -1.950559e-01 -1.063889e-01 1.030005e-01 -1.565532e-01 1.074562e-01 1.911659e-01 4.143482e-02 1.819115e-02 -8.891904e-02 7.014230e-03 -4.425195e-02 1.192193e-01 -2.604952e-02 -6.763997e-02
<VARIANCE> 39
