~o
<STREAMINFO> 1 39
<VECSIZE> 39<NULLD><MFCC_D_A_0><DIAGC>
~s "silst"
<MEAN> 39
 -1.723796e+01 -5.347435e+00 -7.138426e+00 -2.920224e+00 -3.044393e+00 6.231438e-01 -6.995140e-01 -1.737692e+00 -2.415143e+00 -3.693453e+00 -2.698950e+00 -1.198959e+00 2.524016e+01 -1.550026e-01 -6.009156e-03 -1.576768e-02 5.590956e-03 2.348392e-02 3.579810e-02 1.384730e-02 3.371220e-02 2.873331e-02 1.403939e-01 6.820413e-02 6.186620e-02 -2.311787e-01 9.689827e-03 2.802698e-02 4.019449e-02 2.238178e-02 2.549997e-02 -3.978380e-03 1.411277e-02 1.538005e-02 2.192156e-02 6.996901e-03 1.586250e-02 1.662631e-02 2.072523e-02
<VARIANCE> 39
 5.134717e+00 7.908121e+00 8.723768e+00 1.037760e+01 1.278821e+01 1.479655e+01 1.651047e+01 2.255437e+01 1.772001e+01 2.010129e+01 1.742229e+01 1.449546e+01 1.085134e+01 2.231691e-01 4.562162e-01 6.828777e-01 9.749701e-01 1.315035e+00 1.592677e+00 1.762168e+00 1.960670e+00 1.834078e+00 1.799562e+00 1.642133e+00 1.425600e+00 1.838824e-01 4.286584e-02 8.467894e-02 1.352690e-01 1.801574e-01 2.621139e-01 3.081504e-01 3.514825e-01 4.035144e-01 3.682050e-01 3.736381e-01 3.368981e-01 2.885917e-01 3.574897e-02
<GCONST> 8.303216e+01
~h "b"
<BEGINHMM>
<NUMSTATES> 5
<STATE> 2
<MEAN> 39
 4.961751e+00 -1.656213e+01 -1.555223e+01 -6.871058e+00 -1.564319e+00 -6.185672e+00 -1.414641e+01 -1.039777e+00 -8.397249e+00 -7.043599e+00 -3.532991e+00 -8.216321e+00 5.234803e+01 5.662068e-02 2.169968e-01 3.548185e-01 7.745582e-01 -7.062922e-01 -9.053742e-01 1.027129e-01 4.229852e-01 3.037986e-01 -8.971812e-01 -2.742140e-01 -1.716269e-01 -4.135910e-01 -7.024998e-02 1.191894e-01 1.235040e-01 -5.232918e-02 -6.695186e-02 4.625798e-02 9.006013e-02 -9.205426e-02 -3.917738e-02 -4.523685e-02 -7.830424e-03 8.084070e-02 -7.249349e-02
<VARIANCE> 39
 2.122696e+01 5.543666e+01 5.425535e+01 5.442907e+01 8.822904e+01 1.824539e+02 4.299195e+01 8.372987e+01 3.332057e+01 9.255739e+01 3.932615e+01 1.480039e+01 3.131049e+01 5.750438e-01 3.191656e+00 1.703709e+00 2.184952e+00 2.981436e+00 3.211597e+00 2.961176e+00 4.314098e+00 2.854226e+00 2.931090e+00 2.192437e+00 1.843800e+00 1.030634e+00 8.403665e-02 1.967699e-01 1.823410e-01 3.698437e-01 4.125828e-01 3.713158e-01 4.129723e-01 4.673819e-01 4.517714e-01 4.670514e-01 3.431573e-01 2.007498e-01 6.571971e-02
<GCONST> 1.154641e+02
<STATE> 3
<MEAN> 39
 1.922225e+00 -4.915369e+00 -3.079404e+00 -7.021057e+00 -1.426943e+01 -1.280231e+01 -1.034768e+01 -5.352957e+00 -6.635458e+00 -1.489344e+01 -1.191221e+01 -8.758379e+00 4.521099e+01 -8.946859e-01 1.685833e+00 2.763145e-01 -6.979755e-02 1.998818e-01 8.626868e-01 6.107662e-01 -6.943991e-01 2.452035e-01 2.364334e-01 -2.119771e-01 -2.974358e-01 -1.596164e+00 -2.974382e-01 -2.129134e-01 -9.353647e-02 5.455798e-02 3.994593e-01 1.652793e-01 -9.719660e-02 -1.137267e-01 -5.796645e-02 4.602123e-01 4.285143e-01 1.451605e-01 3.250523e-02
<VARIANCE> 39
 3.883050e+01 6.166845e+01 4.085316e+01 3.888788e+01 5.700772e+01 3.542159e+01 2.419558e+01 6.580924e+01 3.235426e+01 4.296412e+01 7.616956e+01 4.291448e+01 3.415499e+01 1.247468e+00 2.443058e+00 3.378204e+00 2.631299e+00 2.071465e+00 3.222936e+00 3.142367e+00 4.635375e+00 3.369186e+00 4.893095e+00 3.142913e+00 3.065693e+00 8.407474e-01 1.858942e-01 4.698366e-01 4.464926e-01 5.151325e-01 3.876221e-01 4.813655e-01 5.420845e-01 6.616263e-01 7.430310e-01 7.170661e-01 6.353420e-01 8.133972e-01 1.541767e-01
<GCONST> 1.236721e+02
<STATE> 4
<MEAN> 39
 -5.782495e+00 -1.106822e+00 -5.897086e+00 -8.034210e+00 -1.091246e+01 -6.686948e+00 -7.646788e+00 -1.083041e+01 -9.276055e+00 -1.141501e+01 -1.022349e+01 -6.731560e+00 3.582697e+01 -1.275941e+00 -2.092276e-01 1.685076e-01 8.218006e-01 9.082891e-01 5.266393e-01 3.599515e-01 7.098632e-02 -9.952108e-02 3.374545e-02 7.062255e-01 5.597540e-01 -8.620151e-01 4.890860e-02 -3.678349e-01 3.295694e-01 1.169099e-02 -1.706444e-01 -2.849722e-01 -2.508766e-01 1.117994e-01 2.512301e-02 -1.481959e-02 2.850797e-01 2.203168e-01 4.707375e-01
<VARIANCE> 39
 4.191684e+01 3.229914e+01 2.455349e+01 2.758224e+01 4.358446e+01 2.983989e+01 2.150689e+01 3.535139e+01 3.759756e+01 3.145342e+01 3.296883e+01 2.564659e+01 3.515523e+01 6.716546e-01 1.692395e+00 2.215717e+00 1.384797e+00 1.098130e+00 1.677546e+00 2.161358e+00 3.857531e+00 3.569150e+00 2.613640e+00 2.905578e+00 2.356824e+00 6.771806e-01 2.977194e-01 4.390436e-01 5.807712e-01 3.167001e-01 5.219461e-01 4.624778e-01 6.793968e-01 7.956997e-01 6.626716e-01 6.792771e-01 6.017970e-01 5.805836e-01 3.610229e-01
<GCONST> 1.157006e+02
<TRANSP> 5
 0.000000e+00 1.000000e+00 0.000000e+00 0.000000e+00 0.000000e+00
 0.000000e+00 8.119764e-01 1.880236e-01 0.000000e+00 0.000000e+00
 0.000000e+00 0.000000e+00 6.543207e-01 3.456793e-01 0.000000e+00
 0.000000e+00 0.000000e+00 0.000000e+00 7.005787e-01 2.994213e-01
 0.000000e+00 0.000000e+00 0.000000e+00 0.000000e+00 0.000000e+00
<ENDHMM>
~h "d"
<BEGINHMM>
<NUMSTATES> 5
<STATE> 2
<MEAN> 39
 -5.974437e+00 1.871490e-01 -2.369219e+00 -6.143819e+00 -1.052999e+01 -1.022830e+01 -9.384973e+00 -1.153124e+01 -9.590743e+00 -1.083953e+01 -7.857952e+00 -5.705750e+00 4.006311e+01 -1.863317e+00 -3.457613e-01 7.085020e-02 -2.284099e-01 1.378227e+00 -2.484907e-01 1.694723e-01 -7.750890e-01 6.062797e-01 4.603640e-01 8.947068e-01 3.536595e-01 9.878502e-01 -2.828842e-01 -4.270688e-01 3.308547e-01 -7.595100e-01 3.260734e-01 -3.415425e-01 -1.620946e-01 1.180091e-01 7.681099e-02 4.587113e-01 1.753783e-01 4.481461e-01 1.033321e+00
<VARIANCE> 39
 5.106597e+01 4.643528e+01 4.317133e+01 3.813898e+01 5.266277e+01 4.062262e+01 5.019937e+01 6.079322e+01 4.473225e+01 4.314211e+01 5.246133e+01 2.862047e+01 7.438333e+01 5.881776e+00 6.622863e+00 6.896844e+00 5.434045e+00 7.492585e+00 5.418052e+00 4.546313e+00 5.700463e+00 4.696142e+00 4.312681e+00 4.118267e+00 4.100451e+00 7.979362e+00 9.275039e-01 9.053917e-01 8.312684e-01 6.568911e-01 1.197942e+00 7.109321e-01 8.954869e-01 1.107693e+00 8.098658e-01 6.659774e-01 7.520126e-01 7.684397e-01 8.113604e-01
<GCONST> 1.415683e+02
<STATE> 3
<MEAN> 39
 -1.226245e+01 -6.093078e+00 -8.056468e-02 -1.180972e+01 -4.298479e+00 -1.362895e+01 -1.120178e+01 -1.128583e+01 -7.417249e+00 -5.546535e+00 -4.021955e+00 -7.548232e-02 5.149832e+01 6.458610e-02 -1.141943e+00 9.694291e-01 -1.286132e+00 -8.356903e-02 -9.602646e-01 -2.741315e-01 1.356139e+00 4.499291e-01 9.053932e-01 1.978609e-02 9.714721e-01 1.973012e+00 7.004889e-01 2.086348e-01 -6.479198e-02 4.245670e-01 -4.065837e-01 3.569790e-01 1.800569e-01 4.235173e-01 1.548657e-02 -2.370968e-01 -5.104229e-01 -3.480863e-01 -8.112922e-01
<VARIANCE> 39
 8.449121e+01 8.116136e+01 7.893810e+01 6.144798e+01 7.871878e+01 8.672863e+01 9.742472e+01 9.355930e+01 5.729312e+01 5.029145e+01 5.781559e+01 4.365944e+01 4.948354e+01 9.294690e+00 7.698451e+00 5.957350e+00 7.299460e+00 7.863133e+00 7.001459e+00 1.058128e+01 8.709323e+00 6.440170e+00 5.267774e+00 6.117930e+00 5.053283e+00 9.478058e+00 1.441267e+00 1.271139e+00 1.383082e+00 1.121698e+00 1.988242e+00 1.587614e+00 1.616906e+00 1.765344e+00 1.106839e+00 9.599312e-01 1.015644e+00 1.113763e+00 1.217805e+00
<GCONST> 1.560477e+02
<STATE> 4
<MEAN> 39
 -6.286996e+00 -6.724300e+00 1.328418e+00 -9.789611e+00 -8.442435e+00 -1.433975e+01 -9.467398e+00 -5.008652e+00 -8.056756e+00 -7.604120e+00 -7.792063e+00 -2.031374e+00 4.773543e+01 2.260270e-01 7.741963e-01 -1.796511e-01 5.327898e-01 -4.512571e-01 8.600574e-01 5.034716e-01 3.320680e-01 5.007753e-01 -2.728947e-01 -3.191331e-01 -8.737902e-01 -1.465943e+00 -1.720328e-01 8.355580e-02 -2.126552e-01 1.039411e-01 7.929312e-02 1.951202e-01 -1.422272e-01 -3.622774e-01 -1.081859e-01 -5.575101e-02 7.038198e-02 -8.855216e-02 -1.107780e-01
<VARIANCE> 39
 5.985792e+01 9.352795e+01 6.862681e+01 5.464495e+01 5.553644e+01 8.156908e+01 7.854210e+01 5.471290e+01 8.607690e+01 4.954531e+01 6.355915e+01 4.943282e+01 1.037674e+02 2.661360e+00 3.732014e+00 4.487961e+00 3.420469e+00 4.295782e+00 4.427072e+00 3.824533e+00 6.077619e+00 4.797796e+00 4.375477e+00 3.957460e+00 3.737257e+00 2.306510e+00 5.309927e-01 6.554394e-01 8.183055e-01 5.907418e-01 7.467721e-01 8.867250e-01 9.587926e-01 9.477464e-01 8.660765e-01 8.474908e-01 6.817666e-01 8.493603e-01 5.574781e-01
<GCONST> 1.403360e+02
<TRANSP> 5
 0.000000e+00 1.000000e+00 0.000000e+00 0.000000e+00 0.000000e+00
 0.000000e+00 6.329315e-01 3.670685e-01 0.000000e+00 0.000000e+00
 0.000000e+00 0.000000e+00 6.606643e-01 3.393357e-01 0.000000e+00
 0.000000e+00 0.000000e+00 0.000000e+00 7.156634e-01 2.843366e-01
 0.000000e+00 0.000000e+00 0.000000e+00 0.000000e+00 0.000000e+00
<ENDHMM>
~h "f"
<BEGINHMM>
<NUMSTATES> 5
<STATE> 2
<MEAN> 39
 -1.595311e+01 -4.812467e+00 -3.263297e+00 -9.540183e+00 -6.768629e+00 -9.362031e+00 -4.165125e+00 -8.181304e+00 -5.521027e+00 -1.261390e+01 -8.187938e+00 -5.490788e+00 4.469271e+01 -2.848682e-01 -1.871543e-01 6.871285e-01 5.534369e-01 -3.843035e-02 -9.501361e-01 -8.810616e-01 -6.353319e-01 -4.750767e-01 -1.592526e-01 1.448244e-01 4.717052e-01 -7.360674e-02 5.330803e-01 -1.411186e-01 2.856132e-02 3.408646e-02 -1.014816e-01 -2.162917e-01 -6.532345e-01 -2.028277e-01 -3.165699e-01 1.128024e-01 -1.596312e-01 1.163679e-01 2.621410e-01
<VARIANCE> 39
 4.283724e+01 2.319564e+01 6.737502e+01 4.853496e+01 2.727927e+01 4.974527e+01 3.392332e+01 3.381450e+01 3.611956e+01 5.606116e+01 4.037508e+01 2.915878e+01 8.223122e+01 7.490669e+00 3.374022e+00 3.208211e+00 3.809447e+00 2.826656e+00 5.926718e+00 6.145885e+00 5.346910e+00 2.915155e+00 2.867432e+00 4.760098e+00 3.920400e+00 4.726886e+00 6.968985e-01 4.482984e-01 5.996697e-01 6.191735e-01 4.314786e-01 7.452705e-01 1.169445e+00 6.566734e-01 4.818928e-01 7.725168e-01 7.454828e-01 5.293205e-01 5.455750e-01
<GCONST> 1.325932e+02
<STATE> 3
<MEAN> 39
 -7.410563e+00 -6.707209e+00 -1.009238e+00 -7.857370e+00 -7.121552e+00 -1.941210e+01 -1.653550e+01 -1.164017e+01 -8.027802e+00 -8.513165e+00 -8.815420e+00 9.861643e-01 4.889008e+01 1.674155e+00 -1.225178e+00 5.381978e-01 -2.273620e-01 1.003597e-01 -4.990667e-01 -1.708770e+00 -1.200669e-02 -6.755761e-01 2.312894e-01 -1.165914e+00 -2.928766e-01 1.133327e+00 -3.382209e-01 2.218385e-01 -1.590062e-01 9.452841e-02 1.851816e-01 8.134487e-01 7.880911e-01 1.834090e-01 7.895999e-02 3.112805e-02 8.217926e-02 -5.902069e-01 -4.459290e-01
<VARIANCE> 39
 6.083057e+01 5.476750e+01 4.756948e+01 3.486599e+01 2.631739e+01 7.408065e+01 4.987473e+01 6.328694e+01 5.597464e+01 7.628408e+01 4.380292e+01 6.880224e+01 5.275860e+01 6.734303e+00 6.115259e+00 3.908787e+00 3.959926e+00 3.553540e+00 1.002269e+01 6.642034e+00 5.775352e+00 4.161006e+00 8.235153e+00 4.162315e+00 7.127006e+00 7.387532e+00 1.158244e+00 1.036823e+00 6.430084e-01 6.198417e-01 5.444204e-01 1.273076e+00 9.162923e-01 1.064861e+00 6.124197e-01 1.174246e+00 1.075360e+00 1.014282e+00 6.903794e-01
<GCONST> 1.440305e+02
<STATE> 4
<MEAN> 39
 -1.266917e+01 -5.275015e+00 -1.067382e+00 -4.071976e+00 -5.834506e+00 -1.294619e+01 -1.320413e+01 -1.303886e+01 -8.174126e+00 -1.044096e+01 -9.064014e+00 -4.997491e+00 4.329530e+01 -7.876108e-01 -1.184104e-01 1.766683e-01 2.791438e-01 6.671004e-02 4.381302e-01 4.110218e-01 -1.073519e-01 -9.930744e-02 2.819898e-01 8.484028e-02 -8.258773e-02 -6.011629e-01 1.445080e-01 1.994875e-02 -5.353019e-02 -9.700353e-02 -5.364975e-02 3.720933e-02 2.950303e-02 3.015627e-03 1.031107e-01 7.125154e-02 1.566910e-01 1.912972e-01 5.778407e-02
<VARIANCE> 39
 7.585417e+01 2.991592e+01 2.540618e+01 4.396530e+01 2.827315e+01 5.246964e+01 4.385199e+01 4.341492e+01 4.760999e+01 5.323330e+01 4.267195e+01 2.803975e+01 4.317035e+01 2.111639e+00 2.663733e+00 2.201256e+00 2.609359e+00 2.549108e+00 2.398061e+00 2.971615e+00 3.830698e+00 3.513858e+00 3.257035e+00 2.900836e+00 2.059252e+00 1.188621e+00 7.566439e-01 4.077455e-01 4.213220e-01 5.898080e-01 5.221984e-01 5.107104e-01 7.078743e-01 8.720073e-01 6.451551e-01 5.655028e-01 7.357476e-01 4.861479e-01 1.725909e-01
<GCONST> 1.239165e+02
<TRANSP> 5
 0.000000e+00 1.000000e+00 0.000000e+00 0.000000e+00 0.000000e+00
 0.000000e+00 6.946481e-01 3.053519e-01 0.000000e+00 0.000000e+00
 0.000000e+00 0.000000e+00 5.385221e-01 4.614779e-01 0.000000e+00
 0.000000e+00 0.000000e+00 0.000000e+00 8.347834e-01 1.652166e-01
 0.000000e+00 0.000000e+00 0.000000e+00 0.000000e+00 0.000000e+00
<ENDHMM>
~h "g"
<BEGINHMM>
<NUMSTATES> 5
<STATE> 2
<MEAN> 39
 -1.573875e+01 -7.610840e+00 -5.990054e+00 -3.363618e+00 -7.879670e+00 -2.073027e+00 -6.911122e+00 -1.225762e+01 -7.750415e+00 -3.348331e+00 -3.074470e+00 1.479650e-01 3.766801e+01 2.650680e+00 1.656525e-01 -5.165087e-01 -1.148314e+00 9.423464e-02 -1.384767e+00 -1.254915e+00 -2.251896e-01 -1.490495e+00 -6.008748e-01 8.667347e-01 5.619183e-02 1.584426e+00 5.643647e-01 6.394674e-02 4.984916e-01 -3.561032e-01 -3.219436e-01 1.652358e-01 4.778862e-02 4.498292e-01 -1.293499e-01 -1.765383e-01 -2.768096e-01 -1.196575e-01 6.147897e-01
<VARIANCE> 39
 8.835067e+01 5.328696e+01 5.325679e+01 2.880960e+01 4.396700e+01 8.501727e+01 6.887534e+01 3.603069e+01 4.453732e+01 5.175816e+01 2.399167e+01 7.343844e+00 1.003092e+02 6.829923e+00 1.215504e+01 8.889599e+00 4.456807e+00 2.783502e+00 6.758425e+00 9.926051e+00 6.050701e+00 3.276716e+00 3.076132e+00 1.924962e+00 3.203514e+00 1.275568e+01 1.316409e+00 1.939653e+00 1.408783e+00 1.234404e+00 1.548921e+00 3.375460e-01 9.624223e-01 1.233228e+00 1.212878e+00 1.525027e+00 8.048468e-01 4.345756e-01 2.132996e+00
<GCONST> 1.441752e+02
<STATE> 3
<MEAN> 39
 -2.491937e+00 -9.118367e+00 -5.828094e+00 -8.248819e+00 -4.207385e+00 -1.044081e+01 -1.207516e+01 -7.013703e+00 -1.020939e+01 -7.814912e+00 -4.289417e+00 -3.661236e+00 5.330354e+01 1.168391e+00 -1.101361e+00 3.439957e+00 -7.002097e-01 -2.010303e+00 -1.759575e+00 -4.955519e-01 5.627439e-01 -4.269555e-01 1.844848e-01 -1.762605e+00 -1.081029e+00 2.366022e+00 -1.636820e-01 -2.131669e-02 2.749293e-01 4.415760e-01 -5.963247e-01 6.257198e-01 6.136605e-01 -1.112187e-01 2.686485e-02 4.575486e-01 -2.213223e-01 -3.270799e-01 -9.731908e-01
<VARIANCE> 39
 1.096207e+02 1.547374e+02 2.175848e+02 5.719064e+01 7.692265e+01 1.484600e+02 7.760255e+01 1.247955e+02 2.047661e+01 4.118850e+01 3.319385e+01 3.229241e+01 5.595217e+01 2.132195e+00 4.459183e+00 1.152571e+01 9.209462e+00 1.300474e+01 7.736989e+00 5.369137e+00 4.823048e+00 5.867585e+00 3.866576e+00 2.358760e+00 3.528506e+00 1.010609e+01 7.856501e-01 1.542500e+00 1.257933e+00 9.035485e-01 1.426796e+00 1.777497e+00 1.415666e+00 1.110733e+00 9.904438e-01 9.033381e-01 6.503813e-01 5.098875e-01 1.056889e+00
<GCONST> 1.499856e+02
<STATE> 4
<MEAN> 39
 -1.998236e+00 -7.850985e+00 4.026624e+00 -5.955125e+00 -8.186298e+00 -1.490225e+01 -1.070755e+01 -1.154535e+01 -1.350908e+01 -5.293543e+00 -9.946876e+00 -6.354540e+00 4.901196e+01 2.206963e-01 -9.623721e-02 -6.711981e-01 3.654993e-01 7.981893e-01 1.903234e-01 -3.292501e-01 1.466019e-01 1.173594e-01 -1.354556e-02 -2.278273e-01 -1.329541e-01 -5.299890e-01 -6.719413e-02 1.122160e-01 -2.701640e-01 -8.851108e-02 1.419708e-01 9.993040e-02 -1.026024e-01 -6.287977e-02 1.635523e-01 -1.869298e-02 1.572571e-01 3.538242e-02 -3.966311e-02
<VARIANCE> 39
 1.560827e+01 1.068368e+02 8.958022e+01 5.171986e+01 1.736285e+02 1.011599e+02 6.480026e+01 8.468077e+01 3.467833e+01 5.129861e+01 3.401997e+01 4.762441e+01 5.590784e+01 2.511633e+00 9.050713e+00 6.403451e+00 3.395163e+00 1.458927e+01 9.759282e+00 4.794900e+00 7.402757e+00 4.003480e+00 6.607657e+00 3.823996e+00 3.583454e+00 3.828763e+00 4.097366e-01 1.797660e+00 1.233487e+00 7.905275e-01 2.985534e+00 2.262157e+00 6.707784e-01 1.586018e+00 9.682645e-01 1.354383e+00 8.868317e-01 7.402035e-01 7.043530e-01
<GCONST> 1.479260e+02
<TRANSP> 5
 0.000000e+00 1.000000e+00 0.000000e+00 0.000000e+00 0.000000e+00
 0.000000e+00 6.582144e-01 3.417855e-01 0.000000e+00 0.000000e+00
 0.000000e+00 0.000000e+00 7.203276e-01 2.796724e-01 0.000000e+00
 0.000000e+00 0.000000e+00 0.000000e+00 9.249138e-01 7.508622e-02
 0.000000e+00 0.000000e+00 0.000000e+00 0.000000e+00 0.000000e+00
<ENDHMM>
~h "k"
<BEGINHMM>
<NUMSTATES> 5
<STATE> 2
<MEAN> 39
 -3.996189e+00 -2.770842e+00 -5.678815e+00 -6.314126e+00 -1.138849e+01 -8.553021e+00 -5.985146e+00 -7.475381e+00 -4.999164e+00 -1.020373e+01 -1.022320e+01 -8.578532e+00 3.968536e+01 -7.172773e-01 4.088771e-01 -7.710222e-01 2.858498e-01 4.463301e-01 4.057169e-01 5.226112e-01 1.961870e-01 2.880493e-01 -5.341699e-02 1.084995e-01 -1.715796e-01 -1.740316e+00 -2.720274e-01 -5.637240e-01 8.370404e-02 3.488975e-02 5.187533e-01 -1.112673e-01 -2.028374e-01 -4.042845e-01 -2.578549e-01 3.237954e-01 9.311066e-02 4.429226e-01 6.039915e-01
<VARIANCE> 39
 4.084054e+01 4.521242e+01 5.235997e+01 4.859160e+01 8.498476e+01 3.304713e+01 4.193921e+01 3.828487e+01 3.467052e+01 4.260133e+01 5.659695e+01 3.075979e+01 5.333025e+01 1.472240e+00 2.336045e+00 1.874595e+00 2.088279e+00 2.929685e+00 2.372414e+00 2.551790e+00 3.305929e+00 4.109545e+00 2.866598e+00 2.829173e+00 2.214707e+00 1.492004e+00 3.567598e-01 4.589354e-01 6.219452e-01 4.637902e-01 8.487489e-01 8.588564e-01 7.551587e-01 8.885437e-01 9.187212e-01 7.642578e-01 8.021572e-01 6.772071e-01 3.338006e-01
<GCONST> 1.266420e+02
<STATE> 3
<MEAN> 39
 -7.754656e+00 -1.925784e+00 -6.163682e+00 -3.997975e+00 -7.571376e+00 -7.264329e+00 -5.986331e+00 -9.629283e+00 -5.056463e+00 -8.354641e+00 -8.330228e+00 -7.952677e+00 3.581705e+01 -1.570041e+00 -2.384127e+00 -1.097038e+00 4.556081e-01 2.794314e+00 -8.439128e-01 5.712974e-01 -1.710428e+00 7.008235e-01 2.240116e+00 1.504599e+00 2.419797e+00 2.097160e+00 8.751396e-02 -3.842298e-01 -1.286233e-01 -2.713272e-01 2.758343e-01 -4.974560e-01 -1.513428e-01 -2.143979e-01 -8.680724e-02 4.926023e-01 2.348626e-01 7.037063e-01 1.252061e+00
<VARIANCE> 39
 3.663113e+01 2.638586e+01 3.184306e+01 3.520157e+01 6.454796e+01 3.331092e+01 2.884730e+01 5.058197e+01 5.726204e+01 3.612138e+01 5.796890e+01 2.080690e+01 4.938682e+01 5.137036e+00 5.774012e+00 1.276501e+01 6.012803e+00 1.282053e+01 1.005307e+01 8.561584e+00 8.068136e+00 6.904008e+00 7.953102e+00 4.581774e+00 6.620908e+00 3.435180e+00 4.234043e-01 6.119686e-01 1.046239e+00 7.972118e-01 1.311087e+00 8.827398e-01 6.610768e-01 1.105947e+00 1.126136e+00 8.994917e-01 1.059601e+00 7.872154e-01 5.186548e-01
<GCONST> 1.421137e+02
<STATE> 4
<MEAN> 39
 -1.003405e+01 -1.070590e+01 -7.404171e+00 -5.173605e+00 -4.396183e-01 -1.146566e+01 -4.170036e+00 -1.133397e+01 -3.990722e+00 -2.593565e+00 -4.981203e+00 -6.793402e-02 4.765034e+01 2.165865e-01 -2.840495e-01 5.013074e-01 -8.526515e-01 3.122859e-01 2.003628e-01 -1.147581e-01 1.059370e-01 -1.742947e-01 6.007414e-01 -2.779600e-01 4.918758e-01 1.436720e+00 5.021604e-01 5.076367e-01 2.438101e-01 -2.121865e-01 -5.659494e-01 3.449707e-01 -2.846940e-01 2.372957e-01 -3.563138e-01 -5.049752e-01 -4.244853e-01 -6.522127e-01 -4.945647e-01
<VARIANCE> 39
 5.727117e+01 6.160012e+01 1.485963e+02 7.894633e+01 1.599634e+02 9.426627e+01 8.036769e+01 8.834030e+01 6.094131e+01 8.428642e+01 4.727726e+01 4.899168e+01 6.598840e+01 5.910086e+00 8.048137e+00 9.127200e+00 6.937448e+00 1.070657e+01 8.910038e+00 7.308255e+00 1.000058e+01 6.922032e+00 7.343198e+00 6.088729e+00 7.128192e+00 7.092141e+00 7.679159e-01 1.290890e+00 1.844012e+00 1.158114e+00 2.436120e+00 1.920049e+00 1.608369e+00 2.237160e+00 1.081655e+00 1.472816e+00 9.954689e-01 1.268260e+00 7.195321e-01
<GCONST> 1.586465e+02
<TRANSP> 5
 0.000000e+00 1.000000e+00 0.000000e+00 0.000000e+00 0.000000e+00
 0.000000e+00 7.139401e-01 2.860598e-01 0.000000e+00 0.000000e+00
 0.000000e+00 0.000000e+00 4.271788e-01 5.728212e-01 0.000000e+00
 0.000000e+00 0.000000e+00 0.000000e+00 7.605563e-01 2.394436e-01
 0.000000e+00 0.000000e+00 0.000000e+00 0.000000e+00 0.000000e+00
<ENDHMM>
~h "l"
<BEGINHMM>
<NUMSTATES> 5
<STATE> 2
<MEAN> 39
 -4.116804e+00 -8.349242e+00 1.512483e+00 -1.325319e+01 -3.187851e+00 -1.039487e+01 -1.803120e+01 -1.173151e+01 -7.586134e+00 -7.812546e+00 -1.046380e+01 4.224010e-01 5.215534e+01 1.355836e+00 -1.153750e+00 1.888833e-01 -1.648680e+00 1.067898e+00 -3.484216e-02 -1.326759e+00 5.616569e-01 1.899939e-01 4.511952e-01 -1.356399e+00 2.681109e-01 1.445894e+00 -2.515513e-01 -2.168586e-01 -1.816316e-01 5.959498e-02 1.359974e-01 3.200553e-01 5.477210e-01 3.488323e-01 -5.274074e-02 1.508758e-01 -2.001976e-01 -2.604436e-01 1.256462e-02
<VARIANCE> 39
 6.911726e+01 8.061460e+01 7.438268e+01 1.102892e+02 9.674162e+01 1.269632e+02 9.771068e+01 1.029203e+02 6.444334e+01 5.571079e+01 6.082557e+01 5.017648e+01 8.446175e+01 6.042262e+00 6.294660e+00 5.785635e+00 6.825602e+00 8.131959e+00 1.013916e+01 1.387786e+01 1.148306e+01 5.576366e+00 5.735431e+00 5.299901e+00 5.045020e+00 5.932319e+00 7.924643e-01 1.184530e+00 6.058092e-01 1.089060e+00 1.279003e+00 1.826546e+00 2.436211e+00 2.021129e+00 7.312514e-01 9.186269e-01 8.951910e-01 9.744502e-01 1.029118e+00
<GCONST> 1.553801e+02
<STATE> 3
<MEAN> 39
 -2.116679e+00 -1.586920e+01 -7.755649e-02 -2.213618e+01 5.629369e+00 -9.318853e+00 -1.919253e+01 -6.543333e+00 -4.356893e+00 -4.038688e+00 -1.848995e+01 -3.163255e+00 5.885969e+01 1.392433e-01 2.470133e-01 -3.808973e-01 -2.606330e-01 1.138989e-01 1.533822e-01 -1.026011e-01 -1.630434e-02 1.696481e-01 2.090514e-01 -4.023976e-02 -4.731144e-01 -1.961821e-01 5.548808e-02 2.562865e-01 -1.000763e-01 3.433574e-01 -4.518690e-01 3.227789e-02 1.063372e-01 -1.885441e-01 -1.474801e-01 -8.994570e-02 4.283823e-01 -7.237939e-02 -1.968772e-01
<VARIANCE> 39
 1.070491e+01 4.250169e+01 3.648190e+01 6.539153e+01 6.193060e+01 1.044892e+02 6.663635e+01 6.684949e+01 5.683509e+01 7.844924e+01 4.470470e+01 3.793464e+01 2.001315e+01 7.101212e-01 2.830172e+00 2.140879e+00 3.282062e+00 4.055858e+00 6.193869e+00 5.468776e+00 4.336696e+00 4.287742e+00 3.249226e+00 4.128048e+00 3.297677e+00 1.136513e+00 1.038517e-01 3.410511e-01 2.603456e-01 5.746068e-01 5.679659e-01 7.596986e-01 8.188759e-01 8.129247e-01 7.122101e-01 7.412858e-01 6.612232e-01 5.212857e-01 1.553515e-01
<GCONST> 1.259434e+02
<STATE> 4
<MEAN> 39
 1.721192e+00 -6.797177e+00 -8.037390e+00 -1.950306e+01 -3.284477e+00 -1.029000e+00 -1.617452e+01 -1.083776e+01 -4.589252e+00 -3.903085e+00 -8.945301e+00 -5.923771e+00 5.139056e+01 -1.920841e-01 7.515036e-01 -1.973955e-01 1.064315e+00 -7.423067e-01 -4.666515e-01 8.786402e-01 1.869093e-01 3.471877e-02 -3.072568e-01 5.593963e-01 -2.473378e-01 -9.358359e-01 -1.482506e-01 -4.175488e-02 8.790017e-02 7.191114e-02 -1.712097e-02 -9.211827e-02 9.150252e-02 -1.881879e-02 -1.974159e-02 -2.901406e-02 -1.873269e-02 6.099451e-02 1.954375e-03
<VARIANCE> 39
 2.469625e+01 9.470927e+01 5.664596e+01 1.125929e+02 8.732892e+01 1.074369e+02 8.817591e+01 8.659373e+01 5.798578e+01 5.409509e+01 5.076438e+01 5.048799e+01 5.385608e+01 1.762544e+00 2.093734e+00 2.034961e+00 3.339427e+00 4.093015e+00 4.009750e+00 3.456779e+00 3.674396e+00 3.497940e+00 3.316641e+00 2.673750e+00 2.882153e+00 8.792429e-01 2.035427e-01 2.834256e-01 2.744170e-01 5.575846e-01 5.891392e-01 6.051858e-01 6.432747e-01 6.825013e-01 6.848079e-01 5.673681e-01 5.602379e-01 4.930785e-01 1.192318e-01
<GCONST> 1.281519e+02
<TRANSP> 5
 0.000000e+00 1.000000e+00 0.000000e+00 0.000000e+00 0.000000e+00
 0.000000e+00 6.487010e-01 3.512990e-01 0.000000e+00 0.000000e+00
 0.000000e+00 0.000000e+00 7.703230e-01 2.296770e-01 0.000000e+00
 0.000000e+00 0.000000e+00 0.000000e+00 7.950720e-01 2.049280e-01
 0.000000e+00 0.000000e+00 0.000000e+00 0.000000e+00 0.000000e+00
<ENDHMM>
~h "m"
<BEGINHMM>
<NUMSTATES> 5
<STATE> 2
<MEAN> 39
 9.172732e-02 -1.005353e+01 1.108475e+00 -1.031043e+01 -6.111198e+00 -1.431670e+01 -1.892251e+01 -9.432419e+00 -8.582831e+00 -7.913598e+00 -1.124265e+01 -2.603006e+00 5.208123e+01 1.658928e+00 5.218493e-01 -8.714542e-01 1.580130e+00 2.665218e-01 8.493754e-02 -1.775262e+00 -9.949291e-01 -7.341540e-01 -5.496287e-01 -1.962663e-01 -1.782372e+00 -5.601648e-01 -1.926979e-01 5.071682e-02 -2.345452e-01 1.093864e-01 1.758851e-01 2.356202e-01 2.169106e-01 -4.740243e-02 -1.131371e-01 7.197492e-03 1.107230e-01 -3.119593e-01 -4.428545e-02
<VARIANCE> 39
 2.755718e+01 1.057421e+02 3.641105e+01 7.758312e+01 5.001611e+01 4.800008e+01 5.553893e+01 7.078215e+01 6.379642e+01 6.024261e+01 4.731428e+01 4.158988e+01 6.924469e+01 2.606620e+00 4.748249e+00 2.607588e+00 4.159462e+00 3.504807e+00 3.503079e+00 5.796826e+00 5.498793e+00 4.892009e+00 3.551482e+00 2.472805e+00 3.854544e+00 3.589153e+00 3.913452e-01 9.751374e-01 3.463207e-01 5.592499e-01 3.622552e-01 7.646499e-01 8.538607e-01 1.035779e+00 7.215483e-01 6.682286e-01 5.534903e-01 6.626177e-01 4.011973e-01
<GCONST> 1.343368e+02
<STATE> 3
<MEAN> 39
 5.113869e+00 -9.851530e+00 -4.681231e+00 -1.931038e+00 -1.890198e+00 -1.084376e+01 -2.464762e+01 -1.293505e+01 -1.377436e+01 -8.873911e+00 -6.979413e+00 -1.181582e+01 4.989207e+01 5.648828e-02 -3.311118e-01 -5.447290e-01 -4.081202e-02 6.370990e-01 6.223992e-01 -4.336504e-01 2.215589e-01 2.358577e-01 1.554916e-01 3.900880e-01 -1.275081e-01 5.519614e-04 -2.174009e-01 -1.793413e-01 1.574740e-01 -6.207281e-01 -1.224666e-01 1.182299e-01 3.724974e-01 2.838515e-01 3.164147e-01 5.249507e-02 -6.917234e-02 5.073270e-01 2.007251e-01
<VARIANCE> 39
 7.979972e+00 2.875444e+01 3.096021e+01 5.151073e+01 5.227549e+01 5.621783e+01 3.454281e+01 5.173859e+01 5.487431e+01 5.317086e+01 4.974513e+01 5.129724e+01 1.347404e+01 4.255393e-01 3.247016e+00 1.702202e+00 6.007468e+00 2.476278e+00 3.455526e+00 2.835446e+00 5.411326e+00 3.878610e+00 3.422222e+00 3.232151e+00 3.969393e+00 1.426170e+00 1.408924e-01 3.357443e-01 2.910910e-01 5.887098e-01 5.720145e-01 4.761185e-01 5.674320e-01 7.688837e-01 6.369474e-01 5.975005e-01 6.733694e-01 6.129238e-01 1.227816e-01
<GCONST> 1.205100e+02
<STATE> 4
<MEAN> 39
 2.860716e+00 -1.087948e+01 -7.978076e+00 -9.346927e+00 -1.410125e+00 -5.596587e+00 -1.918949e+01 -8.205187e+00 -9.810578e+00 -9.521673e+00 -8.537928e+00 -6.949264e+00 4.989908e+01 -5.554188e-01 -2.642152e-02 3.126858e-01 -1.156591e+00 -2.009128e-01 3.281543e-01 1.250991e+00 4.982948e-01 1.237919e-01 -2.364868e-01 -6.879796e-01 7.126774e-01 -1.618877e-02 -1.296637e-01 6.831560e-02 2.794697e-01 1.581304e-01 -1.593426e-01 -1.715901e-01 4.667620e-02 -2.384082e-01 -2.010728e-01 4.186538e-02 -1.320918e-01 -8.801103e-03 -9.691156e-03
<VARIANCE> 39
 1.807212e+01 1.160660e+02 5.303009e+01 8.175344e+01 7.681541e+01 1.052816e+02 5.297885e+01 8.146687e+01 6.373278e+01 7.807255e+01 5.400340e+01 4.022305e+01 7.252668e+01 9.035632e-01 4.465007e+00 1.418122e+00 4.758580e+00 4.179799e+00 3.336709e+00 3.058833e+00 4.765911e+00 3.570279e+00 3.604453e+00 2.615908e+00 4.071203e+00 2.310481e+00 2.164602e-01 4.442960e-01 3.779723e-01 9.106348e-01 4.404564e-01 5.774962e-01 6.289303e-01 6.951193e-01 5.421990e-01 7.463216e-01 7.453831e-01 6.172542e-01 2.029799e-01
<GCONST> 1.310447e+02
<TRANSP> 5
 0.000000e+00 1.000000e+00 0.000000e+00 0.000000e+00 0.000000e+00
 0.000000e+00 6.451911e-01 3.548089e-01 0.000000e+00 0.000000e+00
 0.000000e+00 0.000000e+00 8.138152e-01 1.861848e-01 0.000000e+00
 0.000000e+00 0.000000e+00 0.000000e+00 6.153182e-01 3.846818e-01
 0.000000e+00 0.000000e+00 0.000000e+00 0.000000e+00 0.000000e+00
<ENDHMM>
~h "n"
<BEGINHMM>
<NUMSTATES> 5
<STATE> 2
<MEAN> 39
 -3.565775e+00 -1.231254e+01 4.872394e+00 -1.775222e+01 -7.283004e+00 -1.381703e+01 -1.150068e+01 -5.372839e+00 -1.538364e+01 -6.629667e+00 -9.974740e+00 1.112574e+00 5.733407e+01 1.188617e+00 1.422548e+00 -6.417234e-01 1.611947e+00 -4.511365e-01 -4.119750e-01 -3.002037e-01 -1.165861e+00 -1.143006e+00 -8.923169e-01 1.862657e-01 -4.681301e-01 -1.301142e+00 2.701381e-01 1.052820e-01 -2.502846e-01 5.641861e-01 -1.317072e-01 2.624966e-01 -1.604834e-01 -3.277243e-01 6.474957e-02 -1.581620e-01 1.880651e-01 -1.847976e-01 -3.349328e-01
<VARIANCE> 39
 1.599804e+01 5.797435e+01 3.550286e+01 5.289743e+01 5.534789e+01 6.544642e+01 4.905700e+01 6.988422e+01 6.624497e+01 6.485798e+01 3.842303e+01 3.795082e+01 3.424442e+01 1.739830e+00 2.142977e+00 1.850636e+00 3.331029e+00 3.014754e+00 3.126660e+00 2.896267e+00 2.852925e+00 3.752273e+00 3.189160e+00 2.762090e+00 3.028105e+00 1.541463e+00 1.905512e-01 4.394909e-01 2.917745e-01 4.430473e-01 5.113547e-01 5.730781e-01 4.794906e-01 4.934112e-01 6.495528e-01 6.171706e-01 5.298099e-01 5.513140e-01 1.823795e-01
<GCONST> 1.230541e+02
<STATE> 3
<MEAN> 39
 4.288238e+00 -5.610546e+00 3.249466e-01 -4.270434e+00 -1.015899e+01 -1.254332e+01 -1.477499e+01 -1.446239e+01 -1.837140e+01 -1.288421e+01 -5.891455e+00 -1.622900e+00 4.829039e+01 5.897983e-01 9.757432e-01 -5.721717e-01 1.216971e+00 -2.727026e-01 8.114320e-02 -4.614701e-01 -8.761394e-01 1.258974e-01 -5.312016e-01 4.663340e-01 -2.001034e-01 -9.844195e-01 -3.389692e-01 -3.159950e-03 9.631580e-02 -3.302046e-01 1.069829e-01 -5.328231e-02 6.847508e-02 2.796452e-01 2.528709e-01 2.232729e-01 -1.723145e-02 6.670097e-02 1.620287e-01
<VARIANCE> 39
 7.830373e+00 3.600893e+01 1.919060e+01 3.723835e+01 4.346479e+01 6.002682e+01 4.773726e+01 6.865077e+01 5.718150e+01 5.735060e+01 4.568469e+01 3.957564e+01 1.474589e+01 1.013470e+00 2.106739e+00 1.518076e+00 2.797114e+00 2.342280e+00 2.979714e+00 2.378424e+00 3.164961e+00 2.924603e+00 3.503879e+00 3.156438e+00 2.635869e+00 6.913605e-01 1.393732e-01 3.309051e-01 2.915341e-01 4.004966e-01 4.074085e-01 5.663487e-01 4.688883e-01 5.306471e-01 5.162262e-01 6.143618e-01 5.538726e-01 5.349163e-01 8.769795e-02
<GCONST> 1.155009e+02
<STATE> 4
<MEAN> 39
 -4.374982e-01 2.031624e+00 -1.324081e+00 -2.293283e+00 -1.053000e+01 -1.190964e+01 -1.432040e+01 -1.395742e+01 -1.174652e+01 -1.139525e+01 -5.369246e+00 -2.797779e+00 4.069715e+01 -1.158688e+00 8.264227e-02 -3.706358e-01 -9.399195e-03 5.107060e-01 5.809873e-01 2.316289e-01 3.162008e-01 6.172272e-01 3.869177e-01 1.217321e-01 -3.886822e-01 -3.329750e-01 -3.248254e-01 -3.387372e-01 1.667750e-02 -2.417365e-01 2.091894e-01 1.316562e-01 1.428120e-01 1.158334e-01 1.071894e-01 1.440982e-01 -6.276368e-02 7.479896e-02 2.866410e-01
<VARIANCE> 39
 3.567819e+01 3.924713e+01 2.255553e+01 2.301713e+01 3.148502e+01 4.498508e+01 3.793400e+01 4.374551e+01 4.837365e+01 4.414981e+01 3.562392e+01 3.158017e+01 4.474117e+01 1.681249e+00 4.765885e+00 2.721689e+00 3.748620e+00 2.553712e+00 3.958894e+00 3.605517e+00 4.374183e+00 3.870041e+00 3.952355e+00 3.637867e+00 2.923610e+00 1.478978e+00 3.743654e-01 5.876254e-01 5.068007e-01 7.415349e-01 4.959835e-01 7.573308e-01 6.476164e-01 8.350543e-01 6.688922e-01 7.158615e-01 6.889303e-01 5.832165e-01 2.516767e-01
<GCONST> 1.261808e+02
<TRANSP> 5
 0.000000e+00 1.000000e+00 0.000000e+00 0.000000e+00 0.000000e+00
 0.000000e+00 6.834359e-01 3.165642e-01 0.000000e+00 0.000000e+00
 0.000000e+00 0.000000e+00 8.148412e-01 1.851587e-01 0.000000e+00
 0.000000e+00 0.000000e+00 0.000000e+00 7.328378e-01 2.671622e-01
 0.000000e+00 0.000000e+00 0.000000e+00 0.000000e+00 0.000000e+00
<ENDHMM>
~h "p"
<BEGINHMM>
<NUMSTATES> 5
<STATE> 2
<MEAN> 39
 -4.620232e+00 -1.104277e+01 -1.436228e+00 -9.614001e+00 -7.782408e+00 -4.109528e+00 -9.749575e+00 -5.907786e+00 -8.688700e+00 -7.224091e+00 -1.068601e+01 -5.139911e+00 4.713709e+01 3.778366e-01 -8.979424e-01 -1.849609e-01 -9.101967e-01 -1.261533e-01 1.064192e+00 5.227566e-01 7.665877e-01 4.413764e-01 7.224417e-01 -9.346622e-01 -8.960479e-01 9.798595e-01 -1.865113e-01 3.208879e-01 -3.260196e-02 1.434066e-01 9.688300e-02 9.163551e-03 6.815657e-03 -2.677379e-01 -7.109001e-03 9.491803e-02 1.424378e-01 -3.679220e-02 -2.537204e-01
<VARIANCE> 39
 4.636461e+01 8.245627e+01 9.630036e+01 7.201361e+01 1.173599e+02 6.996924e+01 3.396579e+01 4.924811e+01 6.090728e+01 6.658711e+01 5.471148e+01 4.362224e+01 1.174668e+02 3.270223e+00 7.725661e+00 3.063616e+00 7.094045e+00 6.823184e+00 5.063760e+00 3.515892e+00 5.247847e+00 6.992494e+00 7.068468e+00 4.428030e+00 3.003564e+00 1.041408e+01 5.269865e-01 8.329102e-01 4.502858e-01 9.886668e-01 9.731879e-01 1.267244e+00 6.968096e-01 8.876439e-01 1.392882e+00 1.150445e+00 1.068208e+00 6.928891e-01 1.208352e+00
<GCONST> 1.461112e+02
<STATE> 3
<MEAN> 39
 -9.885958e-01 -1.278841e+01 -7.920156e+00 -6.996079e+00 -2.518144e+00 -2.670882e+00 -9.606068e+00 -6.319305e+00 -8.805956e+00 -8.586330e+00 -1.311338e+01 -9.656391e+00 4.672747e+01 -3.644779e-01 6.459549e-01 -2.677894e-01 2.607186e-01 -1.828659e-01 -2.293265e-01 2.341452e-01 -5.495849e-02 -2.616318e-02 -2.183172e-01 2.970995e-01 1.690446e-01 -1.008919e+00 -1.198531e-01 2.817585e-02 1.060866e-01 -1.986185e-01 -2.180551e-02 -3.598184e-02 -5.684434e-02 3.834921e-02 -3.393602e-03 2.609761e-02 1.370264e-01 1.398484e-01 5.804295e-02
<VARIANCE> 39
 4.669768e+01 1.264705e+02 6.570499e+01 5.169522e+01 9.658356e+01 6.449004e+01 3.716404e+01 8.205211e+01 4.002115e+01 9.907738e+01 5.803143e+01 3.334891e+01 1.035158e+02 6.824821e-01 1.727717e+00 2.169268e+00 1.878326e+00 3.514701e+00 2.339380e+00 1.719687e+00 2.548148e+00 2.658937e+00 3.217000e+00 2.039245e+00 1.121744e+00 1.031381e+00 1.431688e-01 2.126034e-01 3.207301e-01 3.234818e-01 6.286749e-01 3.927966e-01 4.779796e-01 5.034405e-01 4.180708e-01 6.959757e-01 4.687697e-01 3.405631e-01 1.323173e-01
<GCONST> 1.202299e+02
<STATE> 4
<MEAN> 39
 -8.236836e+00 -4.270514e+00 -5.029598e+00 -6.618051e+00 -7.782136e+00 -5.313965e+00 -7.262638e+00 -7.623809e+00 -6.863679e+00 -1.041091e+01 -8.360174e+00 -5.323481e+00 3.747730e+01 -8.096401e-01 -2.703375e-01 1.190950e-01 -2.789336e-01 2.585689e-01 7.201068e-02 -2.422270e-02 1.829835e-01 7.031205e-01 9.052464e-01 7.880587e-01 4.887170e-01 -3.895348e-01 3.770099e-02 -2.820508e-01 2.058225e-01 1.131155e-02 6.370313e-02 -1.783894e-01 -2.513349e-01 -8.866949e-02 4.198820e-02 1.473091e-01 1.218341e-02 1.617900e-01 3.770922e-01
<VARIANCE> 39
 3.884072e+01 5.284030e+01 5.377235e+01 5.275228e+01 2.981388e+01 4.105140e+01 3.811055e+01 6.146957e+01 3.818932e+01 5.574885e+01 6.350270e+01 4.829297e+01 8.222165e+01 1.495404e+00 1.904129e+00 2.580245e+00 2.444756e+00 1.766626e+00 2.685807e+00 5.441824e+00 4.876319e+00 2.887593e+00 4.060537e+00 5.199914e+00 2.930293e+00 1.615780e+00 3.718228e-01 3.907357e-01 4.722512e-01 6.827549e-01 4.795129e-01 6.105174e-01 1.011446e+00 8.614696e-01 5.985813e-01 7.156897e-01 1.008392e+00 5.619891e-01 5.344658e-01
<GCONST> 1.291443e+02
<TRANSP> 5
 0.000000e+00 1.000000e+00 0.000000e+00 0.000000e+00 0.000000e+00
 0.000000e+00 6.902139e-01 3.097861e-01 0.000000e+00 0.000000e+00
 0.000000e+00 0.000000e+00 7.211839e-01 2.788161e-01 0.000000e+00
 0.000000e+00 0.000000e+00 0.000000e+00 6.549796e-01 3.450203e-01
 0.000000e+00 0.000000e+00 0.000000e+00 0.000000e+00 0.000000e+00
<ENDHMM>
~h "r"
<BEGINHMM>
<NUMSTATES> 5
<STATE> 2
<MEAN> 39
 -9.196142e+00 -9.667108e+00 -3.482793e+00 -8.178924e-01 -4.756895e+00 -1.126894e+01 -1.377087e+01 -9.723054e+00 -2.534309e+00 -5.684909e+00 -3.533121e+00 -3.743081e+00 4.423325e+01 4.037984e+00 -5.268431e-01 -1.388783e+00 3.383373e-01 -2.454687e-01 -2.131273e+00 -2.668053e+00 -1.528256e+00 -8.527367e-01 -9.144398e-02 2.461869e-01 -3.494701e-02 9.863644e-01 5.448300e-01 -4.663960e-01 4.451990e-03 -4.943353e-01 -1.273586e-01 2.015912e-02 4.318533e-02 2.810202e-01 -4.571342e-01 -3.825369e-02 -2.628067e-01 1.052445e-01 7.559409e-01
<VARIANCE> 39
 1.529003e+02 4.227542e+01 5.487368e+01 2.889284e+01 3.731389e+01 7.456895e+01 1.305397e+02 1.034209e+02 8.000099e+01 3.829121e+01 2.628665e+01 3.217366e+01 4.633067e+01 9.800445e+00 6.315621e+00 6.486478e+00 4.454985e+00 5.965380e+00 6.907495e+00 1.025030e+01 8.237977e+00 7.158574e+00 5.231027e+00 4.988427e+00 3.593591e+00 6.374208e+00 2.350713e+00 1.292811e+00 1.417499e+00 6.407897e-01 8.474669e-01 1.459191e+00 3.050359e+00 2.542994e+00 1.137486e+00 8.676124e-01 1.050801e+00 6.173410e-01 6.022102e-01
<GCONST> 1.501932e+02
<STATE> 3
<MEAN> 39
 5.776232e+00 -1.813401e+01 -7.896085e+00 -2.102639e+00 -6.391840e+00 -1.712954e+01 -1.829514e+01 -7.099479e+00 -7.201536e+00 -6.946814e+00 -5.645164e+00 -3.584854e+00 5.325407e+01 1.033511e-01 -3.025038e+00 2.102952e+00 -1.167913e+00 -6.874385e-01 6.836742e-01 1.889880e+00 2.453695e+00 -1.335650e+00 3.747675e-01 -1.183658e+00 -3.485998e-02 2.375587e+00 -1.355899e+00 3.424431e-01 1.047619e+00 -5.463607e-01 1.892864e-01 9.675278e-01 7.546821e-01 8.755147e-02 -2.037445e-01 3.368955e-01 -2.729145e-01 -1.479919e-01 -2.758074e-01
<VARIANCE> 39
 1.038501e+01 4.314920e+01 1.074305e+02 3.732954e+01 7.376579e+01 5.488791e+01 4.468445e+01 5.930674e+01 3.457663e+01 3.603703e+01 5.448710e+01 3.401044e+01 1.566944e+01 5.709793e+00 4.005760e+00 1.074727e+01 4.276814e+00 7.694997e+00 7.038851e+00 4.912595e+00 6.994817e+00 5.714983e+00 5.537434e+00 6.884067e+00 3.779233e+00 2.691905e+00 7.510262e-01 1.043338e+00 9.364223e-01 9.368376e-01 1.303676e+00 1.039705e+00 1.209726e+00 1.318877e+00 1.083527e+00 7.847534e-01 1.104341e+00 5.988671e-01 4.266532e-01
<GCONST> 1.408309e+02
<STATE> 4
<MEAN> 39
 1.936954e+00 -2.285979e+01 -3.052410e+00 -9.172653e+00 -6.524577e+00 -9.022907e+00 -1.140612e+01 -2.940574e+00 -1.178217e+01 -5.209089e+00 -8.846916e+00 -5.299506e+00 5.841884e+01 -9.468034e-01 4.553119e-01 1.691352e+00 -1.820019e+00 -3.525022e-01 1.162019e+00 5.210936e-01 -4.218303e-01 -5.952637e-01 9.062714e-01 -6.225339e-01 -2.270930e-01 4.398341e-01 -1.478044e-02 6.887153e-01 -2.768497e-01 2.802229e-02 -8.794578e-03 -1.372801e-01 -4.464834e-01 -4.961047e-01 4.420595e-01 -1.641076e-01 1.321865e-02 -6.369109e-02 -3.837381e-01
<VARIANCE> 39
 2.064423e+01 4.889903e+01 1.511835e+02 6.507874e+01 8.101233e+01 7.506190e+01 3.618382e+01 7.287641e+01 4.455687e+01 5.985989e+01 6.972124e+01 3.817405e+01 1.925983e+01 1.795165e+00 1.979059e+00 3.326650e+00 3.786629e+00 3.429659e+00 4.986272e+00 3.883870e+00 3.964330e+00 3.596770e+00 3.880003e+00 3.685452e+00 2.761177e+00 1.034340e+00 2.972159e-01 3.821833e-01 5.382745e-01 5.116972e-01 7.758462e-01 8.294632e-01 6.659588e-01 7.607182e-01 6.236348e-01 6.619154e-01 7.566842e-01 5.162649e-01 1.584732e-01
<GCONST> 1.292241e+02
<TRANSP> 5
 0.000000e+00 1.000000e+00 0.000000e+00 0.000000e+00 0.000000e+00
 0.000000e+00 6.948863e-01 3.051137e-01 0.000000e+00 0.000000e+00
 0.000000e+00 0.000000e+00 6.144111e-01 3.855888e-01 0.000000e+00
 0.000000e+00 0.000000e+00 0.000000e+00 6.767362e-01 3.232638e-01
 0.000000e+00 0.000000e+00 0.000000e+00 0.000000e+00 0.000000e+00
<ENDHMM>
~h "s"
<BEGINHMM>
<NUMSTATES> 5
<STATE> 2
<MEAN> 39
 -1.532278e+01 8.804328e+00 -1.096561e+01 -8.607533e-01 -1.212320e+01 -1.095936e+01 -8.219401e+00 -1.272586e+01 -6.096048e+00 -9.645582e+00 -5.711209e+00 -5.924132e+00 4.829818e+01 -2.793549e+00 2.085807e+00 -1.535580e+00 1.481621e+00 8.765427e-01 4.057869e-01 8.836346e-01 -3.825672e-01 1.001486e+00 3.998600e-01 8.874055e-01 -3.178052e-01 -3.568625e-02 5.351205e-02 -5.242666e-01 4.064342e-01 -3.580533e-01 4.601493e-01 -1.009064e-01 -3.909299e-02 1.967132e-01 -1.035681e-01 2.042329e-01 -1.257516e-03 2.789093e-01 1.696237e-01
<VARIANCE> 39
 6.686582e+01 7.771644e+01 8.022375e+01 8.269427e+01 4.705531e+01 6.741030e+01 6.089683e+01 5.217957e+01 4.128742e+01 4.883703e+01 4.691753e+01 2.897009e+01 5.771205e+01 4.277854e+00 7.853248e+00 6.978955e+00 3.846230e+00 6.055307e+00 3.548283e+00 4.909497e+00 3.323841e+00 3.646420e+00 4.254202e+00 4.036922e+00 2.991677e+00 1.706500e+00 8.020031e-01 1.007582e+00 9.010857e-01 6.134785e-01 7.833369e-01 7.382460e-01 9.495108e-01 6.778108e-01 7.038170e-01 9.536314e-01 8.207666e-01 5.531563e-01 2.368701e-01
<GCONST> 1.380468e+02
<STATE> 3
<MEAN> 39
 -2.005185e+01 4.330313e+00 -7.859317e+00 -5.229442e+00 -2.745077e+00 -1.124946e+01 -6.495764e+00 -1.078934e+01 -3.215369e+00 -7.744879e+00 -3.378172e+00 -1.607786e+00 4.943533e+01 8.861079e-02 -1.225075e+00 8.968277e-02 -1.201422e+00 8.553631e-01 2.872841e-02 1.173552e-01 4.677150e-01 2.352420e-01 -4.570650e-02 -7.596466e-02 2.205153e-01 8.870892e-01 6.887172e-01 -4.206290e-01 -1.289259e-01 1.504071e-02 -4.280413e-01 3.197248e-01 -2.825432e-01 1.398320e-01 -1.554963e-01 -2.818396e-02 -2.002714e-01 -1.525541e-01 -8.969280e-02
<VARIANCE> 39
 9.110556e+01 1.089077e+02 5.591329e+01 8.160226e+01 5.930371e+01 1.017389e+02 9.149265e+01 5.330719e+01 5.562790e+01 3.808476e+01 5.178609e+01 3.869279e+01 6.224805e+01 1.455814e+01 1.296757e+01 7.131260e+00 9.327647e+00 7.351091e+00 8.517642e+00 9.712934e+00 6.238558e+00 5.748925e+00 4.558554e+00 6.854695e+00 4.198086e+00 3.491595e+00 1.643247e+00 1.188168e+00 1.267946e+00 1.415990e+00 1.518423e+00 1.463365e+00 1.891020e+00 1.237899e+00 1.057241e+00 9.552125e-01 1.194520e+00 7.382617e-01 6.364316e-01
<GCONST> 1.537859e+02
<STATE> 4
<MEAN> 39
 -2.375417e+01 6.607036e+00 -1.367623e+01 1.277819e+00 -4.248580e+00 -5.635772e+00 -2.715509e+00 -8.713853e+00 -6.316204e-01 -6.119031e+00 -1.232571e+00 -3.664574e+00 4.389164e+01 6.538039e-01 -9.313741e-01 2.002498e-01 -1.030171e-01 -1.489927e-01 4.256768e-01 -1.895673e-01 1.136289e-01 -1.607661e-01 -1.654453e-02 -1.359675e-01 3.128666e-02 -6.423751e-01 2.603540e-01 -1.710396e-01 2.404907e-01 -1.970766e-01 -1.096239e-01 -1.224259e-01 -1.158984e-01 -1.084011e-01 -1.313937e-01 -7.873143e-02 -1.349286e-01 3.373936e-02 1.815113e-02
<VARIANCE> 39
 4.555018e+01 7.276431e+01 3.080540e+01 5.494306e+01 5.486678e+01 7.282024e+01 6.062191e+01 4.409093e+01 4.631706e+01 4.136695e+01 4.465059e+01 2.568637e+01 6.811721e+01 2.478536e+00 2.920637e+00 2.981758e+00 3.975008e+00 3.986564e+00 4.582688e+00 3.878320e+00 3.179772e+00 3.213497e+00 3.222767e+00 3.405845e+00 2.083299e+00 3.185534e+00 5.644494e-01 4.540806e-01 4.196130e-01 6.457967e-01 7.295814e-01 7.409644e-01 8.677749e-01 7.323881e-01 7.046096e-01 6.380253e-01 8.399110e-01 4.974563e-01 3.810904e-01
<GCONST> 1.311779e+02
<TRANSP> 5
 0.000000e+00 1.000000e+00 0.000000e+00 0.000000e+00 0.000000e+00
 0.000000e+00 7.686655e-01 2.313345e-01 0.000000e+00 0.000000e+00
 0.000000e+00 0.000000e+00 7.181025e-01 2.818976e-01 0.000000e+00
 0.000000e+00 0.000000e+00 0.000000e+00 8.350996e-01 1.649004e-01
 0.000000e+00 0.000000e+00 0.000000e+00 0.000000e+00 0.000000e+00
<ENDHMM>
~h "t"
<BEGINHMM>
<NUMSTATES> 5
<STATE> 2
<MEAN> 39
 -9.295011e+00 -2.765848e-01 -4.667985e+00 -4.526452e+00 -9.916736e+00 -9.519011e+00 -8.422068e+00 -1.032996e+01 -6.673015e+00 -9.892289e+00 -8.052263e+00 -7.452668e+00 3.974706e+01 -1.178531e+00 -2.932622e-01 -3.180144e-02 -2.145127e-01 7.742167e-01 -3.903183e-01 -2.093205e-01 -4.041069e-01 3.852182e-01 5.659385e-01 1.235591e+00 5.653195e-01 6.951461e-01 4.420231e-02 -3.285013e-01 3.417034e-01 -4.427968e-01 5.556516e-02 -1.522580e-01 -1.467794e-01 1.030574e-01 -8.061357e-02 2.309474e-01 8.799702e-02 3.639374e-01 6.610560e-01
<VARIANCE> 39
 6.278666e+01 3.681158e+01 5.960183e+01 3.465738e+01 5.281181e+01 5.723895e+01 5.183432e+01 7.759416e+01 4.030396e+01 4.581328e+01 5.382919e+01 3.199825e+01 6.137127e+01 6.428204e+00 4.462568e+00 6.186193e+00 5.649608e+00 5.759360e+00 6.077752e+00 5.834067e+00 6.260626e+00 5.190150e+00 4.676234e+00 5.882723e+00 4.132875e+00 7.135330e+00 1.061103e+00 6.014024e-01 8.935955e-01 7.250412e-01 9.349336e-01 1.170380e+00 8.307650e-01 1.122247e+00 9.056550e-01 8.138744e-01 1.113435e+00 7.338952e-01 9.311282e-01
<GCONST> 1.434265e+02
<STATE> 3
<MEAN> 39
 -1.101496e+01 -5.437055e+00 1.963267e+00 -1.289666e+01 -7.719011e+00 -1.264429e+01 -1.334507e+01 -1.081689e+01 -7.032531e+00 -4.907646e+00 -5.516646e+00 -4.525266e-01 5.047801e+01 9.735481e-01 -1.131006e+00 7.543162e-01 -7.677740e-01 -3.588066e-01 -3.419689e-01 -7.924423e-02 9.632016e-01 9.332428e-02 3.222782e-01 -6.680683e-01 8.416068e-01 1.568697e+00 2.750066e-01 8.040204e-02 -1.753412e-01 4.536685e-01 -7.950492e-02 4.862484e-01 2.670631e-01 1.676213e-01 -5.119441e-02 -1.644478e-01 -4.895858e-01 -4.362015e-01 -6.383834e-01
<VARIANCE> 39
 8.283929e+01 8.345252e+01 1.204962e+02 6.666982e+01 8.416861e+01 7.728990e+01 6.924135e+01 8.056832e+01 7.380215e+01 6.531516e+01 7.596758e+01 4.506929e+01 4.631598e+01 7.545394e+00 7.296362e+00 6.104683e+00 6.966455e+00 6.851315e+00 7.899679e+00 9.071495e+00 7.138539e+00 6.309499e+00 7.390148e+00 8.269862e+00 5.107591e+00 8.572913e+00 1.537507e+00 1.230044e+00 9.946057e-01 9.408371e-01 1.474436e+00 1.518371e+00 1.722273e+00 1.426496e+00 1.162836e+00 1.517074e+00 1.672105e+00 8.535801e-01 8.227860e-01
<GCONST> 1.560300e+02
<STATE> 4
<MEAN> 39
 -3.539799e+00 -9.130460e+00 -2.243870e+00 -8.237084e+00 -1.169794e+01 -1.252460e+01 -1.168631e+01 -3.558710e+00 -7.499481e+00 -5.127975e+00 -5.509142e+00 -1.243392e+00 4.881192e+01 4.424997e-02 2.545482e-01 -1.623352e-01 5.952991e-01 1.170992e-01 5.116900e-01 4.105467e-01 2.706160e-01 2.045963e-01 -2.742330e-01 -1.665497e-01 -3.982663e-01 -8.938405e-01 -1.611408e-01 1.139231e-01 -3.554790e-02 2.499807e-02 8.722857e-02 8.957064e-02 -4.829764e-02 -1.904732e-01 -4.893348e-02 -1.291865e-03 9.045694e-02 -3.891870e-02 -1.050656e-01
<VARIANCE> 39
 6.074829e+01 1.175263e+02 1.075310e+02 5.893526e+01 7.738453e+01 9.366556e+01 7.548584e+01 8.081525e+01 4.885668e+01 5.962140e+01 8.196136e+01 5.432146e+01 9.191055e+01 1.868085e+00 3.801493e+00 3.474925e+00 3.056658e+00 3.792676e+00 3.800145e+00 3.274125e+00 4.227357e+00 2.936153e+00 3.164070e+00 3.386849e+00 2.971368e+00 1.949779e+00 3.671290e-01 4.712856e-01 5.040467e-01 4.431567e-01 6.950976e-01 5.569432e-01 6.279315e-01 6.707137e-01 5.895366e-01 5.495895e-01 8.037366e-01 6.050068e-01 3.622172e-01
<GCONST> 1.347023e+02
<TRANSP> 5
 0.000000e+00 1.000000e+00 0.000000e+00 0.000000e+00 0.000000e+00
 0.000000e+00 7.384847e-01 2.615153e-01 0.000000e+00 0.000000e+00
 0.000000e+00 0.000000e+00 6.870468e-01 3.129532e-01 0.000000e+00
 0.000000e+00 0.000000e+00 0.000000e+00 7.150221e-01 2.849779e-01
 0.000000e+00 0.000000e+00 0.000000e+00 0.000000e+00 0.000000e+00
<ENDHMM>
~h "v"
<BEGINHMM>
<NUMSTATES> 5
<STATE> 2
<MEAN> 39
 -7.186582e+00 -6.436756e+00 -5.041451e+00 -1.178385e+01 -2.873652e+00 -9.947427e+00 -9.064847e+00 -1.179309e+01 -6.369541e+00 -7.519731e+00 -7.072333e+00 -2.616733e+00 5.168261e+01 9.807221e-01 -9.815802e-01 1.912343e-01 -6.556487e-01 2.603718e-01 -4.662164e-01 -1.423121e+00 1.024366e-01 4.524796e-01 2.457009e-01 -6.497991e-01 4.661357e-02 1.449001e+00 3.125952e-01 -2.836681e-02 2.816072e-01 9.685013e-02 -1.826835e-01 6.068222e-02 -4.381521e-01 3.592791e-02 -8.486943e-02 1.057580e-01 -3.512101e-01 -2.862420e-01 -6.586957e-02
<VARIANCE> 39
 1.153833e+02 9.400026e+01 8.223715e+01 6.962273e+01 5.236402e+01 8.236539e+01 1.003053e+02 7.433298e+01 8.459693e+01 7.264317e+01 9.724653e+01 4.562713e+01 5.442034e+01 1.057242e+01 6.539054e+00 5.843773e+00 6.466906e+00 6.575518e+00 1.185323e+01 1.407289e+01 6.861469e+00 6.387303e+00 5.579194e+00 7.106759e+00 3.343278e+00 6.257180e+00 1.498932e+00 1.104536e+00 1.146181e+00 7.974624e-01 1.534259e+00 1.745579e+00 2.315975e+00 1.518402e+00 1.316924e+00 1.384492e+00 1.710558e+00 5.991855e-01 7.674155e-01
<GCONST> 1.564123e+02
<STATE> 3
<MEAN> 39
 5.641721e-01 -1.319366e+01 -7.048483e+00 -1.470582e+01 -1.898621e+00 -3.682804e+00 -1.555718e+01 -1.085276e+01 -2.933301e+00 -6.227085e+00 -1.086059e+01 -8.458602e+00 5.580443e+01 7.954547e-01 9.367409e-02 2.041814e-01 1.880637e-01 2.288650e-02 9.592265e-01 -1.266318e-01 4.442245e-01 -6.391173e-01 -6.216683e-01 -1.135144e+00 -1.467281e+00 1.660039e-01 -4.726783e-01 7.401827e-01 4.659548e-02 3.752199e-01 -2.948046e-01 -3.880811e-01 5.408474e-01 1.439942e-01 -1.544219e-01 -4.249579e-01 6.226428e-02 7.374591e-02 -6.806191e-01
<VARIANCE> 39
 2.670330e+01 5.220433e+01 5.309181e+01 4.501918e+01 3.638358e+01 1.490450e+02 5.489045e+01 4.707851e+01 7.253491e+01 5.634285e+01 4.612012e+01 5.420160e+01 2.608728e+01 3.090157e+00 7.404804e+00 2.292167e+00 3.754466e+00 2.566690e+00 5.158271e+00 4.458862e+00 4.645565e+00 3.189905e+00 5.680926e+00 3.872427e+00 3.770357e+00 4.670417e+00 4.393246e-01 9.769815e-01 5.276933e-01 6.238207e-01 6.345411e-01 9.782059e-01 9.677373e-01 8.824181e-01 9.239451e-01 7.972661e-01 7.063373e-01 6.384861e-01 7.365270e-01
<GCONST> 1.365695e+02
<STATE> 4
<MEAN> 39
 -5.312688e+00 -8.259357e+00 -5.552891e+00 -1.085123e+01 -5.408055e+00 -4.013802e+00 -5.976499e+00 -4.696270e+00 -6.212074e+00 -1.255311e+01 -1.447684e+01 -1.138097e+01 4.956327e+01 -9.380337e-01 1.065403e+00 2.306866e-01 4.562196e-01 -3.690861e-01 -7.338077e-01 7.436310e-01 8.388638e-02 -3.625988e-02 -1.908617e-01 2.622206e-01 2.212455e-01 -1.241540e+00 6.239826e-02 -5.695420e-02 4.295547e-02 -3.240964e-02 -1.338848e-02 -1.294384e-02 -2.340821e-01 -2.244754e-01 -6.316422e-02 2.475137e-01 2.098489e-01 1.957143e-01 -5.109213e-03
<VARIANCE> 39
 5.785014e+01 7.066600e+01 4.600694e+01 3.673448e+01 2.976744e+01 5.868316e+01 6.662415e+01 5.335097e+01 5.077768e+01 3.823115e+01 4.369608e+01 3.218319e+01 5.105262e+01 2.929947e+00 2.908584e+00 2.456308e+00 3.601281e+00 3.721110e+00 3.142061e+00 5.090043e+00 4.474802e+00 3.743703e+00 3.794994e+00 3.129475e+00 2.537772e+00 1.185082e+00 5.344826e-01 4.749420e-01 4.479214e-01 7.581314e-01 6.419255e-01 6.542161e-01 9.665666e-01 7.015603e-01 6.546013e-01 8.087743e-01 6.009026e-01 5.375161e-01 2.380708e-01
<GCONST> 1.297143e+02
<TRANSP> 5
 0.000000e+00 1.000000e+00 0.000000e+00 0.000000e+00 0.000000e+00
 0.000000e+00 5.723295e-01 4.276705e-01 0.000000e+00 0.000000e+00
 0.000000e+00 0.000000e+00 7.067587e-01 2.932413e-01 0.000000e+00
 0.000000e+00 0.000000e+00 0.000000e+00 8.417949e-01 1.582052e-01
 0.000000e+00 0.000000e+00 0.000000e+00 0.000000e+00 0.000000e+00
<ENDHMM>
~h "w"
<BEGINHMM>
<NUMSTATES> 5
<STATE> 2
<MEAN> 39
 -5.003393e+00 -4.919885e+00 -6.085478e+00 -1.281753e+01 -3.772811e-01 -7.512805e+00 -1.319006e+01 -1.121658e+01 -8.855978e+00 -4.521943e+00 -5.545677e+00 -3.409908e+00 4.572692e+01 9.421782e-01 -1.561071e+00 2.859850e-01 -6.657223e-01 1.157619e-01 3.613087e-01 -7.951240e-01 4.823972e-01 -3.410223e-01 1.287361e-01 -3.979352e-01 8.467203e-02 1.495240e+00 -1.899630e-01 -3.809728e-03 -8.505461e-02 2.461698e-01 -2.488981e-01 5.182035e-02 3.119721e-01 1.102990e-01 8.232456e-02 -7.627796e-02 -1.257585e-01 -2.813566e-02 -4.279702e-02
<VARIANCE> 39
 1.052092e+02 9.569295e+01 3.926733e+01 1.167020e+02 7.328624e+01 1.187339e+02 6.481504e+01 9.151355e+01 5.484048e+01 8.056387e+01 4.856668e+01 3.511946e+01 1.336628e+02 7.524517e+00 5.848598e+00 2.734435e+00 1.023577e+01 7.695228e+00 5.330985e+00 8.594005e+00 9.922400e+00 5.320350e+00 6.881768e+00 5.799614e+00 3.542847e+00 1.024791e+01 1.105371e+00 1.081440e+00 4.256599e-01 1.971239e+00 1.589780e+00 1.196138e+00 1.738570e+00 2.034251e+00 9.047363e-01 1.346674e+00 1.097155e+00 6.069167e-01 1.103161e+00
<GCONST> 1.538385e+02
<STATE> 3
<MEAN> 39
 -1.568094e+00 -1.376126e+01 -8.376612e+00 -6.383205e+00 -2.361952e+00 -1.224869e+01 -1.399638e+01 -3.740167e+00 -1.367732e+01 -9.152055e+00 -3.265102e+00 -6.067009e+00 5.093015e+01 -2.369029e-02 1.267071e-01 3.394946e-02 4.656937e-01 -6.008406e-01 3.660114e-01 4.188366e-01 -4.442874e-02 9.928708e-02 -2.414243e-01 -4.391942e-01 9.193271e-03 -6.197571e-01 4.003191e-02 2.237467e-01 -2.984966e-02 -1.143958e-01 -1.146704e-01 2.134455e-02 -2.921695e-02 -2.934113e-01 1.208821e-01 2.293713e-01 4.621930e-02 -5.638696e-03 -1.328512e-02
<VARIANCE> 39
 7.911488e+01 1.626607e+02 6.355203e+01 5.884513e+01 5.451622e+01 8.854573e+01 5.801091e+01 1.264520e+02 5.781545e+01 8.478652e+01 6.069553e+01 3.023069e+01 9.932050e+01 1.123016e+00 2.089481e+00 2.197440e+00 2.326560e+00 3.290978e+00 3.182822e+00 2.925442e+00 4.634726e+00 2.621653e+00 3.207805e+00 3.997746e+00 1.857142e+00 1.923567e+00 2.342319e-01 4.228165e-01 3.208201e-01 3.224106e-01 5.900481e-01 5.126035e-01 5.737902e-01 7.240677e-01 5.356433e-01 5.315845e-01 7.350096e-01 3.407356e-01 2.495530e-01
<GCONST> 1.289044e+02
<STATE> 4
<MEAN> 39
 -1.060125e+01 -5.352323e+00 -5.636989e+00 -5.341722e+00 -2.874772e+00 -8.145600e+00 -6.592150e+00 -7.089628e+00 -5.296513e+00 -8.667784e+00 -7.002627e+00 -2.905328e+00 3.777855e+01 1.031659e-01 -5.582714e-02 1.687402e-01 2.937158e-01 -3.164769e-01 8.470070e-01 2.294523e-01 -5.021698e-02 2.509626e-01 2.754011e-01 -2.053118e-02 -1.386764e-03 -6.846339e-01 2.393470e-01 6.341016e-02 -1.456950e-03 -2.268775e-01 -2.737433e-03 -1.530648e-01 -3.965072e-01 -2.206781e-01 -1.862868e-01 7.264598e-02 3.794119e-02 -1.087708e-02 3.442819e-01
<VARIANCE> 39
 4.654893e+01 8.746593e+01 3.130956e+01 3.913802e+01 4.053737e+01 6.674044e+01 4.165037e+01 9.391507e+01 7.428126e+01 4.516416e+01 3.224514e+01 2.552515e+01 9.904992e+01 1.273892e+00 2.595935e+00 1.879652e+00 2.251657e+00 3.341582e+00 5.097148e+00 3.019338e+00 4.414534e+00 3.403150e+00 2.768308e+00 2.890975e+00 1.849205e+00 1.598370e+00 3.582263e-01 4.112433e-01 3.793772e-01 4.552876e-01 8.288392e-01 9.918399e-01 6.369212e-01 8.821678e-01 6.906647e-01 5.498123e-01 7.320971e-01 3.749104e-01 4.134477e-01
<GCONST> 1.275657e+02
<TRANSP> 5
 0.000000e+00 1.000000e+00 0.000000e+00 0.000000e+00 0.000000e+00
 0.000000e+00 5.330474e-01 4.669526e-01 0.000000e+00 0.000000e+00
 0.000000e+00 0.000000e+00 5.026358e-01 4.973642e-01 0.000000e+00
 0.000000e+00 0.000000e+00 0.000000e+00 6.230511e-01 3.769489e-01
 0.000000e+00 0.000000e+00 0.000000e+00 0.000000e+00 0.000000e+00
<ENDHMM>
~h "y"
<BEGINHMM>
<NUMSTATES> 5
<STATE> 2
<MEAN> 39
 -8.572059e-01 3.357496e+00 6.852849e+00 -1.236786e+01 -7.349462e+00 -2.047083e+00 -2.371167e+01 -1.993280e+01 -1.355968e+01 -5.159615e+00 -1.230886e+00 -3.343684e+00 4.417212e+01 -4.665214e-01 -3.659522e-01 2.733932e+00 -1.597264e+00 -2.030665e+00 1.555917e-01 -4.250247e-01 -1.570887e+00 6.663926e-01 8.596756e-01 -6.247797e-01 7.260799e-01 8.438450e-01 -2.897249e-02 -4.013294e-02 3.081684e-03 2.078499e-01 -2.784870e-01 -5.573124e-01 3.684621e-01 1.844152e-01 -1.084859e-01 1.029511e-01 1.740488e-01 -5.635577e-04 2.310650e-01
<VARIANCE> 39
 8.089279e+01 3.518549e+01 1.308121e+02 7.150485e+01 3.108701e+01 8.039751e+01 3.972141e+01 2.446930e+01 1.204636e+01 2.591564e+01 2.994994e+01 3.807750e+01 4.603610e+00 6.074937e+00 2.830580e+00 3.308321e+00 1.703958e+00 1.309834e+01 9.285558e+00 2.062212e+00 6.455902e+00 9.273634e+00 2.463227e+00 2.677585e+00 9.774538e-01 3.902609e-01 5.442550e-01 6.633568e-01 6.685911e-01 5.589188e-01 1.091678e+00 1.865533e+00 6.201764e-01 8.987219e-01 1.017991e+00 9.233683e-01 6.617814e-01 3.044421e-01 4.363824e-02
<GCONST> 1.262286e+02
<STATE> 3
<MEAN> 39
 -2.038764e+00 -2.248484e+00 1.980676e+01 -1.262659e+01 -2.152996e+01 -1.166706e+01 -1.477023e+01 -1.685995e+01 -1.999383e+01 -6.544076e+00 -3.553056e-01 -8.280922e-01 4.831611e+01 3.293582e-01 -4.698244e-01 -2.660083e-01 7.925573e-01 3.037205e-01 -2.294499e+00 7.658978e-01 1.561745e+00 -4.548876e-01 -1.217530e+00 1.648060e-01 1.932968e-01 5.252019e-01 -3.607946e-01 2.313781e-01 -6.904545e-01 -2.018525e-02 9.727136e-01 1.810982e-01 -1.886734e-01 3.816569e-01 6.154025e-01 -8.602984e-03 -2.268614e-01 -9.002906e-02 -1.131060e-01
<VARIANCE> 39
 1.960304e+01 3.299369e+01 1.386623e+02 3.825553e+01 1.254433e+02 4.338782e+01 5.871965e+01 8.020857e+01 5.186189e+01 3.389051e+01 3.102599e+01 1.586428e+01 1.017147e+01 5.845643e+00 5.525233e+00 4.981875e+00 3.589269e+00 8.679618e+00 5.314792e+00 7.579790e+00 6.212815e+00 7.141327e+00 1.663488e+00 2.105088e+00 6.371770e-01 7.593268e-01 3.048944e-01 5.177385e-01 8.412725e-01 2.834564e-01 1.459402e+00 2.850985e-01 1.182899e+00 1.997029e+00 8.410468e-01 8.009733e-01 3.822440e-01 2.202966e-01 7.371040e-02
<GCONST> 1.275366e+02
<STATE> 4
<MEAN> 39
 -1.338884e+01 1.162307e+01 -3.021604e-01 -8.337475e+00 -1.286624e+00 -1.704237e+01 -9.104364e+00 -1.858682e+01 -9.739057e+00 -9.640160e+00 -2.154985e+00 -4.938415e+00 4.728506e+01 -4.017999e-01 9.643197e-02 6.445315e-01 -8.093199e-01 -2.284483e-01 4.920197e-01 -4.302181e-01 -2.857439e-01 1.092380e+00 -1.374820e-02 1.825881e-01 -4.562932e-01 3.267965e-02 2.433191e-01 -4.379552e-01 4.908681e-01 -1.311839e-01 -3.570796e-01 4.855211e-01 -1.950030e-01 -5.207566e-02 -9.307768e-02 -6.283627e-02 -6.105470e-03 -8.361293e-03 -5.482794e-02
<VARIANCE> 39
 1.459207e+02 8.128667e+01 5.213621e+01 3.904501e+01 1.189282e+02 4.924868e+01 9.903710e+01 6.343091e+01 5.563089e+01 1.977672e+01 3.837742e+01 2.482567e+01 1.736173e+01 8.540522e+00 5.942466e+00 9.350816e+00 4.712800e+00 1.751496e+01 6.308200e+00 4.843898e+00 5.202464e+00 3.374636e+00 3.205957e+00 3.659813e+00 1.843494e+00 1.613366e+00 1.019783e+00 9.485745e-01 5.982156e-01 5.192480e-01 2.372876e+00 1.254453e+00 7.019722e-01 1.252614e+00 4.252222e-01 5.792900e-01 8.378680e-01 5.024020e-01 4.121724e-01
<GCONST> 1.398348e+02
<TRANSP> 5
 0.000000e+00 1.000000e+00 0.000000e+00 0.000000e+00 0.000000e+00
 0.000000e+00 4.052081e-01 5.947919e-01 0.000000e+00 0.000000e+00
 0.000000e+00 0.000000e+00 6.965539e-01 3.034461e-01 0.000000e+00
 0.000000e+00 0.000000e+00 0.000000e+00 8.149185e-01 1.850815e-01
 0.000000e+00 0.000000e+00 0.000000e+00 0.000000e+00 0.000000e+00
<ENDHMM>
~h "z"
<BEGINHMM>
<NUMSTATES> 5
<STATE> 2
<MEAN> 39
 -8.311868e+00 3.376006e+00 -3.218508e+00 -1.111190e+01 -9.351662e+00 -1.516530e+01 -9.256289e+00 -1.497402e+01 -7.296634e+00 -1.173415e+01 -9.279704e+00 -7.169552e+00 5.294173e+01 -4.423729e+00 5.662038e+00 -3.831290e+00 2.421301e+00 5.700208e-02 -1.400049e+00 2.818693e+00 -4.412430e-01 2.162603e+00 -1.119218e+00 1.563749e+00 -1.043373e+00 2.798991e-02 -4.464433e-01 -2.028662e-02 -3.067977e-01 2.483773e-01 3.606370e-01 4.777334e-01 -1.173408e-01 5.434327e-01 -9.269200e-02 6.869481e-01 7.228934e-02 2.762753e-01 2.687599e-02
<VARIANCE> 39
 7.011629e+01 1.168193e+02 1.342931e+02 8.426378e+01 7.343565e+01 8.027209e+01 7.792912e+01 6.153602e+01 7.298975e+01 5.364605e+01 5.792775e+01 4.987862e+01 3.623116e+01 2.971308e+00 7.860540e+00 6.801366e+00 1.049113e+01 9.180634e+00 5.719268e+00 6.455479e+00 4.689383e+00 4.137863e+00 5.128529e+00 4.095932e+00 3.709329e+00 8.690544e-01 1.209758e+00 2.015378e+00 1.346901e+00 1.399194e+00 9.651637e-01 1.276550e+00 1.363280e+00 8.410635e-01 1.013022e+00 8.615458e-01 9.369557e-01 7.183177e-01 1.773791e-01
<GCONST> 1.470447e+02
<STATE> 3
<MEAN> 39
 -2.225519e+01 1.649123e+01 -1.506063e+01 -9.246187e-01 -7.512306e+00 -1.377771e+01 -4.091775e+00 -1.257859e+01 -4.470426e+00 -9.770838e+00 -6.202318e+00 -8.207692e+00 5.114619e+01 -1.090858e+00 2.829502e-01 -5.283843e-01 1.052195e+00 6.976188e-01 6.595236e-01 -8.897273e-02 3.716908e-01 -8.128604e-02 4.870049e-01 3.036982e-01 4.575361e-01 -8.765234e-01 7.827139e-01 -9.705116e-01 6.967767e-01 -5.412045e-01 -8.571407e-02 5.803249e-02 -3.610263e-01 -8.670259e-02 -2.059072e-01 -8.549546e-04 -8.566722e-02 2.500041e-01 -1.334445e-01
<VARIANCE> 39
 2.037387e+01 2.303826e+01 6.305443e+01 4.634805e+01 6.402151e+01 5.250958e+01 4.515035e+01 4.801365e+01 4.433897e+01 4.769479e+01 5.683210e+01 2.984471e+01 2.165826e+01 2.887902e+00 3.721659e+00 4.433752e+00 3.436721e+00 4.189092e+00 4.202299e+00 3.896620e+00 4.511230e+00 2.930431e+00 3.648885e+00 4.068835e+00 2.873069e+00 1.032076e+00 5.065657e-01 7.571803e-01 6.908953e-01 4.227184e-01 1.039589e+00 7.543943e-01 1.030417e+00 8.308077e-01 7.543655e-01 7.146256e-01 8.842397e-01 6.832749e-01 1.753070e-01
<GCONST> 1.300213e+02
<STATE> 4
<MEAN> 39
 -2.285527e+01 8.282680e+00 -1.279565e+01 4.743767e-02 -4.351590e+00 -6.858872e+00 -2.082627e+00 -1.004620e+01 -1.391407e+00 -7.624046e+00 -1.660386e+00 -3.797773e+00 4.137989e+01 6.653648e-01 -1.243432e+00 4.541490e-01 -4.305331e-01 -1.559940e-01 3.876782e-01 -8.787234e-02 1.979782e-01 -4.807948e-02 6.803831e-02 1.743008e-01 1.688316e-01 -1.022660e+00 1.819433e-01 -5.937584e-02 9.849151e-02 -1.781519e-02 -1.039168e-01 1.198547e-02 -1.016072e-01 -8.550581e-02 -7.738099e-02 -8.783567e-02 -1.162323e-01 -7.555115e-02 2.462261e-02
<VARIANCE> 39
 3.124230e+01 5.462733e+01 2.729272e+01 6.065155e+01 6.196509e+01 6.329440e+01 6.870626e+01 4.559956e+01 4.342315e+01 3.636497e+01 3.787825e+01 2.515925e+01 5.156704e+01 2.338681e+00 2.600808e+00 2.588858e+00 3.209713e+00 4.185325e+00 3.927391e+00 4.743905e+00 4.437967e+00 3.435619e+00 3.763435e+00 3.561790e+00 2.887301e+00 1.466016e+00 3.444335e-01 3.864200e-01 4.105894e-01 6.411231e-01 7.667927e-01 7.219877e-01 8.768855e-01 9.221721e-01 6.394086e-01 7.404884e-01 6.465723e-01 5.476498e-01 2.305700e-01
<GCONST> 1.286565e+02
<TRANSP> 5
 0.000000e+00 1.000000e+00 0.000000e+00 0.000000e+00 0.000000e+00
 0.000000e+00 6.778068e-01 3.221932e-01 0.000000e+00 0.000000e+00
 0.000000e+00 0.000000e+00 8.066400e-01 1.933600e-01 0.000000e+00
 0.000000e+00 0.000000e+00 0.000000e+00 8.545651e-01 1.454349e-01
 0.000000e+00 0.000000e+00 0.000000e+00 0.000000e+00 0.000000e+00
<ENDHMM>
~h "aa"
<BEGINHMM>
<NUMSTATES> 5
<STATE> 2
<MEAN> 39
 -7.296834e+00 -3.209533e+00 -6.713276e+00 -5.933439e+00 -8.378859e+00 -7.607553e+00 -5.945825e+00 -5.897009e+00 -5.867156e+00 -1.014081e+01 -9.293698e+00 -8.791039e+00 3.997759e+01 -6.480747e-01 1.874766e-01 -6.526850e-01 3.774995e-01 -2.159820e-01 7.038852e-01 -1.740592e-01 -6.599561e-01 -5.589762e-01 2.339705e-01 -1.892453e-01 -3.478310e-01 -1.648446e+00 4.018937e-02 -2.306261e-01 1.988260e-01 -9.511259e-02 2.487229e-01 1.114202e-01 -6.697055e-02 1.208984e-01 1.557514e-02 2.492071e-02 -1.923124e-01 9.701759e-02 2.088667e-01
<VARIANCE> 39
 5.174975e+01 4.826327e+01 2.620895e+01 1.516720e+01 4.364297e+01 4.093874e+01 2.624201e+01 4.207205e+01 4.827138e+01 3.386791e+01 4.082774e+01 1.518296e+01 6.770900e+01 1.483207e+00 1.828113e+00 1.290122e+00 2.694699e+00 3.476264e+00 2.126273e+00 2.175359e+00 3.064785e+00 4.179147e+00 2.971897e+00 2.708656e+00 8.214144e-01 6.685638e-01 1.998836e-01 2.085962e-01 1.827448e-01 4.480172e-01 4.605255e-01 2.934043e-01 4.837335e-01 5.902947e-01 9.013337e-01 6.513254e-01 4.657636e-01 1.906829e-01 5.229058e-02
<GCONST> 1.122422e+02
<STATE> 3
<MEAN> 39
 -1.145834e+01 -3.707052e+00 -8.284818e+00 -4.597819e+00 -7.003559e+00 -2.993655e+00 -4.585467e+00 -6.511623e+00 -6.662774e+00 -7.171891e+00 -8.804600e+00 -8.090431e+00 3.625181e+01 -3.552225e-01 -4.669002e-01 9.356473e-02 5.611157e-01 3.367946e-01 8.376541e-01 4.064256e-01 8.979660e-01 8.924066e-01 6.049701e-01 -1.458420e-02 5.445365e-01 -7.364662e-01 -1.084167e-01 1.673547e-02 1.276452e-01 5.004594e-02 2.295733e-01 -2.626604e-01 -1.045383e-01 1.287626e-01 2.997485e-01 -6.645352e-02 4.600486e-01 3.604676e-01 2.893327e-01
<VARIANCE> 39
 6.231583e+01 6.749525e+01 3.319872e+01 2.125381e+01 2.892977e+01 4.048633e+01 3.417118e+01 2.138283e+01 2.642375e+01 3.649196e+01 3.875776e+01 2.076965e+01 9.769081e+01 7.257845e-01 1.982751e+00 9.618373e-01 1.602275e+00 2.004175e+00 3.364694e+00 2.338123e+00 2.392005e+00 2.503854e+00 3.321892e+00 2.758627e+00 1.486969e+00 5.536336e-01 1.394060e-01 1.560658e-01 2.822530e-01 2.506416e-01 5.250229e-01 4.928769e-01 5.247586e-01 2.903219e-01 5.362607e-01 5.348269e-01 5.023331e-01 1.943673e-01 1.583897e-01
<GCONST> 1.106214e+02
<STATE> 4
<MEAN> 39
 -1.029977e+01 -3.703428e+00 -2.547804e+00 1.977806e+00 5.886227e-03 2.216545e+00 -1.625683e+00 -1.864993e+00 -1.732909e+00 -5.754911e+00 -3.385501e+00 -7.054821e-01 3.472267e+01 -9.639537e-02 -4.695852e-02 6.609045e-03 2.543344e-01 9.468660e-02 6.539976e-02 1.325658e-02 1.723078e-01 1.151854e-01 -1.563938e-01 2.312523e-01 3.187946e-01 -2.772530e-01 -1.186640e-01 3.656020e-02 1.872634e-02 -1.051235e-01 -5.035819e-02 -8.576449e-02 -5.391950e-02 -1.255047e-01 -1.415162e-01 -3.117702e-02 -2.871768e-02 -5.324525e-02 1.208582e-01
<VARIANCE> 39
 3.292749e+01 4.136739e+01 6.055230e+01 4.112115e+01 4.552376e+01 4.669207e+01 3.507980e+01 4.627780e+01 3.912753e+01 2.331567e+01 3.825904e+01 2.532261e+01 3.735092e+01 1.397323e+00 2.038957e+00 2.734988e+00 3.032667e+00 2.380283e+00 3.369009e+00 2.812042e+00 5.345347e+00 3.892729e+00 2.212862e+00 3.090183e+00 1.964052e+00 1.420509e+00 2.307209e-01 2.819489e-01 5.727420e-01 5.753874e-01 4.748957e-01 6.933931e-01 5.182511e-01 1.174501e+00 7.679726e-01 3.577949e-01 6.523108e-01 3.118910e-01 2.999341e-01
<GCONST> 1.218045e+02
<TRANSP> 5
 0.000000e+00 1.000000e+00 0.000000e+00 0.000000e+00 0.000000e+00
 0.000000e+00 6.853411e-01 3.146589e-01 0.000000e+00 0.000000e+00
 0.000000e+00 0.000000e+00 5.425667e-01 4.574333e-01 0.000000e+00
 0.000000e+00 0.000000e+00 0.000000e+00 7.943839e-01 2.056160e-01
 0.000000e+00 0.000000e+00 0.000000e+00 0.000000e+00 0.000000e+00
<ENDHMM>
~h "ae"
<BEGINHMM>
<NUMSTATES> 5
<STATE> 2
<MEAN> 39
 -1.041672e+01 -7.501085e+00 -2.902254e+00 -5.587343e+00 -5.994197e+00 -7.051875e+00 -9.347720e+00 -5.935273e+00 -5.770984e+00 -8.070047e+00 -5.128556e+00 -2.501066e+00 4.160605e+01 1.454326e+00 -2.484723e+00 9.026739e-01 -1.470911e+00 -3.783930e-01 -4.801208e-01 -4.820347e-01 7.254313e-01 -1.194487e+00 -3.035178e-01 -9.580973e-01 9.807206e-01 3.398102e+00 3.478689e-01 -5.809751e-01 1.155829e-01 -5.312517e-01 -5.332252e-02 -1.557193e-01 -1.903720e-02 7.014862e-02 -3.225921e-01 9.001334e-02 -5.707548e-01 -5.653054e-03 9.702383e-01
<VARIANCE> 39
 8.128975e+01 8.802171e+01 3.750060e+01 5.848876e+01 5.512407e+01 9.903712e+01 1.086886e+02 5.974453e+01 6.126899e+01 5.925427e+01 4.340265e+01 3.591133e+01 1.839864e+02 6.819259e+00 7.495788e+00 4.864923e+00 7.712903e+00 4.894605e+00 7.039426e+00 7.505406e+00 8.065939e+00 4.921143e+00 5.795619e+00 5.925800e+00 5.843287e+00 1.301864e+01 9.135604e-01 7.844972e-01 5.395073e-01 8.473634e-01 8.307151e-01 1.367028e+00 1.320514e+00 1.180305e+00 8.024417e-01 8.874564e-01 7.967948e-01 7.772761e-01 1.627966e+00
<GCONST> 1.501806e+02
<STATE> 3
<MEAN> 39
 -5.610742e+00 -2.013563e+01 2.702986e+00 -1.705337e+01 -5.642495e+00 -7.900530e+00 -1.033615e+01 -3.937521e+00 -1.149074e+01 -5.784140e+00 -1.420264e+01 2.725824e-01 6.105058e+01 3.212163e-01 -1.398047e+00 9.963150e-02 -8.281655e-01 5.526469e-01 4.567376e-01 6.341172e-01 1.149015e+00 -7.782941e-01 4.079597e-01 -1.152488e+00 8.966088e-02 1.962596e+00 -2.401702e-01 1.014018e+00 -2.384080e-01 7.056129e-01 7.990638e-02 -3.449883e-02 3.461506e-02 -2.941674e-01 1.950818e-01 -1.050811e-01 4.630071e-01 -3.229527e-01 -1.003631e+00
<VARIANCE> 39
 2.441657e+01 4.640700e+01 6.998114e+01 4.319081e+01 6.641358e+01 9.420373e+01 6.425208e+01 5.507875e+01 4.406628e+01 8.362316e+01 4.414017e+01 5.083564e+01 3.143118e+01 2.771084e+00 6.671751e+00 3.395279e+00 6.075808e+00 4.138624e+00 7.990715e+00 5.804053e+00 5.534145e+00 4.035807e+00 6.601299e+00 4.967468e+00 3.725501e+00 6.997075e+00 5.295257e-01 1.012325e+00 5.921594e-01 8.030092e-01 7.475965e-01 1.457579e+00 1.164462e+00 1.099592e+00 6.481787e-01 1.085631e+00 5.518466e-01 9.326264e-01 9.519805e-01
<GCONST> 1.419718e+02
<STATE> 4
<MEAN> 39
 -3.411858e+00 -2.253649e+01 -8.431644e-01 -1.361089e+01 -4.012867e+00 -4.342521e+00 -9.343551e+00 -1.170754e+00 -1.221956e+01 -9.273038e+00 -1.324583e+01 -2.878720e+00 6.185377e+01 4.558263e-01 1.408642e+00 4.035208e-02 1.675822e-01 -6.345577e-01 -6.054490e-01 6.216697e-02 -1.561353e-01 2.675574e-01 -7.471201e-01 -1.750922e-01 -5.603739e-01 -9.521720e-01 6.011890e-02 3.572771e-01 -1.406425e-01 9.223469e-02 -1.564813e-01 -2.266281e-01 5.571228e-03 -1.553879e-01 1.440292e-01 -1.357465e-01 6.881893e-02 -8.013675e-02 -3.760060e-01
<VARIANCE> 39
 2.222851e+01 4.860291e+01 4.437440e+01 6.332724e+01 4.549939e+01 4.840538e+01 3.639547e+01 3.670417e+01 4.352339e+01 7.254967e+01 7.304795e+01 3.600241e+01 2.794037e+01 1.067872e+00 2.536745e+00 1.987403e+00 2.930497e+00 2.682197e+00 3.094121e+00 2.843146e+00 2.487446e+00 2.798073e+00 3.909882e+00 2.917860e+00 2.894535e+00 1.928512e+00 2.094691e-01 3.066840e-01 3.425921e-01 4.821777e-01 4.324606e-01 4.725719e-01 4.936668e-01 5.637981e-01 4.782735e-01 7.128782e-01 4.982447e-01 4.544474e-01 1.810251e-01
<GCONST> 1.210909e+02
<TRANSP> 5
 0.000000e+00 1.000000e+00 0.000000e+00 0.000000e+00 0.000000e+00
 0.000000e+00 6.248843e-01 3.751157e-01 0.000000e+00 0.000000e+00
 0.000000e+00 0.000000e+00 6.871067e-01 3.128934e-01 0.000000e+00
 0.000000e+00 0.000000e+00 0.000000e+00 8.221877e-01 1.778123e-01
 0.000000e+00 0.000000e+00 0.000000e+00 0.000000e+00 0.000000e+00
<ENDHMM>
~h "ah"
<BEGINHMM>
<NUMSTATES> 5
<STATE> 2
<MEAN> 39
 -7.689791e+00 -5.656451e+00 -7.750407e+00 -8.736909e+00 -6.284957e+00 -6.040623e+00 -9.721229e+00 -6.281393e+00 -3.459226e+00 -7.055037e+00 -7.635551e+00 -3.630238e+00 4.663996e+01 1.450726e+00 -3.134081e+00 -2.572176e-01 -1.354059e+00 1.004803e+00 5.606827e-01 -8.879991e-01 4.949571e-01 -8.492937e-02 9.243237e-02 -1.354668e+00 2.230753e-01 2.633147e+00 8.593582e-02 -5.520720e-01 1.124828e-01 -1.802945e-02 3.958310e-01 9.691315e-02 -4.858771e-02 2.499180e-02 -2.364421e-01 4.381011e-02 -4.001431e-01 -1.047385e-01 5.643964e-01
<VARIANCE> 39
 9.781908e+01 1.151747e+02 8.193730e+01 9.316667e+01 5.622442e+01 6.664316e+01 8.918819e+01 1.094905e+02 8.662646e+01 6.033394e+01 6.638615e+01 4.343991e+01 1.150714e+02 9.093497e+00 1.156018e+01 5.836557e+00 8.092008e+00 6.786548e+00 9.127926e+00 8.109078e+00 1.043636e+01 7.466303e+00 6.670089e+00 9.007812e+00 4.490889e+00 1.174533e+01 1.218763e+00 1.708494e+00 8.875629e-01 1.437929e+00 1.208373e+00 1.606428e+00 1.610521e+00 1.724669e+00 1.259696e+00 1.123286e+00 1.290049e+00 7.328592e-01 1.619113e+00
<GCONST> 1.592178e+02
<STATE> 3
<MEAN> 39
 -2.098188e+00 -2.384149e+01 -5.597325e+00 -1.277388e+01 2.155040e+00 -1.936656e+00 -1.238333e+01 -3.731441e+00 -6.705574e+00 -6.019279e+00 -1.537721e+01 -3.933717e+00 6.158134e+01 3.530292e-01 -3.957645e-01 5.238956e-01 -2.086916e-01 2.339107e-01 -4.283064e-02 -5.038998e-02 2.721440e-01 -4.811930e-01 -5.366651e-01 -8.051887e-01 -2.922963e-01 7.056286e-01 -8.464451e-02 1.136164e+00 -6.023555e-02 2.330930e-01 -7.065235e-01 -4.423104e-01 7.239905e-02 -2.081420e-01 3.732264e-02 -3.070815e-01 3.640057e-01 -1.629501e-01 -8.485490e-01
<VARIANCE> 39
 1.407608e+01 1.751284e+01 4.012335e+01 4.155268e+01 4.152406e+01 7.753165e+01 4.329478e+01 4.531781e+01 6.573888e+01 5.575527e+01 6.087910e+01 4.040981e+01 1.654318e+01 1.773457e+00 6.402537e+00 3.232538e+00 4.292562e+00 5.022365e+00 6.017234e+00 3.702928e+00 3.970612e+00 5.650535e+00 4.922606e+00 4.946688e+00 2.985521e+00 3.554913e+00 4.255598e-01 6.802153e-01 5.400872e-01 7.420358e-01 5.769366e-01 7.831550e-01 6.448424e-01 8.897981e-01 1.114530e+00 9.814620e-01 1.014953e+00 5.521031e-01 4.698915e-01
<GCONST> 1.327769e+02
<STATE> 4
<MEAN> 39
 5.369130e-01 -1.526251e+01 -5.616339e+00 -1.203574e+01 -3.344342e+00 -6.084044e+00 -1.253655e+01 -5.695637e+00 -8.443038e+00 -1.216134e+01 -1.836640e+01 -7.857952e+00 5.616549e+01 -8.081184e-02 2.872357e+00 -6.179110e-01 6.286297e-01 -1.522071e+00 -1.268900e+00 4.707420e-01 -5.774038e-01 1.825408e-01 -1.383223e+00 3.299922e-01 -1.027648e+00 -1.840643e+00 -5.251780e-01 2.626743e-01 -2.550601e-01 1.517835e-01 2.253150e-01 1.301116e-01 1.744986e-01 -5.941346e-02 4.817419e-02 2.758359e-01 4.801485e-01 7.196130e-02 -8.781254e-05
<VARIANCE> 39
 1.715374e+01 4.311533e+01 3.889413e+01 4.654356e+01 3.125076e+01 8.703511e+01 6.222341e+01 4.368286e+01 5.074257e+01 5.828365e+01 3.681433e+01 4.695063e+01 2.529267e+01 3.584670e+00 4.010471e+00 3.946898e+00 3.152190e+00 2.803318e+00 3.856186e+00 3.301396e+00 2.718262e+00 4.400658e+00 3.807086e+00 3.781170e+00 3.421162e+00 1.021041e+00 6.348398e-01 9.986002e-01 6.269076e-01 7.101409e-01 6.302356e-01 7.440640e-01 6.784906e-01 5.726628e-01 7.310368e-01 7.798986e-01 7.227901e-01 7.904535e-01 3.100422e-01
<GCONST> 1.301787e+02
<TRANSP> 5
 0.000000e+00 1.000000e+00 0.000000e+00 0.000000e+00 0.000000e+00
 0.000000e+00 7.570557e-01 2.429443e-01 0.000000e+00 0.000000e+00
 0.000000e+00 0.000000e+00 8.037316e-01 1.962685e-01 0.000000e+00
 0.000000e+00 0.000000e+00 0.000000e+00 6.677424e-01 3.322577e-01
 0.000000e+00 0.000000e+00 0.000000e+00 0.000000e+00 0.000000e+00
<ENDHMM>
~h "ao"
<BEGINHMM>
<NUMSTATES> 5
<STATE> 2
<MEAN> 39
 -7.195600e+00 -6.643310e+00 -4.449419e+00 -1.005051e+01 -5.808352e+00 -4.030178e+00 -1.434852e+01 -1.195814e+01 -5.814376e+00 -7.650965e+00 -3.519730e+00 -3.965854e+00 4.777494e+01 2.233523e+00 -1.500919e+00 -9.503182e-01 -2.023992e+00 -6.431004e-02 7.512600e-01 -3.979098e-01 3.378304e-01 -5.491806e-01 1.323841e-01 3.290738e-01 4.738316e-01 2.645908e+00 2.748612e-01 -3.088816e-01 -2.948267e-01 -2.062520e-01 3.766149e-01 -1.778796e-01 -8.144978e-02 4.511764e-01 -4.569152e-03 3.906796e-01 -3.648786e-01 -1.437145e-01 2.496781e-01
<VARIANCE> 39
 9.626732e+01 8.292866e+01 1.403456e+02 9.389581e+01 9.287363e+01 9.393230e+01 8.012885e+01 5.315174e+01 7.815567e+01 4.680750e+01 4.664389e+01 3.855206e+01 1.004242e+02 1.497088e+01 8.313347e+00 7.965235e+00 9.792017e+00 6.093886e+00 1.563748e+01 5.331626e+00 5.534718e+00 5.902230e+00 5.468457e+00 8.845871e+00 6.067305e+00 7.540969e+00 2.292262e+00 1.411434e+00 1.331102e+00 1.672194e+00 1.297836e+00 2.738123e+00 7.477189e-01 8.567870e-01 1.237622e+00 1.015474e+00 1.629553e+00 1.301830e+00 1.827534e+00
<GCONST> 1.588683e+02
<STATE> 3
<MEAN> 39
 8.323044e-01 -1.603235e+01 -9.345117e+00 -1.773179e+01 -4.845333e-01 -2.556909e+00 -1.657571e+01 -6.923542e+00 -6.638684e+00 6.895255e-01 -8.795785e+00 -5.682213e+00 5.855098e+01 8.893068e-01 -1.321066e+00 -1.859028e+00 -7.215924e-01 1.383561e+00 1.839973e+00 7.395540e-01 1.318684e+00 -5.059208e-01 1.747949e+00 4.537817e-01 -7.562566e-01 5.924039e-01 -4.685714e-01 4.353439e-01 1.258505e-01 5.501971e-01 -3.009980e-01 -1.027539e-02 2.373282e-01 -1.506833e-01 -2.307804e-01 -5.050875e-01 4.803399e-01 3.106767e-01 -4.334596e-01
<VARIANCE> 39
 2.568381e+01 2.585162e+01 6.322554e+01 8.430330e+01 5.405615e+01 1.509908e+02 4.445743e+01 2.923903e+01 8.347709e+01 1.157192e+02 5.155575e+01 3.175197e+01 1.300008e+01 1.360657e+00 2.832414e+00 5.502786e+00 2.437990e+00 3.564269e+00 7.165171e+00 2.537431e+00 4.028260e+00 5.019528e+00 4.326835e+00 5.659813e+00 3.533068e+00 1.389551e+00 3.748328e-01 2.767136e-01 5.575681e-01 4.684094e-01 5.663655e-01 1.785994e+00 6.046426e-01 3.724386e-01 1.208636e+00 8.179099e-01 1.340239e+00 7.010770e-01 1.884482e-01
<GCONST> 1.311574e+02
<STATE> 4
<MEAN> 39
 4.843759e+00 -1.655334e+01 -1.562180e+01 -1.134996e+01 1.088208e+00 -7.892814e+00 -1.358015e+01 -4.243605e-01 -9.625600e+00 -5.177382e+00 -4.684386e+00 -4.976948e+00 5.523445e+01 -4.371558e-03 1.511226e-01 3.363899e-01 4.212350e-01 -3.040902e-01 -8.471096e-01 9.802182e-02 1.956869e-01 2.404375e-01 -5.618731e-01 -9.321418e-02 -7.411205e-03 -3.432524e-01 -6.692175e-02 8.496630e-02 1.566987e-01 -9.907198e-03 -1.110143e-01 -3.641765e-02 -4.336927e-04 -1.317337e-01 5.146692e-02 -3.287357e-02 -8.505777e-02 -6.880478e-03 -5.073920e-02
<VARIANCE> 39
 1.878304e+01 3.644546e+01 5.515786e+01 1.296108e+02 6.312332e+01 2.532057e+02 4.473744e+01 6.262059e+01 7.708612e+01 6.496637e+01 4.065341e+01 3.732812e+01 2.841885e+01 6.880147e-01 1.699156e+00 2.962499e+00 2.183590e+00 3.888166e+00 4.631708e+00 3.324448e+00 2.299821e+00 4.230242e+00 2.956762e+00 2.714937e+00 2.433118e+00 5.143190e-01 7.844397e-02 2.382935e-01 2.482992e-01 2.790242e-01 4.679131e-01 6.314020e-01 5.332124e-01 3.914419e-01 6.891404e-01 4.301075e-01 4.425800e-01 4.233708e-01 6.655146e-02
<GCONST> 1.195504e+02
<TRANSP> 5
 0.000000e+00 1.000000e+00 0.000000e+00 0.000000e+00 0.000000e+00
 0.000000e+00 7.462029e-01 2.537971e-01 0.000000e+00 0.000000e+00
 0.000000e+00 0.000000e+00 6.670939e-01 3.329061e-01 0.000000e+00
 0.000000e+00 0.000000e+00 0.000000e+00 9.319662e-01 6.803384e-02
 0.000000e+00 0.000000e+00 0.000000e+00 0.000000e+00 0.000000e+00
<ENDHMM>
~h "aw"
<BEGINHMM>
<NUMSTATES> 5
<STATE> 2
<MEAN> 39
 3.041285e-01 -2.296035e+01 -2.214121e+00 -2.402057e+00 -2.378524e+00 -1.076735e+01 -9.203201e+00 1.023385e+00 -1.630592e+01 -1.792894e+01 -8.916341e+00 -9.145713e+00 5.459236e+01 3.738713e-02 1.043198e+00 -3.116288e-01 7.568937e-01 -4.603759e-01 -4.315383e-01 -3.056992e-01 1.739118e-01 -8.925943e-03 -1.817275e-01 2.521949e-01 -1.256632e-01 -1.097813e+00 -1.667151e-01 1.264745e-01 7.480630e-02 -1.566708e-01 1.182424e-02 6.619471e-02 1.261086e-01 -1.728629e-01 8.505918e-02 2.379021e-01 8.462763e-02 1.549435e-01 -3.686914e-02
<VARIANCE> 39
 7.491881e+00 1.294212e+02 1.241833e+01 3.527071e+01 1.007048e+02 1.838572e+02 3.488382e+01 4.363700e+01 3.477349e+01 1.917854e+01 2.906123e+01 3.186035e+01 6.088771e+01 8.187075e-01 2.442260e+00 1.479196e+00 2.291940e+00 4.353318e+00 6.687073e+00 2.068852e+00 2.855488e+00 2.754828e+00 2.252509e+00 2.753346e+00 3.550558e+00 8.169253e-01 7.917152e-02 2.858393e-01 2.304649e-01 2.576666e-01 8.484541e-01 8.978479e-01 3.354122e-01 5.963608e-01 3.129988e-01 4.153023e-01 3.726129e-01 7.456307e-01 9.423686e-02
<GCONST> 1.160207e+02
<STATE> 3
<MEAN> 39
 -5.578841e+00 -5.098731e+00 -2.774122e+00 -6.139792e+00 -1.034980e+01 -1.252464e+01 -1.436296e+01 -1.008010e+01 -1.058360e+01 -1.090650e+01 -9.502209e+00 -4.019731e+00 3.910150e+01 -5.795567e-01 -7.895076e-01 -3.467106e-02 2.718873e-01 1.136955e+00 9.926401e-01 8.681390e-01 -4.750055e-01 -2.125602e-01 1.634421e+00 1.389720e+00 1.814707e+00 5.879755e-02 -5.410154e-02 -8.484367e-01 -5.286252e-02 2.181428e-04 2.636362e-01 -3.546730e-01 8.620151e-01 1.576187e-01 2.189143e-01 3.588661e-01 1.125067e-01 2.039204e-02 9.802661e-01
<VARIANCE> 39
 3.830229e+01 6.098111e+01 3.109154e+01 1.819851e+01 5.164143e+01 4.852894e+01 3.858337e+01 4.799269e+01 1.349570e+01 2.663804e+01 1.958747e+01 2.899523e+01 8.730947e+01 2.295166e+00 8.352800e+00 3.422327e+00 2.732344e+00 1.272529e+01 8.141398e+00 5.674067e+00 3.886917e+00 2.146312e+00 2.731850e+00 1.995011e+00 3.890697e+00 4.942317e+00 4.260252e-01 1.530758e+00 4.302445e-01 2.346197e-01 1.106498e+00 1.537182e+00 5.308791e-01 1.209188e+00 1.472052e-01 5.957834e-01 2.490840e-01 4.302187e-01 7.644355e-01
<GCONST> 1.285882e+02
<STATE> 4
<MEAN> 39
 -7.451117e+00 -1.957973e+01 -6.212740e+00 -3.652452e+00 2.785824e-01 -5.019439e+00 -7.651422e+00 -4.370716e+00 -9.355529e+00 -2.208924e+00 -1.729340e+00 -2.275342e+00 4.555782e+01 4.216500e-01 -5.159841e-01 -2.731124e-01 -2.875844e-01 5.002600e-01 3.064179e-01 -5.719385e-02 4.859515e-01 2.329246e-01 6.957717e-02 1.184382e-02 -5.384315e-01 7.644817e-01 -5.267221e-02 3.790130e-01 -3.883795e-02 -1.507175e-01 -1.793275e-01 -1.044501e-01 -1.173177e-01 -3.282022e-02 9.094084e-02 -1.776396e-01 -8.348241e-02 -1.919668e-01 -2.052973e-01
<VARIANCE> 39
 1.071795e+02 1.204413e+02 2.842471e+01 1.884506e+01 5.078886e+01 1.141595e+02 7.298959e+01 2.487336e+01 4.829319e+01 2.428290e+01 3.637166e+01 6.211238e+01 2.387755e+02 3.500767e+00 1.093774e+01 2.287313e+00 1.823800e+00 3.720988e+00 6.003155e+00 5.237285e+00 3.212030e+00 4.818266e+00 3.745445e+00 3.392476e+00 2.857160e+00 1.135698e+01 6.096566e-01 1.476588e+00 4.678207e-01 3.159767e-01 4.650019e-01 1.041572e+00 7.987511e-01 5.642181e-01 8.914725e-01 6.333710e-01 6.735684e-01 4.683019e-01 1.537385e+00
<GCONST> 1.376236e+02
<TRANSP> 5
 0.000000e+00 1.000000e+00 0.000000e+00 0.000000e+00 0.000000e+00
 0.000000e+00 8.054827e-01 1.945173e-01 0.000000e+00 0.000000e+00
 0.000000e+00 0.000000e+00 5.434128e-01 4.565872e-01 0.000000e+00
 0.000000e+00 0.000000e+00 0.000000e+00 8.790888e-01 1.209113e-01
 0.000000e+00 0.000000e+00 0.000000e+00 0.000000e+00 0.000000e+00
<ENDHMM>
~h "ax"
<BEGINHMM>
<NUMSTATES> 5
<STATE> 2
<MEAN> 39
 -3.802622e+00 -3.793999e+00 -4.250397e+00 -5.967921e+00 -8.994261e+00 -1.053982e+01 -9.711266e+00 -8.091833e+00 -7.787689e+00 -1.035270e+01 -9.881583e+00 -7.893372e+00 4.324333e+01 -5.482295e-01 4.896238e-01 -1.366857e-01 1.657124e-01 1.550757e-01 -1.588846e-01 -8.983806e-02 -6.717236e-01 1.415577e-01 -9.951510e-02 1.743216e-01 2.575532e-01 -7.815694e-01 -1.384678e-01 -5.181157e-01 7.608098e-02 -3.915221e-01 3.171034e-01 -6.410571e-03 -1.155811e-01 -4.879250e-02 -2.684769e-02 3.178493e-01 2.380338e-01 4.357485e-01 6.898670e-01
<VARIANCE> 39
 6.678808e+01 7.708598e+01 5.732322e+01 4.855122e+01 6.868272e+01 6.422189e+01 5.455529e+01 8.987009e+01 8.579981e+01 5.036612e+01 4.167023e+01 4.284095e+01 7.316222e+01 3.553759e+00 4.470928e+00 3.091175e+00 2.575780e+00 4.459715e+00 4.351496e+00 3.980713e+00 4.533369e+00 4.380358e+00 2.779500e+00 3.711129e+00 2.967832e+00 2.819541e+00 6.773611e-01 6.000918e-01 6.895182e-01 7.535072e-01 9.133807e-01 9.394346e-01 9.266892e-01 1.040124e+00 9.170961e-01 6.707107e-01 7.685231e-01 5.982233e-01 5.340042e-01
<GCONST> 1.381944e+02
<STATE> 3
<MEAN> 39
 -7.093685e+00 1.784551e-01 -2.763520e+00 -4.694326e+00 -6.933602e+00 -1.175144e+01 -1.166546e+01 -1.402571e+01 -9.105778e+00 -1.052059e+01 -7.131263e+00 -5.357407e+00 4.185677e+01 -1.801695e-01 -1.932297e+00 2.600802e-01 -1.518063e+00 7.800494e-01 -3.203734e-01 -5.744692e-01 -1.052215e-01 1.522297e-01 9.747220e-01 8.926933e-01 1.516140e+00 2.316037e+00 2.168537e-01 -7.544062e-01 1.185214e-01 -7.241535e-01 9.033448e-02 8.054693e-02 4.147089e-02 5.009865e-01 1.467697e-01 4.794951e-01 -1.590859e-01 3.360404e-01 8.967352e-01
<VARIANCE> 39
 6.615061e+01 7.294048e+01 4.288479e+01 2.793677e+01 4.596210e+01 6.360484e+01 6.337180e+01 7.965203e+01 6.404980e+01 5.710188e+01 3.657949e+01 4.457022e+01 6.689072e+01 9.289983e+00 6.703446e+00 5.623383e+00 5.154252e+00 7.313984e+00 1.063825e+01 8.943339e+00 7.853306e+00 6.203880e+00 6.091624e+00 5.914810e+00 4.879333e+00 5.184954e+00 1.036762e+00 8.150751e-01 7.505667e-01 6.972395e-01 1.285106e+00 1.794479e+00 1.338495e+00 1.136372e+00 1.057201e+00 8.211810e-01 1.015215e+00 9.649517e-01 7.403270e-01
<GCONST> 1.482797e+02
<STATE> 4
<MEAN> 39
 -4.799048e+00 -1.240161e+01 -2.080456e-01 -1.536236e+01 -4.017048e+00 -1.204539e+01 -1.386317e+01 -8.964009e+00 -7.755804e+00 -4.317417e+00 -9.421939e+00 9.473773e-01 5.382981e+01 2.713517e-01 -1.726457e+00 6.031734e-01 -1.390607e+00 3.950530e-01 -5.176365e-02 1.615973e-01 1.093504e+00 2.285399e-01 6.240966e-01 -8.737015e-01 5.307696e-01 1.891235e+00 -4.105279e-03 6.138198e-01 -1.630290e-01 5.180748e-01 -1.598891e-01 9.699000e-02 2.049303e-01 -6.864296e-02 7.965539e-03 -3.128314e-01 -1.218890e-01 -5.231264e-01 -4.864661e-01
<VARIANCE> 39
 6.204645e+01 6.653200e+01 7.721442e+01 7.301566e+01 7.677436e+01 1.160899e+02 7.145708e+01 8.502537e+01 5.965598e+01 5.401630e+01 7.003966e+01 4.459978e+01 5.909917e+01 5.588452e+00 7.343639e+00 5.808157e+00 8.208221e+00 7.166523e+00 9.814061e+00 7.329940e+00 7.181238e+00 5.258977e+00 5.844532e+00 6.668733e+00 5.695426e+00 5.538332e+00 1.050827e+00 1.100794e+00 9.864719e-01 1.226881e+00 1.457471e+00 1.552974e+00 1.402608e+00 1.385791e+00 8.825530e-01 9.032138e-01 1.253409e+00 7.837594e-01 7.566887e-01
<GCONST> 1.525157e+02
<TRANSP> 5
 0.000000e+00 1.000000e+00 0.000000e+00 0.000000e+00 0.000000e+00
 0.000000e+00 4.492352e-01 5.507649e-01 0.000000e+00 0.000000e+00
 0.000000e+00 0.000000e+00 4.608345e-01 5.391655e-01 0.000000e+00
 0.000000e+00 0.000000e+00 0.000000e+00 6.770330e-01 3.229670e-01
 0.000000e+00 0.000000e+00 0.000000e+00 0.000000e+00 0.000000e+00
<ENDHMM>
~h "ay"
<BEGINHMM>
<NUMSTATES> 5
<STATE> 2
<MEAN> 39
 -9.589565e-01 -2.518178e+01 -7.195211e+00 -1.021935e+01 4.276478e+00 8.263544e-01 -1.539952e+01 -4.740488e+00 -8.017256e+00 -4.331266e+00 -1.186491e+01 -3.049274e+00 6.110796e+01 -4.785585e-01 -1.501998e+00 1.115794e+00 2.656938e-01 5.890297e-01 1.577788e-01 6.801102e-01 1.365433e+00 -5.455160e-01 5.010277e-01 -5.281758e-01 6.447087e-01 9.043013e-01 -4.139854e-01 7.546698e-01 2.611656e-01 1.501135e-02 -4.494744e-01 -5.805345e-01 1.536225e-01 -1.611978e-01 -4.587465e-02 -2.911255e-01 1.026850e-01 1.902178e-01 -3.901001e-01
<VARIANCE> 39
 1.481979e+01 2.920304e+01 2.679419e+01 4.443707e+01 4.532383e+01 6.423719e+01 2.508883e+01 3.999554e+01 4.353313e+01 5.180285e+01 5.063412e+01 3.584120e+01 1.677449e+01 1.391775e+00 3.336838e+00 2.846227e+00 2.790183e+00 3.362990e+00 3.069809e+00 3.298706e+00 1.863222e+00 2.992402e+00 4.401419e+00 4.561708e+00 2.281891e+00 8.827327e-01 4.589323e-01 3.560811e-01 4.377638e-01 7.785076e-01 3.427297e-01 4.917873e-01 5.399978e-01 6.881488e-01 5.383059e-01 7.695478e-01 7.428294e-01 3.925521e-01 1.968524e-01
<GCONST> 1.209185e+02
<STATE> 3
<MEAN> 39
 -5.097001e+00 -2.770686e+01 -2.854100e+00 -1.085317e+01 1.744977e+00 -1.796584e+00 -1.117288e+01 3.029577e-01 -1.210493e+01 -6.328033e+00 -1.370044e+01 1.071856e+00 6.503910e+01 -4.572617e-01 4.342647e-01 9.821737e-01 -7.655882e-01 -9.583700e-01 -8.574452e-01 8.779308e-01 5.571629e-01 -3.082891e-01 -4.540407e-01 -8.263912e-03 2.561602e-01 1.244044e-01 1.070223e-01 2.717837e-01 3.080672e-02 -2.396572e-01 -2.215625e-01 -7.361137e-02 9.790614e-03 -1.763727e-01 7.538056e-02 1.229805e-01 1.122899e-01 -2.184687e-01 -1.419302e-01
<VARIANCE> 39
 7.586094e+00 2.227726e+01 3.054909e+01 3.002405e+01 5.848334e+01 5.129235e+01 2.707198e+01 3.289546e+01 3.854189e+01 5.032837e+01 5.694928e+01 3.891285e+01 7.681440e+00 5.616368e-01 9.431672e-01 1.649260e+00 1.867748e+00 1.726281e+00 1.914258e+00 2.599585e+00 2.234139e+00 2.090158e+00 3.044053e+00 3.516802e+00 2.903002e+00 2.423347e-01 7.072071e-02 1.190630e-01 1.320463e-01 2.105943e-01 2.123782e-01 2.789775e-01 4.238065e-01 4.168423e-01 3.834527e-01 5.391644e-01 5.907427e-01 4.391839e-01 3.400255e-02
<GCONST> 1.027137e+02
<STATE> 4
<MEAN> 39
 -5.756167e+00 -1.883744e+01 7.215634e+00 -2.107920e+01 -8.849548e+00 -9.422443e+00 -6.830215e+00 -1.525786e+00 -1.225218e+01 -5.626330e+00 -1.316420e+01 -7.767046e-01 6.184853e+01 6.904899e-01 1.819903e+00 8.811069e-01 -6.562291e-01 -1.194517e+00 -1.038871e+00 -8.004007e-01 -1.188616e+00 -2.452553e-01 1.978807e-01 9.424302e-02 -3.086576e-01 -1.216299e+00 2.460640e-01 1.827802e-01 -4.493644e-01 6.126860e-01 1.671526e-01 2.270993e-02 -4.002837e-01 -1.634303e-01 7.090603e-02 -2.970814e-01 1.149286e-02 -2.235748e-02 -3.219919e-01
<VARIANCE> 39
 1.009805e+01 3.498844e+01 2.765757e+01 4.277457e+01 4.808680e+01 4.706651e+01 5.468608e+01 6.108633e+01 3.835795e+01 5.356570e+01 3.684002e+01 2.856913e+01 2.004151e+01 8.067426e-01 1.076802e+00 1.689960e+00 3.514093e+00 2.243433e+00 3.624250e+00 4.387063e+00 2.898636e+00 3.060661e+00 4.125466e+00 2.490562e+00 2.835260e+00 7.217419e-01 1.360103e-01 1.527825e-01 3.189862e-01 4.756837e-01 4.469279e-01 5.701101e-01 1.002605e+00 4.624622e-01 5.968114e-01 7.251688e-01 4.622780e-01 5.547019e-01 7.187069e-02
<GCONST> 1.157606e+02
<TRANSP> 5
 0.000000e+00 1.000000e+00 0.000000e+00 0.000000e+00 0.000000e+00
 0.000000e+00 7.030836e-01 2.969164e-01 0.000000e+00 0.000000e+00
 0.000000e+00 0.000000e+00 8.420817e-01 1.579183e-01 0.000000e+00
 0.000000e+00 0.000000e+00 0.000000e+00 8.102622e-01 1.897378e-01
 0.000000e+00 0.000000e+00 0.000000e+00 0.000000e+00 0.000000e+00
<ENDHMM>
~h "ch"
<BEGINHMM>
<NUMSTATES> 5
<STATE> 2
<MEAN> 39
 -8.489782e+00 8.478063e-01 -1.078511e+00 -4.597222e+00 -4.926601e+00 -1.064994e+01 -1.335178e+01 -1.699770e+01 -1.550968e+01 -1.417405e+01 -1.406581e+01 -1.168398e+01 4.292627e+01 -1.121334e+00 -1.188267e+00 1.228894e+00 -1.247219e+00 6.822253e-01 7.168382e-03 -1.861152e+00 -9.982650e-01 -4.748985e-01 2.226046e+00 1.073267e+00 4.395093e-01 2.400703e+00 -8.223239e-01 -4.081571e-01 9.231910e-01 -1.066660e+00 -3.911618e-01 4.410536e-01 4.530068e-01 2.000556e-01 2.366498e-01 7.772869e-01 2.463570e-01 8.174296e-01 1.047753e+00
<VARIANCE> 39
 7.630359e+01 7.673758e+00 9.057344e+00 1.068835e+02 1.952098e+01 4.209687e+01 3.737030e+01 1.866915e+02 3.215637e+01 5.338431e+01 2.651038e+01 4.323586e+01 2.035811e+01 8.234363e+00 2.682715e+00 3.864822e+00 9.413592e+00 8.504912e+00 4.576381e+00 1.286747e+00 1.238940e+00 1.107173e+00 6.905961e+00 4.390264e+00 6.926186e+00 8.653186e+00 2.297157e+00 5.434644e-01 3.628328e-01 1.467715e+00 1.385164e+00 1.256459e+00 1.178957e+00 7.364486e-01 1.923459e-01 7.656410e-01 8.763802e-01 7.920969e-01 3.480441e-01
<GCONST> 1.330853e+02
<STATE> 3
<MEAN> 39
 -1.015931e+01 -3.471546e+00 1.304072e+01 -1.914683e+01 -8.379389e+00 -9.434362e+00 -1.504524e+01 -1.759581e+01 -1.452538e+01 -1.870691e+00 -1.417941e+01 -2.719848e+00 5.826432e+01 -1.196325e+00 1.017538e+00 6.745363e-01 -1.284073e+00 -1.350613e-01 1.938906e-01 7.706709e-01 7.682840e-01 1.916704e-01 -3.266056e-01 -5.482876e-01 -6.781389e-01 7.476850e-01 -3.304575e-01 5.407050e-01 -4.999048e-01 7.426573e-01 8.652937e-02 4.769463e-02 1.301128e-01 8.963279e-02 1.405708e-01 -4.479341e-01 1.153863e-01 -4.233754e-01 -6.506815e-01
<VARIANCE> 39
 2.335385e+01 7.424812e+01 1.885734e+01 5.067364e+01 4.652837e+01 2.207308e+01 3.175821e+01 5.802188e+01 6.942396e+00 5.529637e+01 5.419963e+01 4.893537e+01 2.502311e+01 4.283361e+00 5.918960e+00 5.573369e+00 8.562296e+00 5.599033e+00 4.748882e+00 4.365746e+00 4.018971e+00 9.309351e-01 7.305960e+00 2.719783e+00 7.063478e+00 6.018145e+00 3.440728e-01 7.714176e-01 3.514810e-01 5.354878e-01 1.584948e+00 1.279377e+00 1.018231e+00 7.521802e-01 1.455642e-01 1.298388e+00 6.182128e-01 1.075403e+00 6.297514e-01
<GCONST> 1.323224e+02
<STATE> 4
<MEAN> 39
 -2.432822e+01 3.219379e+00 1.121698e+01 -1.378365e+01 -1.288139e+01 -6.774518e+00 -9.529934e+00 -8.707964e+00 -8.332874e+00 -3.211132e+00 -2.365811e+00 -5.698047e+00 5.579890e+01 8.418965e-02 -3.836677e-01 1.063827e-01 3.712808e-01 -1.423504e+00 5.609024e-02 -8.143838e-02 1.339239e-01 5.129073e-01 2.863229e-01 1.515464e+00 6.972830e-01 -3.717441e-01 6.277798e-01 -3.231095e-01 -1.598860e-01 -2.316898e-01 -2.304921e-02 -2.103653e-01 -1.012606e-01 -2.434894e-03 -7.222155e-02 3.060435e-02 -1.095041e-01 1.465760e-01 -8.410829e-02
<VARIANCE> 39
 8.966211e+01 2.479094e+01 1.347138e+01 2.721319e+01 6.508919e+01 8.698140e+01 1.443580e+01 4.535113e+01 3.480519e+01 5.958429e+01 5.948748e+01 3.428791e+01 1.231347e+01 1.683718e+01 2.691604e+00 3.269034e+00 3.002567e+00 4.170834e+00 1.198192e+01 3.117465e+00 4.476851e+00 2.821887e+00 2.218007e+00 3.803165e+00 3.869089e+00 3.405413e+00 2.161215e+00 6.700072e-01 4.834710e-01 5.084143e-01 8.350131e-01 2.146168e+00 4.897847e-01 8.772221e-01 4.830154e-01 5.138474e-01 5.984527e-01 9.486142e-01 5.898381e-01
<GCONST> 1.327934e+02
<TRANSP> 5
 0.000000e+00 1.000000e+00 0.000000e+00 0.000000e+00 0.000000e+00
 0.000000e+00 7.271105e-01 2.728895e-01 0.000000e+00 0.000000e+00
 0.000000e+00 0.000000e+00 8.382162e-01 1.617838e-01 0.000000e+00
 0.000000e+00 0.000000e+00 0.000000e+00 9.087768e-01 9.122324e-02
 0.000000e+00 0.000000e+00 0.000000e+00 0.000000e+00 0.000000e+00
<ENDHMM>
~h "dh"
<BEGINHMM>
<NUMSTATES> 5
<STATE> 2
<MEAN> 39
 -6.888536e+00 -1.992138e+00 -4.336167e+00 -5.851840e+00 -8.126799e+00 -1.143370e+01 -1.035672e+01 -8.307913e+00 -4.242227e+00 -8.491417e+00 -8.670584e+00 -5.848349e+00 4.321988e+01 -2.394102e-01 6.032957e-01 -1.405965e-01 2.366493e-01 -7.785092e-02 6.551414e-01 -1.427413e-02 -4.198275e-01 -9.915853e-02 -5.370728e-02 4.767125e-02 -2.764548e-01 -1.292242e+00 -1.476727e-02 -1.401554e-01 1.495659e-01 -7.438391e-02 1.303358e-01 6.587335e-02 -1.711375e-01 -2.156608e-01 -2.586652e-01 -9.985101e-03 -4.335403e-02 -1.314988e-03 9.295433e-02
<VARIANCE> 39
 8.466926e+01 8.722073e+01 6.467122e+01 4.622193e+01 4.557340e+01 7.871750e+01 6.102213e+01 7.692077e+01 5.039714e+01 5.120588e+01 6.263496e+01 5.666095e+01 1.087455e+02 2.223850e+00 2.025002e+00 2.089611e+00 2.045660e+00 2.240667e+00 2.292883e+00 3.255384e+00 3.770453e+00 2.426048e+00 3.065715e+00 2.270953e+00 2.707065e+00 1.345661e+00 3.649132e-01 3.888774e-01 4.633753e-01 4.260908e-01 5.836588e-01 4.011955e-01 5.888473e-01 6.502547e-01 5.447003e-01 5.194893e-01 5.298519e-01 6.559212e-01 1.845291e-01
<GCONST> 1.271708e+02
<STATE> 3
<MEAN> 39
 -6.177976e+00 3.855093e+00 -2.463692e+00 -3.293313e+00 -9.200739e+00 -8.716026e+00 -1.033141e+01 -1.238859e+01 -9.078313e+00 -1.006913e+01 -8.165756e+00 -5.235076e+00 3.615178e+01 1.068898e+00 7.148685e-01 6.796343e-01 2.611071e-02 -5.814171e-01 -2.883011e-01 -8.476377e-01 -1.053306e+00 -1.020302e+00 -9.916205e-01 -5.690084e-01 -5.600938e-01 1.216751e-01 -3.102106e-01 -3.108668e-01 1.237726e-02 -1.073876e-01 2.143298e-01 -8.445603e-02 8.933783e-02 9.222172e-03 3.901798e-02 1.541677e-01 1.110430e-01 7.230175e-02 3.364146e-01
<VARIANCE> 39
 8.431427e+01 4.935020e+01 3.963789e+01 2.042297e+01 5.404866e+01 5.368416e+01 6.121156e+01 8.044865e+01 4.988081e+01 4.791217e+01 4.406531e+01 3.400554e+01 7.088593e+01 5.612922e+00 3.289657e+00 2.339012e+00 1.921027e+00 4.142928e+00 4.612574e+00 4.709755e+00 5.127748e+00 4.353757e+00 3.306968e+00 2.281659e+00 2.211962e+00 5.332020e+00 9.810247e-01 5.947089e-01 3.843704e-01 2.452138e-01 9.884561e-01 8.775868e-01 1.140337e+00 1.270993e+00 7.784838e-01 6.172069e-01 5.566469e-01 4.569050e-01 6.426961e-01
<GCONST> 1.338311e+02
<STATE> 4
<MEAN> 39
 -7.017573e+00 2.357958e+00 -3.348680e+00 -2.844259e+00 -8.035868e+00 -8.499456e+00 -1.135660e+01 -1.446987e+01 -1.005991e+01 -1.106346e+01 -9.249630e+00 -7.882346e+00 3.728016e+01 -9.848084e-01 -6.201831e-01 -8.160807e-03 -1.147019e-01 7.931510e-01 1.540407e-01 1.388085e-01 -2.793593e-01 3.982939e-02 3.782828e-01 5.223994e-01 9.686548e-02 1.242485e-01 -2.592916e-01 -3.459865e-01 8.943473e-02 -4.829549e-01 4.671289e-02 -4.388407e-01 -6.324217e-03 -1.617003e-02 1.344518e-01 3.422123e-01 4.548932e-01 5.366803e-01 9.331761e-01
<VARIANCE> 39
 6.733681e+01 3.673584e+01 3.655333e+01 2.957865e+01 4.562649e+01 4.488837e+01 5.407121e+01 7.148090e+01 5.830634e+01 5.247393e+01 4.269213e+01 2.889764e+01 6.124123e+01 2.463307e+00 3.563622e+00 3.144948e+00 2.513880e+00 5.092652e+00 3.152904e+00 2.879313e+00 3.241776e+00 4.244249e+00 4.538494e+00 4.327282e+00 2.549260e+00 3.229365e+00 5.643994e-01 4.504922e-01 7.001057e-01 5.580792e-01 9.955221e-01 5.357322e-01 7.483550e-01 7.943411e-01 7.171178e-01 7.724165e-01 6.192935e-01 5.001925e-01 6.114817e-01
<GCONST> 1.316880e+02
<TRANSP> 5
 0.000000e+00 1.000000e+00 0.000000e+00 0.000000e+00 0.000000e+00
 0.000000e+00 5.261572e-01 4.738427e-01 0.000000e+00 0.000000e+00
 0.000000e+00 0.000000e+00 4.503083e-01 5.496917e-01 0.000000e+00
 0.000000e+00 0.000000e+00 0.000000e+00 3.502386e-01 6.497614e-01
 0.000000e+00 0.000000e+00 0.000000e+00 0.000000e+00 0.000000e+00
<ENDHMM>
~h "ea"
<BEGINHMM>
<NUMSTATES> 5
<STATE> 2
<MEAN> 39
 -1.046904e+01 -7.356519e+00 3.656023e+00 -1.243102e+01 -8.679500e+00 -1.235168e+01 -9.542922e+00 -1.053568e+01 -9.184035e+00 -4.748204e+00 -3.290153e+00 -1.244067e+00 4.861174e+01 1.405783e+00 -2.822383e+00 2.585924e+00 -3.455529e+00 -1.640027e+00 -1.950975e+00 2.466846e-02 1.125523e+00 -1.050368e+00 9.292771e-01 -7.374512e-01 5.371011e-01 5.012731e+00 1.140075e-03 -3.905545e-01 1.544813e-02 5.363609e-02 3.109857e-01 4.695446e-01 4.743151e-01 5.506396e-01 -1.446484e-01 -1.842048e-01 -6.538291e-01 -2.939570e-01 -2.984396e-01
<VARIANCE> 39
 4.245986e+01 7.250256e+01 6.581527e+01 1.076617e+02 8.015965e+01 7.513966e+01 3.697702e+01 6.634911e+01 3.414607e+01 4.172548e+01 3.704382e+01 4.160230e+01 1.485519e+02 5.817501e+00 6.155562e+00 5.669759e+00 1.073859e+01 1.100307e+01 5.103277e+00 6.448497e+00 1.039207e+01 4.459215e+00 6.155504e+00 6.855274e+00 4.136253e+00 7.849244e+00 1.334154e+00 1.192341e+00 1.813685e+00 2.643523e+00 2.796227e+00 1.103979e+00 8.168565e-01 1.367365e+00 7.538639e-01 1.266802e+00 9.054843e-01 7.105774e-01 2.628380e+00
<GCONST> 1.530733e+02
<STATE> 3
<MEAN> 39
 -5.928932e+00 -2.230468e+01 9.208249e+00 -2.002346e+01 -1.080279e+01 -8.625340e+00 -4.039129e+00 -1.012716e-01 -1.337064e+01 -3.243012e+00 -1.075499e+01 -3.167920e+00 6.138299e+01 6.340004e-01 -1.117453e+00 -5.117581e-01 1.021044e+00 3.183072e-01 -1.010978e-01 6.009128e-01 9.323693e-01 -3.348089e-01 -3.612247e-01 -1.484365e-02 -3.603944e-01 -3.032643e-02 8.589406e-02 3.124765e-01 -2.686111e-01 3.445834e-01 -8.873202e-02 -3.167378e-01 -1.633493e-01 -2.570805e-01 9.417391e-02 -1.115015e-01 2.840431e-01 -8.893628e-04 -3.034134e-01
<VARIANCE> 39
 1.165566e+01 3.235004e+01 1.790855e+01 3.440791e+01 3.108129e+01 5.283001e+01 1.469649e+01 2.917054e+01 3.556108e+01 2.164152e+01 2.832222e+01 3.110090e+01 2.129191e+01 5.849302e-01 9.146376e-01 1.083979e+00 1.714433e+00 1.390932e+00 4.113747e+00 1.215154e+00 1.825555e+00 1.971903e+00 2.068767e+00 2.268555e+00 2.666183e+00 4.509904e-01 9.346255e-02 2.421882e-01 2.774076e-01 3.881538e-01 2.804525e-01 3.563763e-01 2.711372e-01 4.545192e-01 4.018497e-01 4.125788e-01 2.947336e-01 4.470520e-01 2.039858e-01
<GCONST> 1.031003e+02
<STATE> 4
<MEAN> 39
 1.112316e+00 -2.114878e+01 -2.625318e+00 -6.146039e+00 -8.163110e+00 -1.724621e+01 -2.869541e+00 1.218102e+00 -1.125160e+01 -9.399590e+00 -8.917628e+00 -5.647125e+00 5.504700e+01 2.944080e-02 9.502304e-01 -4.751581e-01 4.033707e-01 -2.409102e-01 9.332387e-02 -2.851132e-01 -7.047496e-01 8.645812e-02 -4.068917e-01 2.205700e-02 -2.051800e-01 -8.100868e-01 -1.143002e-01 1.066163e-01 1.015696e-01 -1.465894e-01 -3.547788e-02 2.527769e-01 -2.788606e-02 -1.404411e-01 1.024886e-02 5.583424e-02 -1.111923e-02 9.207097e-02 -4.849270e-02
<VARIANCE> 39
 2.160059e+01 8.878345e+01 6.173367e+01 5.101804e+01 8.659332e+01 4.151831e+01 2.536346e+01 3.901487e+01 6.422070e+01 3.460992e+01 2.946721e+01 2.290516e+01 6.403025e+01 1.753567e+00 2.722322e+00 3.310345e+00 3.405664e+00 3.569541e+00 3.360299e+00 1.983948e+00 4.001784e+00 3.384827e+00 2.767231e+00 2.819396e+00 2.295941e+00 1.296661e+00 2.343892e-01 4.609230e-01 3.506778e-01 5.393082e-01 7.013659e-01 5.081649e-01 3.992406e-01 6.685870e-01 6.800286e-01 5.530376e-01 6.006604e-01 4.665538e-01 1.656306e-01
<GCONST> 1.233716e+02
<TRANSP> 5
 0.000000e+00 1.000000e+00 0.000000e+00 0.000000e+00 0.000000e+00
 0.000000e+00 8.039063e-01 1.960937e-01 0.000000e+00 0.000000e+00
 0.000000e+00 0.000000e+00 8.807436e-01 1.192564e-01 0.000000e+00
 0.000000e+00 0.000000e+00 0.000000e+00 9.206541e-01 7.934592e-02
 0.000000e+00 0.000000e+00 0.000000e+00 0.000000e+00 0.000000e+00
<ENDHMM>
~h "eh"
<BEGINHMM>
<NUMSTATES> 5
<STATE> 2
<MEAN> 39
 -7.326946e+00 -3.246880e+00 -4.252651e+00 -5.881357e+00 -9.966564e+00 -9.940107e+00 -1.167732e+01 -1.015606e+01 -5.029918e+00 -8.690167e+00 -7.443284e+00 -6.437672e+00 4.563852e+01 1.455861e+00 -3.663707e+00 1.889628e+00 -2.921819e+00 -1.979660e-01 -2.504453e-01 -9.971613e-01 1.249891e+00 -4.778422e-01 1.697845e-01 -1.733895e+00 1.025782e+00 3.564044e+00 -3.917849e-02 -6.890193e-01 2.520412e-01 -4.143208e-01 2.495463e-01 2.445210e-01 3.323404e-01 4.811133e-01 -2.737133e-01 9.702672e-02 -2.537155e-01 1.190949e-01 7.122614e-01
<VARIANCE> 39
 8.274908e+01 1.098112e+02 6.898290e+01 7.377095e+01 4.912327e+01 7.250470e+01 7.323504e+01 7.994716e+01 5.472606e+01 5.516928e+01 6.189059e+01 4.577290e+01 9.484599e+01 9.756481e+00 9.312822e+00 5.042813e+00 9.419074e+00 7.924130e+00 1.029967e+01 7.143912e+00 8.048116e+00 4.890878e+00 4.205727e+00 9.055697e+00 4.956069e+00 6.789411e+00 1.145350e+00 1.117653e+00 9.049940e-01 1.574987e+00 1.136760e+00 1.570340e+00 1.043985e+00 1.316865e+00 8.761244e-01 6.236852e-01 1.356788e+00 7.948206e-01 1.260244e+00
<GCONST> 1.534622e+02
<STATE> 3
<MEAN> 39
 -5.465331e+00 -2.151597e+01 3.575255e+00 -1.843355e+01 -7.155877e+00 -6.558720e+00 -8.578696e+00 -2.241127e-01 -1.211572e+01 -6.787057e+00 -1.483323e+01 -1.984803e+00 6.262980e+01 2.235908e-01 -8.245230e-01 7.183834e-01 -8.977167e-01 4.295408e-01 3.141315e-01 6.594926e-01 5.271358e-01 -9.791990e-01 2.525541e-01 -7.840284e-01 -1.116633e-01 9.460227e-01 5.645240e-02 1.151222e+00 -4.820629e-01 7.016509e-01 -2.555183e-01 -3.224903e-01 -1.820929e-01 -6.087009e-01 2.923515e-01 -2.491520e-01 4.125551e-01 -3.343226e-01 -9.675718e-01
<VARIANCE> 39
 7.898604e+00 2.111723e+01 3.330230e+01 2.154121e+01 6.885408e+01 5.098546e+01 4.485386e+01 1.949457e+01 3.687898e+01 4.553679e+01 4.584935e+01 3.859821e+01 1.152095e+01 2.118613e+00 6.557948e+00 2.889975e+00 3.535637e+00 4.221358e+00 4.841245e+00 3.450906e+00 5.476728e+00 2.425492e+00 4.342689e+00 4.145323e+00 3.055030e+00 4.069074e+00 4.201646e-01 5.068574e-01 4.187626e-01 5.676656e-01 7.313417e-01 7.598571e-01 6.936814e-01 7.249436e-01 3.991039e-01 7.236437e-01 7.900062e-01 6.744552e-01 3.296954e-01
<GCONST> 1.256250e+02
<STATE> 4
<MEAN> 39
 -1.264807e+00 -1.458424e+01 1.834447e+00 -1.504533e+01 -1.476079e+01 -1.007801e+01 -6.386368e+00 -1.209065e+00 -1.159581e+01 -7.590815e+00 -1.547951e+01 -6.804538e+00 5.573370e+01 5.121530e-01 2.364099e+00 -9.665146e-01 9.268383e-01 -1.144590e+00 -9.592770e-01 8.374651e-01 -6.052014e-01 1.229702e+00 -1.634598e+00 9.099541e-01 -1.038397e+00 -2.076173e+00 -4.293965e-01 2.871577e-01 -2.278011e-01 2.016826e-01 2.707791e-01 2.270741e-01 8.793193e-02 -1.002099e-01 2.382831e-01 -7.307447e-02 2.419496e-01 -6.269392e-02 -1.122886e-01
<VARIANCE> 39
 1.172272e+01 3.920746e+01 3.925203e+01 5.079031e+01 1.028616e+02 6.615389e+01 4.628211e+01 3.285516e+01 3.060257e+01 5.030911e+01 5.140305e+01 3.627190e+01 4.625545e+01 1.978606e+00 2.324981e+00 2.532739e+00 1.575433e+00 4.267213e+00 2.400209e+00 5.017608e+00 2.748237e+00 1.981779e+00 2.535832e+00 3.428024e+00 2.291811e+00 1.136564e+00 5.553817e-01 4.856355e-01 4.133098e-01 3.747158e-01 7.638324e-01 6.550161e-01 8.129169e-01 8.311892e-01 3.701852e-01 6.881914e-01 8.060821e-01 4.013536e-01 3.897911e-01
<GCONST> 1.242278e+02
<TRANSP> 5
 0.000000e+00 1.000000e+00 0.000000e+00 0.000000e+00 0.000000e+00
