~o
<STREAMINFO> 1 39
<VECSIZE> 39<NULLD><MFCC_D_A_0><DIAGC>
~h "b"
<BEGINHMM>
<NUMSTATES> 5
<STATE> 2
<MEAN> 39
 -8.576477e+00 -5.796681e+00 -2.800076e+00 -8.492982e+00 -5.878099e+00 -5.465754e+00 -8.672437e+00 -6.936368e+00 -7.565336e+00 -5.731842e+00 -5.771509e+00 -3.012780e+00 4.095865e+01 -3.997072e-02 5.356652e-02 -1.549422e-02 3.319933e-03 9.934027e-03 4.584102e-02 2.009000e-02 -1.382977e-03 2.507349e-02 2.472537e-02 2.426706e-02 2.449044e-03 -6.558043e-02 -1.421319e-03 1.073473e-03 1.806179e-03 2.746288e-03 5.789694e-04 -2.501185e-03 1.663683e-03 7.835783e-04 2.660444e-04 -5.547400e-04 2.923469e-04 5.446886e-04 -3.723765e-04
<VARIANCE> 39
 9.907568e+01 8.470837e+01 8.167590e+01 9.520603e+01 7.011599e+01 7.907756e+01 8.821343e+01 8.567101e+01 6.404650e+01 6.496755e+01 5.625391e+01 3.648706e+01 2.119213e+02 2.621451e+00 3.790876e+00 3.637167e+00 4.468840e+00 3.651516e+00 3.858452e+00 3.465652e+00 4.433352e+00 3.369917e+00 3.812063e+00 3.399563e+00 2.692676e+00 3.279204e+00 3.809533e-01 5.436029e-01 5.427004e-01 6.807125e-01 6.176525e-01 6.421689e-01 6.405731e-01 8.082056e-01 6.296467e-01 6.479734e-01 6.309472e-01 5.065939e-01 4.266363e-01
<GCONST> 1.379131e+02
<STATE> 3
<MEAN> 39
 -8.745487e+00 -5.577678e+00 -2.834229e+00 -8.462013e+00 -5.848055e+00 -5.304891e+00 -8.579556e+00 -6.945897e+00 -7.479456e+00 -5.638243e+00 -5.678738e+00 -2.994471e+00 4.070191e+01 -4.422003e-02 5.701905e-02 -7.020172e-03 1.393996e-02 1.261486e-02 3.670589e-02 2.616719e-02 1.970354e-03 2.591346e-02 2.285279e-02 2.478102e-02 4.317435e-03 -6.602241e-02 -1.154098e-03 1.158072e-03 2.547882e-03 3.231606e-03 8.961136e-04 -2.267884e-03 1.759298e-03 9.279307e-04 2.603974e-04 -6.129161e-04 6.215606e-05 2.344177e-04 -2.065323e-04
<VARIANCE> 39
 1.008696e+02 8.293728e+01 8.106836e+01 9.501946e+01 7.015788e+01 7.894040e+01 8.792661e+01 8.623349e+01 6.417489e+01 6.515499e+01 5.585228e+01 3.659900e+01 2.132897e+02 2.635204e+00 3.774851e+00 3.606781e+00 4.415890e+00 3.649570e+00 3.861018e+00 3.450195e+00 4.427273e+00 3.378442e+00 3.796290e+00 3.374390e+00 2.669044e+00 3.203841e+00 3.809298e-01 5.438695e-01 5.404602e-01 6.709702e-01 6.207992e-01 6.419747e-01 6.338102e-01 8.064678e-01 6.298105e-01 6.455627e-01 6.280907e-01 5.035604e-01 4.192119e-01
<GCONST> 1.377860e+02
<STATE> 4
<MEAN> 39
 -9.136237e+00 -5.204598e+00 -2.864993e+00 -8.196889e+00 -5.795683e+00 -5.106547e+00 -8.324016e+00 -6.883737e+00 -7.311612e+00 -5.457103e+00 -5.473419e+00 -2.976255e+00 4.019773e+01 -4.656733e-02 6.042338e-02 1.366895e-02 2.797193e-02 1.420273e-02 2.668665e-02 3.458213e-02 4.835508e-03 2.211304e-02 2.129832e-02 2.191454e-02 6.833049e-03 -6.089738e-02 -3.209325e-04 7.207105e-04 3.142456e-03 3.244255e-03 1.233184e-03 -1.280120e-03 1.602279e-03 1.088182e-03 6.826621e-05 -6.749250e-04 -3.936970e-04 -1.820613e-04 4.894368e-04
<VARIANCE> 39
 1.025940e+02 7.988455e+01 8.095995e+01 9.327100e+01 6.965385e+01 7.864538e+01 8.672347e+01 8.608960e+01 6.430493e+01 6.553350e+01 5.503931e+01 3.666811e+01 2.147478e+02 2.611969e+00 3.766549e+00 3.619821e+00 4.346828e+00 3.653968e+00 3.842013e+00 3.486314e+00 4.380561e+00 3.385761e+00 3.781590e+00 3.325572e+00 2.631190e+00 3.104498e+00 3.757271e-01 5.463423e-01 5.426257e-01 6.598627e-01 6.267436e-01 6.405569e-01 6.373827e-01 7.984451e-01 6.316728e-01 6.457211e-01 6.219370e-01 4.974666e-01 4.092184e-01
<GCONST> 1.375699e+02
<TRANSP> 5
 0.000000e+00 1.000000e+00 0.000000e+00 0.000000e+00 0.000000e+00
 0.000000e+00 7.409443e-01 2.590558e-01 0.000000e+00 0.000000e+00
 0.000000e+00 0.000000e+00 7.409440e-01 2.590560e-01 0.000000e+00
 0.000000e+00 0.000000e+00 0.000000e+00 8.652195e-01 1.347805e-01
 0.000000e+00 0.000000e+00 0.000000e+00 0.000000e+00 0.000000e+00
<ENDHMM>
~h "d"
<BEGINHMM>
<NUMSTATES> 5
<STATE> 2
<MEAN> 39
 -9.405759e+00 -5.966077e+00 -2.884571e+00 -7.437288e+00 -5.509043e+00 -6.577494e+00 -8.105499e+00 -6.950194e+00 -6.952764e+00 -5.801712e+00 -6.064010e+00 -2.764045e+00 4.238057e+01 1.243373e-02 1.604244e-02 8.600160e-03 7.373788e-03 1.932891e-02 2.055146e-02 6.991936e-04 6.396537e-03 3.992064e-03 6.295224e-03 -1.451154e-02 -1.083206e-02 1.298817e-02 8.291114e-04 3.557352e-04 4.184028e-04 2.711967e-04 -2.260780e-04 -4.993042e-04 -7.096975e-05 4.249592e-04 4.080834e-04 -4.265268e-04 -9.124278e-04 -1.592650e-04 1.761833e-03
<VARIANCE> 39
 1.065280e+02 1.074563e+02 8.173963e+01 9.331907e+01 6.500784e+01 8.771215e+01 8.802076e+01 8.447530e+01 7.257449e+01 5.958612e+01 5.924678e+01 3.835975e+01 2.364071e+02 3.479515e+00 4.300770e+00 3.713672e+00 4.418015e+00 3.715194e+00 4.267784e+00 4.300621e+00 4.229592e+00 3.722330e+00 3.588735e+00 3.671808e+00 3.040940e+00 3.926136e+00 5.147157e-01 5.724218e-01 5.703524e-01 6.846743e-01 6.757156e-01 7.453542e-01 7.982479e-01 7.599406e-01 6.641989e-01 6.502695e-01 6.955167e-01 5.799270e-01 5.308454e-01
<GCONST> 1.409028e+02
<STATE> 3
<MEAN> 39
 -9.353512e+00 -5.910239e+00 -2.852774e+00 -7.418923e+00 -5.436852e+00 -6.501081e+00 -8.108586e+00 -6.923429e+00 -6.939033e+00 -5.775510e+00 -6.128735e+00 -2.801957e+00 4.244424e+01 1.481906e-02 1.705946e-02 1.010386e-02 7.484985e-03 1.751640e-02 1.747015e-02 1.611321e-04 7.443482e-03 5.225187e-03 4.835853e-03 -1.718742e-02 -1.073949e-02 1.897347e-02 -1.343781e-04 -6.755383e-04 -5.673686e-04 -1.246972e-03 -1.836555e-03 -2.285973e-03 -1.479372e-03 -3.196439e-04 3.604743e-04 -1.331270e-04 -6.122228e-04 2.776265e-04 9.629743e-04
<VARIANCE> 39
 1.063125e+02 1.072383e+02 8.238438e+01 9.449021e+01 6.594859e+01 8.901772e+01 8.946786e+01 8.487211e+01 7.305209e+01 5.917022e+01 5.939138e+01 3.847794e+01 2.357490e+02 3.509063e+00 4.311399e+00 3.744466e+00 4.440627e+00 3.755494e+00 4.308187e+00 4.322166e+00 4.238843e+00 3.737844e+00 3.598920e+00 3.698079e+00 3.061051e+00 3.926004e+00 5.195765e-01 5.740819e-01 5.745035e-01 6.868491e-01 6.824446e-01 7.503831e-01 8.005637e-01 7.615121e-01 6.653932e-01 6.524944e-01 7.013085e-01 5.842887e-01 5.300123e-01
<GCONST> 1.411076e+02
<STATE> 4
<MEAN> 39
 -9.346882e+00 -5.771534e+00 -2.990500e+00 -7.414671e+00 -5.417858e+00 -6.323695e+00 -8.100413e+00 -6.745405e+00 -6.776693e+00 -5.635570e+00 -6.110811e+00 -2.831686e+00 4.227686e+01 1.136164e-02 1.102607e-02 6.922641e-03 -9.808620e-04 9.973621e-03 8.400188e-03 -3.469805e-03 6.518941e-03 5.545650e-03 5.000482e-03 -1.711840e-02 -6.777260e-03 2.180726e-02 -1.018948e-03 -1.491337e-03 -1.102033e-03 -2.189684e-03 -2.493575e-03 -2.832248e-03 -1.951390e-03 -1.076378e-03 1.248324e-05 6.893667e-05 1.374799e-04 4.680397e-04 -2.154021e-05
<VARIANCE> 39
 1.064059e+02 1.058949e+02 8.277957e+01 9.641149e+01 6.524790e+01 8.951850e+01 9.230453e+01 8.482034e+01 7.219975e+01 5.811587e+01 5.847610e+01 3.780139e+01 2.365005e+02 3.463003e+00 4.200845e+00 3.637760e+00 4.383006e+00 3.702707e+00 4.300043e+00 4.328012e+00 4.226454e+00 3.689740e+00 3.588129e+00 3.692627e+00 3.031625e+00 3.947612e+00 5.130731e-01 5.578809e-01 5.546502e-01 6.715144e-01 6.694816e-01 7.463058e-01 7.958727e-01 7.622167e-01 6.558864e-01 6.530651e-01 7.039156e-01 5.788626e-01 5.285754e-01
<GCONST> 1.408157e+02
<TRANSP> 5
 0.000000e+00 1.000000e+00 0.000000e+00 0.000000e+00 0.000000e+00
 0.000000e+00 7.495612e-01 2.504388e-01 0.000000e+00 0.000000e+00
 0.000000e+00 0.000000e+00 7.495609e-01 2.504391e-01 0.000000e+00
 0.000000e+00 0.000000e+00 0.000000e+00 8.821186e-01 1.178815e-01
 0.000000e+00 0.000000e+00 0.000000e+00 0.000000e+00 0.000000e+00
<ENDHMM>
~h "f"
<BEGINHMM>
<NUMSTATES> 5
<STATE> 2
<MEAN> 39
 -9.227813e+00 -5.711821e+00 -2.498197e+00 -7.737406e+00 -5.308779e+00 -5.184469e+00 -8.334049e+00 -7.069186e+00 -6.561423e+00 -5.286860e+00 -6.771894e+00 -3.165132e+00 4.219275e+01 1.252450e-02 -9.274613e-03 5.795595e-02 -1.701740e-02 -1.609681e-02 -2.624478e-03 -1.510051e-02 -7.275419e-03 -2.938572e-02 -5.074263e-04 -1.881465e-02 3.457780e-04 4.021270e-02 8.189955e-04 -7.888237e-04 -2.636072e-04 -2.164140e-03 -2.630949e-03 -4.135886e-03 -2.466936e-03 -3.220459e-03 -9.730756e-04 2.678003e-04 -1.576957e-03 8.987993e-05 2.785172e-03
<VARIANCE> 39
 1.116678e+02 7.874841e+01 9.082345e+01 1.063604e+02 6.337173e+01 9.740232e+01 8.464548e+01 8.531776e+01 6.815907e+01 6.227756e+01 5.741509e+01 4.030653e+01 2.336058e+02 3.445723e+00 3.932275e+00 3.693296e+00 4.427433e+00 3.777362e+00 4.238810e+00 4.204017e+00 4.178840e+00 3.488909e+00 3.686809e+00 3.434871e+00 3.005183e+00 3.485371e+00 4.803838e-01 5.639410e-01 5.600522e-01 6.560906e-01 6.773131e-01 6.964061e-01 7.583431e-01 7.569504e-01 6.173919e-01 6.502576e-01 6.502694e-01 5.530339e-01 4.508731e-01
<GCONST> 1.399331e+02
<STATE> 3
<MEAN> 39
 -9.173789e+00 -5.761532e+00 -2.282645e+00 -7.801730e+00 -5.383740e+00 -5.219007e+00 -8.411371e+00 -7.114533e+00 -6.682345e+00 -5.300764e+00 -6.854232e+00 -3.170610e+00 4.236012e+01 1.336385e-02 -1.105523e-02 5.395414e-02 -2.267332e-02 -2.424446e-02 -1.582587e-02 -2.190748e-02 -1.570150e-02 -3.136482e-02 -4.850245e-04 -2.375119e-02 5.911898e-04 4.582346e-02 -5.672369e-04 -1.247345e-03 -2.228795e-03 -2.409722e-03 -3.302134e-03 -4.453242e-03 -2.616096e-03 -2.854536e-03 -3.201666e-04 5.181686e-04 -8.133312e-04 2.657622e-04 9.811036e-04
<VARIANCE> 39
 1.104562e+02 7.837377e+01 9.091293e+01 1.089123e+02 6.480561e+01 9.836969e+01 8.507261e+01 8.601083e+01 6.771115e+01 6.275357e+01 5.758179e+01 4.042276e+01 2.319257e+02 3.448809e+00 3.912732e+00 3.719655e+00 4.521159e+00 3.794928e+00 4.274435e+00 4.183096e+00 4.220191e+00 3.485430e+00 3.728873e+00 3.415958e+00 3.003585e+00 3.559637e+00 4.790519e-01 5.587670e-01 5.648029e-01 6.686150e-01 6.788659e-01 6.994888e-01 7.512528e-01 7.627141e-01 6.147763e-01 6.549876e-01 6.471738e-01 5.513037e-01 4.587371e-01
<GCONST> 1.400869e+02
<STATE> 4
<MEAN> 39
 -9.587855e+00 -5.651825e+00 -2.090127e+00 -7.641327e+00 -5.379930e+00 -5.246936e+00 -8.278845e+00 -7.001743e+00 -6.507107e+00 -5.153288e+00 -6.633143e+00 -2.991112e+00 4.176298e+01 5.147916e-03 -1.852524e-02 3.400004e-02 -2.225444e-02 -2.727675e-02 -2.298193e-02 -1.989958e-02 -1.039552e-02 -2.651045e-02 -2.127950e-04 -2.092171e-02 1.407380e-03 3.205793e-02 -1.705791e-03 -1.145784e-03 -2.971141e-03 -1.576714e-03 -1.639639e-03 -1.988365e-03 -5.269974e-04 -3.159630e-04 7.118833e-04 7.873473e-04 4.316804e-04 5.314795e-04 -1.276987e-03
<VARIANCE> 39
 1.100661e+02 7.701122e+01 8.737359e+01 1.127759e+02 6.427735e+01 9.810145e+01 8.625076e+01 8.549599e+01 6.690733e+01 6.209245e+01 5.757991e+01 3.926410e+01 2.397506e+02 3.292280e+00 3.742188e+00 3.523430e+00 4.404037e+00 3.674301e+00 4.202968e+00 4.045824e+00 4.113226e+00 3.379336e+00 3.649913e+00 3.293081e+00 2.926545e+00 3.405033e+00 4.552630e-01 5.328666e-01 5.335791e-01 6.461493e-01 6.545401e-01 6.836661e-01 7.242081e-01 7.428187e-01 5.941449e-01 6.392140e-01 6.235861e-01 5.353802e-01 4.376175e-01
<GCONST> 1.391164e+02
<TRANSP> 5
 0.000000e+00 1.000000e+00 0.000000e+00 0.000000e+00 0.000000e+00
 0.000000e+00 7.454028e-01 2.545972e-01 0.000000e+00 0.000000e+00
 0.000000e+00 0.000000e+00 7.454029e-01 2.545970e-01 0.000000e+00
 0.000000e+00 0.000000e+00 0.000000e+00 8.752972e-01 1.247029e-01
 0.000000e+00 0.000000e+00 0.000000e+00 0.000000e+00 0.000000e+00
<ENDHMM>
~h "g"
<BEGINHMM>
<NUMSTATES> 5
<STATE> 2
<MEAN> 39
 -7.319839e+00 -7.596516e+00 -3.834499e+00 -8.878780e+00 -7.986123e+00 -6.938820e+00 -9.578827e+00 -7.876856e+00 -7.076146e+00 -5.159969e+00 -7.809264e+00 -4.805730e+00 4.741457e+01 -3.299092e-03 3.663417e-02 5.077099e-02 -5.042919e-02 -5.135060e-02 -1.261679e-02 -3.068453e-02 -8.296348e-02 -2.836983e-02 1.080226e-02 -3.482198e-02 -1.130163e-02 5.937931e-02 2.373717e-04 7.404748e-04 1.779767e-03 8.860825e-04 2.367423e-03 1.528601e-03 -2.309307e-03 -2.809370e-03 -1.480421e-03 9.194328e-04 1.135247e-03 1.925245e-03 -1.839141e-03
<VARIANCE> 39
 1.075096e+02 1.271260e+02 1.288102e+02 8.382285e+01 9.820470e+01 9.406653e+01 8.996082e+01 8.072255e+01 5.430970e+01 6.518462e+01 5.269656e+01 4.548402e+01 1.467023e+02 4.620651e+00 6.028884e+00 5.875465e+00 5.245807e+00 6.531015e+00 5.997898e+00 5.672932e+00 5.732616e+00 3.814011e+00 5.135052e+00 4.255260e+00 3.540014e+00 5.831029e+00 6.557230e-01 8.529898e-01 7.804703e-01 8.443761e-01 1.162062e+00 1.087427e+00 1.048890e+00 1.075759e+00 7.583564e-01 8.802952e-01 8.428668e-01 6.699215e-01 8.162112e-01
<GCONST> 1.489841e+02
<STATE> 3
<MEAN> 39
 -7.337183e+00 -7.456200e+00 -3.597804e+00 -9.064651e+00 -8.182716e+00 -6.986502e+00 -9.719543e+00 -8.208549e+00 -7.204241e+00 -5.097190e+00 -7.958717e+00 -4.828666e+00 4.762754e+01 -5.005101e-04 3.909259e-02 5.716293e-02 -4.730159e-02 -4.008304e-02 -8.048843e-03 -4.141643e-02 -9.454960e-02 -3.373512e-02 1.465393e-02 -2.962136e-02 -3.046808e-03 5.277362e-02 1.149964e-03 2.415990e-04 1.905774e-03 1.387627e-03 2.883585e-03 9.655709e-04 -2.633553e-03 -2.613424e-03 -1.637980e-03 1.163400e-03 1.712326e-03 2.192580e-03 -1.849066e-03
<VARIANCE> 39
 1.046119e+02 1.271439e+02 1.318270e+02 8.344994e+01 9.819421e+01 9.244741e+01 8.987035e+01 8.135065e+01 5.356874e+01 6.556127e+01 5.302801e+01 4.462688e+01 1.406138e+02 4.581782e+00 6.113642e+00 6.065207e+00 5.276361e+00 6.572386e+00 5.987108e+00 5.716966e+00 5.784006e+00 3.779323e+00 5.147045e+00 4.344217e+00 3.558697e+00 5.963710e+00 6.549553e-01 8.660814e-01 8.069922e-01 8.449048e-01 1.172145e+00 1.085956e+00 1.056528e+00 1.090658e+00 7.534419e-01 8.789474e-01 8.665799e-01 6.758351e-01 8.257201e-01
<GCONST> 1.491242e+02
<STATE> 4
<MEAN> 39
 -7.344710e+00 -7.559147e+00 -2.622317e+00 -9.382965e+00 -8.804878e+00 -6.912919e+00 -9.864950e+00 -8.714195e+00 -7.424868e+00 -4.858212e+00 -8.277657e+00 -4.755646e+00 4.789050e+01 7.354170e-03 3.540569e-02 6.556676e-02 -3.598785e-02 -2.141851e-02 -1.082858e-02 -5.973701e-02 -1.003204e-01 -3.943696e-02 2.253291e-02 -2.429314e-02 1.002581e-02 4.402506e-02 2.075654e-03 -1.470585e-04 9.968648e-04 1.712397e-03 3.221618e-03 2.512006e-04 -2.616002e-03 -1.887229e-03 -1.240190e-03 8.734542e-04 2.066249e-03 2.029959e-03 -1.341610e-03
<VARIANCE> 39
 9.826865e+01 1.243872e+02 1.336426e+02 8.192092e+01 9.777962e+01 8.798206e+01 9.185514e+01 8.026446e+01 5.186554e+01 6.508116e+01 5.212782e+01 4.412788e+01 1.336279e+02 4.448703e+00 6.189534e+00 6.284873e+00 5.250132e+00 6.659475e+00 5.933311e+00 5.850632e+00 5.908338e+00 3.876968e+00 5.198970e+00 4.396616e+00 3.628190e+00 6.227506e+00 6.383657e-01 8.936729e-01 8.401060e-01 8.315343e-01 1.183136e+00 1.093976e+00 1.057119e+00 1.120659e+00 7.862469e-01 8.919247e-01 8.819258e-01 6.899588e-01 8.551059e-01
<GCONST> 1.492476e+02
<TRANSP> 5
 0.000000e+00 1.000000e+00 0.000000e+00 0.000000e+00 0.000000e+00
 0.000000e+00 7.485440e-01 2.514559e-01 0.000000e+00 0.000000e+00
 0.000000e+00 0.000000e+00 7.485441e-01 2.514559e-01 0.000000e+00
 0.000000e+00 0.000000e+00 0.000000e+00 8.789440e-01 1.210560e-01
 0.000000e+00 0.000000e+00 0.000000e+00 0.000000e+00 0.000000e+00
<ENDHMM>
~h "k"
<BEGINHMM>
<NUMSTATES> 5
<STATE> 2
<MEAN> 39
 -9.621916e+00 -6.154598e+00 -2.922788e+00 -7.782595e+00 -4.977847e+00 -6.491543e+00 -7.795676e+00 -7.389495e+00 -6.717659e+00 -5.606633e+00 -6.004572e+00 -2.935398e+00 4.037062e+01 -2.741112e-03 -1.028998e-02 -1.120600e-02 6.608118e-03 3.043072e-02 7.759475e-03 -2.122062e-03 1.294681e-02 -1.474480e-03 2.797907e-04 1.818564e-03 -5.449760e-03 6.141604e-03 3.410067e-04 1.291980e-04 -1.356021e-03 -6.057967e-05 -3.746415e-04 -1.114133e-03 3.538348e-05 1.951361e-05 1.750718e-03 -2.300414e-04 -4.936531e-04 -4.599008e-04 1.596060e-03
<VARIANCE> 39
 9.915844e+01 8.579848e+01 9.531762e+01 9.481738e+01 7.114870e+01 8.114357e+01 8.314457e+01 8.784280e+01 6.717732e+01 5.956976e+01 6.131367e+01 3.787672e+01 2.301342e+02 2.922900e+00 3.972778e+00 3.775934e+00 3.871067e+00 4.125436e+00 4.150888e+00 3.840893e+00 3.942103e+00 3.637290e+00 3.627313e+00 3.646374e+00 2.928691e+00 4.058470e+00 4.351056e-01 5.802836e-01 5.560405e-01 5.827090e-01 7.402692e-01 7.197149e-01 6.955684e-01 7.197524e-01 6.390792e-01 6.604827e-01 6.771700e-01 5.549498e-01 5.623238e-01
<GCONST> 1.396749e+02
<STATE> 3
<MEAN> 39
 -9.631931e+00 -6.201121e+00 -2.985943e+00 -7.759757e+00 -4.862795e+00 -6.469033e+00 -7.794141e+00 -7.323179e+00 -6.710345e+00 -5.607866e+00 -6.003999e+00 -2.957692e+00 4.040415e+01 -1.021408e-03 -9.289068e-03 -1.682249e-02 6.704167e-03 2.904253e-02 4.408257e-03 -1.471380e-03 1.281170e-02 4.545380e-03 -6.083803e-04 -2.748525e-05 -7.346090e-03 1.139841e-02 8.920006e-04 -2.045561e-04 -1.652645e-03 1.432662e-04 -2.995752e-04 -1.105477e-03 1.030056e-04 -7.857081e-05 1.363987e-03 -5.429383e-04 -4.888397e-04 -2.220434e-04 1.817192e-03
<VARIANCE> 39
 9.996456e+01 8.540789e+01 9.504781e+01 9.431250e+01 7.046470e+01 8.199059e+01 8.296352e+01 8.777280e+01 6.823527e+01 5.998300e+01 6.069006e+01 3.789732e+01 2.300408e+02 2.919751e+00 3.958824e+00 3.757565e+00 3.872366e+00 4.103310e+00 4.163805e+00 3.817172e+00 3.923416e+00 3.630020e+00 3.615205e+00 3.636481e+00 2.925747e+00 4.077827e+00 4.335234e-01 5.805380e-01 5.563315e-01 5.814703e-01 7.369173e-01 7.215185e-01 6.924487e-01 7.183947e-01 6.354520e-01 6.554060e-01 6.768513e-01 5.535958e-01 5.640228e-01
<GCONST> 1.396272e+02
<STATE> 4
<MEAN> 39
 -9.609758e+00 -6.219670e+00 -3.259700e+00 -7.770523e+00 -4.618321e+00 -6.411335e+00 -7.816269e+00 -7.279085e+00 -6.664316e+00 -5.616875e+00 -6.043643e+00 -3.005010e+00 4.047532e+01 4.072420e-04 -1.260017e-02 -2.921726e-02 8.595775e-03 3.043394e-02 3.278879e-03 1.806436e-03 1.446661e-02 8.788143e-03 -1.714285e-03 1.033583e-03 -8.038010e-03 1.907843e-02 9.068819e-04 -6.841742e-04 -1.639507e-03 4.178923e-04 3.311546e-04 -2.512741e-04 1.692894e-04 -3.704612e-04 4.901991e-04 -5.527266e-04 -8.478836e-05 -2.791766e-04 1.847740e-03
<VARIANCE> 39
 1.005867e+02 8.492661e+01 9.529544e+01 9.311455e+01 6.944341e+01 8.417765e+01 8.283119e+01 8.731587e+01 6.968340e+01 6.038985e+01 5.934099e+01 3.794415e+01 2.275818e+02 2.895883e+00 3.932776e+00 3.705858e+00 3.895542e+00 4.086102e+00 4.194862e+00 3.790686e+00 3.906096e+00 3.640900e+00 3.597706e+00 3.592742e+00 2.907023e+00 4.091164e+00 4.296688e-01 5.810638e-01 5.513197e-01 5.836772e-01 7.327806e-01 7.247665e-01 6.896940e-01 7.181740e-01 6.335824e-01 6.481403e-01 6.686988e-01 5.477834e-01 5.649074e-01
<GCONST> 1.395164e+02
<TRANSP> 5
 0.000000e+00 1.000000e+00 0.000000e+00 0.000000e+00 0.000000e+00
 0.000000e+00 7.323276e-01 2.676723e-01 0.000000e+00 0.000000e+00
 0.000000e+00 0.000000e+00 7.323275e-01 2.676726e-01 0.000000e+00
 0.000000e+00 0.000000e+00 0.000000e+00 8.553083e-01 1.446917e-01
 0.000000e+00 0.000000e+00 0.000000e+00 0.000000e+00 0.000000e+00
<ENDHMM>
~h "l"
<BEGINHMM>
<NUMSTATES> 5
<STATE> 2
<MEAN> 39
 -8.589287e+00 -5.689236e+00 -2.680288e+00 -8.593986e+00 -5.000965e+00 -5.861812e+00 -9.632507e+00 -7.456843e+00 -6.747971e+00 -5.684731e+00 -6.887072e+00 -2.607413e+00 4.285405e+01 -1.289370e-02 9.482812e-03 -2.280955e-03 2.422855e-02 -1.826603e-03 -9.012242e-03 2.565631e-02 1.604858e-02 -3.619467e-03 -4.769553e-03 1.644863e-02 3.398362e-03 -2.385154e-02 1.526676e-04 -3.999343e-04 -1.623290e-04 1.614054e-03 1.419226e-03 5.652678e-04 1.220885e-03 1.667563e-03 8.244079e-04 -1.477440e-04 -3.170214e-04 -3.159020e-04 1.488475e-04
<VARIANCE> 39
 1.006107e+02 1.010551e+02 8.475103e+01 1.138665e+02 7.358225e+01 9.162751e+01 8.984252e+01 8.757813e+01 7.174101e+01 6.336762e+01 5.906024e+01 3.942200e+01 2.230198e+02 3.156484e+00 4.201403e+00 3.526090e+00 4.368811e+00 4.027345e+00 4.261787e+00 4.045699e+00 4.324296e+00 3.664714e+00 4.006485e+00 3.404392e+00 2.856294e+00 3.226918e+00 4.538901e-01 5.678576e-01 5.401215e-01 6.630232e-01 6.707084e-01 7.213711e-01 7.270612e-01 8.009389e-01 6.389812e-01 7.378768e-01 6.429510e-01 5.370383e-01 4.397203e-01
<GCONST> 1.403186e+02
<STATE> 3
<MEAN> 39
 -8.649554e+00 -5.651150e+00 -2.706455e+00 -8.486074e+00 -5.000967e+00 -5.897583e+00 -9.520811e+00 -7.385050e+00 -6.755821e+00 -5.695617e+00 -6.818221e+00 -2.599283e+00 4.274178e+01 -1.363723e-02 8.535444e-03 -3.069813e-03 3.078980e-02 4.560195e-03 -5.196816e-03 3.108150e-02 2.215013e-02 -1.450874e-03 -4.818385e-03 1.554338e-02 1.360458e-03 -2.493088e-02 1.083710e-04 -3.389888e-05 1.596999e-04 1.757178e-03 1.868719e-03 1.286627e-03 1.272507e-03 1.453210e-03 6.688249e-04 6.582093e-06 -4.409497e-04 -5.334591e-04 -1.314562e-04
<VARIANCE> 39
 1.009660e+02 1.010530e+02 8.393913e+01 1.134300e+02 7.382211e+01 9.170234e+01 8.978657e+01 8.728861e+01 7.200023e+01 6.319704e+01 5.857376e+01 3.896680e+01 2.231145e+02 3.138419e+00 4.215878e+00 3.505546e+00 4.353611e+00 4.039874e+00 4.250117e+00 4.022134e+00 4.288559e+00 3.666887e+00 3.977906e+00 3.369635e+00 2.841177e+00 3.202493e+00 4.508294e-01 5.711674e-01 5.383025e-01 6.620350e-01 6.734660e-01 7.198204e-01 7.230880e-01 7.915602e-01 6.369682e-01 7.334897e-01 6.365606e-01 5.353824e-01 4.374031e-01
<GCONST> 1.401864e+02
<STATE> 4
<MEAN> 39
 -8.895342e+00 -5.345382e+00 -2.960273e+00 -8.350183e+00 -4.893705e+00 -5.754350e+00 -9.330982e+00 -7.345899e+00 -6.743823e+00 -5.741723e+00 -6.602518e+00 -2.619862e+00 4.227823e+01 -2.067770e-02 9.457535e-03 -9.195056e-03 3.878698e-02 1.251398e-02 1.234089e-03 4.091292e-02 2.820958e-02 4.070412e-03 -4.576527e-04 1.662138e-02 -9.525556e-04 -3.600233e-02 -2.435306e-04 4.213404e-05 3.374814e-04 9.377357e-04 1.261774e-03 1.157943e-03 7.598894e-04 7.080066e-04 8.004166e-04 1.998671e-04 -4.366429e-04 -3.406864e-04 -2.835875e-04
<VARIANCE> 39
 1.018679e+02 9.858108e+01 8.265461e+01 1.159209e+02 7.304517e+01 9.260472e+01 9.209679e+01 8.624037e+01 7.169390e+01 6.182567e+01 5.638077e+01 3.796972e+01 2.197852e+02 3.056469e+00 4.051965e+00 3.384240e+00 4.327322e+00 4.003098e+00 4.242277e+00 3.967812e+00 4.199172e+00 3.632139e+00 3.894350e+00 3.279750e+00 2.773263e+00 3.032557e+00 4.353844e-01 5.518339e-01 5.202962e-01 6.580109e-01 6.632931e-01 7.171104e-01 7.114532e-01 7.739477e-01 6.285918e-01 7.182586e-01 6.219732e-01 5.227214e-01 4.147163e-01
<GCONST> 1.394928e+02
<TRANSP> 5
 0.000000e+00 1.000000e+00 0.000000e+00 0.000000e+00 0.000000e+00
 0.000000e+00 7.458327e-01 2.541673e-01 0.000000e+00 0.000000e+00
 0.000000e+00 0.000000e+00 7.458321e-01 2.541679e-01 0.000000e+00
 0.000000e+00 0.000000e+00 0.000000e+00 8.761473e-01 1.238527e-01
 0.000000e+00 0.000000e+00 0.000000e+00 0.000000e+00 0.000000e+00
<ENDHMM>
~h "m"
<BEGINHMM>
<NUMSTATES> 5
<STATE> 2
<MEAN> 39
 -1.010162e+01 -5.536082e+00 -2.165594e+00 -6.999946e+00 -4.477283e+00 -6.547075e+00 -9.247209e+00 -6.489847e+00 -6.905641e+00 -5.677269e+00 -6.131054e+00 -2.965281e+00 4.206208e+01 1.197810e-02 -2.183131e-03 3.507575e-03 -3.527074e-03 4.266831e-03 2.237077e-03 -5.350086e-03 -1.207306e-02 -6.343442e-03 -1.725975e-02 8.646708e-04 6.167289e-03 2.632591e-02 1.108744e-03 3.199045e-04 7.813039e-04 -9.361874e-04 -9.844513e-04 -1.099660e-04 2.895056e-04 -7.816423e-04 -8.192538e-04 -4.779172e-04 -3.871054e-05 3.435042e-04 8.681433e-04
<VARIANCE> 39
 1.161441e+02 1.247695e+02 7.578928e+01 1.026407e+02 6.449993e+01 9.012626e+01 9.940616e+01 8.210543e+01 7.134402e+01 6.116172e+01 6.325075e+01 4.046787e+01 2.767922e+02 3.331163e+00 4.683997e+00 3.398973e+00 4.381310e+00 3.639630e+00 4.102146e+00 4.053800e+00 4.238245e+00 3.399060e+00 3.400294e+00 3.467575e+00 2.926556e+00 2.981091e+00 4.590428e-01 5.932130e-01 5.020963e-01 6.910797e-01 6.338419e-01 7.047297e-01 7.227839e-01 7.727877e-01 5.975821e-01 6.127116e-01 6.451724e-01 5.313326e-01 3.960762e-01
<GCONST> 1.398481e+02
<STATE> 3
<MEAN> 39
 -1.003913e+01 -5.550841e+00 -2.148352e+00 -7.023298e+00 -4.468169e+00 -6.533779e+00 -9.260701e+00 -6.547577e+00 -6.941199e+00 -5.744755e+00 -6.126502e+00 -2.933757e+00 4.218020e+01 1.747534e-02 -5.192963e-04 6.941111e-03 -7.530825e-03 2.112053e-05 1.319283e-03 -4.849327e-03 -1.530687e-02 -1.014158e-02 -1.962463e-02 -7.958233e-05 6.816908e-03 3.135979e-02 1.210521e-03 4.181067e-04 7.480402e-04 -1.095209e-03 -1.152218e-03 -3.857151e-04 2.033109e-04 -8.297650e-04 -9.911295e-04 -5.697584e-04 -2.148061e-04 1.996105e-04 1.195911e-03
<VARIANCE> 39
 1.163692e+02 1.257382e+02 7.628590e+01 1.032931e+02 6.499645e+01 9.062503e+01 9.941100e+01 8.341236e+01 7.140636e+01 6.092986e+01 6.336100e+01 4.021857e+01 2.738314e+02 3.352092e+00 4.656755e+00 3.391241e+00 4.404109e+00 3.668414e+00 4.109956e+00 4.055613e+00 4.274569e+00 3.406109e+00 3.380232e+00 3.459240e+00 2.893571e+00 2.988402e+00 4.604375e-01 5.863462e-01 4.997579e-01 6.941905e-01 6.375488e-01 7.053589e-01 7.233635e-01 7.780545e-01 6.000533e-01 6.086560e-01 6.433201e-01 5.249998e-01 3.953353e-01
<GCONST> 1.398748e+02
<STATE> 4
<MEAN> 39
 -1.020050e+01 -5.231756e+00 -2.325840e+00 -6.916638e+00 -4.355675e+00 -6.241367e+00 -9.053145e+00 -6.736538e+00 -6.873726e+00 -5.774267e+00 -5.942003e+00 -2.716533e+00 4.176564e+01 3.046536e-02 1.093375e-03 1.207529e-02 -1.589143e-02 -8.474579e-03 2.677986e-04 -6.150515e-03 -2.155607e-02 -1.768677e-02 -2.268826e-02 -3.313462e-03 5.896617e-03 4.439331e-02 1.116324e-03 3.701136e-04 3.859283e-04 -1.314242e-03 -1.354876e-03 -7.152723e-04 -3.449658e-04 -9.314967e-04 -9.348144e-04 -5.938208e-04 -3.680254e-04 -1.572746e-04 1.348635e-03
<VARIANCE> 39
 1.167243e+02 1.240322e+02 7.495934e+01 1.066987e+02 6.466584e+01 9.081310e+01 1.011433e+02 8.623997e+01 7.107166e+01 5.957426e+01 6.083375e+01 3.796281e+01 2.689227e+02 3.317419e+00 4.359931e+00 3.243131e+00 4.382901e+00 3.629318e+00 4.037320e+00 3.929769e+00 4.265321e+00 3.363360e+00 3.325623e+00 3.338209e+00 2.755818e+00 3.048605e+00 4.496143e-01 5.448550e-01 4.727148e-01 6.822110e-01 6.236885e-01 6.910757e-01 6.944100e-01 7.735702e-01 5.917756e-01 5.987204e-01 6.217595e-01 5.054116e-01 3.994648e-01
<GCONST> 1.391502e+02
<TRANSP> 5
 0.000000e+00 1.000000e+00 0.000000e+00 0.000000e+00 0.000000e+00
 0.000000e+00 7.529106e-01 2.470895e-01 0.000000e+00 0.000000e+00
 0.000000e+00 0.000000e+00 7.529113e-01 2.470887e-01 0.000000e+00
 0.000000e+00 0.000000e+00 0.000000e+00 8.857827e-01 1.142174e-01
 0.000000e+00 0.000000e+00 0.000000e+00 0.000000e+00 0.000000e+00
<ENDHMM>
~h "n"
<BEGINHMM>
<NUMSTATES> 5
<STATE> 2
<MEAN> 39
 -9.449118e+00 -5.605990e+00 -2.507770e+00 -7.741093e+00 -5.119409e+00 -6.358539e+00 -8.128490e+00 -6.742751e+00 -6.888250e+00 -5.757876e+00 -6.019988e+00 -2.658768e+00 4.181240e+01 -4.867173e-03 9.933934e-03 -1.411314e-03 1.085376e-02 7.332265e-03 9.479454e-03 1.077180e-02 1.920095e-03 1.466081e-02 5.396017e-03 -7.857827e-03 -8.620084e-03 6.987702e-04 2.011651e-04 7.123273e-04 5.648966e-04 2.076839e-04 3.672208e-04 8.522331e-04 -3.067162e-04 -5.074367e-04 -4.515723e-04 -1.659998e-04 -3.846163e-04 -3.082449e-04 4.030667e-04
<VARIANCE> 39
 1.070055e+02 1.071286e+02 7.728243e+01 9.876507e+01 6.755320e+01 9.487700e+01 8.532248e+01 8.252673e+01 7.185349e+01 6.001535e+01 5.995137e+01 3.834583e+01 2.438041e+02 3.219606e+00 4.260768e+00 3.321278e+00 4.287463e+00 3.848597e+00 4.134699e+00 3.924464e+00 4.065837e+00 3.526051e+00 3.636313e+00 3.463731e+00 2.733386e+00 3.262777e+00 4.667864e-01 5.751330e-01 5.079809e-01 6.703407e-01 6.905897e-01 7.004051e-01 7.205260e-01 7.390589e-01 6.229989e-01 6.553550e-01 6.484116e-01 5.111583e-01 4.459692e-01
<GCONST> 1.394321e+02
<STATE> 3
<MEAN> 39
 -9.466152e+00 -5.564202e+00 -2.508693e+00 -7.700348e+00 -5.089819e+00 -6.315585e+00 -8.089826e+00 -6.736692e+00 -6.833226e+00 -5.737663e+00 -6.053552e+00 -2.695822e+00 4.181676e+01 -3.665103e-03 1.233341e-02 1.291992e-03 1.138591e-02 8.450869e-03 1.265312e-02 9.517295e-03 -4.819783e-04 1.277203e-02 4.726632e-03 -9.471095e-03 -9.831203e-03 2.486994e-03 1.539604e-04 4.599077e-04 4.514846e-04 -1.323383e-04 -1.409702e-04 3.095021e-04 -6.669679e-04 -8.506657e-04 -7.963033e-04 -3.771516e-04 -2.415828e-04 -1.097495e-04 2.428158e-04
<VARIANCE> 39
 1.066825e+02 1.071174e+02 7.724501e+01 9.883128e+01 6.777831e+01 9.546776e+01 8.605701e+01 8.256804e+01 7.219267e+01 5.966756e+01 6.001343e+01 3.862747e+01 2.427958e+02 3.245895e+00 4.291008e+00 3.328771e+00 4.308846e+00 3.859796e+00 4.155815e+00 3.957389e+00 4.071731e+00 3.543566e+00 3.627352e+00 3.489767e+00 2.752966e+00 3.296830e+00 4.707187e-01 5.792788e-01 5.096658e-01 6.738749e-01 6.922117e-01 7.030607e-01 7.262110e-01 7.423658e-01 6.256492e-01 6.548472e-01 6.530308e-01 5.146475e-01 4.516925e-01
<GCONST> 1.395914e+02
<STATE> 4
<MEAN> 39
 -9.695968e+00 -5.313451e+00 -2.597215e+00 -7.543269e+00 -4.972263e+00 -6.111454e+00 -7.896749e+00 -6.657207e+00 -6.636256e+00 -5.641844e+00 -5.940953e+00 -2.670969e+00 4.131870e+01 -4.714476e-04 1.249174e-02 6.306655e-03 9.575637e-03 7.887105e-03 1.516655e-02 6.433228e-03 -3.579593e-03 8.971048e-03 4.088748e-03 -1.128730e-02 -1.033975e-02 4.788330e-03 1.609745e-04 -3.128234e-05 3.373622e-04 -5.745181e-04 -7.018367e-04 -4.775732e-04 -9.424571e-04 -9.696964e-04 -8.118118e-04 -2.927005e-04 -1.175979e-04 1.818904e-04 1.848545e-04
<VARIANCE> 39
 1.061064e+02 1.046988e+02 7.622733e+01 9.917453e+01 6.669118e+01 9.558554e+01 8.780791e+01 8.238307e+01 7.140241e+01 5.858150e+01 5.928352e+01 3.816440e+01 2.429148e+02 3.204196e+00 4.221957e+00 3.282131e+00 4.294329e+00 3.799777e+00 4.137834e+00 3.959028e+00 4.028056e+00 3.506224e+00 3.561140e+00 3.473250e+00 2.740926e+00 3.306695e+00 4.642413e-01 5.706562e-01 5.027336e-01 6.705117e-01 6.799226e-01 7.008239e-01 7.248489e-01 7.399325e-01 6.179282e-01 6.442427e-01 6.510842e-01 5.134642e-01 4.525163e-01
<GCONST> 1.392848e+02
<TRANSP> 5
 0.000000e+00 1.000000e+00 0.000000e+00 0.000000e+00 0.000000e+00
 0.000000e+00 7.445447e-01 2.554553e-01 0.000000e+00 0.000000e+00
 0.000000e+00 0.000000e+00 7.445463e-01 2.554537e-01 0.000000e+00
 0.000000e+00 0.000000e+00 0.000000e+00 8.725258e-01 1.274742e-01
 0.000000e+00 0.000000e+00 0.000000e+00 0.000000e+00 0.000000e+00
<ENDHMM>
~h "p"
<BEGINHMM>
<NUMSTATES> 5
<STATE> 2
<MEAN> 39
 -1.131036e+01 -4.117480e+00 -3.114986e+00 -6.958314e+00 -5.223656e+00 -4.264711e+00 -7.265695e+00 -6.648485e+00 -5.890954e+00 -4.800530e+00 -6.685275e+00 -3.553426e+00 3.868253e+01 1.831407e-02 -1.605988e-02 -1.829746e-02 2.570015e-02 -8.779217e-03 2.537205e-03 3.929941e-03 3.168743e-02 5.247986e-04 -2.629753e-03 1.238264e-02 1.012709e-03 -2.896949e-02 -1.813548e-03 1.584972e-03 9.386045e-04 1.105185e-03 -1.308911e-03 -7.251453e-04 4.007388e-04 -7.374949e-04 6.106704e-04 1.389649e-03 6.016152e-04 3.782838e-04 -3.753792e-04
<VARIANCE> 39
 9.776292e+01 8.542992e+01 9.997328e+01 1.017906e+02 6.267709e+01 7.210568e+01 9.503651e+01 8.198573e+01 5.994360e+01 6.143947e+01 6.362672e+01 3.968280e+01 2.431674e+02 2.874141e+00 4.034517e+00 3.403481e+00 3.848216e+00 3.462135e+00 3.654505e+00 3.686342e+00 3.685819e+00 3.376972e+00 3.595970e+00 3.470234e+00 2.757183e+00 3.272637e+00 4.205822e-01 5.076305e-01 4.953161e-01 5.695192e-01 6.300124e-01 6.286737e-01 6.660283e-01 6.830580e-01 6.401431e-01 6.521797e-01 6.573341e-01 5.145464e-01 4.228059e-01
<GCONST> 1.376204e+02
<STATE> 3
<MEAN> 39
 -1.126631e+01 -4.150280e+00 -3.171913e+00 -6.843537e+00 -5.266555e+00 -4.273090e+00 -7.256032e+00 -6.535822e+00 -5.870494e+00 -4.793398e+00 -6.625451e+00 -3.540453e+00 3.855515e+01 1.184599e-02 -1.068102e-02 -1.507305e-02 2.838297e-02 -1.360268e-02 -1.785439e-03 6.750240e-03 3.038570e-02 4.448845e-03 1.209972e-04 1.352082e-02 2.899869e-03 -2.988940e-02 -2.187376e-03 1.733983e-03 1.162052e-03 2.167996e-04 -7.319378e-04 -1.017926e-03 8.049167e-04 -6.425783e-04 1.345890e-03 1.061956e-03 3.809796e-04 5.465927e-04 2.102812e-04
<VARIANCE> 39
 9.778491e+01 8.411551e+01 9.873653e+01 9.907183e+01 6.237355e+01 7.209628e+01 9.465514e+01 8.127924e+01 5.947298e+01 6.155127e+01 6.388689e+01 3.982563e+01 2.432768e+02 2.814068e+00 3.977515e+00 3.400100e+00 3.731550e+00 3.420552e+00 3.637640e+00 3.685049e+00 3.666313e+00 3.344466e+00 3.576989e+00 3.456309e+00 2.755311e+00 3.232956e+00 4.106269e-01 5.023287e-01 4.971289e-01 5.515659e-01 6.217817e-01 6.269369e-01 6.676187e-01 6.787746e-01 6.335701e-01 6.500416e-01 6.532091e-01 5.125607e-01 4.148590e-01
<GCONST> 1.373033e+02
<STATE> 4
<MEAN> 39
 -1.190377e+01 -3.852540e+00 -3.179197e+00 -6.394445e+00 -5.216355e+00 -4.084987e+00 -6.760602e+00 -6.139415e+00 -5.453369e+00 -4.576746e+00 -6.116828e+00 -3.255656e+00 3.731599e+01 2.084223e-03 -2.222684e-03 -3.641379e-03 2.654407e-02 -1.429342e-02 -6.096658e-03 9.533009e-03 2.750071e-02 1.215616e-02 1.774341e-03 1.326305e-02 6.350295e-03 -3.004590e-02 -1.391040e-03 7.912851e-04 1.302805e-03 -9.108264e-04 2.921333e-04 -3.337543e-04 1.121693e-03 -3.194776e-04 1.180789e-03 3.078798e-04 -2.553047e-04 3.425188e-04 1.260429e-03
<VARIANCE> 39
 9.430334e+01 7.676233e+01 9.549277e+01 9.563197e+01 5.829665e+01 6.817165e+01 9.504211e+01 7.868552e+01 5.707905e+01 5.917048e+01 6.141038e+01 3.824183e+01 2.409992e+02 2.525825e+00 3.564621e+00 3.186963e+00 3.475823e+00 3.199357e+00 3.422089e+00 3.522572e+00 3.598154e+00 3.159107e+00 3.421848e+00 3.248231e+00 2.653952e+00 3.017218e+00 3.648817e-01 4.543347e-01 4.662150e-01 5.100053e-01 5.798921e-01 5.960540e-01 6.382747e-01 6.732237e-01 6.003727e-01 6.283772e-01 6.166326e-01 4.960881e-01 3.820073e-01
<GCONST> 1.351747e+02
<TRANSP> 5
 0.000000e+00 1.000000e+00 0.000000e+00 0.000000e+00 0.000000e+00
 0.000000e+00 7.403603e-01 2.596396e-01 0.000000e+00 0.000000e+00
 0.000000e+00 0.000000e+00 7.403600e-01 2.596400e-01 0.000000e+00
 0.000000e+00 0.000000e+00 0.000000e+00 8.719481e-01 1.280520e-01
 0.000000e+00 0.000000e+00 0.000000e+00 0.000000e+00 0.000000e+00
<ENDHMM>
~h "r"
<BEGINHMM>
<NUMSTATES> 5
<STATE> 2
<MEAN> 39
 -7.132537e+00 -6.850402e+00 -2.201429e+00 -9.218117e+00 -5.943717e+00 -8.059170e+00 -1.035874e+01 -8.531914e+00 -8.457651e+00 -6.629484e+00 -7.758070e+00 -3.484338e+00 4.686366e+01 3.134613e-02 -1.532854e-02 -3.437026e-02 2.400724e-02 1.496607e-03 2.201367e-02 5.033297e-03 3.617058e-03 -1.280541e-02 -6.264325e-04 2.319448e-04 -1.402876e-02 -9.735610e-03 -8.487063e-04 -6.855339e-04 -2.855167e-05 3.321485e-04 8.152139e-05 1.725741e-04 1.196280e-03 9.472498e-04 9.158073e-04 6.059026e-04 4.541797e-04 -1.268167e-04 1.063156e-04
<VARIANCE> 39
 1.001151e+02 1.230329e+02 1.265675e+02 9.656235e+01 8.063852e+01 9.922425e+01 8.613857e+01 8.240697e+01 6.945726e+01 6.838499e+01 6.134224e+01 4.362701e+01 1.447499e+02 4.193717e+00 5.405074e+00 4.863711e+00 5.155070e+00 4.897804e+00 5.261169e+00 5.130316e+00 4.858697e+00 4.186764e+00 4.296304e+00 3.969953e+00 3.134531e+00 4.279598e+00 6.111642e-01 7.367544e-01 6.950070e-01 8.064804e-01 8.853129e-01 8.813200e-01 9.707358e-01 8.989311e-01 7.643480e-01 7.699421e-01 7.333650e-01 5.855462e-01 5.847700e-01
<GCONST> 1.456943e+02
<STATE> 3
<MEAN> 39
 -7.046850e+00 -6.890457e+00 -2.329748e+00 -9.114822e+00 -5.932728e+00 -7.978630e+00 -1.032800e+01 -8.517455e+00 -8.481695e+00 -6.623050e+00 -7.743105e+00 -3.531661e+00 4.681456e+01 2.831698e-02 -1.783376e-02 -3.348175e-02 2.388779e-02 1.715107e-03 2.250245e-02 8.392112e-03 6.684323e-03 -9.334357e-03 1.853417e-03 1.728689e-03 -1.419930e-02 -8.683256e-03 -8.670251e-04 -8.042476e-04 5.787392e-04 -2.818546e-05 -3.194482e-04 -1.579695e-04 9.581927e-04 1.040408e-03 9.218573e-04 5.392184e-04 3.519561e-04 -3.457742e-05 3.865926e-04
<VARIANCE> 39
 9.951347e+01 1.233493e+02 1.249580e+02 9.567755e+01 8.043951e+01 9.935838e+01 8.654424e+01 8.223247e+01 6.904676e+01 6.897862e+01 6.109747e+01 4.335986e+01 1.453457e+02 4.156041e+00 5.431411e+00 4.872115e+00 5.140701e+00 4.886706e+00 5.269795e+00 5.118874e+00 4.856946e+00 4.183127e+00 4.298068e+00 3.958117e+00 3.141343e+00 4.302384e+00 6.064364e-01 7.424088e-01 7.001676e-01 8.063373e-01 8.838325e-01 8.831205e-01 9.698727e-01 8.969718e-01 7.658427e-01 7.691110e-01 7.347771e-01 5.869603e-01 5.866689e-01
<GCONST> 1.456754e+02
<STATE> 4
<MEAN> 39
 -7.047836e+00 -7.203572e+00 -2.467777e+00 -9.120600e+00 -6.090637e+00 -7.885205e+00 -1.011058e+01 -8.273170e+00 -8.393494e+00 -6.614503e+00 -7.595936e+00 -3.569385e+00 4.689282e+01 1.501133e-02 -1.194820e-02 -3.009318e-02 2.467081e-02 1.891990e-03 1.927420e-02 1.034916e-02 7.980139e-03 1.679824e-03 6.640369e-03 7.424360e-03 -1.127936e-02 -1.110318e-02 -8.634496e-04 -5.216047e-04 9.433990e-04 -3.979777e-04 -6.616082e-04 -4.677763e-04 4.525314e-04 9.296391e-04 8.465057e-04 4.583895e-04 2.536465e-04 7.967508e-05 3.547914e-04
<VARIANCE> 39
 9.963046e+01 1.228860e+02 1.172021e+02 9.585648e+01 7.958464e+01 9.963107e+01 9.045098e+01 8.179898e+01 6.884894e+01 6.878814e+01 6.013106e+01 4.239278e+01 1.465104e+02 4.108391e+00 5.349859e+00 4.705152e+00 5.122938e+00 4.811606e+00 5.230202e+00 5.243797e+00 4.832594e+00 4.154644e+00 4.239536e+00 3.843124e+00 3.173987e+00 4.342119e+00 5.952670e-01 7.360711e-01 6.849344e-01 8.074642e-01 8.687963e-01 8.810287e-01 9.925008e-01 8.891507e-01 7.608229e-01 7.601245e-01 7.144824e-01 5.933430e-01 5.911960e-01
<GCONST> 1.454251e+02
<TRANSP> 5
 0.000000e+00 1.000000e+00 0.000000e+00 0.000000e+00 0.000000e+00
 0.000000e+00 7.374063e-01 2.625938e-01 0.000000e+00 0.000000e+00
 0.000000e+00 0.000000e+00 7.374059e-01 2.625941e-01 0.000000e+00
 0.000000e+00 0.000000e+00 0.000000e+00 8.670271e-01 1.329729e-01
 0.000000e+00 0.000000e+00 0.000000e+00 0.000000e+00 0.000000e+00
<ENDHMM>
~h "s"
<BEGINHMM>
<NUMSTATES> 5
<STATE> 2
<MEAN> 39
 -1.103193e+01 -5.011967e+00 -2.689558e+00 -7.116631e+00 -5.037566e+00 -6.430587e+00 -7.670838e+00 -6.918204e+00 -5.754006e+00 -4.864957e+00 -5.738222e+00 -2.252840e+00 4.084724e+01 2.119920e-02 1.182526e-02 1.394370e-02 -7.904339e-03 -4.399752e-03 -7.350526e-03 -1.194676e-02 -1.505067e-02 -9.383308e-03 -4.078048e-03 -8.311475e-03 -5.413951e-03 2.432393e-02 7.756603e-04 8.039067e-04 3.828823e-04 9.227442e-04 6.504365e-04 1.947421e-04 2.677881e-04 4.566771e-04 -9.157175e-04 -9.030473e-04 -9.626226e-04 -5.996389e-04 1.869673e-03
<VARIANCE> 39
 1.051763e+02 1.057721e+02 8.739098e+01 1.017582e+02 6.603181e+01 9.201363e+01 8.769141e+01 7.850319e+01 6.576825e+01 5.549505e+01 5.932995e+01 3.675129e+01 2.536490e+02 3.658346e+00 4.623999e+00 3.805514e+00 4.271594e+00 3.917804e+00 4.150888e+00 4.232989e+00 4.096280e+00 3.499086e+00 3.509879e+00 3.555822e+00 2.926602e+00 3.312122e+00 5.249942e-01 6.239814e-01 5.763371e-01 6.521890e-01 7.061217e-01 7.136192e-01 7.852854e-01 7.817984e-01 6.319111e-01 6.494719e-01 6.739510e-01 5.678923e-01 4.457474e-01
<GCONST> 1.404418e+02
<STATE> 3
<MEAN> 39
 -1.094673e+01 -4.965552e+00 -2.634142e+00 -7.139962e+00 -5.045510e+00 -6.457493e+00 -7.713092e+00 -6.970634e+00 -5.791215e+00 -4.894340e+00 -5.776856e+00 -2.280580e+00 4.095835e+01 2.398996e-02 1.415614e-02 1.610410e-02 -2.364250e-03 -1.453504e-03 -4.904641e-03 -8.715766e-03 -1.197709e-02 -1.159101e-02 -9.279739e-03 -1.344667e-02 -8.596920e-03 3.218778e-02 -6.579630e-05 1.522240e-04 -2.304593e-05 5.380923e-04 2.743455e-04 -2.339631e-04 3.806308e-04 4.709823e-04 -4.686621e-04 -1.382333e-03 -1.314344e-03 -5.851728e-04 1.927200e-03
<VARIANCE> 39
 1.046526e+02 1.065739e+02 8.823553e+01 1.028421e+02 6.665347e+01 9.285099e+01 8.829575e+01 7.884184e+01 6.564656e+01 5.583949e+01 5.952190e+01 3.687990e+01 2.518206e+02 3.695100e+00 4.648368e+00 3.838154e+00 4.318884e+00 3.939218e+00 4.156438e+00 4.253760e+00 4.125039e+00 3.526007e+00 3.526308e+00 3.572949e+00 2.944192e+00 3.372353e+00 5.298065e-01 6.236594e-01 5.802658e-01 6.589511e-01 7.098171e-01 7.128795e-01 7.901875e-01 7.872999e-01 6.378710e-01 6.502815e-01 6.772058e-01 5.722820e-01 4.532062e-01
<GCONST> 1.406754e+02
<STATE> 4
<MEAN> 39
 -1.101960e+01 -4.813557e+00 -2.662814e+00 -6.965441e+00 -5.010643e+00 -6.382739e+00 -7.570598e+00 -6.822734e+00 -5.672313e+00 -4.991012e+00 -5.706060e+00 -2.226380e+00 4.064752e+01 2.235624e-02 1.366077e-02 1.120875e-02 4.035993e-03 4.232540e-03 1.437440e-03 -1.805861e-03 -6.024351e-03 -8.572246e-03 -1.652177e-02 -1.787373e-02 -1.141963e-02 3.668424e-02 -1.136071e-03 -6.567116e-04 -1.721292e-03 -5.847733e-04 -3.304756e-04 -5.636340e-04 -1.139155e-04 4.260390e-04 -1.672411e-05 -9.044537e-04 -6.521659e-04 7.101294e-05 4.632518e-04
<VARIANCE> 39
 1.031317e+02 1.065984e+02 8.739230e+01 1.039946e+02 6.648309e+01 9.449915e+01 9.010305e+01 7.901620e+01 6.344570e+01 5.589080e+01 5.823444e+01 3.643970e+01 2.486826e+02 3.621527e+00 4.553909e+00 3.739409e+00 4.298323e+00 3.899930e+00 4.122250e+00 4.195023e+00 4.090804e+00 3.459606e+00 3.453901e+00 3.505723e+00 2.915828e+00 3.393088e+00 5.157318e-01 6.040772e-01 5.607040e-01 6.544985e-01 7.022991e-01 7.058368e-01 7.778594e-01 7.811087e-01 6.256714e-01 6.348858e-01 6.633963e-01 5.661162e-01 4.533831e-01
<GCONST> 1.402277e+02
<TRANSP> 5
 0.000000e+00 1.000000e+00 0.000000e+00 0.000000e+00 0.000000e+00
 0.000000e+00 7.456241e-01 2.543759e-01 0.000000e+00 0.000000e+00
 0.000000e+00 0.000000e+00 7.456239e-01 2.543761e-01 0.000000e+00
 0.000000e+00 0.000000e+00 0.000000e+00 8.770670e-01 1.229330e-01
 0.000000e+00 0.000000e+00 0.000000e+00 0.000000e+00 0.000000e+00
<ENDHMM>
~h "t"
<BEGINHMM>
<NUMSTATES> 5
<STATE> 2
<MEAN> 39
 -1.014925e+01 -5.222116e+00 -2.505575e+00 -7.508205e+00 -5.897660e+00 -6.090496e+00 -8.211005e+00 -6.931620e+00 -6.347334e+00 -5.023295e+00 -6.395069e+00 -2.818946e+00 4.093681e+01 -1.397778e-02 1.168746e-02 9.096251e-03 1.235106e-03 1.011067e-02 3.473150e-03 -4.103523e-03 -2.885018e-03 3.547036e-03 8.287519e-03 1.195030e-02 1.240120e-02 7.672166e-05 1.093957e-03 -4.329921e-04 2.018005e-04 -6.749741e-05 5.556531e-04 1.447784e-03 -9.316469e-05 4.720004e-04 -3.657866e-04 1.587538e-04 1.127955e-04 2.632901e-04 -7.463705e-04
<VARIANCE> 39
 9.974733e+01 9.745941e+01 9.099014e+01 9.435924e+01 7.331075e+01 8.263378e+01 8.618177e+01 8.399828e+01 6.278475e+01 5.906696e+01 6.104861e+01 3.904705e+01 2.444990e+02 3.227882e+00 4.206496e+00 3.794389e+00 4.038135e+00 3.838849e+00 3.899530e+00 4.045818e+00 3.978825e+00 3.398157e+00 3.563657e+00 3.598012e+00 2.948384e+00 3.533128e+00 4.841105e-01 5.793006e-01 5.546623e-01 6.111620e-01 6.659808e-01 6.948834e-01 7.345490e-01 7.347129e-01 6.240066e-01 6.347041e-01 6.795449e-01 5.521372e-01 4.659755e-01
<GCONST> 1.395373e+02
<STATE> 3
<MEAN> 39
 -1.020531e+01 -5.176149e+00 -2.474786e+00 -7.505488e+00 -5.857249e+00 -6.070907e+00 -8.223190e+00 -6.940505e+00 -6.334349e+00 -4.992030e+00 -6.344637e+00 -2.774523e+00 4.093104e+01 -1.001734e-02 1.039990e-02 9.690629e-03 1.315735e-03 1.238938e-02 9.111765e-03 -4.103328e-03 -1.001580e-03 2.743825e-03 9.181052e-03 1.237155e-02 1.296660e-02 -3.266729e-03 1.098973e-03 -1.635311e-04 2.314962e-04 1.843916e-04 2.457060e-04 1.309655e-03 2.324884e-05 6.199610e-04 -2.215650e-04 8.969515e-05 -1.577638e-04 -1.673606e-04 -9.186605e-04
<VARIANCE> 39
 9.989246e+01 9.790141e+01 9.134634e+01 9.507920e+01 7.306626e+01 8.224549e+01 8.686738e+01 8.429741e+01 6.289891e+01 5.906834e+01 6.124438e+01 3.895426e+01 2.453404e+02 3.217874e+00 4.216605e+00 3.783524e+00 4.055986e+00 3.802680e+00 3.877875e+00 4.040113e+00 3.971319e+00 3.393434e+00 3.557764e+00 3.598666e+00 2.954923e+00 3.536622e+00 4.834166e-01 5.787600e-01 5.502396e-01 6.141403e-01 6.592174e-01 6.928732e-01 7.339395e-01 7.349868e-01 6.238893e-01 6.339787e-01 6.796162e-01 5.534959e-01 4.671160e-01
<GCONST> 1.395317e+02
<STATE> 4
<MEAN> 39
 -1.055206e+01 -5.010462e+00 -2.580844e+00 -7.267629e+00 -5.702747e+00 -5.894681e+00 -8.032213e+00 -6.746654e+00 -6.160205e+00 -4.932922e+00 -6.123753e+00 -2.615008e+00 4.038971e+01 -6.907942e-03 9.466478e-03 8.003471e-03 1.411484e-03 1.454055e-02 1.539067e-02 -2.626287e-03 8.872326e-04 1.946894e-03 9.545134e-03 1.235173e-02 9.596047e-03 -7.728489e-03 7.506090e-04 1.773737e-04 2.105198e-04 3.202956e-04 1.192228e-04 9.223124e-04 1.853582e-04 4.607275e-04 -6.785031e-05 2.687122e-05 -2.837658e-04 -5.423684e-04 -8.906922e-04
<VARIANCE> 39
 1.000407e+02 9.761803e+01 8.907156e+01 9.633599e+01 7.084698e+01 8.243475e+01 8.856473e+01 8.383354e+01 6.231554e+01 5.839074e+01 6.081179e+01 3.770081e+01 2.510709e+02 3.108439e+00 4.090614e+00 3.629199e+00 4.015426e+00 3.667243e+00 3.803554e+00 3.936831e+00 3.867631e+00 3.303756e+00 3.467452e+00 3.496332e+00 2.880075e+00 3.481157e+00 4.647456e-01 5.550217e-01 5.212898e-01 6.092362e-01 6.364727e-01 6.798770e-01 7.138546e-01 7.176524e-01 6.060929e-01 6.193613e-01 6.567157e-01 5.404106e-01 4.611233e-01
<GCONST> 1.387462e+02
<TRANSP> 5
 0.000000e+00 1.000000e+00 0.000000e+00 0.000000e+00 0.000000e+00
 0.000000e+00 7.457610e-01 2.542391e-01 0.000000e+00 0.000000e+00
 0.000000e+00 0.000000e+00 7.457620e-01 2.542380e-01 0.000000e+00
 0.000000e+00 0.000000e+00 0.000000e+00 8.771685e-01 1.228315e-01
 0.000000e+00 0.000000e+00 0.000000e+00 0.000000e+00 0.000000e+00
<ENDHMM>
~h "v"
<BEGINHMM>
<NUMSTATES> 5
<STATE> 2
<MEAN> 39
 -6.883471e+00 -7.183819e+00 -3.482045e+00 -8.084177e+00 -5.137393e+00 -6.683341e+00 -1.052932e+01 -7.975336e+00 -6.601738e+00 -7.090494e+00 -7.062317e+00 -3.860522e+00 4.596627e+01 1.510312e-02 -4.522712e-03 1.405993e-03 -1.905732e-02 -1.811127e-03 1.823656e-02 7.600657e-03 -5.674986e-03 -4.509212e-03 -1.567303e-03 6.575174e-03 -1.306140e-02 -1.057782e-02 -8.331514e-04 1.200176e-03 6.218711e-04 -1.212846e-04 -9.396016e-04 -6.675593e-04 1.457345e-03 1.836334e-04 -1.166718e-03 1.565834e-04 5.123353e-04 -2.129245e-05 -1.115043e-03
<VARIANCE> 39
 1.107411e+02 1.181984e+02 1.158356e+02 9.690897e+01 7.373605e+01 1.013668e+02 8.778601e+01 7.942823e+01 6.704216e+01 6.474567e+01 5.895008e+01 4.490690e+01 1.582773e+02 4.188600e+00 4.853697e+00 4.287228e+00 4.883438e+00 4.374218e+00 5.509171e+00 4.600595e+00 4.484640e+00 4.024640e+00 4.168673e+00 4.286482e+00 3.320127e+00 4.167135e+00 6.236577e-01 6.846051e-01 6.313998e-01 7.791704e-01 7.809755e-01 9.497428e-01 8.179507e-01 8.171647e-01 6.995832e-01 7.475693e-01 8.005656e-01 6.244664e-01 5.980725e-01
<GCONST> 1.446208e+02
<STATE> 3
<MEAN> 39
 -6.834833e+00 -7.198542e+00 -3.463644e+00 -8.147678e+00 -5.150791e+00 -6.615281e+00 -1.047425e+01 -7.996214e+00 -6.631374e+00 -7.105523e+00 -7.029789e+00 -3.914279e+00 4.591584e+01 1.168989e-02 1.228470e-04 3.490066e-03 -1.931277e-02 -5.022174e-03 1.547580e-02 1.292205e-02 -4.752480e-03 -8.505275e-03 -2.440272e-04 8.900353e-03 -1.306994e-02 -1.552689e-02 -9.194652e-04 1.222865e-03 4.601913e-04 1.307559e-04 -8.742810e-04 -9.052810e-04 1.427073e-03 3.180534e-04 -9.366614e-04 3.939375e-04 5.197418e-04 -6.227259e-06 -1.415798e-03
<VARIANCE> 39
 1.106673e+02 1.171896e+02 1.170373e+02 9.708227e+01 7.436316e+01 1.019655e+02 8.744280e+01 7.988673e+01 6.664914e+01 6.426702e+01 5.903240e+01 4.507128e+01 1.571571e+02 4.177910e+00 4.790280e+00 4.295876e+00 4.884715e+00 4.414987e+00 5.506299e+00 4.600186e+00 4.468890e+00 4.010370e+00 4.128057e+00 4.273442e+00 3.305662e+00 4.101334e+00 6.218699e-01 6.775152e-01 6.285683e-01 7.785913e-01 7.866282e-01 9.523416e-01 8.162704e-01 8.142202e-01 6.968737e-01 7.403957e-01 7.971560e-01 6.216351e-01 5.888422e-01
<GCONST> 1.445275e+02
<STATE> 4
<MEAN> 39
 -6.965025e+00 -7.089276e+00 -3.475296e+00 -8.145518e+00 -5.212404e+00 -6.360851e+00 -1.013527e+01 -7.762383e+00 -6.676911e+00 -7.147389e+00 -6.967959e+00 -3.910036e+00 4.571442e+01 2.954405e-03 4.354197e-03 9.505096e-03 -1.497632e-02 -8.744352e-03 1.142695e-02 2.469213e-02 -2.617994e-03 -1.210309e-02 3.799838e-04 1.400828e-02 -1.128584e-02 -2.919884e-02 -1.133629e-03 1.022454e-03 1.834233e-04 2.656953e-04 -6.348997e-04 -9.369163e-04 1.203913e-03 5.427858e-04 -4.785435e-04 8.057973e-04 4.712894e-04 2.295770e-04 -1.786210e-03
<VARIANCE> 39
 1.097403e+02 1.170816e+02 1.195112e+02 9.694719e+01 7.387345e+01 1.020300e+02 8.842774e+01 7.995512e+01 6.597568e+01 6.384499e+01 5.886321e+01 4.514109e+01 1.541804e+02 3.999896e+00 4.580521e+00 4.241141e+00 4.915806e+00 4.414914e+00 5.488355e+00 4.597550e+00 4.451542e+00 3.974060e+00 4.079434e+00 4.226736e+00 3.263579e+00 3.918674e+00 5.933378e-01 6.400257e-01 6.129169e-01 7.800481e-01 7.885529e-01 9.549258e-01 8.138098e-01 8.113312e-01 6.931033e-01 7.316000e-01 7.846593e-01 6.130015e-01 5.584423e-01
<GCONST> 1.440849e+02
<TRANSP> 5
 0.000000e+00 1.000000e+00 0.000000e+00 0.000000e+00 0.000000e+00
 0.000000e+00 7.412634e-01 2.587366e-01 0.000000e+00 0.000000e+00
 0.000000e+00 0.000000e+00 7.412637e-01 2.587363e-01 0.000000e+00
 0.000000e+00 0.000000e+00 0.000000e+00 8.714154e-01 1.285845e-01
 0.000000e+00 0.000000e+00 0.000000e+00 0.000000e+00 0.000000e+00
<ENDHMM>
~h "w"
<BEGINHMM>
<NUMSTATES> 5
<STATE> 2
<MEAN> 39
 -1.034955e+01 -5.804917e+00 -2.695806e+00 -7.098932e+00 -4.808338e+00 -6.361285e+00 -7.470280e+00 -6.564607e+00 -5.966740e+00 -4.987532e+00 -5.572759e+00 -2.091738e+00 3.992438e+01 -5.429375e-03 -8.733861e-03 -1.292661e-02 -9.492533e-03 -5.092430e-03 -5.090136e-03 7.530943e-03 2.289702e-03 -2.142798e-03 3.234684e-04 -1.681291e-03 6.788263e-03 4.324810e-02 8.124607e-04 9.516531e-06 -1.281783e-03 -5.665820e-04 1.080204e-03 8.921946e-04 -2.595014e-06 -5.248525e-04 4.577137e-04 -9.699215e-04 1.823805e-04 -8.196416e-04 2.009588e-04
<VARIANCE> 39
 1.061102e+02 9.749818e+01 8.358965e+01 1.045656e+02 6.457445e+01 8.505523e+01 8.092430e+01 8.115189e+01 6.813379e+01 6.183757e+01 5.577965e+01 3.273865e+01 2.607163e+02 2.870025e+00 3.619481e+00 3.243230e+00 4.020888e+00 3.744898e+00 3.681001e+00 3.750614e+00 3.811042e+00 3.379167e+00 3.574831e+00 3.256660e+00 2.526942e+00 3.675189e+00 4.145846e-01 4.771433e-01 4.648459e-01 6.010855e-01 6.651234e-01 6.432885e-01 6.979449e-01 7.021513e-01 5.901659e-01 6.114759e-01 6.115910e-01 4.879867e-01 4.835756e-01
<GCONST> 1.374980e+02
<STATE> 3
<MEAN> 39
 -1.036454e+01 -5.853601e+00 -2.760411e+00 -7.133174e+00 -4.815300e+00 -6.361046e+00 -7.436675e+00 -6.547411e+00 -5.971079e+00 -4.994478e+00 -5.576834e+00 -2.072482e+00 4.007993e+01 -2.057513e-03 -8.111576e-03 -1.756046e-02 -1.074148e-02 -9.254855e-05 -1.833635e-03 6.617185e-03 -1.557303e-04 -2.656404e-03 -4.883188e-03 -8.019937e-04 4.001215e-03 4.238160e-02 8.400938e-04 2.078285e-04 -1.524459e-03 -5.551077e-05 1.375444e-03 7.574722e-04 -8.770157e-05 -5.399188e-04 -1.222762e-04 -1.503779e-03 3.154411e-04 -7.842226e-04 -5.711668e-04
<VARIANCE> 39
 1.057517e+02 9.994445e+01 8.382494e+01 1.042077e+02 6.481242e+01 8.501467e+01 8.105916e+01 8.074746e+01 6.720217e+01 6.188877e+01 5.594709e+01 3.260196e+01 2.601782e+02 2.886127e+00 3.660210e+00 3.280507e+00 4.036842e+00 3.771545e+00 3.677106e+00 3.780355e+00 3.832869e+00 3.350484e+00 3.595575e+00 3.284295e+00 2.534054e+00 3.728025e+00 4.179391e-01 4.820433e-01 4.708604e-01 6.077000e-01 6.692898e-01 6.431276e-01 7.050064e-01 7.079848e-01 5.861191e-01 6.146417e-01 6.158727e-01 4.899096e-01 4.914775e-01
<GCONST> 1.376689e+02
<STATE> 4
<MEAN> 39
 -1.070033e+01 -5.711409e+00 -3.036577e+00 -6.984810e+00 -4.696658e+00 -5.967236e+00 -7.095188e+00 -6.446685e+00 -5.805889e+00 -4.985523e+00 -5.362180e+00 -2.002225e+00 3.955463e+01 4.246484e-03 -1.030995e-02 -2.173861e-02 -1.271973e-02 4.405403e-03 3.991718e-03 1.223757e-03 -2.007161e-03 -3.857547e-03 -6.819454e-03 -1.883837e-03 -2.458573e-04 3.691215e-02 1.023161e-03 3.531872e-04 -1.064115e-03 -1.511533e-04 9.203699e-04 3.247714e-04 -5.919565e-04 -5.701850e-04 -1.932722e-04 -8.319531e-04 7.112969e-05 -7.000415e-04 -7.819428e-04
<VARIANCE> 39
 1.045068e+02 9.993935e+01 8.022475e+01 1.033849e+02 6.354165e+01 8.466724e+01 8.164887e+01 7.924292e+01 6.449563e+01 5.957069e+01 5.453286e+01 3.173328e+01 2.607815e+02 2.800622e+00 3.519976e+00 3.171547e+00 3.947077e+00 3.667899e+00 3.604618e+00 3.703521e+00 3.801344e+00 3.208015e+00 3.490969e+00 3.200557e+00 2.476054e+00 3.706314e+00 4.045117e-01 4.637794e-01 4.593929e-01 6.021319e-01 6.482601e-01 6.294550e-01 6.900539e-01 7.084929e-01 5.627856e-01 6.032498e-01 6.019260e-01 4.777516e-01 4.905829e-01
<GCONST> 1.368219e+02
<TRANSP> 5
 0.000000e+00 1.000000e+00 0.000000e+00 0.000000e+00 0.000000e+00
 0.000000e+00 7.480877e-01 2.519123e-01 0.000000e+00 0.000000e+00
 0.000000e+00 0.000000e+00 7.480876e-01 2.519124e-01 0.000000e+00
 0.000000e+00 0.000000e+00 0.000000e+00 8.794323e-01 1.205677e-01
 0.000000e+00 0.000000e+00 0.000000e+00 0.000000e+00 0.000000e+00
<ENDHMM>
~h "y"
<BEGINHMM>
<NUMSTATES> 5
<STATE> 2
<MEAN> 39
 -9.931070e+00 -3.058030e+00 -1.443185e+00 -6.515613e+00 -4.157561e+00 -7.062140e+00 -9.607350e+00 -7.710325e+00 -7.556112e+00 -4.778901e+00 -3.144419e+00 -3.248863e+00 3.951495e+01 2.448349e-03 7.834205e-03 -3.605553e-03 -3.125300e-02 -4.716497e-02 -3.171388e-02 2.708736e-02 -4.473837e-02 2.466620e-02 2.792129e-03 5.179712e-03 -2.713359e-03 1.716514e-02 -2.202663e-03 -5.324428e-04 -7.107697e-05 -1.817212e-03 1.998279e-03 -1.467729e-03 3.063021e-03 1.183237e-03 -4.121976e-04 -3.685438e-03 -2.636272e-03 -8.436093e-04 1.858842e-03
<VARIANCE> 39
 1.264350e+02 1.075082e+02 1.023129e+02 7.782059e+01 9.110619e+01 1.149341e+02 1.111137e+02 8.289280e+01 7.661828e+01 4.417140e+01 5.768140e+01 4.242246e+01 2.076525e+02 3.715274e+00 5.222030e+00 4.373035e+00 3.587564e+00 5.609353e+00 5.662069e+00 4.705648e+00 4.031308e+00 3.569516e+00 3.278949e+00 3.404675e+00 2.499755e+00 2.990538e+00 4.793541e-01 7.279710e-01 5.436987e-01 5.906630e-01 9.138489e-01 9.197403e-01 8.158672e-01 8.302794e-01 6.634025e-01 6.058491e-01 6.485503e-01 4.316693e-01 3.764159e-01
<GCONST> 1.417294e+02
<STATE> 3
<MEAN> 39
 -9.908992e+00 -3.073243e+00 -1.463010e+00 -6.651248e+00 -4.335024e+00 -7.194174e+00 -9.494822e+00 -7.871069e+00 -7.472882e+00 -4.795927e+00 -3.141244e+00 -3.261791e+00 3.960788e+01 -6.796916e-03 5.945936e-03 -5.411968e-03 -3.643388e-02 -3.841950e-02 -3.671640e-02 4.025642e-02 -3.947073e-02 2.337711e-02 -1.110128e-02 -4.610048e-03 -5.316365e-03 2.350302e-02 -2.059233e-03 -1.002943e-03 -1.523824e-03 -4.662196e-04 2.491161e-03 -1.033668e-03 3.358598e-03 1.356452e-03 -2.509241e-04 -3.589359e-03 -2.829957e-03 -4.528779e-04 1.108075e-03
<VARIANCE> 39
 1.255318e+02 1.066006e+02 1.038134e+02 7.763926e+01 9.262966e+01 1.131067e+02 1.111695e+02 8.092529e+01 7.703870e+01 4.389520e+01 5.859568e+01 4.152768e+01 2.046765e+02 3.807065e+00 5.069715e+00 4.370606e+00 3.542382e+00 5.750671e+00 5.604815e+00 4.755282e+00 4.024509e+00 3.607923e+00 3.232646e+00 3.384274e+00 2.507039e+00 2.969033e+00 4.880626e-01 7.057394e-01 5.445721e-01 5.870053e-01 9.365866e-01 9.098955e-01 8.223865e-01 8.317231e-01 6.614816e-01 5.956030e-01 6.402496e-01 4.371187e-01 3.731463e-01
<GCONST> 1.416503e+02
<STATE> 4
<MEAN> 39
 -9.644919e+00 -3.278870e+00 -1.408501e+00 -7.102491e+00 -4.577182e+00 -7.562784e+00 -9.531087e+00 -8.252194e+00 -7.505337e+00 -5.040138e+00 -3.527175e+00 -3.278690e+00 4.017003e+01 -1.305539e-02 -8.760000e-03 -1.653834e-02 -3.527926e-02 -2.538423e-02 -3.914129e-02 5.773298e-02 -2.798572e-02 2.094129e-02 -2.920668e-02 -1.617499e-02 -4.567369e-03 2.999055e-02 -1.783181e-03 -1.294186e-03 -2.877274e-03 1.282649e-03 2.634442e-03 -2.826404e-04 3.370068e-03 1.678035e-03 1.915765e-04 -3.022882e-03 -2.377067e-03 1.742664e-04 -2.596271e-04
<VARIANCE> 39
 1.222624e+02 1.063893e+02 1.049762e+02 7.858012e+01 9.407117e+01 1.103531e+02 1.107845e+02 7.778735e+01 7.825906e+01 4.485597e+01 6.202983e+01 4.031597e+01 1.957182e+02 3.901799e+00 4.816401e+00 4.294065e+00 3.422513e+00 5.907373e+00 5.512736e+00 4.749727e+00 4.001075e+00 3.727008e+00 3.226144e+00 3.417033e+00 2.521493e+00 2.986102e+00 5.008969e-01 6.736230e-01 5.377307e-01 5.655051e-01 9.548336e-01 8.955770e-01 8.095366e-01 8.279913e-01 6.689692e-01 5.897626e-01 6.397923e-01 4.446799e-01 3.754649e-01
<GCONST> 1.415256e+02
<TRANSP> 5
 0.000000e+00 1.000000e+00 0.000000e+00 0.000000e+00 0.000000e+00
 0.000000e+00 7.420145e-01 2.579855e-01 0.000000e+00 0.000000e+00
 0.000000e+00 0.000000e+00 7.420143e-01 2.579856e-01 0.000000e+00
 0.000000e+00 0.000000e+00 0.000000e+00 8.662781e-01 1.337218e-01
 0.000000e+00 0.000000e+00 0.000000e+00 0.000000e+00 0.000000e+00
<ENDHMM>
~h "z"
<BEGINHMM>
<NUMSTATES> 5
<STATE> 2
<MEAN> 39
 -1.100994e+01 -3.696072e+00 -3.565273e+00 -7.336315e+00 -5.281806e+00 -6.071376e+00 -7.911808e+00 -7.399324e+00 -6.328528e+00 -5.540936e+00 -5.762310e+00 -2.576051e+00 4.182510e+01 1.970037e-02 1.047270e-02 -2.816958e-02 -6.787467e-03 9.820683e-03 -1.875591e-02 -7.215272e-03 -1.930601e-02 5.144915e-03 -1.704908e-03 -8.605350e-03 -2.380600e-03 2.607012e-02 5.942680e-04 -1.184430e-03 3.797555e-04 4.980822e-04 7.027054e-04 9.731280e-04 1.077587e-05 1.085438e-03 7.177739e-04 5.497860e-04 -2.151999e-04 5.005413e-04 -8.411221e-04
<VARIANCE> 39
 1.160897e+02 1.207549e+02 8.199162e+01 1.154975e+02 7.817173e+01 9.878564e+01 9.307616e+01 8.543507e+01 7.020051e+01 5.775907e+01 6.154841e+01 4.048200e+01 2.435194e+02 3.603962e+00 4.472644e+00 3.671026e+00 4.925097e+00 4.489441e+00 4.323678e+00 4.256004e+00 4.166945e+00 3.527755e+00 3.717865e+00 3.542886e+00 3.075558e+00 3.533988e+00 5.069057e-01 5.682961e-01 5.293888e-01 7.388695e-01 7.788140e-01 7.352725e-01 7.798989e-01 7.665504e-01 6.311987e-01 6.766565e-01 6.700152e-01 5.835999e-01 4.726711e-01
<GCONST> 1.418844e+02
<STATE> 3
<MEAN> 39
 -1.092463e+01 -3.663054e+00 -3.661105e+00 -7.360213e+00 -5.244531e+00 -6.144376e+00 -7.934297e+00 -7.468835e+00 -6.314619e+00 -5.544971e+00 -5.800247e+00 -2.582281e+00 4.191552e+01 2.205941e-02 5.561111e-03 -2.602431e-02 -4.390497e-03 1.143435e-02 -1.519740e-02 -7.112179e-03 -1.526145e-02 7.077335e-03 -2.442927e-04 -9.964558e-03 -9.121594e-04 2.379631e-02 3.209402e-04 -1.841129e-03 3.524221e-04 -1.338728e-04 -9.218267e-05 7.009016e-04 -4.767556e-04 8.060265e-04 5.011567e-04 4.955519e-04 -3.585049e-04 4.181757e-04 -9.295272e-04
<VARIANCE> 39
 1.157963e+02 1.201502e+02 8.193235e+01 1.159747e+02 7.789220e+01 9.937490e+01 9.391234e+01 8.548557e+01 6.981717e+01 5.725172e+01 6.142375e+01 4.092955e+01 2.392230e+02 3.617785e+00 4.503850e+00 3.701232e+00 4.964358e+00 4.499508e+00 4.367506e+00 4.309191e+00 4.200184e+00 3.546301e+00 3.740669e+00 3.552279e+00 3.074339e+00 3.520273e+00 5.100309e-01 5.744637e-01 5.355682e-01 7.435274e-01 7.820148e-01 7.431970e-01 7.886105e-01 7.729630e-01 6.363354e-01 6.826019e-01 6.705512e-01 5.805964e-01 4.719416e-01
<GCONST> 1.420184e+02
<STATE> 4
<MEAN> 39
 -1.075359e+01 -3.468223e+00 -3.908634e+00 -7.511405e+00 -5.183948e+00 -5.942226e+00 -7.942062e+00 -7.529780e+00 -6.166584e+00 -5.491653e+00 -5.654651e+00 -2.504569e+00 4.166027e+01 2.241207e-02 -1.105732e-03 -1.835866e-02 1.821722e-03 7.136895e-03 -1.274606e-02 -3.450757e-03 -9.887386e-03 5.061416e-03 -1.384844e-03 -1.241986e-02 -1.284722e-03 1.616637e-02 -5.281540e-04 -2.100063e-03 -9.162546e-05 -3.805599e-04 -8.847899e-04 2.118056e-04 -7.197484e-04 6.766837e-04 5.331032e-04 5.160600e-04 -3.371889e-04 2.735824e-05 -1.374814e-03
<VARIANCE> 39
 1.165808e+02 1.146457e+02 8.255729e+01 1.204947e+02 7.670056e+01 9.938996e+01 9.695822e+01 8.576801e+01 6.834095e+01 5.565338e+01 6.009260e+01 4.022581e+01 2.300553e+02 3.495542e+00 4.248752e+00 3.657128e+00 4.950310e+00 4.347064e+00 4.381202e+00 4.292799e+00 4.216096e+00 3.477213e+00 3.723919e+00 3.509066e+00 2.959410e+00 3.466759e+00 4.911732e-01 5.458584e-01 5.297009e-01 7.372677e-01 7.464544e-01 7.419474e-01 7.765980e-01 7.773844e-01 6.255107e-01 6.850803e-01 6.617113e-01 5.550290e-01 4.623184e-01
<GCONST> 1.414288e+02
<TRANSP> 5
 0.000000e+00 1.000000e+00 0.000000e+00 0.000000e+00 0.000000e+00
 0.000000e+00 7.506807e-01 2.493194e-01 0.000000e+00 0.000000e+00
 0.000000e+00 0.000000e+00 7.506804e-01 2.493195e-01 0.000000e+00
 0.000000e+00 0.000000e+00 0.000000e+00 8.845636e-01 1.154364e-01
 0.000000e+00 0.000000e+00 0.000000e+00 0.000000e+00 0.000000e+00
<ENDHMM>
~h "aa"
<BEGINHMM>
<NUMSTATES> 5
<STATE> 2
<MEAN> 39
 -1.372984e+01 -4.426627e+00 -4.258214e+00 -4.200485e+00 -3.628918e+00 -2.425650e+00 -4.597115e+00 -3.050994e+00 -3.760684e+00 -3.266717e+00 -3.505376e+00 -1.881830e+00 3.091528e+01 -7.357326e-02 5.997669e-02 5.482524e-02 4.904229e-02 2.072129e-02 5.969465e-03 5.065043e-02 9.676431e-03 3.406366e-02 2.706694e-02 1.635424e-02 1.821504e-02 -3.546695e-02 -1.389919e-04 5.875784e-04 1.926354e-03 -1.157413e-03 3.300676e-03 1.827378e-03 1.249771e-03 -1.417796e-03 1.212006e-03 -3.276732e-04 -1.013324e-03 -5.732492e-04 4.028132e-03
<VARIANCE> 39
 9.851689e+01 5.434577e+01 5.506377e+01 7.098505e+01 4.502040e+01 6.370530e+01 7.141372e+01 5.228358e+01 5.942327e+01 4.784048e+01 4.360078e+01 2.865196e+01 2.130200e+02 1.757884e+00 2.497635e+00 2.207561e+00 2.992008e+00 2.447764e+00 2.587198e+00 2.646115e+00 2.522428e+00 2.567071e+00 2.308831e+00 2.081325e+00 1.697803e+00 2.030530e+00 2.321935e-01 3.268596e-01 3.466848e-01 4.516703e-01 4.300131e-01 4.146673e-01 4.736642e-01 4.804863e-01 4.638463e-01 4.013672e-01 3.922803e-01 3.286167e-01 2.776449e-01
<GCONST> 1.233780e+02
<STATE> 3
<MEAN> 39
 -1.399308e+01 -4.206665e+00 -4.022030e+00 -4.007153e+00 -3.541366e+00 -2.395035e+00 -4.411039e+00 -3.014904e+00 -3.626491e+00 -3.170316e+00 -3.455083e+00 -1.816864e+00 3.080132e+01 -7.199994e-02 5.997224e-02 6.002172e-02 4.374113e-02 3.102833e-02 1.228166e-02 5.274405e-02 4.294350e-03 3.795909e-02 2.351486e-02 1.213410e-02 1.487732e-02 -2.082872e-02 1.325757e-04 -2.746560e-03 -7.555492e-04 -3.255818e-03 8.579182e-05 4.121473e-04 -9.513231e-04 -1.608869e-03 5.241635e-05 -5.050402e-04 -2.569624e-04 1.056267e-04 2.493554e-03
<VARIANCE> 39
 9.576469e+01 5.333410e+01 5.740282e+01 7.068938e+01 4.632440e+01 6.340293e+01 7.243012e+01 5.220396e+01 5.778991e+01 4.644049e+01 4.314393e+01 2.842898e+01 2.126738e+02 1.803096e+00 2.521942e+00 2.269328e+00 2.978162e+00 2.491736e+00 2.593804e+00 2.599767e+00 2.494138e+00 2.548245e+00 2.291346e+00 2.067726e+00 1.732272e+00 1.994412e+00 2.356285e-01 3.321752e-01 3.523529e-01 4.510247e-01 4.372372e-01 4.241958e-01 4.652987e-01 4.734693e-01 4.631234e-01 3.984507e-01 3.893419e-01 3.369242e-01 2.720373e-01
<GCONST> 1.233978e+02
<STATE> 4
<MEAN> 39
 -1.441985e+01 -3.858671e+00 -3.755881e+00 -3.666423e+00 -3.404431e+00 -2.255337e+00 -4.102780e+00 -2.953385e+00 -3.410015e+00 -3.095750e+00 -3.373806e+00 -1.646762e+00 3.054490e+01 -6.366036e-02 4.258126e-02 5.812663e-02 3.224355e-02 2.720680e-02 1.586976e-02 4.035132e-02 -1.792530e-03 3.373471e-02 1.482257e-02 6.603215e-03 9.040338e-03 -1.200759e-02 5.148754e-05 -6.100301e-03 -4.161105e-03 -5.208031e-03 -3.866342e-03 -1.398149e-03 -3.410750e-03 -1.627028e-03 -1.397595e-03 5.295043e-05 8.565413e-04 8.057407e-04 -1.094048e-04
<VARIANCE> 39
 9.029771e+01 5.197382e+01 5.936591e+01 6.948986e+01 4.702039e+01 6.142145e+01 7.399281e+01 5.159177e+01 5.415289e+01 4.416654e+01 4.275751e+01 2.772630e+01 2.101189e+02 1.818121e+00 2.512110e+00 2.282588e+00 2.917216e+00 2.508541e+00 2.558100e+00 2.518941e+00 2.447998e+00 2.492350e+00 2.256434e+00 2.025894e+00 1.754044e+00 1.914787e+00 2.359989e-01 3.310837e-01 3.496594e-01 4.430363e-01 4.386706e-01 4.316711e-01 4.493965e-01 4.651799e-01 4.593189e-01 3.979982e-01 3.824521e-01 3.428746e-01 2.621745e-01
<GCONST> 1.229014e+02
<TRANSP> 5
 0.000000e+00 1.000000e+00 0.000000e+00 0.000000e+00 0.000000e+00
 0.000000e+00 7.355713e-01 2.644287e-01 0.000000e+00 0.000000e+00
 0.000000e+00 0.000000e+00 7.355715e-01 2.644285e-01 0.000000e+00
 0.000000e+00 0.000000e+00 0.000000e+00 8.601345e-01 1.398655e-01
 0.000000e+00 0.000000e+00 0.000000e+00 0.000000e+00 0.000000e+00
<ENDHMM>
~h "ae"
<BEGINHMM>
<NUMSTATES> 5
<STATE> 2
<MEAN> 39
 -9.247802e+00 -6.093406e+00 -2.435853e+00 -8.050375e+00 -5.869757e+00 -6.641922e+00 -8.308387e+00 -7.229059e+00 -7.181231e+00 -6.134372e+00 -6.165917e+00 -2.448035e+00 4.230996e+01 -7.799557e-03 -1.665126e-02 1.143372e-02 -1.598342e-03 1.298156e-02 5.333886e-03 1.533459e-02 3.347180e-02 -3.018545e-03 -2.132115e-03 -2.139872e-03 1.024815e-02 -1.936496e-02 -3.762113e-05 3.279871e-04 4.302907e-04 -4.317126e-04 2.189064e-04 6.211216e-04 -2.842836e-04 1.160839e-04 1.202172e-03 6.994195e-04 -1.065232e-03 -2.095879e-04 4.568793e-04
<VARIANCE> 39
 9.648119e+01 1.133964e+02 8.960274e+01 1.037548e+02 6.499587e+01 8.385910e+01 8.773792e+01 8.348397e+01 7.243655e+01 6.154962e+01 6.212496e+01 3.812975e+01 2.286664e+02 3.196745e+00 4.447491e+00 3.656552e+00 4.320074e+00 3.766109e+00 4.099833e+00 4.386613e+00 4.299834e+00 3.739963e+00 3.629804e+00 3.584115e+00 2.929747e+00 3.886638e+00 4.832985e-01 6.217152e-01 5.534835e-01 6.531317e-01 6.864554e-01 7.194430e-01 8.147476e-01 7.768468e-01 6.741601e-01 6.500834e-01 6.623871e-01 5.509475e-01 5.109568e-01
<GCONST> 1.407407e+02
<STATE> 3
<MEAN> 39
 -9.274685e+00 -6.149674e+00 -2.379700e+00 -8.067005e+00 -5.812634e+00 -6.620667e+00 -8.261483e+00 -7.103894e+00 -7.186460e+00 -6.139157e+00 -6.188509e+00 -2.410944e+00 4.223552e+01 -7.699584e-03 -1.491603e-02 1.388368e-02 -4.607249e-03 1.348340e-02 8.477132e-03 1.430758e-02 3.362514e-02 -1.048101e-04 4.733843e-04 -5.811994e-03 8.691813e-03 -1.730175e-02 -4.252597e-05 8.448465e-04 5.359298e-04 -8.179439e-04 1.350515e-04 9.745757e-04 -3.108120e-04 -1.868738e-04 7.990628e-04 6.593040e-04 -9.001372e-04 -5.302974e-04 3.617333e-04
<VARIANCE> 39
 9.614960e+01 1.130410e+02 8.905565e+01 1.038802e+02 6.499957e+01 8.464928e+01 8.835535e+01 8.291156e+01 7.295872e+01 6.153592e+01 6.267792e+01 3.855508e+01 2.302191e+02 3.169503e+00 4.455300e+00 3.626153e+00 4.293425e+00 3.746844e+00 4.112870e+00 4.361115e+00 4.278545e+00 3.731768e+00 3.616849e+00 3.577654e+00 2.954420e+00 3.864970e+00 4.792329e-01 6.225507e-01 5.479744e-01 6.504235e-01 6.834370e-01 7.238897e-01 8.109931e-01 7.739101e-01 6.704101e-01 6.460783e-01 6.601256e-01 5.544835e-01 5.085494e-01
<GCONST> 1.406922e+02
<STATE> 4
<MEAN> 39
 -9.557940e+00 -5.970013e+00 -2.376587e+00 -8.117739e+00 -5.626467e+00 -6.540448e+00 -8.064810e+00 -6.858150e+00 -6.918939e+00 -6.148445e+00 -6.273226e+00 -2.425601e+00 4.181234e+01 -4.197884e-03 -1.055995e-02 1.856937e-02 -1.118771e-02 1.407443e-02 9.106869e-03 8.343791e-03 2.723306e-02 4.906578e-04 -1.971005e-05 -1.154971e-02 4.347865e-03 -1.071661e-02 4.750523e-05 1.006896e-03 1.728463e-04 -5.369894e-04 5.441184e-05 7.506430e-04 -2.380079e-04 -6.353836e-04 5.163453e-04 2.090911e-04 -4.588024e-04 -7.436066e-04 4.319580e-04
<VARIANCE> 39
 9.514685e+01 1.127664e+02 8.757492e+01 1.047247e+02 6.374082e+01 8.503159e+01 8.987599e+01 8.042384e+01 7.114331e+01 6.053994e+01 6.244102e+01 3.855863e+01 2.339010e+02 3.117803e+00 4.412095e+00 3.469006e+00 4.239183e+00 3.684580e+00 4.036827e+00 4.287678e+00 4.211736e+00 3.606154e+00 3.558353e+00 3.533383e+00 2.974247e+00 3.883906e+00 4.692065e-01 6.125425e-01 5.200207e-01 6.425891e-01 6.704679e-01 7.133333e-01 7.932109e-01 7.669635e-01 6.460274e-01 6.337485e-01 6.513841e-01 5.549025e-01 5.099895e-01
<GCONST> 1.401771e+02
<TRANSP> 5
 0.000000e+00 1.000000e+00 0.000000e+00 0.000000e+00 0.000000e+00
 0.000000e+00 7.445874e-01 2.554127e-01 0.000000e+00 0.000000e+00
 0.000000e+00 0.000000e+00 7.445871e-01 2.554130e-01 0.000000e+00
 0.000000e+00 0.000000e+00 0.000000e+00 8.750609e-01 1.249391e-01
 0.000000e+00 0.000000e+00 0.000000e+00 0.000000e+00 0.000000e+00
<ENDHMM>
~h "ah"
<BEGINHMM>
<NUMSTATES> 5
<STATE> 2
<MEAN> 39
 -8.290545e+00 -6.494194e+00 -2.419447e+00 -8.997489e+00 -4.940553e+00 -7.425333e+00 -9.707016e+00 -8.004041e+00 -7.300814e+00 -6.553483e+00 -7.423580e+00 -3.434213e+00 4.587162e+01 -1.550202e-03 3.153021e-02 2.348989e-02 1.087163e-03 -9.266129e-03 -1.466154e-02 -7.644819e-03 -1.322128e-02 7.150022e-03 -5.552019e-03 8.101379e-03 3.515058e-03 -1.446149e-02 -9.953205e-04 -4.304303e-05 5.284932e-04 8.620197e-04 -2.671462e-04 6.555692e-04 1.341019e-03 4.136245e-05 -4.490576e-04 -6.447186e-04 2.700562e-04 -2.095860e-04 -9.374712e-04
<VARIANCE> 39
 1.061878e+02 1.231666e+02 1.015104e+02 1.049608e+02 7.837516e+01 9.570942e+01 8.717197e+01 8.331894e+01 6.510062e+01 6.724728e+01 7.316697e+01 4.283768e+01 2.072679e+02 3.686084e+00 5.100268e+00 4.305765e+00 4.847981e+00 4.480110e+00 4.692982e+00 4.609220e+00 4.760392e+00 3.766850e+00 4.356272e+00 4.369815e+00 3.168062e+00 3.594258e+00 5.458497e-01 7.047284e-01 6.213323e-01 7.376138e-01 7.745164e-01 7.975199e-01 8.359112e-01 8.893688e-01 6.781087e-01 7.889450e-01 7.663589e-01 6.076375e-01 5.021226e-01
<GCONST> 1.442306e+02
<STATE> 3
<MEAN> 39
 -8.297403e+00 -6.380434e+00 -2.323627e+00 -8.991610e+00 -4.979251e+00 -7.476451e+00 -9.731833e+00 -8.055395e+00 -7.277484e+00 -6.569856e+00 -7.393830e+00 -3.422624e+00 4.580916e+01 -5.388586e-03 3.063066e-02 2.448273e-02 4.335707e-03 -9.643848e-03 -1.168281e-02 -2.294160e-03 -1.213946e-02 5.662798e-03 -7.612367e-03 8.906944e-03 2.558282e-03 -1.740660e-02 -8.894700e-04 -2.445217e-04 3.995114e-04 8.233560e-04 -1.015930e-04 8.075751e-04 1.437214e-03 2.621398e-04 -4.787246e-04 -4.751587e-04 1.628015e-04 -2.033685e-04 -5.560303e-04
<VARIANCE> 39
 1.057975e+02 1.227359e+02 1.017529e+02 1.049026e+02 7.930517e+01 9.570804e+01 8.707817e+01 8.351790e+01 6.516212e+01 6.714704e+01 7.302328e+01 4.268003e+01 2.072175e+02 3.678002e+00 5.102753e+00 4.296046e+00 4.821397e+00 4.515620e+00 4.701180e+00 4.601850e+00 4.765486e+00 3.787122e+00 4.360000e+00 4.371812e+00 3.130266e+00 3.582831e+00 5.436674e-01 7.068512e-01 6.217054e-01 7.338454e-01 7.795556e-01 7.974487e-01 8.338962e-01 8.914861e-01 6.816800e-01 7.907813e-01 7.662863e-01 6.001453e-01 5.005947e-01
<GCONST> 1.442158e+02
<STATE> 4
<MEAN> 39
 -8.384740e+00 -6.260063e+00 -2.152488e+00 -9.045056e+00 -5.034371e+00 -7.475060e+00 -9.694349e+00 -8.094359e+00 -7.161647e+00 -6.558451e+00 -7.333441e+00 -3.361205e+00 4.552571e+01 -8.159166e-03 2.472260e-02 2.293708e-02 7.653263e-03 -8.210995e-03 -6.411364e-03 3.753613e-03 -8.170731e-03 2.604128e-03 -6.442916e-03 7.897745e-03 1.054121e-03 -1.816001e-02 -5.769416e-04 -5.335037e-04 -3.021338e-05 7.826268e-04 3.982748e-04 1.016074e-03 1.387830e-03 7.164392e-04 -5.127374e-04 -2.916552e-04 -4.959936e-05 -1.553926e-04 1.365915e-04
<VARIANCE> 39
 1.039572e+02 1.199751e+02 1.007221e+02 1.057570e+02 8.101630e+01 9.571156e+01 8.805964e+01 8.263702e+01 6.452682e+01 6.692608e+01 7.214101e+01 4.281913e+01 2.092224e+02 3.601251e+00 5.012145e+00 4.236207e+00 4.778539e+00 4.541729e+00 4.651362e+00 4.612895e+00 4.756681e+00 3.813295e+00 4.347734e+00 4.326550e+00 3.077557e+00 3.623118e+00 5.304450e-01 6.957814e-01 6.159216e-01 7.283210e-01 7.810327e-01 7.855082e-01 8.315101e-01 8.927249e-01 6.898289e-01 7.918575e-01 7.602534e-01 5.873973e-01 5.060513e-01
<GCONST> 1.440274e+02
<TRANSP> 5
 0.000000e+00 1.000000e+00 0.000000e+00 0.000000e+00 0.000000e+00
 0.000000e+00 7.411419e-01 2.588581e-01 0.000000e+00 0.000000e+00
 0.000000e+00 0.000000e+00 7.411423e-01 2.588577e-01 0.000000e+00
 0.000000e+00 0.000000e+00 0.000000e+00 8.667091e-01 1.332908e-01
 0.000000e+00 0.000000e+00 0.000000e+00 0.000000e+00 0.000000e+00
<ENDHMM>
~h "ao"
<BEGINHMM>
<NUMSTATES> 5
<STATE> 2
<MEAN> 39
 -6.916499e+00 -6.460604e+00 -5.202063e+00 -8.722386e+00 -3.916177e+00 -6.270735e+00 -1.021781e+01 -7.082589e+00 -6.551367e+00 -5.956073e+00 -6.799031e+00 -3.568289e+00 4.553446e+01 2.494806e-02 -1.006370e-02 -8.028917e-03 7.279457e-03 3.892805e-03 -9.260394e-03 3.824294e-03 4.772353e-03 -7.494473e-03 -8.539207e-03 -2.849902e-03 -1.172620e-04 1.102784e-02 -1.690183e-03 8.986246e-04 3.132410e-05 8.576389e-04 -1.219565e-03 -4.268952e-04 1.155479e-03 3.103732e-04 3.591858e-05 2.877621e-04 -2.887044e-04 2.035868e-04 -1.155377e-03
<VARIANCE> 39
 1.144504e+02 1.024757e+02 9.474360e+01 1.159998e+02 7.934080e+01 1.207575e+02 8.888856e+01 8.096745e+01 6.908590e+01 6.019809e+01 6.042805e+01 4.244754e+01 1.816762e+02 3.501697e+00 4.226620e+00 4.118132e+00 4.809544e+00 4.352482e+00 5.571555e+00 4.447923e+00 4.213058e+00 4.275763e+00 3.968611e+00 4.009057e+00 3.370034e+00 3.722050e+00 5.067561e-01 5.756636e-01 5.738662e-01 7.361298e-01 7.542200e-01 9.056897e-01 8.163803e-01 7.657975e-01 7.498097e-01 7.096093e-01 7.477900e-01 6.328885e-01 5.036339e-01
<GCONST> 1.433250e+02
<STATE> 3
<MEAN> 39
 -6.836444e+00 -6.496789e+00 -5.248797e+00 -8.677117e+00 -3.892264e+00 -6.297363e+00 -1.018262e+01 -7.051206e+00 -6.576176e+00 -5.985329e+00 -6.806376e+00 -3.559316e+00 4.555238e+01 1.726863e-02 -5.408667e-03 -6.781446e-03 1.081062e-02 -9.845417e-04 -1.128722e-02 8.737111e-03 5.094467e-03 -7.178733e-03 -7.143055e-03 -3.356859e-03 8.566619e-04 5.490498e-03 -1.935477e-03 9.912632e-04 1.107645e-04 9.865580e-04 -1.130189e-03 -3.760335e-04 1.377339e-03 5.639312e-04 -1.385890e-04 1.963991e-04 -1.296391e-04 7.257264e-05 -1.340729e-03
<VARIANCE> 39
 1.147192e+02 1.026214e+02 9.536859e+01 1.161109e+02 7.960413e+01 1.205226e+02 8.776595e+01 8.081026e+01 6.911381e+01 5.936657e+01 6.015225e+01 4.274189e+01 1.817386e+02 3.476557e+00 4.197322e+00 4.108913e+00 4.780705e+00 4.345481e+00 5.575809e+00 4.433121e+00 4.145781e+00 4.262580e+00 3.934186e+00 4.003306e+00 3.382078e+00 3.627279e+00 5.023681e-01 5.709057e-01 5.688559e-01 7.306244e-01 7.493231e-01 9.063575e-01 8.132714e-01 7.526839e-01 7.491683e-01 7.021931e-01 7.475189e-01 6.358976e-01 4.904093e-01
<GCONST> 1.431403e+02
<STATE> 4
<MEAN> 39
 -6.876834e+00 -6.322923e+00 -5.525151e+00 -8.394063e+00 -3.933687e+00 -6.245040e+00 -1.006906e+01 -6.748726e+00 -6.569221e+00 -6.038087e+00 -6.770182e+00 -3.508993e+00 4.542527e+01 -4.060975e-04 6.178130e-03 -3.493847e-03 1.859343e-02 -2.218903e-03 -9.881817e-03 1.950614e-02 4.910891e-03 -3.935283e-03 -3.644713e-03 -4.599188e-05 4.772391e-03 -1.067934e-02 -2.033494e-03 1.395483e-03 7.319832e-04 8.094219e-04 -1.159993e-03 -4.368273e-04 1.429751e-03 4.747282e-04 -1.720531e-04 3.457520e-04 1.238947e-04 -1.740112e-04 -1.541584e-03
<VARIANCE> 39
 1.156380e+02 1.077467e+02 9.540096e+01 1.148162e+02 7.693300e+01 1.182890e+02 8.931053e+01 8.130269e+01 6.943340e+01 5.898200e+01 5.917592e+01 4.229973e+01 1.789279e+02 3.338076e+00 4.109549e+00 3.881816e+00 4.639609e+00 4.218493e+00 5.508378e+00 4.392487e+00 4.062522e+00 4.157349e+00 3.905295e+00 4.006196e+00 3.324039e+00 3.635596e+00 4.831856e-01 5.489467e-01 5.300171e-01 7.106032e-01 7.208958e-01 8.954555e-01 8.023623e-01 7.393874e-01 7.317913e-01 6.973230e-01 7.467660e-01 6.243808e-01 4.933159e-01
<GCONST> 1.425435e+02
<TRANSP> 5
 0.000000e+00 1.000000e+00 0.000000e+00 0.000000e+00 0.000000e+00
 0.000000e+00 7.563896e-01 2.436104e-01 0.000000e+00 0.000000e+00
 0.000000e+00 0.000000e+00 7.563897e-01 2.436102e-01 0.000000e+00
 0.000000e+00 0.000000e+00 0.000000e+00 8.909361e-01 1.090640e-01
 0.000000e+00 0.000000e+00 0.000000e+00 0.000000e+00 0.000000e+00
<ENDHMM>
~h "aw"
<BEGINHMM>
<NUMSTATES> 5
<STATE> 2
<MEAN> 39
 -9.832369e+00 -8.626183e+00 -3.722890e+00 -5.229470e+00 -3.527605e+00 -7.451028e+00 -7.751744e+00 -5.404942e+00 -6.892753e+00 -5.441299e+00 -4.742146e+00 -3.082832e+00 3.985880e+01 1.102883e-02 -1.427422e-02 -8.844257e-02 5.527241e-02 6.213243e-02 3.579208e-02 2.983880e-03 4.153138e-02 4.119153e-02 6.133141e-03 2.711677e-02 -1.655227e-02 -2.621762e-03 1.318315e-03 1.890160e-03 1.091657e-03 -2.587572e-03 -6.919266e-04 3.738971e-04 -1.585392e-03 -2.362186e-03 -9.806657e-04 1.726361e-04 -1.221255e-03 -1.235203e-03 3.164254e-03
<VARIANCE> 39
 1.175306e+02 1.255137e+02 5.676075e+01 8.427146e+01 6.077091e+01 8.915572e+01 7.965488e+01 6.341996e+01 6.068302e+01 7.269505e+01 5.101199e+01 4.146068e+01 2.784235e+02 2.877545e+00 5.433354e+00 2.971644e+00 3.743240e+00 4.140924e+00 4.500931e+00 4.146044e+00 3.866089e+00 3.087312e+00 3.592587e+00 3.505808e+00 2.842236e+00 4.005456e+00 3.891112e-01 7.230268e-01 5.061092e-01 6.141163e-01 7.743281e-01 7.985435e-01 8.484169e-01 7.506976e-01 5.520905e-01 6.299983e-01 6.804922e-01 5.222806e-01 5.161198e-01
<GCONST> 1.393825e+02
<STATE> 3
<MEAN> 39
 -9.769984e+00 -8.677993e+00 -4.038666e+00 -5.054049e+00 -3.312163e+00 -7.328515e+00 -7.768991e+00 -5.275611e+00 -6.759319e+00 -5.427618e+00 -4.657056e+00 -3.154844e+00 3.990078e+01 1.622049e-02 -7.998926e-03 -8.376764e-02 4.522353e-02 5.798592e-02 3.647956e-02 -3.795465e-03 3.211343e-02 3.667709e-02 6.080653e-03 2.249723e-02 -2.086454e-02 1.022305e-02 1.309603e-03 1.701444e-03 1.306603e-03 -2.861934e-03 -1.178555e-03 1.076120e-05 -1.766493e-03 -2.588840e-03 -1.155877e-03 -1.550061e-05 -1.329128e-03 -1.252293e-03 3.677128e-03
<VARIANCE> 39
 1.207576e+02 1.283345e+02 5.464819e+01 8.190483e+01 5.907862e+01 8.968864e+01 8.114783e+01 6.258180e+01 6.024278e+01 7.158625e+01 5.059208e+01 4.189266e+01 2.811848e+02 3.026371e+00 5.559703e+00 2.998048e+00 3.742853e+00 4.124602e+00 4.499669e+00 4.138412e+00 3.891311e+00 3.142067e+00 3.651597e+00 3.503621e+00 2.876947e+00 4.007482e+00 4.092956e-01 7.393829e-01 5.131779e-01 6.233918e-01 7.740766e-01 7.990404e-01 8.437071e-01 7.532778e-01 5.598865e-01 6.483099e-01 6.817837e-01 5.311057e-01 5.199258e-01
<GCONST> 1.396348e+02
<STATE> 4
<MEAN> 39
 -9.613601e+00 -8.674016e+00 -4.490101e+00 -5.002335e+00 -3.028620e+00 -7.208449e+00 -7.998682e+00 -5.245762e+00 -6.516910e+00 -5.402458e+00 -4.730911e+00 -3.270819e+00 4.024553e+01 2.992642e-02 -5.137005e-03 -7.292811e-02 2.459853e-02 4.375804e-02 2.901890e-02 -2.256560e-02 1.298568e-02 2.311894e-02 -5.562257e-04 1.253023e-02 -2.647028e-02 4.258701e-02 1.488751e-03 1.341879e-03 1.588275e-03 -3.188330e-03 -1.873334e-03 -6.361174e-04 -2.070017e-03 -2.902173e-03 -1.433314e-03 -4.878296e-04 -1.518076e-03 -1.031085e-03 4.195118e-03
<VARIANCE> 39
 1.256014e+02 1.337442e+02 5.211050e+01 8.026626e+01 5.658763e+01 9.097124e+01 8.512112e+01 6.242811e+01 5.924411e+01 6.932720e+01 5.098299e+01 4.190446e+01 2.861838e+02 3.392066e+00 5.733145e+00 3.109555e+00 3.837862e+00 4.198901e+00 4.579454e+00 4.257047e+00 3.994560e+00 3.261302e+00 3.766133e+00 3.578187e+00 2.965829e+00 3.963809e+00 4.601865e-01 7.588770e-01 5.373192e-01 6.521704e-01 7.962837e-01 8.126939e-01 8.561193e-01 7.714398e-01 5.768631e-01 6.795616e-01 6.968738e-01 5.554742e-01 5.167708e-01
<GCONST> 1.405014e+02
<TRANSP> 5
 0.000000e+00 1.000000e+00 0.000000e+00 0.000000e+00 0.000000e+00
 0.000000e+00 7.316669e-01 2.683331e-01 0.000000e+00 0.000000e+00
 0.000000e+00 0.000000e+00 7.316672e-01 2.683328e-01 0.000000e+00
 0.000000e+00 0.000000e+00 0.000000e+00 8.546119e-01 1.453880e-01
 0.000000e+00 0.000000e+00 0.000000e+00 0.000000e+00 0.000000e+00
<ENDHMM>
~h "ax"
<BEGINHMM>
<NUMSTATES> 5
<STATE> 2
<MEAN> 39
 -9.759872e+00 -5.587909e+00 -3.444427e+00 -6.689096e+00 -4.937560e+00 -6.240225e+00 -8.060422e+00 -6.256578e+00 -6.067891e+00 -5.240381e+00 -6.132419e+00 -2.683714e+00 4.121978e+01 9.966247e-03 2.113539e-03 -1.221462e-03 -4.852833e-03 -4.015272e-03 -1.196024e-03 -1.886868e-03 -1.475849e-02 -1.265669e-03 -2.928855e-03 2.595380e-03 -5.731059e-03 8.432884e-04 6.826551e-04 -1.078276e-04 5.439692e-04 -1.070211e-04 1.394051e-04 2.182345e-04 -3.487482e-04 -4.730313e-04 -1.645222e-04 -3.948923e-04 -3.703821e-04 -3.061976e-04 2.327856e-04
<VARIANCE> 39
 1.085606e+02 1.058103e+02 8.622428e+01 9.178689e+01 6.666679e+01 9.803294e+01 8.509425e+01 8.066776e+01 6.732749e+01 6.132524e+01 5.939109e+01 3.995068e+01 2.443784e+02 3.411160e+00 4.355195e+00 3.550059e+00 4.141082e+00 3.945472e+00 4.477772e+00 4.105670e+00 3.933472e+00 3.490958e+00 3.673889e+00 3.444453e+00 2.967868e+00 3.410720e+00 5.102425e-01 5.810408e-01 5.301402e-01 6.485069e-01 7.115939e-01 7.628435e-01 7.544926e-01 7.219775e-01 6.268802e-01 6.620399e-01 6.473162e-01 5.634515e-01 4.611386e-01
<GCONST> 1.401969e+02
<STATE> 3
<MEAN> 39
 -9.710070e+00 -5.585716e+00 -3.441428e+00 -6.715305e+00 -4.957865e+00 -6.249965e+00 -8.077531e+00 -6.323659e+00 -6.075962e+00 -5.254683e+00 -6.132229e+00 -2.705964e+00 4.124348e+01 1.279027e-02 1.973939e-03 1.297672e-03 -5.330759e-03 -3.139524e-03 -8.079839e-04 -3.698508e-03 -1.695548e-02 -2.084696e-03 -4.001706e-03 8.914639e-04 -6.560102e-03 2.885275e-03 7.494865e-04 -1.423987e-04 5.582066e-04 -1.694634e-04 2.094898e-05 1.376687e-05 -5.457987e-04 -6.078657e-04 -2.579342e-04 -2.351192e-04 -3.158333e-04 -2.461997e-04 5.085691e-04
<VARIANCE> 39
 1.084431e+02 1.057046e+02 8.629946e+01 9.206023e+01 6.653386e+01 9.777007e+01 8.546306e+01 8.094823e+01 6.733938e+01 6.116543e+01 5.926763e+01 3.998946e+01 2.421770e+02 3.420432e+00 4.354096e+00 3.570791e+00 4.183277e+00 3.958101e+00 4.492207e+00 4.120233e+00 3.943588e+00 3.486937e+00 3.670632e+00 3.450972e+00 2.970373e+00 3.426690e+00 5.115982e-01 5.821991e-01 5.329551e-01 6.556504e-01 7.141947e-01 7.657488e-01 7.563151e-01 7.242776e-01 6.252629e-01 6.612013e-01 6.481251e-01 5.644236e-01 4.637110e-01
<GCONST> 1.402641e+02
<STATE> 4
<MEAN> 39
 -9.705560e+00 -5.530129e+00 -3.486537e+00 -6.654847e+00 -4.903948e+00 -6.139579e+00 -8.111182e+00 -6.317915e+00 -6.002641e+00 -5.211023e+00 -6.057016e+00 -2.692303e+00 4.099805e+01 1.711431e-02 9.731419e-04 5.318006e-03 -9.386428e-03 -4.140790e-03 -3.078250e-03 -7.967148e-03 -2.172857e-02 -4.892104e-03 -4.485015e-03 -2.429478e-03 -6.215712e-03 1.235382e-02 5.268313e-04 -3.001846e-04 2.521257e-04 -4.759260e-04 -2.427124e-04 -2.087750e-04 -6.680071e-04 -5.877840e-04 -3.972946e-04 6.958179e-05 2.389631e-05 -1.368401e-04 5.343845e-04
<VARIANCE> 39
 1.083713e+02 1.043528e+02 8.606789e+01 9.196367e+01 6.533671e+01 9.676713e+01 8.732249e+01 8.101241e+01 6.679294e+01 6.042477e+01 5.834708e+01 3.919041e+01 2.403618e+02 3.342589e+00 4.214438e+00 3.538602e+00 4.208775e+00 3.877090e+00 4.467546e+00 4.113406e+00 3.926027e+00 3.447910e+00 3.636774e+00 3.454713e+00 2.912043e+00 3.454959e+00 4.989746e-01 5.630163e-01 5.262984e-01 6.586411e-01 6.979244e-01 7.643064e-01 7.518534e-01 7.222221e-01 6.174461e-01 6.560759e-01 6.493616e-01 5.536031e-01 4.663813e-01
<GCONST> 1.399227e+02
<TRANSP> 5
 0.000000e+00 1.000000e+00 0.000000e+00 0.000000e+00 0.000000e+00
 0.000000e+00 7.431197e-01 2.568803e-01 0.000000e+00 0.000000e+00
 0.000000e+00 0.000000e+00 7.431203e-01 2.568797e-01 0.000000e+00
 0.000000e+00 0.000000e+00 0.000000e+00 8.726184e-01 1.273817e-01
 0.000000e+00 0.000000e+00 0.000000e+00 0.000000e+00 0.000000e+00
<ENDHMM>
~h "ay"
<BEGINHMM>
<NUMSTATES> 5
<STATE> 2
<MEAN> 39
 -1.032865e+01 -6.228942e+00 -2.365866e+00 -6.898300e+00 -4.632993e+00 -5.917553e+00 -7.648276e+00 -6.568307e+00 -6.536539e+00 -5.268397e+00 -6.169369e+00 -1.965562e+00 4.102645e+01 1.100143e-02 -1.278242e-02 9.453517e-03 -1.371790e-02 7.751715e-03 3.039028e-03 -7.402923e-03 -1.276016e-02 -1.534057e-02 -1.188581e-02 -7.459811e-03 8.779361e-04 3.383315e-02 1.179231e-03 1.694213e-03 5.758085e-04 1.029148e-03 -3.767586e-04 -4.696738e-04 -5.183928e-04 3.605082e-04 -1.985118e-04 -2.768604e-04 -5.273690e-05 -7.416364e-04 5.457152e-04
<VARIANCE> 39
 1.015556e+02 1.102233e+02 7.098123e+01 9.239332e+01 6.632919e+01 8.053251e+01 8.451721e+01 8.039974e+01 7.054159e+01 5.868530e+01 5.836728e+01 3.749141e+01 2.806567e+02 3.229494e+00 4.185812e+00 3.367649e+00 4.132473e+00 3.603757e+00 3.739795e+00 3.837859e+00 4.100737e+00 3.559259e+00 3.627776e+00 3.322119e+00 2.784961e+00 3.103963e+00 4.693966e-01 5.387799e-01 5.362280e-01 6.650745e-01 6.209952e-01 6.813721e-01 6.831098e-01 7.370545e-01 6.314697e-01 6.567050e-01 6.334853e-01 5.187175e-01 4.062316e-01
<GCONST> 1.385163e+02
<STATE> 3
<MEAN> 39
 -1.026450e+01 -6.276042e+00 -2.331531e+00 -6.948822e+00 -4.612012e+00 -5.918870e+00 -7.692426e+00 -6.615315e+00 -6.597058e+00 -5.315376e+00 -6.200000e+00 -1.967269e+00 4.118776e+01 1.500569e-02 -6.475803e-03 1.090956e-02 -1.034665e-02 5.608788e-03 1.067267e-03 -8.877199e-03 -1.122795e-02 -1.619584e-02 -1.284903e-02 -6.959832e-03 -1.355274e-03 3.563486e-02 1.076865e-03 1.727678e-03 1.027259e-04 1.036140e-03 -5.697564e-04 -4.919137e-04 -4.149752e-04 3.499697e-04 -3.283798e-04 -3.095938e-04 3.110490e-04 -6.106729e-04 5.896320e-04
<VARIANCE> 39
 1.017659e+02 1.118252e+02 7.128046e+01 9.295088e+01 6.656227e+01 8.081149e+01 8.499265e+01 8.094912e+01 7.103410e+01 5.931435e+01 5.886369e+01 3.728706e+01 2.794234e+02 3.278778e+00 4.187212e+00 3.371944e+00 4.144643e+00 3.637473e+00 3.759206e+00 3.863486e+00 4.108821e+00 3.567459e+00 3.660167e+00 3.345180e+00 2.779971e+00 3.107431e+00 4.752971e-01 5.379096e-01 5.381392e-01 6.658339e-01 6.279736e-01 6.822032e-01 6.872157e-01 7.379003e-01 6.300123e-01 6.604313e-01 6.369734e-01 5.189602e-01 4.068223e-01
<GCONST> 1.386847e+02
<STATE> 4
<MEAN> 39
 -1.027537e+01 -6.360915e+00 -2.349099e+00 -7.040450e+00 -4.628465e+00 -5.703520e+00 -7.694607e+00 -6.504294e+00 -6.678543e+00 -5.300815e+00 -6.096037e+00 -1.901429e+00 4.109277e+01 2.451812e-02 -3.945861e-03 9.317225e-03 -1.043866e-02 -1.502661e-03 -5.848423e-03 -1.636782e-02 -1.056673e-02 -1.855591e-02 -1.618844e-02 -7.831461e-03 -4.870839e-03 4.957208e-02 5.993858e-04 1.077905e-03 -5.365179e-04 4.733574e-04 -1.090607e-03 -8.555136e-04 -5.537028e-04 1.944563e-04 -2.010433e-04 -4.673513e-04 3.529390e-04 -5.306975e-04 4.041759e-04
<VARIANCE> 39
 1.012436e+02 1.131074e+02 7.030219e+01 9.639133e+01 6.575679e+01 7.992480e+01 8.589801e+01 8.171293e+01 7.133339e+01 5.950984e+01 5.861513e+01 3.528668e+01 2.827419e+02 3.265071e+00 4.146581e+00 3.274032e+00 4.129666e+00 3.603446e+00 3.714187e+00 3.798104e+00 4.054239e+00 3.533551e+00 3.632359e+00 3.330896e+00 2.662164e+00 3.298639e+00 4.718730e-01 5.288639e-01 5.197653e-01 6.537072e-01 6.229563e-01 6.681940e-01 6.729517e-01 7.247239e-01 6.219215e-01 6.527539e-01 6.334038e-01 5.003185e-01 4.320316e-01
<GCONST> 1.384145e+02
<TRANSP> 5
 0.000000e+00 1.000000e+00 0.000000e+00 0.000000e+00 0.000000e+00
 0.000000e+00 7.443336e-01 2.556664e-01 0.000000e+00 0.000000e+00
 0.000000e+00 0.000000e+00 7.443336e-01 2.556664e-01 0.000000e+00
 0.000000e+00 0.000000e+00 0.000000e+00 8.747565e-01 1.252434e-01
 0.000000e+00 0.000000e+00 0.000000e+00 0.000000e+00 0.000000e+00
<ENDHMM>
~h "ch"
<BEGINHMM>
<NUMSTATES> 5
<STATE> 2
<MEAN> 39
 -9.148065e+00 -1.257071e+00 -4.472101e-01 -1.011919e+01 -5.087543e+00 -7.792060e+00 -1.281296e+01 -1.244622e+01 -9.688135e+00 -7.007954e+00 -9.591832e+00 -4.260846e+00 4.867791e+01 -1.342288e-01 -3.836896e-02 -6.624611e-03 2.406973e-02 -2.526148e-02 9.292505e-03 7.740574e-02 1.299831e-01 2.840742e-02 -7.798942e-02 -5.586448e-03 -5.206113e-02 2.197270e-02 1.226598e-03 -2.642273e-03 6.580472e-04 -1.091716e-03 -1.314156e-03 -2.612816e-03 8.409703e-04 1.745580e-03 3.078602e-03 2.792081e-03 2.782840e-03 1.687735e-03 2.987563e-03
<VARIANCE> 39
 1.045959e+02 1.110383e+02 1.020679e+02 9.694451e+01 8.294035e+01 5.624582e+01 4.940767e+01 1.062995e+02 5.544911e+01 5.544809e+01 7.393575e+01 4.333325e+01 8.582465e+01 6.533512e+00 5.428023e+00 5.333330e+00 6.482005e+00 6.019497e+00 5.445265e+00 4.098055e+00 5.153186e+00 3.520322e+00 4.150767e+00 4.543611e+00 3.613111e+00 4.742456e+00 1.019306e+00 7.977529e-01 7.466174e-01 9.489207e-01 9.828432e-01 1.051217e+00 7.602689e-01 9.440945e-01 6.801240e-01 7.152032e-01 7.027605e-01 6.398494e-01 7.162521e-01
<GCONST> 1.457905e+02
<STATE> 3
<MEAN> 39
 -9.606220e+00 -1.417626e+00 -4.670506e-01 -1.004418e+01 -5.179194e+00 -7.767695e+00 -1.253547e+01 -1.196449e+01 -9.562235e+00 -7.274718e+00 -9.597356e+00 -4.432062e+00 4.877750e+01 -1.266976e-01 -4.715891e-02 -4.153950e-03 2.040471e-02 -3.065267e-02 2.525801e-04 7.937793e-02 1.345249e-01 3.865991e-02 -6.785192e-02 4.169188e-03 -4.517661e-02 3.231704e-02 2.505328e-03 -2.370931e-03 5.930183e-04 -1.155247e-03 -1.484410e-03 -2.604098e-03 3.813331e-04 9.790384e-04 2.811496e-03 3.026446e-03 2.704543e-03 2.040634e-03 3.072568e-03
<VARIANCE> 39
 1.064741e+02 1.114891e+02 1.022201e+02 9.543163e+01 8.290074e+01 5.752432e+01 4.910432e+01 1.058341e+02 5.692877e+01 5.443858e+01 7.457829e+01 4.205340e+01 8.742998e+01 6.774873e+00 5.627067e+00 5.164424e+00 6.364013e+00 6.054796e+00 5.600430e+00 4.057624e+00 5.065270e+00 3.564615e+00 4.153677e+00 4.637658e+00 3.602110e+00 4.752490e+00 1.054546e+00 8.370954e-01 7.276510e-01 9.328683e-01 9.888952e-01 1.080068e+00 7.493672e-01 9.310656e-01 6.854569e-01 7.151724e-01 7.158062e-01 6.464813e-01 7.194954e-01
<GCONST> 1.459613e+02
<STATE> 4
<MEAN> 39
 -1.019241e+01 -1.707225e+00 -5.801680e-01 -1.002854e+01 -5.338051e+00 -7.861400e+00 -1.212803e+01 -1.106912e+01 -9.299728e+00 -7.562185e+00 -9.587467e+00 -4.647460e+00 4.911436e+01 -1.031112e-01 -5.923863e-02 -1.048917e-03 1.591699e-02 -3.833628e-02 -8.052087e-03 7.751544e-02 1.360873e-01 5.096258e-02 -5.535519e-02 1.569950e-02 -3.358074e-02 4.457396e-02 4.233005e-03 -2.020165e-03 4.160118e-04 -8.003545e-04 -1.824018e-03 -2.201624e-03 -1.774864e-04 -1.815981e-04 2.200022e-03 3.026424e-03 2.464551e-03 2.160654e-03 2.658634e-03
<VARIANCE> 39
 1.094153e+02 1.144578e+02 1.034425e+02 9.336523e+01 8.413148e+01 5.984730e+01 4.846293e+01 1.033439e+02 5.815668e+01 5.267904e+01 7.643353e+01 3.979855e+01 8.934081e+01 7.136561e+00 6.076088e+00 5.008427e+00 6.154395e+00 6.133120e+00 5.830189e+00 3.996339e+00 4.985715e+00 3.643979e+00 4.114024e+00 4.824000e+00 3.543527e+00 4.779873e+00 1.097779e+00 9.145045e-01 7.168308e-01 9.023527e-01 9.963486e-01 1.118451e+00 7.312529e-01 9.212215e-01 6.952429e-01 7.075472e-01 7.376137e-01 6.473144e-01 7.220138e-01
<GCONST> 1.462555e+02
<TRANSP> 5
 0.000000e+00 1.000000e+00 0.000000e+00 0.000000e+00 0.000000e+00
 0.000000e+00 7.213324e-01 2.786676e-01 0.000000e+00 0.000000e+00
 0.000000e+00 0.000000e+00 7.213326e-01 2.786674e-01 0.000000e+00
 0.000000e+00 0.000000e+00 0.000000e+00 8.415734e-01 1.584266e-01
 0.000000e+00 0.000000e+00 0.000000e+00 0.000000e+00 0.000000e+00
<ENDHMM>
~h "dh"
<BEGINHMM>
<NUMSTATES> 5
<STATE> 2
<MEAN> 39
 -1.007411e+01 -5.526430e+00 -3.345578e+00 -6.512755e+00 -4.901887e+00 -5.609082e+00 -7.582984e+00 -5.853802e+00 -5.890968e+00 -4.624089e+00 -5.810829e+00 -2.560231e+00 3.982095e+01 -2.492474e-04 9.267971e-03 3.463258e-04 -1.179723e-02 -1.993581e-02 -2.994535e-02 -2.491442e-02 -1.930414e-02 -8.448048e-03 -1.530066e-02 6.310660e-03 3.457620e-03 2.762834e-02 -3.701832e-03 -2.259197e-03 -1.466388e-03 -3.352122e-04 -1.341560e-03 1.004633e-03 3.137789e-03 1.043426e-03 8.497718e-04 9.077105e-04 1.115326e-03 2.478313e-05 -3.788900e-03
<VARIANCE> 39
 1.071183e+02 9.348465e+01 7.767035e+01 8.839320e+01 6.172895e+01 9.345312e+01 8.402431e+01 8.245731e+01 6.698346e+01 5.611096e+01 5.449484e+01 3.574629e+01 2.666055e+02 2.772064e+00 3.884673e+00 3.358778e+00 3.931663e+00 3.435523e+00 3.948478e+00 3.772088e+00 3.813791e+00 3.309489e+00 3.274110e+00 3.235714e+00 2.794094e+00 3.451243e+00 4.043883e-01 4.995368e-01 5.024300e-01 6.027558e-01 6.177829e-01 6.704329e-01 6.828170e-01 6.778015e-01 6.048032e-01 5.834266e-01 6.149666e-01 5.309798e-01 4.531598e-01
<GCONST> 1.372750e+02
<STATE> 3
<MEAN> 39
 -1.008670e+01 -5.517752e+00 -3.359255e+00 -6.562889e+00 -4.975657e+00 -5.701801e+00 -7.654401e+00 -5.918865e+00 -5.921850e+00 -4.678872e+00 -5.779116e+00 -2.544990e+00 3.990293e+01 -1.083960e-02 3.346587e-03 -2.213587e-03 -1.170804e-02 -1.955423e-02 -2.242336e-02 -1.434302e-02 -1.621572e-02 -7.010993e-03 -1.228401e-02 9.886116e-03 5.099372e-03 1.489745e-02 -2.593337e-03 -1.741421e-03 -7.274558e-04 -2.132637e-05 3.659207e-04 2.420997e-03 2.818008e-03 7.264085e-04 2.294244e-04 7.027906e-04 8.572906e-04 4.134453e-04 -3.231723e-03
<VARIANCE> 39
 1.066690e+02 9.394801e+01 7.822666e+01 8.820997e+01 6.116293e+01 9.326214e+01 8.441309e+01 8.227211e+01 6.707349e+01 5.683823e+01 5.413755e+01 3.566917e+01 2.650794e+02 2.771577e+00 3.876653e+00 3.366457e+00 3.923615e+00 3.432894e+00 3.944033e+00 3.782011e+00 3.827362e+00 3.309050e+00 3.300766e+00 3.235570e+00 2.786644e+00 3.393222e+00 4.048544e-01 4.974548e-01 5.042153e-01 6.002216e-01 6.198056e-01 6.695827e-01 6.843438e-01 6.798646e-01 6.049620e-01 5.878453e-01 6.163861e-01 5.281454e-01 4.453554e-01
<GCONST> 1.372532e+02
<STATE> 4
<MEAN> 39
 -1.016873e+01 -5.544461e+00 -3.498343e+00 -6.477050e+00 -5.010557e+00 -5.716373e+00 -7.727180e+00 -5.864208e+00 -5.910036e+00 -4.683235e+00 -5.588107e+00 -2.460817e+00 3.966865e+01 -1.239179e-02 -4.471494e-03 -1.408682e-03 -1.150988e-02 -1.391744e-02 -1.350733e-02 -8.616935e-03 -1.066064e-02 -6.383064e-03 -1.334832e-02 5.171604e-03 5.575499e-03 5.570713e-03 -8.397577e-04 -1.192653e-03 1.346535e-04 9.074366e-05 8.299273e-04 1.465144e-03 1.104834e-03 7.469032e-04 1.296782e-05 -7.089798e-05 -4.102666e-04 1.436487e-04 -1.590097e-03
<VARIANCE> 39
 1.069083e+02 9.283164e+01 7.890033e+01 8.712450e+01 5.970083e+01 9.233749e+01 8.536835e+01 8.172504e+01 6.702301e+01 5.800528e+01 5.310023e+01 3.491795e+01 2.657218e+02 2.691937e+00 3.727235e+00 3.348988e+00 3.829304e+00 3.389254e+00 3.880287e+00 3.735847e+00 3.796460e+00 3.252769e+00 3.307194e+00 3.220035e+00 2.732790e+00 3.253468e+00 3.932743e-01 4.772260e-01 4.973992e-01 5.803698e-01 6.124456e-01 6.591131e-01 6.746570e-01 6.744899e-01 5.927650e-01 5.880670e-01 6.161668e-01 5.170701e-01 4.249809e-01
<GCONST> 1.367064e+02
<TRANSP> 5
 0.000000e+00 1.000000e+00 0.000000e+00 0.000000e+00 0.000000e+00
 0.000000e+00 7.416159e-01 2.583842e-01 0.000000e+00 0.000000e+00
 0.000000e+00 0.000000e+00 7.416157e-01 2.583843e-01 0.000000e+00
 0.000000e+00 0.000000e+00 0.000000e+00 8.702122e-01 1.297878e-01
 0.000000e+00 0.000000e+00 0.000000e+00 0.000000e+00 0.000000e+00
<ENDHMM>
~h "ea"
<BEGINHMM>
<NUMSTATES> 5
<STATE> 2
<MEAN> 39
 -9.937102e+00 -6.474469e+00 -2.232346e+00 -9.079917e+00 -6.561449e+00 -6.976545e+00 -8.151941e+00 -7.664584e+00 -7.796855e+00 -5.235207e+00 -5.385279e+00 -2.284895e+00 4.190802e+01 -1.451075e-02 -1.131881e-01 -2.242436e-02 -1.468176e-02 -1.204231e-02 -1.559203e-02 3.961774e-02 5.383019e-02 -2.566676e-02 -8.591487e-02 -3.925504e-02 -1.045685e-02 8.778653e-02 -2.348852e-03 -2.339937e-03 3.779016e-05 3.956138e-03 3.661625e-03 6.529979e-03 7.608090e-03 6.410073e-03 2.177354e-03 1.174078e-03 3.811269e-04 -4.926996e-04 -9.047261e-03
<VARIANCE> 39
 1.030215e+02 1.104626e+02 8.948334e+01 9.912449e+01 5.933228e+01 7.609411e+01 8.396410e+01 8.760017e+01 7.245592e+01 6.558705e+01 5.281689e+01 3.104711e+01 2.682625e+02 2.597233e+00 3.581053e+00 3.727269e+00 4.705770e+00 3.552091e+00 3.148109e+00 3.169581e+00 4.249984e+00 3.646244e+00 3.507710e+00 3.397707e+00 2.624994e+00 4.261036e+00 3.519045e-01 4.128613e-01 5.902731e-01 7.009068e-01 6.624454e-01 5.198795e-01 5.519424e-01 7.209057e-01 6.513336e-01 5.919754e-01 6.273169e-01 5.109951e-01 5.410472e-01
<GCONST> 1.376779e+02
<STATE> 3
<MEAN> 39
 -9.995011e+00 -6.929144e+00 -2.312210e+00 -9.102594e+00 -6.583259e+00 -6.982141e+00 -7.940907e+00 -7.398919e+00 -7.879127e+00 -5.565753e+00 -5.529096e+00 -2.318421e+00 4.216087e+01 -2.075559e-02 -1.157011e-01 -1.964173e-02 1.327574e-03 -1.130855e-03 5.380619e-03 6.314416e-02 7.200193e-02 -1.750846e-02 -8.004363e-02 -3.707951e-02 -1.291971e-02 5.312567e-02 -1.323777e-03 6.394081e-05 1.270715e-03 4.270156e-03 2.886978e-03 4.856902e-03 5.522341e-03 4.177189e-03 1.828647e-03 1.798496e-03 4.912662e-04 -9.954085e-04 -9.291212e-03
<VARIANCE> 39
 1.021397e+02 1.139146e+02 8.825227e+01 9.861894e+01 5.940450e+01 7.655106e+01 8.300950e+01 8.626728e+01 7.284750e+01 6.549399e+01 5.260424e+01 3.085397e+01 2.681017e+02 2.604798e+00 3.535991e+00 3.657338e+00 4.513383e+00 3.583983e+00 3.177256e+00 3.137902e+00 4.290720e+00 3.631404e+00 3.523216e+00 3.390299e+00 2.629805e+00 3.999152e+00 3.529535e-01 4.100479e-01 5.789739e-01 6.692136e-01 6.738417e-01 5.212546e-01 5.522542e-01 7.278268e-01 6.518541e-01 5.977732e-01 6.264175e-01 5.135168e-01 5.029315e-01
<GCONST> 1.374397e+02
<STATE> 4
<MEAN> 39
 -9.519846e+00 -8.017322e+00 -2.480768e+00 -9.355114e+00 -6.754923e+00 -6.976654e+00 -7.589475e+00 -6.961043e+00 -7.943384e+00 -6.129698e+00 -5.852843e+00 -2.536883e+00 4.312038e+01 -1.758143e-02 -9.496897e-02 -1.015137e-02 2.743715e-02 3.158545e-03 2.060099e-02 7.243709e-02 8.217496e-02 -2.933749e-03 -6.576092e-02 -3.136546e-02 -1.879796e-02 1.821288e-03 -9.330608e-05 3.275089e-03 1.574439e-03 3.588767e-03 1.602040e-03 2.309862e-03 8.122299e-04 8.787076e-04 1.589805e-03 2.825091e-03 1.151880e-03 -2.194014e-04 -7.823389e-03
<VARIANCE> 39
 1.049868e+02 1.220985e+02 8.632497e+01 9.979958e+01 6.031810e+01 7.785117e+01 8.616733e+01 8.392489e+01 7.278742e+01 6.458377e+01 5.328472e+01 3.115368e+01 2.606396e+02 2.741066e+00 3.583815e+00 3.534637e+00 4.290082e+00 3.629697e+00 3.268177e+00 3.329086e+00 4.293364e+00 3.666290e+00 3.609983e+00 3.379589e+00 2.694707e+00 3.706108e+00 3.754861e-01 4.164936e-01 5.580593e-01 6.313823e-01 6.861053e-01 5.269243e-01 5.931629e-01 7.265695e-01 6.639522e-01 6.304759e-01 6.192684e-01 5.288644e-01 4.580394e-01
<GCONST> 1.376842e+02
<TRANSP> 5
 0.000000e+00 1.000000e+00 0.000000e+00 0.000000e+00 0.000000e+00
 0.000000e+00 7.445264e-01 2.554736e-01 0.000000e+00 0.000000e+00
 0.000000e+00 0.000000e+00 7.445267e-01 2.554733e-01 0.000000e+00
 0.000000e+00 0.000000e+00 0.000000e+00 8.722661e-01 1.277339e-01
 0.000000e+00 0.000000e+00 0.000000e+00 0.000000e+00 0.000000e+00
<ENDHMM>
~h "eh"
<BEGINHMM>
<NUMSTATES> 5
<STATE> 2
<MEAN> 39
 -7.800743e+00 -7.088001e+00 -3.115750e+00 -8.915814e+00 -5.884681e+00 -6.415754e+00 -9.357121e+00 -7.234875e+00 -7.215062e+00 -5.631107e+00 -6.809514e+00 -3.848185e+00 4.497624e+01 3.567801e-02 -2.305558e-02 4.870697e-02 -3.218487e-02 -1.127101e-02 -3.072017e-02 -7.233951e-03 -8.214055e-03 -4.126477e-02 -1.011686e-02 -1.614567e-02 -7.264747e-03 7.736009e-02 -1.421817e-03 7.454817e-04 1.214633e-03 1.847709e-03 -9.724961e-05 5.519731e-04 7.366870e-04 -2.601430e-04 1.674178e-04 -7.912486e-04 1.952805e-04 6.925588e-04 2.206620e-05
<VARIANCE> 39
 1.073841e+02 1.182866e+02 8.144644e+01 9.018262e+01 6.356180e+01 7.970329e+01 9.025328e+01 9.128551e+01 6.916500e+01 6.851678e+01 6.197058e+01 4.543013e+01 2.029371e+02 3.771818e+00 4.726289e+00 4.152886e+00 4.832215e+00 3.830909e+00 4.167645e+00 4.472270e+00 4.536841e+00 3.744693e+00 3.867891e+00 3.904978e+00 3.372474e+00 4.672771e+00 5.350794e-01 6.344496e-01 6.289227e-01 7.736122e-01 6.917865e-01 7.259536e-01 7.959998e-01 8.174786e-01 6.780789e-01 6.868876e-01 7.090152e-01 6.374452e-01 6.244246e-01
<GCONST> 1.427995e+02
<STATE> 3
<MEAN> 39
 -7.665250e+00 -7.159298e+00 -2.941890e+00 -9.022003e+00 -5.933763e+00 -6.530795e+00 -9.387047e+00 -7.270624e+00 -7.357334e+00 -5.663655e+00 -6.864560e+00 -3.866252e+00 4.526063e+01 3.023604e-02 -2.024844e-02 5.025659e-02 -2.618953e-02 -1.161950e-02 -2.802431e-02 -4.746962e-03 -8.639146e-03 -3.893672e-02 -1.183965e-02 -1.466833e-02 -4.013535e-03 7.532844e-02 -8.857512e-04 7.776833e-04 2.108673e-04 1.590831e-03 -2.898682e-04 1.240359e-03 8.479244e-04 3.386309e-04 6.412286e-04 -4.504000e-04 3.402300e-04 9.231510e-04 -4.910697e-04
<VARIANCE> 39
 1.062235e+02 1.189123e+02 8.257964e+01 9.014594e+01 6.360445e+01 8.051505e+01 9.012228e+01 9.293406e+01 6.907086e+01 6.865884e+01 6.165228e+01 4.547898e+01 2.000192e+02 3.774299e+00 4.746743e+00 4.224896e+00 4.846231e+00 3.832321e+00 4.153964e+00 4.494184e+00 4.541327e+00 3.743057e+00 3.880665e+00 3.892639e+00 3.376810e+00 4.678899e+00 5.379994e-01 6.382408e-01 6.393460e-01 7.746441e-01 6.929012e-01 7.210134e-01 8.018406e-01 8.140197e-01 6.782297e-01 6.888698e-01 7.080171e-01 6.369467e-01 6.262165e-01
<GCONST> 1.428778e+02
<STATE> 4
<MEAN> 39
 -7.406524e+00 -7.009823e+00 -2.795486e+00 -9.200308e+00 -6.298649e+00 -6.860605e+00 -9.225891e+00 -7.470157e+00 -7.461745e+00 -5.864052e+00 -6.664876e+00 -3.768103e+00 4.563948e+01 2.030229e-02 -1.131910e-02 3.741048e-02 -1.337878e-02 -1.091876e-02 -1.733751e-02 1.352974e-03 -6.092799e-03 -2.534403e-02 -8.567858e-03 -1.012560e-02 7.782577e-04 5.489598e-02 -1.057875e-03 7.606631e-04 -3.237731e-04 1.405210e-03 -2.322289e-04 1.721771e-03 1.378591e-03 8.656716e-04 1.052400e-03 -3.887221e-04 2.123031e-04 6.878193e-04 -1.277397e-03
<VARIANCE> 39
 1.059037e+02 1.241546e+02 8.345468e+01 9.126109e+01 6.408939e+01 8.215302e+01 9.535801e+01 9.585367e+01 6.752597e+01 6.821095e+01 6.183764e+01 4.457880e+01 1.904390e+02 3.829279e+00 4.782521e+00 4.201305e+00 4.979787e+00 3.894233e+00 4.231818e+00 4.740190e+00 4.470308e+00 3.690651e+00 3.912163e+00 3.758858e+00 3.336942e+00 4.673078e+00 5.501548e-01 6.390706e-01 6.320385e-01 7.913256e-01 6.982087e-01 7.304283e-01 8.444020e-01 7.932017e-01 6.659678e-01 6.969851e-01 6.795744e-01 6.326067e-01 6.258815e-01
<GCONST> 1.430472e+02
<TRANSP> 5
 0.000000e+00 1.000000e+00 0.000000e+00 0.000000e+00 0.000000e+00
 0.000000e+00 7.429619e-01 2.570381e-01 0.000000e+00 0.000000e+00
 0.000000e+00 0.000000e+00 7.429618e-01 2.570381e-01 0.000000e+00
 0.000000e+00 0.000000e+00 0.000000e+00 8.754148e-01 1.245852e-01
 0.000000e+00 0.000000e+00 0.000000e+00 0.000000e+00 0.000000e+00
<ENDHMM>
~h "er"
<BEGINHMM>
<NUMSTATES> 5
<STATE> 2
<MEAN> 39
 -1.109391e+01 -5.317035e+00 -3.623109e+00 -5.022542e+00 -4.214098e+00 -5.664585e+00 -6.806233e+00 -4.718731e+00 -4.357594e+00 -4.640126e+00 -5.050929e+00 -2.983886e+00 3.693981e+01 -1.720696e-02 1.440500e-02 -1.932248e-03 -8.113021e-03 1.057419e-02 1.561426e-02 4.142470e-03 -6.449402e-04 -1.082310e-02 4.087791e-02 4.492756e-02 6.817088e-03 -4.234707e-02 4.085606e-05 -1.970205e-03 -1.709892e-03 -1.385938e-03 -1.071689e-04 -6.952786e-04 1.111639e-04 7.269352e-04 -3.076526e-04 9.053507e-04 1.772382e-03 1.264544e-03 1.297412e-03
<VARIANCE> 39
