~o
<STREAMINFO> 1 39
<VECSIZE> 39<NULLD><MFCC_D_A_0><DIAGC>
~h "proto"
<BEGINHMM>
<NUMSTATES> 5
<STATE> 2
<MEAN> 39
 -1.015380e+01 -5.311804e+00 -2.768106e+00 -7.136415e+00 -5.045733e+00 -5.743131e+00 -7.868393e+00 -6.580287e+00 -6.269258e+00 -5.213106e+00 -5.966714e+00 -2.667772e+00 4.066071e+01 1.197404e-03 -1.952508e-04 -1.323971e-03 -3.017478e-03 -1.933387e-03 2.030401e-04 1.191637e-03 -1.947935e-03 -2.725616e-03 -1.986959e-03 2.169111e-05 -1.326066e-04 3.027211e-03 -2.095730e-05 -6.851186e-05 -5.426137e-04 -2.427496e-04 -2.223940e-04 -6.723683e-04 -2.500122e-04 1.848585e-04 -2.777602e-04 -4.260054e-04 2.756749e-04 3.865603e-04 6.679298e-06
<VARIANCE> 39
 1.056728e+02 1.007479e+02 8.429994e+01 9.942006e+01 6.806606e+01 8.983453e+01 9.008459e+01 8.422887e+01 6.760026e+01 5.930488e+01 5.867880e+01 3.761406e+01 2.492811e+02 3.134116e+00 4.056084e+00 3.541401e+00 4.153850e+00 3.793178e+00 4.067777e+00 3.960225e+00 3.992996e+00 3.424699e+00 3.554439e+00 3.423477e+00 2.803286e+00 3.357625e+00 4.554772e-01 5.460023e-01 5.249994e-01 6.363514e-01 6.696831e-01 7.014369e-01 7.209301e-01 7.314957e-01 6.167893e-01 6.404546e-01 6.436139e-01 5.291326e-01 4.506370e-01
<GCONST> 1.391647e+02
<STATE> 3
<MEAN> 39
 -1.015380e+01 -5.311804e+00 -2.768106e+00 -7.136415e+00 -5.045733e+00 -5.743131e+00 -7.868393e+00 -6.580287e+00 -6.269258e+00 -5.213106e+00 -5.966714e+00 -2.667772e+00 4.066071e+01 1.197404e-03 -1.952508e-04 -1.323971e-03 -3.017478e-03 -1.933387e-03 2.030401e-04 1.191637e-03 -1.947935e-03 -2.725616e-03 -1.986959e-03 2.169111e-05 -1.326066e-04 3.027211e-03 -2.095730e-05 -6.851186e-05 -5.426137e-04 -2.427496e-04 -2.223940e-04 -6.723683e-04 -2.500122e-04 1.848585e-04 -2.777602e-04 -4.260054e-04 2.756749e-04 3.865603e-04 6.679298e-06
<VARIANCE> 39
 1.056728e+02 1.007479e+02 8.429994e+01 9.942006e+01 6.806606e+01 8.983453e+01 9.008459e+01 8.422887e+01 6.760026e+01 5.930488e+01 5.867880e+01 3.761406e+01 2.492811e+02 3.134116e+00 4.056084e+00 3.541401e+00 4.153850e+00 3.793178e+00 4.067777e+00 3.960225e+00 3.992996e+00 3.424699e+00 3.554439e+00 3.423477e+00 2.803286e+00 3.357625e+00 4.554772e-01 5.460023e-01 5.249994e-01 6.363514e-01 6.696831e-01 7.014369e-01 7.209301e-01 7.314957e-01 6.167893e-01 6.404546e-01 6.436139e-01 5.291326e-01 4.506370e-01
<GCONST> 1.391647e+02
<STATE> 4
<MEAN> 39
 -1.015380e+01 -5.311804e+00 -2.768106e+00 -7.136415e+00 -5.045733e+00 -5.743131e+00 -7.868393e+00 -6.580287e+00 -6.269258e+00 -5.213106e+00 -5.966714e+00 -2.667772e+00 4.066071e+01 1.197404e-03 -1.952508e-04 -1.323971e-03 -3.017478e-03 -1.933387e-03 2.030401e-04 1.191637e-03 -1.947935e-03 -2.725616e-03 -1.986959e-03 2.169111e-05 -1.326066e-04 3.027211e-03 -2.095730e-05 -6.851186e-05 -5.426137e-04 -2.427496e-04 -2.223940e-04 -6.723683e-04 -2.500122e-04 1.848585e-04 -2.777602e-04 -4.260054e-04 2.756749e-04 3.865603e-04 6.679298e-06
<VARIANCE> 39
 1.056728e+02 1.007479e+02 8.429994e+01 9.942006e+01 6.806606e+01 8.983453e+01 9.008459e+01 8.422887e+01 6.760026e+01 5.930488e+01 5.867880e+01 3.761406e+01 2.492811e+02 3.134116e+00 4.056084e+00 3.541401e+00 4.153850e+00 3.793178e+00 4.067777e+00 3.960225e+00 3.992996e+00 3.424699e+00 3.554439e+00 3.423477e+00 2.803286e+00 3.357625e+00 4.554772e-01 5.460023e-01 5.249994e-01 6.363514e-01 6.696831e-01 7.014369e-01 7.209301e-01 7.314957e-01 6.167893e-01 6.404546e-01 6.436139e-01 5.291326e-01 4.506370e-01
<GCONST> 1.391647e+02
<TRANSP> 5
 0.000000e+00 1.000000e+00 0.000000e+00 0.000000e+00 0.000000e+00
 0.000000e+00 6.000000e-01 4.000000e-01 0.000000e+00 0.000000e+00
 0.000000e+00 0.000000e+00 6.000000e-01 4.000000e-01 0.000000e+00
 0.000000e+00 0.000000e+00 0.000000e+00 7.000000e-01 3.000000e-01
 0.000000e+00 0.000000e+00 0.000000e+00 0.000000e+00 0.000000e+00
<ENDHMM>
