~o
<STREAMINFO> 1 39
<VECSIZE> 39<NULLD><MFCC_D_A_0><DIAGC>
~h "proto"
<BEGINHMM>
<NUMSTATES> 5
<STATE> 2
<MEAN> 39
 -1.015573e+01 -5.284526e+00 -2.740139e+00 -7.190528e+00 -5.071496e+00 -5.747775e+00 -7.855690e+00 -6.617738e+00 -6.295227e+00 -5.235680e+00 -5.918879e+00 -2.667834e+00 4.073689e+01 1.599632e-03 2.508354e-04 -9.351424e-04 -2.789449e-03 -1.880367e-03 3.750252e-04 1.315648e-03 -1.940686e-03 -2.670893e-03 -2.027145e-03 -7.644151e-05 -6.386211e-05 3.293019e-03 6.740984e-05 5.188065e-06 -4.196166e-04 -1.283451e-04 -1.097911e-04 -6.822128e-04 -2.051344e-04 2.297458e-04 -3.034817e-04 -4.376346e-04 3.234340e-04 3.579040e-04 6.676869e-05
<VARIANCE> 39
 1.057967e+02 1.016814e+02 8.437418e+01 9.974535e+01 6.814032e+01 8.963307e+01 8.958984e+01 8.495027e+01 6.832957e+01 5.904484e+01 5.882150e+01 3.772883e+01 2.493949e+02 3.147002e+00 4.073089e+00 3.561156e+00 4.160675e+00 3.808965e+00 4.063601e+00 3.957294e+00 4.003178e+00 3.433112e+00 3.541854e+00 3.446301e+00 2.813308e+00 3.372612e+00 4.588905e-01 5.465352e-01 5.283151e-01 6.363600e-01 6.732730e-01 7.018059e-01 7.186607e-01 7.318866e-01 6.174269e-01 6.391006e-01 6.487951e-01 5.303007e-01 4.513711e-01
<GCONST> 1.392562e+02
<STATE> 3
<MEAN> 39
 -1.015573e+01 -5.284526e+00 -2.740139e+00 -7.190528e+00 -5.071496e+00 -5.747775e+00 -7.855690e+00 -6.617738e+00 -6.295227e+00 -5.235680e+00 -5.918879e+00 -2.667834e+00 4.073689e+01 1.599632e-03 2.508354e-04 -9.351424e-04 -2.789449e-03 -1.880367e-03 3.750252e-04 1.315648e-03 -1.940686e-03 -2.670893e-03 -2.027145e-03 -7.644151e-05 -6.386211e-05 3.293019e-03 6.740984e-05 5.188065e-06 -4.196166e-04 -1.283451e-04 -1.097911e-04 -6.822128e-04 -2.051344e-04 2.297458e-04 -3.034817e-04 -4.376346e-04 3.234340e-04 3.579040e-04 6.676869e-05
<VARIANCE> 39
 1.057967e+02 1.016814e+02 8.437418e+01 9.974535e+01 6.814032e+01 8.963307e+01 8.958984e+01 8.495027e+01 6.832957e+01 5.904484e+01 5.882150e+01 3.772883e+01 2.493949e+02 3.147002e+00 4.073089e+00 3.561156e+00 4.160675e+00 3.808965e+00 4.063601e+00 3.957294e+00 4.003178e+00 3.433112e+00 3.541854e+00 3.446301e+00 2.813308e+00 3.372612e+00 4.588905e-01 5.465352e-01 5.283151e-01 6.363600e-01 6.732730e-01 7.018059e-01 7.186607e-01 7.318866e-01 6.174269e-01 6.391006e-01 6.487951e-01 5.303007e-01 4.513711e-01
<GCONST> 1.392562e+02
<STATE> 4
<MEAN> 39
 -1.015573e+01 -5.284526e+00 -2.740139e+00 -7.190528e+00 -5.071496e+00 -5.747775e+00 -7.855690e+00 -6.617738e+00 -6.295227e+00 -5.235680e+00 -5.918879e+00 -2.667834e+00 4.073689e+01 1.599632e-03 2.508354e-04 -9.351424e-04 -2.789449e-03 -1.880367e-03 3.750252e-04 1.315648e-03 -1.940686e-03 -2.670893e-03 -2.027145e-03 -7.644151e-05 -6.386211e-05 3.293019e-03 6.740984e-05 5.188065e-06 -4.196166e-04 -1.283451e-04 -1.097911e-04 -6.822128e-04 -2.051344e-04 2.297458e-04 -3.034817e-04 -4.376346e-04 3.234340e-04 3.579040e-04 6.676869e-05
<VARIANCE> 39
 1.057967e+02 1.016814e+02 8.437418e+01 9.974535e+01 6.814032e+01 8.963307e+01 8.958984e+01 8.495027e+01 6.832957e+01 5.904484e+01 5.882150e+01 3.772883e+01 2.493949e+02 3.147002e+00 4.073089e+00 3.561156e+00 4.160675e+00 3.808965e+00 4.063601e+00 3.957294e+00 4.003178e+00 3.433112e+00 3.541854e+00 3.446301e+00 2.813308e+00 3.372612e+00 4.588905e-01 5.465352e-01 5.283151e-01 6.363600e-01 6.732730e-01 7.018059e-01 7.186607e-01 7.318866e-01 6.174269e-01 6.391006e-01 6.487951e-01 5.303007e-01 4.513711e-01
<GCONST> 1.392562e+02
<TRANSP> 5
 0.000000e+00 1.000000e+00 0.000000e+00 0.000000e+00 0.000000e+00
 0.000000e+00 6.000000e-01 4.000000e-01 0.000000e+00 0.000000e+00
 0.000000e+00 0.000000e+00 6.000000e-01 4.000000e-01 0.000000e+00
 0.000000e+00 0.000000e+00 0.000000e+00 7.000000e-01 3.000000e-01
 0.000000e+00 0.000000e+00 0.000000e+00 0.000000e+00 0.000000e+00
<ENDHMM>
