~o
<STREAMINFO> 1 39
<VECSIZE> 39<NULLD><MFCC_D_A_0><DIAGC>
~h "b"
<BEGINHMM>
<NUMSTATES> 5
<STATE> 2
<MEAN> 39
 -1.647931e+00 -7.591436e+00 -5.721484e+00 -9.723691e+00 -8.699928e+00 -1.197315e+01 -1.166319e+01 -6.414447e+00 -7.842885e+00 -8.707149e+00 -6.276470e+00 -5.217157e+00 4.839015e+01 -2.165837e-01 3.481799e-01 2.460766e-02 6.078957e-01 -2.323982e-01 2.415970e-01 -6.244654e-02 -1.295245e-02 -6.799885e-02 -2.542948e-01 2.058841e-01 -1.964459e-01 -8.583733e-01 -8.031219e-02 -3.849848e-02 -3.445639e-02 -1.411843e-02 5.003562e-02 -1.289495e-02 3.989602e-02 -2.511208e-02 -2.119545e-02 1.608159e-02 -4.213085e-02 -3.162659e-03 -7.899732e-03
<VARIANCE> 39
 9.674875e+01 9.463192e+01 1.127061e+02 6.367794e+01 7.915166e+01 7.086371e+01 5.694242e+01 1.163704e+02 3.400894e+01 7.724504e+01 5.713700e+01 3.325630e+01 6.684776e+01 1.635731e+00 2.253544e+00 4.163782e+00 3.321412e+00 3.621427e+00 3.076203e+00 2.699888e+00 4.125831e+00 3.136261e+00 4.586557e+00 2.348223e+00 2.436888e+00 1.164067e+00 2.340129e-01 2.511785e-01 3.740804e-01 4.734092e-01 5.042164e-01 3.951230e-01 5.669948e-01 5.794362e-01 6.589824e-01 7.039268e-01 4.578663e-01 4.291071e-01 1.347904e-01
<GCONST> 1.283587e+02
<STATE> 3
<MEAN> 39
 -4.048187e+00 -5.078198e+00 -3.630246e+00 -8.706492e+00 -1.064675e+01 -1.029333e+01 -1.101040e+01 -8.130378e+00 -7.923804e+00 -9.082406e+00 -6.885537e+00 -4.782627e+00 4.507354e+01 -3.289669e-01 4.489292e-01 -2.690814e-01 4.593559e-01 -1.033483e-01 5.141538e-01 1.856049e-01 -2.409939e-01 1.099667e-02 6.135771e-02 1.101800e-01 -1.154872e-01 -1.075563e+00 -8.086704e-02 -7.542387e-02 2.264309e-03 -1.062386e-03 7.397699e-02 -4.192178e-02 9.526945e-02 6.564014e-02 5.558429e-02 4.773818e-02 -5.514699e-02 8.008669e-03 4.160030e-02
<VARIANCE> 39
 9.296917e+01 7.995472e+01 6.411723e+01 4.591000e+01 8.024069e+01 5.108986e+01 5.379219e+01 1.117905e+02 3.639604e+01 6.533820e+01 4.707367e+01 2.981213e+01 8.515675e+01 1.631310e+00 1.834824e+00 3.548964e+00 2.551716e+00 2.543319e+00 2.080889e+00 2.359814e+00 3.368643e+00 2.659966e+00 3.658827e+00 2.051594e+00 2.163167e+00 1.136953e+00 1.955104e-01 2.045129e-01 4.135337e-01 4.128239e-01 4.261413e-01 3.403802e-01 4.364833e-01 5.031386e-01 5.642308e-01 6.462937e-01 4.090803e-01 4.755475e-01 1.342144e-01
<GCONST> 1.229091e+02
<STATE> 4
<MEAN> 39
 -6.786795e+00 -3.364552e+00 -4.922375e+00 -7.561860e+00 -1.072550e+01 -8.120737e+00 -9.234729e+00 -9.768539e+00 -7.226538e+00 -8.677102e+00 -6.416093e+00 -4.585453e+00 4.012351e+01 -4.520663e-01 1.322060e-01 -1.921784e-01 4.879845e-01 3.859031e-01 4.289875e-01 3.350900e-01 9.648277e-02 2.480611e-01 1.579698e-01 3.744395e-02 1.118528e-02 -9.152560e-01 -3.537841e-02 -1.549823e-01 1.488598e-01 -2.893817e-02 1.119639e-01 -1.286458e-01 -2.518354e-02 1.373368e-01 6.288063e-02 5.440360e-02 1.155652e-02 1.281892e-01 2.262344e-01
<VARIANCE> 39
 8.563964e+01 5.132044e+01 4.315922e+01 3.364022e+01 5.579504e+01 3.355040e+01 4.669333e+01 8.481647e+01 3.633748e+01 4.670260e+01 3.718075e+01 2.780616e+01 9.070042e+01 1.413145e+00 1.659374e+00 2.684391e+00 2.217179e+00 2.288864e+00 1.947757e+00 1.901117e+00 2.902491e+00 2.532461e+00 2.705208e+00 1.988696e+00 1.995829e+00 1.210665e+00 2.082878e-01 2.867040e-01 4.203693e-01 4.637669e-01 4.408391e-01 3.294652e-01 3.714454e-01 5.011293e-01 4.942653e-01 5.807342e-01 4.392083e-01 4.959551e-01 2.016882e-01
<GCONST> 1.189460e+02
<TRANSP> 5
 0.000000e+00 1.000000e+00 0.000000e+00 0.000000e+00 0.000000e+00
 0.000000e+00 6.125265e-01 3.874735e-01 0.000000e+00 0.000000e+00
 0.000000e+00 0.000000e+00 5.566000e-01 4.434001e-01 0.000000e+00
 0.000000e+00 0.000000e+00 0.000000e+00 6.472378e-01 3.527623e-01
 0.000000e+00 0.000000e+00 0.000000e+00 0.000000e+00 0.000000e+00
<ENDHMM>
~h "d"
<BEGINHMM>
<NUMSTATES> 5
<STATE> 2
<MEAN> 39
 -7.405039e+00 -6.678275e+00 -3.242229e+00 -8.231997e+00 -6.687624e+00 -7.750448e+00 -9.474463e+00 -9.493843e+00 -8.791409e+00 -8.228436e+00 -5.440526e+00 -3.257496e+00 4.528852e+01 -2.216959e-02 -1.756433e-01 3.860539e-01 -6.232899e-01 3.060306e-02 -1.659423e-01 -2.689686e-02 1.208287e-01 -1.696343e-01 1.179469e-01 -5.404652e-02 3.083678e-01 6.527654e-01 6.415097e-02 -7.745583e-02 1.272472e-01 -2.242517e-01 -3.847678e-02 -2.690747e-02 -1.182284e-02 2.539552e-02 -6.054534e-02 2.877564e-02 -8.637884e-02 -1.975140e-02 2.876851e-01
<VARIANCE> 39
 9.070859e+01 1.187211e+02 6.749787e+01 7.550144e+01 6.932581e+01 8.700901e+01 7.367103e+01 7.262161e+01 6.583395e+01 6.553500e+01 5.931047e+01 4.967831e+01 1.371628e+02 4.626559e+00 5.254412e+00 5.053432e+00 7.559080e+00 5.439691e+00 6.248382e+00 5.097762e+00 5.126994e+00 4.977384e+00 4.378921e+00 4.437808e+00 3.710473e+00 7.295935e+00 6.050020e-01 7.269673e-01 7.620143e-01 1.078223e+00 9.257364e-01 9.760375e-01 9.705082e-01 8.891366e-01 8.583626e-01 8.264092e-01 8.078555e-01 6.801618e-01 1.061781e+00
<GCONST> 1.474113e+02
<STATE> 3
<MEAN> 39
 -7.134645e+00 -7.068326e+00 -1.943215e+00 -1.035951e+01 -6.786169e+00 -8.203856e+00 -9.315291e+00 -9.077078e+00 -9.294853e+00 -7.607761e+00 -5.896154e+00 -2.756608e+00 4.755890e+01 7.970008e-02 -2.829439e-01 3.865124e-01 -6.110097e-01 1.395256e-02 2.379270e-02 1.152624e-01 1.722270e-01 -3.355791e-01 1.212592e-01 -2.465175e-01 9.029902e-02 9.076225e-01 4.697688e-02 9.126214e-03 -8.321512e-02 1.351505e-01 -2.301328e-02 9.174520e-02 -2.972941e-03 1.738170e-02 2.217496e-04 -1.267594e-02 -5.359313e-02 -1.235837e-01 -5.007859e-02
<VARIANCE> 39
 8.942215e+01 1.218381e+02 8.214151e+01 9.127903e+01 7.683316e+01 9.280942e+01 7.702724e+01 7.346644e+01 6.403583e+01 7.112428e+01 5.984754e+01 5.206321e+01 1.169361e+02 4.800542e+00 6.122434e+00 5.285796e+00 7.807390e+00 5.840602e+00 6.754975e+00 6.735223e+00 5.649023e+00 5.589934e+00 4.968097e+00 5.285270e+00 4.363907e+00 8.610436e+00 7.294983e-01 7.807110e-01 8.631934e-01 1.314345e+00 9.956843e-01 1.165035e+00 1.036812e+00 9.470837e-01 9.400587e-01 9.549630e-01 8.518221e-01 7.915183e-01 1.149722e+00
<GCONST> 1.509995e+02
<STATE> 4
<MEAN> 39
 -7.096159e+00 -7.289251e+00 -2.250164e+00 -1.062050e+01 -6.767756e+00 -7.807755e+00 -8.090596e+00 -7.961066e+00 -9.220983e+00 -7.465199e+00 -6.380751e+00 -2.955458e+00 4.845580e+01 4.773086e-02 -5.235916e-02 2.797721e-02 5.142500e-02 -6.213637e-02 1.892070e-01 8.713413e-02 7.877354e-02 -9.781621e-02 2.453124e-02 -2.052823e-01 -1.536425e-01 2.480603e-01 1.911624e-02 6.658852e-02 -6.899261e-02 1.144895e-01 -3.425706e-02 -2.910082e-02 -9.069712e-02 -2.955587e-02 1.301880e-01 2.968182e-02 7.001011e-03 -8.026499e-02 -1.406170e-01
<VARIANCE> 39
 9.139240e+01 1.207636e+02 8.058435e+01 9.211109e+01 8.221043e+01 8.390522e+01 9.485795e+01 7.620894e+01 6.317614e+01 6.352472e+01 6.034126e+01 4.430442e+01 1.090179e+02 4.026930e+00 4.760693e+00 4.115499e+00 5.306886e+00 4.964224e+00 5.788303e+00 6.844132e+00 4.783106e+00 4.697652e+00 4.608397e+00 4.695819e+00 4.333817e+00 6.747977e+00 6.314190e-01 6.154869e-01 6.377841e-01 9.510446e-01 8.625256e-01 1.069011e+00 1.150891e+00 8.763283e-01 8.448342e-01 8.479720e-01 8.536341e-01 7.204205e-01 8.677815e-01
<GCONST> 1.469051e+02
<TRANSP> 5
 0.000000e+00 1.000000e+00 0.000000e+00 0.000000e+00 0.000000e+00
 0.000000e+00 4.500449e-01 5.499551e-01 0.000000e+00 0.000000e+00
 0.000000e+00 0.000000e+00 4.764079e-01 5.235921e-01 0.000000e+00
 0.000000e+00 0.000000e+00 0.000000e+00 5.408946e-01 4.591054e-01
 0.000000e+00 0.000000e+00 0.000000e+00 0.000000e+00 0.000000e+00
<ENDHMM>
~h "f"
<BEGINHMM>
<NUMSTATES> 5
<STATE> 2
<MEAN> 39
 -8.733987e+00 -5.778090e+00 -1.647416e+00 -8.824491e+00 -7.126291e+00 -6.807026e+00 -1.058244e+01 -1.038344e+01 -5.996269e+00 -6.244793e+00 -7.957102e+00 -4.175248e+00 4.386723e+01 1.043801e-01 -1.701882e-01 9.561887e-02 -6.515035e-02 -1.879487e-02 -2.577628e-01 -2.915197e-01 -1.948811e-01 1.288847e-01 -3.120930e-03 -4.146323e-01 -3.190900e-02 4.752985e-01 -2.531036e-02 -7.040962e-02 -5.968356e-02 7.738857e-03 3.580890e-02 -1.332490e-01 -2.029161e-04 3.373872e-02 -1.165764e-01 -2.004689e-02 1.716240e-01 1.167254e-01 1.589756e-01
<VARIANCE> 39
 7.350260e+01 4.661545e+01 9.760740e+01 9.064500e+01 5.313903e+01 7.403204e+01 6.636752e+01 7.462235e+01 6.437241e+01 6.436568e+01 4.562883e+01 4.975229e+01 1.230579e+02 4.164412e+00 4.346962e+00 3.621634e+00 5.986399e+00 3.132553e+00 4.758848e+00 5.792196e+00 5.046800e+00 4.544448e+00 3.362257e+00 4.806607e+00 3.516339e+00 1.110195e+01 4.831075e-01 5.187652e-01 5.041640e-01 6.769050e-01 5.321675e-01 7.873765e-01 9.006875e-01 8.147286e-01 7.001800e-01 5.684125e-01 8.767340e-01 6.512771e-01 9.055501e-01
<GCONST> 1.413504e+02
<STATE> 3
<MEAN> 39
 -8.227720e+00 -6.902105e+00 -4.209558e-01 -9.661038e+00 -8.166335e+00 -8.955372e+00 -1.171206e+01 -1.054158e+01 -6.759374e+00 -5.665999e+00 -8.208372e+00 -3.281082e+00 4.653579e+01 2.576458e-01 -3.929971e-01 -4.159644e-02 9.573329e-02 -9.370510e-02 -4.748996e-01 -1.642130e-01 5.711437e-02 -1.195591e-01 -1.708328e-01 -1.946557e-02 4.372079e-02 7.087655e-01 -4.300055e-02 1.695957e-02 -6.375879e-02 9.651358e-02 2.983821e-02 8.382320e-02 1.219125e-01 1.017065e-01 -4.967124e-02 -3.974794e-02 1.729136e-01 5.504591e-02 -1.635701e-01
<VARIANCE> 39
 7.263503e+01 5.236067e+01 9.713551e+01 9.986233e+01 5.530013e+01 8.362325e+01 6.915500e+01 7.469108e+01 6.306858e+01 7.302168e+01 4.962164e+01 4.505400e+01 1.103784e+02 4.325697e+00 5.337956e+00 3.206023e+00 4.928497e+00 3.650200e+00 6.346981e+00 4.622707e+00 4.568857e+00 3.707586e+00 4.625755e+00 4.478796e+00 3.368129e+00 1.090541e+01 6.926721e-01 5.340248e-01 5.566819e-01 8.078392e-01 5.366133e-01 8.509300e-01 9.707146e-01 8.877777e-01 6.933274e-01 7.885353e-01 9.008475e-01 6.315299e-01 1.018007e+00
<GCONST> 1.431018e+02
<STATE> 4
<MEAN> 39
 -9.624948e+00 -7.301679e+00 -1.860762e-01 -8.099393e+00 -8.873285e+00 -9.531719e+00 -1.158333e+01 -1.028501e+01 -6.803591e+00 -6.566425e+00 -7.112896e+00 -2.932587e+00 4.559414e+01 -2.061568e-01 2.655564e-02 -1.569939e-01 4.821645e-01 1.877626e-01 3.490527e-02 1.068677e-01 -5.604721e-02 -6.649632e-02 -5.275535e-02 3.309204e-01 7.996780e-02 -2.203728e-01 4.928767e-02 2.103792e-02 -5.386458e-02 -5.341056e-02 -1.599370e-02 2.570816e-02 9.067859e-03 -1.334080e-02 -5.306049e-02 -5.308504e-03 2.868233e-02 4.715627e-02 -1.305026e-02
<VARIANCE> 39
 8.102871e+01 5.104324e+01 6.604008e+01 1.116771e+02 5.230984e+01 8.430220e+01 5.124707e+01 6.959540e+01 5.695819e+01 6.561017e+01 4.181987e+01 3.585884e+01 1.075428e+02 3.214727e+00 2.851549e+00 2.547441e+00 3.160114e+00 2.729415e+00 3.762738e+00 4.062210e+00 4.534696e+00 3.416556e+00 4.176001e+00 3.168380e+00 2.778485e+00 2.586406e+00 6.083207e-01 4.392788e-01 3.804674e-01 5.518993e-01 4.596867e-01 5.508993e-01 7.708181e-01 8.310248e-01 6.134890e-01 6.836408e-01 6.310123e-01 5.192845e-01 4.291489e-01
<GCONST> 1.334960e+02
<TRANSP> 5
 0.000000e+00 1.000000e+00 0.000000e+00 0.000000e+00 0.000000e+00
 0.000000e+00 4.865611e-01 5.134388e-01 0.000000e+00 0.000000e+00
 0.000000e+00 0.000000e+00 5.291894e-01 4.708107e-01 0.000000e+00
 0.000000e+00 0.000000e+00 0.000000e+00 6.790096e-01 3.209905e-01
 0.000000e+00 0.000000e+00 0.000000e+00 0.000000e+00 0.000000e+00
<ENDHMM>
~h "g"
<BEGINHMM>
<NUMSTATES> 5
<STATE> 2
<MEAN> 39
 -9.082602e+00 -9.864553e+00 -9.582035e+00 -3.327909e+00 -5.627105e+00 -5.554529e+00 -7.666847e+00 -4.300439e+00 -7.031641e+00 -5.397794e+00 -8.293494e+00 -4.674594e+00 4.694920e+01 8.011736e-01 1.134084e-01 -1.920573e-01 -2.585871e-01 -7.287452e-02 -4.898372e-01 -2.394207e-01 -3.001764e-01 -4.154974e-01 -3.520203e-01 -6.519434e-02 -2.417243e-01 1.032345e+00 -1.486340e-02 3.098782e-02 1.348524e-01 -1.855365e-01 -2.735909e-02 2.296496e-02 1.234126e-02 1.121292e-02 -4.337771e-02 -4.388862e-03 -1.223687e-01 -3.014986e-02 1.883326e-01
<VARIANCE> 39
 1.786882e+02 1.396808e+02 6.717062e+01 3.527275e+01 5.114342e+01 9.637801e+01 4.284738e+01 6.745148e+01 6.808524e+01 5.157692e+01 6.314408e+01 3.789038e+01 1.401802e+02 9.509345e+00 8.478916e+00 6.425649e+00 5.201632e+00 6.588480e+00 7.213131e+00 4.422381e+00 6.314480e+00 5.778279e+00 5.433561e+00 5.410088e+00 3.123931e+00 1.369515e+01 1.118836e+00 1.173490e+00 1.103949e+00 1.088837e+00 1.142012e+00 1.139709e+00 7.523177e-01 9.461030e-01 9.804841e-01 9.470429e-01 1.085572e+00 4.875033e-01 2.064882e+00
<GCONST> 1.513068e+02
<STATE> 3
<MEAN> 39
 -7.622820e+00 -9.797963e+00 -7.393898e+00 -5.686094e+00 -5.845113e+00 -6.164545e+00 -9.429583e+00 -5.435755e+00 -8.442139e+00 -5.581184e+00 -1.011405e+01 -6.142985e+00 5.119654e+01 3.767835e-01 4.208748e-02 7.123652e-01 -7.047274e-01 -4.141953e-01 -3.416774e-01 -3.794431e-01 -3.042896e-01 -3.906665e-01 -2.013553e-01 -4.422854e-01 -2.720533e-01 1.183583e+00 -8.138118e-02 -2.049449e-02 1.301808e-01 -7.751900e-02 -1.044295e-01 1.576089e-01 1.172317e-01 -6.757471e-04 7.520906e-02 7.578509e-02 -7.975016e-02 2.476302e-03 -6.190206e-02
<VARIANCE> 39
 1.302610e+02 1.642194e+02 1.025553e+02 5.701223e+01 6.199349e+01 9.252520e+01 6.613573e+01 7.403014e+01 6.017743e+01 6.277128e+01 7.283712e+01 5.191298e+01 1.388032e+02 5.764836e+00 8.907211e+00 7.860209e+00 6.537900e+00 6.649465e+00 9.200279e+00 5.572208e+00 4.442116e+00 4.746451e+00 5.991293e+00 5.509780e+00 3.477262e+00 1.419637e+01 7.688200e-01 9.411033e-01 1.076681e+00 1.180363e+00 1.231156e+00 1.766421e+00 1.024559e+00 8.680303e-01 7.690405e-01 1.057212e+00 1.189142e+00 6.129491e-01 1.771512e+00
<GCONST> 1.536585e+02
<STATE> 4
<MEAN> 39
 -5.955215e+00 -6.001966e+00 -4.405262e-01 -1.169905e+01 -9.534758e+00 -9.809833e+00 -1.248176e+01 -1.228080e+01 -9.564572e+00 -4.596448e+00 -9.283097e+00 -4.661883e+00 5.136653e+01 3.331884e-02 -7.796830e-02 4.595145e-02 -3.321815e-02 4.390773e-02 -9.207495e-03 -4.794756e-02 1.162980e-02 2.170137e-02 5.500615e-02 -3.150428e-02 5.224044e-02 7.016441e-02 -4.600680e-03 -3.395511e-03 -2.190917e-02 1.392506e-02 2.095585e-02 1.437691e-02 8.673735e-03 1.739118e-02 7.103869e-03 3.635097e-03 4.065267e-03 -3.637080e-04 -1.787266e-02
<VARIANCE> 39
 6.539482e+01 1.289868e+02 1.360851e+02 9.722709e+01 1.011564e+02 8.034456e+01 6.305698e+01 9.224660e+01 4.943644e+01 6.779727e+01 5.874460e+01 4.539677e+01 8.494171e+01 4.515511e+00 7.712466e+00 7.017513e+00 5.733687e+00 7.554815e+00 6.333163e+00 5.526740e+00 6.791721e+00 4.336696e+00 6.147306e+00 5.493038e+00 4.788021e+00 5.916335e+00 7.704247e-01 1.168430e+00 9.735141e-01 7.717884e-01 1.350861e+00 1.241747e+00 1.049480e+00 1.264002e+00 7.980561e-01 1.084288e+00 1.116344e+00 9.452670e-01 7.616331e-01
<GCONST> 1.514414e+02
<TRANSP> 5
 0.000000e+00 1.000000e+00 0.000000e+00 0.000000e+00 0.000000e+00
 0.000000e+00 8.668648e-01 1.331352e-01 0.000000e+00 0.000000e+00
 0.000000e+00 0.000000e+00 8.264139e-01 1.735861e-01 0.000000e+00
 0.000000e+00 0.000000e+00 0.000000e+00 9.895979e-01 1.040208e-02
 0.000000e+00 0.000000e+00 0.000000e+00 0.000000e+00 0.000000e+00
<ENDHMM>
~h "k"
<BEGINHMM>
<NUMSTATES> 5
<STATE> 2
<MEAN> 39
 -9.269578e+00 -5.290493e+00 -5.618527e-01 -9.325947e+00 -6.944695e+00 -8.224182e+00 -8.809339e+00 -8.770474e+00 -8.947897e+00 -6.682176e+00 -6.684016e+00 -2.898110e+00 4.341906e+01 1.427704e-02 -9.857491e-02 -2.466678e-01 3.373916e-01 3.940269e-01 9.521405e-02 6.505287e-02 -1.033725e-01 -6.119697e-01 -3.289309e-01 5.750512e-02 -1.542359e-01 -1.850385e-01 1.425870e-01 -5.196148e-02 -8.110391e-02 -7.807649e-02 -2.544229e-02 -7.194909e-02 -3.673518e-02 -9.446231e-02 4.301159e-02 1.850260e-02 1.282928e-01 2.768619e-03 1.708804e-01
<VARIANCE> 39
 9.193835e+01 8.367081e+01 9.748372e+01 8.365884e+01 8.101807e+01 6.682748e+01 7.540705e+01 7.039993e+01 5.586810e+01 6.789399e+01 6.595061e+01 4.351037e+01 1.487598e+02 2.762837e+00 5.097509e+00 4.358078e+00 3.131526e+00 4.833694e+00 3.818822e+00 3.464524e+00 3.713740e+00 4.178279e+00 3.897707e+00 4.321226e+00 2.795404e+00 5.490593e+00 4.873053e-01 8.737031e-01 7.843863e-01 5.981685e-01 7.264716e-01 7.067758e-01 6.790116e-01 6.502934e-01 7.911262e-01 8.131072e-01 7.586964e-01 5.603577e-01 1.381806e+00
<GCONST> 1.416565e+02
<STATE> 3
<MEAN> 39
 -9.236568e+00 -5.485491e+00 -1.230561e+00 -8.844828e+00 -6.169966e+00 -7.914785e+00 -8.520427e+00 -8.866692e+00 -1.011337e+01 -7.117737e+00 -6.340059e+00 -3.398075e+00 4.330725e+01 1.925656e-01 -2.309290e-01 -2.597574e-01 1.006633e-01 3.150868e-01 -5.614836e-02 -1.308866e-02 -2.461253e-01 -2.272818e-01 -1.575129e-01 2.275735e-01 -1.551021e-01 3.032918e-01 7.427874e-02 -5.602898e-02 3.483904e-02 -1.725942e-01 -9.098189e-02 -9.522337e-02 -4.903798e-02 -3.699546e-02 1.968881e-01 1.215250e-01 4.291731e-02 3.756120e-02 2.240843e-01
<VARIANCE> 39
 1.004164e+02 7.641757e+01 1.035095e+02 8.542718e+01 7.947281e+01 6.495560e+01 8.050952e+01 6.912312e+01 5.199079e+01 6.639240e+01 7.380914e+01 4.044479e+01 1.412682e+02 3.718173e+00 6.047527e+00 4.590939e+00 3.623371e+00 4.173583e+00 4.052601e+00 3.871110e+00 4.115886e+00 4.415678e+00 4.380045e+00 4.832848e+00 2.844035e+00 8.946943e+00 4.925746e-01 8.197538e-01 7.483957e-01 6.563810e-01 7.168315e-01 7.740535e-01 7.903159e-01 7.504503e-01 7.293972e-01 8.417705e-01 8.334360e-01 5.138976e-01 1.247230e+00
<GCONST> 1.434334e+02
<STATE> 4
<MEAN> 39
 -8.833585e+00 -6.324028e+00 -2.350127e+00 -8.874995e+00 -4.990446e+00 -7.791461e+00 -8.198636e+00 -8.952960e+00 -9.972868e+00 -7.404174e+00 -6.265736e+00 -4.057955e+00 4.440789e+01 1.205575e-01 -2.215751e-01 -9.154711e-02 -1.599597e-01 1.682998e-01 -2.028385e-01 1.142786e-02 -1.771768e-01 3.004952e-01 8.496914e-02 1.236252e-01 1.848838e-02 5.762073e-01 3.795329e-02 3.163202e-02 9.590624e-02 -1.314945e-01 -1.783181e-01 -1.111533e-01 -6.304304e-02 3.905929e-03 1.115796e-01 8.712586e-02 -5.431968e-02 9.131365e-02 9.619364e-02
<VARIANCE> 39
 1.039175e+02 7.625031e+01 1.045728e+02 8.378770e+01 7.163589e+01 6.621462e+01 7.274474e+01 6.405010e+01 5.274699e+01 6.440920e+01 7.581285e+01 4.291085e+01 1.318858e+02 3.842217e+00 5.493582e+00 4.899300e+00 4.496181e+00 4.107785e+00 5.151608e+00 4.764053e+00 5.437808e+00 4.221187e+00 4.927675e+00 4.706366e+00 2.854889e+00 9.963641e+00 5.571445e-01 9.450643e-01 7.045897e-01 7.930855e-01 7.414276e-01 9.396679e-01 8.584099e-01 8.828029e-01 7.207075e-01 9.018105e-01 8.956992e-01 4.734521e-01 1.294413e+00
<GCONST> 1.452319e+02
<TRANSP> 5
 0.000000e+00 1.000000e+00 0.000000e+00 0.000000e+00 0.000000e+00
 0.000000e+00 4.152917e-01 5.847083e-01 0.000000e+00 0.000000e+00
 0.000000e+00 0.000000e+00 4.124787e-01 5.875213e-01 0.000000e+00
 0.000000e+00 0.000000e+00 0.000000e+00 4.971813e-01 5.028187e-01
 0.000000e+00 0.000000e+00 0.000000e+00 0.000000e+00 0.000000e+00
<ENDHMM>
~h "l"
<BEGINHMM>
<NUMSTATES> 5
<STATE> 2
<MEAN> 39
 -2.991167e+00 -1.033883e+01 -7.387681e-01 -1.431128e+01 -5.154671e+00 -7.722775e+00 -1.467948e+01 -8.719973e+00 -7.359240e+00 -5.658065e+00 -1.006460e+01 -1.760299e+00 5.210002e+01 2.509761e-01 4.728533e-02 1.840075e-01 -2.029126e-01 1.051391e-01 -6.254718e-02 -2.619638e-01 -3.105505e-01 -1.665846e-01 -1.752110e-01 -1.030388e-01 3.462619e-02 1.529306e-01 -8.105840e-02 3.664578e-02 -3.535494e-02 9.266644e-02 4.503253e-02 4.500351e-03 1.052394e-01 2.925695e-02 -5.760429e-02 2.335506e-02 3.842894e-02 -1.941404e-02 -7.475890e-02
<VARIANCE> 39
 5.821695e+01 8.041283e+01 8.802437e+01 1.358176e+02 9.016107e+01 1.092555e+02 7.636152e+01 7.681870e+01 7.286552e+01 7.450755e+01 5.861584e+01 5.117923e+01 1.113025e+02 2.684085e+00 4.388240e+00 3.465155e+00 5.163506e+00 5.303787e+00 4.358838e+00 4.565034e+00 5.014741e+00 3.819051e+00 4.783510e+00 3.401276e+00 3.265367e+00 6.036255e+00 3.507420e-01 5.960621e-01 4.810231e-01 7.847623e-01 8.144531e-01 7.134201e-01 7.873180e-01 9.161686e-01 6.291383e-01 9.282661e-01 6.234424e-01 6.226904e-01 7.607183e-01
<GCONST> 1.422739e+02
<STATE> 3
<MEAN> 39
 -2.784202e+00 -9.758924e+00 -6.706603e-01 -1.437677e+01 -4.696512e+00 -8.027328e+00 -1.461241e+01 -9.228806e+00 -8.350459e+00 -6.034662e+00 -9.906989e+00 -1.618570e+00 5.206447e+01 -5.448535e-02 3.186953e-01 -3.080901e-02 1.202410e-01 2.856478e-02 -6.170513e-02 1.528969e-01 -1.268511e-01 -2.745095e-01 -8.659247e-02 7.922409e-02 -9.025440e-02 -2.484790e-01 -6.796146e-02 8.196371e-02 -7.163911e-02 1.133607e-01 -3.758212e-02 2.011179e-02 7.467971e-02 -4.704810e-03 1.217802e-02 7.052126e-02 5.194520e-02 -4.950934e-02 -8.671163e-02
<VARIANCE> 39
 5.698455e+01 8.020042e+01 8.686217e+01 1.317849e+02 1.004264e+02 1.130299e+02 7.422876e+01 7.261325e+01 7.709910e+01 7.609209e+01 5.631378e+01 5.124655e+01 9.975648e+01 2.381459e+00 3.240156e+00 3.062250e+00 4.950322e+00 5.229239e+00 3.493772e+00 4.110726e+00 4.510967e+00 4.209473e+00 4.669564e+00 2.842129e+00 2.925215e+00 2.586321e+00 3.593099e-01 4.312862e-01 4.181954e-01 7.885971e-01 7.753084e-01 6.420162e-01 7.374512e-01 8.712481e-01 7.540140e-01 8.947192e-01 5.265344e-01 6.113399e-01 3.982306e-01
<GCONST> 1.386989e+02
<STATE> 4
<MEAN> 39
 -2.503399e+00 -6.547513e+00 -3.190767e+00 -1.392778e+01 -4.688846e+00 -6.614189e+00 -1.441028e+01 -1.049253e+01 -7.577189e+00 -5.701556e+00 -8.358442e+00 -2.639209e+00 4.959189e+01 -3.629446e-01 4.902748e-01 -2.590341e-01 5.995763e-01 -1.641886e-01 -1.557508e-01 2.536568e-01 -4.084416e-02 -5.686111e-02 -1.460106e-02 1.044348e-01 -2.326971e-01 -4.695230e-01 -3.966834e-02 1.349455e-02 -1.527353e-02 6.078509e-02 -5.443491e-02 -2.904284e-03 4.612849e-02 -4.443080e-03 2.253576e-02 -1.787768e-02 4.468860e-03 -1.555611e-02 1.482678e-02
<VARIANCE> 39
 6.489516e+01 9.324858e+01 7.912946e+01 1.448721e+02 9.735411e+01 1.056674e+02 9.261818e+01 6.477282e+01 7.266935e+01 6.573944e+01 5.435001e+01 4.548372e+01 9.672698e+01 2.607343e+00 2.594758e+00 2.516507e+00 4.820610e+00 4.156912e+00 3.559061e+00 3.648027e+00 4.051068e+00 4.011447e+00 3.959111e+00 2.921188e+00 2.586420e+00 1.421695e+00 3.383942e-01 3.224420e-01 3.490717e-01 7.035496e-01 6.569021e-01 5.139380e-01 5.875804e-01 7.090628e-01 7.569166e-01 7.250518e-01 5.729277e-01 4.667231e-01 2.671841e-01
<GCONST> 1.346411e+02
<TRANSP> 5
 0.000000e+00 1.000000e+00 0.000000e+00 0.000000e+00 0.000000e+00
 0.000000e+00 6.137743e-01 3.862256e-01 0.000000e+00 0.000000e+00
 0.000000e+00 0.000000e+00 5.789569e-01 4.210431e-01 0.000000e+00
 0.000000e+00 0.000000e+00 0.000000e+00 7.255388e-01 2.744612e-01
 0.000000e+00 0.000000e+00 0.000000e+00 0.000000e+00 0.000000e+00
<ENDHMM>
~h "m"
<BEGINHMM>
<NUMSTATES> 5
<STATE> 2
<MEAN> 39
 -5.787148e+00 -8.978765e+00 -6.720505e-01 -1.086192e+01 -5.767068e+00 -8.468182e+00 -1.347391e+01 -6.945208e+00 -9.062214e+00 -7.153229e+00 -8.208818e+00 -3.020601e+00 5.142645e+01 8.416636e-02 1.356457e-01 -2.549471e-01 5.073460e-02 3.770886e-01 1.305807e-01 -4.319650e-02 -1.412783e-01 -4.179372e-01 -2.039435e-02 -8.990987e-02 -1.459504e-01 -2.249304e-01 -2.711395e-02 6.415422e-03 1.476481e-02 3.873239e-02 5.896336e-03 -2.370758e-02 -7.678501e-02 -1.096612e-01 -4.209176e-03 -1.676209e-02 4.924546e-02 1.006135e-01 -1.338942e-02
<VARIANCE> 39
 9.814920e+01 1.715194e+02 7.554402e+01 9.863816e+01 6.361599e+01 8.608247e+01 8.409148e+01 7.936605e+01 6.480143e+01 6.040384e+01 7.233783e+01 5.699150e+01 1.191915e+02 3.505405e+00 3.942200e+00 2.489699e+00 4.904096e+00 2.782915e+00 5.093943e+00 4.046667e+00 4.639451e+00 3.500133e+00 2.852565e+00 4.273680e+00 3.546364e+00 2.801469e+00 4.671165e-01 5.388387e-01 4.042739e-01 6.990285e-01 4.624808e-01 7.579925e-01 6.273053e-01 7.436575e-01 6.755432e-01 5.065157e-01 7.321119e-01 5.892590e-01 3.183597e-01
<GCONST> 1.383662e+02
<STATE> 3
<MEAN> 39
 -5.158742e+00 -9.008749e+00 -1.269523e+00 -1.057421e+01 -4.572757e+00 -7.763629e+00 -1.414008e+01 -7.737218e+00 -1.029128e+01 -7.419566e+00 -8.429737e+00 -2.987179e+00 5.123585e+01 -7.384503e-02 1.348175e-01 -1.419296e-01 2.691255e-02 3.749234e-01 1.889289e-01 -1.410572e-02 -2.390276e-01 -2.396190e-01 -8.381764e-02 3.106217e-02 7.675834e-02 -1.518825e-01 -4.151690e-02 -4.983685e-03 3.116164e-02 3.585433e-02 -5.433440e-02 -6.570634e-03 3.778700e-02 -8.994036e-03 7.282407e-02 -4.580281e-02 6.587000e-02 6.824131e-02 -1.614496e-02
<VARIANCE> 39
 1.015691e+02 1.717851e+02 6.813505e+01 9.558627e+01 6.318326e+01 8.447926e+01 9.110358e+01 9.847014e+01 7.199532e+01 5.949435e+01 7.239458e+01 6.293938e+01 1.117006e+02 3.448473e+00 3.818412e+00 2.742083e+00 6.007186e+00 2.991644e+00 4.939929e+00 3.666252e+00 4.658000e+00 3.343631e+00 2.663990e+00 3.458280e+00 2.911970e+00 2.264748e+00 4.275097e-01 4.353819e-01 3.866033e-01 8.183541e-01 5.317125e-01 7.611545e-01 6.631697e-01 8.158833e-01 5.997422e-01 4.654855e-01 6.057138e-01 4.966122e-01 2.314281e-01
<GCONST> 1.373453e+02
<STATE> 4
<MEAN> 39
 -5.041139e+00 -8.630689e+00 -1.828539e+00 -1.062595e+01 -2.859643e+00 -6.761106e+00 -1.404534e+01 -8.148685e+00 -1.146144e+01 -8.387225e+00 -7.519004e+00 -1.270702e+00 5.033226e+01 -1.387436e-01 1.938027e-01 -1.546513e-01 7.345814e-02 5.886811e-02 -1.622259e-02 2.130408e-01 -1.745833e-01 -2.687966e-02 -1.597370e-01 9.570036e-02 1.296874e-01 -2.786009e-01 5.657621e-02 -5.045027e-03 -2.870533e-02 3.021891e-03 -1.486904e-01 -1.113554e-01 1.242886e-02 5.849560e-03 3.121937e-02 -1.886291e-02 3.739454e-02 2.044183e-02 -4.030383e-02
<VARIANCE> 39
 1.115395e+02 1.564323e+02 6.353555e+01 1.074668e+02 7.697054e+01 9.876890e+01 8.686479e+01 1.036367e+02 9.730150e+01 6.563573e+01 6.717883e+01 5.708830e+01 1.049776e+02 2.024655e+00 2.825209e+00 2.325704e+00 5.019099e+00 3.495030e+00 4.124464e+00 3.160273e+00 4.003471e+00 3.049704e+00 2.230010e+00 2.485182e+00 2.395145e+00 1.799341e+00 2.820957e-01 3.261041e-01 3.156507e-01 6.974136e-01 4.685867e-01 6.816552e-01 5.957159e-01 7.132131e-01 4.933129e-01 3.928608e-01 4.625160e-01 4.074048e-01 1.760337e-01
<GCONST> 1.327339e+02
<TRANSP> 5
 0.000000e+00 1.000000e+00 0.000000e+00 0.000000e+00 0.000000e+00
 0.000000e+00 5.180019e-01 4.819982e-01 0.000000e+00 0.000000e+00
 0.000000e+00 0.000000e+00 5.307302e-01 4.692698e-01 0.000000e+00
 0.000000e+00 0.000000e+00 0.000000e+00 6.799207e-01 3.200793e-01
 0.000000e+00 0.000000e+00 0.000000e+00 0.000000e+00 0.000000e+00
<ENDHMM>
~h "n"
<BEGINHMM>
<NUMSTATES> 5
<STATE> 2
<MEAN> 39
 -5.456032e+00 -6.478903e+00 -9.110883e-01 -8.652661e+00 -7.613861e+00 -1.098434e+01 -1.101745e+01 -8.758917e+00 -9.193195e+00 -8.955254e+00 -5.951681e+00 -1.905817e+00 4.754829e+01 9.971058e-03 1.373090e-01 -2.405755e-01 3.961999e-01 1.053738e-01 1.544943e-01 2.821162e-02 -1.549135e-01 -8.248651e-02 -5.332805e-02 8.309503e-02 -1.377551e-01 -2.390248e-01 -1.686843e-02 1.865970e-02 3.260256e-03 8.119979e-02 -1.169993e-02 9.614200e-02 3.433623e-03 -4.354470e-02 -8.059720e-03 5.986915e-02 2.033070e-03 5.970892e-04 -9.826308e-02
<VARIANCE> 39
 8.334521e+01 1.200172e+02 6.136080e+01 8.556115e+01 5.801605e+01 7.840088e+01 6.193497e+01 6.953479e+01 8.314504e+01 5.461285e+01 5.061931e+01 3.637029e+01 1.228494e+02 2.722976e+00 3.319494e+00 2.472197e+00 4.370202e+00 3.307052e+00 3.561322e+00 3.742789e+00 4.059727e+00 3.654203e+00 3.851140e+00 3.203675e+00 2.656716e+00 3.843270e+00 3.941159e-01 4.826553e-01 4.275264e-01 6.782738e-01 5.787261e-01 5.920163e-01 6.634338e-01 6.993688e-01 5.639116e-01 6.191947e-01 5.979609e-01 5.017828e-01 4.930803e-01
<GCONST> 1.351951e+02
<STATE> 3
<MEAN> 39
 -5.661956e+00 -5.785508e+00 -1.698953e+00 -7.626996e+00 -7.118964e+00 -1.024444e+01 -1.088813e+01 -9.365420e+00 -9.550913e+00 -8.758525e+00 -5.890954e+00 -2.400323e+00 4.648234e+01 -7.986636e-02 1.496069e-01 -2.419683e-01 4.535858e-01 6.238539e-02 3.213150e-01 8.291499e-02 -1.088182e-01 -6.315562e-02 4.900862e-02 1.187754e-01 -1.219508e-01 -3.534720e-01 -1.918253e-02 3.359636e-03 3.977811e-02 -2.675454e-02 -6.897619e-02 3.116446e-02 1.216617e-02 4.307298e-03 1.708992e-02 3.441362e-02 9.862991e-03 1.321414e-02 -1.933014e-02
<VARIANCE> 39
 8.863870e+01 1.159538e+02 5.776223e+01 8.144968e+01 6.059555e+01 8.062891e+01 6.916087e+01 7.081039e+01 8.948608e+01 5.363527e+01 5.185168e+01 3.446166e+01 1.224867e+02 2.706178e+00 3.330096e+00 2.441424e+00 4.216181e+00 3.132392e+00 3.411943e+00 3.475403e+00 3.846780e+00 3.763967e+00 3.653798e+00 3.028536e+00 2.629882e+00 2.884584e+00 3.879988e-01 4.961556e-01 4.312304e-01 7.535728e-01 5.845202e-01 6.570733e-01 6.755466e-01 6.967179e-01 6.156102e-01 5.788306e-01 6.008117e-01 4.935962e-01 4.998137e-01
<GCONST> 1.349589e+02
<STATE> 4
<MEAN> 39
 -6.795311e+00 -4.956304e+00 -2.655442e+00 -6.047465e+00 -6.566552e+00 -9.095555e+00 -1.063949e+01 -8.985974e+00 -8.998695e+00 -8.686765e+00 -5.456614e+00 -2.654414e+00 4.370018e+01 -1.851064e-01 1.027944e-01 -1.461039e-01 2.409225e-01 -1.683633e-02 3.525454e-01 1.622388e-01 -5.805110e-03 2.294825e-02 1.045268e-01 1.314161e-01 -9.841831e-02 -3.144553e-01 1.434930e-04 6.553457e-03 6.796348e-02 -1.164015e-01 -3.744057e-02 -4.717904e-02 -2.537696e-03 -1.315630e-02 1.707432e-02 1.902808e-02 -3.076975e-02 1.372998e-02 7.846174e-02
<VARIANCE> 39
 9.146693e+01 1.040696e+02 5.125228e+01 7.255404e+01 5.781924e+01 7.752975e+01 7.176452e+01 6.990083e+01 7.845223e+01 5.152038e+01 4.957491e+01 3.175331e+01 1.291697e+02 2.700326e+00 3.429234e+00 2.495315e+00 4.228893e+00 3.046476e+00 3.785687e+00 3.410163e+00 3.934996e+00 3.902211e+00 3.355079e+00 2.923039e+00 2.774903e+00 2.572833e+00 3.743765e-01 4.804583e-01 4.366040e-01 7.410261e-01 5.581704e-01 6.796101e-01 6.929039e-01 7.379017e-01 6.708776e-01 5.761919e-01 6.125273e-01 4.916557e-01 4.495015e-01
<GCONST> 1.343147e+02
<TRANSP> 5
 0.000000e+00 1.000000e+00 0.000000e+00 0.000000e+00 0.000000e+00
 0.000000e+00 4.686449e-01 5.313550e-01 0.000000e+00 0.000000e+00
 0.000000e+00 0.000000e+00 4.496763e-01 5.503237e-01 0.000000e+00
 0.000000e+00 0.000000e+00 0.000000e+00 5.569764e-01 4.430235e-01
 0.000000e+00 0.000000e+00 0.000000e+00 0.000000e+00 0.000000e+00
<ENDHMM>
~h "p"
<BEGINHMM>
<NUMSTATES> 5
<STATE> 2
<MEAN> 39
 -8.170522e+00 -2.690974e+00 -6.061419e+00 -7.427000e+00 -6.125712e+00 -6.493701e+00 -8.885283e+00 -9.470925e+00 -6.555926e+00 -5.487806e+00 -9.103408e+00 -6.190576e+00 4.525584e+01 -3.239217e-01 1.366648e-01 -2.223797e-01 3.495755e-01 2.710130e-01 2.154836e-01 1.981626e-01 -1.476644e-02 -5.704514e-02 9.582094e-02 2.022664e-01 6.924625e-02 -7.397786e-01 2.623348e-02 -1.110704e-01 1.168257e-01 -7.655928e-02 7.081430e-02 3.067616e-02 -8.684659e-02 5.462937e-02 1.010204e-02 1.162926e-02 6.123489e-04 3.699195e-02 -2.617501e-04
<VARIANCE> 39
 1.315659e+02 1.487167e+02 1.164159e+02 8.765501e+01 9.549836e+01 7.309374e+01 7.407979e+01 6.616495e+01 5.233712e+01 8.791043e+01 6.122987e+01 4.661118e+01 1.045568e+02 1.376330e+00 2.466104e+00 2.720375e+00 2.622022e+00 3.265411e+00 2.771400e+00 2.788530e+00 3.241152e+00 3.965889e+00 3.083410e+00 2.529703e+00 1.587630e+00 1.909888e+00 2.981391e-01 3.633600e-01 3.618540e-01 4.589981e-01 5.886172e-01 4.772872e-01 4.910409e-01 5.959499e-01 7.304290e-01 5.743884e-01 5.168038e-01 3.543905e-01 2.747932e-01
<GCONST> 1.309359e+02
<STATE> 3
<MEAN> 39
 -8.208776e+00 -2.865474e+00 -6.563712e+00 -6.918441e+00 -5.296463e+00 -6.289863e+00 -8.613448e+00 -9.287223e+00 -6.588902e+00 -5.759861e+00 -8.964964e+00 -5.919356e+00 4.404138e+01 -3.219910e-01 2.316866e-02 -7.732569e-02 1.569200e-01 2.247979e-01 1.495295e-01 1.575017e-01 1.522853e-01 -3.838886e-02 -8.637679e-03 2.253894e-01 1.381963e-01 -7.191481e-01 1.382383e-02 -1.604653e-01 8.279450e-02 -1.140124e-01 -2.379207e-02 -9.587561e-03 -6.059993e-02 9.183336e-02 4.613782e-02 1.613720e-02 5.024593e-02 -2.030504e-02 5.237878e-02
<VARIANCE> 39
 1.311193e+02 1.449763e+02 1.155636e+02 8.605595e+01 8.430866e+01 6.459250e+01 7.376054e+01 6.128673e+01 4.703143e+01 8.978754e+01 6.614938e+01 3.905006e+01 1.080305e+02 1.716463e+00 2.200873e+00 2.182042e+00 2.337520e+00 3.183796e+00 2.875948e+00 2.425563e+00 3.269650e+00 3.502964e+00 2.984333e+00 2.803743e+00 1.610443e+00 1.892338e+00 2.608571e-01 3.068086e-01 3.096531e-01 3.508419e-01 4.921452e-01 4.416512e-01 5.000849e-01 6.432232e-01 6.196598e-01 5.985241e-01 5.605195e-01 3.987377e-01 2.361962e-01
<GCONST> 1.290383e+02
<STATE> 4
<MEAN> 39
 -1.232999e+01 -3.931565e+00 -7.393750e+00 -4.633848e+00 -5.342559e+00 -4.912145e+00 -5.749609e+00 -6.340351e+00 -4.851574e+00 -7.081204e+00 -5.938949e+00 -3.016910e+00 3.751600e+01 -3.110452e-01 -3.785933e-01 -2.719469e-02 -1.128038e-01 1.097262e-02 1.772635e-01 2.125840e-01 3.120884e-01 2.180047e-01 1.276971e-01 2.401545e-01 5.398267e-02 -5.297325e-01 5.004914e-02 -6.587151e-02 8.941774e-02 -5.478376e-02 -1.909649e-02 -3.742604e-02 -6.294885e-02 -2.853454e-02 4.957442e-03 -4.971893e-03 1.269516e-02 -2.468219e-03 7.045747e-02
<VARIANCE> 39
 8.691757e+01 7.659224e+01 7.480064e+01 6.120733e+01 3.974981e+01 3.682664e+01 5.364718e+01 5.875832e+01 3.869764e+01 5.337627e+01 5.778847e+01 3.671747e+01 9.973581e+01 1.660665e+00 1.911621e+00 1.927916e+00 1.924298e+00 2.575328e+00 2.325012e+00 3.035051e+00 4.070289e+00 2.626677e+00 2.275998e+00 3.083747e+00 2.116823e+00 1.871312e+00 2.211437e-01 2.529480e-01 2.889737e-01 3.725751e-01 5.639826e-01 3.977166e-01 6.090375e-01 7.445989e-01 4.858560e-01 4.773989e-01 6.828130e-01 3.819888e-01 1.890141e-01
<GCONST> 1.233419e+02
<TRANSP> 5
 0.000000e+00 1.000000e+00 0.000000e+00 0.000000e+00 0.000000e+00
 0.000000e+00 3.967212e-01 6.032788e-01 0.000000e+00 0.000000e+00
 0.000000e+00 0.000000e+00 4.257583e-01 5.742417e-01 0.000000e+00
 0.000000e+00 0.000000e+00 0.000000e+00 7.638115e-01 2.361886e-01
 0.000000e+00 0.000000e+00 0.000000e+00 0.000000e+00 0.000000e+00
<ENDHMM>
~h "r"
<BEGINHMM>
<NUMSTATES> 5
<STATE> 2
<MEAN> 39
 -6.429996e+00 -8.372992e+00 6.031728e-02 -1.019653e+01 -4.661089e+00 -9.848372e+00 -1.329729e+01 -1.032964e+01 -8.851768e+00 -6.363074e+00 -9.700800e+00 -2.799532e+00 5.143917e+01 6.707313e-01 -4.342708e-01 9.476052e-02 -4.072410e-01 -6.085798e-02 -2.783003e-01 -4.608393e-01 -9.218341e-02 -2.419065e-01 9.901887e-02 -2.447880e-01 1.320883e-02 8.831885e-01 1.363976e-02 -1.144453e-02 -4.594922e-02 -1.973822e-02 -4.408404e-03 3.486796e-02 7.992209e-02 6.647035e-02 1.489289e-02 -1.627011e-02 -4.770684e-02 -4.715642e-02 1.035372e-02
<VARIANCE> 39
 1.010663e+02 1.253198e+02 1.444594e+02 1.188328e+02 9.051418e+01 9.087408e+01 7.185725e+01 7.492612e+01 7.386062e+01 6.668475e+01 7.234462e+01 5.034482e+01 8.467714e+01 8.185418e+00 8.709052e+00 7.310610e+00 7.815996e+00 6.837190e+00 7.540725e+00 7.447739e+00 6.779316e+00 5.414641e+00 4.965202e+00 5.581132e+00 4.707518e+00 6.664957e+00 1.171084e+00 1.235463e+00 1.091396e+00 1.299315e+00 1.290262e+00 1.333991e+00 1.361034e+00 1.372090e+00 9.801855e-01 9.053988e-01 1.000090e+00 8.190062e-01 9.303886e-01
<GCONST> 1.557509e+02
<STATE> 3
<MEAN> 39
 -4.715792e+00 -8.611023e+00 -6.421440e-01 -1.022543e+01 -5.855995e+00 -1.032041e+01 -1.348510e+01 -1.096826e+01 -1.028089e+01 -6.773254e+00 -1.018266e+01 -3.673055e+00 5.293309e+01 1.137514e-01 -1.722981e-01 6.360672e-02 -2.031235e-01 -5.169227e-02 3.002049e-02 4.990527e-02 1.123133e-01 -1.281244e-01 -5.923572e-02 -1.390323e-01 -1.239200e-01 3.587092e-01 -1.020661e-01 7.472691e-02 9.564668e-03 2.095399e-02 6.189846e-03 7.163524e-02 6.425101e-02 1.083738e-02 2.118814e-02 -1.817654e-02 1.234578e-02 -2.383262e-02 -1.024934e-01
<VARIANCE> 39
 8.371662e+01 1.529070e+02 1.581389e+02 1.011538e+02 9.480513e+01 1.023029e+02 6.335795e+01 7.435021e+01 7.819775e+01 7.236375e+01 6.703783e+01 5.049316e+01 5.909624e+01 6.168673e+00 9.519197e+00 7.540298e+00 7.196806e+00 6.145227e+00 7.520505e+00 6.314465e+00 5.762733e+00 5.191689e+00 5.159357e+00 5.401439e+00 4.170793e+00 5.046215e+00 8.853469e-01 1.274745e+00 1.085884e+00 1.139717e+00 1.131419e+00 1.289733e+00 1.196307e+00 1.099968e+00 8.980157e-01 9.104472e-01 9.615482e-01 7.706194e-01 6.643775e-01
<GCONST> 1.528912e+02
<STATE> 4
<MEAN> 39
 -4.854672e+00 -8.181731e+00 -1.100556e+00 -1.037642e+01 -7.654784e+00 -1.008150e+01 -1.191800e+01 -9.595107e+00 -9.712345e+00 -7.533150e+00 -9.714207e+00 -4.767160e+00 5.241134e+01 -1.784638e-02 9.137516e-02 2.100982e-02 -2.749673e-02 -3.467134e-02 -3.634762e-03 9.586819e-03 -2.976454e-02 3.037699e-02 5.189861e-03 2.427198e-02 -4.860466e-02 -3.306621e-02 -2.279701e-03 1.747408e-02 -1.103077e-02 7.061742e-03 8.896308e-03 1.092107e-02 -2.726647e-04 -4.343268e-03 1.472690e-03 -1.771191e-04 2.030773e-03 1.044576e-03 -1.492445e-02
<VARIANCE> 39
 8.466753e+01 1.627504e+02 1.158248e+02 8.678229e+01 8.156639e+01 8.360648e+01 7.154443e+01 8.617423e+01 7.356079e+01 6.696155e+01 6.247207e+01 5.268282e+01 6.455757e+01 5.363777e+00 7.655411e+00 5.954009e+00 5.793380e+00 5.511037e+00 5.692604e+00 5.927094e+00 5.740160e+00 4.938225e+00 5.096279e+00 4.990259e+00 4.074797e+00 3.883793e+00 7.919913e-01 9.958808e-01 8.893741e-01 9.330969e-01 1.000983e+00 1.003877e+00 1.105513e+00 1.049016e+00 8.680790e-01 9.268315e-01 9.261922e-01 7.528975e-01 5.517941e-01
<GCONST> 1.491267e+02
<TRANSP> 5
 0.000000e+00 1.000000e+00 0.000000e+00 0.000000e+00 0.000000e+00
 0.000000e+00 8.898192e-01 1.101808e-01 0.000000e+00 0.000000e+00
 0.000000e+00 0.000000e+00 8.745816e-01 1.254185e-01 0.000000e+00
 0.000000e+00 0.000000e+00 0.000000e+00 9.816368e-01 1.836322e-02
 0.000000e+00 0.000000e+00 0.000000e+00 0.000000e+00 0.000000e+00
<ENDHMM>
~h "s"
<BEGINHMM>
<NUMSTATES> 5
<STATE> 2
<MEAN> 39
 -1.296372e+01 -1.686300e+00 -5.473525e+00 -5.755685e+00 -6.272474e+00 -8.267697e+00 -6.193944e+00 -8.278437e+00 -4.777044e+00 -6.142094e+00 -4.018855e+00 -2.397771e+00 4.550899e+01 -5.573043e-01 2.195871e-01 6.800630e-02 1.273061e-02 1.491159e-01 -1.297812e-01 2.090196e-01 8.899835e-02 2.773736e-01 3.558926e-02 1.605310e-01 8.968715e-02 2.006101e-01 8.908773e-02 -4.458784e-02 3.650002e-02 -9.123742e-02 -3.058284e-02 -5.314350e-02 -1.786694e-01 -4.926611e-02 -1.010612e-01 -3.955570e-02 -1.625239e-01 -3.758693e-02 1.242950e-01
<VARIANCE> 39
 1.382571e+02 1.426365e+02 8.708425e+01 9.392358e+01 7.383253e+01 7.870731e+01 7.898059e+01 7.048006e+01 6.318360e+01 4.523386e+01 5.678059e+01 3.702704e+01 1.328839e+02 5.438275e+00 6.241992e+00 4.555472e+00 5.313166e+00 4.266235e+00 4.837123e+00 5.679210e+00 5.227474e+00 4.381378e+00 3.696937e+00 4.227562e+00 3.287553e+00 3.848934e+00 7.893007e-01 7.961413e-01 6.620163e-01 7.543461e-01 8.241721e-01 8.374524e-01 1.043653e+00 9.531528e-01 8.111654e-01 7.299017e-01 8.611543e-01 6.425099e-01 6.874654e-01
<GCONST> 1.452341e+02
<STATE> 3
<MEAN> 39
 -1.413388e+01 -1.039212e+00 -5.324303e+00 -6.128281e+00 -5.936261e+00 -9.097303e+00 -6.270028e+00 -8.392878e+00 -4.381362e+00 -6.299365e+00 -3.873768e+00 -2.106454e+00 4.676823e+01 -2.017621e-01 -1.764062e-02 9.505734e-02 -2.728361e-01 1.332898e-01 -1.283331e-01 -2.410288e-01 1.814706e-02 -4.420366e-02 -5.111100e-02 -2.774925e-01 3.620622e-02 4.901351e-01 1.644402e-01 -1.411447e-01 1.964053e-02 -4.441092e-02 -2.195342e-03 1.025947e-01 -1.411967e-01 -4.030471e-04 -1.351658e-01 -1.010913e-02 -1.870873e-01 -4.832356e-02 5.237374e-03
<VARIANCE> 39
 1.309003e+02 1.488507e+02 8.657586e+01 1.040645e+02 8.251896e+01 8.023054e+01 8.168085e+01 6.998550e+01 6.633521e+01 4.610960e+01 5.635020e+01 3.860652e+01 1.158864e+02 7.844944e+00 7.567084e+00 5.562526e+00 6.800032e+00 5.243332e+00 5.101185e+00 6.148079e+00 5.630003e+00 5.118006e+00 3.917699e+00 4.864614e+00 3.605854e+00 6.209854e+00 8.974550e-01 8.186673e-01 7.209923e-01 8.901137e-01 9.556258e-01 9.040511e-01 1.015248e+00 1.007713e+00 8.186388e-01 7.163638e-01 8.970396e-01 6.900097e-01 7.320185e-01
<GCONST> 1.486087e+02
<STATE> 4
<MEAN> 39
 -1.678360e+01 -7.749276e-01 -6.788581e+00 -3.836251e+00 -4.517678e+00 -5.901826e+00 -4.318135e+00 -7.688084e+00 -2.866417e+00 -5.670145e+00 -3.346699e+00 -2.073263e+00 4.407285e+01 4.268313e-01 -4.971626e-01 3.574094e-01 -2.875152e-01 -3.704295e-02 1.449860e-01 -4.101422e-01 4.265470e-02 -2.431544e-01 -5.504934e-02 -4.346655e-01 -5.999908e-03 5.941559e-02 1.020209e-01 -7.349149e-02 5.694207e-03 -1.294789e-02 8.465879e-03 1.505912e-02 -6.466734e-03 1.905949e-03 -4.341226e-02 -5.845287e-03 -3.296086e-02 -1.722769e-02 -4.782042e-02
<VARIANCE> 39
 1.096258e+02 1.202070e+02 7.647372e+01 1.026302e+02 6.932115e+01 8.965376e+01 8.710468e+01 6.260138e+01 6.592740e+01 4.300762e+01 5.046298e+01 3.116101e+01 1.235266e+02 4.346405e+00 4.619412e+00 3.864557e+00 5.340189e+00 4.598238e+00 5.091814e+00 5.190613e+00 4.701008e+00 4.041138e+00 3.474735e+00 3.907002e+00 3.039990e+00 5.087534e+00 6.230383e-01 6.005928e-01 5.214323e-01 7.602559e-01 8.194621e-01 9.535257e-01 9.546818e-01 8.670942e-01 7.192632e-01 6.321594e-01 7.352837e-01 5.654895e-01 5.447940e-01
<GCONST> 1.420981e+02
<TRANSP> 5
 0.000000e+00 1.000000e+00 0.000000e+00 0.000000e+00 0.000000e+00
 0.000000e+00 4.624617e-01 5.375384e-01 0.000000e+00 0.000000e+00
 0.000000e+00 0.000000e+00 4.856965e-01 5.143036e-01 0.000000e+00
 0.000000e+00 0.000000e+00 0.000000e+00 6.643447e-01 3.356553e-01
 0.000000e+00 0.000000e+00 0.000000e+00 0.000000e+00 0.000000e+00
<ENDHMM>
~h "t"
<BEGINHMM>
<NUMSTATES> 5
<STATE> 2
<MEAN> 39
 -7.647087e+00 -5.527818e+00 -2.381070e+00 -7.921302e+00 -8.212738e+00 -8.879065e+00 -9.823643e+00 -7.368081e+00 -7.019234e+00 -6.835905e+00 -6.371098e+00 -3.145719e+00 4.592104e+01 -1.534683e-02 -5.142947e-02 1.090009e-01 -2.525302e-01 -1.236175e-01 -1.403866e-01 1.304281e-01 9.471563e-02 9.904827e-02 7.324336e-02 -8.153173e-03 -1.707376e-03 3.560420e-01 -9.235413e-03 -6.822988e-02 -4.434880e-02 -2.464872e-02 1.335559e-01 6.892607e-02 6.698734e-02 -4.776638e-02 -3.641612e-02 5.862749e-02 6.694811e-03 9.280889e-03 1.065633e-01
<VARIANCE> 39
 9.882126e+01 1.129765e+02 1.046769e+02 8.376883e+01 7.197527e+01 7.566467e+01 7.695316e+01 8.338637e+01 5.402095e+01 7.035739e+01 5.743924e+01 3.898435e+01 1.209408e+02 4.987583e+00 5.944622e+00 5.673368e+00 5.703142e+00 4.134501e+00 4.562841e+00 4.559520e+00 4.952491e+00 4.117016e+00 4.221071e+00 4.458876e+00 3.190002e+00 9.251650e+00 6.449079e-01 6.540850e-01 7.990632e-01 7.221680e-01 7.107196e-01 7.595304e-01 7.839677e-01 8.309820e-01 7.675902e-01 7.592151e-01 8.055017e-01 6.651022e-01 8.764557e-01
<GCONST> 1.450997e+02
<STATE> 3
<MEAN> 39
 -7.737824e+00 -5.672380e+00 -2.425550e+00 -8.309001e+00 -8.210135e+00 -8.956237e+00 -9.421257e+00 -7.323597e+00 -6.850681e+00 -6.472369e+00 -6.324579e+00 -3.113734e+00 4.700325e+01 -6.476275e-02 -1.371243e-01 3.564174e-02 -1.330900e-01 1.387777e-01 8.914265e-02 2.455144e-01 -5.517303e-02 -1.054888e-01 1.883893e-01 -4.546564e-02 -2.873572e-02 3.877416e-01 -7.680566e-03 5.456017e-03 7.514032e-03 1.065174e-01 1.075336e-01 7.529816e-02 -3.381429e-02 -5.972702e-02 -7.491441e-02 -1.390370e-02 1.434181e-02 9.514461e-03 -1.190623e-01
<VARIANCE> 39
 9.982598e+01 1.113923e+02 1.247054e+02 8.997462e+01 6.711171e+01 7.415038e+01 7.944521e+01 7.929564e+01 5.258020e+01 6.910912e+01 5.831575e+01 4.243672e+01 1.091436e+02 4.863503e+00 6.336195e+00 5.047507e+00 4.831120e+00 3.751427e+00 4.348842e+00 4.144063e+00 4.529523e+00 4.318768e+00 4.113261e+00 4.463438e+00 3.434816e+00 9.491858e+00 6.907170e-01 7.021602e-01 7.977435e-01 7.519767e-01 6.969324e-01 7.669337e-01 7.947951e-01 8.112218e-01 7.535189e-01 7.465904e-01 8.219668e-01 6.635007e-01 9.350724e-01
<GCONST> 1.449397e+02
<STATE> 4
<MEAN> 39
 -8.421297e+00 -5.290903e+00 -3.049620e+00 -7.211040e+00 -7.628186e+00 -8.327788e+00 -8.369376e+00 -6.889775e+00 -6.743028e+00 -5.904659e+00 -5.817418e+00 -3.192221e+00 4.523007e+01 -2.107566e-01 -4.513604e-02 1.235278e-01 1.394060e-01 2.969701e-01 2.835083e-01 4.919252e-02 -1.615239e-01 -1.430719e-01 3.970904e-02 2.009139e-02 -5.196402e-02 -2.882130e-01 1.500891e-02 3.475624e-02 1.572719e-02 2.018435e-02 2.953390e-02 1.023270e-02 -1.471312e-01 -8.933541e-02 -1.339387e-02 -8.188525e-02 2.605097e-02 8.034830e-03 -7.200624e-02
<VARIANCE> 39
 1.035961e+02 1.076181e+02 1.158141e+02 8.616834e+01 6.128912e+01 6.499683e+01 8.032782e+01 7.757796e+01 5.510684e+01 5.996677e+01 5.628078e+01 3.941333e+01 1.299404e+02 2.997133e+00 4.070163e+00 2.936607e+00 3.228561e+00 3.222093e+00 3.671407e+00 3.789445e+00 3.925034e+00 3.832076e+00 3.079129e+00 3.471109e+00 2.719466e+00 4.683606e+00 5.400752e-01 5.970955e-01 5.228239e-01 6.140838e-01 5.449968e-01 6.795675e-01 7.163226e-01 7.215802e-01 7.318119e-01 6.196250e-01 6.992455e-01 5.242655e-01 7.964919e-01
<GCONST> 1.381414e+02
<TRANSP> 5
 0.000000e+00 1.000000e+00 0.000000e+00 0.000000e+00 0.000000e+00
 0.000000e+00 4.353368e-01 5.646632e-01 0.000000e+00 0.000000e+00
 0.000000e+00 0.000000e+00 4.292745e-01 5.707255e-01 0.000000e+00
 0.000000e+00 0.000000e+00 0.000000e+00 4.988761e-01 5.011239e-01
 0.000000e+00 0.000000e+00 0.000000e+00 0.000000e+00 0.000000e+00
<ENDHMM>
~h "v"
<BEGINHMM>
<NUMSTATES> 5
<STATE> 2
<MEAN> 39
 -5.899209e+00 -5.828096e+00 -3.377808e+00 -9.367792e+00 -5.144498e+00 -9.895286e+00 -1.242146e+01 -8.714089e+00 -6.434102e+00 -6.438974e+00 -7.511792e+00 -4.688226e+00 4.784595e+01 4.276720e-01 -4.808567e-01 -4.577665e-02 -5.876204e-01 1.622315e-01 1.010537e-01 -4.085301e-01 -1.350936e-01 -3.944047e-02 3.324048e-02 -1.256319e-01 -3.264234e-02 9.786405e-01 -5.002629e-03 -6.994775e-02 -3.950698e-03 -7.120990e-03 1.303701e-03 3.728826e-02 6.410275e-02 4.126232e-02 -4.807691e-02 -2.296439e-02 -4.218362e-02 -2.288677e-02 1.165540e-01
<VARIANCE> 39
 9.531860e+01 1.200827e+02 1.148495e+02 9.778545e+01 9.557336e+01 1.115723e+02 6.599886e+01 8.134430e+01 8.639227e+01 7.422733e+01 6.594157e+01 5.392388e+01 9.881254e+01 8.668999e+00 8.236489e+00 7.137817e+00 8.993324e+00 7.877226e+00 8.286281e+00 7.167595e+00 6.369990e+00 6.356991e+00 7.140378e+00 6.866123e+00 4.709591e+00 9.407351e+00 1.320458e+00 1.016525e+00 1.153626e+00 1.373793e+00 1.520013e+00 1.486732e+00 1.374852e+00 1.112403e+00 1.109711e+00 1.197005e+00 1.235909e+00 9.189662e-01 1.315542e+00
<GCONST> 1.583910e+02
<STATE> 3
<MEAN> 39
 -3.060800e+00 -8.483559e+00 -4.237973e+00 -1.140340e+01 -4.204295e+00 -8.690463e+00 -1.330882e+01 -9.422174e+00 -7.252429e+00 -6.952303e+00 -8.980202e+00 -5.626036e+00 5.140241e+01 1.766881e-01 -2.482176e-01 -1.196923e-01 -2.708824e-01 6.996565e-02 1.571300e-01 -4.528952e-02 1.020527e-01 -1.562802e-01 -5.575513e-02 -2.136280e-01 -1.357360e-01 5.886841e-01 -1.068342e-01 8.275630e-02 2.748159e-04 9.051250e-02 1.794825e-02 2.698033e-02 7.028286e-02 7.777512e-02 -8.204963e-03 2.160983e-02 3.428078e-02 2.160755e-02 -1.059117e-01
<VARIANCE> 39
 7.934689e+01 1.301914e+02 1.138017e+02 9.906510e+01 7.712846e+01 1.268693e+02 6.982094e+01 7.630634e+01 7.142229e+01 7.330312e+01 6.825771e+01 5.963493e+01 6.644526e+01 7.138884e+00 8.111871e+00 6.202232e+00 6.725996e+00 7.009897e+00 8.063508e+00 6.334582e+00 5.717352e+00 5.470468e+00 6.039277e+00 6.502563e+00 4.519945e+00 6.559836e+00 1.056322e+00 1.020044e+00 9.555944e-01 1.046378e+00 1.262383e+00 1.386500e+00 1.192740e+00 9.866277e-01 9.720335e-01 1.048116e+00 1.214373e+00 8.421183e-01 9.561449e-01
<GCONST> 1.540573e+02
<STATE> 4
<MEAN> 39
 -1.731413e+00 -1.016960e+01 -6.230552e+00 -1.075938e+01 -4.888535e+00 -6.984991e+00 -1.243853e+01 -7.493797e+00 -7.753056e+00 -8.065589e+00 -8.173462e+00 -6.283717e+00 5.173884e+01 -2.548507e-01 1.630671e-01 2.036931e-01 3.717437e-02 -5.117211e-02 -1.086959e-01 2.076680e-02 1.205763e-01 5.686163e-02 1.908874e-02 7.279687e-02 1.216486e-01 -3.618738e-02 -2.932397e-02 2.416260e-02 2.819541e-04 4.136430e-02 -3.946746e-03 -6.876407e-03 1.359430e-02 -1.669913e-03 2.912223e-02 3.863856e-02 3.909431e-02 2.496001e-02 -2.472631e-02
<VARIANCE> 39
 7.661899e+01 1.271627e+02 1.191402e+02 9.573628e+01 6.753179e+01 1.191650e+02 8.721223e+01 1.000177e+02 6.397119e+01 7.667310e+01 5.893810e+01 5.225692e+01 6.108130e+01 4.020877e+00 5.394721e+00 4.511203e+00 5.273771e+00 5.082621e+00 6.075173e+00 5.785686e+00 5.122727e+00 4.322317e+00 4.617457e+00 5.211088e+00 3.953522e+00 3.799155e+00 6.306049e-01 7.394080e-01 6.672589e-01 8.416241e-01 9.099515e-01 9.471368e-01 9.640852e-01 8.181635e-01 7.428461e-01 7.871657e-01 9.124320e-01 7.088686e-01 5.791884e-01
<GCONST> 1.460878e+02
<TRANSP> 5
 0.000000e+00 1.000000e+00 0.000000e+00 0.000000e+00 0.000000e+00
 0.000000e+00 8.542329e-01 1.457671e-01 0.000000e+00 0.000000e+00
 0.000000e+00 0.000000e+00 8.269217e-01 1.730783e-01 0.000000e+00
 0.000000e+00 0.000000e+00 0.000000e+00 9.380510e-01 6.194890e-02
 0.000000e+00 0.000000e+00 0.000000e+00 0.000000e+00 0.000000e+00
<ENDHMM>
~h "w"
<BEGINHMM>
<NUMSTATES> 5
<STATE> 2
<MEAN> 39
 -8.959999e+00 -5.875435e+00 -3.654178e+00 -8.758774e+00 -6.836740e+00 -8.221963e+00 -9.127939e+00 -7.623271e+00 -8.653705e+00 -6.041183e+00 -6.011381e+00 -3.370983e+00 4.640870e+01 -1.029815e-01 -5.567910e-02 -2.146951e-01 2.781192e-01 5.140691e-02 3.145545e-01 1.572420e-01 3.225113e-02 4.769332e-02 1.712956e-01 9.322091e-02 -4.772468e-02 -4.546614e-01 3.068713e-02 1.069618e-01 -8.139955e-02 1.363182e-01 -2.748349e-02 4.730841e-02 -4.943045e-02 -1.406885e-01 1.295267e-01 -1.285623e-01 -3.272935e-02 -5.945498e-02 -2.033920e-01
<VARIANCE> 39
 9.697836e+01 1.571754e+02 1.009699e+02 1.093458e+02 6.054490e+01 6.336377e+01 5.743348e+01 7.363983e+01 6.660234e+01 6.743345e+01 5.070670e+01 2.638441e+01 1.600407e+02 1.476774e+00 2.102008e+00 1.793785e+00 2.183302e+00 2.204821e+00 2.634901e+00 2.986868e+00 2.878999e+00 2.898976e+00 3.061934e+00 2.544410e+00 1.904788e+00 2.550966e+00 2.452324e-01 3.647324e-01 3.405368e-01 4.174341e-01 3.953164e-01 4.775841e-01 5.726547e-01 6.897384e-01 5.350259e-01 4.871199e-01 5.150906e-01 3.414502e-01 6.205746e-01
<GCONST> 1.284911e+02
<STATE> 3
<MEAN> 39
 -9.253975e+00 -5.799649e+00 -4.268013e+00 -8.163993e+00 -6.723749e+00 -7.816845e+00 -8.882396e+00 -7.736248e+00 -8.128188e+00 -6.031652e+00 -5.909671e+00 -3.511341e+00 4.558579e+01 -4.964239e-03 1.754202e-02 -2.335444e-01 3.095605e-01 -2.841663e-02 3.080957e-01 8.848765e-02 -1.597424e-01 2.409481e-01 -3.955370e-02 3.604919e-02 -9.363817e-02 -6.101367e-01 2.852555e-02 5.475641e-02 -1.435441e-02 3.456425e-02 -3.040671e-02 -2.853700e-02 -6.137441e-02 -1.438317e-01 4.093232e-02 -1.254451e-01 -2.978043e-02 1.291832e-02 -3.267471e-02
<VARIANCE> 39
 1.022983e+02 1.520093e+02 1.006402e+02 1.077936e+02 6.088148e+01 6.669211e+01 5.718462e+01 6.773570e+01 6.772250e+01 6.569170e+01 5.583068e+01 2.104058e+01 1.629492e+02 1.480015e+00 1.779085e+00 1.649114e+00 1.900388e+00 2.034945e+00 2.403626e+00 2.669816e+00 3.324336e+00 2.535059e+00 2.664212e+00 2.572064e+00 1.733349e+00 2.118442e+00 2.145692e-01 2.788507e-01 3.261551e-01 3.245619e-01 3.677385e-01 5.324953e-01 5.745128e-01 7.321302e-01 5.161200e-01 4.786549e-01 5.097033e-01 2.872659e-01 3.814507e-01
<GCONST> 1.259494e+02
<STATE> 4
<MEAN> 39
 -1.198260e+01 -5.669151e+00 -6.571997e+00 -5.540824e+00 -5.729867e+00 -4.835969e+00 -6.605957e+00 -6.677743e+00 -5.083138e+00 -6.584017e+00 -4.950765e+00 -3.088814e+00 4.059752e+01 7.891249e-02 -8.853798e-02 -4.959574e-02 1.023347e-01 2.781492e-02 2.316835e-01 6.343738e-02 -1.124947e-01 2.496268e-01 1.155139e-02 -3.397955e-03 2.790746e-02 -4.525791e-01 3.166342e-02 6.544887e-02 2.339575e-02 -4.198783e-02 -2.996429e-02 -1.071771e-01 -7.682604e-02 -9.437979e-02 -6.588461e-02 -3.348193e-02 -1.452207e-02 1.989875e-02 7.462087e-02
<VARIANCE> 39
 9.227797e+01 1.134848e+02 7.111348e+01 8.457649e+01 4.617000e+01 6.353006e+01 5.292208e+01 5.827702e+01 6.258298e+01 4.724927e+01 4.896556e+01 2.069385e+01 1.383993e+02 1.442635e+00 1.782833e+00 1.652892e+00 1.748666e+00 2.136727e+00 3.295656e+00 2.844554e+00 4.127242e+00 2.550141e+00 2.511190e+00 2.698968e+00 1.960303e+00 2.238145e+00 2.160228e-01 2.531265e-01 3.361034e-01 3.356779e-01 4.086982e-01 6.735330e-01 5.597005e-01 7.832433e-01 5.184929e-01 4.670974e-01 5.551740e-01 3.313352e-01 2.288338e-01
<GCONST> 1.244573e+02
<TRANSP> 5
 0.000000e+00 1.000000e+00 0.000000e+00 0.000000e+00 0.000000e+00
 0.000000e+00 4.077031e-01 5.922969e-01 0.000000e+00 0.000000e+00
 0.000000e+00 0.000000e+00 3.938521e-01 6.061478e-01 0.000000e+00
 0.000000e+00 0.000000e+00 0.000000e+00 6.391642e-01 3.608358e-01
 0.000000e+00 0.000000e+00 0.000000e+00 0.000000e+00 0.000000e+00
<ENDHMM>
~h "y"
<BEGINHMM>
<NUMSTATES> 5
<STATE> 2
<MEAN> 39
 2.504633e+00 -3.350726e+00 -7.159947e-01 -1.022318e+01 -9.702684e+00 -1.043815e+01 -1.717595e+01 -1.130203e+01 -1.235768e+01 -6.761897e+00 -1.636256e+00 -3.184087e+00 4.712046e+01 -4.055097e-01 7.671626e-01 -3.544746e-01 1.233630e-01 -1.224829e+00 -4.082136e-01 1.900266e-01 -9.000682e-01 2.452605e-01 1.276496e-02 4.479917e-01 -2.072775e-02 -2.028246e-01 -3.095264e-01 -8.319976e-02 -2.249325e-01 1.348940e-01 -1.465299e-01 1.212485e-01 3.220578e-01 -3.664271e-02 -1.405430e-01 -7.361538e-02 1.775065e-01 -4.822458e-02 8.712568e-02
<VARIANCE> 39
 2.151010e+01 1.556609e+02 1.562112e+02 6.660199e+01 1.169013e+02 1.336145e+02 5.167268e+01 9.024310e+01 1.766654e+01 7.660977e+01 1.700707e+01 3.426331e+01 4.318397e+01 4.467492e+00 6.030493e+00 7.920816e+00 2.127373e+00 4.852652e+00 5.197854e+00 2.929200e+00 6.282040e+00 3.757791e+00 3.597585e+00 2.927244e+00 1.081288e+00 1.737972e+00 5.031683e-01 2.450025e-01 8.238778e-01 3.584925e-01 6.834116e-01 1.338847e+00 4.847402e-01 1.231356e+00 6.502559e-01 6.269169e-01 3.681234e-01 1.712071e-01 1.957469e-01
<GCONST> 1.318476e+02
<STATE> 3
<MEAN> 39
 6.026077e-01 -2.299421e+00 -9.035327e-01 -9.906908e+00 -1.282260e+01 -1.075053e+01 -1.559404e+01 -1.312495e+01 -1.241875e+01 -6.724397e+00 -1.975536e-01 -3.396668e+00 4.712146e+01 -8.961211e-01 4.570117e-01 -7.945781e-01 2.414493e-01 -9.672814e-01 -2.239373e-01 9.321260e-01 -1.129937e-01 -1.371685e-01 -5.585023e-01 5.389714e-01 -2.661748e-01 -3.074718e-02 -2.238150e-01 -1.225775e-01 1.412175e-02 3.372778e-02 2.354753e-01 1.429738e-01 1.751377e-01 3.010787e-01 -9.816973e-02 -2.095600e-01 -8.883300e-02 -3.919138e-02 -4.142049e-03
<VARIANCE> 39
 4.251450e+01 1.599569e+02 2.615201e+02 6.818106e+01 1.572245e+02 9.728991e+01 5.022204e+01 1.224767e+02 2.435703e+01 6.694633e+01 1.366092e+01 3.257491e+01 3.575137e+01 5.153923e+00 5.696126e+00 8.371834e+00 1.918253e+00 5.935883e+00 5.618725e+00 4.053057e+00 7.637290e+00 3.125736e+00 3.563006e+00 2.165928e+00 9.036087e-01 1.622385e+00 3.704768e-01 3.057170e-01 1.108704e+00 4.157760e-01 6.090101e-01 1.065851e+00 6.890331e-01 1.398039e+00 6.653948e-01 6.729214e-01 4.211078e-01 1.754859e-01 1.601531e-01
<GCONST> 1.337206e+02
<STATE> 4
<MEAN> 39
 -1.187085e+01 6.503707e+00 2.688930e+00 -9.579399e+00 -1.091519e+01 -1.579535e+01 -7.363841e+00 -1.459332e+01 -1.081522e+01 -1.016699e+01 4.625065e-01 -3.831370e+00 4.610261e+01 -5.799958e-01 3.433807e-01 -6.861042e-01 2.620809e-01 2.598622e-01 -2.125996e-01 4.934363e-01 -6.357159e-02 3.515907e-01 -3.601169e-01 -1.324615e-01 -3.272347e-01 -2.688278e-01 -1.195873e-02 -1.561194e-02 7.290189e-02 -6.212512e-03 1.824246e-01 9.147499e-02 -1.278165e-01 1.146846e-02 2.323733e-02 8.217617e-02 -7.386753e-02 8.678658e-03 -7.321622e-02
<VARIANCE> 39
 1.601197e+02 1.280129e+02 1.923733e+02 3.393827e+01 2.361426e+02 5.186192e+01 6.156609e+01 8.186716e+01 7.142384e+01 3.478353e+01 2.500233e+01 2.508629e+01 2.531316e+01 7.371555e+00 4.333509e+00 4.617774e+00 2.507164e+00 1.572565e+01 4.628209e+00 4.658436e+00 6.513934e+00 3.620368e+00 3.201390e+00 3.130418e+00 1.407841e+00 1.573141e+00 7.251779e-01 6.337714e-01 8.673077e-01 4.244409e-01 2.240087e+00 7.049059e-01 8.118470e-01 1.312836e+00 5.356765e-01 5.952648e-01 5.277288e-01 3.224466e-01 2.917958e-01
<GCONST> 1.384156e+02
<TRANSP> 5
 0.000000e+00 1.000000e+00 0.000000e+00 0.000000e+00 0.000000e+00
 0.000000e+00 4.098177e-01 5.901823e-01 0.000000e+00 0.000000e+00
 0.000000e+00 0.000000e+00 4.462876e-01 5.537124e-01 0.000000e+00
 0.000000e+00 0.000000e+00 0.000000e+00 8.466063e-01 1.533938e-01
 0.000000e+00 0.000000e+00 0.000000e+00 0.000000e+00 0.000000e+00
<ENDHMM>
~h "z"
<BEGINHMM>
<NUMSTATES> 5
<STATE> 2
<MEAN> 39
 -1.399522e+01 2.831180e+00 -6.599812e+00 -4.682194e+00 -6.571116e+00 -8.621646e+00 -8.409328e+00 -1.155111e+01 -5.935317e+00 -7.910667e+00 -4.456034e+00 -4.444798e+00 4.543989e+01 -7.599047e-01 7.936443e-01 -7.678195e-01 7.016107e-01 2.894917e-01 -1.113127e-01 3.390945e-01 4.960983e-02 5.848265e-01 5.907762e-02 2.917694e-01 5.889979e-02 -1.480620e-01 1.366242e-01 -1.786773e-01 3.914220e-02 -1.201016e-01 -8.739815e-02 3.446456e-02 -1.072484e-01 6.050586e-02 -4.487369e-02 7.642733e-02 -1.162040e-01 3.619423e-02 -2.889970e-03
<VARIANCE> 39
 1.264797e+02 1.383554e+02 7.908871e+01 1.073757e+02 9.412247e+01 7.556495e+01 8.516975e+01 8.115667e+01 5.820518e+01 5.153015e+01 5.319447e+01 4.074224e+01 9.115482e+01 5.675909e+00 7.246286e+00 4.779888e+00 6.257148e+00 6.492879e+00 5.197864e+00 5.950877e+00 3.880667e+00 3.861920e+00 3.761570e+00 4.498926e+00 3.396974e+00 2.799249e+00 5.993073e-01 7.455792e-01 5.519728e-01 8.739372e-01 9.491597e-01 8.343650e-01 9.296871e-01 7.385145e-01 6.606970e-01 7.555063e-01 8.790989e-01 7.170628e-01 4.138352e-01
<GCONST> 1.444276e+02
<STATE> 3
<MEAN> 39
 -1.503161e+01 4.164110e+00 -8.717852e+00 -3.392319e+00 -6.040174e+00 -8.793366e+00 -8.021199e+00 -1.136984e+01 -4.273357e+00 -7.034806e+00 -4.281147e+00 -4.049711e+00 4.523732e+01 -2.833875e-01 2.277268e-01 -4.995664e-01 2.969717e-01 1.446068e-02 6.436649e-02 1.979481e-01 2.062524e-01 3.456362e-01 1.869291e-01 9.308916e-02 1.555173e-01 -2.150297e-01 1.490890e-01 -2.464718e-01 1.425916e-01 -1.857987e-01 -8.548531e-02 1.108396e-01 -3.141959e-02 6.642292e-02 -1.050218e-01 4.872793e-02 -5.894004e-02 2.045675e-02 -3.937056e-02
<VARIANCE> 39
 1.284379e+02 1.530493e+02 7.685614e+01 1.040281e+02 1.032917e+02 7.550241e+01 9.036402e+01 7.907524e+01 5.906457e+01 5.622602e+01 4.726070e+01 3.703880e+01 8.420161e+01 4.907764e+00 6.722602e+00 4.570091e+00 6.980653e+00 6.594012e+00 5.558707e+00 6.263228e+00 4.486554e+00 3.584083e+00 4.093544e+00 4.090109e+00 3.209819e+00 3.737443e+00 5.589921e-01 9.498436e-01 5.873374e-01 8.542978e-01 1.081613e+00 9.460540e-01 1.087001e+00 8.459560e-01 5.960155e-01 7.934977e-01 7.892829e-01 6.749693e-01 4.379372e-01
<GCONST> 1.452825e+02
<STATE> 4
<MEAN> 39
 -1.823323e+01 2.937614e+00 -9.958684e+00 -2.056561e+00 -3.578234e+00 -5.142449e+00 -3.324635e+00 -8.912340e+00 -2.286586e+00 -6.151434e+00 -2.471424e+00 -2.613735e+00 4.010254e+01 2.599067e-01 -5.406899e-01 2.192131e-01 -3.273866e-01 9.799171e-02 2.326562e-01 2.082708e-01 3.655985e-01 5.024886e-02 2.122375e-01 -2.685164e-02 1.152651e-01 -4.190403e-01 5.980201e-02 -8.920262e-02 1.170656e-01 -6.247989e-02 -2.059059e-02 2.436170e-02 -4.217938e-02 -1.771765e-03 -6.412700e-02 -3.064021e-02 -5.573681e-02 -2.142590e-02 -1.950727e-02
<VARIANCE> 39
 9.371886e+01 1.119305e+02 5.708071e+01 9.063181e+01 9.086169e+01 8.247455e+01 9.375284e+01 6.528718e+01 4.914211e+01 4.288202e+01 3.786469e+01 2.568531e+01 9.179263e+01 2.328674e+00 2.883777e+00 3.306681e+00 5.047480e+00 4.885242e+00 4.414168e+00 4.498186e+00 4.389922e+00 3.498328e+00 3.734679e+00 3.417383e+00 2.289256e+00 3.072281e+00 3.540629e-01 4.387058e-01 5.339273e-01 7.822654e-01 8.664654e-01 8.175045e-01 8.711630e-01 8.576118e-01 6.263255e-01 6.912805e-01 6.868989e-01 4.793665e-01 3.668471e-01
<GCONST> 1.363809e+02
<TRANSP> 5
 0.000000e+00 1.000000e+00 0.000000e+00 0.000000e+00 0.000000e+00
 0.000000e+00 5.240821e-01 4.759178e-01 0.000000e+00 0.000000e+00
 0.000000e+00 0.000000e+00 5.550721e-01 4.449279e-01 0.000000e+00
 0.000000e+00 0.000000e+00 0.000000e+00 7.739679e-01 2.260320e-01
 0.000000e+00 0.000000e+00 0.000000e+00 0.000000e+00 0.000000e+00
<ENDHMM>
~h "aa"
<BEGINHMM>
<NUMSTATES> 5
<STATE> 2
<MEAN> 39
 -1.078916e+01 -3.614107e+00 -7.381216e+00 -6.166180e+00 -6.010613e+00 -3.859180e+00 -6.945513e+00 -6.668999e+00 -5.443632e+00 -5.733200e+00 -6.322975e+00 -5.485073e+00 3.696145e+01 -4.554721e-01 -1.584456e-01 3.752936e-02 4.553075e-01 4.018064e-01 9.697317e-01 5.708362e-01 2.142954e-01 -8.890858e-02 1.468155e-01 -7.500441e-02 8.842412e-02 -9.772378e-01 4.632660e-02 -1.864102e-02 3.701106e-02 -7.803215e-04 1.935176e-02 -7.071503e-02 -6.977330e-03 -5.895879e-02 -7.457913e-03 -5.466823e-02 5.380781e-02 5.435954e-02 1.431944e-01
<VARIANCE> 39
 5.398517e+01 5.114235e+01 3.054129e+01 3.284318e+01 3.908303e+01 3.983100e+01 5.319775e+01 4.732192e+01 4.655989e+01 2.997396e+01 2.706294e+01 2.058111e+01 9.639913e+01 9.575566e-01 8.493841e-01 1.409529e+00 1.722858e+00 2.248475e+00 2.075995e+00 2.316412e+00 2.161947e+00 3.299191e+00 3.059847e+00 2.526095e+00 1.421786e+00 6.393580e-01 1.105655e-01 1.539306e-01 1.625593e-01 3.335244e-01 3.559587e-01 3.244652e-01 4.868774e-01 4.740126e-01 5.810225e-01 4.099905e-01 3.857587e-01 2.158928e-01 7.461064e-02
<GCONST> 1.096719e+02
<STATE> 3
<MEAN> 39
 -1.208096e+01 -4.468234e+00 -7.049960e+00 -5.052613e+00 -5.183846e+00 -1.251274e+00 -4.428221e+00 -5.211009e+00 -5.020214e+00 -5.429376e+00 -5.786611e+00 -4.714305e+00 3.517206e+01 -3.337186e-01 -1.068869e-01 7.835706e-02 4.329097e-01 2.704626e-01 5.278196e-01 3.360438e-01 1.526775e-01 -4.223363e-02 1.124111e-01 1.549396e-01 2.474421e-01 -5.827644e-01 2.125691e-03 2.794403e-02 1.971568e-02 -5.087886e-02 -4.369972e-02 -2.467244e-01 -9.408779e-02 -3.331026e-02 -4.398891e-02 -9.154979e-02 -3.562239e-03 2.638567e-02 1.067068e-01
<VARIANCE> 39
 5.288347e+01 5.676565e+01 3.092004e+01 3.528192e+01 3.723062e+01 4.028050e+01 3.990210e+01 4.211911e+01 3.711361e+01 2.724951e+01 3.067547e+01 2.491604e+01 1.032711e+02 1.031030e+00 8.506079e-01 1.282044e+00 1.482526e+00 1.569966e+00 2.371037e+00 2.231560e+00 1.906376e+00 2.332577e+00 2.571175e+00 2.203702e+00 1.436088e+00 7.349905e-01 1.288981e-01 1.421926e-01 1.985552e-01 2.878253e-01 3.108680e-01 4.123911e-01 4.700385e-01 3.696941e-01 4.400609e-01 4.796271e-01 4.382970e-01 2.776951e-01 6.810415e-02
<GCONST> 1.085091e+02
<STATE> 4
<MEAN> 39
 -1.360565e+01 -3.247314e+00 -4.642703e+00 -3.074203e-01 -1.421006e+00 1.272796e+00 -1.295278e+00 -2.729722e+00 -2.457719e+00 -4.656608e+00 -2.143784e+00 -8.170533e-01 3.306769e+01 -1.300905e-01 -8.354705e-03 1.589327e-01 9.493149e-02 3.107930e-01 -1.105437e-02 1.516932e-01 7.367811e-02 1.022763e-01 1.217027e-01 3.370641e-02 1.450794e-01 -2.141461e-01 5.431574e-02 6.392517e-03 -3.334634e-03 -4.344707e-02 6.220790e-03 -5.884578e-02 -4.094663e-02 -3.867346e-02 -1.551632e-02 -3.633344e-03 4.664418e-03 -5.569741e-03 6.549519e-02
<VARIANCE> 39
 4.976334e+01 4.140993e+01 5.653804e+01 4.844949e+01 4.549916e+01 3.342200e+01 3.420426e+01 4.272062e+01 3.500825e+01 2.199144e+01 3.144005e+01 2.407298e+01 5.028948e+01 1.028477e+00 1.056301e+00 2.326311e+00 2.225238e+00 1.745114e+00 2.300254e+00 2.131383e+00 4.318355e+00 3.097729e+00 2.127154e+00 2.314842e+00 1.404337e+00 8.590673e-01 1.978281e-01 1.972621e-01 5.122344e-01 4.554656e-01 3.362122e-01 4.604561e-01 4.940389e-01 8.340368e-01 5.899855e-01 4.372174e-01 4.751706e-01 2.788597e-01 1.675835e-01
<GCONST> 1.146660e+02
<TRANSP> 5
 0.000000e+00 1.000000e+00 0.000000e+00 0.000000e+00 0.000000e+00
 0.000000e+00 6.592134e-01 3.407866e-01 0.000000e+00 0.000000e+00
 0.000000e+00 0.000000e+00 5.963958e-01 4.036042e-01 0.000000e+00
 0.000000e+00 0.000000e+00 0.000000e+00 8.543673e-01 1.456327e-01
 0.000000e+00 0.000000e+00 0.000000e+00 0.000000e+00 0.000000e+00
<ENDHMM>
~h "ae"
<BEGINHMM>
<NUMSTATES> 5
<STATE> 2
<MEAN> 39
 -6.451761e+00 -9.096884e+00 -2.465570e+00 -1.005580e+01 -7.311696e+00 -9.526575e+00 -9.624269e+00 -7.727068e+00 -9.838951e+00 -8.195744e+00 -8.230338e+00 -1.847549e+00 4.934609e+01 3.165909e-01 -5.683931e-01 7.871762e-02 -2.907461e-01 1.482352e-01 -2.444922e-01 -2.179073e-01 2.124421e-01 1.904897e-01 -3.439255e-02 -1.175219e-01 9.492894e-02 7.408351e-01 5.964801e-02 -4.682177e-02 1.290512e-02 -5.388154e-02 -8.964371e-03 -4.769001e-02 -4.785796e-02 5.026655e-02 9.295367e-02 1.676655e-02 2.740374e-02 -4.474160e-02 8.654312e-02
<VARIANCE> 39
 6.996517e+01 1.247766e+02 8.339252e+01 7.962595e+01 6.659025e+01 7.745744e+01 8.581570e+01 7.333726e+01 7.779767e+01 6.508252e+01 6.640069e+01 4.568807e+01 1.303333e+02 3.803733e+00 5.758070e+00 3.659206e+00 5.535231e+00 4.961562e+00 5.166436e+00 7.426831e+00 6.243043e+00 5.059041e+00 4.124357e+00 5.412378e+00 3.605763e+00 7.565257e+00 5.369821e-01 9.767377e-01 5.273064e-01 8.325977e-01 8.798829e-01 9.397179e-01 1.290395e+00 1.149014e+00 7.834575e-01 6.987879e-01 1.003066e+00 5.753057e-01 9.654742e-01
<GCONST> 1.470217e+02
<STATE> 3
<MEAN> 39
 -5.479380e+00 -1.112088e+01 -1.839913e+00 -1.125567e+01 -6.870519e+00 -9.770308e+00 -1.000288e+01 -6.477262e+00 -9.163109e+00 -8.441187e+00 -8.895874e+00 -1.846072e+00 5.176895e+01 2.303649e-01 -4.715670e-01 1.305866e-01 -1.954992e-01 2.091959e-02 -8.709332e-02 -1.824627e-02 3.610187e-01 1.621318e-01 -1.447493e-01 -1.086783e-01 -1.577599e-01 4.436307e-01 -8.185529e-02 8.884720e-02 1.365520e-02 1.000751e-01 2.048406e-02 3.287118e-02 5.955410e-02 -8.528396e-03 -4.190672e-02 -4.173498e-02 2.637645e-02 -5.596278e-02 -1.567853e-01
<VARIANCE> 39
 6.441961e+01 1.230207e+02 8.000974e+01 6.648656e+01 6.950948e+01 7.737063e+01 7.894357e+01 7.971795e+01 7.660271e+01 7.250707e+01 7.548565e+01 5.013008e+01 1.080425e+02 3.467757e+00 5.639643e+00 2.883753e+00 5.000586e+00 4.295660e+00 5.001630e+00 6.934311e+00 6.188435e+00 4.428020e+00 4.167491e+00 5.272832e+00 3.669296e+00 6.969738e+00 4.521434e-01 8.355373e-01 4.665897e-01 7.472374e-01 7.796299e-01 8.294085e-01 1.329149e+00 1.113045e+00 7.319710e-01 6.929836e-01 9.192448e-01 6.275910e-01 7.777293e-01
<GCONST> 1.448511e+02
<STATE> 4
<MEAN> 39
 -4.624842e+00 -1.234520e+01 -1.436900e+00 -1.186589e+01 -6.858528e+00 -9.522708e+00 -9.761731e+00 -5.383870e+00 -8.681598e+00 -9.546242e+00 -1.035978e+01 -2.975482e+00 5.198626e+01 1.079849e-01 1.765549e-01 -3.342754e-02 2.453865e-01 -6.875195e-02 -2.935373e-02 2.318768e-02 -2.271353e-02 -4.776714e-02 -2.613827e-01 6.348082e-02 -3.758067e-01 -3.353997e-01 -4.737373e-02 1.310667e-01 1.785132e-02 1.060947e-01 1.391333e-02 -9.388693e-03 5.558561e-03 -1.199291e-01 -7.987376e-02 3.926885e-03 3.803842e-02 5.271004e-03 -1.368620e-01
<VARIANCE> 39
 6.562943e+01 1.128316e+02 7.168858e+01 6.184681e+01 6.100636e+01 7.471998e+01 6.354922e+01 7.111208e+01 6.544822e+01 7.812890e+01 8.474855e+01 4.439676e+01 1.044118e+02 2.537561e+00 4.316141e+00 2.416884e+00 3.381227e+00 3.381162e+00 4.168324e+00 5.018742e+00 4.729685e+00 3.680972e+00 3.552930e+00 3.623285e+00 3.316342e+00 4.180856e+00 3.641872e-01 5.561576e-01 4.103101e-01 5.810425e-01 6.206388e-01 6.834772e-01 9.787139e-01 7.832391e-01 5.858384e-01 6.069902e-01 6.530553e-01 5.663208e-01 5.536702e-01
<GCONST> 1.372667e+02
<TRANSP> 5
 0.000000e+00 1.000000e+00 0.000000e+00 0.000000e+00 0.000000e+00
 0.000000e+00 5.322539e-01 4.677461e-01 0.000000e+00 0.000000e+00
 0.000000e+00 0.000000e+00 5.256764e-01 4.743237e-01 0.000000e+00
 0.000000e+00 0.000000e+00 0.000000e+00 6.383027e-01 3.616973e-01
 0.000000e+00 0.000000e+00 0.000000e+00 0.000000e+00 0.000000e+00
<ENDHMM>
~h "ah"
<BEGINHMM>
<NUMSTATES> 5
<STATE> 2
<MEAN> 39
 -5.606689e+00 -7.127886e+00 -3.010747e+00 -1.054246e+01 -4.738657e+00 -1.003101e+01 -1.233886e+01 -1.013264e+01 -9.357645e+00 -7.404569e+00 -9.007060e+00 -3.060612e+00 5.042611e+01 3.992683e-01 -8.704321e-01 2.594876e-01 -6.396739e-01 5.635959e-02 -1.520765e-01 -3.095770e-01 -1.035677e-01 -1.123476e-01 1.610127e-01 -3.292547e-01 1.595141e-01 1.149308e+00 6.589036e-02 -5.837486e-02 -1.482500e-02 5.886689e-04 -1.329809e-02 4.380403e-02 3.282284e-02 1.240871e-01 3.550724e-02 1.480567e-02 -9.767657e-03 -2.389357e-02 -4.003720e-02
<VARIANCE> 39
 9.868231e+01 1.320067e+02 1.268955e+02 9.157973e+01 7.423534e+01 9.789561e+01 8.138184e+01 7.954911e+01 5.391407e+01 6.846741e+01 7.098078e+01 5.315543e+01 9.553630e+01 5.770924e+00 7.552654e+00 6.932608e+00 7.588543e+00 6.693090e+00 7.704135e+00 7.070279e+00 7.662339e+00 5.118523e+00 6.025713e+00 7.224286e+00 5.321427e+00 7.638402e+00 8.818062e-01 9.927803e-01 1.024864e+00 1.218322e+00 1.291768e+00 1.319967e+00 1.275721e+00 1.264221e+00 8.297358e-01 1.028443e+00 1.413538e+00 1.099125e+00 1.071846e+00
<GCONST> 1.554240e+02
<STATE> 3
<MEAN> 39
 -5.164356e+00 -8.710942e+00 -2.485822e+00 -1.147943e+01 -4.548216e+00 -1.054776e+01 -1.262804e+01 -9.591669e+00 -9.114983e+00 -7.627495e+00 -9.454700e+00 -3.264391e+00 5.279153e+01 1.566752e-01 -4.317454e-01 1.337956e-01 -1.736133e-01 -7.279518e-03 -9.293956e-02 -1.877385e-02 8.411051e-02 1.495447e-01 -2.782045e-02 -1.052973e-01 -2.187014e-02 4.341070e-01 -2.124500e-02 7.472036e-02 -3.777199e-02 8.987899e-02 -1.284369e-02 6.681187e-04 5.197572e-02 4.810382e-02 7.355876e-04 -1.530342e-02 3.909403e-02 -1.505547e-02 -1.219631e-01
<VARIANCE> 39
 9.458192e+01 1.470840e+02 1.279801e+02 9.491514e+01 7.798763e+01 1.118077e+02 7.811642e+01 9.060703e+01 6.509952e+01 6.675093e+01 7.050050e+01 5.090417e+01 6.884291e+01 5.294161e+00 7.722261e+00 6.093841e+00 6.821725e+00 6.172512e+00 7.060215e+00 6.664118e+00 6.997173e+00 5.382382e+00 5.870487e+00 6.701954e+00 4.757483e+00 4.927937e+00 7.924897e-01 9.359557e-01 9.132918e-01 1.065908e+00 1.256432e+00 1.282682e+00 1.189188e+00 1.305365e+00 9.199323e-01 1.110790e+00 1.286141e+00 9.476603e-01 6.400569e-01
<GCONST> 1.532846e+02
<STATE> 4
<MEAN> 39
 -5.925518e+00 -7.103362e+00 -9.870625e-02 -1.231733e+01 -6.319355e+00 -1.121216e+01 -1.205206e+01 -1.058500e+01 -9.526189e+00 -8.062078e+00 -9.655944e+00 -3.171343e+00 5.276807e+01 -6.027630e-02 1.173217e-01 2.920504e-02 7.323014e-02 -1.298256e-01 -4.651378e-02 8.819588e-02 5.990785e-02 5.220380e-02 -2.299806e-02 7.120438e-02 4.197992e-03 -5.239284e-02 -2.684998e-02 3.563128e-02 -1.275431e-02 2.103927e-02 3.988649e-04 2.794028e-02 1.711683e-02 2.383371e-02 -6.965867e-03 2.030595e-02 6.894905e-03 3.078628e-03 -3.810286e-02
<VARIANCE> 39
 8.817118e+01 1.371410e+02 1.173008e+02 1.143796e+02 7.989773e+01 9.116830e+01 8.657414e+01 8.280949e+01 8.297092e+01 6.226488e+01 7.234741e+01 5.833054e+01 6.548377e+01 5.212508e+00 6.726072e+00 5.648962e+00 6.579365e+00 5.279179e+00 5.831867e+00 6.077255e+00 5.824989e+00 5.216710e+00 5.209939e+00 5.671783e+00 4.318087e+00 3.606475e+00 7.438941e-01 8.017108e-01 8.810711e-01 9.398571e-01 9.457831e-01 9.994394e-01 1.076046e+00 1.064012e+00 9.478763e-01 9.938728e-01 1.081733e+00 7.891800e-01 4.785703e-01
<GCONST> 1.498005e+02
<TRANSP> 5
 0.000000e+00 1.000000e+00 0.000000e+00 0.000000e+00 0.000000e+00
 0.000000e+00 7.932023e-01 2.067977e-01 0.000000e+00 0.000000e+00
 0.000000e+00 0.000000e+00 7.796028e-01 2.203972e-01 0.000000e+00
 0.000000e+00 0.000000e+00 0.000000e+00 9.392681e-01 6.073184e-02
 0.000000e+00 0.000000e+00 0.000000e+00 0.000000e+00 0.000000e+00
<ENDHMM>
~h "ao"
<BEGINHMM>
<NUMSTATES> 5
<STATE> 2
<MEAN> 39
 -4.995899e+00 -7.110962e+00 -4.946149e+00 -1.564758e+01 -2.080700e+00 -4.456687e+00 -1.605031e+01 -9.300137e+00 -5.368781e+00 -6.522027e+00 -7.755550e+00 -4.813087e+00 5.009013e+01 1.219020e+00 -3.766527e-01 -1.699419e-01 -1.248296e+00 -1.310635e-01 5.104415e-01 -4.123277e-01 8.159556e-02 -6.340760e-02 2.206937e-01 -1.688520e-01 1.034471e-01 1.050651e+00 2.082651e-02 1.842176e-02 5.328255e-03 7.686943e-02 3.048611e-02 9.680824e-02 5.131361e-02 3.527078e-03 -5.753087e-02 -9.898484e-03 -1.202514e-01 -7.548550e-02 -3.958136e-03
<VARIANCE> 39
 8.417223e+01 7.493579e+01 7.224780e+01 1.337341e+02 9.213711e+01 1.858863e+02 9.903822e+01 4.866223e+01 9.724110e+01 5.252367e+01 6.874022e+01 5.235406e+01 8.360094e+01 8.644201e+00 6.865572e+00 5.430960e+00 9.861692e+00 7.455034e+00 1.373887e+01 7.303040e+00 5.075572e+00 8.086831e+00 6.060656e+00 7.335602e+00 5.165243e+00 6.301947e+00 1.350386e+00 1.087169e+00 8.362682e-01 1.580256e+00 1.342925e+00 2.166274e+00 1.200609e+00 9.891053e-01 1.406659e+00 1.005676e+00 1.342320e+00 9.247265e-01 8.674393e-01
<GCONST> 1.569813e+02
<STATE> 3
<MEAN> 39
 -1.106509e+00 -9.263824e+00 -6.046572e+00 -1.892792e+01 -2.085006e+00 -1.769476e+00 -1.560941e+01 -9.011288e+00 -7.704470e+00 -5.356433e+00 -9.444349e+00 -4.674251e+00 5.402162e+01 6.580358e-01 -1.851199e-01 -1.702917e-01 -1.079034e-01 1.515779e-02 6.143755e-02 -9.840539e-02 6.026768e-02 -3.086087e-01 1.096766e-01 -2.542028e-01 -2.966249e-02 4.100133e-01 -1.601280e-01 6.476413e-02 -3.021812e-02 1.967125e-01 2.046909e-02 -1.537404e-03 1.097573e-01 -2.996668e-03 7.816206e-02 -2.068591e-02 8.936408e-02 -4.494547e-02 -1.857072e-01
<VARIANCE> 39
 5.339872e+01 8.162450e+01 6.953467e+01 1.480957e+02 1.028168e+02 2.695454e+02 6.646565e+01 4.136544e+01 7.379692e+01 5.947852e+01 5.058843e+01 5.768854e+01 5.561833e+01 4.890710e+00 4.807553e+00 4.683405e+00 6.267598e+00 7.338979e+00 9.954157e+00 5.024482e+00 3.721407e+00 5.361159e+00 4.249492e+00 5.216247e+00 4.745602e+00 3.482975e+00 7.338470e-01 7.606522e-01 6.022531e-01 8.906791e-01 1.060164e+00 1.615344e+00 9.101072e-01 6.848365e-01 9.898351e-01 7.389756e-01 1.000674e+00 8.545646e-01 5.100923e-01
<GCONST> 1.468862e+02
<STATE> 4
<MEAN> 39
 1.551478e+00 -8.570810e+00 -9.844251e+00 -1.311677e+01 -3.847630e+00 -5.025198e+00 -1.432869e+01 -6.836208e+00 -8.868706e+00 -5.471993e+00 -7.227826e+00 -4.447415e+00 5.176714e+01 1.809967e-02 1.783983e-01 1.911106e-01 3.984376e-01 -2.633303e-01 -5.060498e-01 9.339647e-02 7.270712e-02 9.955598e-02 -1.494857e-01 -1.267777e-02 3.266172e-03 -2.314666e-01 -8.876364e-02 2.721605e-02 6.053006e-02 3.572966e-03 -3.310404e-02 1.493630e-02 2.752048e-02 -2.733741e-02 4.469110e-02 -1.711399e-03 2.426036e-02 -8.021010e-03 -4.655769e-02
<VARIANCE> 39
 5.072689e+01 1.023172e+02 9.991189e+01 1.707865e+02 9.409578e+01 1.847543e+02 7.695195e+01 8.826550e+01 7.312955e+01 5.602170e+01 5.688549e+01 4.910564e+01 5.287587e+01 1.908728e+00 2.830233e+00 3.408103e+00 4.303463e+00 4.415636e+00 5.484316e+00 4.295864e+00 3.499190e+00 4.110840e+00 3.542441e+00 3.043959e+00 3.647190e+00 1.761374e+00 2.721253e-01 4.200557e-01 4.022628e-01 6.358007e-01 6.826140e-01 8.659009e-01 7.637625e-01 6.483170e-01 7.278698e-01 6.022314e-01 5.352058e-01 6.838475e-01 2.401823e-01
<GCONST> 1.366882e+02
<TRANSP> 5
 0.000000e+00 1.000000e+00 0.000000e+00 0.000000e+00 0.000000e+00
 0.000000e+00 7.987846e-01 2.012154e-01 0.000000e+00 0.000000e+00
 0.000000e+00 0.000000e+00 7.782966e-01 2.217033e-01 0.000000e+00
 0.000000e+00 0.000000e+00 0.000000e+00 9.135283e-01 8.647165e-02
 0.000000e+00 0.000000e+00 0.000000e+00 0.000000e+00 0.000000e+00
<ENDHMM>
~h "aw"
<BEGINHMM>
<NUMSTATES> 5
<STATE> 2
<MEAN> 39
 -8.595829e-01 -1.515010e+01 -2.076648e+00 -4.825578e-01 -5.054066e+00 -1.156448e+01 -1.147729e+01 -3.647944e+00 -1.444447e+01 -1.771107e+01 -6.438574e+00 -5.751361e+00 4.877828e+01 -2.905988e-01 7.359428e-01 -2.369604e-01 3.114778e-01 -2.237151e-01 -5.290239e-01 1.618865e-01 -4.369264e-02 4.365732e-01 8.407141e-02 -5.750982e-02 -5.293332e-02 -7.796155e-01 1.929405e-03 2.663503e-02 3.402026e-02 -4.194539e-02 -2.209229e-02 -7.677002e-02 3.626101e-02 -3.769970e-02 -1.287292e-02 7.597320e-02 3.577330e-03 2.712812e-02 -5.212140e-03
<VARIANCE> 39
 4.530701e+01 1.882516e+02 1.448115e+01 2.549820e+01 6.770427e+01 1.134873e+02 5.082797e+01 8.328889e+01 4.514848e+01 5.437769e+01 2.401031e+01 4.166318e+01 8.514717e+01 8.031128e-01 3.093858e+00 1.476524e+00 1.976499e+00 3.033378e+00 5.097604e+00 3.041139e+00 2.632403e+00 2.296525e+00 2.898187e+00 2.693670e+00 2.903082e+00 1.410178e+00 1.635252e-01 3.892801e-01 2.200085e-01 3.346857e-01 5.073743e-01 5.906007e-01 5.709510e-01 5.711279e-01 4.119604e-01 6.050334e-01 5.398763e-01 5.602802e-01 1.961730e-01
<GCONST> 1.222891e+02
<STATE> 3
<MEAN> 39
 -6.891542e+00 -8.725018e+00 -2.668629e+00 -1.269168e+00 -7.053303e+00 -1.341309e+01 -7.686710e+00 -6.704484e+00 -1.030188e+01 -1.215872e+01 -6.196293e+00 -4.466231e+00 4.119648e+01 -3.181338e-01 1.509458e-01 -3.817367e-01 2.952770e-01 7.608137e-02 2.264612e-01 2.718101e-01 -1.158119e-02 2.980149e-01 3.458176e-01 1.336996e-01 1.584152e-01 -4.954479e-01 1.091343e-01 -8.544179e-02 3.591635e-02 -3.535431e-02 2.001627e-02 -3.437787e-02 -6.083277e-02 2.779680e-02 -1.078258e-01 6.635506e-02 7.733883e-02 6.830934e-02 1.274132e-01
<VARIANCE> 39
 7.602654e+01 1.376171e+02 1.993991e+01 2.548923e+01 3.410222e+01 8.954268e+01 5.750992e+01 7.866660e+01 4.829690e+01 7.419225e+01 3.863202e+01 5.523498e+01 9.452027e+01 2.016751e+00 7.187126e+00 2.086677e+00 2.211387e+00 3.262834e+00 6.926690e+00 3.740815e+00 3.651950e+00 3.271045e+00 3.854087e+00 3.272780e+00 3.529033e+00 4.452003e+00 3.274544e-01 1.036208e+00 4.094641e-01 3.697201e-01 4.789806e-01 1.020563e+00 6.770534e-01 6.927122e-01 7.184888e-01 7.573514e-01 6.878555e-01 5.908157e-01 6.827454e-01
<GCONST> 1.340811e+02
<STATE> 4
<MEAN> 39
 -1.093072e+01 -1.116053e+01 -5.337870e+00 -1.187804e+00 -4.109414e+00 -8.965538e+00 -5.312727e+00 -5.858333e+00 -7.560965e+00 -6.321831e+00 -3.072077e+00 -1.532653e+00 3.836663e+01 7.046717e-01 -6.453823e-01 -5.084695e-01 3.505461e-02 3.463457e-01 2.696753e-01 -1.242838e-01 2.226060e-01 -2.617316e-01 1.927353e-01 3.306476e-01 -5.693762e-02 8.350196e-01 8.228336e-02 6.608096e-02 1.215879e-01 -1.186805e-01 -3.360983e-02 -7.642402e-02 -7.713717e-02 -6.644189e-02 -1.203882e-01 -1.016417e-02 -8.539464e-03 -2.693948e-02 4.651355e-02
<VARIANCE> 39
 8.253773e+01 1.214074e+02 3.206920e+01 2.194443e+01 3.329242e+01 8.731718e+01 5.365216e+01 4.671993e+01 3.905605e+01 5.899863e+01 4.807251e+01 4.629891e+01 1.613851e+02 5.223615e+00 1.126658e+01 2.911208e+00 2.487060e+00 2.176387e+00 7.095884e+00 6.016433e+00 3.420038e+00 4.803018e+00 4.471742e+00 3.928192e+00 3.264744e+00 1.369351e+01 7.734749e-01 1.816694e+00 6.073141e-01 4.668273e-01 3.128397e-01 1.293375e+00 8.287982e-01 5.380436e-01 9.008576e-01 7.834448e-01 8.006688e-01 5.488641e-01 1.989613e+00
<GCONST> 1.407176e+02
<TRANSP> 5
 0.000000e+00 1.000000e+00 0.000000e+00 0.000000e+00 0.000000e+00
 0.000000e+00 8.315309e-01 1.684691e-01 0.000000e+00 0.000000e+00
 0.000000e+00 0.000000e+00 7.452012e-01 2.547988e-01 0.000000e+00
 0.000000e+00 0.000000e+00 0.000000e+00 8.078921e-01 1.921079e-01
 0.000000e+00 0.000000e+00 0.000000e+00 0.000000e+00 0.000000e+00
<ENDHMM>
~h "ax"
<BEGINHMM>
<NUMSTATES> 5
<STATE> 2
<MEAN> 39
 -7.036314e+00 -5.693594e+00 -4.457629e+00 -6.002003e+00 -6.241570e+00 -8.976748e+00 -1.019967e+01 -8.082741e+00 -7.972945e+00 -8.176020e+00 -6.718025e+00 -3.218803e+00 4.499150e+01 -6.834307e-02 1.570593e-01 -6.696720e-02 1.535443e-01 -1.408566e-01 -3.520937e-01 -3.880520e-02 -6.738088e-02 -7.781116e-02 -3.217234e-01 -3.740095e-02 3.092694e-02 -5.360470e-02 -3.859724e-02 9.147132e-03 6.771751e-02 -7.741209e-02 -2.752980e-02 -3.901262e-02 -1.346233e-02 -1.947466e-02 1.170300e-02 8.120937e-02 4.977793e-02 6.342614e-02 6.855584e-02
<VARIANCE> 39
 9.758450e+01 1.168915e+02 7.475964e+01 7.416576e+01 7.103433e+01 8.685060e+01 7.090801e+01 8.197272e+01 6.570877e+01 5.087806e+01 5.073809e+01 4.118080e+01 1.207931e+02 4.939877e+00 4.262717e+00 3.745097e+00 3.713451e+00 4.455572e+00 5.084165e+00 4.167435e+00 4.402856e+00 4.390653e+00 4.145978e+00 3.269110e+00 3.261980e+00 4.429896e+00 7.095312e-01 6.575037e-01 5.409297e-01 6.627036e-01 7.546763e-01 7.782003e-01 7.611663e-01 7.685240e-01 7.457516e-01 6.506543e-01 6.166688e-01 6.254941e-01 5.461873e-01
<GCONST> 1.409172e+02
<STATE> 3
<MEAN> 39
 -7.499321e+00 -5.239618e+00 -4.795874e+00 -5.917750e+00 -6.463313e+00 -9.537391e+00 -1.015272e+01 -8.168316e+00 -8.021738e+00 -8.498833e+00 -6.732505e+00 -3.115365e+00 4.492456e+01 -1.198901e-01 1.136632e-01 7.610058e-02 4.996112e-02 -1.094489e-01 -2.693235e-01 1.199147e-03 -2.721550e-02 8.871244e-03 -4.935498e-02 7.026837e-02 1.260694e-01 -2.602982e-02 -1.401838e-02 -4.772385e-02 5.216772e-02 -9.421574e-02 2.065926e-02 6.280881e-02 -9.310824e-03 1.250337e-02 6.327680e-02 1.377498e-01 2.684903e-02 2.872049e-02 7.327992e-02
<VARIANCE> 39
 9.839993e+01 1.233656e+02 7.945229e+01 7.465636e+01 6.905148e+01 9.266597e+01 6.614056e+01 8.336472e+01 6.484667e+01 5.234241e+01 5.093635e+01 4.026829e+01 1.230101e+02 5.000357e+00 5.048306e+00 4.337716e+00 4.902999e+00 4.865573e+00 5.464182e+00 4.633240e+00 4.151495e+00 4.059949e+00 3.959737e+00 3.582161e+00 3.405301e+00 4.116200e+00 7.957054e-01 6.873155e-01 5.668813e-01 7.618138e-01 8.638297e-01 8.779898e-01 8.282786e-01 8.033940e-01 7.735683e-01 7.483056e-01 6.606790e-01 6.285258e-01 6.174699e-01
<GCONST> 1.428983e+02
<STATE> 4
<MEAN> 39
 -8.450203e+00 -5.252369e+00 -5.029620e+00 -5.348649e+00 -6.198864e+00 -9.045186e+00 -9.540202e+00 -7.690847e+00 -7.107288e+00 -8.031109e+00 -6.243607e+00 -2.986565e+00 4.343597e+01 -9.968971e-02 -5.482361e-02 1.918925e-01 -1.207251e-01 -4.721273e-02 -3.497820e-02 -2.128724e-02 2.813272e-02 1.398792e-01 1.818829e-01 6.289461e-02 1.217161e-01 2.653877e-03 4.212081e-02 -5.063246e-02 1.091707e-02 -1.448540e-01 4.399001e-03 6.919536e-02 -5.277524e-02 -2.127044e-02 1.717867e-02 4.630018e-02 -1.336574e-02 2.765032e-03 1.439779e-01
<VARIANCE> 39
 9.847823e+01 1.202823e+02 7.755096e+01 7.318139e+01 6.587591e+01 1.001607e+02 6.194600e+01 7.494189e+01 6.049453e+01 5.029204e+01 4.515889e+01 3.921448e+01 1.357321e+02 3.856522e+00 4.913472e+00 3.944642e+00 5.323187e+00 4.263200e+00 5.182488e+00 4.246186e+00 4.037838e+00 3.761652e+00 3.798394e+00 3.760394e+00 3.288427e+00 3.812316e+00 6.255575e-01 6.111369e-01 5.447676e-01 8.118793e-01 8.354121e-01 8.778197e-01 8.068842e-01 7.371181e-01 7.252061e-01 7.692206e-01 6.508510e-01 5.926859e-01 7.084838e-01
<GCONST> 1.412965e+02
<TRANSP> 5
 0.000000e+00 1.000000e+00 0.000000e+00 0.000000e+00 0.000000e+00
 0.000000e+00 3.913528e-01 6.086473e-01 0.000000e+00 0.000000e+00
 0.000000e+00 0.000000e+00 3.991950e-01 6.008049e-01 0.000000e+00
 0.000000e+00 0.000000e+00 0.000000e+00 4.816557e-01 5.183442e-01
 0.000000e+00 0.000000e+00 0.000000e+00 0.000000e+00 0.000000e+00
<ENDHMM>
~h "ay"
<BEGINHMM>
<NUMSTATES> 5
<STATE> 2
<MEAN> 39
 -7.287143e+00 -1.304983e+01 -1.493349e+00 -9.211552e+00 -2.207253e+00 -5.351534e+00 -1.006603e+01 -6.653491e+00 -7.421807e+00 -5.396215e+00 -8.696074e+00 -9.011061e-01 4.905721e+01 -2.030265e-01 -1.500139e-01 -3.477293e-03 1.072866e-01 1.431539e-01 3.500628e-02 1.923539e-01 2.892105e-01 -1.218107e-01 -2.381262e-01 -2.429992e-01 -5.191501e-02 -2.852309e-01 2.076891e-02 1.685460e-01 -4.138300e-02 4.276421e-02 -1.212090e-01 -8.820907e-02 -1.921644e-02 -5.448905e-02 2.725405e-02 -8.502198e-02 1.227326e-01 -4.189983e-02 -1.028665e-01
<VARIANCE> 39
 5.238198e+01 1.510433e+02 4.998140e+01 6.904601e+01 8.273350e+01 5.386468e+01 4.622523e+01 6.205588e+01 4.556795e+01 4.967289e+01 6.807074e+01 3.727961e+01 2.294993e+02 1.673869e+00 2.166821e+00 2.052666e+00 2.295279e+00 2.579822e+00 2.739248e+00 2.575938e+00 2.681394e+00 3.045884e+00 2.569617e+00 2.354740e+00 2.064183e+00 1.678731e+00 2.783885e-01 3.129635e-01 2.968706e-01 4.836886e-01 4.000885e-01 3.680448e-01 4.879447e-01 4.784871e-01 5.503705e-01 4.875453e-01 4.883411e-01 3.533163e-01 3.034090e-01
<GCONST> 1.250292e+02
<STATE> 3
<MEAN> 39
 -7.380877e+00 -1.389341e+01 -1.537837e+00 -9.598222e+00 -2.117978e+00 -5.705842e+00 -9.985034e+00 -6.123015e+00 -7.860144e+00 -5.885233e+00 -9.171594e+00 -9.310130e-01 4.961408e+01 -6.020386e-02 1.202377e-01 -3.085435e-02 1.527656e-02 -1.580868e-01 -1.730610e-01 9.467067e-02 1.700527e-01 -1.102527e-01 -2.755020e-01 -3.857014e-02 -1.032606e-01 -2.970952e-01 4.741154e-02 1.083494e-01 -3.350445e-02 -5.580825e-02 -1.190824e-01 -6.176441e-02 -5.511330e-02 -8.697145e-02 6.994344e-03 -1.088312e-02 6.954914e-02 -2.012148e-02 5.840672e-03
<VARIANCE> 39
 5.170168e+01 1.492144e+02 4.731061e+01 6.326086e+01 7.716411e+01 4.920440e+01 4.482719e+01 7.210136e+01 4.684682e+01 5.054983e+01 6.512854e+01 4.205150e+01 2.345349e+02 2.025961e+00 1.740380e+00 1.973554e+00 2.430602e+00 2.708451e+00 2.487411e+00 2.462955e+00 2.729932e+00 2.748893e+00 2.520956e+00 2.389268e+00 2.082731e+00 1.613761e+00 2.486200e-01 2.509827e-01 2.637632e-01 4.515081e-01 3.527335e-01 3.844239e-01 4.622261e-01 5.123371e-01 4.927018e-01 4.336719e-01 4.468885e-01 3.942617e-01 2.593089e-01
<GCONST> 1.237882e+02
<STATE> 4
<MEAN> 39
 -9.038433e+00 -1.321672e+01 -1.856155e+00 -9.408026e+00 -2.136223e+00 -5.189099e+00 -8.675347e+00 -5.874330e+00 -7.749873e+00 -5.406168e+00 -8.003018e+00 -8.644283e-01 4.723766e+01 1.108574e-01 3.019418e-01 -6.199654e-02 -1.995304e-01 -4.390451e-01 -2.903618e-01 -4.389390e-02 -3.527512e-02 -1.005404e-01 -1.256880e-01 1.834665e-01 -9.741532e-02 -1.413080e-01 8.321983e-02 7.525720e-02 -1.815297e-02 -2.226690e-02 -7.591367e-02 -3.278955e-02 -7.974783e-02 -7.415064e-02 -8.818468e-03 -2.780529e-02 -1.702012e-02 -9.878012e-03 2.952363e-02
<VARIANCE> 39
 5.874014e+01 1.323219e+02 4.059246e+01 5.844853e+01 6.098034e+01 5.462260e+01 5.250460e+01 6.885139e+01 4.561006e+01 5.023252e+01 6.706316e+01 3.624717e+01 2.660380e+02 2.096288e+00 1.584614e+00 1.871406e+00 2.703560e+00 2.752962e+00 2.520599e+00 2.528966e+00 2.787334e+00 2.400628e+00 2.667940e+00 3.058563e+00 2.165646e+00 2.084302e+00 2.345963e-01 2.659486e-01 2.250572e-01 4.027538e-01 4.829213e-01 4.312110e-01 4.760413e-01 5.118143e-01 4.659802e-01 4.201645e-01 5.582483e-01 4.282153e-01 2.750780e-01
<GCONST> 1.245128e+02
<TRANSP> 5
 0.000000e+00 1.000000e+00 0.000000e+00 0.000000e+00 0.000000e+00
 0.000000e+00 4.662966e-01 5.337034e-01 0.000000e+00 0.000000e+00
 0.000000e+00 0.000000e+00 4.540708e-01 5.459291e-01 0.000000e+00
 0.000000e+00 0.000000e+00 0.000000e+00 6.405024e-01 3.594976e-01
 0.000000e+00 0.000000e+00 0.000000e+00 0.000000e+00 0.000000e+00
<ENDHMM>
~h "ch"
<BEGINHMM>
<NUMSTATES> 5
<STATE> 2
<MEAN> 39
 -6.504083e+00 1.603140e+00 2.869554e+00 -1.242957e+01 -8.320418e+00 -8.635955e+00 -1.412215e+01 -2.030794e+01 -1.301982e+01 -4.956340e+00 -1.014594e+01 -2.176009e+00 4.772912e+01 8.092801e-02 -2.707793e-01 4.611265e-01 -2.669124e-01 -1.591781e-01 -2.203472e-01 -1.841432e-01 -3.896421e-01 -5.432879e-01 2.887780e-01 -2.031850e-01 8.257928e-02 5.716380e-01 -3.566393e-02 -1.461709e-02 -2.373292e-02 4.010971e-02 8.598731e-02 8.557045e-02 7.614026e-02 1.092814e-01 3.538854e-02 -5.020170e-02 -1.398507e-02 -6.178625e-02 3.443721e-02
<VARIANCE> 39
 6.654765e+01 3.151211e+01 1.563429e+02 1.353277e+02 4.081187e+01 6.507565e+01 5.396257e+01 4.808054e+01 3.263317e+01 9.068275e+01 4.800806e+01 6.991168e+01 6.239657e+01 6.980885e+00 2.705809e+00 9.137799e+00 9.421601e+00 5.430857e+00 6.142611e+00 6.726511e+00 5.654236e+00 2.057536e+00 7.194550e+00 2.285976e+00 5.860264e+00 8.305670e+00 1.174488e+00 5.499753e-01 1.102138e+00 1.247877e+00 9.570107e-01 1.039652e+00 1.280341e+00 1.127897e+00 3.453305e-01 1.100630e+00 4.437983e-01 9.427974e-01 1.377560e+00
<GCONST> 1.459481e+02
<STATE> 3
<MEAN> 39
 -1.015639e+01 -3.143525e-02 7.319487e+00 -1.209165e+01 -9.116616e+00 -9.594998e+00 -1.265704e+01 -1.878970e+01 -1.461384e+01 -4.193137e+00 -1.157097e+01 -4.529458e+00 5.223410e+01 -6.177709e-01 4.337083e-01 3.436395e-01 -3.631014e-01 -6.397898e-02 -1.119671e-01 1.676678e-01 1.557867e-01 4.131141e-02 -3.626291e-02 -2.146461e-01 -3.826470e-01 5.110654e-01 -1.499244e-01 1.992958e-01 -2.028994e-01 1.433151e-01 -2.810072e-02 5.556201e-02 2.034868e-02 4.982175e-02 1.496258e-01 -6.390005e-02 9.450987e-02 -1.039498e-01 -1.772492e-01
<VARIANCE> 39
 5.918931e+01 7.725125e+01 9.548158e+01 9.828992e+01 3.873711e+01 3.192134e+01 3.678830e+01 4.304949e+01 2.583173e+01 1.068305e+02 4.779861e+01 5.733250e+01 7.623476e+01 6.088146e+00 6.751910e+00 6.368624e+00 8.173635e+00 5.845930e+00 3.714244e+00 3.956181e+00 3.829401e+00 2.382473e+00 7.944627e+00 3.545415e+00 6.257135e+00 7.925046e+00 1.232019e+00 1.143731e+00 8.639696e-01 1.226546e+00 1.309244e+00 9.299677e-01 7.785134e-01 7.213339e-01 4.068280e-01 1.287297e+00 6.312214e-01 1.099549e+00 1.146400e+00
<GCONST> 1.446317e+02
<STATE> 4
<MEAN> 39
 -1.152325e+01 -1.462947e+00 -9.266316e-01 -1.089345e+01 -7.983535e+00 -1.037604e+01 -1.130543e+01 -8.588860e+00 -8.172112e+00 -7.135229e+00 -8.864838e+00 -5.469214e+00 5.270516e+01 1.190203e-02 -1.445128e-01 -2.002629e-01 5.908747e-02 -2.054898e-02 5.667085e-02 6.250769e-02 1.650413e-01 1.134878e-01 -1.316359e-01 7.510431e-02 -2.882916e-03 1.261226e-02 2.731608e-02 -7.588013e-02 9.953033e-03 -1.205481e-02 4.059266e-02 2.514718e-02 1.381265e-02 4.496903e-03 -2.101725e-02 -3.753235e-03 -1.866633e-02 1.758944e-02 4.004198e-02
<VARIANCE> 39
 1.291181e+02 1.575034e+02 1.449278e+02 7.701672e+01 1.084782e+02 6.684116e+01 4.078399e+01 6.296583e+01 5.295181e+01 5.116365e+01 9.185103e+01 2.933060e+01 6.219093e+01 8.914206e+00 1.190497e+01 6.144433e+00 4.876714e+00 7.334597e+00 6.638906e+00 3.596278e+00 5.814150e+00 4.483728e+00 3.253053e+00 5.585698e+00 3.163289e+00 5.385902e+00 1.278646e+00 1.734476e+00 9.305610e-01 7.065359e-01 1.088422e+00 1.224364e+00 6.132525e-01 1.095764e+00 7.961419e-01 5.456032e-01 8.198844e-01 6.097719e-01 8.303157e-01
<GCONST> 1.483706e+02
<TRANSP> 5
 0.000000e+00 1.000000e+00 0.000000e+00 0.000000e+00 0.000000e+00
 0.000000e+00 9.462988e-01 5.370116e-02 0.000000e+00 0.000000e+00
 0.000000e+00 0.000000e+00 8.613206e-01 1.386794e-01 0.000000e+00
 0.000000e+00 0.000000e+00 0.000000e+00 9.825802e-01 1.741974e-02
 0.000000e+00 0.000000e+00 0.000000e+00 0.000000e+00 0.000000e+00
<ENDHMM>
~h "dh"
<BEGINHMM>
<NUMSTATES> 5
<STATE> 2
<MEAN> 39
 -7.498801e+00 -6.521049e+00 -5.352036e+00 -7.343215e+00 -5.114449e+00 -5.370317e+00 -9.055416e+00 -6.580713e+00 -6.599777e+00 -5.050094e+00 -5.682562e+00 -3.291215e+00 4.312748e+01 1.570756e-01 -1.216245e-01 -6.759505e-02 5.025142e-01 2.542256e-01 2.773614e-01 -9.219635e-02 9.544405e-02 -5.523035e-02 -1.141034e-01 -2.074267e-01 -5.513794e-02 -3.496197e-01 5.306025e-02 9.343492e-02 9.014873e-03 4.818616e-03 -1.530393e-01 -8.268383e-02 -3.851377e-03 -1.808593e-01 -8.252168e-02 -1.500293e-01 4.952311e-03 -5.668955e-03 -4.257171e-03
<VARIANCE> 39
 9.715980e+01 1.014923e+02 8.192083e+01 7.088356e+01 6.695163e+01 7.511304e+01 7.647681e+01 8.003398e+01 6.694232e+01 5.598148e+01 4.651204e+01 2.838283e+01 1.727551e+02 2.028023e+00 2.630610e+00 2.770030e+00 2.631196e+00 2.989632e+00 3.294379e+00 3.221061e+00 3.951696e+00 2.860495e+00 3.037872e+00 3.079523e+00 1.969283e+00 2.566860e+00 3.680992e-01 4.211040e-01 4.749881e-01 3.860046e-01 6.171223e-01 5.529549e-01 6.174322e-01 7.876612e-01 5.321398e-01 6.179233e-01 5.430480e-01 3.514232e-01 4.640302e-01
<GCONST> 1.318550e+02
<STATE> 3
<MEAN> 39
 -7.110460e+00 -6.543144e+00 -5.531106e+00 -6.306236e+00 -4.954490e+00 -5.048659e+00 -9.237470e+00 -7.088297e+00 -7.019268e+00 -5.637146e+00 -6.036430e+00 -3.257924e+00 4.248734e+01 1.710418e-01 -3.384029e-02 -9.911933e-03 3.909531e-01 -1.786148e-02 6.856285e-02 -3.875771e-02 -1.362611e-01 -1.816237e-01 -2.946288e-01 -1.313669e-01 -3.453162e-02 -2.763629e-01 1.574790e-02 7.022124e-02 5.291121e-02 -6.351382e-02 -1.528264e-01 -1.385684e-01 1.350148e-02 -1.344261e-01 -4.365343e-02 -1.224237e-01 3.116496e-02 -1.536541e-02 8.396028e-02
<VARIANCE> 39
 9.301637e+01 1.051659e+02 7.038091e+01 6.264756e+01 6.169915e+01 7.714874e+01 7.590034e+01 7.587865e+01 6.358933e+01 5.040170e+01 4.603751e+01 3.006756e+01 1.660165e+02 2.215256e+00 2.569668e+00 2.510545e+00 2.175222e+00 2.983351e+00 3.289703e+00 3.151834e+00 3.869679e+00 2.905812e+00 3.183591e+00 2.976460e+00 1.907660e+00 2.944649e+00 4.012141e-01 3.923814e-01 3.698059e-01 3.333121e-01 5.040522e-01 5.550605e-01 6.086967e-01 6.727223e-01 5.422571e-01 6.080543e-01 5.625278e-01 3.508977e-01 4.455333e-01
<GCONST> 1.304146e+02
<STATE> 4
<MEAN> 39
 -6.958946e+00 -7.157343e+00 -6.355282e+00 -4.366951e+00 -4.724115e+00 -4.411661e+00 -8.538277e+00 -6.250104e+00 -6.963222e+00 -6.506664e+00 -5.256608e+00 -3.229391e+00 4.043200e+01 -1.504295e-02 9.233189e-02 7.879449e-02 2.563961e-01 -1.040278e-01 -1.663652e-01 1.034631e-02 -1.027615e-01 -9.157050e-02 -3.321834e-01 -6.131586e-02 -2.877099e-02 -3.176409e-01 -1.273929e-02 4.431125e-02 8.085690e-02 -8.565865e-02 -6.991548e-02 -1.341202e-01 -2.387007e-02 -3.162123e-02 1.145044e-02 -5.920637e-02 1.261395e-02 9.405975e-03 1.206412e-01
<VARIANCE> 39
 9.425136e+01 8.690787e+01 6.549260e+01 5.368972e+01 5.415961e+01 8.379057e+01 6.772694e+01 6.544413e+01 5.141650e+01 4.338639e+01 4.029291e+01 2.911697e+01 1.490740e+02 2.224383e+00 2.087159e+00 1.998899e+00 2.024430e+00 2.732338e+00 3.642395e+00 2.887478e+00 3.653023e+00 2.875903e+00 3.334845e+00 2.837550e+00 1.839097e+00 2.541394e+00 2.839153e-01 3.453131e-01 2.955866e-01 3.840020e-01 4.380324e-01 5.023636e-01 5.042920e-01 5.665357e-01 5.183089e-01 5.223708e-01 5.917182e-01 3.502840e-01 3.736528e-01
<GCONST> 1.267550e+02
<TRANSP> 5
 0.000000e+00 1.000000e+00 0.000000e+00 0.000000e+00 0.000000e+00
 0.000000e+00 3.881112e-01 6.118889e-01 0.000000e+00 0.000000e+00
 0.000000e+00 0.000000e+00 3.903398e-01 6.096601e-01 0.000000e+00
 0.000000e+00 0.000000e+00 0.000000e+00 6.138759e-01 3.861240e-01
 0.000000e+00 0.000000e+00 0.000000e+00 0.000000e+00 0.000000e+00
<ENDHMM>
~h "ea"
<BEGINHMM>
<NUMSTATES> 5
<STATE> 2
<MEAN> 39
 -9.796791e+00 -9.063493e+00 3.592768e-01 -1.031064e+01 -6.506438e+00 -9.339722e+00 -8.744911e+00 -8.312715e+00 -1.009959e+01 -6.301091e+00 -6.162735e+00 -2.992030e+00 4.618623e+01 4.848961e-01 -1.405701e+00 1.105695e+00 -2.173952e+00 -4.587466e-01 -8.918344e-01 5.080424e-02 1.978814e-01 -5.006007e-01 1.627823e-01 -7.432985e-01 1.406707e-01 3.159289e+00 -1.774656e-02 -2.496558e-01 3.607999e-02 -1.515155e-01 4.271545e-02 1.199502e-01 2.388756e-01 1.118573e-01 4.199487e-02 5.422954e-02 -1.907995e-01 -7.539839e-02 3.190085e-02
<VARIANCE> 39
 4.235765e+01 1.085505e+02 7.723544e+01 1.299275e+02 6.391972e+01 5.485442e+01 4.693299e+01 8.127921e+01 3.308563e+01 4.401240e+01 4.921711e+01 2.132209e+01 2.576223e+02 2.573978e+00 5.190715e+00 6.316759e+00 1.238069e+01 4.605268e+00 3.860931e+00 2.680058e+00 6.128823e+00 4.347081e+00 3.553346e+00 4.830459e+00 2.197182e+00 1.787491e+01 4.434303e-01 8.834087e-01 1.272750e+00 2.213457e+00 9.673502e-01 7.503483e-01 5.462608e-01 1.227541e+00 6.219719e-01 6.015088e-01 7.709391e-01 3.895231e-01 3.261079e+00
<GCONST> 1.445103e+02
<STATE> 3
<MEAN> 39
 -7.111733e+00 -1.845452e+01 2.709757e+00 -1.548244e+01 -5.416639e+00 -8.704600e+00 -6.170135e+00 -4.450492e+00 -1.165208e+01 -6.050241e+00 -9.209486e+00 -3.525588e+00 5.586272e+01 2.314644e-01 -8.940549e-01 1.102436e-01 1.540665e-01 9.620184e-02 -9.778155e-02 5.504099e-01 2.433817e-01 6.513465e-02 -8.042236e-02 -3.701340e-01 -1.623545e-01 2.765279e-01 7.183683e-02 2.669372e-01 -2.201902e-01 4.197308e-01 -1.471695e-01 -8.471344e-02 -2.001820e-02 -4.399922e-02 9.198295e-02 -9.404667e-03 2.015736e-01 2.065128e-02 -4.424516e-01
<VARIANCE> 39
 3.417593e+01 6.070824e+01 9.497212e+01 1.140616e+02 7.722113e+01 6.337801e+01 3.992886e+01 3.256950e+01 3.416850e+01 3.218431e+01 6.276292e+01 2.513935e+01 1.637069e+02 8.119898e-01 3.278389e+00 2.516798e+00 3.724833e+00 2.474124e+00 2.481528e+00 1.746205e+00 3.396760e+00 2.406927e+00 2.419378e+00 2.703919e+00 1.740006e+00 2.042489e+00 1.154054e-01 3.583291e-01 4.722344e-01 8.391172e-01 4.085391e-01 5.383083e-01 3.792696e-01 6.194721e-01 4.160348e-01 4.415466e-01 4.963080e-01 3.426557e-01 5.201070e-01
<GCONST> 1.233789e+02
<STATE> 4
<MEAN> 39
 -2.530979e+00 -2.092304e+01 -5.870547e-01 -1.043074e+01 -8.573273e+00 -1.209838e+01 -4.077665e+00 -2.454926e+00 -1.200552e+01 -1.018576e+01 -9.980934e+00 -4.032606e+00 5.561538e+01 3.589810e-02 3.581186e-01 -3.800398e-01 4.401205e-01 -1.066722e-01 1.031904e-01 -3.074341e-03 -1.526742e-01 1.093588e-01 -2.092573e-01 5.985881e-02 4.509894e-02 -5.945424e-01 -1.341506e-02 6.806189e-02 -2.037710e-02 -2.345909e-02 1.381951e-02 1.828435e-02 -3.728233e-02 -7.621712e-03 4.812359e-02 6.024260e-02 3.215784e-02 3.338880e-02 -4.228150e-02
<VARIANCE> 39
 4.273988e+01 8.755197e+01 9.119302e+01 9.444346e+01 7.336681e+01 6.364836e+01 2.416326e+01 6.183598e+01 6.645828e+01 3.918121e+01 3.908652e+01 2.617489e+01 1.125942e+02 1.790116e+00 2.572266e+00 2.816433e+00 4.200006e+00 2.947271e+00 2.907982e+00 1.936143e+00 3.946543e+00 3.065412e+00 2.508206e+00 2.594303e+00 2.487265e+00 1.205976e+00 1.980607e-01 2.921028e-01 3.994218e-01 6.247866e-01 5.097049e-01 3.784485e-01 3.959950e-01 6.333477e-01 6.089737e-01 4.197241e-01 4.721963e-01 4.892417e-01 1.198000e-01
<GCONST> 1.242959e+02
<TRANSP> 5
 0.000000e+00 1.000000e+00 0.000000e+00 0.000000e+00 0.000000e+00
 0.000000e+00 6.832289e-01 3.167710e-01 0.000000e+00 0.000000e+00
 0.000000e+00 0.000000e+00 5.065644e-01 4.934355e-01 0.000000e+00
 0.000000e+00 0.000000e+00 0.000000e+00 9.155038e-01 8.449617e-02
 0.000000e+00 0.000000e+00 0.000000e+00 0.000000e+00 0.000000e+00
<ENDHMM>
~h "eh"
<BEGINHMM>
<NUMSTATES> 5
<STATE> 2
<MEAN> 39
 -6.625724e+00 -6.597589e+00 -4.358570e+00 -1.017470e+01 -6.909287e+00 -7.699726e+00 -1.139538e+01 -8.226526e+00 -8.021667e+00 -7.307024e+00 -7.727610e+00 -4.511815e+00 4.847002e+01 7.422150e-01 -7.361690e-01 3.570015e-01 -8.535760e-01 -1.680030e-01 -4.344392e-01 -5.539888e-01 -1.490629e-01 -4.776804e-01 -2.905760e-01 -4.139213e-01 4.479900e-02 9.583570e-01 -1.720924e-02 -2.392153e-02 1.390686e-01 -9.440572e-02 -9.264304e-02 -3.909549e-02 -1.245115e-02 2.206601e-02 -3.774283e-02 2.002123e-02 -8.517256e-02 9.921405e-02 6.332801e-02
<VARIANCE> 39
 7.395621e+01 1.135297e+02 8.277220e+01 9.185541e+01 6.764479e+01 5.662600e+01 8.112722e+01 6.950564e+01 7.385696e+01 7.852717e+01 7.062505e+01 4.827058e+01 1.117737e+02 8.079431e+00 8.024160e+00 7.287113e+00 9.324725e+00 6.385768e+00 6.230556e+00 5.422097e+00 5.470934e+00 4.948937e+00 4.160686e+00 7.192897e+00 4.945396e+00 1.111716e+01 9.909751e-01 1.088644e+00 1.138184e+00 1.426429e+00 1.057497e+00 1.038971e+00 8.180988e-01 8.034492e-01 7.555851e-01 5.859837e-01 1.170022e+00 1.041577e+00 1.363466e+00
<GCONST> 1.524505e+02
<STATE> 3
<MEAN> 39
 -4.969673e+00 -8.344855e+00 -1.979956e+00 -1.249467e+01 -8.186153e+00 -8.271036e+00 -1.171375e+01 -7.580324e+00 -1.000215e+01 -7.891618e+00 -9.445824e+00 -4.011147e+00 5.045119e+01 3.851918e-01 -4.151132e-01 4.756539e-01 -3.550410e-01 -1.662694e-01 -1.785090e-01 -4.478106e-02 -1.319047e-01 -3.987237e-01 -1.429236e-01 -2.396845e-01 8.469974e-02 4.533529e-01 -7.805742e-02 8.478397e-02 -2.246408e-02 1.411439e-01 6.806608e-02 6.219511e-02 9.336587e-02 1.376773e-02 6.558973e-02 5.601920e-02 2.416119e-02 2.524461e-03 -1.470373e-01
<VARIANCE> 39
 5.635905e+01 1.211676e+02 7.070625e+01 1.014248e+02 6.957204e+01 5.660594e+01 6.116470e+01 7.438298e+01 7.086126e+01 8.509665e+01 6.567278e+01 4.873101e+01 1.117629e+02 4.827796e+00 8.263455e+00 5.545289e+00 6.358626e+00 4.580713e+00 5.387433e+00 4.905861e+00 5.407552e+00 4.425839e+00 4.618263e+00 5.898245e+00 5.283310e+00 9.782003e+00 8.218554e-01 1.108914e+00 9.373613e-01 9.437364e-01 8.269590e-01 8.267944e-01 7.697070e-01 8.304197e-01 7.558162e-01 7.254570e-01 1.126253e+00 1.020097e+00 1.241302e+00
<GCONST> 1.487584e+02
<STATE> 4
<MEAN> 39
 -5.085514e+00 -6.021920e+00 -2.644293e-01 -1.216019e+01 -8.967949e+00 -8.939281e+00 -1.215152e+01 -9.706308e+00 -9.261961e+00 -5.962412e+00 -9.258398e+00 -5.175235e+00 4.951453e+01 -3.321404e-02 -5.985151e-02 1.221644e-01 -5.664675e-02 1.145979e-01 -7.819960e-02 -9.723648e-02 -1.236610e-01 7.506104e-02 2.149642e-01 9.220873e-02 3.576631e-02 1.881363e-01 -2.678268e-02 6.584644e-03 -3.116160e-02 1.772820e-02 3.261963e-02 5.182076e-02 3.412074e-03 2.945963e-02 -1.621269e-02 3.870888e-02 1.001425e-02 3.906603e-03 1.083380e-03
<VARIANCE> 39
 6.413409e+01 1.243743e+02 6.996310e+01 9.771776e+01 7.525378e+01 5.575523e+01 7.797494e+01 7.519758e+01 6.341785e+01 8.663366e+01 6.202000e+01 5.377172e+01 1.025869e+02 5.601721e+00 7.298071e+00 5.684221e+00 6.992440e+00 4.630547e+00 4.480721e+00 6.448765e+00 5.370888e+00 3.808162e+00 5.189620e+00 5.378794e+00 5.300455e+00 6.847535e+00 8.383313e-01 1.024661e+00 9.486676e-01 1.164781e+00 8.637767e-01 7.515510e-01 1.109058e+00 9.034113e-01 6.689203e-01 9.126378e-01 1.030386e+00 1.012716e+00 9.933063e-01
<GCONST> 1.491528e+02
<TRANSP> 5
 0.000000e+00 1.000000e+00 0.000000e+00 0.000000e+00 0.000000e+00
 0.000000e+00 6.547250e-01 3.452749e-01 0.000000e+00 0.000000e+00
 0.000000e+00 0.000000e+00 6.777735e-01 3.222265e-01 0.000000e+00
 0.000000e+00 0.000000e+00 0.000000e+00 8.941530e-01 1.058470e-01
 0.000000e+00 0.000000e+00 0.000000e+00 0.000000e+00 0.000000e+00
<ENDHMM>
~h "er"
<BEGINHMM>
<NUMSTATES> 5
<STATE> 2
<MEAN> 39
 -1.168772e+01 -5.384255e+00 -9.168909e+00 -3.572877e+00 -5.792699e+00 -1.142539e+01 -6.030547e+00 -4.516685e+00 -7.718322e-01 -5.345081e+00 -4.578424e+00 -2.393431e+00 4.297650e+01 -5.759924e-01 -1.645276e-01 6.295215e-01 -1.116558e-02 2.344293e-01 4.616010e-01 4.624274e-01 4.929175e-01 2.374700e-01 2.986483e-01 5.755153e-02 3.781204e-01 -4.837343e-01 3.286311e-03 4.721082e-02 1.041079e-01 -9.028408e-02 -3.772283e-02 7.144011e-02 -4.387273e-02 1.112246e-01 -7.994419e-02 1.203791e-02 8.056332e-02 5.233569e-02 -6.541245e-02
<VARIANCE> 39
